%YAML:1.0
my_svm: !!opencv-ml-svm
   svm_type: C_SVC
   kernel: { type:LINEAR }
   C: 1.0000000000000000e-02
   term_criteria: { epsilon:2.2204460492503131e-16, iterations:2000 }
   var_all: 4356
   var_count: 4356
   class_count: 3
   class_labels: !!opencv-matrix
      rows: 1
      cols: 3
      dt: i
      data: [ -1, 0, 1 ]
   sv_total: 3
   support_vectors:
      - [ 3.52641311e-03, 2.38588336e-03, 1.64686202e-03, 4.17683832e-03,
          4.38111369e-03, 1.84042542e-03, 1.43425202e-03, 1.80016144e-03,
          3.82652180e-03, 3.71491001e-03, 2.96441210e-03, 2.97858426e-03,
          5.56071056e-03, 6.24353578e-03, 3.16680362e-03, 1.94980123e-03,
          1.85143354e-03, 3.25560151e-03, 5.32217324e-03, 2.76313815e-03,
          1.86259090e-03, 4.37737023e-03, 4.57093352e-03, 2.52109603e-03,
          2.34703417e-03, 2.72694649e-03, 4.62319423e-03, 5.18407160e-03,
          3.19788069e-03, 3.18955956e-03, 5.41560585e-03, 6.22909702e-03,
          3.44765326e-03, 2.39878148e-03, 2.84039159e-03, 4.04520566e-03,
          3.60367354e-03, 2.79954565e-03, 2.46866536e-03, 4.71686432e-03,
          5.88264782e-03, 2.82414723e-03, 1.01610599e-03, 1.03840034e-03,
          2.25698482e-03, 4.20196401e-03, 3.84939671e-03, 3.28262988e-03,
          4.01772745e-03, 5.87691600e-03, 3.44832544e-03, 1.39744766e-03,
          1.00844819e-03, 2.77552847e-03, 5.02438936e-03, 3.58760124e-03,
          2.54662754e-03, 4.79333475e-03, 5.59009565e-03, 3.21661728e-03,
          1.19476032e-03, 1.39701436e-03, 4.10495000e-03, 5.84627967e-03,
          4.54000197e-03, 3.44330701e-03, 4.23801178e-03, 5.33039123e-03,
          3.23476619e-03, 1.61576166e-03, 1.90576620e-03, 5.08574583e-03,
          3.65376915e-03, 3.09974258e-03, 3.10364575e-03, 3.46113439e-03,
          6.03176979e-03, 2.73933006e-03, 9.42677958e-04, 8.68316449e-04,
          2.24479684e-03, 3.77122872e-03, 2.84045096e-03, 3.36615439e-03,
          4.86042304e-03, 1.69665031e-02, 4.98278579e-03, 2.11165845e-03,
          1.60141475e-03, 3.08889407e-03, 5.17346989e-03, 4.17583110e-03,
          3.25789326e-03, 3.38812894e-03, 4.98570781e-03, 3.30046378e-03,
          1.25444261e-03, 1.75119936e-03, 4.31666337e-03, 5.01360418e-03,
          4.25124867e-03, 3.89851374e-03, 5.49787702e-03, 1.21976826e-02,
          4.83818585e-03, 1.82116323e-03, 3.02772783e-03, 4.48368303e-03,
          3.84795130e-03, 2.51669972e-03, 3.59682972e-03, 3.89277539e-03,
          9.93166491e-03, 2.37409002e-03, 2.31083343e-03, 1.69438007e-03,
          3.45147192e-03, 5.18944440e-03, 3.46150273e-03, 3.87780368e-03,
          5.10327099e-03, 1.25645753e-02, 3.97969736e-03, 4.20522876e-03,
          3.24439746e-03, 4.91373427e-03, 5.81890158e-03, 3.62669001e-03,
          4.53907391e-03, 4.75087250e-03, 8.39400105e-03, 2.62463116e-03,
          2.00995849e-03, 2.67925207e-03, 5.24901412e-03, 7.04808626e-03,
          4.70407307e-03, 4.50769719e-03, 5.05960733e-03, 1.09276557e-02,
          5.85407577e-03, 4.10373649e-03, 3.69442790e-03, 6.58998452e-03,
          3.92050669e-03, 1.71040324e-03, 1.13447767e-03, 1.90124870e-03,
          1.09276054e-02, 2.64452375e-03, 1.63845252e-03, 2.56878999e-03,
          5.02971280e-03, 4.78317263e-03, 1.96584337e-03, 1.33441784e-03,
          3.65316798e-03, 1.06526641e-02, 5.23940660e-03, 1.83231011e-03,
          2.70566437e-03, 5.74841490e-03, 6.22703647e-03, 3.16843903e-03,
          1.93240226e-03, 1.99823827e-03, 8.71304329e-03, 3.99589632e-03,
          1.58240728e-03, 2.85363966e-03, 6.26493897e-03, 5.88464737e-03,
          3.64266988e-03, 2.46865721e-03, 4.47384175e-03, 1.09411450e-02,
          7.50885857e-03, 2.85888324e-03, 3.20185930e-03, 6.38885051e-03,
          3.69571336e-03, 1.63108110e-03, 1.09283533e-03, 2.36887485e-03,
          8.82643554e-03, 5.60910348e-03, 1.69123360e-03, 1.82057498e-03,
          4.19927435e-03, 5.09290816e-03, 1.93448947e-03, 1.54899224e-03,
          2.93343840e-03, 8.78163893e-03, 5.06145041e-03, 2.27788603e-03,
          1.62038440e-03, 5.03943628e-03, 5.34769706e-03, 2.41149683e-03,
          1.56693324e-03, 3.67467478e-03, 8.55360180e-03, 7.03864405e-03,
          3.12544010e-03, 3.15604080e-03, 5.34756575e-03, 5.92685631e-03,
          2.08901102e-03, 1.80086168e-03, 5.28980186e-03, 7.46107707e-03,
          7.26028346e-03, 4.84449277e-03, 3.68650188e-03, 6.14542328e-03,
          5.10821864e-03, 1.55683223e-03, 1.15367689e-03, 3.15682869e-03,
          9.08663031e-03, 5.29189268e-03, 3.01326998e-03, 1.40931259e-03,
          4.56713187e-03, 5.78115694e-03, 2.11878098e-03, 1.53224997e-03,
          3.00414232e-03, 1.34714870e-02, 3.93766537e-03, 3.37276654e-03,
          1.91597280e-03, 5.37570799e-03, 6.04625698e-03, 1.67299726e-03,
          1.59262982e-03, 4.98266565e-03, 8.73457734e-03, 7.16805458e-03,
          5.83314057e-03, 2.90728500e-03, 5.78658935e-03, 6.07566955e-03,
          2.44022673e-03, 2.86436663e-03, 3.72130889e-03, 9.84333269e-03,
          5.96361002e-03, 5.09807467e-03, 2.51763477e-03, 5.84920077e-03,
          6.00395259e-03, 2.24372698e-03, 2.96655856e-03, 3.72073264e-03,
          1.25999078e-02, 4.31147683e-03, 4.41282010e-03, 2.21395097e-03,
          5.94405970e-03, 5.96146146e-03, 2.66022771e-03, 2.05013924e-03,
          3.42570129e-03, 1.09789521e-02, 3.95379588e-03, 3.31536680e-03,
          2.50231498e-03, 6.16855035e-03, 6.55675959e-03, 2.71965028e-03,
          4.76251356e-03, 4.71716188e-03, 1.10924020e-02, 5.68929361e-03,
          5.38749574e-03, 2.84350617e-03, 6.85439305e-03, 7.14126136e-03,
          3.10550118e-03, 2.93939351e-03, 3.28882411e-03, 9.46859457e-03,
          3.96653684e-03, 3.45832598e-03, 3.70359933e-03, 7.29025761e-03,
          4.17263620e-03, 2.23365473e-03, 1.03153160e-03, 2.20759329e-03,
          1.28164748e-02, 3.70295090e-03, 2.22394639e-03, 2.22288421e-03,
          4.34486521e-03, 4.99123894e-03, 2.63840938e-03, 1.70667912e-03,
          2.64253304e-03, 7.22285407e-03, 3.59882740e-03, 2.80312728e-03,
          3.86655657e-03, 4.80759377e-03, 4.92232153e-03, 2.44786800e-03,
          1.47506304e-03, 2.65738205e-03, 1.22739598e-02, 3.99184786e-03,
          2.76574399e-03, 3.43576423e-03, 5.68134151e-03, 5.56473713e-03,
          2.29556952e-03, 1.93443429e-03, 2.90503213e-03, 6.25188882e-03,
          4.21959534e-03, 2.50847917e-03, 5.02471114e-03, 6.20575482e-03,
          4.11039498e-03, 1.87655725e-03, 2.22796458e-03, 3.08149890e-03,
          6.01359643e-03, 2.76050298e-03, 2.54726573e-03, 3.12966714e-03,
          4.20737453e-03, 5.47815673e-03, 1.69552874e-03, 2.69024679e-03,
          4.00619721e-03, 6.26987964e-03, 2.51244265e-03, 4.07693349e-03,
          3.87025904e-03, 5.35335997e-03, 5.02336863e-03, 2.33983039e-03,
          2.43087206e-03, 3.51831666e-03, 5.86112216e-03, 3.28410859e-03,
          2.28094310e-03, 3.95841291e-03, 5.04166307e-03, 6.02111500e-03,
          2.76373723e-03, 2.96825683e-03, 4.57284926e-03, 5.55079803e-03,
          3.76826269e-03, 3.43895750e-03, 4.31171479e-03, 5.74428961e-03,
          5.24815684e-03, 2.29849247e-03, 2.83905398e-03, 3.58893792e-03,
          5.35762450e-03, 2.20944732e-03, 2.99061229e-03, 2.76240660e-03,
          4.32154490e-03, 5.45690069e-03, 3.24487360e-03, 2.91832816e-03,
          2.49242038e-03, 5.52380038e-03, 2.84200348e-03, 2.84207216e-03,
          2.70830560e-03, 4.72289696e-03, 6.03414979e-03, 3.24806734e-03,
          2.85357609e-03, 3.47433379e-03, 5.03903301e-03, 4.15892061e-03,
          3.40392860e-03, 3.33152898e-03, 5.42131485e-03, 6.38016593e-03,
          3.91033571e-03, 2.75869458e-03, 2.66920147e-03, 5.24209999e-03,
          4.28095693e-03, 3.41689237e-03, 3.06968577e-03, 6.16711238e-03,
          3.93772218e-03, 1.97197939e-03, 1.50340376e-03, 3.73455533e-03,
          4.06119926e-03, 2.51507526e-03, 2.04482884e-03, 1.74143096e-03,
          3.17884493e-03, 3.94865172e-03, 2.28433078e-03, 2.77249166e-03,
          4.51906584e-03, 6.36841217e-03, 3.55934328e-03, 2.38617649e-03,
          2.01563374e-03, 3.23767914e-03, 4.69759200e-03, 3.59344762e-03,
          3.07970308e-03, 3.67365475e-03, 5.09717921e-03, 3.49905528e-03,
          2.82717799e-03, 2.55588698e-03, 3.70273017e-03, 3.82432016e-03,
          3.55164590e-03, 3.34639009e-03, 5.85687021e-03, 6.70297910e-03,
          4.94627096e-03, 3.10839619e-03, 3.17938346e-03, 4.17721458e-03,
          3.30314133e-03, 2.08804291e-03, 2.65729427e-03, 4.44106571e-03,
          5.44876698e-03, 2.69749411e-03, 1.13897445e-03, 1.49323326e-03,
          3.17229144e-03, 4.00840351e-03, 3.68636148e-03, 3.22231278e-03,
          3.99000943e-03, 5.05448086e-03, 3.01010674e-03, 1.34646392e-03,
          1.75172556e-03, 3.68562224e-03, 3.33355227e-03, 2.50210497e-03,
          3.34924529e-03, 5.70776733e-03, 5.86037664e-03, 4.53612162e-03,
          2.66006333e-03, 2.80497293e-03, 3.34831793e-03, 3.54882935e-03,
          3.18100001e-03, 3.39461630e-03, 4.83884290e-03, 5.52432472e-03,
          5.05212555e-03, 3.05020483e-03, 2.94978591e-03, 3.50399455e-03,
          3.69442464e-03, 3.50588607e-03, 2.51155579e-03, 3.15700355e-03,
          4.82713711e-03, 2.42993841e-03, 1.24436955e-03, 1.62790238e-03,
          3.14533920e-03, 3.72869195e-03, 3.68404109e-03, 3.15283891e-03,
          4.44500614e-03, 1.18601620e-02, 2.99035921e-03, 1.30845117e-03,
          2.63496349e-03, 3.85486172e-03, 3.95321427e-03, 3.11373919e-03,
          3.18585010e-03, 3.99515685e-03, 6.39213063e-03, 3.50155705e-03,
          2.63604964e-03, 3.01445043e-03, 3.57596111e-03, 4.17456031e-03,
          3.64503404e-03, 3.52351787e-03, 4.40676650e-03, 1.50357280e-02,
          5.05592953e-03, 2.84614437e-03, 3.17139737e-03, 3.86691140e-03,
          4.19031642e-03, 2.75060977e-03, 3.74630676e-03, 2.55160732e-03,
          8.28224607e-03, 2.23126262e-03, 1.44404930e-03, 2.41052057e-03,
          4.37171478e-03, 5.82278194e-03, 4.01660427e-03, 3.99743393e-03,
          4.04058862e-03, 1.23158647e-02, 5.46743907e-03, 3.13266926e-03,
          3.09638190e-03, 5.80389751e-03, 4.62889066e-03, 4.04519215e-03,
          3.13555868e-03, 2.60999473e-03, 1.09046139e-02, 3.51174874e-03,
          3.09492368e-03, 3.19748116e-03, 4.18518530e-03, 7.14492798e-03,
          5.11829788e-03, 5.54517843e-03, 5.68087306e-03, 1.44828986e-02,
          5.52343484e-03, 3.79941822e-03, 3.70018464e-03, 6.08232338e-03,
          4.21447167e-03, 2.70107132e-03, 1.98754389e-03, 1.55484700e-03,
          8.53621121e-03, 4.30271868e-03, 1.38447853e-03, 1.42233982e-03,
          4.43744753e-03, 4.65267152e-03, 3.10813705e-03, 1.78729731e-03,
          3.73408687e-03, 1.01088267e-02, 7.04508228e-03, 2.90000252e-03,
          1.61831116e-03, 5.21242665e-03, 5.42955007e-03, 3.35270329e-03,
          2.72146217e-03, 2.79131159e-03, 1.19412728e-02, 4.49236995e-03,
          2.10217596e-03, 1.85787224e-03, 4.92797932e-03, 5.85934194e-03,
          3.24193062e-03, 2.15713913e-03, 4.59333742e-03, 1.00712171e-02,
          7.46754790e-03, 4.08041058e-03, 2.12318846e-03, 5.59866894e-03,
          4.02629795e-03, 2.07808823e-03, 9.49534355e-04, 2.74454360e-03,
          7.69120129e-03, 6.58808695e-03, 2.41542328e-03, 1.60345132e-03,
          4.19366034e-03, 4.42866702e-03, 1.99192995e-03, 1.41630752e-03,
          3.77057912e-03, 7.16972677e-03, 5.91888139e-03, 4.44899779e-03,
          2.65535153e-03, 4.82548028e-03, 5.19490847e-03, 3.21629550e-03,
          1.13410107e-03, 2.90665822e-03, 7.05558900e-03, 6.81435550e-03,
          3.59619642e-03, 1.90288702e-03, 5.74952550e-03, 6.07665535e-03,
          3.13722296e-03, 1.73484290e-03, 3.35686631e-03, 7.54154334e-03,
          7.66936364e-03, 5.38450852e-03, 3.49395163e-03, 5.79197332e-03,
          4.01272951e-03, 1.35681906e-03, 1.11461408e-03, 3.56141222e-03,
          6.76075136e-03, 6.26829965e-03, 5.09030884e-03, 2.41458812e-03,
          4.25865734e-03, 4.85211099e-03, 1.64024625e-03, 1.80259859e-03,
          2.92354962e-03, 6.65676454e-03, 4.38138796e-03, 3.74886021e-03,
          1.80834404e-03, 5.21408627e-03, 5.47079276e-03, 2.34549632e-03,
          1.18500681e-03, 3.08045931e-03, 8.05399287e-03, 8.27010442e-03,
          5.80508402e-03, 4.04097373e-03, 5.23831090e-03, 6.19189627e-03,
          2.49316567e-03, 1.46317133e-03, 3.16200289e-03, 9.87052917e-03,
          7.06773344e-03, 5.01596369e-03, 3.08230310e-03, 5.56924613e-03,
          5.13435947e-03, 1.89412781e-03, 2.99912295e-03, 3.79505637e-03,
          1.04626203e-02, 5.43857133e-03, 3.64103238e-03, 2.10457481e-03,
          5.64799365e-03, 6.48003351e-03, 2.33363779e-03, 1.89469324e-03,
          3.02884029e-03, 8.00135825e-03, 2.86601461e-03, 1.69176422e-03,
          2.67375517e-03, 7.51158362e-03, 5.76354330e-03, 2.38100532e-03,
          2.47239694e-03, 4.36168024e-03, 1.25266202e-02, 7.60621717e-03,
          4.46202932e-03, 2.91209086e-03, 6.06856262e-03, 4.18867450e-03,
          2.56747217e-03, 2.20782822e-03, 3.88303865e-03, 9.29836929e-03,
          3.42170685e-03, 2.01233523e-03, 3.33450316e-03, 5.76248858e-03,
          4.28489503e-03, 1.80785777e-03, 1.10707537e-03, 2.28015543e-03,
          9.39000305e-03, 2.50213570e-03, 1.70101644e-03, 2.16532894e-03,
          5.16128447e-03, 5.82533609e-03, 1.62835466e-03, 1.72445842e-03,
          2.49113003e-03, 5.88319125e-03, 3.42218275e-03, 1.52825424e-03,
          3.83957638e-03, 6.70290133e-03, 4.00200859e-03, 2.25571264e-03,
          2.18948512e-03, 3.47519247e-03, 1.26593737e-02, 2.79337890e-03,
          2.94124614e-03, 2.75735976e-03, 5.09980787e-03, 4.50585131e-03,
          2.06391769e-03, 2.21087039e-03, 3.04596801e-03, 5.75120421e-03,
          4.00280813e-03, 3.37701384e-03, 2.20246590e-03, 5.21479407e-03,
          4.58664028e-03, 1.80041790e-03, 1.94802065e-03, 2.69332714e-03,
          5.13091031e-03, 3.00249830e-03, 1.63987931e-03, 2.74834852e-03,
          4.31886595e-03, 6.77794870e-03, 2.45224009e-03, 1.98239810e-03,
          2.96129496e-03, 4.42256313e-03, 4.07877238e-03, 3.12070851e-03,
          3.53314751e-03, 5.88051509e-03, 4.71789716e-03, 2.17561680e-03,
          2.30815588e-03, 2.08151806e-03, 4.92682401e-03, 4.63147275e-03,
          3.41168256e-03, 2.76799011e-03, 4.62973770e-03, 5.07301139e-03,
          3.30642005e-03, 2.40145437e-03, 2.92684231e-03, 4.65493789e-03,
          5.23221819e-03, 3.57954344e-03, 4.04120702e-03, 4.32309788e-03,
          6.48152735e-03, 2.57255696e-03, 1.63133885e-03, 2.16253381e-03,
          3.96288512e-03, 3.98583384e-03, 3.04539106e-03, 2.62188609e-03,
          5.46409795e-03, 6.27602404e-03, 2.80713220e-03, 1.71753427e-03,
          2.60704174e-03, 4.40415414e-03, 3.36959655e-03, 2.63559842e-03,
          2.29800702e-03, 5.78878308e-03, 4.67227446e-03, 2.46544764e-03,
          1.98935671e-03, 3.29824467e-03, 4.30895900e-03, 4.41203918e-03,
          3.24747176e-03, 3.47594731e-03, 4.31708805e-03, 5.49914129e-03,
          2.46061687e-03, 1.91889121e-03, 3.94253666e-03, 4.58641723e-03,
          3.10594845e-03, 3.08005908e-03, 3.41746048e-03, 6.18632138e-03,
          4.01952630e-03, 2.77749379e-03, 2.17410945e-03, 1.84270379e-03,
          4.21499601e-03, 3.44756502e-03, 2.24000122e-03, 2.20658607e-03,
          3.44782649e-03, 3.65379243e-03, 2.86530214e-03, 2.74613244e-03,
          3.54152196e-03, 6.26251474e-03, 5.04853902e-03, 2.86829961e-03,
          3.23636178e-03, 4.18057526e-03, 7.54843419e-03, 2.93268193e-03,
          2.21916218e-03, 1.77666917e-03, 4.88344673e-03, 4.28116228e-03,
          3.39599024e-03, 2.96807522e-03, 7.34204473e-03, 7.00135995e-03,
          3.04226950e-03, 2.96873599e-03, 2.57025659e-03, 6.09438354e-03,
          6.02511084e-03, 4.44288366e-03, 4.80343821e-03, 7.70507753e-03,
          2.39109294e-03, 1.62989122e-03, 1.82198186e-03, 3.24403169e-03,
          5.58636943e-03, 4.08690702e-03, 3.08234850e-03, 3.52304149e-03,
          2.78815115e-03, 2.82344059e-03, 2.11784011e-03, 2.38275272e-03,
          2.93288147e-03, 4.39956645e-03, 4.34458116e-03, 3.62242479e-03,
          4.03799769e-03, 2.93976534e-03, 5.43600926e-03, 1.97737990e-03,
          2.15249183e-03, 2.24869326e-03, 4.63093119e-03, 4.25366685e-03,
          4.16783337e-03, 4.58159484e-03, 6.58416003e-03, 5.79688838e-03,
          1.99334789e-03, 2.64270720e-03, 3.16710398e-03, 4.26085712e-03,
          4.07126779e-03, 4.91183857e-03, 4.87166643e-03, 6.62299944e-03,
          3.03795119e-03, 1.88682345e-03, 1.61988928e-03, 1.83182571e-03,
          3.91491596e-03, 2.77535501e-03, 2.85348413e-03, 3.28020565e-03,
          2.89584836e-03, 4.44111787e-03, 2.87331641e-03, 2.01489381e-03,
          2.65157409e-03, 1.13165155e-02, 4.71705431e-03, 2.03798921e-03,
          2.21137097e-03, 3.19851516e-03, 6.47410005e-03, 1.74903660e-03,
          2.34765396e-03, 2.79488740e-03, 3.96928331e-03, 3.23535153e-03,
          3.57369194e-03, 4.49084258e-03, 6.68931380e-03, 7.62254791e-03,
          3.04434355e-03, 2.28314963e-03, 3.60855623e-03, 1.11396089e-02,
          5.84627409e-03, 3.33064538e-03, 3.78232100e-03, 7.66119640e-03,
          4.51863278e-03, 2.96362350e-03, 1.96649786e-03, 1.49266294e-03,
          8.20955634e-03, 3.93698039e-03, 2.69660424e-03, 1.77924416e-03,
          2.96604703e-03, 6.13034656e-03, 4.08599665e-03, 3.97941051e-03,
          3.53172747e-03, 1.34246852e-02, 4.26504388e-03, 3.41237686e-03,
          2.20874301e-03, 4.52168193e-03, 7.84331840e-03, 3.58827319e-03,
          2.61166878e-03, 2.23673019e-03, 8.97916872e-03, 5.31697460e-03,
          4.30393917e-03, 3.83979501e-03, 7.13214045e-03, 8.00028443e-03,
          5.05542895e-03, 4.54370398e-03, 4.90829535e-03, 1.31305140e-02,
          5.25912270e-03, 4.83953906e-03, 4.54555731e-03, 7.46971834e-03,
          4.02329955e-03, 2.56816018e-03, 1.68700819e-03, 2.11662496e-03,
          8.27336218e-03, 3.83311114e-03, 2.43140641e-03, 1.36393937e-03,
          3.97750922e-03, 4.62114718e-03, 2.84739956e-03, 1.90384232e-03,
          3.92436469e-03, 9.72604286e-03, 6.99537061e-03, 4.55526682e-03,
          1.73585920e-03, 4.60797129e-03, 8.43594037e-03, 2.92975083e-03,
          2.69585056e-03, 2.75771134e-03, 8.28704797e-03, 4.38198214e-03,
          3.01292795e-03, 3.14250565e-03, 7.69772893e-03, 9.09694564e-03,
          3.97642702e-03, 2.91036931e-03, 4.83937422e-03, 1.04271006e-02,
          7.83877447e-03, 4.78239497e-03, 2.59351125e-03, 9.44067910e-03,
          3.93392192e-03, 1.94074411e-03, 1.15878566e-03, 2.64599011e-03,
          7.13725761e-03, 5.89436106e-03, 3.17104300e-03, 1.18179421e-03,
          4.52911528e-03, 4.59614256e-03, 1.78551325e-03, 1.61758170e-03,
          3.08938418e-03, 7.41072325e-03, 7.43727200e-03, 4.30870475e-03,
          2.21854774e-03, 4.69506392e-03, 8.33096448e-03, 3.02354665e-03,
          2.28199037e-03, 2.98317219e-03, 7.98773207e-03, 6.11522002e-03,
          2.70801922e-03, 2.34496105e-03, 1.05715841e-02, 8.62582866e-03,
          2.72293948e-03, 3.04503739e-03, 5.20468783e-03, 8.70262925e-03,
          7.06715276e-03, 3.71778104e-03, 2.77662789e-03, 9.27617494e-03,
          3.83871049e-03, 1.45354087e-03, 1.40178576e-03, 3.22743156e-03,
          7.62843480e-03, 7.62469275e-03, 4.31950809e-03, 2.06564297e-03,
          4.46242373e-03, 4.17221664e-03, 2.08846247e-03, 1.19311723e-03,
          2.65727867e-03, 8.64766911e-03, 6.75150519e-03, 2.63477443e-03,
          1.95218867e-03, 4.97009791e-03, 8.36140011e-03, 2.10751710e-03,
          2.52694427e-03, 4.73984750e-03, 8.94662086e-03, 6.66177599e-03,
          3.68138030e-03, 2.16864166e-03, 9.20623727e-03, 8.37117434e-03,
          2.40364019e-03, 2.69624172e-03, 3.98728671e-03, 9.21506714e-03,
          6.68584043e-03, 3.15636350e-03, 3.31798010e-03, 9.47502442e-03,
          4.04771511e-03, 1.98023487e-03, 1.76324416e-03, 3.34993028e-03,
          1.21552022e-02, 6.62343018e-03, 2.79149483e-03, 2.61392654e-03,
          4.80655720e-03, 3.21104215e-03, 2.09439546e-03, 1.68221281e-03,
          3.27009731e-03, 8.23305734e-03, 2.39035650e-03, 1.68356206e-03,
          2.63575977e-03, 4.76408564e-03, 7.43248314e-03, 2.68418831e-03,
          3.30547453e-03, 5.37523860e-03, 1.35194845e-02, 7.20628956e-03,
          4.55784611e-03, 4.59504686e-03, 9.24958847e-03, 7.50618102e-03,
          2.12381291e-03, 1.72278075e-03, 3.91058950e-03, 8.79081339e-03,
          3.93520854e-03, 3.49997426e-03, 4.29777754e-03, 8.87019839e-03,
          2.82380939e-03, 1.66093383e-03, 1.94482983e-03, 3.66740464e-03,
          1.06434738e-02, 2.70135561e-03, 2.13584956e-03, 1.92544295e-03,
          4.06833459e-03, 3.47669423e-03, 1.56516244e-03, 1.97698665e-03,
          3.06790275e-03, 5.33206761e-03, 4.53524617e-03, 2.95316335e-03,
          2.02408223e-03, 4.15791385e-03, 6.58671651e-03, 1.53457117e-03,
          1.49844796e-03, 3.86563828e-03, 1.21326800e-02, 5.39495144e-03,
          3.48490407e-03, 3.39923752e-03, 8.04773159e-03, 9.82142147e-03,
          1.58548169e-03, 1.57428510e-03, 3.44663998e-03, 5.82259847e-03,
          5.00252983e-03, 2.90080952e-03, 2.61252373e-03, 1.03828851e-02,
          3.47418641e-03, 1.75332720e-03, 2.08827015e-03, 1.70410250e-03,
          4.62745037e-03, 4.56729997e-03, 3.18695139e-03, 2.25930917e-03,
          3.11547238e-03, 4.03721817e-03, 2.36695050e-03, 1.81388087e-03,
          2.06502061e-03, 4.82593104e-03, 4.10501799e-03, 3.85227799e-03,
          3.72910500e-03, 3.41831800e-03, 8.03669728e-03, 3.15827457e-03,
          2.09167274e-03, 2.62045022e-03, 5.62419649e-03, 4.66452586e-03,
          3.48570221e-03, 2.49942089e-03, 8.01697746e-03, 8.77476949e-03,
          5.59461862e-03, 2.96956906e-03, 2.26110779e-03, 5.31111332e-03,
          4.66752239e-03, 5.43853128e-03, 3.91464448e-03, 7.77472230e-03,
          3.61620216e-03, 1.82188267e-03, 1.63519871e-03, 2.49124807e-03,
          4.48991871e-03, 3.07625858e-03, 3.14313523e-03, 3.09792836e-03,
          3.74876172e-03, 4.50887997e-03, 2.21834169e-03, 1.91342749e-03,
          2.53311358e-03, 4.23812168e-03, 2.42308970e-03, 3.25720175e-03,
          3.32234614e-03, 5.26302308e-03, 7.97768310e-03, 3.66051588e-03,
          2.89547304e-03, 2.59284209e-03, 4.64650616e-03, 3.88788129e-03,
          4.95686987e-03, 5.25443209e-03, 8.18799250e-03, 9.32348706e-03,
          2.48231227e-03, 2.74314987e-03, 2.99877068e-03, 5.15960390e-03,
          3.44328885e-03, 3.95802781e-03, 4.95781843e-03, 9.79480334e-03,
          5.49936295e-03, 2.83526769e-03, 2.48964201e-03, 1.69835950e-03,
          3.50281433e-03, 3.33804800e-03, 3.27965338e-03, 2.46477243e-03,
          5.82421059e-03, 6.14354014e-03, 3.37898894e-03, 3.00023681e-03,
          2.81158695e-03, 4.47938824e-03, 4.85577201e-03, 4.27722232e-03,
          4.55308659e-03, 6.42162142e-03, 6.56071445e-03, 2.62564095e-03,
          2.80937273e-03, 2.65159248e-03, 4.48366068e-03, 3.74043896e-03,
          3.72756296e-03, 3.38588445e-03, 6.46276167e-03, 5.91673469e-03,
          3.25615448e-03, 3.39933438e-03, 4.52296529e-03, 5.92642371e-03,
          4.84825578e-03, 4.25115554e-03, 4.15775040e-03, 6.89855264e-03,
          4.02289396e-03, 1.37504947e-03, 1.80346076e-03, 1.79668458e-03,
          3.93491518e-03, 3.72261298e-03, 3.16282501e-03, 4.55418508e-03,
          5.27173281e-03, 4.23716800e-03, 1.51847396e-03, 2.19255616e-03,
          2.74930242e-03, 4.13657492e-03, 3.74531187e-03, 3.57685983e-03,
          4.91463067e-03, 6.34734845e-03, 4.37618932e-03, 2.06963322e-03,
          2.31888145e-03, 3.04369605e-03, 4.69754077e-03, 4.71229572e-03,
          3.21008358e-03, 3.86094535e-03, 5.70830982e-03, 4.63078590e-03,
          2.03922763e-03, 2.57743429e-03, 3.49660148e-03, 5.51160332e-03,
          4.98178136e-03, 4.82295128e-03, 5.30114071e-03, 7.55850505e-03,
          3.94079927e-03, 1.06500345e-03, 1.85685244e-03, 2.64237565e-03,
          3.62814218e-03, 2.51737121e-03, 2.55388580e-03, 3.79904662e-03,
          5.11639798e-03, 6.14582701e-03, 2.12773611e-03, 2.33556423e-03,
          4.18386701e-03, 1.02662146e-02, 5.27742086e-03, 2.60646129e-03,
          3.14576528e-03, 5.62965637e-03, 4.02769214e-03, 1.41658483e-03,
          2.37420457e-03, 3.60910804e-03, 5.05938893e-03, 3.42005747e-03,
          3.78120691e-03, 4.01694700e-03, 5.94909349e-03, 4.68019443e-03,
          2.12853728e-03, 3.06442706e-03, 5.26639540e-03, 1.01978853e-02,
          4.08075703e-03, 4.05489141e-03, 4.01016464e-03, 6.10848470e-03,
          4.99187084e-03, 2.18719267e-03, 2.16303044e-03, 2.54616491e-03,
          7.13853072e-03, 3.70353134e-03, 3.59075237e-03, 2.98024318e-03,
          4.95522330e-03, 5.77743258e-03, 4.22805222e-03, 3.66626307e-03,
          4.71923407e-03, 1.03818215e-02, 5.20313717e-03, 4.35055047e-03,
          3.44586745e-03, 5.83672104e-03, 5.18064480e-03, 2.41505518e-03,
          3.51498392e-03, 3.73264635e-03, 7.10074324e-03, 3.61100701e-03,
          4.82215825e-03, 3.52654443e-03, 5.62322931e-03, 7.14885350e-03,
          4.14055027e-03, 4.23519174e-03, 5.34357270e-03, 1.05373235e-02,
          7.43707502e-03, 7.41668325e-03, 5.88643784e-03, 7.46124843e-03,
          4.56775632e-03, 2.57807155e-03, 2.10310589e-03, 2.26925244e-03,
          7.44900107e-03, 3.37849814e-03, 2.43255752e-03, 2.38981354e-03,
          5.05357981e-03, 6.01123273e-03, 3.69325327e-03, 3.15821939e-03,
          4.97085787e-03, 1.07564060e-02, 7.51272636e-03, 2.98587419e-03,
          2.33243778e-03, 5.29588014e-03, 6.59906119e-03, 3.66005488e-03,
          2.53977696e-03, 3.15007847e-03, 8.41107778e-03, 4.78328299e-03,
          4.36946983e-03, 5.39419102e-03, 6.83241431e-03, 6.90962421e-03,
          3.90743883e-03, 3.51908477e-03, 6.06103987e-03, 1.09105911e-02,
          7.95449689e-03, 4.38975589e-03, 4.22653789e-03, 6.85406663e-03,
          5.36820479e-03, 2.87627336e-03, 2.11067288e-03, 3.31911421e-03,
          7.18884077e-03, 6.49483595e-03, 2.12068763e-03, 2.08591926e-03,
          5.13009727e-03, 6.16969541e-03, 2.56902725e-03, 3.32930498e-03,
          4.71309572e-03, 8.26805271e-03, 6.41468074e-03, 2.37582880e-03,
          2.20895535e-03, 6.68008812e-03, 7.25714257e-03, 3.21052643e-03,
          2.27889605e-03, 5.47765335e-03, 8.68464448e-03, 6.47170283e-03,
          3.81173333e-03, 4.23109205e-03, 7.47879501e-03, 7.48958997e-03,
          3.49283474e-03, 3.36598349e-03, 5.53078856e-03, 7.04116374e-03,
          6.13096822e-03, 2.85846018e-03, 5.34271961e-03, 8.49873386e-03,
          5.80041436e-03, 2.62919092e-03, 3.00885481e-03, 4.87095490e-03,
          8.23061448e-03, 6.65757153e-03, 2.27569090e-03, 2.31681159e-03,
          6.30827621e-03, 5.11191832e-03, 2.28953781e-03, 3.13953636e-03,
          4.20428580e-03, 9.09005757e-03, 4.73338179e-03, 2.33737729e-03,
          3.15260980e-03, 6.25264319e-03, 7.21680652e-03, 4.02020104e-03,
          4.20963857e-03, 5.79824438e-03, 8.40450265e-03, 5.89026557e-03,
          3.78227094e-03, 5.35231829e-03, 8.36992916e-03, 6.60432456e-03,
          3.56864254e-03, 4.33152961e-03, 4.76483721e-03, 1.00193052e-02,
          6.08712202e-03, 3.21621541e-03, 5.51262917e-03, 9.00161359e-03,
          5.22266421e-03, 1.80272385e-03, 3.59625230e-03, 5.51914331e-03,
          1.16013568e-02, 6.06528204e-03, 3.90587817e-03, 3.65281454e-03,
          6.15628110e-03, 5.36411628e-03, 1.79395510e-03, 1.69071532e-03,
          2.85167876e-03, 7.92115554e-03, 4.29854216e-03, 2.98555591e-03,
          3.67804361e-03, 6.25232793e-03, 7.55140046e-03, 2.60429550e-03,
          3.93144740e-03, 5.95520344e-03, 1.27985319e-02, 7.65623152e-03,
          4.51522972e-03, 6.25422318e-03, 8.99958983e-03, 6.67992979e-03,
          2.49855779e-03, 2.05581682e-03, 3.44893173e-03, 1.00606056e-02,
          5.34724304e-03, 4.32890654e-03, 5.36527298e-03, 7.93397892e-03,
          4.23052860e-03, 1.63091649e-03, 1.47194031e-03, 2.75502098e-03,
          1.18047073e-02, 5.72350575e-03, 3.22610373e-03, 2.95404694e-03,
          5.03389165e-03, 6.18468458e-03, 1.65692053e-03, 1.27395638e-03,
          2.61589931e-03, 5.24067646e-03, 4.97822138e-03, 3.25884647e-03,
          2.49328697e-03, 6.69337437e-03, 6.51951646e-03, 3.01119802e-03,
          2.21402757e-03, 2.08936236e-03, 1.19215054e-02, 5.31128421e-03,
          4.28341283e-03, 3.92657658e-03, 6.82675326e-03, 8.09429400e-03,
          4.59319446e-03, 3.02259671e-03, 3.05633550e-03, 6.53272867e-03,
          5.42639336e-03, 5.84499072e-03, 4.25725244e-03, 8.24956503e-03,
          4.56937356e-03, 1.64808973e-03, 1.50354451e-03, 2.87220022e-03,
          5.26388315e-03, 5.10989176e-03, 3.15245101e-03, 2.49513448e-03,
          5.04815485e-03, 5.04562818e-03, 3.00531066e-03, 3.26307933e-03,
          2.71587586e-03, 4.89996048e-03, 4.74205334e-03, 4.04506270e-03,
          3.48606566e-03, 4.93511138e-03, 7.56506668e-03, 3.26135987e-03,
          2.68665538e-03, 4.25407244e-03, 6.45126775e-03, 5.11673512e-03,
          4.03683819e-03, 3.76855512e-03, 6.86772494e-03, 7.76716368e-03,
          4.90000797e-03, 4.30921558e-03, 3.94981494e-03, 6.57025632e-03,
          5.16512664e-03, 3.92751116e-03, 4.16384451e-03, 8.67318455e-03,
          4.35760245e-03, 2.36785179e-03, 2.81765894e-03, 2.49664136e-03,
          4.24338644e-03, 3.91036831e-03, 3.25843925e-03, 3.22282687e-03,
          4.39017313e-03, 5.09572215e-03, 2.38728873e-03, 2.42340285e-03,
          3.53610842e-03, 5.11460798e-03, 4.38572746e-03, 2.99306563e-03,
          3.26197012e-03, 5.46886958e-03, 8.41535442e-03, 4.32602456e-03,
          3.96798179e-03, 4.26066061e-03, 5.31575037e-03, 3.87788331e-03,
          3.36827268e-03, 4.61707870e-03, 8.35400261e-03, 9.08597745e-03,
          4.92792856e-03, 3.63285281e-03, 4.78829490e-03, 5.92317153e-03,
          4.53237025e-03, 3.56003665e-03, 4.09644190e-03, 9.41613968e-03,
          6.06634608e-03, 3.12764733e-03, 1.87263859e-03, 2.37944024e-03,
          4.00970317e-03, 2.88416236e-03, 3.03944782e-03, 2.58126692e-03,
          5.79631561e-03, 5.53613389e-03, 3.27804778e-03, 2.78620236e-03,
          3.77287716e-03, 6.02669688e-03, 4.61842818e-03, 2.89270002e-03,
          2.73190672e-03, 6.20832015e-03, 6.78979093e-03, 3.33729549e-03,
          2.49377801e-03, 2.45647156e-03, 5.83842397e-03, 4.05899622e-03,
          3.54948849e-03, 2.46778899e-03, 5.93623985e-03, 6.30589388e-03,
          3.32210073e-03, 3.05799115e-03, 4.23413143e-03, 7.10158749e-03,
          5.13048656e-03, 3.38347140e-03, 2.64011906e-03, 6.38456969e-03,
          4.57049534e-03, 1.74989644e-03, 1.80656917e-03, 3.06526688e-03,
          4.98681841e-03, 4.59284009e-03, 2.50360323e-03, 2.48458423e-03,
          4.69256891e-03, 4.48002433e-03, 1.92715367e-03, 2.85144174e-03,
          3.42093408e-03, 5.72074670e-03, 5.59305819e-03, 4.96947579e-03,
          4.67145303e-03, 5.99911297e-03, 5.17360028e-03, 1.87444186e-03,
          1.83499069e-03, 3.68476310e-03, 6.13636477e-03, 5.16292127e-03,
          2.02238816e-03, 2.01726262e-03, 4.70922608e-03, 4.84300917e-03,
          2.41262931e-03, 3.36455507e-03, 4.33867518e-03, 7.37031968e-03,
          6.58996496e-03, 3.85019649e-03, 2.89584370e-03, 5.22927614e-03,
          3.70590645e-03, 1.20779988e-03, 1.71618012e-03, 2.85515655e-03,
          4.46953764e-03, 3.46061820e-03, 3.33554624e-03, 3.85076902e-03,
          4.71077766e-03, 4.13372833e-03, 1.29535736e-03, 2.40610912e-03,
          4.64079110e-03, 9.32776462e-03, 4.83764429e-03, 4.23993403e-03,
          3.53558944e-03, 5.37980674e-03, 4.13013855e-03, 1.55411684e-03,
          2.20615789e-03, 3.48042999e-03, 6.03323523e-03, 3.96205904e-03,
          2.99338624e-03, 2.22764094e-03, 4.57659597e-03, 4.73422091e-03,
          2.16449262e-03, 3.19365505e-03, 4.96923923e-03, 1.55829415e-02,
          5.97970420e-03, 3.85414995e-03, 3.55582871e-03, 5.33494959e-03,
          4.28110361e-03, 1.97425648e-03, 2.64100987e-03, 3.18367081e-03,
          5.70438197e-03, 3.80567624e-03, 4.03796975e-03, 3.22159030e-03,
          4.62486222e-03, 5.57549950e-03, 3.00071109e-03, 3.94987501e-03,
          3.85736837e-03, 1.00066727e-02, 7.71237863e-03, 6.05314039e-03,
          5.30995987e-03, 6.44907961e-03, 5.07223094e-03, 2.95630237e-03,
          3.33385915e-03, 3.88876279e-03, 7.89518654e-03, 5.03999181e-03,
          3.54313804e-03, 2.87045841e-03, 5.70578268e-03, 7.26201199e-03,
          4.57196357e-03, 5.10974415e-03, 4.95992042e-03, 1.15048671e-02,
          7.80679379e-03, 5.91347739e-03, 5.22254128e-03, 7.23096356e-03,
          4.52576578e-03, 3.05582699e-03, 2.26768292e-03, 2.67500221e-03,
          6.90584211e-03, 3.91877722e-03, 3.73077346e-03, 4.04943479e-03,
          5.45389764e-03, 5.85079892e-03, 3.78108840e-03, 2.31456687e-03,
          6.14774646e-03, 1.00399135e-02, 5.43305371e-03, 4.22416488e-03,
          4.43152199e-03, 4.89484658e-03, 5.83422324e-03, 3.86434630e-03,
          3.03643267e-03, 3.30142630e-03, 8.32780264e-03, 3.97378951e-03,
          3.94681143e-03, 3.89856705e-03, 6.49556285e-03, 5.89626981e-03,
          4.45393985e-03, 2.94055208e-03, 6.82718353e-03, 9.94333345e-03,
          6.67298539e-03, 5.73098613e-03, 5.37042227e-03, 4.96039540e-03,
          5.91564272e-03, 2.67284387e-03, 1.23065035e-03, 4.60482109e-03,
          7.10479729e-03, 4.03088890e-03, 3.11949337e-03, 3.96145135e-03,
          5.56876650e-03, 6.06864598e-03, 2.22904817e-03, 2.19431659e-03,
          5.79985511e-03, 6.25183340e-03, 5.07436879e-03, 3.41314171e-03,
          4.04116604e-03, 6.39322679e-03, 5.41269453e-03, 2.98474450e-03,
          1.71326764e-03, 4.65853140e-03, 8.25359020e-03, 6.79575978e-03,
          5.42044453e-03, 5.08514838e-03, 5.32834139e-03, 6.00461243e-03,
          3.25959921e-03, 2.61853402e-03, 5.43291215e-03, 8.42648000e-03,
          7.31096044e-03, 6.26168167e-03, 6.47835480e-03, 7.09668174e-03,
          4.88249771e-03, 2.12933822e-03, 2.69697397e-03, 5.78075321e-03,
          6.88195741e-03, 5.51111624e-03, 4.78814216e-03, 4.58433060e-03,
          6.13598293e-03, 4.48996108e-03, 1.93443533e-03, 2.62232055e-03,
          3.71041056e-03, 7.71160936e-03, 5.04935952e-03, 3.10012489e-03,
          4.83961497e-03, 5.83989033e-03, 4.87300614e-03, 2.08311225e-03,
          2.52078194e-03, 5.38861705e-03, 8.61607864e-03, 9.06657800e-03,
          6.95379311e-03, 6.11563539e-03, 6.28876220e-03, 5.47379162e-03,
          2.65847961e-03, 3.20689334e-03, 4.42441599e-03, 9.34965443e-03,
          7.61029311e-03, 7.29152933e-03, 6.09914912e-03, 6.53564790e-03,
          5.39724762e-03, 1.35962456e-03, 2.44000368e-03, 4.74120211e-03,
          1.16061391e-02, 6.55838521e-03, 3.79656046e-03, 4.15853597e-03,
          6.40403526e-03, 5.44894440e-03, 1.98157621e-03, 1.36404426e-03,
          3.08368565e-03, 7.93932565e-03, 4.58562188e-03, 3.29801417e-03,
          3.62449768e-03, 5.97987045e-03, 6.39238348e-03, 2.56955577e-03,
          4.46989993e-03, 6.41771639e-03, 1.23872450e-02, 7.97552243e-03,
          6.85075112e-03, 5.39031764e-03, 6.59692520e-03, 5.94269717e-03,
          3.70737072e-03, 3.60305351e-03, 5.44207962e-03, 9.28899273e-03,
          6.87451195e-03, 4.71505243e-03, 3.95640498e-03, 5.81082236e-03,
          4.01340285e-03, 2.04092707e-03, 2.22635688e-03, 1.50179816e-03,
          1.21664377e-02, 5.29050687e-03, 3.07193235e-03, 2.94207921e-03,
          4.52940539e-03, 5.66313276e-03, 3.73481284e-03, 2.67236750e-03,
          2.54864292e-03, 6.47569355e-03, 5.20450389e-03, 3.81224952e-03,
          3.41309374e-03, 4.72120009e-03, 4.07347269e-03, 2.91323964e-03,
          3.65121965e-03, 4.08418570e-03, 1.36675304e-02, 7.51765259e-03,
          3.31868348e-03, 3.32893268e-03, 4.94181179e-03, 5.05954074e-03,
          3.69958417e-03, 4.41651605e-03, 3.72352335e-03, 6.98537333e-03,
          6.12209877e-03, 4.02953615e-03, 3.40897124e-03, 4.91832569e-03,
          4.54678480e-03, 2.57387129e-03, 2.14652554e-03, 2.81952368e-03,
          5.90208732e-03, 3.73777980e-03, 2.73201428e-03, 2.72733090e-03,
          4.40498069e-03, 5.69061423e-03, 3.77225014e-03, 3.81549192e-03,
          3.73868179e-03, 5.49404602e-03, 3.31630372e-03, 2.66110082e-03,
          3.04680713e-03, 5.87299000e-03, 4.26062150e-03, 3.21394298e-03,
          4.01427969e-03, 4.31417022e-03, 6.24184171e-03, 5.85584203e-03,
          3.76561750e-03, 3.46538355e-03, 4.46131825e-03, 5.38305892e-03,
          4.58531640e-03, 5.81635768e-03, 7.34232832e-03, 6.04215823e-03,
          6.14806172e-03, 3.98639916e-03, 3.16765881e-03, 4.99456981e-03,
          5.77425305e-03, 3.46509553e-03, 3.40268505e-03, 3.73334531e-03,
          4.21429658e-03, 2.54936679e-03, 2.20377883e-03, 3.21413740e-03,
          5.66465082e-03, 6.11433107e-03, 4.63475846e-03, 4.58358973e-03,
          4.61346516e-03, 5.33330394e-03, 3.24338838e-03, 2.12205201e-03,
          3.03719426e-03, 5.80358459e-03, 4.68029873e-03, 4.43432573e-03,
          4.94271051e-03, 6.33676630e-03, 5.69580309e-03, 4.81040683e-03,
          3.67321982e-03, 3.98629950e-03, 5.01060858e-03, 5.94728859e-03,
          4.61084396e-03, 4.75173118e-03, 6.46443106e-03, 6.47503464e-03,
          4.74220281e-03, 4.05327929e-03, 3.51096177e-03, 6.01106463e-03,
          6.01069303e-03, 2.74876133e-03, 1.75965438e-03, 2.37507955e-03,
          6.31185388e-03, 3.66831268e-03, 2.66189664e-03, 1.54926802e-03,
          4.91093937e-03, 6.00069715e-03, 3.28566041e-03, 2.53174733e-03,
          4.04667342e-03, 7.00291013e-03, 4.35464922e-03, 3.11476644e-03,
          2.33836495e-03, 5.32346964e-03, 6.55783527e-03, 3.34588229e-03,
          3.01489467e-03, 3.53373215e-03, 7.07500521e-03, 3.67069431e-03,
          2.47431244e-03, 1.76690100e-03, 5.61758969e-03, 6.39563659e-03,
          3.79516347e-03, 3.88173712e-03, 4.89707384e-03, 6.75601605e-03,
          4.74428665e-03, 2.86974665e-03, 2.29672156e-03, 6.12226687e-03,
          5.39138773e-03, 2.38911621e-03, 1.38952024e-03, 3.38770868e-03,
          5.70877455e-03, 4.19583637e-03, 2.08299980e-03, 1.85184286e-03,
          3.85134527e-03, 5.33630373e-03, 2.56051216e-03, 2.35342281e-03,
          4.30969475e-03, 6.60747010e-03, 5.23592858e-03, 3.09891999e-03,
          2.45301379e-03, 5.58827445e-03, 5.75386873e-03, 3.07800481e-03,
          3.08668264e-03, 4.12765937e-03, 5.97005198e-03, 3.83620593e-03,
          2.14821682e-03, 2.04149447e-03, 5.48754865e-03, 5.87417837e-03,
          3.23537365e-03, 3.61226918e-03, 4.75204736e-03, 7.29622785e-03,
          4.63994546e-03, 3.22961877e-03, 3.07934685e-03, 6.40046829e-03,
          3.84376524e-03, 1.37019658e-03, 1.82941870e-03, 2.80266511e-03,
          5.89792244e-03, 3.04462505e-03, 2.71187257e-03, 2.40699761e-03,
          5.06743696e-03, 4.71478747e-03, 1.88056880e-03, 2.64058821e-03,
          3.93030792e-03, 1.55941611e-02, 6.16923859e-03, 3.07679898e-03,
          3.64039163e-03, 5.90356626e-03, 4.99804923e-03, 1.63971819e-03,
          2.21945718e-03, 3.39982635e-03, 6.59179501e-03, 3.54572781e-03,
          1.92137412e-03, 2.43965606e-03, 5.47981868e-03, 6.14820886e-03,
          2.32076156e-03, 2.67220708e-03, 4.18415526e-03, 1.60371233e-02,
          6.19822787e-03, 2.06227181e-03, 3.61302402e-03, 6.20944006e-03,
          4.77528200e-03, 2.40479643e-03, 2.90046050e-03, 3.52959451e-03,
          8.81134346e-03, 5.00291400e-03, 2.58485624e-03, 2.89600878e-03,
          5.50221885e-03, 7.46289873e-03, 3.85320000e-03, 3.96585651e-03,
          6.40467554e-03, 1.13696819e-02, 5.90690738e-03, 4.48985491e-03,
          4.64882376e-03, 7.46300817e-03, 6.14420883e-03, 2.41914671e-03,
          2.65245023e-03, 3.71878338e-03, 9.77390166e-03, 5.51425386e-03,
          2.00327369e-03, 3.30424448e-03, 6.05302257e-03, 7.36959139e-03,
          3.64819029e-03, 4.48405091e-03, 6.72363397e-03, 1.12145282e-02,
          6.63470803e-03, 5.09961415e-03, 4.79550892e-03, 8.22921749e-03,
          5.58921089e-03, 3.16430046e-03, 1.84331066e-03, 3.66164208e-03,
          7.17227953e-03, 3.61018791e-03, 3.84186301e-03, 3.17809428e-03,
          5.79552306e-03, 5.33113675e-03, 3.44894663e-03, 2.36998685e-03,
          6.07618643e-03, 1.11149028e-02, 7.09265098e-03, 6.29798882e-03,
          5.81702031e-03, 5.06390957e-03, 6.02996117e-03, 3.52190365e-03,
          1.92382408e-03, 4.10425384e-03, 7.31277978e-03, 4.54141293e-03,
          3.03712930e-03, 2.71859346e-03, 6.52174605e-03, 6.04473567e-03,
          4.38681804e-03, 3.18296556e-03, 6.44994481e-03, 1.24687180e-02,
          8.93704407e-03, 5.17617213e-03, 4.37518116e-03, 5.73700666e-03,
          4.97555220e-03, 2.56863912e-03, 1.67901092e-03, 2.91908532e-03,
          8.55718181e-03, 6.25890726e-03, 5.23148244e-03, 4.05758712e-03,
          4.03144863e-03, 4.81169019e-03, 3.18307662e-03, 1.93798123e-03,
          4.44818474e-03, 8.96650646e-03, 7.71423616e-03, 5.55470213e-03,
          4.42909356e-03, 5.30716358e-03, 5.77556994e-03, 3.88734764e-03,
          2.87646544e-03, 3.98955215e-03, 1.04246987e-02, 8.18707328e-03,
          4.01368365e-03, 4.04636795e-03, 4.46890621e-03, 5.38158603e-03,
          4.63290978e-03, 3.39223794e-03, 5.62766427e-03, 1.14637259e-02,
          1.00336159e-02, 5.23479423e-03, 4.27078456e-03, 5.00153517e-03,
          3.98170296e-03, 2.13642325e-03, 1.93678425e-03, 4.37244633e-03,
          9.54209268e-03, 7.55199557e-03, 5.52719925e-03, 3.64232739e-03,
          3.82691738e-03, 4.59704129e-03, 2.82922992e-03, 3.12375184e-03,
          4.24485374e-03, 1.01810303e-02, 6.17149007e-03, 4.95505612e-03,
          3.49038444e-03, 4.08984907e-03, 4.51813918e-03, 3.69352219e-03,
          4.16302122e-03, 5.56340255e-03, 1.20952846e-02, 8.76810774e-03,
          5.22826798e-03, 3.62817571e-03, 4.19723615e-03, 4.42747772e-03,
          3.32653755e-03, 4.00530780e-03, 6.11042418e-03, 1.23553425e-02,
          7.04124151e-03, 4.52499604e-03, 3.63416690e-03, 5.23529062e-03,
          4.24167281e-03, 2.48795911e-03, 4.14229184e-03, 5.80062345e-03,
          1.24473963e-02, 6.49007270e-03, 3.16574518e-03, 3.46310576e-03,
          4.71359165e-03, 4.08743182e-03, 3.18429410e-03, 3.60966218e-03,
          5.43944165e-03, 9.22815315e-03, 5.27282944e-03, 2.46188976e-03,
          2.50252103e-03, 4.77084285e-03, 4.56836866e-03, 3.55619332e-03,
          4.44657961e-03, 8.45274050e-03, 1.38065256e-02, 6.77345926e-03,
          3.74683598e-03, 4.39467607e-03, 6.22959947e-03, 4.82461229e-03,
          3.24872741e-03, 4.16929461e-03, 5.86015079e-03, 1.09190587e-02,
          5.96065307e-03, 3.58863873e-03, 3.56605556e-03, 6.09124778e-03,
          3.15301144e-03, 1.83414458e-03, 3.37865995e-03, 4.02304158e-03,
          1.23883039e-02, 5.74580580e-03, 1.85561657e-03, 1.91988191e-03,
          4.56728321e-03, 3.39380954e-03, 2.37092120e-03, 4.28614393e-03,
          4.29299613e-03, 7.21530756e-03, 5.27675217e-03, 2.43110233e-03,
          2.31395150e-03, 4.15847171e-03, 4.24085557e-03, 2.28240015e-03,
          4.61909501e-03, 4.43324307e-03, 1.45094562e-02, 5.03988704e-03,
          2.90478696e-03, 3.06040561e-03, 4.81955521e-03, 3.92863061e-03,
          2.83963303e-03, 5.58972871e-03, 4.41667950e-03, 8.95254686e-03,
          6.11213362e-03, 4.24634758e-03, 4.17902833e-03, 4.96649882e-03,
          3.14608263e-03, 2.03577592e-03, 3.44691868e-03, 5.05268527e-03,
          6.24753023e-03, 4.77505010e-03, 3.21658771e-03, 2.36919732e-03,
          3.53635126e-03, 3.83613724e-03, 3.35889240e-03, 4.31936979e-03,
          6.41778950e-03, 6.51794951e-03, 5.00616664e-03, 3.78759997e-03,
          2.60999706e-03, 3.63983726e-03, 3.69139411e-03, 2.28640833e-03,
          5.17385686e-03, 5.64545020e-03, 8.01702123e-03, 5.38653368e-03,
          4.10468923e-03, 3.80865298e-03, 4.56727063e-03, 3.70642147e-03,
          2.80760531e-03, 4.57755988e-03, 7.77315488e-03, 7.91783817e-03,
          6.37208298e-03, 4.49461071e-03, 3.75850522e-03, 5.47797792e-03,
          2.84310128e-03, 2.98059895e-03, 3.82714951e-03, 5.84732229e-03,
          6.19376544e-03, 5.13917767e-03, 4.24324907e-03, 3.28238704e-03,
          3.17585212e-03, 4.26737405e-03, 3.82473902e-03, 4.22391901e-03,
          5.41470572e-03, 5.75023983e-03, 5.03126299e-03, 5.13257692e-03,
          4.08929680e-03, 5.09624835e-03, 3.68918269e-03, 2.82490184e-03,
          4.53241402e-03, 6.54945569e-03, 7.32333632e-03, 5.67998039e-03,
          3.93266510e-03, 3.58330621e-03, 4.09857789e-03, 5.69847785e-03,
          3.28300893e-03, 5.09810261e-03, 6.22710399e-03, 6.43260311e-03,
          6.17596693e-03, 5.88602899e-03, 4.42651287e-03, 6.02441793e-03,
          5.25863655e-03, 2.87148939e-03, 2.78032431e-03, 2.91468366e-03,
          5.68547798e-03, 3.26446630e-03, 1.98599813e-03, 1.49829732e-03,
          5.24441665e-03, 5.79575729e-03, 3.47510958e-03, 3.76293389e-03,
          4.55482816e-03, 5.95308887e-03, 3.80019518e-03, 2.60106334e-03,
          2.26129848e-03, 5.92118036e-03, 6.34134747e-03, 3.17618018e-03,
          3.30795906e-03, 3.58475605e-03, 6.16797991e-03, 3.50595498e-03,
          2.62867822e-03, 1.91701856e-03, 5.94251743e-03, 6.30551297e-03,
          3.99409002e-03, 4.28720145e-03, 4.93602082e-03, 6.33741869e-03,
          4.02922789e-03, 3.22398753e-03, 2.44725030e-03, 6.73025381e-03,
          5.90377860e-03, 2.30162847e-03, 3.16710793e-03, 3.58822686e-03,
          5.76135190e-03, 2.70982878e-03, 1.95504469e-03, 1.74593157e-03,
          5.71523001e-03, 5.54956542e-03, 2.70764111e-03, 3.82204470e-03,
          4.38412139e-03, 7.32731726e-03, 3.20294872e-03, 2.46546930e-03,
          2.16807937e-03, 5.56929223e-03, 6.17697276e-03, 2.68555433e-03,
          3.23080807e-03, 4.09371033e-03, 5.96005749e-03, 2.87535856e-03,
          2.16480694e-03, 2.13392871e-03, 6.01378828e-03, 6.06591674e-03,
          2.70239590e-03, 3.77325807e-03, 4.38698661e-03, 7.24608917e-03,
          3.98769882e-03, 2.43235403e-03, 2.87722773e-03, 6.30061654e-03,
          4.90354560e-03, 1.78654701e-03, 2.43716966e-03, 3.40729812e-03,
          5.91636589e-03, 2.86915619e-03, 1.34860177e-03, 1.37457764e-03,
          4.80364775e-03, 5.65109914e-03, 2.35849456e-03, 2.61661387e-03,
          4.25278116e-03, 1.56613346e-02, 6.17371826e-03, 2.67928932e-03,
          2.30446481e-03, 5.47817955e-03, 5.52047836e-03, 2.18609418e-03,
          2.69244681e-03, 3.76704824e-03, 7.26440875e-03, 3.69379600e-03,
          1.74503017e-03, 1.82702532e-03, 5.82035910e-03, 7.12611852e-03,
          2.85842782e-03, 2.74758157e-03, 4.15286003e-03, 1.70343071e-02,
          6.14025863e-03, 4.10269061e-03, 3.02979979e-03, 7.62842130e-03,
          5.67568513e-03, 2.45296885e-03, 2.30012601e-03, 3.37905739e-03,
          9.33321379e-03, 4.86019626e-03, 2.71025090e-03, 2.52057868e-03,
          5.96432993e-03, 6.93684956e-03, 3.64860357e-03, 4.08558641e-03,
          5.61901880e-03, 1.05902907e-02, 6.89406693e-03, 5.77967847e-03,
          5.12384111e-03, 8.13102908e-03, 5.68716135e-03, 4.08712961e-03,
          2.80148326e-03, 2.92248349e-03, 9.91265569e-03, 5.43058245e-03,
          4.52721817e-03, 3.13272397e-03, 5.73889166e-03, 7.75343925e-03,
          5.86164743e-03, 4.90810815e-03, 4.03463282e-03, 9.72813927e-03,
          8.41881335e-03, 8.47419351e-03, 5.90130314e-03, 8.51322245e-03,
          5.64996526e-03, 2.27864762e-03, 2.10978952e-03, 3.15043353e-03,
          6.14260323e-03, 4.06787684e-03, 3.25759477e-03, 3.05047259e-03,
          6.07610634e-03, 6.21940568e-03, 4.07095300e-03, 3.32837366e-03,
          5.00687212e-03, 1.10710645e-02, 9.04924516e-03, 4.80359700e-03,
          3.87198105e-03, 5.92907518e-03, 6.10775780e-03, 3.45928338e-03,
          2.83481064e-03, 2.31590355e-03, 5.94129367e-03, 4.37901961e-03,
          4.03263560e-03, 3.70739819e-03, 6.52454095e-03, 6.61501708e-03,
          4.06743353e-03, 3.92073160e-03, 5.15309675e-03, 1.09859249e-02,
          8.25771410e-03, 5.71260368e-03, 3.88741330e-03, 7.34705664e-03,
          5.16645890e-03, 4.23671398e-03, 2.39993259e-03, 3.60432756e-03,
          8.28966592e-03, 6.37629209e-03, 2.37835338e-03, 2.82575283e-03,
          4.25201980e-03, 5.94322244e-03, 5.06797666e-03, 3.15451715e-03,
          4.40884009e-03, 9.32798535e-03, 7.67148100e-03, 2.93741957e-03,
          2.96669360e-03, 4.88031749e-03, 6.00124663e-03, 3.57975112e-03,
          2.30462453e-03, 4.42059059e-03, 8.15811846e-03, 5.56823006e-03,
          2.52530258e-03, 3.32446117e-03, 5.83532965e-03, 7.41202896e-03,
          4.50457959e-03, 2.42798496e-03, 5.33737801e-03, 8.64256732e-03,
          5.86694758e-03, 2.82237609e-03, 3.45023326e-03, 6.31752331e-03,
          5.21379709e-03, 4.56548855e-03, 3.78684443e-03, 5.47312852e-03,
          1.02551058e-02, 6.07538270e-03, 2.79311510e-03, 2.34693894e-03,
          4.59414022e-03, 4.67593456e-03, 3.96088511e-03, 4.25948203e-03,
          5.12854150e-03, 9.96959955e-03, 4.27716831e-03, 2.52697174e-03,
          2.61564087e-03, 4.83286334e-03, 6.71842135e-03, 5.50279394e-03,
          3.10622971e-03, 5.69347851e-03, 8.39915220e-03, 5.33686951e-03,
          2.57048849e-03, 1.94468186e-03, 5.84853720e-03, 6.22235052e-03,
          5.54449763e-03, 3.85037949e-03, 5.20983618e-03, 8.15146975e-03,
          4.06647986e-03, 3.14183743e-03, 2.83395615e-03, 5.22389449e-03,
          4.29184036e-03, 3.16880224e-03, 4.30206954e-03, 5.78515418e-03,
          1.23285465e-02, 5.77522302e-03, 3.22901551e-03, 2.84781959e-03,
          4.98387497e-03, 4.09698673e-03, 2.83084391e-03, 3.03805945e-03,
          4.20591049e-03, 8.59104935e-03, 4.45416616e-03, 3.71111068e-03,
          4.70550219e-03, 5.50307613e-03, 4.67456272e-03, 4.29909723e-03,
          4.33374150e-03, 6.43936405e-03, 1.10660652e-02, 7.13902293e-03,
          4.23482247e-03, 3.64290504e-03, 5.25756273e-03, 4.18552570e-03,
          2.89034424e-03, 3.05824028e-03, 3.91437486e-03, 7.70999119e-03,
          5.56486566e-03, 4.63696104e-03, 4.77635255e-03, 5.94184594e-03,
          3.23868683e-03, 2.01491918e-03, 2.72840471e-03, 3.54292663e-03,
          1.21534821e-02, 3.91277531e-03, 3.85871483e-03, 4.49393038e-03,
          4.65695933e-03, 3.74840666e-03, 2.34672683e-03, 3.59716965e-03,
          2.87690223e-03, 6.84786309e-03, 5.20021934e-03, 5.55787235e-03,
          4.45037335e-03, 5.63203637e-03, 3.86802480e-03, 2.41611735e-03,
          2.85184523e-03, 3.23594036e-03, 9.74053144e-03, 4.11021896e-03,
          3.61063983e-03, 4.62267036e-03, 5.37911104e-03, 4.54188278e-03,
          2.74328561e-03, 3.07133794e-03, 2.47379625e-03, 6.36299234e-03,
          4.82313428e-03, 5.37611637e-03, 4.91558202e-03, 6.43688906e-03,
          3.01446463e-03, 2.33847206e-03, 2.87408778e-03, 4.02107555e-03,
          5.97406551e-03, 4.31101630e-03, 3.64166894e-03, 3.77562735e-03,
          4.84274048e-03, 3.45377647e-03, 2.68939394e-03, 4.29871399e-03,
          4.78712097e-03, 6.56771567e-03, 4.61965241e-03, 2.95279850e-03,
          3.76645988e-03, 5.12153516e-03, 4.03683307e-03, 2.74178619e-03,
          2.83230026e-03, 3.55847785e-03, 5.79504808e-03, 4.99639055e-03,
          3.78955528e-03, 4.59416723e-03, 6.15680171e-03, 4.38521430e-03,
          3.68986255e-03, 4.07532463e-03, 4.32512118e-03, 6.68165088e-03,
          4.46696766e-03, 3.78263742e-03, 4.41768765e-03, 5.64325508e-03,
          3.86511744e-03, 2.92399176e-03, 4.51938389e-03, 4.43766732e-03,
          5.60125476e-03, 4.50585643e-03, 2.68536457e-03, 2.51665106e-03,
          4.31249849e-03, 6.27482077e-03, 3.26816947e-03, 5.49177174e-03,
          4.65026125e-03, 4.68758587e-03, 5.49284136e-03, 3.61808762e-03,
          2.90988293e-03, 6.14285190e-03, 4.34906781e-03, 4.01297491e-03,
          4.29523550e-03, 4.55166865e-03, 4.82957345e-03, 5.08259749e-03,
          3.56771215e-03, 3.19376262e-03, 4.96148411e-03, 6.22498570e-03,
          4.21360694e-03, 5.15564717e-03, 4.56154346e-03, 4.53391531e-03,
          5.34335570e-03, 3.92031204e-03, 2.96105631e-03, 6.93792989e-03,
          6.16128836e-03, 3.56510491e-03, 3.80106573e-03, 2.78190873e-03,
          6.38041040e-03, 2.18324084e-03, 2.48606876e-03, 2.21781875e-03,
          6.05430594e-03, 6.22269278e-03, 4.38424759e-03, 4.47703060e-03,
          4.48130025e-03, 6.93211611e-03, 3.08741024e-03, 2.32574996e-03,
          2.48080376e-03, 5.45301987e-03, 5.06974710e-03, 2.15028180e-03,
          3.01428582e-03, 3.84147395e-03, 7.03970436e-03, 2.70731398e-03,
          2.53776857e-03, 4.16627293e-03, 5.75108221e-03, 5.93443215e-03,
          3.73546453e-03, 4.20596451e-03, 5.49257034e-03, 7.28538446e-03,
          3.59197240e-03, 2.93148938e-03, 3.60398344e-03, 5.84887946e-03,
          6.08981727e-03, 2.88155396e-03, 3.42737301e-03, 3.60699068e-03,
          5.69422310e-03, 2.96465796e-03, 1.88477186e-03, 2.27732514e-03,
          5.62854996e-03, 6.15159376e-03, 2.77174893e-03, 3.15754139e-03,
          3.58569436e-03, 8.21217336e-03, 3.66284605e-03, 2.64732516e-03,
          4.27833991e-03, 6.77460758e-03, 5.09622181e-03, 3.31547204e-03,
          3.03870952e-03, 4.19442682e-03, 5.44499420e-03, 4.15610243e-03,
          1.64137688e-03, 2.30592373e-03, 5.40326163e-03, 5.60573861e-03,
          3.93106835e-03, 3.17494129e-03, 3.69801163e-03, 6.22683298e-03,
          4.30363975e-03, 2.24399590e-03, 3.93203786e-03, 6.29751803e-03,
          5.08239260e-03, 2.02769600e-03, 2.03357334e-03, 2.53990968e-03,
          6.07232051e-03, 3.33632133e-03, 1.82056753e-03, 3.04454751e-03,
          5.61116356e-03, 7.23602483e-03, 3.46355024e-03, 2.42363708e-03,
          3.15631321e-03, 1.63856652e-02, 4.87206876e-03, 3.51103977e-03,
          3.62538313e-03, 7.00051757e-03, 5.13148634e-03, 3.59027763e-03,
          2.26161908e-03, 2.75554159e-03, 5.84372319e-03, 3.24157788e-03,
          1.80477160e-03, 2.99917604e-03, 5.49041107e-03, 7.40768947e-03,
          4.18267306e-03, 1.93835003e-03, 3.23399622e-03, 1.40869394e-02,
          5.16652083e-03, 2.82932445e-03, 2.67753960e-03, 6.53020432e-03,
          5.79833100e-03, 4.12541954e-03, 2.79088574e-03, 2.16756063e-03,
          8.68014339e-03, 4.28141234e-03, 4.02671052e-03, 3.56266066e-03,
          5.82625577e-03, 8.24304856e-03, 6.44959696e-03, 5.46354474e-03,
          3.18341958e-03, 1.07990848e-02, 6.52850606e-03, 8.21512472e-03,
          6.48098858e-03, 8.96198768e-03, 6.57182280e-03, 3.94361140e-03,
          3.27146496e-03, 3.11108097e-03, 8.64522252e-03, 4.17411141e-03,
          2.90838326e-03, 2.97841290e-03, 5.71060507e-03, 7.69755663e-03,
          5.16135618e-03, 6.32478902e-03, 5.11083240e-03, 1.06536737e-02,
          4.94239992e-03, 5.13979746e-03, 4.10372345e-03, 7.97632523e-03,
          6.27738610e-03, 3.90059408e-03, 2.76865577e-03, 1.69814297e-03,
          5.56663517e-03, 3.46442568e-03, 4.48812358e-03, 3.93948657e-03,
          6.59796828e-03, 7.85632338e-03, 5.01694670e-03, 4.88636782e-03,
          5.29858237e-03, 1.03839338e-02, 7.48359039e-03, 5.45889186e-03,
          4.67559695e-03, 8.01934209e-03, 5.74845355e-03, 3.32549750e-03,
          3.76875303e-03, 4.48675454e-03, 7.16722803e-03, 2.18283315e-03,
          2.42795167e-03, 2.44484376e-03, 5.54112019e-03, 7.06176460e-03,
          4.04963363e-03, 4.66472656e-03, 5.60929812e-03, 9.90880653e-03,
          6.12250483e-03, 3.24284774e-03, 3.07538058e-03, 7.08640926e-03,
          7.15922704e-03, 3.39226052e-03, 2.69078324e-03, 3.84290493e-03,
          7.48851988e-03, 5.21149859e-03, 2.45099189e-03, 2.55473447e-03,
          7.29595218e-03, 8.97718407e-03, 3.74909886e-03, 2.94667645e-03,
          4.52282606e-03, 8.89133941e-03, 5.25498856e-03, 2.89446092e-03,
          2.73125106e-03, 7.74379121e-03, 6.38327003e-03, 2.94962293e-03,
          3.11070075e-03, 4.04494395e-03, 7.76823331e-03, 4.57722135e-03,
          1.91214203e-03, 1.57979259e-03, 6.11310126e-03, 7.66587444e-03,
          3.51689104e-03, 2.88468273e-03, 4.36327327e-03, 8.05415865e-03,
          5.66413486e-03, 2.35509546e-03, 1.80010905e-03, 6.68339152e-03,
          8.31028260e-03, 4.39642277e-03, 2.62002763e-03, 4.90501430e-03,
          8.07005446e-03, 4.81609860e-03, 2.73684505e-03, 2.09117704e-03,
          6.31338358e-03, 8.09073262e-03, 5.05173486e-03, 2.64326553e-03,
          4.10089595e-03, 7.85095897e-03, 3.85084399e-03, 4.19245148e-03,
          3.77045642e-03, 6.40710210e-03, 7.35186739e-03, 3.93110467e-03,
          2.87693786e-03, 4.47850488e-03, 7.72752659e-03, 5.63580543e-03,
          2.26694881e-03, 1.12148386e-03, 5.53298276e-03, 7.51834223e-03,
          4.08431655e-03, 2.00578198e-03, 4.42426000e-03, 8.54773913e-03,
          5.35761658e-03, 3.13139800e-03, 2.55913148e-03, 6.62448257e-03,
          5.42744854e-03, 4.30714851e-03, 3.65719013e-03, 5.74587286e-03,
          1.06938956e-02, 5.78522589e-03, 4.29288903e-03, 4.23601409e-03,
          5.79849351e-03, 5.47811575e-03, 3.24950390e-03, 3.25931422e-03,
          3.45825916e-03, 7.16042984e-03, 4.10642428e-03, 3.98346316e-03,
          5.16914297e-03, 6.45515881e-03, 6.82322262e-03, 3.43627390e-03,
          3.54685751e-03, 6.14303630e-03, 1.16319051e-02, 6.67136954e-03,
          4.67264559e-03, 4.54506744e-03, 6.80604205e-03, 6.72443118e-03,
          3.10893473e-03, 2.84751784e-03, 3.10221920e-03, 9.62733664e-03,
          4.81610047e-03, 3.76423984e-03, 4.53576818e-03, 6.93275034e-03,
          5.09851612e-03, 2.53425399e-03, 2.74593267e-03, 2.79220450e-03,
          1.02401730e-02, 3.01101757e-03, 3.30772041e-03, 4.41961084e-03,
          6.34920876e-03, 5.25548821e-03, 2.94517190e-03, 2.69850343e-03,
          2.68600020e-03, 5.90931997e-03, 4.02704626e-03, 3.32768727e-03,
          4.55777347e-03, 7.35468697e-03, 6.80833450e-03, 2.62151356e-03,
          2.79086013e-03, 3.11226374e-03, 1.42081929e-02, 4.36138781e-03,
          3.10725719e-03, 2.43223994e-03, 6.15877192e-03, 7.01255910e-03,
          2.78471084e-03, 3.05383909e-03, 4.30056406e-03, 5.03493752e-03,
          3.73332738e-03, 2.86706537e-03, 3.57463723e-03, 6.81278761e-03,
          4.44034347e-03, 2.82837031e-03, 2.85487622e-03, 3.09000444e-03,
          5.29690692e-03, 3.64619680e-03, 2.65003741e-03, 3.93492682e-03,
          5.88161591e-03, 4.65071853e-03, 3.69284488e-03, 4.12559463e-03,
          4.20512212e-03, 6.09767484e-03, 4.27974667e-03, 3.97319533e-03,
          4.33641439e-03, 5.58388652e-03, 4.71582031e-03, 2.25385674e-03,
          2.86582275e-03, 4.53879219e-03, 4.58797859e-03, 4.23477544e-03,
          2.76146340e-03, 3.44363018e-03, 5.47523005e-03, 4.39626910e-03,
          2.58346763e-03, 3.21901054e-03, 4.88702068e-03, 5.82083035e-03,
          4.20492748e-03, 4.35666554e-03, 4.75791190e-03, 5.51896216e-03,
          4.12235083e-03, 3.62923299e-03, 3.57823889e-03, 3.81063623e-03,
          5.17455721e-03, 3.93468328e-03, 3.51414387e-03, 4.01212042e-03,
          5.03437594e-03, 6.57452131e-03, 3.67692974e-03, 4.06177249e-03,
          3.21675232e-03, 4.27790405e-03, 3.93762626e-03, 3.67442961e-03,
          3.36767011e-03, 7.11804722e-03, 4.71862033e-03, 2.92794476e-03,
          2.87213316e-03, 4.83748969e-03, 5.33708511e-03, 4.38861921e-03,
          3.83236981e-03, 3.69357667e-03, 5.07017178e-03, 7.78456451e-03,
          3.22427717e-03, 2.64923577e-03, 4.45029559e-03, 4.49997745e-03,
          3.88800469e-03, 3.25459056e-03, 3.78930406e-03, 7.61277275e-03,
          5.03290026e-03, 9.65811429e-04, 1.36832485e-03, 2.55915779e-03,
          5.41843893e-03, 2.09066947e-03, 2.16931314e-03, 4.09716135e-03,
          7.00276997e-03, 5.53302094e-03, 2.49696965e-03, 2.68691592e-03,
          3.81704350e-03, 6.45013154e-03, 3.08784819e-03, 2.58090161e-03,
          4.39941091e-03, 6.43669302e-03, 3.75972548e-03, 2.03172886e-03,
          1.98498508e-03, 2.16462975e-03, 5.36114816e-03, 2.56187515e-03,
          1.83349475e-03, 3.90624185e-03, 5.90260187e-03, 4.34413506e-03,
          2.57743639e-03, 2.54878588e-03, 3.47648608e-03, 6.43036608e-03,
          4.02743975e-03, 2.73469766e-03, 4.55524586e-03, 6.06360054e-03,
          4.68309177e-03, 1.95851107e-03, 1.96540635e-03, 2.99264025e-03,
          5.56070870e-03, 2.86472938e-03, 1.17730233e-03, 2.42183357e-03,
          5.42507973e-03, 5.68070915e-03, 3.47997504e-03, 3.19190347e-03,
          3.09798727e-03, 5.53777069e-03, 3.48548568e-03, 1.14222884e-03,
          2.47715996e-03, 5.67826815e-03, 4.54815570e-03, 2.73675239e-03,
          2.35963613e-03, 3.02337622e-03, 5.93414577e-03, 3.55318584e-03,
          1.36020081e-03, 2.73066922e-03, 5.06094983e-03, 5.56262629e-03,
          3.85816535e-03, 2.92224111e-03, 3.38847167e-03, 5.94787207e-03,
          4.38678078e-03, 1.79712859e-03, 1.94103678e-03, 5.49015915e-03,
          5.45472186e-03, 3.48718138e-03, 2.71709310e-03, 2.50787078e-03,
          5.39671164e-03, 2.95990543e-03, 1.48111035e-03, 2.17370875e-03,
          5.09566348e-03, 7.61718443e-03, 3.93832941e-03, 1.64737843e-03,
          2.01482698e-03, 1.24705285e-02, 4.53659054e-03, 2.72727059e-03,
          2.41407473e-03, 6.89808745e-03, 5.12441853e-03, 3.36501398e-03,
          2.59414199e-03, 2.79290578e-03, 5.41389128e-03, 4.19404730e-03,
          2.00758060e-03, 1.60531874e-03, 4.43372829e-03, 5.88317215e-03,
          3.66281532e-03, 1.91256055e-03, 1.82594219e-03, 1.35683464e-02,
          5.15827071e-03, 3.11580929e-03, 3.34159331e-03, 4.89344122e-03,
          7.14927865e-03, 3.90340434e-03, 1.73640554e-03, 2.12526857e-03,
          7.99248274e-03, 3.95762967e-03, 2.95409653e-03, 2.36992002e-03,
          5.85465040e-03, 7.96644110e-03, 4.37346147e-03, 3.87323298e-03,
          4.74000257e-03, 1.09030232e-02, 3.11414571e-03, 4.09982307e-03,
          3.33906594e-03, 8.13667756e-03, 6.66712876e-03, 3.96845303e-03,
          1.91182212e-03, 1.64372940e-03, 9.36399680e-03, 4.00460931e-03,
          3.65263596e-03, 3.46959988e-03, 6.22266810e-03, 7.70971924e-03,
          4.18956205e-03, 4.09172289e-03, 4.43023304e-03, 1.20918751e-02,
          4.24172683e-03, 4.90525132e-03, 4.00482770e-03, 7.57277757e-03,
          7.42658554e-03, 2.88274093e-03, 2.51369993e-03, 3.39476950e-03,
          7.95242377e-03, 1.48241734e-03, 1.29985937e-03, 1.96763198e-03,
          6.93348330e-03, 8.47272575e-03, 2.85261264e-03, 3.24909971e-03,
          5.33949304e-03, 1.06382435e-02, 5.55610191e-03, 2.16481136e-03,
          2.92634964e-03, 8.50700215e-03, 5.89987775e-03, 2.37486931e-03,
          1.71582797e-03, 3.12495790e-03, 1.05618257e-02, 2.97657284e-03,
          2.09960435e-03, 2.11311621e-03, 5.21641644e-03, 5.96185355e-03,
          2.50184117e-03, 1.63883553e-03, 5.66096837e-03, 1.04536572e-02,
          8.55503697e-03, 3.00962199e-03, 2.75611039e-03, 5.69835119e-03,
          7.83682987e-03, 2.29137787e-03, 2.62803002e-03, 3.98695841e-03,
          7.87233282e-03, 4.54533193e-03, 1.37231150e-03, 1.75180449e-03,
          8.06103647e-03, 1.00311255e-02, 3.06034600e-03, 3.50176450e-03,
          3.63352546e-03, 9.08472016e-03, 5.85102942e-03, 1.66794367e-03,
          1.57453690e-03, 9.06093419e-03, 5.87005401e-03, 2.72121467e-03,
          1.45469047e-03, 2.45955517e-03, 8.31105281e-03, 6.57023443e-03,
          1.58976740e-03, 2.12709699e-03, 5.68796229e-03, 6.48655836e-03,
          2.88939034e-03, 1.58969290e-03, 3.29258083e-03, 9.03462525e-03,
          7.78826838e-03, 2.41461745e-03, 2.33948533e-03, 5.97508531e-03,
          7.46562611e-03, 2.87827011e-03, 3.36055690e-03, 3.48204235e-03,
          9.11925174e-03, 5.51365782e-03, 1.22199592e-03, 9.83187580e-04,
          6.19781623e-03, 8.67318548e-03, 3.54477926e-03, 2.13147909e-03,
          3.79748852e-03, 1.13644125e-02, 5.19131636e-03, 2.70210579e-03,
          2.86379503e-03, 7.49045890e-03, 6.15121471e-03, 2.62385537e-03,
          1.30452646e-03, 3.76130384e-03, 9.74965002e-03, 6.53941650e-03,
          2.13775621e-03, 1.93361682e-03, 5.40398760e-03, 6.47330284e-03,
          3.73564451e-03, 2.06902786e-03, 3.58385406e-03, 1.18624549e-02,
          7.03497929e-03, 3.63324978e-03, 2.99185701e-03, 5.49233286e-03,
          6.84542535e-03, 2.89024948e-03, 2.86244578e-03, 4.16542822e-03,
          1.22222537e-02, 6.07636943e-03, 3.47690145e-03, 2.35276972e-03,
          6.68931706e-03, 7.16191996e-03, 3.30005959e-03, 2.72201328e-03,
          2.72911042e-03, 9.33233462e-03, 4.15634876e-03, 3.58615187e-03,
          2.89823138e-03, 6.37970492e-03, 5.85388858e-03, 3.31312395e-03,
          3.61958728e-03, 4.94552962e-03, 1.27722993e-02, 7.20406091e-03,
          3.56556568e-03, 3.04572098e-03, 5.15654776e-03, 6.31963974e-03,
          3.94516112e-03, 3.60475387e-03, 3.41074145e-03, 1.04316892e-02,
          4.93130554e-03, 3.16364830e-03, 2.57218815e-03, 5.56724751e-03,
          6.86869072e-03, 2.89873476e-03, 2.35534483e-03, 2.42632767e-03,
          1.25651583e-02, 3.99187626e-03, 2.59705726e-03, 1.34007377e-03,
          5.48388576e-03, 7.62575725e-03, 2.53915018e-03, 2.61441409e-03,
          4.12153499e-03, 4.69751144e-03, 3.16386344e-03, 2.32321396e-03,
          2.85717822e-03, 6.77977595e-03, 5.99694112e-03, 3.06607783e-03,
          2.21654400e-03, 3.59623204e-03, 1.44685861e-02, 3.84159666e-03,
          1.97494379e-03, 1.25561329e-03, 4.68485011e-03, 5.94813377e-03,
          2.24155420e-03, 1.84215279e-03, 4.40575276e-03, 5.39212488e-03,
          2.55264877e-03, 2.24438054e-03, 2.73079774e-03, 5.28293196e-03,
          5.96166635e-03, 2.24997988e-03, 2.96549359e-03, 3.66121670e-03,
          4.66022128e-03, 3.25651630e-03, 2.55412399e-03, 2.66899914e-03,
          6.28395472e-03, 5.62932156e-03, 2.14696629e-03, 3.01770819e-03,
          3.64821986e-03, 5.15789585e-03, 3.54952086e-03, 4.33075055e-03,
          4.69587743e-03, 6.47969590e-03, 5.23827877e-03, 2.24467902e-03,
          2.59765168e-03, 3.87600786e-03, 5.36962645e-03, 3.24842567e-03,
          2.04893784e-03, 2.17448268e-03, 5.06922789e-03, 4.17402247e-03,
          2.51306058e-03, 2.83929799e-03, 3.12547665e-03, 6.01132773e-03,
          3.93015658e-03, 2.85221566e-03, 3.29496432e-03, 4.56417119e-03,
          5.44869388e-03, 2.11132620e-03, 2.59002903e-03, 3.98081169e-03,
          5.87245636e-03, 3.68168484e-03, 3.37624061e-03, 3.44994338e-03,
          5.60452696e-03, 9.20246169e-03, 2.34855781e-03, 1.98956789e-03,
          3.79188498e-03, 4.01571253e-03, 2.64357077e-03, 2.73074396e-03,
          3.12966201e-03, 8.61608703e-03, 4.33458760e-03, 2.22087582e-03,
          2.60985084e-03, 3.70954210e-03, 5.06552216e-03, 4.01094696e-03,
          2.73310975e-03, 2.34025926e-03, 5.12421457e-03, 6.67054486e-03,
          2.48616748e-03, 2.83838878e-03, 3.76343960e-03, 4.07130038e-03,
          2.89340015e-03, 2.39492604e-03, 2.25458969e-03, 7.01929862e-03,
          3.79074854e-03, 1.58136676e-03, 1.29793421e-03, 1.01535360e-03,
          5.46598854e-03, 2.19362904e-03, 2.12784950e-03, 3.12572648e-03,
          5.09189162e-03, 4.40525962e-03, 2.73474050e-03, 3.09569179e-03,
          1.96257676e-03, 6.47158874e-03, 3.55206500e-03, 2.30595679e-03,
          3.72736831e-03, 5.50423237e-03, 4.30053147e-03, 1.77021208e-03,
          1.78727950e-03, 2.44445773e-03, 7.79046817e-03, 3.52853956e-03,
          2.71826121e-03, 2.69910716e-03, 4.42991406e-03, 4.72415984e-03,
          2.54890718e-03, 3.70152900e-03, 3.82327242e-03, 8.75930209e-03,
          4.62023867e-03, 3.06287338e-03, 2.96973134e-03, 4.71642520e-03,
          3.69556271e-03, 2.08759587e-03, 2.10123067e-03, 1.98159949e-03,
          6.02029590e-03, 3.48923146e-03, 1.24162040e-03, 2.21271836e-03,
          4.00196621e-03, 4.63613542e-03, 3.55242239e-03, 3.16506764e-03,
          3.20591847e-03, 5.64827072e-03, 4.52899002e-03, 1.97428721e-03,
          1.76251493e-03, 4.05883370e-03, 3.82955768e-03, 2.02623336e-03,
          3.02420510e-03, 3.42634204e-03, 6.33137114e-03, 4.06141719e-03,
          2.35696114e-03, 1.94748060e-03, 3.48185911e-03, 4.49211337e-03,
          4.16214019e-03, 4.89540957e-03, 5.39546926e-03, 6.10644417e-03,
          4.55385726e-03, 2.71401484e-03, 2.31490284e-03, 3.53094982e-03,
          4.36100503e-03, 2.91874795e-03, 2.20813020e-03, 2.95992219e-03,
          4.63808980e-03, 4.19569947e-03, 2.10582837e-03, 1.57396216e-03,
          3.30573344e-03, 6.02105446e-03, 4.07126034e-03, 1.92576903e-03,
          2.02273834e-03, 1.19141703e-02, 4.48792987e-03, 2.47177412e-03,
          2.54364661e-03, 4.25748853e-03, 3.98192136e-03, 3.62127111e-03,
          4.28503472e-03, 3.39862495e-03, 5.33265248e-03, 4.16395441e-03,
          2.23895465e-03, 2.73564318e-03, 3.39922588e-03, 5.71857998e-03,
          3.87259782e-03, 3.17072123e-03, 3.06265336e-03, 1.08070066e-02,
          4.10799542e-03, 2.90988246e-03, 3.02260206e-03, 4.03998233e-03,
          6.07531751e-03, 3.50092514e-03, 1.70258596e-03, 1.56728807e-03,
          7.71799078e-03, 3.42130009e-03, 2.36756704e-03, 2.69642705e-03,
          5.16555272e-03, 7.34250201e-03, 3.39754205e-03, 2.94640986e-03,
          3.37504665e-03, 1.16977496e-02, 4.71781753e-03, 4.02476778e-03,
          3.35410750e-03, 6.95693167e-03, 6.72377413e-03, 3.78948497e-03,
          2.20884546e-03, 2.07163370e-03, 8.00718833e-03, 4.02441202e-03,
          3.17193987e-03, 3.16976919e-03, 4.95400466e-03, 6.29983749e-03,
          2.99638114e-03, 2.57003494e-03, 3.14570311e-03, 1.21608693e-02,
          5.48247807e-03, 5.81691973e-03, 4.05550376e-03, 6.95404410e-03,
          5.40315080e-03, 1.97876035e-03, 1.67583360e-03, 2.03743344e-03,
          1.01600932e-02, 2.90475599e-03, 2.01297877e-03, 1.70865946e-03,
          5.06090838e-03, 5.78562962e-03, 2.22759647e-03, 1.70030654e-03,
          4.53435723e-03, 1.04797361e-02, 6.47150818e-03, 2.24047783e-03,
          2.28932803e-03, 5.86462393e-03, 5.80470450e-03, 1.53762719e-03,
          1.70782360e-03, 2.46630912e-03, 1.09403646e-02, 4.53534257e-03,
          2.86578340e-03, 2.87971040e-03, 6.02025073e-03, 6.11077016e-03,
          1.96045823e-03, 3.24588083e-03, 4.60540177e-03, 1.07419780e-02,
          6.33242540e-03, 2.72402517e-03, 2.31570820e-03, 6.95791142e-03,
          5.50791854e-03, 2.25128909e-03, 1.08978595e-03, 1.85448199e-03,
          7.77587481e-03, 5.14473347e-03, 1.36966421e-03, 1.76114298e-03,
          5.96435601e-03, 5.73464204e-03, 2.53103115e-03, 1.47113285e-03,
          3.34233744e-03, 9.59669333e-03, 7.05591310e-03, 3.23715806e-03,
          1.44907739e-03, 6.17634133e-03, 6.60593994e-03, 1.80412119e-03,
          2.17582798e-03, 3.27564194e-03, 7.66497524e-03, 4.42252774e-03,
          1.87920791e-03, 1.95895554e-03, 7.18864147e-03, 6.62012119e-03,
          2.55494588e-03, 2.10975297e-03, 4.64641443e-03, 9.10167675e-03,
          5.66096697e-03, 2.86176009e-03, 1.88873673e-03, 6.57523144e-03,
          4.76677390e-03, 2.01298948e-03, 8.05344200e-04, 3.12066544e-03,
          8.50543287e-03, 6.00391161e-03, 2.41850037e-03, 1.31746742e-03,
          4.81637940e-03, 5.00573451e-03, 2.54508271e-03, 1.42516266e-03,
          3.30629037e-03, 1.08850095e-02, 6.69794949e-03, 3.25786206e-03,
          2.50300998e-03, 5.02406200e-03, 5.44534437e-03, 2.08801543e-03,
          1.07232528e-03, 3.84253683e-03, 9.03202221e-03, 5.22536226e-03,
          2.54854350e-03, 2.42279354e-03, 5.75704826e-03, 6.35396782e-03,
          2.73161149e-03, 1.70005648e-03, 3.70609690e-03, 1.15324669e-02,
          4.95027844e-03, 2.02483195e-03, 3.11387517e-03, 6.04274543e-03,
          5.01426077e-03, 2.56185397e-03, 2.61192233e-03, 4.83167311e-03,
          1.19660133e-02, 6.17896207e-03, 3.03513999e-03, 2.42638937e-03,
          4.27671662e-03, 7.02813268e-03, 3.45157483e-03, 3.08344257e-03,
          2.94033950e-03, 8.91150814e-03, 3.99687327e-03, 2.60112272e-03,
          2.14764010e-03, 5.34788705e-03, 6.79428596e-03, 2.65449774e-03,
          2.57286942e-03, 5.03918575e-03, 1.27887633e-02, 5.22110565e-03,
          3.13706789e-03, 2.74470774e-03, 5.76898968e-03, 6.87630475e-03,
          4.33018617e-03, 3.07464274e-03, 3.87768680e-03, 1.01308934e-02,
          4.06647194e-03, 2.03018193e-03, 1.86171511e-03, 5.71056316e-03,
          6.00016629e-03, 2.91492860e-03, 1.83577323e-03, 2.65757972e-03,
          1.39651429e-02, 2.71847681e-03, 2.02786131e-03, 1.23025954e-03,
          4.61464701e-03, 6.36825990e-03, 2.13685073e-03, 1.46069820e-03,
          3.36586102e-03, 6.42289314e-03, 2.51749996e-03, 1.59941684e-03,
          2.24225200e-03, 6.71116263e-03, 5.85155655e-03, 3.32397432e-03,
          2.21814704e-03, 3.46609461e-03, 1.51993763e-02, 3.54884029e-03,
          1.64637435e-03, 9.20206658e-04, 5.09098452e-03, 6.40323479e-03,
          2.31009838e-03, 2.05595465e-03, 3.37506295e-03, 7.18825683e-03,
          4.34217975e-03, 9.65893792e-04, 1.49669743e-03, 5.77195082e-03,
          5.07072173e-03, 1.89205341e-03, 1.72180810e-03, 2.98063667e-03,
          5.76834287e-03, 2.41327938e-03, 1.10113388e-03, 2.42673047e-03,
          5.98680321e-03, 3.91539931e-03, 2.13535153e-03, 2.10384652e-03,
          3.57916229e-03, 6.21349737e-03, 4.36682627e-03, 2.45657074e-03,
          2.85371253e-03, 4.38841619e-03, 4.01693676e-03, 1.81393826e-03,
          2.19693757e-03, 4.45927819e-03, 6.01724628e-03, 3.22935497e-03,
          1.07563788e-03, 3.08065652e-03, 4.47768997e-03, 3.24458512e-03,
          2.43832776e-03, 2.62644491e-03, 4.87636542e-03, 7.02321948e-03,
          3.79640143e-03, 3.20060761e-03, 3.63802328e-03, 4.40041255e-03,
          3.64701124e-03, 2.10426096e-03, 1.87407993e-03, 3.96706816e-03,
          5.48197376e-03, 4.03889921e-03, 2.87035038e-03, 2.36369180e-03,
          3.22297309e-03, 5.16165840e-03, 2.47644424e-03, 2.87777022e-03,
          2.95917504e-03, 4.82790172e-03, 3.78213520e-03, 2.41347379e-03,
          2.31071329e-03, 4.94411495e-03, 3.16928467e-03, 2.81045702e-03,
          2.61349347e-03, 4.55795508e-03, 6.56296080e-03, 4.09774203e-03,
          3.61669180e-03, 3.15092783e-03, 4.34242422e-03, 4.05286439e-03,
          2.90646567e-03, 2.89802440e-03, 4.02287301e-03, 6.26187166e-03,
          4.72916150e-03, 4.49558208e-03, 4.31120768e-03, 6.14048215e-03,
          3.80840525e-03, 1.64090213e-03, 1.50473835e-03, 2.59252475e-03,
          8.17463547e-03, 2.78288522e-03, 1.55038293e-03, 2.50683492e-03,
          3.95482546e-03, 3.95157374e-03, 2.05846014e-03, 2.49066227e-03,
          4.43719700e-03, 9.21049155e-03, 4.42876993e-03, 2.68301670e-03,
          3.28652514e-03, 4.05258033e-03, 3.71237844e-03, 1.96100958e-03,
          2.34755757e-03, 2.84182909e-03, 1.00809159e-02, 2.71868054e-03,
          1.26477343e-03, 1.98885030e-03, 3.64524126e-03, 3.91502166e-03,
          2.27324245e-03, 2.47728033e-03, 4.18744376e-03, 1.04678599e-02,
          4.62764502e-03, 2.79612863e-03, 2.86222412e-03, 4.08583647e-03,
          3.25048505e-03, 1.41547481e-03, 2.01727217e-03, 2.85345083e-03,
          6.59447722e-03, 3.23861372e-03, 2.37481133e-03, 2.11883197e-03,
          3.04599502e-03, 3.54745332e-03, 3.64290481e-03, 4.52367449e-03,
          4.23366996e-03, 6.06068643e-03, 4.02366696e-03, 2.70813843e-03,
          2.76282453e-03, 3.02254269e-03, 2.62354850e-03, 1.42518315e-03,
          1.23933912e-03, 3.69221345e-03, 8.87678564e-03, 3.57430498e-03,
          1.89821562e-03, 2.33220449e-03, 2.95429840e-03, 2.71251076e-03,
          2.78153829e-03, 3.98402940e-03, 4.67187958e-03, 9.69418883e-03,
          4.45221784e-03, 2.61573121e-03, 2.81283259e-03, 3.18125379e-03,
          2.89679016e-03, 3.08763958e-03, 3.42284492e-03, 2.70970026e-03,
          5.51005546e-03, 3.58166243e-03, 1.85631239e-03, 2.45396746e-03,
          2.92409118e-03, 3.67188919e-03, 2.96314619e-03, 2.53118458e-03,
          2.89672287e-03, 9.62746423e-03, 3.93045042e-03, 2.59789336e-03,
          2.38175201e-03, 3.62142269e-03, 2.08392157e-03, 3.09998170e-03,
          3.72955040e-03, 4.14391421e-03, 8.93319305e-03, 4.27505793e-03,
          2.15027900e-03, 2.58721947e-03, 2.15144712e-03, 3.09425895e-03,
          3.03166662e-03, 3.70388711e-03, 6.42590458e-03, 1.66161973e-02,
          4.64163488e-03, 2.64401385e-03, 2.66558258e-03, 2.92662089e-03,
          4.94960696e-03, 3.45871830e-03, 1.71825627e-03, 2.30595306e-03,
          8.05481803e-03, 3.62759968e-03, 2.93991133e-03, 2.66461656e-03,
          4.07466246e-03, 5.60017396e-03, 3.26513196e-03, 2.88769789e-03,
          3.26502183e-03, 1.23139955e-02, 5.50093036e-03, 4.65721125e-03,
          3.64913791e-03, 6.12735655e-03, 4.62917518e-03, 3.76246590e-03,
          3.60607472e-03, 4.33196267e-03, 1.10840676e-02, 3.71331582e-03,
          2.94574723e-03, 3.03925481e-03, 4.17007878e-03, 6.06136722e-03,
          5.29758120e-03, 5.76508138e-03, 5.62832691e-03, 1.45429177e-02,
          5.62197808e-03, 4.29880014e-03, 3.55534512e-03, 5.85653028e-03,
          5.23367478e-03, 1.82988145e-03, 2.00945139e-03, 2.20910506e-03,
          9.55091976e-03, 3.16478289e-03, 2.46550795e-03, 2.37193424e-03,
          5.40376175e-03, 5.92494011e-03, 2.47967616e-03, 3.45212431e-03,
          5.14346734e-03, 9.96864866e-03, 5.89598576e-03, 3.04287556e-03,
          2.31153728e-03, 6.65417919e-03, 5.03002573e-03, 2.79986998e-03,
          3.61629389e-03, 3.31744459e-03, 1.33325374e-02, 2.89927679e-03,
          1.78835180e-03, 1.75712269e-03, 4.68604267e-03, 5.60814934e-03,
          3.01212328e-03, 4.43210918e-03, 6.23830222e-03, 1.28090093e-02,
          5.69444941e-03, 2.44872877e-03, 2.30109459e-03, 5.67088835e-03,
          5.42696798e-03, 1.94325706e-03, 1.63422315e-03, 3.24876141e-03,
          7.05323322e-03, 3.81611311e-03, 2.04600068e-03, 2.01731129e-03,
          6.16259919e-03, 5.97743783e-03, 2.39589461e-03, 1.66553620e-03,
          4.39983606e-03, 9.28282831e-03, 4.84542549e-03, 2.62802187e-03,
          1.90246233e-03, 6.82760868e-03, 5.68425423e-03, 2.07898975e-03,
          1.79672916e-03, 4.38152812e-03, 1.05196247e-02, 3.52413766e-03,
          1.69615354e-03, 1.63063628e-03, 5.89245930e-03, 6.52463455e-03,
          2.75174296e-03, 1.70951511e-03, 4.88819834e-03, 1.18559999e-02,
          4.98977816e-03, 2.18160381e-03, 1.95863773e-03, 6.86053652e-03,
          5.39790886e-03, 1.89207261e-03, 1.04410946e-03, 4.12794296e-03,
          8.96721520e-03, 3.96458339e-03, 1.27738388e-03, 1.39088824e-03,
          6.28317706e-03, 6.34934567e-03, 2.36022612e-03, 1.56592054e-03,
          3.48901004e-03, 1.09219337e-02, 4.29883040e-03, 1.14521198e-03,
          1.64608669e-03, 6.58362173e-03, 5.57995914e-03, 2.42426759e-03,
          1.06651010e-03, 3.78653919e-03, 1.15513057e-02, 4.10031946e-03,
          1.29279343e-03, 1.99136673e-03, 6.47411868e-03, 6.56133471e-03,
          2.22839718e-03, 1.47828064e-03, 2.48563080e-03, 1.41190123e-02,
          4.67903400e-03, 9.81152640e-04, 2.27717543e-03, 6.64643338e-03,
          5.73022151e-03, 2.12509488e-03, 2.24752072e-03, 4.03362652e-03,
          1.18131749e-02, 5.17046126e-03, 2.24580476e-03, 2.40037264e-03,
          5.78414556e-03, 5.89961512e-03, 2.20076670e-03, 2.42817611e-03,
          3.01202503e-03, 9.97973606e-03, 3.20311403e-03, 2.14334205e-03,
          1.83157669e-03, 5.04609151e-03, 5.67799155e-03, 1.99169852e-03,
          2.13806215e-03, 3.09859542e-03, 1.45672867e-02, 6.91445544e-03,
          2.70259799e-03, 2.46636127e-03, 5.79713657e-03, 5.88699849e-03,
          2.63925525e-03, 2.34573288e-03, 3.15764337e-03, 1.31214689e-02,
          4.60346974e-03, 2.98030442e-03, 2.04738718e-03, 5.65199042e-03,
          5.48675470e-03, 1.90382171e-03, 1.90428609e-03, 3.40929441e-03,
          1.39644165e-02, 3.07172257e-03, 1.54091639e-03, 1.02869573e-03,
          4.33847867e-03, 5.93092572e-03, 2.02028756e-03, 1.98730128e-03,
          3.16065177e-03, 7.27755204e-03, 3.07283900e-03, 1.67398818e-03,
          1.73147302e-03, 5.34121878e-03, 5.04290685e-03, 2.19384325e-03,
          1.90537283e-03, 3.38276825e-03, 1.87541153e-02, 3.89332091e-03,
          1.95420091e-03, 1.29395421e-03, 4.31206729e-03, 5.38681913e-03,
          2.16811779e-03, 2.08822708e-03, 3.69285233e-03, 7.54696596e-03,
          2.88810441e-03, 1.65255484e-03, 2.29369849e-03, 4.75942157e-03,
          3.92886251e-03, 1.87323370e-03, 2.19318690e-03, 3.88537883e-03,
          5.80323255e-03, 2.52124504e-03, 1.01225183e-03, 1.88565173e-03,
          4.46110638e-03, 3.58294137e-03, 2.28697783e-03, 2.33055931e-03,
          4.43488499e-03, 6.60688709e-03, 3.68449907e-03, 1.68460596e-03,
          2.79342220e-03, 4.67706565e-03, 3.67012830e-03, 1.91954384e-03,
          2.22522696e-03, 3.92669439e-03, 6.79232739e-03, 2.49881111e-03,
          2.01878720e-03, 2.94651650e-03, 4.47432883e-03, 3.16937314e-03,
          1.94055284e-03, 2.18013395e-03, 3.74752749e-03, 7.82533735e-03,
          4.56092227e-03, 3.32775805e-03, 3.40052042e-03, 5.17067034e-03,
          3.39850551e-03, 2.46721273e-03, 2.38001253e-03, 3.88500979e-03,
          5.79664204e-03, 3.41816386e-03, 1.99569645e-03, 2.25714268e-03,
          4.24176967e-03, 3.98543570e-03, 2.83749448e-03, 2.72477837e-03,
          3.68380430e-03, 5.50410850e-03, 3.84344626e-03, 3.24402610e-03,
          3.21639678e-03, 4.39498667e-03, 2.98228348e-03, 2.14425405e-03,
          2.07685889e-03, 4.06184280e-03, 7.39079807e-03, 4.94253775e-03,
          2.81460164e-03, 2.80792918e-03, 3.98475165e-03, 3.95558169e-03,
          2.56970013e-03, 2.69250246e-03, 4.44060005e-03, 8.00853223e-03,
          4.45044786e-03, 3.10183968e-03, 3.26018711e-03, 3.65917850e-03 ]
      - [ -4.13931869e-02, 3.39752957e-02, 5.85131235e-02,
          3.26737799e-02, 1.07593752e-01, -4.90759090e-02,
          7.47416615e-02, 1.39179781e-01, 6.01083189e-02,
          -8.23065788e-02, -1.75047107e-02, 3.66217382e-02,
          4.03030850e-02, 5.65140955e-02, 2.18708813e-02, 5.57470135e-02,
          1.01764306e-01, -9.54439398e-03, -4.42125788e-03,
          2.07088068e-02, -2.26852782e-02, -1.11015281e-02,
          -1.10754166e-02, -4.87858467e-02, -3.65403704e-02,
          3.42112519e-02, -2.37095617e-02, -1.29191935e-01,
          1.29098790e-02, -1.23630220e-03, -5.23615861e-03,
          -5.21738920e-03, -4.26705778e-02, -9.79000982e-03,
          -9.34743439e-04, -9.03090015e-02, -2.91070761e-03,
          3.26772444e-02, 9.08441618e-02, 9.43725184e-02, 7.00871572e-02,
          3.00804172e-02, 2.77102459e-02, 5.28980829e-02, 4.96156812e-02,
          -1.37083232e-02, 3.85260582e-02, 4.77176979e-02,
          4.76815701e-02, 4.49878909e-02, -9.80405044e-03,
          1.93373989e-02, 6.12463169e-02, 6.35616109e-02,
          -1.19714186e-01, -3.54305394e-02, -1.38808545e-02,
          3.91063616e-02, 2.18782965e-02, -2.90985336e-03,
          -7.12594483e-03, -7.46769737e-03, -2.29685213e-02,
          -1.16929442e-01, -6.35852367e-02, -3.61958407e-02,
          -6.61741793e-02, -8.89283717e-02, -5.53587861e-02,
          -5.94177209e-02, -2.89442465e-02, -3.40673365e-02,
          -3.60707492e-02, 7.19103217e-02, 3.71566638e-02,
          -1.33457072e-02, -1.33890901e-02, -4.54133190e-02,
          1.22256819e-02, 5.22090234e-02, 9.55001041e-02,
          -1.91014800e-02, 8.66289586e-02, 9.20425802e-02,
          -8.76725279e-03, 1.66133661e-02, -4.97703105e-02,
          3.54809128e-02, 6.57429472e-02, 3.27656157e-02,
          -6.88171014e-02, 2.01024041e-02, -1.30367996e-02,
          -5.29536530e-02, -5.68886362e-02, -1.21567203e-02,
          -5.43738790e-02, -1.70211401e-02, -3.28359054e-03,
          -1.95504092e-02, -1.19690765e-02, 1.90797765e-02,
          -5.88650368e-02, 1.97235160e-02, -4.61148471e-02,
          -7.92368595e-03, -3.39669664e-03, -9.40123852e-03,
          -6.00100160e-02, 5.91875315e-02, 1.11852624e-01,
          2.81281434e-02, -4.59716022e-02, -6.25387281e-02,
          3.07277534e-02, 6.71476200e-02, 4.43349332e-02,
          -5.34783788e-02, 6.97795302e-02, 1.06663600e-01,
          -3.64344865e-02, -3.13767903e-02, -5.39807379e-02,
          -2.61353776e-02, 3.96164171e-02, 8.84653702e-02,
          -1.07840382e-01, -8.80436227e-03, 7.85157830e-02,
          1.17471078e-02, 2.29028631e-02, -4.40394506e-02,
          2.34119315e-03, 5.09707555e-02, -2.73423195e-02,
          -6.35183677e-02, -2.50245864e-03, 6.43662810e-02,
          -1.24802282e-02, 2.00892128e-02, -4.86627668e-02,
          -3.85071076e-02, 5.51325791e-02, -4.63799089e-02,
          -6.65996820e-02, 8.20676237e-02, 1.73551235e-02,
          -9.31609869e-02, -3.36913913e-02, -5.23700155e-02,
          -5.26614413e-02, 4.55879383e-02, 4.82577533e-02,
          -1.09480657e-02, 8.09254646e-02, 2.46175379e-02,
          1.05129369e-02, 2.71601565e-02, -8.34223777e-02,
          -9.81048942e-02, 5.41125424e-02, 9.75752901e-03,
          -6.80113882e-02, 2.57265177e-02, -4.65498343e-02,
          -6.44171461e-02, -4.67226468e-02, -1.51106287e-02,
          -2.77966703e-03, 2.71978136e-02, -5.60026877e-02,
          -6.71057999e-02, -5.21887131e-02, 9.24360356e-04,
          1.06925238e-02, 9.56988707e-03, -3.73314135e-02,
          -5.58912009e-02, 2.64829490e-04, -7.66248852e-02,
          -5.13675883e-02, 5.48975132e-02, 5.03836274e-02,
          6.26522526e-02, 7.19902143e-02, -3.67051475e-02,
          -8.20383132e-02, 4.61003296e-02, 6.46659583e-02,
          -2.01160042e-03, 3.43030505e-02, 5.39557915e-03,
          -4.60346527e-02, -4.04935656e-03, -5.46716452e-02,
          -5.84677085e-02, 2.53139883e-02, 3.35627832e-02,
          -1.03907369e-01, 3.63988057e-02, 7.01489672e-02,
          4.90822345e-02, 2.38460451e-02, -4.93449979e-02,
          -6.06199875e-02, 5.69021404e-02, 1.21521363e-02,
          -7.36595094e-02, -2.83433329e-02, 4.03756313e-02,
          -2.81193350e-02, -1.99394114e-02, -7.12336749e-02,
          -7.77677000e-02, 3.61232809e-03, -2.06759339e-03,
          -1.53421601e-02, 4.31185551e-02, 1.53617114e-02,
          1.55908214e-02, 5.30928187e-02, -8.18275381e-03,
          -2.89767999e-02, 2.69516110e-02, 2.88091488e-02,
          7.99739584e-02, 6.23609452e-03, -4.68064994e-02,
          -8.78628530e-03, -1.54645853e-02, -5.42543903e-02,
          -5.40313236e-02, 7.15474039e-02, 8.45988244e-02,
          -4.08194736e-02, 2.43524536e-02, 4.95790951e-02,
          4.79755625e-02, 3.36539373e-02, -5.70205413e-03,
          -4.43804376e-02, -1.74619481e-02, -4.34708223e-02,
          -2.08995454e-02, 3.03667691e-02, -4.65191789e-02,
          1.00269411e-02, 1.28145926e-02, -4.85311188e-02,
          -2.52701938e-02, -1.16877984e-02, 1.89945493e-02,
          4.45337743e-02, 5.92680648e-02, 2.78644878e-02, 3.88669074e-02,
          2.29838341e-02, -3.05767134e-02, -1.44797293e-02,
          3.14522386e-02, 7.02226833e-02, -2.25131232e-02,
          2.06561619e-03, 1.75121222e-02, 3.90844159e-02, 8.32473338e-02,
          3.13984081e-02, 3.93894538e-02, 3.26186419e-02, 3.68800992e-03,
          -1.10743027e-02, 5.20972386e-02, -1.78700406e-02,
          -1.12422789e-02, 4.92646359e-02, -2.12109648e-02,
          4.08104248e-02, 6.35418892e-02, 2.93528456e-02,
          -5.01704179e-02, 3.32226902e-02, -1.83531344e-02,
          4.68466850e-03, 9.06912833e-02, 7.73149123e-03,
          -1.51302507e-02, 3.92276309e-02, -2.59740185e-02,
          3.02229985e-03, 2.55580563e-02, -1.62148755e-03,
          3.95815037e-02, 6.94207847e-02, 7.45584741e-02, 2.67874636e-02,
          4.96966764e-03, 3.46580287e-03, 5.95739484e-02, 5.55067062e-02,
          2.17031979e-04, 1.13823796e-02, 6.39478490e-02, 7.32447058e-02,
          5.06746918e-02, 3.40159126e-02, 3.11323795e-02, 1.97723717e-03,
          1.64630497e-03, 1.17473854e-02, -1.52221823e-03,
          1.83706032e-03, -3.60967778e-02, -6.74333945e-02,
          -4.57857102e-02, 2.81755701e-02, 1.17567256e-02,
          3.73330712e-02, -9.57191270e-03, 1.68570243e-02,
          -6.10321090e-02, -3.36966105e-02, -1.67619865e-02,
          -2.75542848e-02, -1.97749566e-02, -2.16318592e-02,
          2.64906455e-02, 3.20190936e-03, -1.63552933e-03,
          5.61175272e-02, 3.25876102e-02, 1.14561208e-02, 5.17499037e-02,
          -3.31414491e-02, 2.47358829e-02, 7.51058161e-02,
          1.68714649e-03, -7.36113684e-03, 1.12378672e-01,
          6.78508803e-02, 7.23260269e-02, 8.06845427e-02, 4.25058184e-03,
          -2.22636592e-02, 2.73944009e-02, 2.63638329e-02,
          2.82858107e-02, -3.18382941e-02, -5.12020402e-02,
          -3.24681699e-02, -1.59083400e-02, -3.77805233e-02,
          2.93039624e-02, 8.72093961e-02, 3.08671668e-02, 3.60885402e-03,
          3.09425853e-02, 4.09930907e-02, 4.62969719e-03, 1.15154842e-02,
          1.15812058e-02, -3.53432633e-02, 4.15505432e-02,
          1.03480797e-02, -1.53715014e-02, 6.45800605e-02,
          9.30704623e-02, -5.17119877e-02, 4.05109627e-03,
          -1.16864247e-02, -2.14430578e-02, 6.40422851e-02,
          3.34020071e-02, 5.81097789e-02, 9.31487605e-02, 4.57150601e-02,
          -8.54249224e-02, -1.25978747e-02, -2.09132489e-02,
          -6.84443908e-03, 5.61457388e-02, -3.63561288e-02,
          -2.63541215e-03, 1.28153833e-02, -2.85424758e-03,
          -4.15956080e-02, -2.81993356e-02, -2.32916325e-03,
          -6.74693435e-02, 1.30943060e-02, -5.80250360e-02,
          9.74856913e-02, 6.20684884e-02, 3.84356780e-03,
          -5.36628701e-02, -1.35767795e-02, -2.20062435e-02,
          3.32708508e-02, 6.62874207e-02, 4.95415442e-02, 2.92652901e-02,
          2.36461069e-02, -1.36900563e-02, -6.30076928e-03,
          -2.70855706e-02, 1.98939722e-03, -5.62690955e-04,
          -3.37532498e-02, -6.26814831e-03, -5.90062584e-04,
          3.84144932e-02, -2.65222657e-02, -7.08662381e-04,
          -3.35064642e-02, -1.72006004e-02, 5.18821627e-02,
          3.42992358e-02, 3.89247723e-02, 3.67480740e-02, 4.67539430e-02,
          -3.89615744e-02, -1.69885345e-02, -5.62092252e-02,
          2.99430974e-02, 4.67333337e-03, -5.76252490e-02,
          -3.87565349e-04, -1.13756172e-01, -1.94701292e-02,
          -2.52201166e-02, -5.18326052e-02, -3.58728096e-02,
          -2.53970381e-02, -2.97611728e-02, -6.30997308e-03,
          3.22020501e-02, 2.09031794e-02, 4.19677608e-02, 1.59265753e-02,
          3.92291620e-02, 5.54664992e-04, 3.15139554e-02,
          -5.56809492e-02, 3.73715684e-02, 4.55579944e-02,
          -2.88230018e-03, 6.42036274e-03, 1.14225633e-02,
          1.86442342e-02, -1.58500974e-03, -1.91119779e-03,
          -4.29189652e-02, -3.55367549e-02, 3.78731787e-02,
          4.01310128e-04, 3.06315105e-02, -2.05199476e-02,
          6.88314205e-03, -2.36658216e-05, 2.38518119e-02,
          -6.30695745e-02, 1.30070457e-02, 1.26240999e-01,
          3.85709554e-02, 1.55098503e-02, -5.31217381e-02,
          -4.69638500e-03, 1.79690886e-02, 1.22012047e-03,
          -7.45877996e-02, 2.15684641e-02, 2.16112640e-02,
          -3.69185442e-03, -1.00263627e-02, 1.25754923e-02,
          -1.40898135e-02, -1.31116360e-02, 2.84592621e-03,
          3.31338160e-02, -1.85967181e-02, 5.44242114e-02,
          3.44315171e-02, 3.94783355e-02, -3.16957012e-02,
          -1.28001729e-02, 6.39012232e-02, 8.73299092e-02,
          -1.68604687e-01, -2.03444418e-02, 3.96991707e-02,
          3.34576294e-02, 6.89878911e-02, -3.73059213e-02,
          -4.28906605e-02, -2.77669486e-02, -4.21914868e-02,
          -2.44725477e-02, 2.32121069e-03, 4.66933511e-02,
          1.61193181e-02, 3.48571055e-02, 3.50836036e-03,
          -2.34428607e-02, 2.16640737e-02, 5.37922792e-02,
          -3.63557823e-02, -3.04202456e-03, 5.96855208e-02,
          3.21849287e-02, 1.06825046e-02, -5.30134588e-02,
          2.19384413e-02, 8.96403790e-02, 4.07003947e-02,
          -5.02814762e-02, -5.52897230e-02, 1.51046959e-03,
          4.47672885e-03, 6.29635975e-02, 1.49086711e-03, 5.13984077e-02,
          7.22937509e-02, 3.31060030e-02, -4.58052196e-02,
          1.55862942e-02, 2.63261907e-02, 1.95038617e-02,
          -5.84256239e-02, -3.70360389e-02, 1.26523757e-02,
          4.57793362e-02, 1.08512463e-02, -5.53081371e-02,
          -1.85003597e-02, 6.61779568e-02, -1.84407979e-02,
          -9.70720872e-03, -1.61912255e-02, 4.76287939e-02,
          3.25910337e-02, -5.44869602e-02, -3.87159064e-02,
          5.31745888e-02, -1.15487734e-02, -4.71099988e-02,
          2.56850440e-02, 1.02611920e-02, -1.30553823e-03,
          5.59158064e-02, 4.38589528e-02, -3.09092086e-02,
          5.68015836e-02, 4.29124944e-02, 5.30764274e-02, 6.50461987e-02,
          2.03154963e-02, -3.86635102e-02, 1.94113441e-02,
          -4.98049259e-02, -4.55916114e-02, 2.43103821e-02,
          -1.26173887e-02, -3.28718834e-02, 5.37732616e-03,
          -2.19051745e-02, -5.83326332e-02, 3.69815296e-03,
          -7.32732713e-02, -7.36512840e-02, -5.12740389e-03,
          -3.30523178e-02, -2.22624727e-02, 5.14007695e-02,
          3.68893370e-02, -6.04576804e-02, -4.13033590e-02,
          -7.15148225e-02, -4.39580251e-03, 7.82178640e-02,
          7.61141703e-02, 8.51101726e-02, 3.61509174e-02,
          -2.81739626e-02, -5.62390685e-02, 6.50917962e-02,
          5.70337698e-02, -6.98870942e-02, 3.35830357e-03,
          9.77948308e-03, 1.17482627e-02, 3.58854333e-04,
          -3.61593962e-02, -1.03898495e-02, 4.83135022e-02,
          6.11946806e-02, -2.51979474e-02, 4.56104875e-02,
          1.61921866e-02, 7.84856156e-02, 3.14219296e-02, 2.38178065e-03,
          -6.10325150e-02, 1.05223106e-02, 3.29069886e-03,
          -2.99897324e-02, 2.43259482e-02, 2.88931206e-02,
          1.30348885e-02, -1.04705552e-02, -7.36377239e-02,
          -3.88970710e-02, -1.48569774e-02, -1.80057380e-02,
          -5.31409308e-02, 3.81766004e-03, -5.91848511e-03,
          2.51485556e-02, 3.14333700e-02, 3.65589559e-02, 2.01403163e-02,
          2.14664787e-02, 7.20092747e-03, -4.13592197e-02,
          3.93149927e-02, -4.49212007e-02, -2.65407227e-02,
          1.52149762e-03, -1.27246296e-02, 7.40351994e-03,
          1.68346043e-03, 1.67187881e-02, -8.35918933e-02,
          1.56115694e-03, -1.34342145e-02, -7.60444580e-03,
          3.44255641e-02, 4.28180734e-04, -2.46364251e-03,
          1.18502438e-04, -5.13948500e-02, -2.22033430e-02,
          -2.32257508e-02, -5.42088486e-02, -1.06137032e-02,
          3.87478061e-02, -1.00921169e-02, -6.24776669e-02,
          -2.06566439e-03, -7.13468045e-02, -2.48363186e-02,
          6.86317608e-02, 1.04433354e-02, -5.33149438e-03,
          -6.57730130e-03, 2.90575083e-02, 1.07560549e-02,
          4.17088009e-02, 1.66711188e-03, -7.60427862e-03,
          3.90797593e-02, 1.28892055e-02, -2.13911179e-02,
          2.88992357e-02, 4.13615741e-02, 6.97221793e-03, 7.02711269e-02,
          4.80623245e-02, 2.76971292e-02, -1.34115033e-02,
          3.70956259e-03, 2.09001548e-04, 2.47026496e-02, 2.58663166e-02,
          -4.10198011e-02, 2.56737210e-02, -2.77677346e-02,
          1.45348115e-03, -2.07745321e-02, -4.90197092e-02,
          -6.86703995e-02, -1.97685789e-03, 3.76504026e-02,
          3.61091457e-02, 5.29105263e-03, -7.17669725e-03,
          -1.36227822e-02, 3.15205120e-02, 2.65775546e-02,
          -3.72057259e-02, -2.61612628e-02, -1.62779074e-03,
          1.10992277e-02, 2.30837353e-02, 4.40650806e-02, 1.25093367e-02,
          3.73270437e-02, 4.05822322e-02, 2.58996096e-02, 1.46990363e-02,
          -9.40512586e-03, 2.72951070e-02, -1.74562484e-02,
          -9.23814997e-03, 4.61842790e-02, 2.16054153e-02,
          -6.08332977e-02, -7.33375326e-02, -3.34255993e-02,
          -1.01528373e-02, 7.07903132e-02, 4.27681431e-02,
          -1.40178846e-02, 2.13201288e-02, -1.86326820e-02,
          -3.22889797e-02, -2.25622230e-03, 3.33978496e-02,
          5.46207055e-02, 2.85546929e-02, 3.42556718e-03,
          -3.95715535e-02, -1.77024435e-02, 4.08859886e-02,
          2.71843579e-02, 1.40885811e-03, 2.50623878e-02, 1.89900380e-02,
          1.69197144e-03, -2.34174356e-02, -1.52211078e-02,
          4.26932387e-02, 7.97161534e-02, 1.83596201e-02, 2.09883861e-02,
          2.97005232e-02, 8.48036185e-02, -2.60374020e-03,
          1.45766214e-02, 1.31135592e-02, -2.49394756e-02,
          -1.33963879e-02, -3.39329913e-02, -6.61700368e-02,
          2.26019267e-02, 8.63379240e-02, 3.42300460e-02, 1.95514001e-02,
          -8.24107677e-02, 2.06975522e-03, -1.93620520e-03,
          -1.63134206e-02, -9.73079237e-04, 1.60581097e-02,
          4.91745733e-02, -2.33777296e-02, -2.31342372e-02,
          -6.52164742e-02, 7.79991001e-02, 7.91906640e-02,
          -1.56325977e-02, 2.89337765e-02, 3.74124795e-02,
          3.80023159e-02, 3.33865099e-02, 2.12432072e-02, 1.21235847e-01,
          1.23974634e-04, 1.40564861e-02, 1.20675974e-02, 6.19499311e-02,
          5.04650027e-02, -3.22913527e-02, 3.68548930e-02,
          8.02510157e-02, 7.19286278e-02, 1.92132778e-02,
          -2.48113032e-02, -1.75521392e-02, 1.57409236e-02,
          -1.56666674e-02, -1.43648759e-02, -2.45453101e-02,
          4.01531607e-02, -3.80807137e-03, -8.35878367e-04,
          -7.29157627e-02, 3.37078981e-02, 3.63480598e-02,
          -1.05982134e-02, -1.74034219e-02, 3.56526040e-02,
          5.75678684e-02, -4.94842120e-02, -3.96740474e-02,
          -5.49652195e-03, 6.99297413e-02, 4.77380641e-02,
          -3.98590453e-02, -2.26521567e-02, 6.14386089e-02,
          2.55376250e-02, 7.22211301e-02, 7.46254064e-03,
          -4.00529616e-02, 5.49863502e-02, -4.41908836e-02,
          -5.40450253e-02, -2.37469021e-02, 2.09458116e-02,
          -3.87008004e-02, 4.41927835e-03, 2.23598946e-02,
          -7.11612552e-02, -4.68655489e-02, 1.29105626e-02,
          2.82136872e-02, 4.60419711e-03, 7.73767009e-02, 2.29199752e-02,
          4.71724533e-02, -3.53877968e-03, -7.04043061e-02,
          1.04331132e-02, -1.86595097e-02, -8.53041001e-03,
          -1.09853916e-01, 1.95874386e-02, -5.84010705e-02,
          1.40387779e-02, -4.11481932e-02, 3.43755893e-02,
          9.96366367e-02, 1.86179932e-02, 8.89310800e-03,
          -1.60322115e-02, 6.44351169e-02, -5.25192078e-03,
          -5.50698023e-05, -4.87934873e-02, 2.48624925e-02,
          7.88386986e-02, 3.03638857e-02, -8.96501180e-04,
          -2.69875210e-02, 5.41926064e-02, 3.95125300e-02,
          4.13222946e-02, 2.20417529e-02, 2.34254845e-03, 5.89055195e-02,
          6.21582614e-03, -2.88771708e-02, -5.79426549e-02,
          7.19841495e-02, -6.65988773e-03, 2.65313815e-02,
          -1.29041383e-02, -4.20536846e-02, 1.03335232e-01,
          -4.58132662e-02, -3.85552086e-02, -5.03122658e-02,
          7.47612864e-02, 1.17787700e-02, 5.05638421e-02,
          -7.75784701e-02, 5.95486201e-02, 4.18129973e-02,
          6.72194809e-02, 5.94966002e-02, -1.67192183e-02,
          4.67935465e-02, 2.49314047e-02, 1.41519727e-02, 4.67671640e-02,
          3.81920822e-02, 3.01303826e-02, 4.88926545e-02, 3.83208208e-02,
          -1.63562112e-02, 6.45732209e-02, 6.93879351e-02,
          6.05242029e-02, -6.05638660e-02, 3.31652313e-02,
          -6.91050757e-03, -5.07454462e-02, 1.41291432e-02,
          -3.57745588e-02, 1.10102110e-02, 4.34438419e-03,
          -6.47039041e-02, 1.53141571e-02, 2.27221120e-02,
          6.55949190e-02, 1.97865218e-02, 3.93317044e-02,
          -5.62156700e-02, -1.24447385e-03, 3.23819295e-02,
          -9.19996947e-03, -1.85588803e-02, 1.19415335e-01,
          6.43129870e-02, 4.16378789e-02, -3.31105478e-02,
          -6.65688748e-03, 6.39609024e-02, 5.67982867e-02,
          6.08844347e-02, 1.92847252e-02, 1.01914443e-01, 1.22601002e-01,
          1.88597683e-02, -4.50711288e-02, -2.13283417e-03,
          6.83073848e-02, 8.43671784e-02, -4.29229200e-04,
          -3.33236679e-02, 4.12164070e-02, 5.53485379e-02,
          7.57374614e-02, -2.42681839e-02, -3.45548876e-02,
          7.99849350e-03, 2.69451495e-02, -3.36305983e-02,
          -2.63834316e-02, 1.39641324e-02, 1.07722290e-01,
          3.85676101e-02, 3.40749323e-02, 2.19303169e-04, 5.92608340e-02,
          7.37522468e-02, -3.72884907e-02, 2.74958857e-03,
          1.18798457e-01, -1.76450815e-02, -1.53265921e-02,
          8.53210315e-03, -1.97168998e-02, -1.64484826e-03,
          3.60416472e-02, 3.31760086e-02, 4.96741794e-02, 2.91526336e-02,
          -7.06547722e-02, 2.15411168e-02, 6.61973581e-02,
          -7.34502403e-03, -1.06425751e-02, 2.27725320e-03,
          8.13256577e-03, -2.87193600e-02, 1.42653910e-02,
          5.32062352e-02, -3.05440649e-02, 1.29757053e-03,
          -1.39375264e-02, -2.25235447e-02, 5.42613026e-03,
          -3.98547910e-02, 3.64727899e-02, -5.01212962e-02,
          1.57456249e-02, -4.20799144e-02, 5.93149811e-02,
