<?xml version="1.0"?>
<opencv_storage>
<my_svm type_id="opencv-ml-svm">
  <svm_type>C_SVC</svm_type>
  <kernel><type>RBF</type>
    <gamma>3.3750000000000002e-002</gamma></kernel>
  <C>1.2500000000000000e+001</C>
  <term_criteria><epsilon>1.1920928688624599e-009</epsilon>
    <iterations>20000</iterations></term_criteria>
  <var_all>324</var_all>
  <var_count>324</var_count>
  <class_count>4</class_count>
  <class_labels type_id="opencv-matrix">
    <rows>1</rows>
    <cols>4</cols>
    <dt>i</dt>
    <data>
      1 2 3 4</data></class_labels>
  <sv_total>204</sv_total>
  <support_vectors>
    <_>
      2.36032709e-001 2.14425251e-001 2.36032709e-001 2.36032709e-001
      2.36032709e-001 5.87925948e-002 4.22694720e-003 2.39393823e-002
      1.52849495e-001 2.36032709e-001 2.30701864e-001 2.36032709e-001
      2.36032709e-001 2.36032709e-001 3.67977656e-002 1.37472562e-002
      9.96672735e-003 1.51097149e-001 2.36032709e-001 1.17217541e-001
      1.33286431e-001 1.34813428e-001 2.36032709e-001 6.95709884e-002
      8.80031660e-003 2.50001606e-002 1.78462863e-001 2.21953526e-001
      9.68672708e-002 1.63160592e-001 1.34732202e-001 2.36032709e-001
      6.67855889e-002 5.22940904e-002 3.97248045e-002 1.85648367e-001
      2.50003606e-001 1.40057325e-001 1.72585219e-001 1.30914584e-001
      1.77781448e-001 5.11959903e-002 2.61653010e-002 1.30448751e-002
      2.50003606e-001 2.11998358e-001 2.05687527e-002 3.90023775e-002
      2.06913501e-002 8.24032128e-002 8.47906843e-002 2.20235914e-001
      1.14969477e-001 2.49874637e-001 2.50003606e-001 5.27352318e-002
      1.27176121e-001 1.79942012e-001 2.50003606e-001 1.39400154e-001
      2.18767464e-001 1.62877604e-001 2.50003606e-001 1.51036114e-001
      2.09604967e-002 4.83584292e-002 5.93347922e-002 2.50003606e-001
      1.36788830e-001 2.24403948e-001 1.71983942e-001 2.50003606e-001
      1.06194645e-001 4.39038500e-002 1.13045909e-001 5.74437678e-002
      1.75361603e-001 1.96704164e-001 2.43106082e-001 1.72028393e-001
      1.15927339e-001 1.81832835e-001 7.72164315e-002 1.27695367e-001
      6.52526468e-002 2.43106082e-001 2.43106082e-001 2.43106082e-001
      2.43106082e-001 1.59514353e-001 1.39062360e-001 7.34815150e-002
      1.40357599e-001 5.82867824e-002 1.54198661e-001 1.17392331e-001
      7.35989735e-002 4.74823117e-002 1.29765138e-001 2.43106082e-001
      1.58277869e-001 1.83185428e-001 6.34822696e-002 2.43106082e-001
      1.68464094e-001 2.43106082e-001 1.94799438e-001 2.43106082e-001
      8.96760002e-002 6.11250326e-002 1.34747028e-001 1.51433498e-001
      2.99634784e-001 5.16740717e-002 4.22225520e-002 1.73355602e-002
      6.17219992e-002 1.45559579e-001 2.50676982e-002 5.07042147e-002
      9.85030010e-002 2.99634784e-001 7.02437535e-002 8.38292986e-002
      4.96031903e-002 1.43157378e-001 9.02111754e-002 6.24681748e-002
      1.16525382e-001 1.04262173e-001 2.99634784e-001 2.61546671e-001
      2.99634784e-001 1.88623279e-001 2.58714408e-001 1.79876447e-001
      6.48505688e-002 7.75828734e-002 6.74812570e-002 2.99634784e-001
      1.08526669e-001 2.81221122e-001 7.61172622e-002 2.57810652e-001
      1.36193186e-001 1.47834318e-002 4.02757823e-002 8.44761580e-002
      2.78523892e-001 8.01474378e-002 1.39499217e-001 9.93474424e-002
      2.19989523e-001 1.44585192e-001 1.88129991e-002 4.67968956e-002
      5.62533997e-002 2.78523892e-001 1.11064859e-001 1.70036495e-001
      1.08771175e-001 2.39763960e-001 2.13992804e-001 2.94382852e-002
      4.76222038e-002 3.73136550e-002 2.78523892e-001 8.78545418e-002
      1.32003278e-001 5.27744666e-002 2.64322728e-001 2.78523892e-001
      7.60786831e-002 1.21105134e-001 1.11718073e-001 2.78523892e-001
      2.04913855e-001 2.24162579e-001 9.80893672e-002 2.78523892e-001
      1.36174768e-001 3.51899751e-002 5.14838323e-002 2.95876842e-002
      2.61810988e-001 8.23506266e-002 9.33965370e-002 4.21315730e-002
      1.45327941e-001 1.50489315e-001 6.49538934e-002 4.88508046e-002
      1.85912196e-002 2.61810988e-001 4.75745648e-002 6.79661334e-002
      6.99377805e-002 1.71224311e-001 2.61810988e-001 6.05358034e-002
      8.76741484e-002 1.24086663e-001 2.61810988e-001 2.61810988e-001
      2.61810988e-001 2.17004791e-001 1.93649471e-001 2.61810988e-001
      1.46515787e-001 2.39469975e-001 1.98963299e-001 2.61810988e-001
      9.29957405e-002 2.19609007e-001 1.32330507e-001 1.11799613e-001
      4.62574624e-002 2.21678093e-002 1.58512574e-002 2.23584026e-002
      1.71902701e-001 2.25386098e-001 2.78050154e-001 2.21781924e-001
      2.09065914e-001 8.90443921e-002 3.37598883e-002 4.41200696e-002
      3.97960655e-002 2.03555599e-001 9.83629450e-002 2.03749791e-001
      8.89206082e-002 1.37302876e-001 5.30104451e-002 2.34139301e-002
      1.14812544e-002 2.12481581e-002 1.25403315e-001 2.72339344e-001
      2.78050154e-001 2.78050154e-001 1.82477221e-001 2.23700106e-001
      1.75986644e-002 1.93751212e-002 2.32964493e-002 1.42846584e-001
      1.72928616e-001 2.78050154e-001 2.70812064e-001 2.78050154e-001
      1.70627892e-001 2.62066070e-002 4.03474383e-002 2.98650712e-002
      1.79747790e-001 4.98158112e-002 8.82189125e-002 3.59854102e-002
      1.92742452e-001 2.50161290e-001 5.10112047e-002 5.88533096e-002
      9.12711099e-002 2.50161290e-001 2.50161290e-001 2.02789366e-001
      1.66825905e-001 2.50161290e-001 2.50161290e-001 7.11535588e-002
      6.59511089e-002 3.29303071e-002 1.88226089e-001 3.48264091e-002
      2.07879663e-001 1.23590589e-001 2.50161290e-001 2.50161290e-001
      2.50161290e-001 2.05816522e-001 1.22418769e-001 2.50161290e-001
      6.36330247e-002 6.83009103e-002 5.75816073e-002 2.50161290e-001
      1.30546644e-001 2.23498307e-002 2.92123593e-002 7.09862784e-002
      2.42475942e-001 1.64340585e-001 2.42475942e-001 1.66993901e-001
      1.39259845e-001 2.02542499e-001 1.21876493e-001 2.42475942e-001
      1.88487604e-001 2.42475942e-001 6.73172772e-002 1.55567899e-001
      1.29744828e-001 1.25889122e-001 2.42475942e-001 1.63272485e-001
      1.26770467e-001 1.22087032e-001 2.42475942e-001 4.38058339e-002
      5.00562303e-002 6.00420199e-002 1.65668994e-001 2.42475942e-001
      2.26975441e-001 2.42475942e-001 2.14483857e-001 2.42475942e-001
      2.60250140e-002 5.43215424e-002 6.74801767e-002 1.38096750e-001</_>
    <_>
      2.74942666e-001 2.74942666e-001 2.74942666e-001 1.40284926e-001
      1.00703180e-001 8.75938311e-003 2.17639888e-003 3.50499235e-004
      1.02984488e-001 2.74942666e-001 2.74942666e-001 2.74942666e-001
      1.87245026e-001 8.62965733e-002 9.69313830e-003 9.70935170e-003
      7.79285270e-004 2.41131872e-001 2.74942666e-001 2.74942666e-001
      2.74942666e-001 1.44752681e-001 1.74703225e-001 1.51496464e-002
      3.15962825e-003 6.96825446e-004 1.18753582e-001 2.05071405e-001
      1.57416508e-001 1.30398899e-001 1.25806272e-001 8.17418471e-002
      3.12210340e-003 2.39053299e-003 2.29380745e-003 5.81093282e-002
      3.89225930e-001 1.77314833e-001 2.54344583e-001 9.61442068e-002
      2.75490191e-002 5.39803552e-003 1.71387848e-002 7.76132848e-003
      3.89225930e-001 3.89225930e-001 6.16691215e-003 1.86761562e-002
      6.72094896e-003 8.84322729e-003 7.36161694e-002 3.71792376e-001
      2.47789979e-001 3.89225930e-001 1.28823325e-001 4.64512818e-002
      6.09160848e-002 4.55083586e-002 3.09543889e-002 3.16523015e-003
      6.89289626e-003 3.19748744e-003 7.43951499e-002 8.45134407e-002
      2.64422875e-003 6.71265135e-003 4.82890010e-003 9.38271172e-003
      1.47592947e-002 1.02866508e-001 5.90002835e-002 1.59266919e-001
      2.01932222e-001 3.71190323e-003 1.04928957e-002 4.33016615e-003
      1.49990972e-002 6.50787354e-002 2.72597879e-001 2.72597879e-001
      2.72597879e-001 1.05136335e-001 9.74276438e-002 1.00646593e-001
      7.92472288e-002 1.61674351e-001 1.79904267e-001 2.72597879e-001
      2.72597879e-001 2.72597879e-001 5.24454191e-002 2.19880207e-003
      3.77555168e-003 1.30970927e-003 3.44086662e-002 3.94751243e-002
      1.34098113e-001 1.08480737e-001 1.53227046e-001 7.09453002e-002
      2.91012898e-002 1.55754313e-002 2.18538661e-002 2.72597879e-001
      2.72597879e-001 2.72597879e-001 2.72597879e-001 2.19084501e-001
      3.31639796e-001 3.31639796e-001 3.31639796e-001 1.85214907e-001
      3.31639796e-001 7.69878328e-002 2.76498981e-002 2.02646758e-002
      1.59263864e-001 1.27243415e-001 9.76908654e-002 5.79520389e-002
      4.51271608e-002 4.15967293e-002 2.92113889e-003 6.51668571e-003
      5.76130673e-003 4.41114567e-002 5.67818172e-002 1.76241901e-002
      2.03421693e-002 4.61855158e-002 3.31639796e-001 3.31639796e-001
      3.31639796e-001 3.31639796e-001 7.47119039e-002 1.71662122e-002
      8.49694759e-003 1.69617012e-002 1.17236031e-002 3.44341807e-002
      5.71898045e-003 2.94094663e-002 2.10972931e-002 1.27033051e-002
      3.18352222e-001 2.26124674e-001 1.97525904e-001 2.73781329e-001
      3.18352222e-001 1.07827418e-001 2.07185462e-001 1.03259653e-001
      3.18352222e-001 2.31054574e-001 5.97331710e-002 1.23397030e-001
      1.38607830e-001 2.06763074e-001 1.09298579e-001 1.19772680e-001
      3.96947153e-002 2.13039592e-001 2.16522902e-001 7.84949064e-002
      1.92254424e-001 8.87048766e-002 3.18352222e-001 7.02547422e-003
      4.26677726e-002 1.44191543e-002 1.89684629e-001 8.83653909e-002
      3.87023273e-003 1.15811676e-002 0. 4.43773344e-002 0.
      6.10509282e-003 2.04021693e-003 8.83653909e-002 1.38890771e-002
      1.32360531e-003 2.27800664e-003 1.35275652e-003 4.89529222e-002
      2.26385463e-002 1.35420868e-002 1.35996761e-002 1.50202354e-002
      9.89443064e-002 6.58931769e-003 2.74808914e-003 1.77329332e-002
      3.51255387e-001 3.51255387e-001 3.51255387e-001 3.20973188e-001
      1.18784659e-001 2.10900679e-002 1.71216510e-004 9.53267445e-005
      2.95946840e-004 1.79558173e-002 1.19126518e-004 5.19051828e-005
      1.73457993e-005 2.09284276e-002 2.27792576e-001 2.64589489e-003
      2.97751501e-002 5.47476411e-002 3.51255387e-001 2.40705416e-001
      3.28939617e-001 2.65335619e-001 2.80083328e-001 3.21247801e-002
      6.65269210e-004 1.54138380e-003 5.67640737e-003 1.13706149e-001
      1.42612994e-001 3.19607586e-001 3.19607586e-001 8.64205509e-002
      4.42408957e-002 1.07396895e-003 2.07451358e-003 1.59146450e-003
      1.05161257e-002 1.06821377e-002 1.24494277e-001 1.00643389e-001
      1.21504173e-001 5.47839664e-002 1.63716570e-004 3.90534056e-003
      3.99660133e-003 8.45275149e-002 1.26660898e-001 3.19607586e-001
      3.19607586e-001 2.03134373e-001 3.19607586e-001 1.36951627e-002
      1.98583584e-002 8.94370396e-003 1.30536392e-001 1.00222737e-001
      3.19607586e-001 3.19607586e-001 3.19607586e-001 8.07612613e-002
      5.81280619e-004 1.32432114e-003 6.11890981e-004 4.64218296e-003
      1.52071950e-003 2.21216138e-002 2.04706192e-002 1.05025358e-001
      9.13143381e-002 4.34626862e-002 7.01106787e-002 3.06140352e-003
      4.20749187e-003 0. 4.16166440e-004 1.39075855e-004 8.20495337e-002
      4.10341322e-001 4.85008955e-002 4.89444658e-002 8.51393212e-003
      6.76801130e-002 2.09839102e-002 9.35080722e-002 1.16089419e-001
      4.10341322e-001 4.10341322e-001 3.38164598e-001 3.66177261e-001
      2.79251374e-002 2.11985912e-002 1.45351011e-002 5.48824377e-004
      6.89300243e-003 4.10341322e-001 1.01297006e-001 1.20584197e-001
      1.92152694e-001 2.34997384e-002 8.92015733e-003 1.96811743e-003
      6.26184326e-003 7.18996953e-003 8.69609267e-002 2.08252445e-001
      1.11115068e-001 1.83581486e-001 1.08699724e-001 1.17468394e-001
      1.26552761e-001 1.07439809e-001 1.11506999e-001 2.58592218e-001
      3.00530672e-001 3.00530672e-001 3.00530672e-001 7.40050822e-002
      1.74612850e-002 6.70487573e-003 8.14717356e-003 1.04451766e-002
      3.00530672e-001 2.14467615e-001 3.00530672e-001 3.00530672e-001
      1.86382592e-001 1.01664446e-001 9.14872065e-002 6.69875816e-002
      8.87271985e-002 2.13013142e-001</_>
    <_>
      1.67389259e-001 1.63874030e-001 2.69618273e-001 2.69618273e-001
      1.03172310e-001 4.94764671e-002 4.58869413e-002 4.26610783e-002
      1.20308034e-001 2.19356686e-001 1.13403179e-001 2.58765072e-001
      2.21514761e-001 4.70875092e-002 1.29730403e-001 1.89808145e-001
      9.37319025e-002 2.16006458e-001 1.12043709e-001 7.99480379e-002
      1.85455710e-001 2.69618273e-001 2.69618273e-001 1.45904854e-001
      1.72578186e-001 5.53726256e-002 9.98166353e-002 6.00580946e-002
      5.47910482e-002 5.07263169e-002 8.54750872e-002 7.06501901e-002
      2.69618273e-001 2.69618273e-001 1.86821744e-001 1.15882821e-001
      2.58965045e-001 5.33386953e-002 8.91585946e-002 6.94965422e-002
      3.83049212e-002 1.34256855e-001 1.81819856e-001 1.00965939e-001
      2.58965045e-001 2.58965045e-001 1.67365652e-002 4.56761289e-003
      8.57225712e-003 6.77979514e-002 1.18215062e-001 1.95678160e-001
      2.22874045e-001 2.58965045e-001 6.50743097e-002 1.44764613e-002
      2.78363694e-002 4.07164209e-002 6.85865134e-002 2.58965045e-001
      2.58965045e-001 2.31973246e-001 1.66744739e-001 2.58965045e-001
      1.63581401e-001 2.38087311e-001 1.80009976e-001 1.71069667e-001
      1.03659928e-001 1.21661052e-001 1.08514756e-001 2.58965045e-001
      1.26406655e-001 1.81368906e-002 2.19708262e-003 9.95078124e-003
      2.04473138e-001 9.95623991e-002 2.38462925e-001 2.32039064e-001
      1.73408061e-001 4.52646948e-002 6.73882803e-003 6.05867826e-004
      5.74240275e-003 2.29299694e-001 2.24291056e-001 2.38462925e-001
      2.38462925e-001 7.06504881e-002 2.38462925e-001 1.62018940e-001
      1.77092314e-001 1.52019486e-001 2.38462925e-001 5.89155033e-002
      9.96489674e-002 1.14153273e-001 2.29468927e-001 1.80851132e-001
      4.56628501e-002 6.43259138e-002 6.89607859e-002 2.38462925e-001
      2.38462925e-001 2.38462925e-001 2.02603549e-001 1.90018713e-001
      3.87048088e-002 1.46164000e-002 9.69852582e-002 1.85765609e-001
      2.90716022e-001 9.19774696e-002 1.20063402e-001 1.81849878e-002
      4.30587120e-002 3.04534454e-002 9.93885752e-003 8.45266953e-002
      9.84679461e-002 1.56933025e-001 2.90716022e-001 2.90716022e-001
      2.39261463e-001 8.11412856e-002 1.57131210e-001 9.18619409e-002
      1.61409274e-001 1.16409317e-001 2.90716022e-001 1.26011208e-001
      1.67921886e-001 2.27335170e-002 1.07436381e-001 2.55424887e-001
      2.53771245e-001 2.90716022e-001 2.90716022e-001 1.46289945e-001
      7.55199566e-002 6.95434362e-002 8.92893374e-002 1.20687790e-001
      8.46824497e-002 6.83036586e-003 6.28816783e-002 9.03170630e-002
      1.49332821e-001 2.22562790e-001 2.22562790e-001 2.06205040e-001
      1.66852564e-001 2.22562790e-001 9.07277465e-002 1.93692625e-001
      1.65698797e-001 2.04942271e-001 1.65882438e-001 7.57886022e-002
      7.04337358e-002 2.22562790e-001 1.64618880e-001 1.28180563e-001
      2.22562790e-001 2.22562790e-001 1.67345077e-001 1.14735156e-001
      9.29536223e-002 1.12672441e-001 1.71612099e-001 1.66113868e-001
      6.37520850e-002 1.28141448e-001 1.57675028e-001 2.22562790e-001
      2.22562790e-001 1.92530811e-001 2.02628553e-001 2.22562790e-001
      2.62900829e-001 1.87877595e-001 2.62900829e-001 2.29447022e-001
      2.55253792e-001 1.03947878e-001 3.36604044e-002 5.32874689e-002
      2.62900829e-001 1.57833755e-001 5.18895797e-002 1.09761015e-001
      9.05667916e-002 2.62900829e-001 2.62900829e-001 2.62900829e-001
      9.22753736e-002 1.38606638e-001 1.34157062e-001 4.64702137e-002
      1.12432256e-001 1.07050687e-001 2.18823209e-001 2.24558622e-001
      1.83968842e-001 1.71521008e-001 1.25417367e-001 3.12526971e-002
      1.25067215e-002 3.21882255e-002 3.19881253e-002 2.62900829e-001
      1.51834726e-001 1.46322772e-001 1.71983317e-002 2.41610073e-002
      2.29999945e-001 9.22718421e-002 1.33446306e-001 7.65124336e-002
      2.29999945e-001 1.42130584e-001 1.53030097e-001 7.47776106e-002
      2.29999945e-001 2.29999945e-001 2.29999945e-001 2.29999945e-001
      2.29999945e-001 1.18465506e-001 1.31710991e-002 2.30777282e-002
      2.15353183e-002 1.16007522e-001 1.74705386e-001 2.60614231e-002
      6.16554916e-002 6.39723986e-002 2.22802788e-001 2.12823018e-001
      2.29999945e-001 1.46362647e-001 2.29999945e-001 1.44610137e-001
      9.60353613e-002 1.58349589e-001 1.51601583e-001 2.29999945e-001
      1.71514213e-001 2.29999945e-001 1.08767956e-001 1.75672278e-001
      2.44129747e-001 2.45125368e-001 2.56729573e-001 2.33637258e-001
      7.80737698e-002 7.56940171e-002 8.57107416e-002 9.59153026e-002
      1.63270444e-001 8.19028169e-002 6.31505921e-002 7.77131394e-002
      8.06480944e-002 1.45659804e-001 2.56729573e-001 2.56729573e-001
      2.56729573e-001 2.12069854e-001 1.83859751e-001 9.33076814e-002
      9.16923732e-002 7.72918314e-002 1.38898388e-001 9.40992013e-002
      8.70498344e-002 7.05390647e-002 1.91913679e-001 2.01883450e-001
      8.27325881e-002 3.56994011e-002 8.70139152e-003 6.45088553e-002
      2.28380933e-001 2.56729573e-001 2.56729573e-001 2.08682880e-001
      2.74856258e-002 1.11267427e-002 2.00183131e-002 1.96275394e-002
      7.93142691e-002 2.30099201e-001 2.57871836e-001 2.57871836e-001
      8.23684111e-002 4.02502567e-002 7.06901252e-002 1.48893684e-001
      9.95831564e-002 2.57871836e-001 6.79594129e-002 1.34925008e-001
      1.14560388e-001 4.83447462e-002 1.06035076e-001 9.59163830e-002
      5.34682423e-002 1.02109080e-002 1.08420976e-001 2.37176687e-001
      2.57871836e-001 2.57871836e-001 1.58931702e-001 1.15281023e-001
      2.22861335e-001 2.57871836e-001 1.73232272e-001 2.50502855e-001
      1.19198024e-001 2.57871836e-001 2.57871836e-001 1.84840679e-001</_>
    <_>
      1.38704956e-001 1.98390365e-001 2.57801324e-001 1.12144299e-001
      1.66760266e-001 5.29680662e-002 1.20594747e-001 2.82101203e-002
      9.40982550e-002 1.37629718e-001 9.31627378e-002 2.08078280e-001
      1.05287544e-001 2.57801324e-001 1.52801454e-001 2.57801324e-001
      3.44990790e-002 1.43368140e-001 8.01063478e-002 1.50381595e-001
      2.57801324e-001 1.46875948e-001 2.57801324e-001 1.19134881e-001
      2.19022885e-001 7.10323974e-002 1.00452527e-001 4.78177480e-002
      5.38420007e-002 7.56713301e-002 1.86368786e-002 2.24133328e-001
      2.57801324e-001 2.57801324e-001 2.54028618e-001 1.58697307e-001
      2.48281240e-001 4.06172611e-002 1.02144063e-001 6.35633469e-002
      1.20606765e-001 9.91186574e-002 1.84113756e-001 3.07785552e-002
      2.48281240e-001 2.41157249e-001 7.18151871e-003 2.13604681e-002
      2.15202402e-002 8.95285904e-002 1.72587261e-001 2.48281240e-001
      2.48281240e-001 2.48281240e-001 6.55528978e-002 7.60181993e-002
      6.21499792e-002 1.80089176e-002 1.82775274e-001 2.48281240e-001
      2.48281240e-001 2.45194525e-001 1.16631970e-001 2.39302844e-001
      2.48281240e-001 2.48281240e-001 1.90558746e-001 8.74444023e-002
      1.13534182e-001 1.21755026e-001 9.88981798e-002 1.01709090e-001
      8.01590458e-002 1.66987088e-002 4.32497375e-002 4.57233265e-002
      1.03053510e-001 2.25669578e-001 2.37779185e-001 2.37779185e-001
      2.04036921e-001 8.26062635e-002 2.14124378e-002 3.90746891e-002
      5.33182472e-002 1.04397282e-001 2.37779185e-001 2.37779185e-001
      1.74695313e-001 1.40180767e-001 2.37779185e-001 2.15481520e-001
      2.37779185e-001 2.11822420e-001 8.95192921e-002 1.28157124e-001
      1.18781425e-001 7.08851442e-002 1.39196634e-001 2.37779185e-001
      6.84953853e-002 1.52067766e-001 1.24053337e-001 1.87785700e-001
      2.37779185e-001 2.37779185e-001 1.13813922e-001 2.37779185e-001
      2.89434791e-002 3.63792852e-002 1.40981108e-001 1.41618222e-001
      2.78714150e-001 6.63104877e-002 8.64041522e-002 4.51114550e-002
      4.75573577e-002 2.97244098e-002 5.81581481e-002 1.36889100e-001
      1.27297342e-001 2.78714150e-001 2.78714150e-001 2.78714150e-001
      2.65516013e-001 1.31469697e-001 3.21509130e-002 3.30447443e-002
      1.29529327e-001 7.97743276e-002 2.78714150e-001 1.88177630e-001
      1.82418898e-001 1.12738535e-001 1.42902732e-001 1.20316848e-001
      1.70719042e-001 2.78714150e-001 2.78714150e-001 2.78714150e-001
      1.00490324e-001 7.78245255e-002 4.28027324e-002 4.27057222e-002
      7.71474019e-002 1.18178464e-001 1.04077488e-001 7.55550265e-002
      2.28954539e-001 1.94961682e-001 2.22070023e-001 1.63120478e-001
      7.35854432e-002 2.20848545e-001 2.28954539e-001 2.28954539e-001
      1.74326897e-001 9.98318717e-002 8.29233229e-002 8.18078965e-002
      6.20839745e-002 6.94878623e-002 1.51329875e-001 1.76468432e-001
      2.28954539e-001 1.95892781e-001 2.28954539e-001 1.66506693e-001
      1.41866714e-001 6.07176498e-002 4.70423214e-002 1.32038921e-001
      2.28954539e-001 2.28954539e-001 1.09083965e-001 2.28954539e-001
      2.28954539e-001 2.28954539e-001 1.55288652e-001 8.18944126e-002
      2.47699961e-001 2.47699961e-001 2.47699961e-001 2.47699961e-001
      7.49929994e-002 4.99689542e-002 5.01621105e-002 2.43969243e-002
      1.52259871e-001 2.47699961e-001 8.39260221e-002 1.37957931e-001
      8.09505284e-002 1.46099538e-001 2.47699961e-001 2.47699961e-001
      8.02599415e-002 2.47699961e-001 7.88392276e-002 1.71623036e-001
      2.42779315e-001 1.41146079e-001 2.06201792e-001 1.93536252e-001
      1.20890863e-001 1.27576664e-001 8.92997086e-002 4.27322835e-002
      2.39439327e-002 7.57489279e-002 6.31580874e-002 2.28777215e-001
      2.21316278e-001 2.47699961e-001 2.81710606e-002 5.36837541e-002
      4.23856862e-002 6.63207173e-002 1.39727041e-001 6.13972619e-002
      1.42936423e-001 2.47374848e-001 2.60344714e-001 1.54602721e-001
      1.54062316e-001 1.28143013e-001 2.42145240e-001 2.60344714e-001
      2.60344714e-001 1.16355643e-001 1.03829741e-001 1.21949092e-001
      6.15727231e-002 5.91175444e-002 5.96531853e-002 5.11010140e-002
      6.97318986e-002 2.58804411e-002 1.30827650e-001 2.60344714e-001
      2.60344714e-001 1.54875949e-001 1.60836965e-001 9.54814628e-002
      1.47141337e-001 1.77427053e-001 8.14583600e-002 2.06939399e-001
      2.60344714e-001 2.60344714e-001 1.69979140e-001 1.52928993e-001
      2.02624753e-001 2.38088697e-001 2.55045980e-001 1.90402463e-001
      1.63420737e-001 1.65677771e-001 1.81153581e-001 3.41282971e-002
      6.53115809e-002 9.48779285e-002 8.87901708e-002 8.33131000e-002
      3.26993279e-002 2.55045980e-001 2.55045980e-001 2.55045980e-001
      2.55045980e-001 2.05967069e-001 1.21049032e-001 9.70655009e-002
      1.09743975e-001 4.95142974e-002 1.54403374e-001 1.31300941e-001
      1.35571107e-001 8.09757188e-002 1.25887215e-001 1.83838114e-001
      2.40588989e-002 3.69463935e-002 2.58928798e-002 1.13339871e-001
      2.14811459e-001 2.55045980e-001 1.80444628e-001 2.55045980e-001
      3.77942324e-002 1.91576499e-002 3.38732339e-002 2.79145949e-002
      1.36812299e-001 2.44122028e-001 2.44122028e-001 2.32437119e-001
      1.93286449e-001 2.95891184e-002 2.99083651e-003 2.13708684e-001
      1.69419885e-001 1.46727726e-001 9.57650617e-002 1.75872222e-001
      5.69007024e-002 9.88552421e-002 1.49149582e-001 3.31045054e-002
      5.37116528e-002 7.27527440e-002 9.00210217e-002 2.44122028e-001
      2.44122028e-001 2.27855980e-001 2.44122028e-001 2.44122028e-001
      4.08956818e-002 2.44122028e-001 2.44122028e-001 6.61302358e-002
      1.48188114e-001 2.44122028e-001 1.35393456e-001 2.44122028e-001</_>
    <_>
      1.29936948e-001 1.23301089e-001 1.89926669e-001 1.18117400e-001
      1.50580615e-001 9.26179811e-002 1.11883894e-001 1.88143328e-001
      2.37384841e-001 2.46591210e-001 1.68859378e-001 1.75986379e-001
      1.91117942e-001 2.30762467e-001 1.27845302e-001 1.58082262e-001
      2.33146101e-001 1.81316033e-001 6.33788481e-002 1.86675284e-002
      3.88826914e-002 4.77743372e-002 2.46591210e-001 1.71372071e-001
      1.45373181e-001 1.75208986e-001 1.57212690e-001 2.48965453e-002
      1.30013200e-002 3.97248082e-002 7.06646517e-002 2.46591210e-001
      2.46591210e-001 2.46591210e-001 2.46591210e-001 1.25684604e-001
      2.51467139e-001 1.61048636e-001 1.83439568e-001 1.01692349e-001
      1.15159228e-001 6.75025359e-002 1.16387755e-001 1.31413609e-001
      1.42023399e-001 1.80731297e-001 1.07507579e-001 9.33125913e-002
      7.03552365e-002 5.47522493e-002 6.01426698e-002 1.67102680e-001
      1.43165126e-001 2.51467139e-001 1.44117147e-001 2.76122354e-002
      2.50570346e-002 3.49714831e-002 1.28231868e-001 2.45162621e-001
      2.51467139e-001 2.51467139e-001 2.43207648e-001 2.51467139e-001
      2.51467139e-001 1.97100922e-001 2.25630835e-001 1.44460201e-001
      7.04382956e-002 1.36068031e-001 1.00035451e-001 2.51467139e-001
      1.19932503e-001 1.13141380e-001 5.34998327e-002 1.18779510e-001
      1.69895232e-001 1.42756194e-001 1.35064319e-001 1.61863491e-001
      2.27212504e-001 1.29070848e-001 6.26604185e-002 2.49081906e-002
      7.69877508e-002 2.11280584e-001 2.27212504e-001 2.27212504e-001
      2.27212504e-001 2.27212504e-001 1.51256308e-001 2.27212504e-001
      2.20048204e-001 2.27212504e-001 1.55885324e-001 6.33579344e-002
      2.25624405e-002 3.67082246e-002 1.33994266e-001 1.31241500e-001
      1.69586331e-001 8.82990286e-002 1.55438468e-001 2.22019434e-001
      1.99469313e-001 2.27212504e-001 2.27212504e-001 1.92452163e-001
      2.40743868e-002 1.73143502e-002 3.89289781e-002 4.50632349e-002
      3.11331689e-001 1.03459828e-001 6.97303638e-002 5.04100099e-002
      3.14949565e-002 1.46514094e-002 4.98299114e-002 1.51054054e-001
      6.42268360e-002 1.90565705e-001 2.45713741e-001 3.11331689e-001
      2.85855293e-001 4.31564301e-002 6.46005124e-002 5.16474694e-002
      7.53145963e-002 9.40960869e-002 3.11331689e-001 1.65543184e-001
      1.47700295e-001 1.17012657e-001 8.18211138e-002 6.96886256e-002
      3.11331689e-001 3.11331689e-001 3.06736887e-001 2.18471661e-001
      8.97173658e-002 1.64187416e-001 6.94478005e-002 3.66573147e-002
      1.31680995e-001 5.01122326e-002 1.05638832e-001 6.02309592e-002
      9.17863548e-002 1.52967706e-001 2.43455216e-001 2.14790851e-001
      1.89693868e-001 2.42528424e-001 1.38450071e-001 1.11536078e-001
      1.35468006e-001 2.43455216e-001 9.00113359e-002 1.07987888e-001
      7.01380223e-002 2.43455216e-001 2.28745326e-001 2.43455216e-001
      2.43455216e-001 1.81510568e-001 1.00732826e-001 5.85535616e-002
      9.87661257e-002 4.95810471e-002 1.46157429e-001 2.43455216e-001
      8.22035894e-002 1.26364842e-001 9.80419815e-002 2.43455216e-001
      1.63051680e-001 1.35569617e-001 1.77863136e-001 2.43455216e-001
      1.17507160e-001 2.61122376e-001 2.01042652e-001 2.35431954e-001
      2.61122376e-001 7.49433637e-002 5.81587926e-002 3.30318622e-002
      1.16988972e-001 2.94650011e-002 1.23235337e-001 9.01908726e-002
      1.11870408e-001 2.61122376e-001 1.03566743e-001 1.02992944e-001
      1.06848404e-001 3.81755531e-002 1.46219209e-001 3.28932330e-002
      6.02538101e-002 8.34790468e-002 2.61122376e-001 2.61122376e-001
      2.60160297e-001 2.61122376e-001 1.40971869e-001 6.18796460e-002
      1.97215080e-001 2.06460267e-001 2.61122376e-001 2.61122376e-001
      1.12605102e-001 8.91337991e-002 1.35528535e-001 5.10827675e-002
      1.30210057e-001 5.46767227e-002 3.91247086e-002 9.40841734e-002
      2.32123926e-001 2.00866565e-001 1.83357328e-001 1.83779210e-001
      1.72797129e-001 1.07284561e-001 2.32123926e-001 2.32123926e-001
      2.19609141e-001 2.05652595e-001 1.27734274e-001 1.20151870e-001
      1.07662253e-001 8.71776268e-002 1.32412463e-001 5.15242703e-002
      2.96345316e-002 6.87783211e-002 2.32123926e-001 2.32123926e-001
      2.32123926e-001 2.32123926e-001 1.48275033e-001 1.00502618e-001
      1.03774905e-001 5.66428229e-002 7.48315305e-002 1.74190611e-001
      2.32123926e-001 2.32123926e-001 2.32123926e-001 1.76521853e-001
      1.78812236e-001 2.47200176e-001 2.47200176e-001 1.70343921e-001
      9.76713151e-002 5.08640297e-002 6.87817410e-002 6.51156083e-002
      1.18931085e-001 2.47200176e-001 7.80292675e-002 9.84777883e-002
      4.92177866e-002 1.02858618e-001 1.78885579e-001 1.53008595e-001
      2.42216900e-001 2.30502158e-001 1.23993672e-001 1.24056004e-001
      1.29897267e-001 4.37217169e-002 7.42352679e-002 1.33779183e-001
      2.47200176e-001 2.47200176e-001 2.47200176e-001 2.47200176e-001
      1.91128701e-001 2.01549113e-001 4.65868339e-002 6.85969591e-002
      6.02523759e-002 1.58243611e-001 1.75430372e-001 2.47200176e-001
      1.14340059e-001 3.42242904e-002 1.63988974e-002 5.72526716e-002
      1.34593576e-001 2.35744268e-001 1.65724546e-001 2.35744268e-001
      1.26884758e-001 1.73292965e-001 2.10176274e-001 1.56507760e-001
      2.35744268e-001 2.35744268e-001 1.35883212e-001 7.97321126e-002
      1.32306665e-001 1.19096868e-001 2.35744268e-001 1.97387025e-001
      1.47254124e-001 1.37955949e-001 1.77826971e-001 1.09437846e-001
      4.97163236e-002 1.03032343e-001 2.01120883e-001 2.35744268e-001
      2.35744268e-001 2.35744268e-001 2.35744268e-001 2.15969145e-001
      9.22084525e-002 6.79621994e-002 7.15968087e-002 1.45192802e-001</_>
    <_>
      1.85222685e-001 1.46611392e-001 1.85820237e-001 6.94858953e-002
      2.28794307e-001 2.56613959e-002 1.31072596e-001 7.53630325e-002
      1.58091456e-001 1.69998854e-001 2.25487307e-001 2.80495763e-001
      9.53237042e-002 2.43545040e-001 2.04320382e-002 1.31257117e-001
      6.21930994e-002 1.21599413e-001 1.70581847e-001 1.34639308e-001
      2.27076232e-001 1.29630953e-001 2.80495763e-001 4.20422330e-002
      2.13472024e-001 8.93223807e-002 1.81269929e-001 1.21590324e-001
      1.34669289e-001 2.80495763e-001 1.56453773e-001 2.80495763e-001
      2.50861701e-002 1.70469075e-001 6.07753731e-002 8.64480585e-002
      1.71338394e-001 1.34587243e-001 2.77900457e-001 4.26379666e-002
      1.81798384e-001 6.05108887e-002 2.77900457e-001 8.23279098e-002
      1.36413693e-001 2.77900457e-001 3.77866589e-002 1.59290880e-001
      1.94253325e-002 5.99040650e-002 4.06675376e-002 2.11139187e-001
      4.87190038e-002 2.67769039e-001 7.36626238e-002 4.89944667e-002
      1.71782106e-001 3.44937630e-002 2.77900457e-001 1.12093166e-001
      2.77900457e-001 1.55834198e-001 8.24439898e-002 1.23031907e-001
      1.01050891e-001 2.77900457e-001 6.80963174e-002 2.05446973e-001
      1.12620570e-001 2.77900457e-001 1.40243679e-001 8.62742588e-002
      2.13922843e-001 6.17348142e-002 2.51363307e-001 6.55737817e-002
      8.79909471e-002 2.26724837e-002 1.54022604e-001 4.57173102e-002
      2.16507301e-001 1.23189844e-001 8.79198387e-002 2.34820470e-001
      7.71519318e-002 2.71247566e-001 1.20437011e-001 2.82438636e-001
      1.59250483e-001 1.31061926e-001 1.71777666e-001 1.97206512e-001
      2.82438636e-001 1.49101079e-001 9.88693386e-002 1.52206821e-002
      1.19820580e-001 2.35721078e-002 6.35272115e-002 1.40494123e-001
      1.63761005e-001 2.82438636e-001 1.02127619e-001 2.82438636e-001
      5.64466231e-002 2.73020536e-001 6.84162378e-002 8.05866048e-002
      7.97339007e-002 5.76197244e-002 1.32117376e-001 9.56997648e-002
      3.63042086e-001 4.17354293e-002 1.05389252e-001 5.73246293e-002
      1.02535203e-001 3.60525958e-002 6.65492266e-002 2.62840390e-001
      1.54238492e-001 3.63042086e-001 3.12653482e-002 7.67549276e-002
      2.43814122e-002 2.50663981e-002 7.84024224e-002 5.22099249e-002
      3.64716537e-002 4.97137792e-002 3.63042086e-001 6.20311834e-002
      6.72486350e-002 8.64918530e-002 6.82814866e-002 1.98662579e-001
      1.37133226e-001 3.59262079e-001 1.35745838e-001 3.63042086e-001
      8.34110454e-002 1.27129406e-001 1.08921118e-001 1.60003066e-001
      2.00836193e-002 4.56151776e-002 2.51372278e-001 5.23109473e-002
      2.41807312e-001 7.84752443e-002 2.89425105e-001 5.74216619e-002
      2.49873847e-002 1.12558305e-001 1.21413879e-001 3.02781284e-001
      9.89411026e-002 2.83433527e-001 1.12901188e-001 3.02781284e-001
      1.19144402e-001 9.10841152e-002 7.02169910e-002 1.58188924e-001
      3.02781284e-001 1.48386076e-001 1.26725376e-001 3.17171365e-002
      4.73971404e-002 2.26783939e-002 5.99512383e-002 4.88859564e-002
      1.56359926e-001 3.02781284e-001 1.31386787e-001 1.39627993e-001
      9.84688029e-002 3.02781284e-001 1.19676970e-001 4.56580818e-002
      1.11338578e-001 1.26330435e-001 3.35441381e-001 1.40017956e-001
      1.64389610e-001 5.08126505e-002 3.35441381e-001 7.15433732e-002
      5.53251840e-002 3.79685760e-002 5.16040251e-002 2.14480400e-001
      6.17368035e-002 3.35441381e-001 2.46289186e-002 1.55313239e-001
      2.38241032e-002 1.95824690e-002 2.87545230e-002 4.12821509e-002
      1.17888331e-001 5.07078208e-002 1.08749904e-001 1.68039784e-001
      3.35441381e-001 1.88461617e-001 2.92004347e-002 4.33411114e-002
      2.93259937e-002 1.69743389e-001 9.91180539e-002 3.35441381e-001
      9.67229158e-002 3.35441381e-001 9.01627764e-002 4.34116907e-002
      6.95595667e-002 2.55197417e-002 6.57982659e-003 1.19603751e-002
      2.96173781e-001 6.54579625e-002 1.16017953e-001 6.95573241e-002
      5.38069792e-002 2.80234456e-001 1.11205444e-001 2.96173781e-001
      9.73038673e-002 2.96173781e-001 1.76321447e-001 2.96173781e-001
      1.50692210e-001 2.46466622e-001 5.09906234e-003 2.55281338e-004 0.
      6.17527519e-004 1.50381580e-001 4.34101932e-002 1.52649000e-001
      2.35813707e-002 1.14623420e-002 1.19902842e-001 8.62270780e-003
      7.93583542e-002 3.15122418e-002 2.96173781e-001 1.91970497e-001
      2.96173781e-001 2.09381178e-001 2.71502614e-001 1.41034111e-001
      1.11100934e-001 2.85415292e-001 1.25144109e-001 1.34258479e-001
      6.41718432e-002 1.68356061e-001 5.05184270e-002 1.49417326e-001
      9.50209051e-002 7.07777292e-002 2.85415292e-001 7.29796514e-002
      2.95986831e-002 5.49600981e-002 2.85415292e-001 6.14357665e-002
      1.14910454e-001 2.24159911e-001 1.20854890e-002 1.21266842e-001
      3.98418345e-002 1.14272736e-001 1.15563713e-001 2.85415292e-001
      1.97491869e-001 2.85415292e-001 2.85415292e-001 1.86031740e-002
      1.32872641e-001 2.25132853e-002 1.41260102e-001 4.52159494e-002
      2.85415292e-001 9.66597274e-002 2.85415292e-001 8.21894035e-002
      2.49523073e-002 7.73491859e-002 9.73934121e-003 8.60714465e-002
      1.07225001e-001 2.72462517e-001 9.92136821e-002 7.16382191e-002
      1.45292133e-001 4.77688760e-002 2.04567730e-001 5.43599613e-002
      2.72462517e-001 8.99966285e-002 2.72462517e-001 7.58914500e-002
      1.25022024e-001 2.72462517e-001 8.99658054e-002 1.87856108e-001
      2.37547196e-002 1.99376747e-001 4.71111573e-002 1.87273175e-001
      4.81443182e-002 2.72462517e-001 2.72462517e-001 1.81320533e-001
      2.72462517e-001 4.54620793e-002 2.72462517e-001 7.32251406e-002
      2.25706860e-001 3.93984206e-002 2.05574557e-001</_>
    <_>
      4.29983325e-002 9.73704085e-002 1.78250179e-001 1.29053086e-001
      2.78842866e-001 1.31208077e-001 2.19912320e-001 9.89250541e-002
      8.93961545e-003 2.03264356e-001 1.62409678e-001 1.65877640e-001
      1.87556177e-001 2.67739475e-001 2.00413078e-001 2.80476600e-001
      1.93855599e-001 4.87817638e-002 3.02988477e-002 5.99543517e-003
      1.14121996e-002 2.55014654e-002 1.16437182e-001 1.55451924e-001
      2.80476600e-001 2.02189460e-001 1.64952520e-002 4.17887643e-002
      1.33236824e-002 1.32271340e-002 3.41618918e-002 1.17041185e-001
      2.80476600e-001 2.80476600e-001 2.80476600e-001 1.05534293e-001
      2.12971419e-001 1.26418874e-001 1.21847324e-001 9.93716270e-002
      1.02516897e-001 1.22440897e-001 2.36762747e-001 1.60693094e-001
      9.85678583e-002 2.01843843e-001 1.08814612e-001 1.33341223e-001
      8.35262164e-002 6.53175637e-002 7.75291100e-002 1.59325451e-001
      1.30934119e-001 2.42582828e-001 1.49754763e-001 2.58824751e-002
      4.10739295e-002 4.24685962e-002 9.22197029e-002 2.33579293e-001
      2.42582828e-001 2.42582828e-001 2.42582828e-001 2.42582828e-001
      2.42582828e-001 2.42582828e-001 2.42582828e-001 1.21536098e-001
      4.85302769e-002 1.19862042e-001 1.16250791e-001 2.42582828e-001
      1.50569350e-001 1.07730411e-001 1.31076306e-001 9.73565131e-002
      1.67493835e-001 1.46427810e-001 1.34580940e-001 1.21357933e-001
      2.40105510e-001 1.36931404e-001 6.30065575e-002 8.95177945e-002
      9.03227180e-002 2.40105510e-001 2.33182609e-001 2.33976841e-001
      2.26652279e-001 2.40105510e-001 1.34510353e-001 2.40105510e-001
      2.40105510e-001 2.40105510e-001 1.51474550e-001 7.06499517e-002
      5.44537492e-002 4.85996678e-002 1.05826311e-001 8.22398439e-002
      9.09906104e-002 1.14759646e-001 8.77281949e-002 2.40105510e-001
      2.40105510e-001 1.97272435e-001 2.01101497e-001 1.26171440e-001
      5.50943390e-002 1.03358803e-002 1.57253016e-002 2.82047931e-002
      1.63036332e-001 1.49232104e-001 2.51244098e-001 1.78087860e-001
      2.97998395e-002 9.56727639e-002 1.78757757e-002 2.10388284e-002
      2.39379629e-002 1.19418636e-001 2.32602671e-001 2.51244098e-001
      2.51244098e-001 2.33709872e-001 5.50831519e-002 2.40750313e-002
      4.31294404e-002 7.62062818e-002 2.51244098e-001 2.51244098e-001
      2.51244098e-001 2.28961542e-001 6.46573231e-002 2.08160505e-001
      7.01686740e-002 8.30395073e-002 2.08415702e-001 2.51244098e-001
      2.09277168e-001 2.04305202e-001 1.74574450e-001 2.32432514e-001
      1.29108042e-001 2.76623163e-002 5.31568825e-002 6.16757758e-002
      1.82161540e-001 2.02109545e-001 2.19947681e-001 2.12770954e-001
      2.19947681e-001 1.67825907e-001 1.54899463e-001 1.99802503e-001
      2.19947681e-001 1.99892178e-001 9.89755690e-002 7.52062574e-002
      1.22790433e-001 2.12578848e-001 1.41346648e-001 4.40569483e-002
      6.13715611e-002 1.33611485e-001 2.19947681e-001 1.98491842e-001
      1.51067361e-001 1.34233281e-001 2.18300715e-001 1.12326138e-001
      6.04545027e-002 1.00961119e-001 1.15708582e-001 2.19947681e-001
      2.19947681e-001 2.19947681e-001 2.19947681e-001 2.19947681e-001
      9.73727852e-002 1.91152245e-001 1.93435907e-001 2.10670888e-001
      1.33205041e-001 5.77667318e-002 2.89071295e-002 7.03441650e-002
      9.42007527e-002 2.34835185e-002 8.98358077e-002 9.07607526e-002
      1.15825199e-001 2.87040740e-001 1.99179232e-001 1.23391733e-001
      1.30788922e-001 2.23613791e-002 7.42376074e-002 8.85690078e-002
      1.23291805e-001 1.06455140e-001 2.87040740e-001 2.55500525e-001
      2.14806363e-001 2.32443675e-001 1.63621202e-001 2.22298969e-002
      2.76898593e-001 2.87040740e-001 2.87040740e-001 2.87040740e-001
      6.27439097e-002 4.05860581e-002 6.05007671e-002 1.75463557e-002
      4.63651605e-002 1.72922518e-002 5.93852326e-002 6.78422898e-002
      1.93601549e-001 1.77982628e-001 2.53351152e-001 2.24346057e-001
      9.31970775e-002 1.48710653e-001 9.65171233e-002 1.75029531e-001
      2.37225682e-001 2.53351152e-001 1.14653118e-001 2.04089329e-001
      1.29189000e-001 1.49952307e-001 3.92075889e-002 1.13098836e-002
      4.87197079e-002 3.58259752e-002 7.99558237e-002 2.09502816e-001
      2.53351152e-001 2.53351152e-001 9.25369561e-002 2.04326078e-001
      5.56707419e-002 1.39481202e-001 1.03656337e-001 1.36267334e-001
      2.03239962e-001 2.53351152e-001 2.49369055e-001 2.53351152e-001
      1.44026995e-001 8.42689574e-002 1.04430705e-001 1.73608080e-001
      2.76011437e-001 9.70440358e-002 1.28504992e-001 7.63995126e-002
      1.46558672e-001 9.93313715e-002 3.47008519e-002 8.67298916e-002
      3.61908451e-002 1.77382618e-001 2.67987162e-001 2.76011437e-001
      2.68940896e-001 1.92693681e-001 2.76011437e-001 4.79407161e-002
      6.51216432e-002 5.74621037e-002 1.02216959e-001 9.73692834e-002
      1.38576359e-001 1.13149807e-001 2.76011437e-001 2.76011437e-001
      1.55578554e-001 2.27702335e-001 1.19219162e-001 1.07877687e-001
      5.81236705e-002 1.04749404e-001 8.56411532e-002 2.76011437e-001
      4.36096229e-002 9.86636654e-002 2.28215560e-001 6.88318610e-002
      1.68851778e-001 1.69046104e-001 2.19126806e-001 1.88948721e-001
      7.01885521e-002 4.66662943e-002 2.56795496e-001 2.56795496e-001
      2.56795496e-001 2.56795496e-001 5.49271479e-002 7.07164109e-002
      8.53040144e-002 2.19681635e-002 1.64452195e-001 2.12473601e-001
      2.56795496e-001 1.53792113e-001 7.87279978e-002 6.70639202e-002
      1.34928167e-001 8.58754069e-002 1.10310569e-001 1.21412382e-001
      2.19988152e-001 2.56795496e-001 2.10452527e-001 2.51854479e-001
      1.35530099e-001 1.56568408e-001 9.27918926e-002 5.46970516e-002</_>
    <_>
      1.56628460e-001 1.97435498e-001 1.72183543e-001 4.83828261e-002
      2.30583102e-001 6.17984831e-002 1.32506445e-001 3.17120254e-002
      1.13884754e-001 2.67005712e-001 1.80743605e-001 1.25576749e-001
      3.16910748e-003 1.14914052e-001 6.56124726e-002 1.93869978e-001
      1.31312966e-001 2.51134813e-001 6.77633360e-002 9.10255983e-002
      1.62875086e-001 1.37752801e-001 2.67005712e-001 2.67005712e-001
      2.67005712e-001 1.56854749e-001 1.11009382e-001 9.37483907e-002
      6.84121624e-002 4.50196713e-002 1.20034507e-002 1.91783130e-001
      2.67005712e-001 2.67005712e-001 2.10372090e-001 9.85724181e-002
      2.00888947e-001 4.75926846e-002 3.72057594e-002 6.87798893e-004
      2.54807081e-002 8.31071846e-003 3.22295815e-001 3.26009661e-001
      3.10361773e-001 8.98419693e-002 1.75882000e-004 5.26305928e-004
      1.50136487e-003 4.05384637e-002 1.23469625e-002 3.26009661e-001
      3.26009661e-001 1.87784046e-001 6.67972863e-002 1.50166461e-002
      1.26124425e-002 8.34567356e-004 5.52312732e-002 8.49880129e-002
      2.71170914e-001 2.37658188e-001 1.08318798e-001 4.06630710e-002
      2.59990171e-002 4.62472886e-002 1.19707780e-002 5.25735095e-002
      7.95632824e-002 3.26009661e-001 3.26009661e-001 6.85586035e-002
      3.27809155e-002 2.76777282e-004 8.28221964e-004 3.44856922e-003
      5.73353097e-002 6.85966089e-002 3.36317271e-001 3.36317271e-001
      5.31138331e-002 4.60770493e-003 2.84015288e-004 8.49879638e-004
      3.19754751e-003 3.57394703e-002 7.49400184e-002 2.56678998e-001
      1.29195780e-001 6.54844008e-003 1.24063576e-002 4.50705662e-002
      6.94563314e-002 2.48407405e-002 1.42581031e-001 2.86475003e-001
      3.36317271e-001 3.36317271e-001 1.65234338e-002 3.73824709e-003
      1.21734273e-002 1.46802524e-002 9.95861460e-003 1.98910847e-001
      3.29892606e-001 3.36317271e-001 2.65452862e-001 3.75681720e-003
      4.90021147e-003 9.18327179e-003 8.07612687e-002 8.14125165e-002
      3.17026943e-001 1.81967288e-001 3.17026943e-001 8.66092592e-002
      2.23322399e-002 1.66066329e-003 8.08679906e-004 1.94933498e-003
      4.88565536e-003 2.41769627e-001 3.17026943e-001 3.17026943e-001
      1.66502133e-001 1.63207147e-002 5.63570252e-003 3.11764976e-004
      7.48230796e-003 9.10758879e-003 3.17026943e-001 1.22447886e-001
      1.87225834e-001 2.72940099e-002 6.84171077e-003 7.83239957e-003
      4.56359843e-003 1.65637378e-002 9.38745774e-003 3.06137770e-001
      3.05154949e-001 3.17026943e-001 1.20622464e-001 1.04051372e-002
      3.74485133e-003 2.43117567e-002 3.03094257e-002 3.48213036e-003
      1.54013500e-001 1.58321306e-001 3.10053051e-001 7.57395551e-002
      5.70659433e-003 2.98158806e-002 1.99890614e-001 3.10053051e-001
      4.15404253e-002 1.11559249e-001 6.62901103e-002 1.82488501e-001
      7.32074305e-002 6.21218747e-003 4.34924215e-002 9.14020240e-002
      2.31106132e-001 6.40316829e-002 3.10053051e-001 2.80839384e-001
      3.10053051e-001 1.00577146e-001 4.28283587e-002 1.16499953e-001
      3.10053051e-001 3.10053051e-001 2.14153394e-001 1.68283656e-001
      3.53977494e-002 1.20265506e-001 1.77071672e-002 5.95217720e-002
      5.53723723e-002 1.77455515e-001 2.73534864e-001 5.69094382e-002
      1.67568237e-001 1.48499161e-001 2.65800476e-001 9.25048068e-002
      3.89400646e-002 3.95508334e-002 3.98032703e-002 5.88223599e-002
      1.60768088e-002 2.73534864e-001 2.49829426e-001 2.73534864e-001
      1.52994245e-001 4.59775291e-002 1.36056304e-001 2.73534864e-001
      2.73534864e-001 1.70959279e-001 1.56868577e-001 7.31617212e-002
      9.65046808e-002 2.83448324e-002 8.40701237e-002 7.66045377e-002
      6.43485859e-002 1.20556779e-001 3.95649187e-002 2.73534864e-001
      2.73534864e-001 2.73534864e-001 8.49427655e-002 8.38843510e-002
      6.37836708e-003 1.60247870e-002 1.98550019e-002 1.21779302e-002
      2.88201481e-001 2.71343112e-001 1.85852364e-001 2.43289173e-002
      6.41299319e-003 2.17421539e-002 9.75043327e-002 2.14793295e-001
      8.45140219e-002 2.57254869e-001 1.50947854e-001 2.88201481e-001
      4.59982306e-002 1.83909405e-002 3.63868400e-002 1.75947785e-001
      1.61703959e-001 2.26796065e-002 2.88201481e-001 2.88201481e-001
      2.88201481e-001 1.09835513e-001 4.58985046e-002 6.38157725e-002
      2.88201481e-001 2.88201481e-001 1.40702039e-001 2.07946122e-001
      6.45002276e-002 5.92216551e-002 4.18550745e-002 4.16586362e-002
      6.56056255e-002 9.54158679e-002 2.70707637e-001 9.33177769e-002
      2.70707637e-001 9.98586938e-002 2.70707637e-001 5.77926673e-002
      6.34541512e-002 1.05777472e-001 2.03360587e-001 2.70707637e-001
      1.69983372e-001 1.66160434e-001 3.35802287e-002 1.58331558e-001
      4.09734994e-002 7.25184530e-002 7.13100359e-002 1.94484726e-001
      2.70707637e-001 8.26825798e-002 1.97845697e-001 6.95471913e-002
      2.54183531e-001 7.85292238e-002 6.64474592e-002 4.71052565e-002
      5.75984120e-002 1.94306359e-001 5.45314923e-002 2.55459279e-001
      2.63211101e-001 2.70707637e-001 1.53003678e-001 5.32026514e-002
      1.10226162e-001 1.99246302e-001 3.13580006e-001 1.84492990e-001
      1.55752987e-001 1.06125444e-001 1.11722670e-001 2.16229148e-002
      5.12530655e-002 3.83533202e-002 2.62800772e-002 5.65051921e-002
      3.90164554e-002 3.13580006e-001 3.13580006e-001 3.13580006e-001
      2.81898789e-002 3.43752094e-002 1.84227433e-002 2.85893790e-002
      7.29875937e-002 2.96569727e-002 2.22533196e-001 2.07432628e-001
      3.13580006e-001 9.75501686e-002 9.67310369e-003 1.82261132e-002
      9.17020778e-004 1.03642384e-003 8.32916610e-003 3.13580006e-001
      3.13580006e-001 2.28886679e-001 8.89831688e-003 1.75521113e-002</_>
    <_>
      2.27630869e-001 2.48413280e-001 2.48413280e-001 2.48413280e-001
      1.61596313e-001 1.10287890e-002 4.86713834e-002 5.76034479e-004
      8.89221877e-002 2.19074354e-001 2.48413280e-001 2.48413280e-001
      2.48413280e-001 2.39334896e-001 2.23913067e-003 6.55513431e-004
      2.33954241e-004 7.84793720e-002 2.48413280e-001 2.38969803e-001
      2.48413280e-001 2.16403991e-001 2.48413280e-001 3.62453945e-002
      6.29666224e-002 5.12884406e-004 1.26732901e-001 1.93629548e-001
      1.29476994e-001 1.46359935e-001 1.50706962e-001 8.89218152e-002
      1.75672583e-002 1.22430027e-002 3.72134661e-003 1.01593912e-001
      2.06856817e-001 2.30676457e-001 2.15319574e-001 2.02008069e-001
      1.81372046e-001 3.92335877e-002 4.57725339e-002 3.80170047e-002
      1.74048454e-001 1.41401634e-001 9.00431443e-003 1.91166811e-002
      4.52627474e-003 2.47350276e-001 2.03948006e-001 2.49662474e-001
      2.49662474e-001 2.49662474e-001 2.49662474e-001 9.37659740e-002
      6.40069619e-002 9.24351290e-002 1.12038352e-001 6.65198267e-002
      5.21427728e-002 7.22361654e-002 2.49662474e-001 2.49662474e-001
      5.30570708e-002 3.38458046e-002 2.74131056e-002 2.49662474e-001
      1.02882192e-001 1.27014160e-001 2.15404809e-001 2.49662474e-001
      5.70591390e-002 1.43685305e-004 4.29960666e-004 2.19817180e-003
      2.63911694e-001 1.57193497e-001 2.63911694e-001 2.08612084e-001
      2.59255737e-001 4.50977050e-002 2.71829776e-004 2.40892361e-004
      2.51916051e-003 2.32780442e-001 2.43128791e-001 2.63911694e-001
      1.67430818e-001 1.65459216e-001 8.34635496e-002 1.14533547e-002
      1.08918110e-002 1.15977135e-002 2.63911694e-001 9.64710042e-002
      1.32495821e-001 9.86974910e-002 2.27186456e-001 8.95215198e-002
      6.08314993e-004 4.10856074e-003 9.25987121e-003 2.63911694e-001
      2.62450069e-001 2.63911694e-001 1.66736737e-001 2.63911694e-001
      8.33024904e-002 8.29076543e-002 1.09798416e-001 8.62867832e-002
      3.35080624e-001 3.57529745e-002 1.94644257e-002 1.90467248e-003
      5.57193197e-002 1.77184403e-001 8.81723315e-002 6.80310130e-002
      8.22346509e-002 2.13249251e-001 1.10735461e-001 7.01564625e-002
      2.89634466e-002 9.34799910e-002 1.43575057e-001 7.59563893e-002
      1.18054792e-001 4.41607870e-002 3.35080624e-001 1.53548345e-001
      1.13200061e-001 6.89117908e-002 9.67567042e-002 3.35080624e-001
      2.86468595e-001 3.35080624e-001 3.18962663e-001 1.95360571e-001
      1.28955528e-001 7.56762177e-002 6.47552982e-002 2.13004708e-001
      2.32388496e-001 7.29686096e-002 4.40155938e-002 5.74682169e-002
      1.79674432e-001 1.44323662e-001 8.68847445e-002 9.63466167e-002
      2.05196381e-001 1.88006297e-001 5.29096983e-002 7.43400007e-002
      7.79160634e-002 2.32388496e-001 1.18010148e-001 9.42844078e-002
      1.87335968e-001 2.32388496e-001 2.32388496e-001 2.12013498e-001
      2.32388496e-001 1.87196851e-001 2.07517296e-001 1.33342355e-001
      1.07995413e-001 1.50255486e-001 1.76041663e-001 1.61095843e-001
      1.21338017e-001 2.32388496e-001 1.69777721e-001 2.32388496e-001
      1.22122280e-001 1.43220544e-001 2.16926917e-001 1.77002415e-001
      1.02597609e-001 4.37656306e-002 8.69724900e-002 8.86635855e-002
      3.24357003e-001 7.33374804e-002 1.12471499e-001 1.37501597e-001
      1.78268030e-001 7.64874294e-002 5.69985108e-003 5.23736700e-002
      3.59723717e-002 3.24357003e-001 2.88400650e-001 3.24357003e-001
      1.34537071e-001 1.82735771e-001 9.00359079e-002 6.14678822e-002
      1.33864641e-001 1.52160317e-001 3.24357003e-001 6.25318140e-002
      1.18382111e-001 1.10359482e-001 1.38082743e-001 4.20251787e-002
      2.31673419e-002 1.90561593e-001 1.68299779e-001 3.24357003e-001
      1.50595739e-001 1.81426927e-001 1.99918561e-002 6.69991001e-002
      1.38742238e-001 1.06107384e-001 1.51132211e-001 4.74270172e-002
      2.54797280e-001 1.52287751e-001 2.54797280e-001 1.04454949e-001
      1.10783324e-001 2.54797280e-001 1.96846530e-001 2.54797280e-001
      2.07346484e-001 1.73152506e-001 5.40230311e-002 3.67073566e-002
      3.39395739e-002 1.79629028e-001 5.42995743e-002 4.91652451e-002
      8.50265622e-002 3.07526980e-002 2.54797280e-001 2.38149405e-001
      2.54797280e-001 1.83969378e-001 8.92551318e-002 1.45420805e-001
      6.71993643e-002 1.47552416e-001 7.58231059e-002 2.54797280e-001
      1.73764661e-001 2.27050215e-001 1.41328350e-001 1.57004595e-001
      2.38094375e-001 2.38094375e-001 2.38094375e-001 2.12955505e-001
      9.99760404e-002 3.89522724e-002 5.17644659e-002 1.00243986e-001
      2.22451910e-001 1.94283426e-001 1.33489311e-001 2.38094375e-001
      1.41589165e-001 2.38094375e-001 9.90360677e-002 2.14759737e-001
      1.60968915e-001 2.17432126e-001 2.38094375e-001 4.21898589e-002
      8.90308842e-002 4.17439230e-002 1.16677411e-001 5.80648296e-002
      6.42665848e-002 5.64590544e-002 2.38094375e-001 2.38094375e-001
      6.61737397e-002 1.20290987e-001 7.18644187e-002 2.27465972e-001
      1.75974712e-001 1.38484150e-001 4.43017520e-002 2.38094375e-001
      9.32683051e-002 2.93410141e-002 6.87631443e-002 5.76348603e-002
      2.18247950e-001 1.13524780e-001 2.22616598e-001 1.05347723e-001
      1.79326773e-001 1.23559810e-001 3.15620340e-002 1.40947685e-001
      1.34379327e-001 2.48603985e-001 7.25657642e-002 1.29637137e-001
      7.83058479e-002 1.68993160e-001 1.61316782e-001 6.30928650e-002
      1.82393044e-001 8.38362426e-002 2.48603985e-001 2.48603985e-001
      2.31078073e-001 1.16129421e-001 1.92381144e-001 2.48603985e-001
      9.47221667e-002 2.48603985e-001 2.18741849e-001 2.48603985e-001
      1.40557528e-001 1.38333946e-001 1.14403181e-001 2.48603985e-001</_>
    <_>
      2.56388873e-001 2.28227511e-001 2.56388873e-001 2.11631685e-001
      1.96604490e-001 1.46224047e-003 1.51565708e-002 3.74495462e-002
      8.94619823e-002 2.56388873e-001 2.46722177e-001 2.56388873e-001
      1.83390707e-001 1.60568908e-001 4.39733092e-004 2.13458370e-002
      2.44891532e-002 2.56388873e-001 2.32483819e-001 2.56388873e-001
      2.56388873e-001 1.98176041e-001 2.19625056e-001 2.62879138e-003
      2.32884903e-002 3.40230167e-002 6.21997006e-002 2.03493297e-001
      1.31958395e-001 1.87965691e-001 9.37106460e-002 1.08948350e-001
      1.20456319e-003 6.41271146e-003 1.65100601e-002 9.23509598e-002
      3.48030061e-001 2.66706556e-001 3.16179782e-001 8.27412978e-002
      6.18346557e-002 1.19077414e-003 4.68923040e-002 3.54641192e-002
      3.48030061e-001 3.48030061e-001 8.62113163e-002 1.29182890e-001
      7.50090787e-003 5.42766321e-003 2.90574301e-002 3.48030061e-001
      3.00788969e-001 3.48030061e-001 1.57896176e-001 5.50557375e-002
      7.92289376e-002 3.34680825e-002 5.39193638e-002 4.49097686e-004
      1.23119438e-002 6.26652082e-003 1.16508253e-001 9.36434120e-002
      1.81255024e-002 2.40261648e-002 2.33921711e-003 5.31904865e-003
      6.35370566e-003 6.62237480e-002 4.32377867e-002 1.48685068e-001
      2.17214689e-001 5.76062303e-004 2.00388245e-002 5.14341227e-004
      4.38801758e-003 2.86887996e-002 3.09281468e-001 3.09281468e-001
      3.09281468e-001 9.88944694e-002 5.78933470e-002 6.30735680e-002
      3.43054198e-002 1.50219649e-001 4.59013730e-002 3.09281468e-001
      3.09281468e-001 2.21668094e-001 4.39647585e-002 1.42397697e-003
      2.51720636e-003 3.38176498e-004 7.20879762e-003 1.59384888e-002
      1.94958493e-001 1.14157662e-001 1.05985321e-001 4.36125062e-002
      1.39730554e-002 2.87053548e-002 1.64792612e-002 3.09281468e-001
      1.26605824e-001 3.09281468e-001 3.09281468e-001 8.60423893e-002
      9.48329270e-002 3.67016256e-001 3.90540361e-001 1.69735923e-001
      3.90540361e-001 1.84120778e-002 2.26782709e-002 1.70191657e-002
      5.32559566e-002 6.81811869e-002 7.92657956e-002 9.45712849e-002
      1.01853386e-002 4.29170653e-002 2.21973145e-003 1.07986927e-002
      6.95298333e-003 3.09642106e-002 3.25184725e-002 1.12267639e-002
      1.22110210e-002 2.18478274e-002 3.90540361e-001 3.46540749e-001
      3.88774812e-001 2.37106651e-001 4.50805910e-002 1.23648569e-002
      8.77574272e-003 9.93742142e-003 5.19860908e-003 5.88758811e-002
      1.95336752e-002 5.23287877e-002 2.46000811e-002 1.59525275e-002
      3.33873063e-001 1.60432830e-001 3.33873063e-001 8.74677300e-002
      3.33873063e-001 1.72233470e-002 2.54705936e-001 8.90506059e-002
      3.33873063e-001 1.64278433e-001 9.81221050e-002 1.33747756e-001
      3.33623625e-002 1.06854007e-001 4.90682796e-002 1.00124747e-001
      9.04774517e-002 2.01975331e-001 2.16548622e-001 1.42153770e-001
      2.13989556e-001 9.16250348e-002 2.28017718e-001 1.27237896e-002
      1.16359033e-001 4.82255891e-002 1.35077477e-001 1.09165661e-001
      2.53673214e-002 3.95997800e-002 2.57156819e-001 1.19324870e-001 0.
      4.74659428e-002 1.58623233e-002 1.06238231e-001 2.48609018e-003
      1.31454330e-003 1.50255789e-003 6.49333291e-004 2.70268377e-002
      9.68708005e-003 3.35752480e-002 1.86408516e-002 1.13489740e-002
      7.58174062e-002 3.43141938e-003 5.92836738e-003 1.24280164e-002
      4.11466837e-001 2.91481435e-001 3.35327715e-001 1.75053984e-001
      9.48311239e-002 5.82644828e-002 2.23543048e-002 5.19791571e-003
      1.97311435e-002 2.62842104e-002 5.37197222e-004 1.00676273e-003
      9.08496208e-004 4.67490405e-002 3.37052494e-001 3.11324336e-002
      7.67136132e-003 2.12092251e-002 4.11466837e-001 2.87414968e-001
      7.80594945e-002 1.77683428e-001 4.11466837e-001 4.31873016e-002
      5.35477977e-003 1.04251700e-002 5.88755449e-003 2.27873623e-001
      2.03895226e-001 2.74448544e-001 2.60047734e-001 1.11790739e-001
      6.45928904e-002 3.41029814e-003 1.73224846e-003 8.13339488e-004
      2.34643128e-002 2.28265356e-002 1.79465234e-001 9.14296433e-002
      1.40514493e-001 1.39219627e-001 1.14809405e-002 1.04979007e-002
      2.84602563e-003 1.78858146e-001 2.56845117e-001 2.74448544e-001
      2.74448544e-001 2.74448544e-001 2.74448544e-001 1.20177884e-002
      4.32324037e-003 2.22027139e-003 1.52909592e-001 1.10954128e-001
      2.74448544e-001 2.74448544e-001 2.74448544e-001 7.71558061e-002
      3.36177973e-003 1.45307684e-003 6.68237859e-004 8.98123486e-004
      1.91750063e-003 5.42994589e-002 3.55684794e-002 1.34444416e-001
      1.08206615e-001 4.84819710e-002 4.06324193e-002 2.45045554e-002
      1.72942840e-002 1.54050838e-004 9.04691778e-003 4.93690977e-003
      6.92051277e-002 3.63346994e-001 8.04932266e-002 7.21513256e-002
      2.27688020e-003 1.02290474e-001 1.41996257e-002 2.74687856e-001
      2.45359987e-001 3.63346994e-001 3.63346994e-001 3.63346994e-001
      3.46358836e-001 4.94344532e-002 4.94645536e-002 4.50026011e-004
      3.28444876e-002 5.05484380e-002 3.63346994e-001 1.53592438e-001
      1.06285691e-001 7.70781711e-002 1.03950731e-001 5.15940078e-002
      7.35560534e-005 4.25740983e-003 5.19525167e-003 8.30505043e-002
      2.74286360e-001 1.54795304e-001 1.48972005e-001 1.21704437e-001
      9.90436375e-002 3.80923413e-002 1.16963349e-001 9.34319571e-002
      2.74286360e-001 2.74286360e-001 2.74286360e-001 2.74286360e-001
      1.56499520e-001 8.78713056e-002 2.53425416e-004 4.94909007e-003
      1.23166777e-002 2.74286360e-001 2.74286360e-001 2.74286360e-001
      2.74286360e-001 1.71297997e-001 1.02163672e-001 1.00843748e-002
      1.35270491e-001 1.01984978e-001 2.51626551e-001</_>
    <_>
      2.69923300e-001 3.04319978e-001 3.14292818e-001 3.14292818e-001
      8.54962543e-002 8.64626002e-003 1.14943995e-003 1.15970790e-003
      1.14469580e-001 3.14292818e-001 2.15297848e-001 3.14292818e-001
      2.28633329e-001 7.56307244e-002 6.52652187e-003 3.35482950e-003
      5.80819510e-003 2.21465811e-001 8.98989812e-002 1.37309641e-001
      3.14292818e-001 2.97677904e-001 1.66613266e-001 2.07400639e-002
      3.96074168e-003 3.90509749e-003 4.95369099e-002 5.77822253e-002
      2.48743575e-002 9.85240117e-002 4.83218990e-002 1.59566402e-002
      1.95707520e-003 4.07768600e-003 1.87846692e-003 3.19060981e-002
      2.89599299e-001 1.14438474e-001 1.24056958e-001 1.24723397e-001
      1.03204086e-001 1.51350707e-001 1.55618742e-001 1.22568324e-001
      1.91443518e-001 2.34900340e-001 3.42651121e-002 2.56858803e-002
      3.72079387e-002 2.73429811e-001 2.89599299e-001 2.89599299e-001
      2.89599299e-001 2.89599299e-001 3.03442553e-002 7.39343651e-003
      7.93510862e-003 5.09029580e-003 1.66275818e-002 1.92496199e-002
      2.91264839e-002 1.90888401e-002 2.13300548e-002 7.55998790e-002
      8.96489993e-003 1.46114770e-002 2.52508651e-002 2.89599299e-001
      2.42559075e-001 2.89599299e-001 1.58087119e-001 1.71837211e-001
      7.54747242e-002 1.25935599e-002 1.90069303e-002 2.02773139e-002
      1.46402180e-001 2.78014898e-001 2.78014898e-001 2.10306749e-001
      1.11785911e-001 4.67023365e-002 5.56165464e-002 1.21541142e-001
      1.27488628e-001 2.21388951e-001 1.31720245e-001 1.98370069e-001
      9.19109806e-002 3.37124206e-002 4.45037670e-002 5.21757687e-003
      1.10820197e-002 3.06064636e-002 2.78014898e-001 2.78014898e-001
      2.78014898e-001 1.89499632e-001 7.57358447e-002 4.64549996e-002
      4.08308916e-002 8.97723064e-002 1.78860039e-001 2.78014898e-001
      2.78014898e-001 2.78014898e-001 2.22832859e-001 6.52406514e-002
      2.39311144e-001 1.56143591e-001 4.88781542e-001 3.30469340e-001
      4.88781542e-001 6.94255531e-002 2.34417673e-002 1.73686203e-002
      1.06207006e-001 1.62761621e-002 1.30441878e-002 5.00073731e-002
      2.69418899e-002 4.56837565e-002 9.96290799e-003 2.94244085e-002
      1.32526634e-002 1.85924955e-002 1.02380499e-001 4.30753008e-002
      9.14603919e-002 1.78067803e-001 4.88781542e-001 1.98536739e-002
      2.17689350e-002 7.98405521e-003 7.76856020e-002 1.26341349e-002
      1.48913972e-002 2.88939588e-002 1.14525929e-002 4.32841517e-002
      7.86128175e-003 2.11962424e-002 9.70923062e-003 1.20761776e-002
      2.27923337e-002 1.48692392e-002 2.66343690e-002 1.96035150e-002
      2.88117435e-002 8.05859361e-003 1.67573076e-002 5.88315679e-003
      1.57355573e-002 5.18312715e-002 2.50256676e-002 4.20601889e-002
      5.47183976e-002 4.23782974e-001 2.87073910e-001 3.70171607e-001
      1.17623292e-001 6.00087717e-002 1.89104732e-002 1.54563468e-002
      2.67245099e-002 1.45089347e-002 3.94216701e-002 7.17823626e-003
      1.69959348e-002 1.05415555e-002 1.77694764e-002 7.61901066e-002
      1.61651865e-001 4.23782974e-001 4.13520277e-001 4.23782974e-001
      1.65374149e-002 2.62659863e-002 1.90489516e-002 2.53684539e-002
      8.11329298e-003 1.50357338e-003 5.61347790e-003 1.94088742e-002
      3.61903489e-001 1.45041153e-001 2.15344593e-001 7.49927387e-002
      1.73427407e-002 4.59106416e-002 2.46755723e-002 4.17866334e-002
      8.61158669e-002 3.61903489e-001 1.88075528e-001 2.95728534e-001
      1.43809959e-001 1.08211912e-001 5.18361963e-002 8.14760998e-002
      1.84305996e-001 1.77064672e-001 3.61903489e-001 1.52864680e-002
      8.49578995e-003 5.44931833e-003 1.73266456e-002 1.89737275e-001
      1.07094817e-001 1.26315370e-001 1.53864339e-001 3.61903489e-001
      1.11936271e-001 1.21543035e-001 8.66355896e-002 1.85443938e-001
      9.39312801e-002 4.25917208e-002 7.00218379e-002 8.85420218e-002
      3.82146627e-001 8.22003093e-003 1.44273983e-002 7.01822573e-003
      6.69864491e-002 8.55636317e-003 1.46987885e-002 1.69975664e-002
      4.99076676e-003 2.53242124e-002 3.68141942e-003 1.47748115e-002
      1.06948456e-002 8.03168677e-003 3.03700000e-001 1.42191872e-001
      1.06492586e-001 1.15666434e-001 2.80043304e-001 1.57872606e-002
      1.55649995e-002 8.45189579e-003 2.02125952e-001 4.41433668e-001
      2.40243793e-001 1.34339198e-001 1.42835200e-001 2.75790125e-001
      1.48002189e-002 1.60107519e-002 1.62679739e-002 4.41433668e-001
      3.04561155e-003 6.53944770e-003 7.99228717e-003 4.70281485e-003
      1.22691169e-002 5.93925477e-004 2.73110089e-003 2.92569702e-003
      2.99239205e-003 1.31856855e-002 9.34117883e-002 3.04847151e-001
      2.63405025e-001 3.04847151e-001 5.19585330e-004 6.53890474e-003
      4.43039695e-003 3.39148124e-003 3.04847151e-001 3.72854434e-002
      8.11312422e-002 4.29693349e-002 6.97957128e-002 2.70642946e-003
      2.71994038e-003 1.88650433e-002 3.04847151e-001 3.04847151e-001
      3.04847151e-001 3.04847151e-001 3.04847151e-001 3.04847151e-001
      6.73794746e-003 5.07860491e-003 3.67461406e-002 2.55764484e-001
      3.53875794e-002 1.29774258e-001 2.66297579e-001 2.66297579e-001
      2.66297579e-001 3.93508794e-003 8.66946299e-003 5.35572646e-003
      8.94731842e-003 1.19028911e-001 1.39158860e-001 1.88737407e-001
      2.60921389e-001 2.66297579e-001 1.51733220e-001 1.62937686e-001
      1.06938221e-001 1.04736894e-001 6.75506517e-002 2.32116893e-001
      2.66297579e-001 2.66297579e-001 2.39706203e-001 2.17013294e-003
      7.97215290e-003 7.09273340e-003 3.22689489e-002 3.28567065e-002
      1.14451513e-001 2.66297579e-001 2.27082282e-001 2.66297579e-001
      1.04961030e-001 7.25791901e-002 4.56521772e-002 3.66646089e-002</_>
    <_>
      2.76415467e-001 2.76415467e-001 2.76415467e-001 2.76415467e-001
      2.71809608e-001 7.53254443e-003 8.10946221e-005 2.71004192e-005
      8.19815546e-002 2.76415467e-001 2.40328476e-001 2.74772078e-001
      1.18346609e-001 6.94408789e-002 7.59117305e-004 6.18179329e-004
      5.13866497e-003 2.76415467e-001 9.16892737e-002 2.14063704e-001
      2.76415467e-001 2.76415467e-001 2.76415467e-001 7.29149673e-003
      1.24856969e-003 1.67114474e-003 2.98701543e-002 8.01093653e-002
      5.21747544e-002 6.36738390e-002 5.31696789e-002 6.55493885e-002
      6.12608157e-004 1.47937157e-003 6.34239928e-004 3.62828001e-002
      3.44263494e-001 7.79563040e-002 6.16682358e-002 5.26404195e-002
      8.53048712e-002 2.47936733e-002 3.19825485e-002 5.17083667e-002
      3.44263494e-001 3.44263494e-001 7.34125450e-003 1.42436649e-003
      6.90934621e-003 1.00867860e-001 2.83357710e-001 3.44263494e-001
      3.44263494e-001 3.44263494e-001 5.31536974e-002 1.08031472e-002
      1.42259905e-002 6.08160440e-003 1.70614887e-002 2.13328400e-003
      8.60940758e-003 4.27847728e-003 4.87066060e-002 3.37158069e-002
      6.91804860e-004 1.75495376e-003 2.79392209e-003 5.24812378e-002
      1.06705323e-001 3.44263494e-001 1.69913441e-001 4.50459272e-002
      2.78500766e-002 1.04845501e-003 1.53118439e-004 6.11505064e-004
      3.64181548e-002 1.85762122e-001 3.20422351e-001 3.20422351e-001
      6.84614107e-002 2.01715007e-002 1.45732937e-002 1.68634038e-002
      3.22786048e-002 1.56845152e-001 1.37925297e-001 3.20422351e-001
      1.81704491e-001 1.76009536e-002 7.42743816e-003 4.80165589e-004
      5.17672044e-004 3.04909679e-003 2.53327876e-001 1.67151183e-001
      3.20422351e-001 1.86596975e-001 1.22532267e-002 4.31907438e-002
      9.05902013e-002 1.41875416e-001 1.24519393e-001 3.20422351e-001
      2.38966674e-001 3.20422351e-001 1.64856091e-001 5.86985089e-002
      5.14920093e-002 1.15968183e-001 1.65963843e-001 2.44574457e-001
      4.50341612e-001 6.65377229e-002 4.57655415e-002 3.63096222e-002
      4.87222634e-002 8.41050223e-003 1.78351719e-002 1.94871053e-002
      2.05375832e-002 6.41475990e-002 1.90680870e-003 6.08299067e-003
      5.85349323e-003 6.82574045e-003 6.43298477e-002 1.26716169e-002
      1.69289690e-002 9.63748321e-002 4.50341612e-001 4.48534608e-001
      1.80074200e-001 3.92741382e-001 2.09084690e-001 1.11194802e-002
      3.75725934e-003 7.96186086e-003 2.11930163e-002 1.42212749e-001
      4.81495075e-002 2.46076304e-002 3.31461951e-002 2.10234020e-002
      2.66867969e-002 2.74244845e-002 3.59445512e-002 1.15217697e-002
      8.38561058e-002 0. 3.33087370e-002 1.84936281e-002 2.48673335e-002
      3.80705185e-002 1.58953406e-002 4.90577705e-002 2.32880116e-002
      4.04555798e-001 8.39506313e-002 3.19856197e-001 1.25298649e-001
      3.83642912e-002 4.61315289e-002 1.68434475e-002 3.07240188e-002
      2.53230464e-002 8.87591913e-002 3.43656726e-003 4.39958461e-002
      3.33697051e-002 4.54085469e-002 1.08963080e-001 4.04555798e-001
      4.04555798e-001 4.04555798e-001 4.04555798e-001 6.76232204e-003
      5.10305762e-002 1.76942516e-002 5.12677804e-002 1.09511083e-002
      4.63973172e-003 1.38308955e-002 2.25071348e-002 3.04268450e-001
      6.17519915e-002 9.50880647e-002 2.97215749e-002 1.33978659e-002
      1.41444623e-001 1.08772941e-001 1.75270766e-001 1.21806368e-001
      3.04268450e-001 1.33158520e-001 1.32045299e-001 5.72475232e-002
      1.72400042e-001 1.71077587e-002 1.30611032e-001 3.04268450e-001
      1.57288566e-001 3.04268450e-001 5.58894314e-003 4.80416464e-003
      1.30187045e-003 9.10267606e-003 2.02712193e-001 2.11166292e-001
      3.04268450e-001 3.04268450e-001 3.04268450e-001 4.89633009e-002
      9.28065181e-002 6.12993762e-002 2.14253187e-001 1.41043037e-001
      3.85146812e-002 3.55969854e-002 1.25573963e-001 3.09371322e-001
      2.41618365e-001 7.16376901e-002 1.63217664e-001 1.59640089e-001
      2.44341373e-001 3.53485160e-002 3.28883417e-002 4.91394363e-002
      1.23385988e-001 2.94280276e-002 9.81497951e-003 1.08914804e-002
      1.85242504e-001 1.98016971e-001 8.19167197e-002 7.17329234e-002
      1.83873862e-001 3.09371322e-001 6.90378770e-002 2.53961440e-002
      2.84360070e-002 1.12423152e-001 3.09371322e-001 2.28185102e-001
      1.94616228e-001 2.33422428e-001 3.09371322e-001 1.47762746e-002
      2.82641631e-002 7.49240816e-003 3.09371322e-001 2.14204043e-001
      1.20281652e-002 1.47555191e-002 1.10556297e-002 6.98269904e-003
      5.05613454e-004 3.02462000e-003 4.27544257e-003 1.92359060e-001
      1.81044519e-001 1.52046084e-001 3.08284312e-001 1.53902128e-001
      3.09682451e-002 1.04592147e-003 2.13132286e-003 3.21150199e-002
      1.18851505e-001 3.08284312e-001 1.57840714e-001 2.04504877e-001
      8.22066441e-002 7.63093382e-002 2.16786261e-003 1.99558176e-002
      2.07927432e-002 3.08284312e-001 3.08284312e-001 2.82027751e-001
      3.08284312e-001 2.74488062e-001 5.76515645e-002 7.77525769e-004
      3.96613311e-003 9.57041308e-002 3.08284312e-001 8.64139572e-002
      2.87817687e-001 2.98194945e-001 2.45328888e-001 9.10179913e-002
      1.09224743e-003 8.81719403e-004 2.26754881e-002 2.63468139e-002
      6.94006160e-002 2.54088461e-001 2.98194945e-001 2.90120035e-001
      2.49020949e-001 2.22931728e-002 4.28626873e-002 2.93188933e-002
      7.26597756e-002 2.98194945e-001 2.65772641e-001 2.98194945e-001
      2.25132182e-001 4.14587446e-002 1.23382325e-003 3.16064834e-004
      5.78625277e-002 1.15355946e-001 5.87090217e-002 1.30098745e-001
      2.98194945e-001 8.25291872e-002 3.01299337e-002 2.58800131e-003
      8.21822381e-004 4.14849492e-003 2.42770407e-002</_>
    <_>
      2.97731161e-001 2.97731161e-001 2.97731161e-001 2.97731161e-001
      2.23870933e-001 2.84806713e-002 1.15020201e-002 1.41462088e-002
      1.94461495e-001 2.97731161e-001 2.97731161e-001 2.97731161e-001
      2.19557598e-001 5.14690652e-002 1.75036513e-003 1.98148773e-003
      8.68391152e-003 1.71790153e-001 1.53984189e-001 1.07247777e-001
      1.03125721e-001 1.61079064e-001 2.97731161e-001 2.27262639e-002
      1.33878477e-002 3.27746244e-003 1.09991536e-001 1.22894436e-001
      5.95558472e-002 6.11293316e-002 4.86507267e-002 8.02087784e-002
      2.37873686e-003 5.72866481e-003 3.18175834e-003 5.01343459e-002
      3.44803870e-001 3.44803870e-001 3.44803870e-001 3.05295259e-001
      7.86951408e-002 2.83601927e-003 4.18630987e-003 5.80929872e-003
      3.44803870e-001 3.44803870e-001 5.94759099e-002 4.94053960e-002
      4.68463562e-002 7.19224140e-002 1.80171058e-001 2.95442730e-001
      1.86214492e-001 3.44803870e-001 8.58691260e-002 3.59438471e-002
      3.38531621e-002 2.72779576e-002 2.03723237e-002 3.21502914e-003
      1.36288907e-002 6.36232458e-003 3.19506638e-002 2.89433300e-002
      5.87741053e-003 1.05997417e-002 2.41358834e-003 2.34107524e-002
      4.35355958e-003 1.79914460e-002 1.19984979e-002 4.16757800e-002
      1.77112654e-001 6.77228440e-004 4.49753227e-003 8.56436230e-003
      6.70382753e-002 1.85399309e-001 2.76383251e-001 2.32437268e-001
      2.76383251e-001 1.55291021e-001 1.47240758e-002 3.19299437e-002
      6.36268705e-002 2.76383251e-001 2.76383251e-001 2.76383251e-001
      2.76383251e-001 2.76383251e-001 2.47423705e-002 8.25373456e-004
      3.30094364e-003 9.76373849e-004 2.07572319e-002 3.47971767e-002
      4.50270995e-002 4.44906317e-002 5.21630943e-002 6.76164404e-002
      2.20927820e-002 1.38629982e-002 5.47421463e-002 2.76383251e-001
      2.18951195e-001 2.76383251e-001 2.76383251e-001 1.20088004e-001
      1.42844096e-001 7.69502968e-002 1.27628043e-001 2.16385946e-001
      4.76744324e-001 2.58403271e-002 8.37888941e-003 1.69177982e-003
      8.38782936e-002 1.28387567e-002 1.16517104e-003 6.49453187e-003
      1.05788745e-002 2.05061302e-001 8.31133872e-003 9.79282148e-003
      3.93769704e-003 1.24586457e-002 3.27827871e-001 1.89655825e-001
      2.36172900e-001 3.00842792e-001 4.76744324e-001 6.74172491e-002
      1.32022306e-001 2.06339285e-002 2.59332955e-001 7.84170255e-003
      3.84633429e-003 1.53027922e-002 1.54263591e-002 1.43425882e-001
      7.55236531e-003 1.07541820e-002 3.15603032e-003 8.18369072e-003
      2.00044379e-001 3.55861187e-002 1.14072353e-001 1.55158509e-002
      3.16535711e-001 1.11257464e-001 2.54587203e-001 9.55971628e-002
      2.05083966e-001 1.86482236e-001 3.67314331e-002 1.09914206e-001 0.
      3.16535711e-001 1.03924321e-002 2.39109144e-001 8.30584392e-002
      1.87487245e-001 2.19386548e-001 4.66393977e-002 1.41313016e-001
      3.58058116e-003 3.16535711e-001 3.71679515e-002 1.30093008e-001
      5.83555661e-002 2.23023295e-001 1.77845970e-001 2.69478317e-002
      8.06380957e-002 0. 3.16535711e-001 8.69319681e-003 2.15315536e-001
      7.05344751e-002 1.83260575e-001 7.93805625e-003 9.30215989e-004
      2.49277079e-003 6.02895452e-005 2.30297018e-002 2.95531726e-003
      1.22979144e-002 3.52089573e-003 8.69840663e-003 3.30454037e-002
      1.53555339e-002 8.94053187e-003 6.59181401e-002 4.66193914e-001
      5.78774363e-002 1.05127625e-001 6.38587251e-002 3.89953665e-002
      1.93850417e-002 1.86462735e-003 1.51964091e-002 1.44132953e-002
      7.07645491e-002 3.44922789e-003 9.47570894e-003 2.96511548e-003
      1.73099078e-002 1.03357166e-001 3.44909668e-001 4.61459875e-001
      4.27305847e-001 4.66193914e-001 2.68480312e-002 1.06430482e-002
      7.84119684e-003 4.19073477e-002 2.21817255e-001 1.36182666e-001
      1.04853518e-001 1.49560869e-001 2.82040596e-001 7.40977675e-002
      1.38905376e-001 3.66401747e-002 1.92103595e-001 8.79322961e-002
      1.59484651e-002 1.98036861e-002 9.29643773e-003 6.22996464e-002
      6.73116185e-003 1.22950021e-002 1.29144434e-002 9.41176265e-002
      2.69711584e-001 1.06139764e-001 1.66559428e-001 1.53513089e-001
      2.82040596e-001 2.14613229e-002 3.45021375e-002 2.61960272e-002
      1.33968174e-001 2.82040596e-001 1.21701464e-001 2.33981162e-001
      1.40725255e-001 2.82040596e-001 1.66341484e-001 2.53928006e-001
      2.76808083e-001 2.82040596e-001 3.55769955e-002 5.24044549e-003
      5.49056008e-003 1.28669140e-003 1.66096892e-002 4.25730878e-003
      7.93526135e-003 1.41172111e-002 5.55080920e-002 7.65750259e-002
      3.61285843e-002 3.06360386e-002 2.89516132e-002 2.42002681e-002
      2.06890912e-003 5.82579989e-003 3.24597862e-003 2.83973664e-002
      3.18444043e-001 8.43286365e-002 8.71795416e-002 5.47412075e-002
      1.06918849e-001 2.06815317e-001 2.90125847e-001 3.14636081e-001
      3.18444043e-001 3.18444043e-001 3.18444043e-001 3.18444043e-001
      3.18444043e-001 1.07043281e-001 3.10512632e-002 3.75171378e-002
      5.20726852e-002 3.18444043e-001 1.05689950e-001 5.38092889e-002
      5.70146926e-002 5.21708280e-002 3.70105132e-002 2.52158567e-003
      2.89889984e-003 1.68704265e-003 5.13744690e-002 1.66500673e-001
      2.23991379e-001 2.67313808e-001 2.63120830e-001 2.67313808e-001
      3.47242057e-002 8.18819460e-003 5.78596676e-003 1.31956846e-001
      2.67313808e-001 2.67313808e-001 2.67313808e-001 2.25876763e-001
      5.68376556e-002 2.63119955e-003 3.20126163e-003 6.53422019e-003
      1.80237547e-001 2.67313808e-001 2.67313808e-001 2.67313808e-001
      2.67313808e-001 1.46730229e-001 4.08784710e-002 1.26186153e-002
      1.25045637e-002 2.32368186e-001</_>
    <_>
      2.65566915e-001 2.65566915e-001 2.65566915e-001 2.65566915e-001
      2.11577043e-001 2.43123416e-002 2.01502768e-003 6.85890613e-004
      8.55572745e-002 2.65566915e-001 2.65566915e-001 2.03797668e-001
      1.99812025e-001 2.49050051e-001 1.13645392e-002 1.16933677e-002
      1.61713250e-002 2.24170685e-001 2.65566915e-001 2.65566915e-001
      2.65566915e-001 2.15465561e-001 9.85953510e-002 6.86115446e-003
      1.40234828e-003 8.85537243e-004 8.05765092e-002 1.35566831e-001
      9.01347250e-002 4.71344665e-002 9.06068459e-002 1.18423007e-001
      4.20527533e-003 3.52586829e-003 3.15127941e-003 4.45286222e-002
      3.55142176e-001 2.80230790e-001 3.04368138e-001 7.17102587e-002
      9.53854322e-002 1.79571975e-002 2.17765003e-001 1.90867126e-001
      3.55142176e-001 3.55142176e-001 8.37853327e-002 8.84458274e-002
      6.01402484e-003 6.24758564e-002 6.31950796e-002 2.95796514e-001
      2.80585289e-001 3.55142176e-001 7.30164126e-002 2.01372690e-002
      1.74155217e-002 2.08067466e-002 5.45148402e-002 1.73345790e-003
      8.08446016e-003 1.02183884e-002 6.31627366e-002 8.79739076e-002
      6.77643064e-003 1.06111374e-002 1.49891735e-003 2.34651081e-002
      5.61307557e-003 1.72144137e-002 1.79731678e-002 1.03224613e-001
      2.16122210e-001 5.62268030e-003 8.53428908e-004 1.15055693e-004
      4.58280072e-002 9.93911177e-002 3.02148819e-001 2.39453912e-001
      3.02148819e-001 3.01705189e-002 7.53437402e-004 1.01579397e-004
      1.13829982e-003 1.45929158e-001 2.98498362e-001 3.02148819e-001
      3.02148819e-001 1.23614684e-001 2.23757457e-002 1.48845220e-003
      2.83527048e-003 1.33254600e-003 4.92365323e-002 4.22703363e-002
      1.00966305e-001 7.74760172e-002 3.41444537e-002 1.72383152e-002
      9.34793381e-004 5.74729173e-004 1.03791207e-002 3.02148819e-001
      3.02148819e-001 3.02148819e-001 3.02148819e-001 3.85962129e-002
      3.53214830e-001 3.53214830e-001 3.53214830e-001 3.53214830e-001
      5.17798774e-002 2.20526736e-002 3.90335135e-002 3.35267186e-002
      2.19961226e-001 1.61218360e-001 1.17963701e-001 9.97855589e-002
      6.42755553e-002 4.84687611e-002 1.20808380e-002 3.00409663e-002
      1.68044418e-002 4.39525582e-002 1.59400314e-001 3.13106366e-002
      4.76868711e-002 2.47534011e-002 3.53214830e-001 3.53214830e-001
      1.55224279e-001 1.70293882e-001 2.17236787e-001 1.72143690e-002
      2.50389166e-002 4.09186631e-002 9.37725697e-003 1.85822658e-002
      8.48389417e-003 3.04535814e-002 1.59235783e-002 1.59864109e-002
      1.30951345e-001 1.84066176e-001 2.59671062e-001 1.33053243e-001
      2.59671062e-001 2.34539043e-002 1.24470942e-001 5.58673516e-002
      1.09137289e-001 1.66345939e-001 1.22695468e-001 2.59671062e-001
      1.92538854e-002 2.59671062e-001 2.05601729e-003 1.72202721e-001
      1.06119819e-001 1.70527101e-001 1.52582765e-001 1.46590516e-001
      2.59671062e-001 5.05267195e-002 2.17582002e-001 1.92660298e-002
      1.63599357e-001 7.16955289e-002 1.43780440e-001 1.94072917e-001
      1.52356684e-001 2.59671062e-001 1.24934111e-002 2.59671062e-001
      6.96043996e-003 2.35773787e-001 1.11498572e-001 1.89164251e-001
      5.03953081e-003 4.43781121e-003 1.05275363e-002 2.60418723e-003
      9.25724730e-002 2.28476003e-002 2.23350599e-002 1.78701840e-002
      7.65678752e-003 4.77646254e-002 1.73196872e-003 3.05222534e-003
      2.84986701e-002 3.77022147e-001 3.77022147e-001 3.77022147e-001
      3.13597828e-001 7.22611174e-002 6.26692362e-003 6.09654421e-003
      9.89162736e-003 5.23452181e-003 3.98848280e-002 1.16348108e-002
      1.78897753e-002 8.52166116e-003 6.58911094e-003 8.94272029e-002
      2.10541666e-001 8.12893733e-002 2.50326872e-001 3.77022147e-001
      3.04245114e-001 2.67377287e-001 1.34605452e-001 6.86537921e-002
      3.14845406e-002 3.67312576e-003 5.16916765e-003 6.85656816e-003
      3.45979184e-001 1.70255303e-001 1.73704818e-001 1.45567372e-001
      3.40344906e-002 6.32489938e-003 7.27702212e-003 8.42716731e-003
      2.56964681e-003 1.24651538e-002 2.67623551e-003 1.13515183e-002
      7.74856564e-003 4.97549400e-003 1.19554326e-001 1.02961147e-002
      3.31267109e-003 8.43902491e-003 3.27941477e-001 3.45979184e-001
      3.45979184e-001 3.45979184e-001 2.94894874e-001 9.73859802e-002
      7.92615023e-003 9.55375377e-003 8.75227060e-003 1.50949210e-001
      8.71780962e-002 2.66503900e-001 1.92100108e-001 2.78542578e-001
      2.98050344e-002 2.89899781e-002 3.67300473e-002 5.66770509e-003
      4.60985899e-002 8.86958092e-004 1.74056832e-002 1.04336198e-002
      2.71362420e-002 3.67915481e-002 1.56868845e-002 5.20973355e-002
      3.59606110e-002 1.31730407e-001 6.74136309e-003 3.51305604e-002
      1.18409088e-002 3.83627564e-002 9.72801596e-002 2.79957335e-002
      5.94444014e-002 3.13768759e-002 3.44937742e-001 7.91166872e-002
      1.60982907e-001 8.21198747e-002 1.74867824e-001 3.54945242e-001
      3.54945242e-001 3.54945242e-001 3.54945242e-001 3.54945242e-001
      1.91409141e-002 6.49744570e-002 2.16479991e-002 3.54945242e-001
      5.26651666e-002 3.56325246e-002 2.13629492e-002 3.08706723e-002
      5.56592979e-002 5.27666416e-003 4.30431636e-003 3.76093667e-003
      3.24184075e-002 2.04302087e-001 1.95907578e-001 9.43689570e-002
      2.56739318e-001 2.69153088e-001 1.20335840e-001 3.15592550e-002
      1.13240080e-002 1.31704196e-001 2.59832263e-001 1.59387365e-001
      1.27066270e-001 1.70372978e-001 2.69153088e-001 4.66790311e-002
      2.63847541e-002 4.04010415e-002 1.35976881e-001 2.69153088e-001
      2.69153088e-001 2.00264215e-001 2.69153088e-001 2.69153088e-001
      2.69153088e-001 9.19067711e-002 1.02814615e-001 2.69153088e-001</_>
    <_>
      2.75048584e-001 2.75048584e-001 2.75048584e-001 2.75048584e-001
      2.75048584e-001 5.14898226e-002 3.87432240e-002 1.43287359e-002
      2.75048584e-001 2.75048584e-001 1.41632557e-001 2.05470636e-001
      1.74562290e-001 2.03442082e-001 1.09083978e-002 3.90971918e-003
      3.17362808e-002 2.75048584e-001 7.11093172e-002 2.07861155e-001
      2.75048584e-001 2.03363985e-001 2.75048584e-001 4.26975302e-002
      1.56889763e-002 1.35639422e-002 5.83065748e-002 4.14807983e-002
      2.84444820e-002 3.73301469e-002 2.94312071e-002 2.62618437e-002
      2.93477578e-003 1.93873781e-003 4.99869173e-004 1.82285570e-002
      3.15187335e-001 2.36207489e-002 6.36563227e-002 3.37168872e-002
      1.03436187e-001 1.16869234e-001 1.35852486e-001 2.01064229e-001
      3.15187335e-001 3.15187335e-001 8.51027761e-003 1.27407452e-002
      1.77380573e-002 3.15187335e-001 3.15187335e-001 3.15187335e-001
      3.15187335e-001 3.15187335e-001 1.85784828e-002 6.31866325e-003
      8.68914183e-003 2.20530597e-003 2.03116648e-002 5.38006518e-003
      5.05997939e-003 1.05475662e-002 2.55358461e-002 8.30471441e-002
      8.88108276e-003 8.26160796e-003 4.28404147e-003 2.49265790e-001
      9.79800001e-002 5.80796339e-002 7.20204338e-002 1.53355271e-001
      1.66517660e-001 7.45417923e-003 3.07905511e-003 1.26261013e-002
      3.35133016e-001 2.06364706e-001 1.45070687e-001 1.68915153e-001
      3.32813144e-001 5.19035086e-002 1.85516402e-002 2.29251422e-002
      4.38207351e-002 3.35133016e-001 1.77916810e-001 1.10986412e-001
      1.19645245e-001 1.51291624e-001 3.17237116e-002 3.15281120e-003
      1.93383323e-003 1.15281418e-002 3.35133016e-001 1.52213126e-001
      8.94255564e-002 1.14739843e-001 1.32526934e-001 8.48945752e-002
      4.91306409e-002 2.82104611e-002 9.13294256e-002 3.35133016e-001
      2.30279177e-001 1.57066554e-001 1.76119924e-001 1.98321328e-001
      3.87109779e-002 1.26364455e-001 1.38427958e-001 1.81830093e-001
      6.12691343e-001 5.38033769e-002 1.45534789e-002 1.32383686e-002
      4.48813699e-002 1.91171598e-002 1.74207520e-002 3.24735604e-002
      1.65101346e-002 5.02008721e-002 8.66591278e-003 1.41157005e-002
      4.15675528e-003 1.42521653e-002 1.29566759e-001 9.55785662e-002
      8.58999044e-002 3.36314052e-001 6.12691343e-001 1.44435335e-002
      5.61631517e-003 4.78056632e-003 1.06874451e-001 1.81970987e-002
      7.55438209e-003 1.81071181e-002 3.86151671e-003 5.94692416e-002
      7.90820830e-003 1.57009978e-002 6.03938242e-003 1.98974162e-002
      4.22167704e-002 3.10523212e-002 6.96906820e-002 6.30901894e-003
      1.05640329e-001 1.53351910e-002 5.38017750e-002 2.28609554e-002
      4.44243290e-002 8.85155126e-002 5.46507426e-002 1.05523795e-001
      5.04751168e-002 4.96944338e-001 1.52463585e-001 1.94360435e-001
      1.40425444e-001 1.55625999e-001 4.71958145e-002 2.30007302e-002
      5.29694073e-002 4.29524528e-003 1.28197670e-001 3.98562616e-003
      4.28092927e-002 1.49932373e-002 4.70022224e-002 1.12700485e-001
      2.18925968e-001 4.44157422e-001 2.08021611e-001 4.96944338e-001
      2.73162071e-002 4.93331216e-002 2.80735567e-002 1.25662401e-001
      6.35054195e-003 1.84687821e-003 3.46260564e-003 1.70782506e-002
      3.91828954e-001 3.86039466e-002 4.10593934e-002 3.21113281e-002
      3.40799280e-002 1.65904969e-001 8.18371624e-002 3.64070274e-002
      9.20085981e-002 3.91828954e-001 1.06361382e-001 1.34169668e-001
      9.97494385e-002 2.10715964e-001 7.40170572e-003 4.76557799e-002
      8.08059573e-002 7.42810741e-002 3.91828954e-001 1.64798889e-002
      4.52374434e-003 3.55072459e-003 1.06786396e-002 1.02742903e-001
      2.13323325e-001 3.05116802e-001 2.31805965e-001 3.91828954e-001
      8.33813995e-002 5.84276319e-002 5.16812950e-002 1.33601278e-001
      1.39412344e-001 3.95945236e-002 2.98229586e-002 7.97682106e-002
      1.63904399e-001 6.16839491e-002 7.58715123e-002 5.72248287e-002
      1.15266711e-001 2.76544634e-002 1.90623605e-003 3.15939425e-003
      3.60546866e-003 2.34612934e-002 2.31726076e-002 2.69005448e-002
      2.35668905e-002 5.70245497e-002 2.91139454e-001 3.00152171e-002
      2.18730047e-002 7.65864700e-002 2.91139454e-001 2.91139454e-001
      2.91139454e-001 2.91139454e-001 2.91139454e-001 2.91139454e-001
      1.38224345e-002 5.26194647e-003 1.44605767e-002 1.63210899e-001
      2.44862691e-001 2.91139454e-001 2.28714108e-001 2.91139454e-001
      2.36371476e-002 1.42025892e-002 6.35730894e-003 6.50458783e-003
      1.38903996e-002 1.57227519e-003 3.26954713e-003 2.49667652e-003
      1.55689716e-002 7.46460035e-002 1.56673372e-001 2.06287324e-001
      1.50685787e-001 7.91686028e-002 1.10047078e-002 1.51594938e-003
      2.60392530e-003 5.34206927e-002 3.22959930e-001 2.14093447e-001
      1.47964045e-001 1.32271573e-001 7.03394860e-002 4.10135835e-002
      9.51332301e-002 3.71614061e-002 3.22959930e-001 3.22959930e-001
      3.22959930e-001 3.22959930e-001 3.22959930e-001 2.16556624e-001
      1.06085613e-001 8.45904555e-003 1.46179106e-002 3.22959930e-001
      2.29145624e-002 1.67778015e-001 2.62552261e-001 2.09928170e-001
      2.62552261e-001 1.61906648e-002 2.08259502e-004 1.06389052e-003
      2.35681757e-002 3.01950872e-002 2.33838558e-001 2.62552261e-001
      2.62552261e-001 2.62552261e-001 7.40586668e-002 3.26803178e-002
      2.63927337e-002 4.35816348e-002 2.30116844e-001 2.62552261e-001
      2.62552261e-001 2.62552261e-001 1.11429960e-001 4.60094437e-002
      8.67600029e-004 7.44219916e-003 1.48099318e-001 1.13505580e-001
      1.78084761e-001 2.62552261e-001 2.60480523e-001 1.79546893e-001
      2.41266713e-002 1.17238881e-002 1.11107128e-002 6.05324954e-002</_>
    <_>
      2.34238476e-001 1.28715843e-001 2.36429796e-001 1.73624665e-001
      1.45726934e-001 7.67918723e-003 2.46426556e-003 1.66436261e-003
      2.13419333e-001 2.36429796e-001 2.19739377e-001 1.13606639e-001
      1.71655297e-001 2.36429796e-001 4.10958156e-002 2.45456621e-002
      3.04153860e-002 2.36429796e-001 1.65512815e-001 8.46088231e-002
      2.36429796e-001 1.62264451e-001 2.36429796e-001 2.43975651e-002
      4.45614420e-002 1.15253655e-002 1.60693958e-001 2.15126947e-001
      6.66594282e-002 4.71706241e-002 7.12537766e-002 2.36429796e-001
      2.22285181e-001 2.36429796e-001 1.88105315e-001 2.36429796e-001
      2.42840931e-001 1.13974191e-001 7.64635503e-002 1.02422409e-001
      1.24917112e-001 7.05165714e-002 6.41353130e-002 8.77498463e-002
      2.42840931e-001 2.42840931e-001 1.41321849e-002 7.92072900e-003
      2.63684578e-002 1.58972591e-001 1.36922047e-001 1.82904124e-001
      2.00254247e-001 2.42840931e-001 2.03490809e-001 2.45470740e-002
      1.40598798e-002 3.14684696e-002 1.75619453e-001 2.42840931e-001
      2.42840931e-001 2.12218076e-001 2.33665407e-001 2.42840931e-001
      1.65758386e-001 1.16434969e-001 2.15777978e-001 2.42840931e-001
      9.69611481e-002 1.13580041e-001 5.48140667e-002 2.42840931e-001
      1.52511343e-001 1.04980944e-002 6.67232601e-003 3.36678997e-002
      2.33528882e-001 1.39143124e-001 1.96586356e-001 1.43546626e-001
      2.36460000e-001 7.69876614e-002 2.43423041e-003 3.68257379e-003
      1.73921920e-002 2.11428747e-001 2.30348319e-001 2.36460000e-001
      1.75836936e-001 1.37263313e-001 2.36460000e-001 1.30801767e-001
      1.19175166e-001 2.27826029e-001 2.36460000e-001 1.39501855e-001
      1.24027640e-001 5.82168326e-002 2.36460000e-001 1.66104808e-001
      2.63875313e-002 4.02242877e-002 8.17574263e-002 2.36460000e-001
      2.36460000e-001 2.36460000e-001 1.57829881e-001 2.36460000e-001
      2.60848142e-002 2.51432210e-002 1.48131773e-001 8.52127969e-002
      2.66971380e-001 4.27053683e-002 8.11236203e-002 1.49253104e-002
      2.63373069e-002 1.06912524e-001 4.26203348e-002 5.00166714e-002
      4.98401597e-002 2.66971380e-001 2.66971380e-001 2.66971380e-001
      1.67580277e-001 9.88577902e-002 9.12590623e-002 8.76507014e-002
      1.89945295e-001 1.07874669e-001 2.12882563e-001 1.61184743e-001
      2.66971380e-001 7.14016333e-002 4.83871959e-002 2.66971380e-001
      2.66971380e-001 2.66971380e-001 2.66971380e-001 1.83268502e-001
      1.28927499e-001 2.05295146e-001 5.72795980e-002 1.47781983e-001
      1.75042823e-001 2.84180641e-002 2.72189565e-002 3.28148343e-002
      1.80966765e-001 1.83135107e-001 2.29903087e-001 1.23229504e-001
      1.68506101e-001 2.29903087e-001 1.71932295e-001 1.11221448e-001
      1.69953436e-001 2.29903087e-001 5.55359013e-002 5.24831973e-002
      3.68301608e-002 2.29903087e-001 2.29903087e-001 2.04275295e-001
      2.02876061e-001 1.44012257e-001 2.05245391e-001 1.09262742e-001
      1.86886087e-001 8.75556469e-002 1.72797695e-001 1.89791545e-001
      9.99279618e-002 6.78908303e-002 9.45939422e-002 2.29903087e-001
      1.91471830e-001 2.29903087e-001 1.65374607e-001 2.29903087e-001
      2.74435610e-001 2.55596697e-001 2.02166572e-001 2.74435610e-001
      2.74435610e-001 7.65812472e-002 7.22245127e-002 2.98688039e-002
      2.20929608e-001 1.23425364e-001 4.74254228e-002 4.77998070e-002
      7.11808428e-002 2.74435610e-001 1.91536501e-001 2.74435610e-001
      1.39973864e-001 1.99192822e-001 1.13118798e-001 9.30233300e-002
      6.50643334e-002 8.66482183e-002 2.74435610e-001 1.67922020e-001
      2.29434446e-001 1.27621442e-001 1.78119615e-001 3.74078713e-002
      2.00248230e-002 7.30779469e-002 5.71400188e-002 2.74435610e-001
      4.77242619e-002 7.06938207e-002 2.41449997e-002 4.44024317e-002
      1.59437463e-001 7.60211200e-002 1.64771542e-001 7.47624189e-002
      2.33038738e-001 1.34434789e-001 2.33038738e-001 1.24072149e-001
      1.20028608e-001 2.33038738e-001 2.33038738e-001 2.33038738e-001
      1.98735371e-001 2.06552252e-001 4.13843915e-002 4.80151549e-002
      3.26247849e-002 1.14348158e-001 1.91762298e-001 2.56008357e-002
      5.42009324e-002 2.97090597e-002 2.33038738e-001 1.29875094e-001
      1.87327594e-001 2.26776600e-001 2.13421360e-001 2.33038738e-001
      6.84851855e-002 1.02975376e-001 6.61624745e-002 2.33038738e-001
      1.11878499e-001 1.71665817e-001 2.11981431e-001 2.33038738e-001
      2.20468938e-001 2.16103271e-001 2.32525423e-001 1.42876014e-001
      1.11236989e-001 5.73546700e-002 1.20177791e-001 5.90108559e-002
      1.31119981e-001 9.63627174e-002 2.35815700e-002 2.91198269e-002
      3.68366726e-002 2.53418624e-001 2.53418624e-001 2.53418624e-001
      2.13586435e-001 2.13738561e-001 2.53418624e-001 5.61072193e-002
      3.89897674e-002 5.89232892e-002 1.81093380e-001 4.29159217e-002
      6.09875768e-002 1.22488804e-001 2.53418624e-001 2.53418624e-001
      6.28858656e-002 6.33358136e-002 5.54884896e-002 1.85289070e-001
      1.91421345e-001 2.53418624e-001 1.27518624e-001 2.53418624e-001
      3.39702964e-002 2.07405947e-002 1.67471897e-002 4.11477312e-002
      2.01576754e-001 2.08330795e-001 2.39899859e-001 1.49537876e-001
      1.50801182e-001 6.19584434e-002 1.19159736e-001 2.39899859e-001
      1.39562979e-001 2.39899859e-001 5.95782734e-002 1.12842537e-001
      5.71529642e-002 7.30944574e-002 1.72867611e-001 1.04584724e-001
      1.54368043e-001 1.02021486e-001 1.75987542e-001 2.25827843e-001
      2.39899859e-001 1.31151542e-001 2.39899859e-001 1.69095919e-001
      2.17716351e-001 2.39899859e-001 2.19580248e-001 2.39899859e-001
      1.24311440e-001 1.97089478e-001 1.08788490e-001 1.87254384e-001</_>
    <_>
      1.03225946e-001 1.62602022e-001 2.60411888e-001 1.69694856e-001
      1.73229575e-001 7.73342028e-002 6.63615316e-002 5.43668829e-002
      1.84825644e-001 2.34576866e-001 1.32405713e-001 2.35255808e-001
      1.44135758e-001 2.60411888e-001 1.27517492e-001 1.85634106e-001
      1.18774615e-001 2.42173955e-001 1.33312434e-001 3.31418552e-002
      5.01692817e-002 5.27797379e-002 9.75835323e-002 9.16218609e-002
      1.59373716e-001 1.24340996e-001 2.60411888e-001 1.17800631e-001
      8.91825277e-003 2.14014556e-002 3.05768661e-002 1.77262485e-001
      2.12683141e-001 2.60411888e-001 2.60411888e-001 2.60411888e-001
      2.67489046e-001 3.24704535e-002 6.50421456e-002 5.62863424e-002
      2.67489046e-001 9.41195339e-002 1.47950575e-001 1.03865750e-001
      2.67489046e-001 2.67489046e-001 1.85863338e-002 2.59214472e-002
      2.04700585e-002 1.07487947e-001 3.29268724e-002 4.46740650e-002
      4.16051969e-002 2.67489046e-001 8.71708840e-002 2.39806529e-003
      1.67684518e-002 1.91852599e-002 1.42708361e-001 2.09123224e-001
      2.67489046e-001 2.67489046e-001 2.67489046e-001 1.30853847e-001
      2.50895228e-002 4.13510054e-002 3.70430239e-002 2.23232299e-001
      1.58304811e-001 2.67489046e-001 2.14368343e-001 2.67489046e-001
      2.32377082e-001 9.11806673e-002 8.34241286e-002 7.02641904e-002
      2.55877912e-001 7.64735639e-002 8.24057832e-002 8.09403881e-002
      2.55877912e-001 1.42506257e-001 1.06059313e-001 8.74118134e-002
      6.33024648e-002 2.55877912e-001 1.59045637e-001 2.55877912e-001
      2.55877912e-001 2.05877781e-001 1.15947679e-001 1.34935945e-001
      1.40216395e-001 9.83355939e-002 2.55877912e-001 9.50396508e-002
      8.62131789e-002 7.58346170e-002 2.13474229e-001 1.02622129e-001
      1.42616853e-001 1.40335098e-001 7.67552406e-002 2.55877912e-001
      1.93292469e-001 2.38630831e-001 2.08233491e-001 1.09312385e-001
      7.22624138e-002 8.06376114e-002 1.03067346e-001 3.74675952e-002
      1.25874206e-001 1.10472687e-001 2.51558840e-001 1.80799663e-001
      1.56707689e-001 5.65961190e-002 4.75080032e-003 3.96285094e-002
      4.86933365e-002 1.42792732e-001 1.56454280e-001 2.51558840e-001
      2.51558840e-001 1.25444800e-001 8.57870206e-002 1.13436855e-001
      1.00090533e-001 7.93250054e-002 2.51558840e-001 2.22657531e-001
      2.51558840e-001 2.51558840e-001 9.26103294e-002 1.91628471e-001
      1.27012551e-001 1.40162349e-001 1.08176380e-001 2.51558840e-001
      2.17438698e-001 2.51558840e-001 2.51558840e-001 1.57989919e-001
      1.07979685e-001 3.81191750e-003 6.47107214e-002 8.63787085e-002
      1.14501946e-001 1.40501395e-001 2.41366982e-001 2.32469440e-001
      2.13717684e-001 2.04474047e-001 1.60607174e-002 3.65543328e-002
      7.89415836e-002 2.41366982e-001 1.73518524e-001 2.41366982e-001
      1.75827399e-001 2.41366982e-001 2.15271741e-001 3.41761447e-002
      9.58688557e-002 1.13457054e-001 1.92288905e-001 1.04771189e-001
      1.20345190e-001 1.04966074e-001 2.41366982e-001 2.41366982e-001
      2.27084421e-002 3.23721543e-002 8.27636793e-002 2.41366982e-001
      1.78833202e-001 2.18385756e-001 1.84008807e-001 2.41366982e-001
      1.08559757e-001 3.65598276e-002 4.01552096e-002 5.36667556e-002
      2.52565801e-001 1.37076795e-001 1.53190672e-001 9.56640542e-002
      1.89127997e-001 3.25794034e-002 6.46100715e-002 1.15724042e-001
      1.24560244e-001 2.52565801e-001 1.58824474e-001 1.29959881e-001
      7.75385424e-002 4.27297540e-002 1.73917189e-001 4.30140458e-002
      5.57903685e-002 6.26836047e-002 2.52565801e-001 2.52565801e-001
      2.52565801e-001 2.52565801e-001 1.82366282e-001 1.68616772e-001
      2.52565801e-001 2.52565801e-001 2.52565801e-001 2.52565801e-001
      1.38307646e-001 1.54415458e-001 1.25975654e-001 1.04981564e-001
      1.25213057e-001 3.79752554e-002 3.74947451e-002 4.37756330e-002
      2.34517425e-001 1.33842021e-001 1.98507860e-001 1.50952935e-001
      1.57479331e-001 1.66833490e-001 9.29543748e-002 1.68715477e-001
      1.32201582e-001 2.41555214e-001 1.28543913e-001 2.37888962e-001
      2.06013843e-001 2.17728510e-001 2.29379341e-001 3.70147987e-003
      1.37587059e-002 1.81381777e-002 1.58591390e-001 1.41695827e-001
      2.41555214e-001 1.68137580e-001 2.41555214e-001 2.24589854e-001
      9.70626250e-003 7.72014409e-002 7.74894506e-002 1.10343434e-001
      1.42990351e-001 2.41555214e-001 2.41555214e-001 2.41555214e-001
      1.72635764e-001 3.73429917e-002 9.97459888e-002 9.32447389e-002
      2.09388793e-001 8.65559205e-002 1.35393918e-001 1.38539463e-001
      2.79308647e-001 2.40326896e-001 5.52563332e-002 6.44317642e-002
      4.01050709e-002 7.17600659e-002 1.15303464e-001 1.48238108e-001
      1.36624455e-001 2.67337739e-001 3.04956257e-001 4.22081957e-003
      4.53399606e-002 4.37786616e-002 7.74006695e-002 8.73230025e-002
      3.00866574e-001 2.31282607e-001 3.04956257e-001 3.04956257e-001
      1.16990827e-001 1.17367685e-001 4.38327678e-002 9.13046226e-002
      2.31261048e-002 8.51984173e-002 6.31485805e-002 3.04956257e-001
      1.38434827e-001 1.04920119e-001 1.59553379e-001 8.46518129e-002
      1.46676525e-001 1.50348917e-001 1.57240734e-001 1.43450081e-001
      1.14823215e-001 2.12193355e-001 2.37098843e-001 2.37098843e-001
      2.35825762e-001 2.22693115e-001 8.08495805e-002 7.50454664e-002
      6.49813190e-002 9.51244757e-002 2.37098843e-001 2.19694883e-001
      2.37098843e-001 1.23154648e-001 1.99762195e-001 2.02801842e-002
      3.79190035e-002 2.98646204e-002 1.69121832e-001 2.37098843e-001
      2.37098843e-001 2.37098843e-001 2.37098843e-001 2.37098843e-001
      2.25163959e-002 4.71019335e-002 5.68809435e-002 9.98621508e-002</_>
    <_>
      2.31216699e-001 2.01676622e-001 2.31216699e-001 1.43371925e-001
      2.31064767e-001 3.73474136e-002 4.95014228e-002 2.96581797e-002
      1.58368453e-001 2.31216699e-001 2.05732912e-001 2.31216699e-001
      1.20691359e-001 1.32125601e-001 4.66543175e-002 1.35038763e-001
      7.54869655e-002 1.80957213e-001 2.31216699e-001 5.21557890e-002
      1.21015050e-001 1.24420539e-001 2.31216699e-001 8.07516202e-002
      1.46972895e-001 1.27292499e-001 2.14693323e-001 1.66178226e-001
      7.27540031e-002 6.26361668e-002 8.14222023e-002 2.31216699e-001
      1.39380112e-001 2.31216699e-001 2.31216699e-001 2.29687139e-001
      2.61090577e-001 1.45571187e-001 1.70442447e-001 5.59009537e-002
      8.40419382e-002 4.49635573e-002 1.98795572e-001 1.36252061e-001
      2.61090577e-001 2.61090577e-001 6.92695985e-003 1.48496935e-002
      1.94912963e-003 4.80772071e-002 4.70463373e-002 2.61090577e-001
      2.44983599e-001 2.61090577e-001 2.03326866e-001 1.37675554e-001
      5.76654039e-002 3.84317935e-002 2.61090577e-001 9.75759849e-002
      2.61090577e-001 1.39940888e-001 1.73798323e-001 2.52513409e-001
      8.36386979e-002 3.85933779e-002 2.00728849e-002 2.61090577e-001
      5.64971454e-002 1.73068881e-001 7.68995434e-002 1.74862504e-001
      1.38706982e-001 2.35382607e-003 1.63023407e-003 2.75952712e-004
      3.06564998e-002 7.56995305e-002 3.60309631e-001 1.96518615e-001
