<?xml version="1.0"?>
<opencv_storage>
<my_svm type_id="opencv-ml-svm">
  <svm_type>C_SVC</svm_type>
  <kernel><type>RBF</type>
    <gamma>3.3750000000000002e-002</gamma></kernel>
  <C>1.2500000000000000e+001</C>
  <term_criteria><epsilon>1.1920928688624599e-009</epsilon>
    <iterations>20000</iterations></term_criteria>
  <var_all>324</var_all>
  <var_count>324</var_count>
  <class_count>11</class_count>
  <class_labels type_id="opencv-matrix">
    <rows>1</rows>
    <cols>11</cols>
    <dt>i</dt>
    <data>
      0 1 2 3 4 5 6 7 8 9 10</data></class_labels>
  <sv_total>300</sv_total>
  <support_vectors>
    <_>
      3.05110335e-001 2.30775073e-001 1.00038752e-001 2.21846364e-002
      4.56439815e-002 4.38692840e-003 7.60362600e-004 1.79860205e-003
      1.58607766e-001 3.05110335e-001 1.05049208e-001 1.41175035e-002
      4.32674494e-003 1.48740765e-002 0. 5.31451218e-003 4.18671444e-002
      3.05110335e-001 3.05110335e-001 2.91174144e-001 2.68515855e-001
      2.59096950e-001 1.82280064e-001 4.45574671e-002 1.00308787e-002
      1.15179317e-002 1.31507114e-001 3.05110335e-001 2.16613799e-001
      2.97979452e-002 1.01370877e-002 5.09029720e-003 9.74042865e-004
      2.50176843e-002 9.38271135e-002 3.05110335e-001 3.26382130e-001
      3.82294059e-002 1.55214574e-002 1.28282665e-003 1.20989243e-002 0.
      7.80443242e-003 7.88526088e-002 3.26382130e-001 2.68096596e-001
      2.80934684e-002 7.51512358e-003 0. 2.13810243e-002 3.68286652e-004
      2.89008748e-002 2.64448494e-001 3.26382130e-001 3.26382130e-001
      6.91115111e-002 6.41915656e-004 4.32754029e-003 1.83802133e-003
      1.43039483e-003 2.77533140e-002 1.53523520e-001 3.26382130e-001
      2.58085042e-001 4.27109301e-002 4.03720001e-003 2.56824261e-003
      9.57328943e-004 3.52125056e-003 3.71052325e-002 3.26382130e-001
      3.26382130e-001 5.66603467e-002 5.73859317e-003 0. 0.
      3.22381668e-002 5.53505775e-003 1.51036203e-001 3.09612721e-001
      2.37101302e-001 1.52364923e-002 0. 0. 0. 2.74011735e-002
      1.55840278e-001 3.09612721e-001 3.09612721e-001 8.00473168e-002
      4.95161600e-002 1.85160171e-002 2.63751298e-003 1.17798084e-002
      3.45221683e-002 1.13280445e-001 3.09612721e-001 3.09612721e-001
      3.09612721e-001 2.91740708e-002 3.62303923e-003 6.49966591e-004
      7.33486712e-002 1.74677998e-001 3.09612721e-001 3.09612721e-001
      2.39841446e-001 6.13293238e-002 1.08143970e-001 9.31354612e-002
      1.12513676e-001 1.87465996e-001 1.96654603e-001 1.51970118e-001
      1.43981561e-001 1.03894114e-001 1.62867278e-001 1.71757624e-001
      7.68687502e-002 1.74603034e-002 1.52471438e-002 7.65629159e-003
      6.58290694e-004 3.12581286e-002 1.07990228e-001 3.31399322e-001
      1.97060019e-001 1.35755958e-002 1.90544780e-003 2.25147586e-002
      6.56536967e-002 1.68000475e-001 3.31399322e-001 2.75149941e-001
      3.31399322e-001 2.75885522e-001 1.19519373e-002 1.24849670e-003
      7.77407596e-003 2.40558200e-003 5.97285992e-003 3.53679359e-002
      3.08822930e-001 3.31399322e-001 1.46555260e-001 5.04883267e-002
      1.12900359e-003 7.61129428e-003 3.23271914e-003 1.13041454e-003
      2.91782655e-002 1.01237006e-001 2.75984466e-001 2.21012294e-001
      1.11502990e-001 2.52474397e-002 1.00528440e-002 6.36989489e-006
      5.41501772e-003 3.64137180e-002 1.58940554e-001 3.83525729e-001
      3.83525729e-001 1.11547504e-002 3.43515130e-004 2.52007088e-003
      8.08179728e-004 0. 1.03903282e-002 1.68454736e-001 3.83525729e-001
      3.83525729e-001 1.74151167e-001 3.06257065e-002 6.70189597e-003
      4.24659584e-006 1.28310360e-003 9.46251489e-003 2.62265280e-002
      3.83525729e-001 7.32038170e-002 8.36904719e-002 7.32874796e-002
      1.09976716e-001 9.15318057e-002 1.21219635e-001 1.65145203e-001
      1.49343371e-001 1.32498831e-001 2.49739401e-002 3.52406092e-002
      9.39421207e-002 2.64409065e-001 2.64409065e-001 2.64409065e-001
      2.64409065e-001 6.40402883e-002 2.98796408e-002 2.64409065e-001
      2.64409065e-001 2.64409065e-001 1.73381284e-001 5.71184233e-002
      2.21140999e-002 1.21154496e-002 4.61285561e-003 2.64409065e-001
      8.29226226e-002 2.08737701e-001 2.64409065e-001 2.64409065e-001
      2.64409065e-001 8.15383941e-002 1.93475187e-002 3.09256313e-004
      3.39786299e-002 1.30644262e-001 1.53794149e-002 7.35873473e-004
      7.41405832e-003 7.07716448e-003 4.95629273e-002 1.93199217e-001
      3.36801916e-001 2.96233147e-001 2.12536365e-001 1.02529423e-002
      1.10381027e-003 1.11210886e-002 1.37953483e-003 1.86489578e-002
      5.91906942e-002 2.66336769e-001 3.36801916e-001 4.99833301e-002
      1.15220528e-002 6.82062330e-003 4.94270585e-003 1.07786227e-002
      1.89438984e-002 2.33056515e-001 3.36801916e-001 2.80608356e-001
      1.49880648e-001 2.56323535e-003 7.35873473e-004 7.41405832e-003
      1.00213466e-002 1.40032498e-002 7.25555569e-002 3.36801916e-001
      3.36801916e-001 3.56473416e-001 2.82546203e-003 1.52064516e-004
      1.53207744e-003 0. 9.70471371e-003 2.30524205e-002 1.06319383e-001
      3.56473416e-001 3.56473416e-001 6.63075894e-002 7.82091822e-003
      5.28401113e-004 4.33239015e-003 1.02554904e-002 1.80261768e-002
      2.39261389e-002 3.56473416e-001 2.25263685e-001 2.63673835e-003
      1.01376339e-004 1.02138496e-003 1.19975181e-002 1.45570738e-002
      2.51771193e-002 1.65834174e-001 3.56473416e-001 3.56473416e-001
      2.24647727e-002 6.91549154e-003 7.92601786e-004 2.40367260e-002
      1.53832380e-002 2.70392690e-002 9.03619751e-002 3.56473416e-001
      2.93522388e-001 1.97683632e-001 1.94558963e-001 4.34311964e-002
      9.51789040e-003 1.16143026e-003 3.57991364e-003 8.66742153e-003
      2.93522388e-001 1.41994864e-001 2.93522388e-001 2.93522388e-001
      1.39532909e-001 2.93676574e-002 8.47191550e-003 4.52760607e-003
      1.10284728e-003 6.58347383e-002 2.93522388e-001 8.69535431e-002
      5.35015091e-002 5.79249253e-003 2.06427183e-002 1.74214528e-003
      5.36987046e-003 8.11778475e-003 2.93522388e-001 2.93522388e-001
      2.93522388e-001 2.93522388e-001 1.50897456e-002 1.95893031e-002 0.
      0. 7.35231384e-004 2.93522388e-001</_>
    <_>
      3.32522959e-001 2.96571255e-001 1.95814937e-001 2.80747619e-002
      4.51667197e-002 1.28804296e-002 0. 8.39857943e-003 3.58378552e-002
      3.32522959e-001 1.56590492e-001 2.70195156e-002 1.26831210e-003
      8.35898984e-003 2.52618128e-003 6.73913746e-005 1.16336746e-002
      2.20264629e-001 3.32522959e-001 3.32522959e-001 3.32522959e-001
      2.19560131e-001 6.06401116e-002 1.77388750e-002 1.01429261e-002 0.
      2.24509314e-002 3.32522959e-001 2.25836173e-001 5.75755239e-002
      1.81445219e-002 1.96533147e-002 8.67484324e-003 5.64286311e-004
      3.26934829e-003 1.43863752e-001 3.31454843e-001 2.61584874e-002
      3.99846211e-003 0. 7.29455892e-003 3.93152423e-003 2.41269765e-004
      1.06568411e-002 3.31454843e-001 2.68870085e-001 3.63542349e-003
      2.10028188e-003 0. 2.02580187e-002 3.61172180e-003 2.89316811e-002
      3.16779882e-001 3.31454843e-001 3.31454843e-001 4.04235497e-002
      1.17699662e-002 6.60053035e-003 1.04190838e-002 2.72524375e-002
      9.72061697e-003 4.51720040e-003 3.31454843e-001 1.90827519e-001
      1.41498828e-002 1.39735744e-003 1.62725511e-003 1.08539741e-002
      3.10395584e-002 1.11208633e-001 3.31454843e-001 3.31454843e-001
      2.79893223e-002 5.65850176e-003 3.12727434e-003 0. 2.42578555e-002
      1.10969078e-002 1.96941674e-001 3.13788384e-001 2.67082304e-001
      8.63915961e-003 7.44854566e-003 3.22159869e-003 5.87929180e-003
      4.93081957e-002 3.13788384e-001 3.13788384e-001 2.14642584e-001
      4.10415269e-002 1.68813486e-002 2.78401235e-003 3.56105709e-004
      8.38187803e-003 2.74767708e-002 1.04018979e-001 3.13788384e-001
      3.13788384e-001 1.90241203e-001 1.29789421e-002 1.75742235e-003
      4.88084555e-003 4.35585491e-002 2.41534039e-001 3.13788384e-001
      3.13788384e-001 1.89715624e-001 3.24248895e-002 5.87123558e-002
      1.02740310e-001 2.55489707e-001 2.38124654e-001 1.32589608e-001
      1.34939358e-001 2.64368117e-001 4.16361876e-002 2.03968957e-002
      1.58005610e-001 7.93277174e-002 6.55439571e-002 4.11708839e-002
      2.52655689e-002 1.70059856e-002 2.80302353e-002 5.58241010e-002
      4.76402529e-002 4.85542044e-002 2.77297497e-002 1.75406449e-002
      3.68180312e-002 6.01012819e-002 1.63772017e-001 3.33366990e-001
      3.33366990e-001 3.33366990e-001 3.33366990e-001 4.15802933e-002
      1.67676955e-002 1.54266562e-002 7.03612389e-003 1.56169618e-002
      6.28063381e-002 3.33366990e-001 3.33366990e-001 1.58241361e-001
      2.99574416e-002 2.56334897e-002 2.30218023e-002 1.43386871e-002
      2.76667345e-002 2.15009525e-002 4.37952057e-002 8.87503773e-002
      1.28520414e-001 5.07056676e-002 9.25083086e-003 2.74282005e-002
      4.63778861e-002 4.41642888e-002 1.34072423e-001 1.55048236e-001
      9.65917259e-002 4.45644677e-001 5.58817387e-002 7.82194734e-003
      1.08129345e-002 2.53114430e-003 3.17264046e-003 1.58734508e-002
      7.90640935e-002 4.45644677e-001 4.45644677e-001 4.45644677e-001
      9.77313798e-003 3.36722396e-002 3.47431004e-002 1.02025000e-002
      3.00676115e-002 3.84752974e-002 2.69593030e-001 3.88161391e-002
      4.54182923e-002 7.89564699e-002 6.61810786e-002 8.99463221e-002
      1.27279133e-001 1.90179586e-001 1.07687831e-001 1.70414373e-002
      1.96211096e-002 3.22384499e-002 1.62657082e-001 1.98322669e-001
      2.94545025e-001 2.94545025e-001 2.53934950e-001 5.36489002e-002
      1.08474893e-002 2.94545025e-001 2.94545025e-001 1.97202966e-001
      8.78267661e-002 5.99013828e-002 3.00929490e-002 1.07832430e-002
      1.15546817e-002 2.88213883e-002 1.51131898e-001 2.94545025e-001
      2.94545025e-001 2.94545025e-001 2.94545025e-001 7.42100775e-002
      3.02903680e-003 1.51938032e-002 3.18799615e-002 4.27736416e-002
      5.99201396e-003 1.03773875e-002 9.83225065e-004 4.82475525e-003
      2.60948371e-002 2.54186302e-001 3.14931422e-001 3.14931422e-001
      3.14931422e-001 2.76989061e-002 8.66395701e-003 3.56949610e-003
      6.07603433e-005 1.91853778e-003 2.15798840e-002 1.90002784e-001
      3.14931422e-001 4.34814990e-002 2.81221420e-003 7.27934483e-003
      1.39408151e-003 1.64324008e-002 5.55811916e-003 2.86387116e-001
      3.14931422e-001 2.31920347e-001 2.34733507e-001 5.54215237e-002
      1.09242508e-002 5.33405598e-003 2.62742471e-002 2.87024328e-003
      2.80925799e-002 3.14931422e-001 3.14931422e-001 3.48862797e-001
      5.67108132e-002 6.62927097e-003 1.27906515e-003 2.41640853e-004
      2.85370485e-003 1.54869934e-003 1.73259545e-002 3.48862797e-001
      3.48862797e-001 3.48862797e-001 7.36479321e-003 2.22822581e-003
      1.82580098e-003 3.45276715e-003 1.55342743e-003 8.89048912e-003
      2.24954829e-001 3.48862797e-001 1.05401620e-001 9.94390715e-003
      1.91859796e-003 2.31098030e-002 1.14148157e-002 4.94342472e-004
      6.62075430e-002 3.48862797e-001 3.48862797e-001 2.29495481e-001
      1.02203544e-002 0. 3.04814242e-002 8.64340831e-003 5.05275559e-004
      1.01793362e-002 1.41788825e-001 3.22613448e-001 3.22613448e-001
      8.47209468e-002 1.84324011e-002 2.33405735e-003 8.47036485e-003
      1.27582848e-002 1.69203449e-002 5.36966324e-002 1.23845398e-001
      2.63650477e-001 3.22613448e-001 3.15025270e-001 9.22464505e-002
      2.61191763e-002 1.80102177e-002 1.90440081e-002 4.40102480e-002
      3.22613448e-001 3.22613448e-001 1.22820988e-001 6.05419918e-004
      1.57596283e-002 5.64690912e-003 1.79724637e-002 1.08784279e-002
      4.84621190e-002 1.23377226e-001 3.22613448e-001 3.22613448e-001
      1.57830581e-001 1.91920176e-002 3.36961038e-002 3.24748643e-002
      8.08193907e-003 2.18156669e-002</_>
    <_>
      3.19793850e-001 3.08912039e-001 1.15322933e-001 6.59974664e-002
      2.20199153e-002 5.85565343e-004 1.14781614e-002 2.76099797e-002
      9.82403457e-002 3.19793850e-001 2.54298836e-001 2.33510174e-002
      5.22574876e-004 1.03679579e-002 3.07176681e-003 1.19811967e-002
      1.18752830e-002 2.68447042e-001 3.19793850e-001 3.19793850e-001
      1.94620311e-001 2.85592228e-001 8.92629921e-002 8.29066187e-002
      5.56052895e-003 1.26545439e-002 3.83934453e-002 3.19793850e-001
      1.80676162e-001 3.22595239e-002 1.91867016e-002 1.04078148e-002
      3.67810316e-002 1.75989773e-002 2.43464950e-002 2.26517975e-001
      3.24987650e-001 4.40774374e-002 5.08911815e-003 0. 5.97279007e-003
      2.24007200e-003 9.59653221e-003 2.00348105e-002 3.24987650e-001
      2.00751200e-001 4.09035292e-003 3.80410999e-003 1.26050436e-003
      3.24952789e-002 1.21023292e-002 1.59918755e-001 3.24987650e-001
      3.24987650e-001 3.24987650e-001 2.91303955e-002 1.20379450e-002
      1.30976941e-002 4.87679848e-003 1.55070927e-002 1.19813494e-002
      3.43398117e-002 3.24987650e-001 1.61516502e-001 1.72374994e-002
      1.95850935e-002 1.13629010e-002 1.11524472e-002 2.14572325e-002
      2.27968633e-001 3.24987650e-001 3.24987650e-001 1.39071969e-002
      5.11151913e-004 1.45833800e-003 1.40177296e-003 3.96050550e-002
      5.76283336e-002 3.10721129e-001 3.10721129e-001 1.76691979e-001
      4.53233114e-003 3.78416182e-004 4.07787552e-003 1.06143905e-003
      6.69704601e-002 3.10721129e-001 3.10721129e-001 1.88221648e-001
      2.43854634e-002 9.11374390e-003 2.04460719e-003 1.35537609e-002
      2.71758195e-002 5.86824976e-002 1.46030635e-001 3.10721129e-001
      3.10721129e-001 1.07725337e-001 5.46394987e-003 0. 1.51014170e-002
      5.43733351e-002 3.10721129e-001 3.10721129e-001 3.10721129e-001
      1.01346686e-001 1.56691018e-002 5.47094941e-002 6.92808405e-002
      6.26167729e-002 1.46568790e-001 1.15817852e-001 3.10140342e-001
      1.26385659e-001 8.08942690e-002 7.37608001e-002 9.67645869e-002
      3.89043689e-002 2.31368244e-002 2.23225225e-002 1.56763680e-002
      4.94501665e-002 2.14877389e-002 4.72047962e-002 1.87429398e-001
      7.26802722e-002 9.69285262e-004 1.96736446e-003 4.23735101e-003
      2.83516720e-002 3.00451666e-001 3.32083851e-001 3.53734463e-001
      3.53734463e-001 3.53734463e-001 1.38928893e-003 3.02415504e-003
      4.73064044e-003 5.88084664e-003 1.64945628e-002 2.14728005e-002
      2.55570471e-001 3.53734463e-001 1.14459671e-001 2.26366688e-002
      8.81829578e-003 2.39527468e-002 7.92598724e-003 1.75083876e-002
      1.55946426e-002 4.14609872e-002 1.91833958e-001 1.75163835e-001
      1.35303408e-001 6.63251951e-002 2.65512560e-002 2.08902135e-002
      2.79160384e-002 1.09274432e-001 1.12280674e-001 1.37126461e-001
      4.26176995e-001 4.09656949e-002 2.95395660e-003 5.75982081e-003
      1.88039616e-003 4.39349376e-003 1.45521481e-002 4.17958759e-002
      4.26176995e-001 4.26176995e-001 4.26176995e-001 1.03552997e-001
      1.03575792e-002 6.43977802e-003 9.89835802e-003 1.01419613e-002
      1.83796268e-002 3.19477111e-001 4.62346002e-002 7.11160973e-002
      1.60775647e-001 1.32468894e-001 1.02476627e-001 1.19548962e-001
      1.92279279e-001 4.92507331e-002 1.61374919e-002 9.92678758e-003
      1.90606900e-002 1.74684510e-001 2.89807737e-001 2.89807737e-001
      2.89807737e-001 1.84626177e-001 1.26219708e-002 5.19014429e-003
      2.89807737e-001 2.89807737e-001 2.89807737e-001 1.77807212e-001
      4.21633758e-002 1.96031667e-002 9.04345885e-004 2.63649155e-003
      2.02795286e-002 6.62908256e-002 1.35725930e-001 2.89807737e-001
      2.89807737e-001 2.89807737e-001 6.11530505e-002 2.11513106e-005 0.
      1.27614429e-002 4.51182052e-002 5.59563795e-003 3.95978149e-003 0.
      0. 4.45785820e-002 2.26524457e-001 3.17775488e-001 3.17775488e-001
      2.55376428e-001 1.01938220e-002 1.01718782e-002 0. 0.
      1.13786217e-002 1.93181727e-002 1.85523883e-001 3.17775488e-001
      3.39666680e-002 6.32725982e-003 5.93967317e-003 0. 8.69595353e-003
      2.40408443e-002 2.92111218e-001 3.17775488e-001 3.17775488e-001
      2.14623183e-001 1.47741837e-002 1.52578158e-002 0. 1.09124286e-002
      1.41362324e-002 1.34883942e-002 3.17775488e-001 3.17775488e-001
      3.65696877e-001 1.72911659e-002 7.04140402e-003 0. 9.33768053e-004
      4.90056491e-003 3.73498630e-003 2.28886418e-002 3.65696877e-001
      3.65696877e-001 1.97253555e-001 3.95545475e-002 1.31112831e-002
      1.40065223e-003 1.18021620e-002 9.99678276e-004 6.88892044e-003
      1.82762235e-001 3.65696877e-001 1.96521003e-002 1.02372766e-002 0.
      1.08002536e-002 7.35084899e-003 2.16482161e-003 4.06595170e-002
      3.65696877e-001 3.65696877e-001 2.91418165e-001 5.64892031e-002
      1.88342668e-002 2.40165759e-002 1.06162652e-002 1.63443590e-004
      3.81561718e-003 1.65223166e-001 3.18865389e-001 2.84579962e-001
      1.35907844e-001 6.17458001e-002 1.67336129e-002 1.36008076e-002
      3.05276393e-004 3.28531140e-003 3.53380889e-002 6.36279285e-002
      3.11860919e-001 3.18865389e-001 3.18865389e-001 1.27903342e-001
      9.08966735e-003 7.63190983e-005 0. 2.37422921e-002 3.18865389e-001
      3.18865389e-001 2.03008085e-001 2.17417162e-002 1.69155318e-002
      8.27815291e-003 8.07533390e-004 2.33668182e-003 2.59388536e-002
      6.04714267e-002 3.18865389e-001 3.18865389e-001 1.17876604e-001
      2.51862574e-002 2.21062470e-002 7.06989039e-003 8.07407778e-004
      1.84021331e-002</_>
    <_>
      2.32860759e-001 1.82688370e-001 1.14963435e-001 2.13039294e-002
      4.52393368e-002 1.22981835e-002 3.85743529e-002 2.13723201e-002
      6.18516952e-002 3.24715734e-001 3.21958542e-001 5.15965223e-002
      2.42655221e-002 3.49249430e-002 4.43422142e-003 9.64358822e-003
      1.67157669e-002 1.44428775e-001 3.24715734e-001 3.24715734e-001
      2.81903207e-001 2.38566026e-001 7.60256201e-002 1.21703232e-002
      2.21345052e-002 1.00960173e-002 4.11396921e-002 3.24715734e-001
      3.24715734e-001 4.39905562e-002 9.38076805e-003 5.22955274e-003
      1.18565885e-002 1.08004436e-002 5.37197664e-003 2.89835095e-001
      3.24460059e-001 1.14790902e-001 2.26243641e-002 7.03756278e-003
      1.02706421e-002 5.88919211e-004 2.59946391e-004 3.10194213e-002
      3.24460059e-001 1.61745936e-001 1.51164019e-002 2.76167574e-003 0.
      1.71973854e-002 4.10382003e-002 1.06287755e-001 2.66089052e-001
      3.24460059e-001 3.24460059e-001 1.02248713e-001 5.50996093e-003
      1.69224653e-003 6.70299691e-004 7.93181732e-003 7.38121336e-003
      1.75677575e-002 3.24460059e-001 3.24460059e-001 1.27107147e-002
      7.62916636e-004 0. 1.67834223e-003 7.63902720e-003 1.34688839e-001
      3.24460059e-001 3.24460059e-001 1.61482748e-002 5.56405634e-003
      3.61888204e-003 0. 3.62724625e-002 1.40382230e-001 2.69754380e-001
      2.30810285e-001 1.24809980e-001 3.14485258e-003 3.03825131e-003
      2.31903163e-003 0. 5.41851260e-002 3.49439323e-001 3.49439323e-001
      8.14200118e-002 8.98594502e-003 4.97461297e-002 3.34383245e-003
      9.64199891e-004 0. 3.87389632e-003 1.01083212e-001 3.49439323e-001
      3.49439323e-001 1.84857711e-001 7.92648550e-003 7.59562710e-004
      5.79757849e-004 0. 8.85129422e-002 3.49439323e-001 3.49439323e-001
      1.89584315e-001 2.26465091e-002 2.44573191e-001 3.05643857e-001
      3.05643857e-001 3.05643857e-001 3.05643857e-001 5.62569313e-002
      7.90411606e-003 3.48194444e-004 1.70228425e-002 3.05643857e-001
      3.05643857e-001 7.77051002e-002 2.94071529e-002 1.11189764e-002
      3.29540148e-002 1.84587464e-002 1.14082722e-002 2.10530505e-001
      3.16018313e-002 2.98563857e-002 4.95977029e-002 3.05643857e-001
      3.05643857e-001 3.05643857e-001 5.95812611e-002 2.41542794e-002
      1.97986532e-002 7.80676901e-002 7.79963508e-002 3.13673317e-002
      4.61869054e-002 5.65450154e-002 5.73955886e-002 3.65862623e-002
      6.71034530e-002 5.86453527e-002 3.40104133e-001 1.17828578e-001
      8.43895786e-003 9.21682362e-003 5.38203539e-003 4.61382642e-002
      5.03290780e-002 7.78486282e-002 3.40104133e-001 3.40104133e-001
      6.60516918e-002 3.82688153e-003 3.79619398e-003 2.66063288e-002
      7.10830316e-002 3.07333082e-001 3.40104133e-001 3.40104133e-001
      1.43989056e-001 1.68261856e-001 2.50354595e-002 2.87079532e-002
      2.48234496e-002 3.61905396e-002 4.39529084e-002 1.04033306e-001
      1.31375477e-001 1.57744333e-001 2.33296677e-001 6.65057078e-002
      1.78723764e-002 4.00319174e-002 8.85402188e-002 1.25022411e-001
      1.99597836e-001 2.39687055e-001 1.98647678e-002 3.69961513e-003
      1.69429032e-003 3.56300292e-003 4.08741944e-002 1.94784626e-001
      3.30862284e-001 2.43940443e-001 4.88131829e-002 7.50443758e-003 0.
      1.03026640e-003 3.71504319e-003 3.13470334e-001 3.30862284e-001
      3.30862284e-001 7.40938857e-002 1.18123824e-002 1.86697915e-002
      7.15887249e-002 8.56186599e-002 1.66720241e-001 1.40458852e-001
      1.58314884e-001 1.11107223e-001 3.98077182e-002 3.14572118e-002
      1.10359732e-002 4.18079682e-002 1.15188010e-001 3.30862284e-001
      3.30862284e-001 3.30862284e-001 1.35271460e-001 1.06422659e-002
      1.11716529e-002 1.00528859e-002 1.07725314e-003 9.78444121e-004
      1.07903387e-002 1.30145222e-001 3.15567940e-001 2.15665966e-001
      1.24113739e-001 1.56053096e-001 9.71085280e-002 9.04587749e-003
      5.67704719e-003 1.07468003e-002 2.26582792e-002 3.64743620e-002
      4.71307859e-002 1.02729902e-001 2.83662885e-001 2.81512737e-002 0.
      0. 2.56485515e-003 7.15508312e-002 2.86524594e-001 3.15567940e-001
      3.15567940e-001 3.15567940e-001 3.15567940e-001 1.47283524e-002
      1.12804002e-003 1.56674976e-003 1.31919477e-002 1.25243356e-002
      5.50442114e-002 3.15567940e-001 3.15567940e-001 2.49747217e-001
      2.48136818e-002 9.93509963e-003 7.05149397e-003 7.90292118e-003
      9.47087351e-003 4.26146202e-003 1.77593045e-002 1.57973707e-001
      3.96731377e-001 2.61849582e-001 2.45660413e-002 2.74390122e-003
      4.12746612e-003 1.14682550e-002 8.43621604e-003 1.28980326e-002
      1.15661979e-001 3.96731377e-001 4.19731550e-002 2.44898116e-003
      1.55415782e-003 1.02637596e-002 3.93483229e-003 1.79828214e-003
      1.01650126e-001 3.96731377e-001 3.96731377e-001 3.96731377e-001
      1.33974981e-002 3.20444320e-004 1.47276102e-002 2.30613234e-003
      6.14110613e-003 2.21778126e-003 1.57692596e-001 1.51639029e-001
      2.97899574e-001 2.22860962e-001 1.61496773e-001 4.85685728e-002
      1.84540004e-002 7.08702207e-003 9.59695317e-003 3.25173847e-002
      3.16472054e-002 1.54183820e-001 2.97899574e-001 2.97899574e-001
      2.97899574e-001 5.87519221e-002 6.83426717e-003 4.11395729e-003
      1.55391572e-002 2.97899574e-001 2.97899574e-001 2.06888229e-001
      5.14175743e-002 2.20110137e-002 7.59646716e-003 1.03500299e-002
      1.61042449e-003 2.67164949e-002 8.52882192e-002 1.73221275e-001
      2.97899574e-001 2.97899574e-001 2.65008748e-001 3.17074098e-002
      1.12086125e-002 1.65519537e-003 2.10218169e-002</_>
    <_>
      2.13572294e-001 3.17496479e-001 2.64122695e-001 1.18107274e-002
      2.93233097e-002 1.77250290e-003 6.23476051e-004 6.14278112e-003
      3.60906273e-002 3.17496479e-001 1.88302025e-001 1.93356685e-002 0.
      1.49628520e-002 0. 0. 9.21417214e-003 2.35357672e-001
      2.00796738e-001 3.17496479e-001 3.17496479e-001 1.81523085e-001
      1.22863889e-001 6.59221560e-002 2.09196825e-002 4.23222082e-003
      2.11377963e-002 3.17496479e-001 3.17496479e-001 1.07348032e-001
      4.17847708e-002 8.69887322e-003 7.30970781e-003 1.01463525e-002
      1.19147655e-002 2.74765164e-001 3.64340097e-001 2.64006555e-002 0.
      0. 6.92156330e-003 0. 0. 1.67612662e-003 3.64340097e-001
      2.15818495e-001 2.36464199e-002 2.56404956e-003 0. 1.28665091e-002
      8.83848965e-003 4.85759490e-004 5.42494953e-002 3.64340097e-001
      3.64340097e-001 3.57452072e-002 2.54425593e-003 4.65796981e-003 0.
      0. 0. 4.13276814e-003 3.64340097e-001 3.64340097e-001
      2.43087746e-002 1.05423583e-002 3.67456028e-004 0. 2.20962195e-003
      1.21439858e-004 1.18516043e-001 3.64340097e-001 3.70665789e-002
      5.85652888e-003 8.51897895e-003 0. 1.86166223e-002 1.67177394e-002
      3.26188914e-002 2.85432428e-001 3.13386291e-001 2.66612340e-002
      1.77323032e-004 5.67931915e-003 0. 2.79594231e-002 5.35615087e-002
      3.13386291e-001 3.13386291e-001 1.70191735e-001 8.96884724e-002
      1.15345251e-002 7.16262870e-003 1.24483816e-002 1.21431788e-002
      3.25567611e-002 1.17548853e-001 3.13386291e-001 3.13386291e-001
      3.93773429e-002 4.02679289e-004 2.51517748e-003 3.26225832e-002
      2.03183368e-001 2.77871847e-001 3.13386291e-001 3.13386291e-001
      2.16482207e-001 4.62506711e-002 1.48468032e-001 1.77855551e-001
      1.55726507e-001 1.74967244e-001 2.34579727e-001 1.89372361e-001
      1.26874775e-001 5.42174354e-002 3.00351739e-001 1.37535244e-001
      7.03487173e-002 5.78528121e-002 1.27054825e-002 2.54536401e-002
      6.96463808e-002 1.45143226e-001 2.99303919e-001 1.22219948e-002 0.
      5.93003538e-003 2.14490145e-002 6.53186366e-002 3.07935923e-001
      3.07935923e-001 3.07935923e-001 1.95007801e-001 1.13207020e-001
      7.01734331e-004 5.33576030e-003 1.38150016e-002 5.30661782e-003
      1.96593031e-002 1.09880738e-001 3.07935923e-001 3.07935923e-001
      3.33999723e-001 2.72868704e-002 5.81269758e-003 7.52233714e-003 0.
      0. 0. 2.75535248e-002 3.33286703e-001 3.38726342e-001
      1.12440579e-001 3.63989063e-002 1.29400229e-003 0. 0. 0.
      6.40945658e-002 3.39087337e-001 3.39087337e-001 9.06755496e-003
      2.98466696e-003 1.99555093e-003 2.97639228e-004 3.97907337e-004
      8.61933746e-004 5.90747185e-002 3.39087337e-001 3.39087337e-001
      2.45811209e-001 2.55419053e-002 8.62667977e-004 0. 0. 0.
      2.41373247e-003 3.39087337e-001 1.58803672e-001 1.44242033e-001
      6.44290671e-002 5.37656322e-002 3.51634510e-002 3.80448774e-002
      9.43759456e-002 2.28818923e-001 2.29897097e-001 5.54799773e-002
      9.23863649e-002 1.38953492e-001 2.42046207e-001 2.76725858e-001
      2.40785912e-001 2.26662323e-001 2.11410478e-001 6.63031265e-002
      2.76725858e-001 2.76725858e-001 1.74329758e-001 4.80446890e-002
      2.61408053e-002 9.38019902e-003 1.30035179e-002 8.49194918e-003
      1.06474355e-001 1.27094939e-001 2.76725858e-001 2.76725858e-001
      2.76725858e-001 2.35731423e-001 4.61571589e-002 1.95052791e-002
      6.66584866e-003 2.50174459e-002 1.37231620e-002 0. 0.
      1.49776184e-004 9.75696370e-003 1.19751304e-001 2.60438144e-001
      3.46818238e-001 1.72500551e-001 7.28912428e-002 0. 0. 0.
      6.73280191e-003 4.37149080e-003 3.51136476e-002 2.67640650e-001
      3.46818238e-001 1.03331851e-002 2.21221941e-003 4.99363057e-004 0.
      8.07061885e-003 3.31118032e-002 3.03296387e-001 3.46818238e-001
      3.46818238e-001 9.93995368e-002 0. 0. 0. 1.31227653e-002
      2.69625382e-003 1.72609389e-002 3.17883700e-001 3.46818238e-001
      2.43283644e-001 2.39441823e-003 7.81170151e-004 0. 9.70371184e-004
      1.29726785e-003 2.93046352e-003 4.59999889e-002 3.71500015e-001
      3.71500015e-001 1.05718546e-001 3.42990365e-003 0. 0. 0.
      8.02430077e-005 7.95178395e-003 3.71500015e-001 3.04354817e-001
      2.73679686e-003 1.17175526e-003 0. 7.48164067e-003 8.64845177e-004
      2.05394602e-003 4.66637127e-002 3.71500015e-001 3.71500015e-001
      2.28962488e-002 4.68701962e-003 0. 8.68285168e-003 0.
      1.20364515e-004 1.19276773e-002 3.71500015e-001 3.42874587e-001
      3.11165065e-001 6.95640743e-002 3.68021009e-003 5.21579618e-003 0.
      0. 0. 1.02995880e-001 1.35058537e-001 3.42874587e-001
      3.42874587e-001 1.31659225e-001 3.40325050e-002 0. 0. 0.
      4.13293876e-002 3.42874587e-001 2.43898436e-001 1.87518820e-002
      2.17742010e-004 1.00240028e-002 0. 0. 0. 1.83758318e-001
      3.42874587e-001 3.42874587e-001 2.03004450e-001 2.57249158e-002
      1.70686878e-002 0. 0. 0. 6.76304623e-002</_>
    <_>
      2.97754496e-001 2.97754496e-001 1.58905685e-001 1.93310454e-002
      3.58946361e-002 5.48108621e-003 2.51846132e-003 5.64710125e-002
      1.12205863e-001 2.97754496e-001 1.83749080e-001 1.39917415e-002
      1.53194368e-003 1.18856542e-002 4.32329951e-003 5.58641646e-003
      3.62544954e-002 2.97754496e-001 2.53408223e-001 2.97754496e-001
      2.97754496e-001 1.42592952e-001 2.53644854e-001 1.18339039e-001
      3.40369903e-002 3.03426888e-002 4.09501083e-002 2.97754496e-001
      1.93804130e-001 4.28513996e-002 1.67394243e-002 2.14768853e-002
      4.17136997e-002 2.56825518e-002 1.96197238e-002 2.97754496e-001
      3.35313827e-001 8.69686157e-003 0. 2.08037702e-004 6.22520410e-003
      3.89669626e-003 5.21814357e-003 3.79502326e-002 3.35313827e-001
      1.42079979e-001 4.82115261e-002 8.28754331e-004 1.17403083e-002
      3.47703248e-002 4.25516516e-002 9.64217931e-002 3.35313827e-001
      3.35313827e-001 3.35313827e-001 2.76721399e-002 9.58966278e-003
      4.46150918e-003 1.25647979e-002 1.19992066e-002 7.32950913e-003
      3.20647135e-002 3.35313827e-001 1.35079190e-001 9.00585502e-002
      1.64088048e-002 1.94181071e-003 1.68462154e-002 1.36030037e-002
      1.76757336e-001 3.35313827e-001 3.35313827e-001 1.56192882e-002
      2.21597943e-002 3.94010567e-004 1.69858988e-002 4.63606082e-002
      3.58569995e-002 2.85074621e-001 3.33052099e-001 1.53920650e-001
      2.89997347e-002 2.76009273e-003 1.12856587e-003 3.68218608e-002
      5.65632135e-002 2.81624943e-001 3.33052099e-001 1.82936013e-001
      2.15736832e-002 2.28474643e-002 3.67203951e-002 6.83728047e-003
      3.35479761e-003 3.11580691e-002 1.09374821e-001 3.33052099e-001
      3.33052099e-001 1.47573784e-001 4.76737022e-002 1.44197512e-002
      2.82141438e-004 2.32873913e-002 1.75074786e-001 3.33052099e-001
      3.33052099e-001 1.78522944e-001 2.96423119e-002 2.68109161e-002
      4.09696177e-002 9.82470289e-002 9.95122418e-002 2.79397547e-001
      2.89973557e-001 3.24596018e-001 5.03538884e-002 2.73848679e-002
      7.46541098e-002 3.97074856e-002 2.21902337e-002 1.96848940e-002
      3.03958561e-002 6.23050444e-002 7.97943100e-002 4.71912920e-002
      5.80132231e-002 4.14327979e-002 6.80897152e-003 8.40422325e-003
      2.97545679e-002 1.11764587e-001 3.27409118e-001 3.37173760e-001
      3.37173760e-001 2.22455472e-001 1.49646446e-001 4.80839834e-002
      1.78386755e-002 2.82398723e-002 1.63746774e-002 3.86850797e-002
      1.57680809e-001 3.37173760e-001 3.37173760e-001 1.22258097e-001
      4.72962111e-002 1.54965846e-002 7.66120944e-003 1.40948817e-002
      2.37563569e-002 1.79166216e-002 4.68648896e-002 1.08059280e-001
      8.64411443e-002 5.90162836e-002 2.45794859e-002 1.98471220e-003
      1.74265858e-002 2.42116842e-002 1.34147719e-001 2.44676858e-001
      1.50721088e-001 4.18820769e-001 7.49907866e-002 1.05187306e-002
      7.06126681e-003 1.77288684e-003 1.01032201e-002 7.16654677e-003
      2.70296842e-001 4.18820769e-001 4.18820769e-001 1.63928628e-001
      1.14724394e-002 1.06961728e-004 1.84724911e-003 1.36530669e-002
      6.06923327e-002 1.97032690e-001 4.18820769e-001 1.12207597e-002
      1.44653833e-002 5.12846187e-002 3.49941850e-002 4.82376330e-002
      1.81231409e-001 2.76989311e-001 1.45239323e-001 3.63587402e-002
      2.11477950e-002 9.16249026e-003 7.55740628e-002 1.51509255e-001
      2.76989311e-001 2.76989311e-001 2.76989311e-001 5.38297631e-002
      1.67923328e-002 2.76989311e-001 2.52963603e-001 2.18717083e-001
      7.97375068e-002 4.16801907e-002 7.23620057e-002 4.01858464e-002
      8.30544159e-002 1.24060959e-001 1.32484168e-001 2.23966658e-001
      2.76989311e-001 2.76989311e-001 2.76989311e-001 2.59169817e-001
      3.79848368e-002 1.80020947e-002 5.98316491e-002 3.88747454e-002
      1.71979319e-003 9.59486235e-003 2.53895931e-002 1.85678359e-002
      1.45522267e-001 3.23783159e-001 3.23783159e-001 1.65982932e-001
      1.23713613e-001 1.54401809e-002 2.21725032e-002 1.85618866e-002
      4.00243967e-004 1.25546120e-002 6.74990118e-002 3.23783159e-001
      3.23783159e-001 2.89296750e-002 0. 7.57920183e-003 6.21645385e-003
      1.70521736e-002 1.02975272e-001 3.23783159e-001 3.23783159e-001
      1.46353588e-001 1.31055430e-001 1.49388509e-002 1.73784140e-002
      6.79280143e-003 2.93994341e-002 1.02195153e-002 1.83579758e-001
      3.23783159e-001 3.23783159e-001 3.44502360e-001 2.03571916e-002
      1.21470811e-002 1.04681693e-003 0. 2.39014393e-004 2.25052587e-003
      1.74533769e-001 3.44502360e-001 3.44502360e-001 1.02862515e-001
      2.48305337e-003 9.85794941e-006 3.32792895e-003 1.51326964e-002
      6.69188844e-003 5.32418676e-002 3.44502360e-001 2.63548434e-001
      1.47388838e-002 1.78031716e-002 4.63783368e-003 2.32729707e-002 0.
      1.64909139e-002 2.12601691e-001 3.44502360e-001 3.44502360e-001
      3.28920744e-002 3.42215672e-002 8.74853507e-003 2.82643754e-002
      1.00807920e-002 2.12935079e-003 4.22762074e-002 3.44502360e-001
      3.05925786e-001 2.86792636e-001 1.20763518e-001 3.08483150e-002
      1.08622881e-002 2.33494379e-002 5.61756548e-003 4.91139591e-002
      2.04703271e-001 1.80426955e-001 2.54330337e-001 3.05925786e-001
      3.05925786e-001 1.67947173e-001 3.78596373e-002 2.32602633e-003
      1.32542746e-002 1.19185977e-001 3.05925786e-001 1.85104802e-001
      9.85629410e-002 1.63475778e-002 3.53102461e-002 1.55544551e-002
      2.77773128e-004 2.13099010e-002 2.06793711e-001 1.31157979e-001
      3.05925786e-001 3.05925786e-001 1.64706558e-001 8.32173079e-002
      1.16003538e-002 0. 7.06918770e-003 1.04629539e-001</_>
    <_>
      2.78774589e-001 2.78774589e-001 2.28170976e-001 2.57200152e-002
      4.61310036e-002 1.47868730e-002 9.49602760e-003 1.63570046e-002
      6.31176010e-002 2.78774589e-001 2.52289146e-001 2.64339689e-002
      5.56935207e-004 1.22639341e-002 4.14369116e-003 1.17030740e-002
      1.27136605e-002 2.78774589e-001 2.78774589e-001 2.78774589e-001
      2.78774589e-001 1.61149502e-001 2.15227857e-001 9.83782560e-002
      3.46296020e-002 3.38164507e-003 2.37969905e-002 2.78774589e-001
      2.78774589e-001 6.75738305e-002 1.76932383e-002 6.43485188e-002
      4.99520153e-002 2.10072529e-002 1.14365388e-002 2.78774589e-001
      3.41703266e-001 4.71603461e-002 1.88682824e-002 2.04358017e-003
      4.24931804e-003 1.37932808e-003 6.71228813e-003 1.34156402e-002
      3.41703266e-001 2.11855471e-001 7.69511145e-003 1.57234818e-002
      1.36238663e-003 3.53637785e-002 1.13983471e-002 3.93288992e-002
      3.26737493e-001 3.41703266e-001 3.27722371e-001 5.58516234e-002
      1.21559501e-002 9.71636269e-003 1.47493323e-002 1.62973516e-002
      1.58804860e-002 3.92321311e-002 3.41703266e-001 1.21772997e-001
      7.48871313e-003 2.03229543e-002 8.85980297e-003 3.87934246e-003
      4.71315160e-003 9.93110314e-002 3.41703266e-001 3.41703266e-001
      2.09736358e-002 6.21659332e-004 7.89947517e-004 1.42801867e-003
      3.42259184e-002 6.12519085e-002 2.58703709e-001 3.19898605e-001
      1.71032101e-001 3.29935597e-003 0. 0. 1.29905408e-002
      7.76594728e-002 3.34829360e-001 3.34829360e-001 1.51524886e-001
      1.10332323e-002 1.17937801e-002 3.02221323e-003 9.28278267e-003
      3.32859321e-003 2.86029149e-002 1.23033002e-001 3.34829360e-001
      3.34829360e-001 1.53769419e-001 4.41977195e-003 0. 2.00790819e-004
      7.43969232e-002 1.39237881e-001 3.34829360e-001 3.34829360e-001
      1.61053926e-001 9.57687292e-003 4.89395782e-002 5.34274913e-002
      2.01782957e-001 1.22940689e-001 3.21279496e-001 3.10019106e-001
      2.58375317e-001 5.55437915e-002 1.69512015e-002 6.92068934e-002
      6.25901520e-002 3.03351954e-002 3.18758003e-002 1.06730431e-001
      9.91495028e-002 7.11472332e-002 7.09054023e-002 4.77707237e-002
      2.39297878e-002 2.47586379e-003 3.13192233e-003 3.21506448e-002
      1.71963260e-001 3.21279496e-001 3.21279496e-001 3.21279496e-001
      1.86304256e-001 4.70183715e-002 7.66088767e-003 2.14478862e-003
      2.50996836e-002 5.79501539e-002 5.15233539e-002 1.76316738e-001
      3.21279496e-001 3.21279496e-001 6.51983097e-002 3.89227681e-002
      2.46597752e-002 3.20352726e-002 3.32743749e-002 5.05805835e-002
      4.07348685e-002 7.50455335e-002 1.43393129e-001 7.95268491e-002
      2.76780892e-002 5.54119684e-002 3.81484888e-002 2.43711825e-002
      2.02342980e-002 8.24065953e-002 2.26372555e-001 2.06592098e-001
      4.48378384e-001 3.27007063e-002 2.16792207e-002 1.78940929e-002
      1.65533740e-002 2.12656409e-002 2.57941782e-002 2.62574911e-001
      4.48378384e-001 4.48378384e-001 1.79084256e-001 6.50081709e-002
      2.19507031e-002 1.89004969e-002 1.16171604e-002 6.61181053e-003
      5.61122820e-002 3.57040226e-001 1.99524444e-002 1.02452589e-002
      6.76375479e-002 6.00185581e-002 1.01190284e-001 1.47627473e-001
      2.47904137e-001 1.27543166e-001 3.72543707e-002 7.99601153e-003
      7.24526448e-003 7.39369839e-002 2.28658140e-001 2.87828505e-001
      2.87828505e-001 2.87828505e-001 5.03505617e-002 6.61621708e-003
      2.87828505e-001 2.42403969e-001 2.43114904e-001 1.28805682e-001
      8.50636363e-002 4.62691262e-002 1.76246818e-002 1.58055089e-002
      3.64525914e-002 1.04916036e-001 2.04985365e-001 2.87828505e-001
      2.87828505e-001 2.87828505e-001 1.82498753e-001 6.91762865e-002
      5.17307734e-003 8.34373944e-003 1.78813972e-002 7.49862241e-003
      3.73189134e-004 2.02892981e-002 4.87840772e-002 2.16908947e-001
      3.30098122e-001 3.30098122e-001 1.56762853e-001 6.05553426e-002
      1.24964099e-002 2.07312079e-003 9.71524045e-003 1.06418664e-002
      1.00284191e-002 7.21368641e-002 3.30098122e-001 3.30098122e-001
      1.25386072e-002 5.21670515e-003 0. 1.17826387e-002 3.83135341e-002
      7.95265585e-002 3.30098122e-001 3.30098122e-001 1.19094834e-001
      5.03645726e-002 8.80436413e-003 7.29731051e-003 1.14570549e-002
      4.85863462e-002 4.65860870e-003 1.15639217e-001 3.30098122e-001
      3.30098122e-001 3.83900374e-001 9.12354141e-003 6.67597959e-003
      2.09742002e-002 7.60045322e-003 1.43154140e-003 7.18093524e-003
      1.19643256e-001 3.83900374e-001 3.83900374e-001 8.26361552e-002
      2.18824204e-002 2.34459452e-002 4.16215882e-003 6.86249929e-003
      6.16454007e-003 1.25284512e-002 2.54015893e-001 2.03315482e-001
      1.87654700e-003 1.40749170e-002 3.94219570e-002 4.77945879e-002
      2.68030539e-003 1.30009977e-002 1.13644667e-001 3.83900374e-001
      3.83900374e-001 9.64438170e-002 2.93537006e-002 4.07852642e-002
      4.74483334e-002 1.52665591e-002 1.87018886e-002 5.78688318e-003
      3.13799322e-001 3.27755362e-001 2.17622086e-001 1.22856162e-001
      5.12941591e-002 2.30260398e-002 2.75555393e-003 1.23747834e-003
      2.38323514e-003 3.41283865e-002 1.37952626e-001 2.27767646e-001
      3.27755362e-001 3.27755362e-001 1.32747725e-001 4.63373661e-002
      4.59754094e-002 3.86673375e-004 1.49508053e-002 3.27755362e-001
      3.27755362e-001 1.24017000e-001 1.74038503e-002 4.78359275e-002
      8.06548260e-003 3.50441830e-003 2.82019115e-004 6.03143685e-002
      9.58185270e-002 3.27755362e-001 3.27755362e-001 2.24643111e-001
      5.65193370e-002 1.01283109e-002 6.06248016e-003 0. 1.68738812e-002</_>
    <_>
      3.04925889e-001 3.04925889e-001 2.02388614e-001 4.07332852e-002
      4.56096977e-002 5.14230039e-003 0. 2.27921037e-003 1.83724221e-002
      3.04925889e-001 3.00859243e-001 2.16909796e-002 1.76697725e-003
      1.04248617e-002 2.88811349e-003 0. 1.01644257e-002 1.59865588e-001
      2.82141060e-001 3.04925889e-001 3.04925889e-001 3.04925889e-001
      1.31776690e-001 5.37806265e-002 1.88531969e-002 5.78969670e-003
      1.52145410e-002 3.04925889e-001 2.30573609e-001 9.82999653e-002
      1.67708993e-002 1.12334974e-002 1.39814662e-002 4.83548502e-003
      1.09314397e-002 1.42137870e-001 3.41918200e-001 6.05755039e-002
      1.51622808e-003 1.33629492e-003 4.70117154e-003 9.40663682e-004
      1.21213868e-003 1.36951715e-001 3.41918200e-001 1.06556550e-001
      9.63056833e-003 3.32254032e-003 0. 1.76000074e-002 6.82856422e-003
      2.36739032e-002 3.41918200e-001 3.41918200e-001 3.41918200e-001
      6.60101324e-002 1.23665268e-002 5.34517737e-003 4.72638058e-003
      6.31223712e-003 9.79216769e-003 6.41664714e-002 3.41918200e-001
      5.96539713e-002 3.43082063e-002 1.50154680e-002 3.86384781e-003
      1.33974692e-002 3.35404389e-002 1.06752455e-001 3.41918200e-001
      3.41918200e-001 1.74188688e-002 5.49674826e-003 1.94174470e-003 0.
      3.26032862e-002 4.35679853e-002 1.69631198e-001 3.04977626e-001
      3.04977626e-001 1.36385886e-002 6.66514644e-003 4.92570864e-004 0.
      6.77236393e-002 3.04977626e-001 3.04977626e-001 1.89479530e-001
      3.07269711e-002 4.49158438e-003 7.85103813e-003 7.78269814e-003
      1.98502988e-002 2.13263314e-002 1.37803391e-001 3.04977626e-001
      3.04977626e-001 2.05047920e-001 2.10450664e-002 3.81495059e-003
      3.67753347e-003 5.12320511e-002 2.55147278e-001 3.04977626e-001
      3.04977626e-001 2.19211653e-001 2.91462988e-002 3.40040587e-002
      4.26625237e-002 1.56517640e-001 2.22364619e-001 1.74707890e-001
      2.47539103e-001 2.46934056e-001 6.43426850e-002 3.13656814e-002
      7.60003999e-002 5.08516915e-002 5.78661561e-002 9.50868428e-003
      4.44190251e-003 1.58149377e-002 4.01176885e-002 9.08221155e-002
      1.43324554e-001 2.86715608e-002 2.98171397e-003 5.27488953e-003
      6.05626963e-003 5.39509617e-002 3.16591412e-001 3.27798873e-001
      3.27798873e-001 3.27798873e-001 2.57031083e-001 1.97184701e-002
      1.48222800e-002 0. 4.82560281e-004 1.08001372e-002 1.06527351e-001
      3.27798873e-001 3.27798873e-001 6.99948817e-002 5.58584295e-002
      2.09921822e-002 3.82962357e-003 2.14462727e-003 5.02150413e-003
      1.65641252e-002 6.62874952e-002 1.78626761e-001 9.24482271e-002
      8.38101283e-002 2.43330095e-002 3.64536755e-002 1.88318826e-002
      5.25880419e-002 9.11283046e-002 1.15294181e-001 1.19322062e-001
      4.54788029e-001 8.58387500e-002 4.71495651e-002 2.32938933e-003
      1.97245143e-004 4.54907597e-004 6.18679635e-003 1.29971668e-001
      4.54788029e-001 4.54788029e-001 4.54788029e-001 6.46531209e-002
      4.44019027e-002 2.09472068e-002 2.05419194e-002 1.28055001e-002
      2.41491199e-002 1.79760516e-001 3.93068157e-002 6.33139536e-002
      1.16834790e-001 9.88704339e-002 4.18598056e-002 1.62284121e-001
      1.69969842e-001 7.23125041e-002 1.49488207e-002 1.99123416e-002
      4.62753028e-002 2.10789099e-001 2.80220300e-001 2.80220300e-001
      2.80220300e-001 2.16083214e-001 4.08128351e-002 1.06212050e-002
      2.80220300e-001 2.80220300e-001 2.66138017e-001 1.10280022e-001
      2.89834253e-002 4.01335917e-002 4.59924247e-003 2.75282096e-003
      8.41460284e-003 1.18195608e-001 2.80220300e-001 2.80220300e-001
      2.80220300e-001 2.80220300e-001 6.20606914e-002 3.13953939e-003 0.
      1.62921939e-002 5.87343909e-002 0. 0. 0. 1.24285920e-002
      9.24508050e-002 2.37514690e-001 3.23501021e-001 3.23501021e-001
      3.14599305e-001 1.11758253e-002 2.93557555e-003 0. 1.26081205e-003
      5.69262833e-004 2.82098800e-002 2.06094384e-001 3.23501021e-001
      7.50133693e-002 0. 0. 0. 2.93508079e-002 3.15787010e-002
      2.23883778e-001 3.23501021e-001 2.06006631e-001 2.32776970e-001
      1.14804255e-002 1.02342863e-003 0. 3.70131843e-002 0.
      4.65884544e-002 3.23501021e-001 3.23501021e-001 3.69764030e-001
      3.49613391e-002 1.15338052e-002 7.58359674e-004 1.92118259e-005 0.
      4.71941021e-004 2.72618756e-002 3.69764030e-001 3.69764030e-001
      2.14579910e-001 1.96777526e-002 1.83164589e-002 1.47220753e-002
      1.74959039e-003 1.71671028e-003 1.00356527e-003 1.78004369e-001
      3.40373456e-001 2.93025579e-002 5.54063777e-003 2.12590094e-003
      2.63818465e-002 0. 8.95101402e-004 6.99945018e-002 3.69764030e-001
      3.69764030e-001 2.03306943e-001 9.57977865e-003 1.91402789e-002
      6.53198287e-002 3.17006232e-003 6.86684018e-003 1.73748527e-002
      2.51279116e-001 3.22504580e-001 3.22504580e-001 9.60987732e-002
      4.95773591e-002 3.81998532e-002 1.83706509e-003 7.89077953e-003
      3.36093290e-005 4.27817255e-002 1.30242467e-001 3.22504580e-001
      3.22504580e-001 2.19120413e-001 1.62417188e-001 2.54861861e-002
      3.62823866e-002 0. 1.81542039e-002 3.22504580e-001 3.22504580e-001
      5.59904948e-002 3.20703648e-002 7.20085427e-002 2.07050401e-003
      1.42586883e-002 0. 6.55035004e-002 1.43815517e-001 3.22504580e-001
      3.22504580e-001 1.14213340e-001 7.40654320e-002 1.74151734e-002
      4.72608283e-002 0. 2.01775432e-002</_>
    <_>
      9.28846933e-003 4.98066423e-004 3.46712358e-002 8.92424807e-002
      2.62475729e-001 2.82511294e-001 1.94677413e-002 1.19993174e-002
      1.33181754e-002 6.65486082e-002 2.07240999e-001 3.01472545e-001
      3.01472545e-001 2.75589734e-001 1.02732778e-001 5.11462055e-003
      4.48594755e-003 9.12609790e-003 6.50053611e-003 0. 1.90219395e-002
      8.00684467e-002 3.01472545e-001 3.01472545e-001 1.33548737e-001
      2.61459686e-003 6.74329372e-003 3.57816406e-002 3.74185853e-002
      1.48065075e-001 3.01472545e-001 3.01472545e-001 3.01472545e-001
      1.32540092e-001 3.12415753e-002 1.63781922e-002 2.99448282e-001
      2.55355805e-001 2.45188862e-001 1.55538499e-001 8.38201717e-002
      4.45788838e-002 1.23044371e-003 6.81155303e-004 1.03917859e-001
      2.99448282e-001 5.88806719e-002 2.87491977e-002 1.14348670e-002
      2.30926070e-002 5.31969406e-003 7.43403379e-003 1.09157838e-001
      2.99448282e-001 2.50685930e-001 8.82668793e-002 1.62896723e-001
      2.01010793e-001 2.17149496e-001 2.99448282e-001 1.34571150e-001
      9.53151956e-002 1.88991517e-001 2.99448282e-001 4.47937921e-002
      4.21388596e-002 3.06691676e-002 8.32664128e-003 3.03362086e-002
      4.53778952e-002 1.31500289e-001 2.99448282e-001 1.07876576e-001
      4.25625476e-005 2.62456457e-003 5.36850421e-003 1.52270030e-002
      1.97923537e-002 1.10014409e-001 2.93503970e-001 2.93503970e-001
      1.05971126e-002 0. 6.56141026e-004 1.34212570e-003 2.66963113e-002
      1.88727766e-001 2.93503970e-001 2.93503970e-001 1.44441128e-001
      2.27903143e-001 2.56145038e-002 6.14160299e-002 4.11990993e-002
      7.87352994e-002 4.78637852e-002 1.60977587e-001 1.89588785e-001
      2.93503970e-001 6.51007071e-002 4.46644835e-002 1.36616588e-001
      1.45141959e-001 2.93503970e-001 2.93503970e-001 2.93503970e-001
      1.94731429e-001 1.17920995e-001 3.90871987e-003 0. 2.03236355e-003
      1.34080844e-002 1.02441989e-001 3.25286925e-001 3.25286925e-001
      1.79956555e-002 4.51342808e-003 9.93092638e-003 2.00147997e-003
      9.90048330e-003 4.75531556e-002 1.71708122e-001 3.25286925e-001
      3.25286925e-001 9.02815685e-002 2.79364921e-002 6.13472937e-003 0.
      0. 1.30416662e-003 3.41839083e-002 3.25286925e-001 3.25286925e-001
      5.13036214e-002 6.53786818e-003 6.78524980e-003 0. 0.
      1.95625005e-003 2.37814113e-002 3.25286925e-001 3.25286925e-001
      3.05453092e-001 2.32996773e-002 5.15252464e-002 7.79188611e-003
      1.77902728e-002 4.02419306e-002 6.49520606e-002 2.30633304e-001
      2.75958925e-001 1.87950268e-001 2.61435926e-001 2.67717212e-001
      1.31135704e-002 6.59781555e-003 7.38005154e-003 2.07663770e-003
      1.98289622e-002 5.49592003e-002 1.48009315e-001 3.12379420e-001
      2.99488846e-002 0. 0. 3.10436968e-004 4.68550250e-003
      8.94373134e-002 3.12379420e-001 3.12379420e-001 3.05235714e-001
      2.85212278e-001 1.11321192e-002 0. 0. 0. 6.36102119e-003
      6.05875626e-002 2.83072710e-001 3.12379420e-001 2.98058450e-001
      8.29678252e-002 9.17982087e-002 3.89491878e-002 4.99799848e-002
      1.30567756e-002 3.44022028e-002 4.62992899e-002 2.98058450e-001
      1.68940544e-001 1.60760105e-001 2.98058450e-001 2.13283315e-001
      2.45358795e-001 1.52682483e-001 8.38879570e-002 2.07592901e-002
      9.34300125e-002 2.98058450e-001 9.45739225e-002 2.77300104e-002
      8.42388347e-003 1.23578298e-003 1.05546333e-003 2.33838568e-003
      5.37933372e-002 2.98058450e-001 2.98058450e-001 2.98058450e-001
      2.98058450e-001 1.06701098e-001 4.60733585e-002 4.77120094e-003
      1.52419659e-003 7.10233871e-004 1.94122940e-001 4.45435708e-003 0.
      0. 0. 2.49943696e-002 2.51166433e-001 3.69417042e-001
      1.17080964e-001 4.45435708e-003 1.80336216e-003 0. 0. 0.
      7.49658141e-003 1.41896605e-001 3.69417042e-001 3.69417042e-001
      1.12232817e-002 8.45799968e-003 0. 0. 1.43164033e-002
      6.35372847e-002 1.23153329e-001 3.69417042e-001 2.19589144e-001
      1.87851246e-002 3.82520184e-002 0. 0. 1.37311127e-002
      5.80851547e-002 7.96847939e-002 3.69417042e-001 3.69417042e-001
      1.70488786e-002 1.82827599e-002 0. 0. 0. 4.91359329e-004
      2.18244679e-002 3.36457342e-001 3.36457342e-001 1.58917859e-001
      1.44593164e-001 6.29879069e-003 0. 0. 0. 1.65375266e-002
      3.99836749e-002 2.33686224e-001 3.36457342e-001 3.45872790e-002 0.
      0. 1.83355575e-003 2.65703388e-002 1.95744652e-002 3.36457342e-001
      3.36457342e-001 1.66920334e-001 2.58911818e-001 1.04103005e-002 0.
      0. 1.96014419e-002 2.07661372e-002 5.10806292e-002 3.36457342e-001
      3.36457342e-001 3.09543610e-001 3.45859639e-002 2.97650206e-003
      1.32157770e-003 4.28519584e-003 7.53034186e-003 8.22015107e-003
      5.18988892e-002 3.09543610e-001 3.09543610e-001 2.90140986e-001
      2.82763362e-001 2.22753584e-002 1.71407778e-002 2.43994663e-003
      5.28529752e-003 6.76198723e-003 1.50941789e-001 3.09543610e-001
      1.15921073e-001 4.29412816e-003 1.98236690e-003 1.68752465e-002
      8.24557990e-003 5.57307946e-003 8.98670927e-002 3.09543610e-001
      3.09543610e-001 3.09543610e-001 3.09543610e-001 1.97027363e-002
      3.74919437e-002 1.62663090e-003 3.52353137e-003 8.09064414e-003
      1.21415600e-001</_>
    <_>
      2.33157068e-001 2.89720625e-001 1.84365705e-001 2.25497019e-002
      4.16277237e-002 2.09995694e-002 2.26641148e-002 1.78873222e-002
      1.34835213e-001 2.89720625e-001 1.78682014e-001 4.21768092e-002
      4.61303571e-005 8.90521426e-003 5.21956012e-003 1.19375931e-002
      2.25959700e-002 2.89720625e-001 1.76595390e-001 2.89720625e-001
      2.89720625e-001 2.89720625e-001 2.70658493e-001 9.81339067e-002
      1.42558059e-002 7.72468222e-004 5.48235960e-002 2.89720625e-001
      2.15317443e-001 9.27681997e-002 6.92656711e-002 4.76065911e-002
      2.47041173e-002 3.35783735e-002 5.85822063e-003 2.89720625e-001
      3.44522983e-001 1.42327445e-002 1.44752918e-003 1.41065157e-005
      5.39410720e-003 5.39423316e-004 1.90994125e-002 3.07865795e-002
      3.44522983e-001 1.97972625e-001 8.40453338e-003 1.95489153e-002
      9.02470108e-003 3.15876976e-002 1.44107239e-002 7.73208886e-002
      3.15653652e-001 3.44522983e-001 3.14523697e-001 2.39747167e-002
      7.48509262e-003 1.30546968e-002 8.05614050e-003 4.09138203e-003
      4.38057743e-002 1.45922899e-002 3.44522983e-001 1.14822209e-001
      1.48199992e-002 3.90582019e-003 4.92831413e-003 1.87393762e-002
      4.05962113e-003 1.43301114e-001 3.44522983e-001 3.44522983e-001
      3.39521505e-002 3.02019459e-003 1.35642309e-002 6.26188330e-003
      3.76182161e-002 3.58501747e-002 2.54603416e-001 3.23482573e-001
      1.61169797e-001 1.72207113e-002 3.13860993e-003 2.39817426e-003
      1.74993498e-003 6.17819205e-002 3.23482573e-001 3.23482573e-001
      2.25256488e-001 1.81592237e-002 1.62766743e-002 2.58980133e-003
      2.14047520e-003 3.94325843e-003 3.62568200e-002 1.08898468e-001
      3.23482573e-001 3.23482573e-001 1.51123762e-001 2.64936592e-002
      4.70791524e-003 4.98076784e-004 2.26382110e-002 1.26824155e-001
      3.23482573e-001 3.23482573e-001 2.45181948e-001 2.13440806e-002
      2.37260908e-002 7.12475106e-002 1.04754247e-001 1.99070051e-001
      3.26861084e-001 3.06177020e-001 2.07563534e-001 1.02713883e-001
      1.52795706e-002 4.79935259e-002 4.02629673e-002 3.36757638e-002
      5.54937348e-002 7.41668269e-002 2.60584541e-002 1.01024427e-001
      1.12435646e-001 3.69399339e-002 6.36015013e-002 6.70562312e-003
      3.93454246e-002 2.10046321e-002 1.15241043e-001 3.26861084e-001
      3.26861084e-001 3.26861084e-001 1.03149623e-001 1.02196321e-001
      4.77252761e-003 1.33616021e-002 5.39491605e-003 3.54156941e-002
      2.16813218e-002 2.66316533e-001 3.26861084e-001 3.26861084e-001
      8.56015831e-002 2.15586871e-002 6.12584548e-003 1.55164609e-002
      1.01628276e-002 6.06435956e-003 6.75032586e-002 9.68712270e-002
      1.19224407e-001 7.39179328e-002 3.94297540e-002 3.23776454e-002
      1.08854510e-002 2.55611986e-002 1.47987735e-002 1.01773329e-001
      2.67975628e-001 1.79877684e-001 4.21186984e-001 1.05932495e-002
      9.06357949e-004 1.36183854e-003 7.11982185e-003 6.91335509e-003
      8.86719078e-002 3.06527019e-001 4.21186984e-001 4.21186984e-001
      7.41361529e-002 4.80785072e-002 5.78756444e-003 6.30756468e-003
      9.90986824e-003 3.39126997e-002 1.22825004e-001 4.21186984e-001
      9.17162560e-003 2.26604119e-002 2.91818604e-002 6.26373738e-002
      9.40570384e-002 1.50924146e-001 2.15241447e-001 2.02763706e-001
      3.11562028e-002 1.19109713e-002 1.26769999e-002 2.35263761e-002
      1.93818510e-001 3.03197354e-001 3.03197354e-001 3.03197354e-001
      9.34540033e-002 1.12589262e-002 3.03197354e-001 1.73947975e-001
      1.38474122e-001 1.53053567e-001 7.71775320e-002 4.44853120e-002
      1.27147259e-002 3.22083160e-002 1.45938665e-001 1.97504044e-001
      1.92046687e-001 2.39827976e-001 3.03197354e-001 3.03197354e-001
      1.81242302e-001 2.81292088e-002 1.13659715e-002 4.73192185e-002
      6.97654262e-002 1.14506176e-002 1.60250198e-002 1.52428020e-002
      1.50513751e-002 1.81165427e-001 3.32111299e-001 3.32111299e-001
      8.63717720e-002 1.02632917e-001 7.54206907e-003 3.18645383e-003
      2.81223492e-003 1.61433965e-002 2.43768953e-002 1.17871843e-001
      3.32111299e-001 3.32111299e-001 3.32391113e-002 2.21610684e-002
      7.03751203e-003 3.82580073e-003 9.78243817e-003 4.27960977e-002
      3.32111299e-001 3.32111299e-001 1.19736299e-001 3.00617516e-002
      1.07646063e-002 2.38212920e-003 7.03058671e-004 2.17189416e-002
      1.65208597e-002 1.52485877e-001 3.32111299e-001 3.32111299e-001
      3.48311275e-001 9.01439600e-003 0. 0. 1.25217978e-002
      1.20838005e-002 2.11484972e-002 1.48795515e-001 3.55954498e-001
      3.55954498e-001 5.32841794e-002 2.17839647e-002 3.25894495e-003 0.
      2.84776418e-003 8.59613437e-003 5.06779328e-002 3.55954498e-001
      1.33072883e-001 8.15292634e-003 0. 0. 2.53235623e-002
      1.12619223e-002 1.47765055e-002 2.29466096e-001 3.55954498e-001
      3.55954498e-001 9.44569334e-002 2.02692561e-002 2.17262935e-003
      2.34313309e-002 4.25468246e-003 6.17838185e-003 6.77951947e-002
      3.55954498e-001 3.23458046e-001 1.40163153e-001 9.44647193e-002
      5.48897013e-002 1.00295199e-002 3.84425884e-003 2.17622775e-003
      1.72294863e-002 1.71549872e-001 2.43249819e-001 1.77405074e-001
      3.23458046e-001 2.89366037e-001 2.03468829e-001 2.17749923e-002
      7.78959878e-003 1.08624725e-002 7.72778913e-002 3.23458046e-001
      3.16959620e-001 9.38143730e-002 7.46862497e-003 2.72493884e-002
      1.53770316e-002 1.37247553e-003 3.03974841e-002 1.28408015e-001
      2.07322985e-001 3.23458046e-001 3.23458046e-001 1.05831325e-001
      6.75094798e-002 3.35157253e-002 3.01259424e-004 1.17977420e-002
      4.57937345e-002</_>
    <_>
      2.73550093e-001 3.07821989e-001 1.08920783e-001 4.60066609e-002
      6.58141896e-002 1.64790265e-003 5.33872517e-003 9.83577222e-003
      4.63787019e-002 3.07821989e-001 3.07821989e-001 9.61954240e-003
      4.27581416e-003 1.59642994e-002 0. 0. 1.94426533e-002
      1.15570731e-001 3.06574553e-001 3.07821989e-001 3.07821989e-001
      3.07821989e-001 1.14750706e-001 1.46464612e-002 8.84528644e-003
      6.35716645e-003 3.84600349e-002 3.07821989e-001 3.07821989e-001
      7.46683106e-002 3.42514068e-002 3.93465497e-002 7.96328764e-003
      3.29660485e-003 1.45242754e-002 1.08713284e-001 3.38071108e-001
      7.11806118e-002 2.13302649e-003 1.75933505e-003 1.19095230e-002 0.
      6.29307097e-003 1.75132722e-001 3.38071108e-001 1.08705893e-001
      1.19948536e-002 1.06903156e-002 1.35391494e-002 2.86022890e-002
      7.41958385e-003 2.43385136e-002 3.38071108e-001 3.38071108e-001
      3.38071108e-001 4.25529443e-002 1.30644683e-002 9.86533519e-003
      8.50578304e-003 6.70379074e-003 1.06727798e-002 1.39992580e-001
      3.38071108e-001 5.71110174e-002 1.45995175e-003 2.32787766e-002
      4.21566470e-003 6.38458133e-003 2.45986730e-002 7.91022182e-002
      3.38071108e-001 3.38071108e-001 2.36524846e-002 1.30763743e-002
      3.88586987e-003 5.65954950e-003 4.67033312e-002 4.34009470e-002
      1.63118958e-001 2.86464393e-001 2.21093044e-001 6.31221756e-003
      5.55705046e-003 3.88635648e-003 1.04241082e-002 8.46944824e-002
      3.28631133e-001 3.28631133e-001 1.58786535e-001 3.05278078e-002
      3.98647226e-003 4.35926995e-005 1.07875913e-002 2.71322578e-003
      1.62172820e-002 7.75447339e-002 3.28631133e-001 3.28631133e-001
      2.59987622e-001 1.45996921e-002 0. 0. 2.82787997e-003
      1.69450983e-001 3.28631133e-001 3.28631133e-001 2.19800606e-001
      3.95288914e-002 7.75511339e-002 1.55531913e-001 2.58510917e-001
      3.04337800e-001 3.01187187e-001 2.60052919e-001 1.00874580e-001
      1.06687676e-002 3.03651374e-002 1.64019734e-001 1.13416046e-001
      9.25628170e-002 5.55240661e-002 4.40727398e-002 2.21163034e-002
      3.28989290e-002 4.44290228e-002 5.48553951e-002 1.95735916e-002
      2.04005204e-002 1.91755537e-002 5.97290024e-002 1.88737556e-001
      3.04337800e-001 3.04337800e-001 3.04337800e-001 1.84184328e-001
      5.42454496e-002 1.94256790e-002 3.09881717e-002 1.88445970e-002
      6.19705115e-003 2.64688078e-002 1.87288463e-001 3.04337800e-001
      3.04337800e-001 1.54774576e-001 2.91866250e-002 4.60715033e-002
      3.89756076e-002 1.58174206e-002 1.72983576e-002 5.19998595e-002
      1.14037871e-001 1.78740636e-001 5.64972758e-002 8.60857219e-003
      6.37568012e-002 1.37918396e-002 3.04753520e-002 8.52605328e-002
      1.70071512e-001 3.28574151e-001 3.28574151e-001 3.28574151e-001
      7.15683866e-003 4.00178321e-002 2.11345702e-002 7.52182095e-004
      1.76787768e-002 4.89203744e-002 2.90394932e-001 3.28574151e-001
      3.28574151e-001 3.28574151e-001 1.77833155e-001 1.44858779e-002
      2.08213273e-002 3.42639573e-002 6.89954609e-002 1.27118617e-001
      2.90096968e-001 4.33365349e-003 2.32030125e-003 3.64991501e-002
      3.70608680e-002 6.50424659e-002 1.39752522e-001 2.99816787e-001
      1.59946457e-001 5.05857617e-002 1.28314700e-002 4.80896182e-004
      5.01599349e-002 1.18543126e-001 3.05911422e-001 3.05911422e-001
      3.05911422e-001 6.88792989e-002 1.90313682e-002 1.57380164e-001
      2.74319530e-001 3.05911422e-001 1.12806201e-001 7.57848695e-002
      6.72369823e-002 3.24684940e-002 2.01349575e-002 1.86703131e-002
      5.20133935e-002 1.42231941e-001 3.05911422e-001 3.05911422e-001
      3.05911422e-001 1.60651222e-001 3.96902375e-002 1.95319322e-003
      1.91609990e-002 2.15950925e-002 0. 0. 4.09204792e-003
      4.87293899e-002 1.54582500e-001 3.13055724e-001 3.13055724e-001
      2.55921423e-001 1.34442866e-001 1.18255499e-004 1.18500390e-003
      4.08597203e-004 3.53814918e-004 4.92720213e-003 9.47393328e-002
      3.13055724e-001 3.13055724e-001 6.18964247e-002 0. 0. 0.
      1.05195366e-001 1.08227387e-001 3.13055724e-001 3.13055724e-001
      2.36416787e-001 2.26938695e-001 4.60984651e-003 0. 0.
      2.98767593e-002 1.86427694e-003 4.57590818e-002 2.33459935e-001
      3.13055724e-001 3.35745126e-001 3.73522495e-003 4.86288266e-003
      1.21079618e-003 0. 3.69882514e-003 6.06227992e-003 9.23003033e-002
      3.35745126e-001 3.35745126e-001 3.29378188e-001 3.59600522e-002
      3.20398877e-003 8.05616204e-004 1.44697947e-003 3.71534517e-003
      1.26525871e-002 2.62619317e-001 3.35745126e-001 2.58040689e-002
      1.45023549e-003 0. 1.28956651e-002 6.12758100e-004 3.72550543e-003
      5.08005172e-002 3.35745126e-001 3.35745126e-001 2.34868795e-001
      1.53005132e-002 6.74348930e-003 1.85971223e-002 0. 1.72287493e-003
      2.02803463e-002 2.70401180e-001 2.76773691e-001 2.76773691e-001
      2.68881023e-001 5.61002381e-002 1.78718511e-002 3.69374338e-003
      1.13511365e-003 3.51531967e-003 4.11911868e-002 1.23484731e-001
      2.71103501e-001 2.76773691e-001 2.76773691e-001 2.76773691e-001
      8.86682328e-003 0. 9.11732111e-003 4.83962893e-002 2.76773691e-001
      2.76773691e-001 9.67421159e-002 3.15681286e-002 5.04270792e-002
      2.88194884e-003 4.94184729e-004 6.45672297e-003 7.06789792e-002
      9.97384563e-002 2.20300168e-001 2.76773691e-001 2.76773691e-001
      2.38463208e-001 1.15277916e-002 0. 1.43597545e-002 7.37295747e-002</_>
    <_>
      3.25706184e-001 2.79138684e-001 1.29698336e-001 8.63836482e-002
      3.92611735e-002 4.96858091e-004 0. 1.16297845e-002 1.69139981e-001
      3.25706184e-001 1.90744206e-001 2.16835435e-003 1.89655717e-003
      8.73478595e-003 1.98743143e-003 1.42102328e-003 3.02118855e-003
      3.25706184e-001 3.25706184e-001 2.06691697e-001 1.79939196e-001
      2.53911823e-001 1.66560814e-001 1.63986266e-001 1.26534998e-002
      4.45162266e-004 9.89435017e-002 3.25706184e-001 1.13837130e-001
      1.66740473e-002 1.02637345e-002 5.27667254e-003 1.07419202e-002
      1.49005987e-002 6.39331806e-003 2.81867564e-001 3.17904294e-001
      2.72138380e-002 4.63652750e-003 6.68992987e-004 5.56767313e-003
      2.36846274e-003 2.03791866e-003 1.86393247e-003 3.17904294e-001
      3.17904294e-001 4.11923649e-003 2.10479181e-003 1.10050241e-004
      1.94290709e-002 1.03740878e-002 6.76864013e-002 3.17904294e-001
      3.17904294e-001 3.17904294e-001 2.95568164e-002 1.98913570e-002
      3.90802836e-003 2.99214502e-003 1.02518024e-002 2.23105922e-002
      1.00760208e-002 3.17904294e-001 3.05522442e-001 1.75546948e-002
      1.01258466e-002 5.73459826e-003 1.69214364e-002 3.07301339e-002
      1.19754769e-001 2.66582310e-001 3.17904294e-001 5.27619421e-002
      1.85312194e-004 0. 0. 3.19599360e-002 6.63384125e-002
      2.93293208e-001 3.20337623e-001 1.78706095e-001 3.89153254e-003 0.
      0. 7.07418891e-003 8.84660706e-002 3.20337623e-001 3.20337623e-001
      1.38889939e-001 2.74987351e-002 5.19039631e-002 1.08291609e-002
      1.49953477e-002 1.55405896e-002 6.44925311e-002 1.90356418e-001
      3.20337623e-001 2.43088305e-001 1.02807634e-001 1.18293529e-002
      5.29720588e-003 2.03015413e-002 3.97754349e-002 3.20337623e-001
      3.20337623e-001 3.20337623e-001 9.31489617e-002 1.45670613e-002
      5.88816926e-002 2.00820118e-002 3.79590914e-002 7.32707083e-002
      1.17503703e-001 3.32004875e-001 1.62273988e-001 8.33580047e-002
      1.79578200e-001 1.09371327e-001 2.58732308e-002 1.84112210e-002
      6.83395844e-003 1.04231341e-002 9.19630378e-003 2.71105077e-002
      7.21087903e-002 2.54275590e-001 7.84288198e-002 2.66796141e-003
      9.54131875e-003 8.67508352e-003 2.34091096e-002 2.38267258e-001
      3.32004875e-001 3.32004875e-001 3.32004875e-001 3.09527695e-001
      4.78488253e-003 9.77871753e-003 1.80094014e-003 5.77036198e-003
      6.88843941e-003 4.29860391e-002 3.32004875e-001 3.32004875e-001
      1.48900643e-001 3.08381841e-002 9.79057234e-003 3.14766169e-003
      4.43615904e-003 4.32337960e-003 2.22729556e-002 3.95168252e-002
      1.83165848e-001 3.26011419e-001 1.14783578e-001 1.35188736e-002
      1.05704637e-002 3.26647833e-002 1.39534613e-002 4.63931561e-002
      5.63143566e-002 1.10814855e-001 3.98096561e-001 2.26940699e-002
      2.16368772e-003 7.96813343e-004 1.08553935e-003 3.99476616e-004
      8.17080308e-003 1.31508246e-001 3.98096561e-001 3.98096561e-001
      3.98096561e-001 1.53751113e-002 4.06019483e-003 1.38224494e-002
      2.88587552e-003 1.33565557e-003 1.81989446e-002 3.82019430e-001
      1.30175561e-001 1.57005578e-001 1.32951424e-001 6.69859350e-002
      1.13377072e-001 1.12687618e-001 1.20426416e-001 2.89377719e-002
      2.25484911e-002 3.17075998e-002 1.11575738e-001 2.20882267e-001
      2.46785939e-001 2.91627616e-001 2.91627616e-001 1.87110782e-001
      2.01719403e-002 1.25438115e-002 2.91627616e-001 2.91627616e-001
      2.11220875e-001 5.63883893e-002 3.82412896e-002 1.31405937e-002
      2.25422205e-003 6.44849613e-003 4.76899259e-002 8.44049156e-002
      2.91627616e-001 2.91627616e-001 2.91627616e-001 2.75837570e-001
      4.56503108e-002 6.59275474e-003 2.00138558e-002 1.97094623e-002
      4.06243727e-002 7.18330266e-003 1.12308525e-002 5.71526494e-003
      4.78499616e-003 2.29772851e-002 2.65812755e-001 3.09531540e-001
      3.09531540e-001 1.93985477e-001 9.36615188e-003 6.41172938e-003 0.
      0. 4.37934883e-003 3.05234212e-002 2.99282730e-001 3.09531540e-001
      1.44778322e-002 5.42692654e-003 7.64516322e-003 1.20819348e-003
      1.62657611e-002 1.12371258e-002 3.06565464e-001 3.09531540e-001
      3.09531540e-001 1.72503188e-001 1.17426179e-002 4.27448610e-003 0.
      7.55236903e-003 1.70747796e-003 1.56497695e-002 3.09531540e-001
      3.09531540e-001 3.46879274e-001 1.48545690e-002 0. 0. 0.
      2.46355368e-004 2.80261622e-003 7.67038092e-002 3.46879274e-001
      3.46879274e-001 2.00153634e-001 1.71900354e-002 1.48618957e-002
      6.34676218e-003 5.57846623e-003 1.29204581e-003 3.87510192e-003
      2.45626137e-001 3.46879274e-001 2.74096578e-002 0. 0.
      9.06534493e-003 1.64236917e-004 2.09462713e-003 7.64431357e-002
      3.46879274e-001 3.46879274e-001 3.46879274e-001 2.28883587e-002
      2.22928468e-002 2.50754375e-002 3.71897756e-003 3.23011453e-004
      1.33066624e-003 1.96979091e-001 2.75526822e-001 3.25931817e-001
      1.31193548e-001 1.83702316e-002 6.96399715e-003 1.11772232e-002
      3.56666092e-003 6.34692283e-003 5.17418422e-002 5.80158196e-002
      3.11335742e-001 3.25931817e-001 3.25931817e-001 5.40387779e-002
      1.21022621e-002 2.37777387e-003 9.60082095e-003 1.24894800e-002
      3.25931817e-001 3.25931817e-001 1.81718722e-001 1.93415191e-002
      1.91580467e-002 4.31517977e-003 2.10383208e-003 1.16820633e-003
      1.76923294e-002 7.35750049e-002 3.25931817e-001 3.25931817e-001
      1.10379972e-001 1.92438848e-002 5.30848838e-003 8.43496341e-003
      7.78804068e-004 3.11564803e-002</_>
    <_>
      2.31239527e-001 1.98909640e-001 1.63656816e-001 1.43273652e-001
      4.12189923e-002 8.61150119e-003 9.75755323e-003 2.10643206e-002
      1.76020697e-001 3.01947713e-001 1.14717886e-001 3.53799909e-002
      6.20926963e-003 2.88703181e-002 3.77852540e-003 5.07480232e-003
      4.31209430e-002 3.01947713e-001 1.77158460e-001 2.64543802e-001
      3.01947713e-001 3.01947713e-001 1.96440026e-001 1.67849511e-001
      6.14011027e-002 1.77445486e-002 1.39759749e-001 3.01947713e-001
      1.97900653e-001 1.02563947e-001 5.93149327e-002 5.59638590e-002
      2.65369471e-002 2.82505844e-002 9.76573750e-002 3.01947713e-001
      2.20074132e-001 6.46690605e-003 0. 6.90485537e-003 1.35557875e-002
      4.97193774e-004 2.34658946e-003 9.03163850e-002 3.74910325e-001
      2.71119207e-001 2.97617931e-002 2.73291338e-002 1.99253601e-003
      1.80741679e-002 4.73294221e-003 7.92791310e-004 2.06306666e-001
      3.74910325e-001 2.68751025e-001 2.18631011e-002 9.50269960e-003
      1.01661300e-002 2.34769043e-002 1.37458285e-002 9.96083952e-003
      9.84881222e-002 3.74910325e-001 3.56901020e-001 4.48141508e-002
      4.42592278e-002 1.40821571e-002 1.22347027e-002 7.06866011e-003
      1.48661584e-002 2.09039956e-001 3.74910325e-001 1.50554985e-001
      1.84427686e-002 1.69352982e-002 1.65034391e-004 2.00254694e-002
      1.45267760e-002 1.07204076e-002 2.94564694e-001 3.12328726e-001
      6.05585910e-002 0. 0. 0. 2.22121291e-002 2.47329958e-002
      1.72565088e-001 3.12328726e-001 3.12328726e-001 1.52841836e-001
      2.36500446e-002 2.07101647e-002 3.10514122e-003 3.67960223e-004
      7.47331884e-003 7.49919936e-002 3.12328726e-001 3.12328726e-001
      4.02115099e-002 1.99357004e-004 5.96549886e-004 0. 2.24860888e-002
      2.00751513e-001 3.12328726e-001 3.12328726e-001 3.10212642e-001
      5.17679863e-002 4.37926389e-002 7.25560114e-002 1.44610062e-001
      1.32903337e-001 3.06486845e-001 2.92838514e-001 7.77633116e-002
      7.84646347e-002 1.53013065e-001 5.68787567e-002 3.11543737e-002
      3.35972607e-002 4.45300378e-002 4.99929115e-002 1.03953391e-001
      1.63915247e-001 3.06486845e-001 9.03232768e-002 1.63136574e-003 0.
      1.64093021e-002 2.53992341e-002 2.20212623e-001 3.06486845e-001
      3.06486845e-001 3.06486845e-001 2.15687573e-001 1.08366022e-002
      1.83167600e-003 1.42470945e-003 1.20112915e-002 4.40878831e-002
      1.25688136e-001 3.06486845e-001 3.06486845e-001 1.12178706e-001
      3.56667154e-002 2.43938901e-002 1.48320086e-002 2.04535015e-002
      2.17438191e-002 1.49007691e-002 1.24480419e-001 3.50031704e-001
      1.40060738e-001 5.36350496e-002 9.29661915e-002 2.76459772e-002
      1.13698486e-002 9.66416579e-003 2.96379682e-002 1.40269771e-001
      3.96490514e-001 1.87636286e-001 2.09356770e-002 1.37478514e-002
      4.63464437e-003 1.71009952e-003 1.09411031e-002 7.62684783e-003
      3.10102046e-001 3.96490514e-001 3.96490514e-001 5.54592647e-002
      4.87879664e-002 1.10545075e-002 1.24620553e-003 4.06042160e-003
      1.54742394e-002 1.50680795e-001 3.96490514e-001 8.94712433e-002
      5.56279682e-002 5.26025929e-002 1.09129129e-002 9.10829185e-005
      1.26400664e-002 8.98238793e-002 2.42078900e-001 2.12219790e-001
      4.03305925e-002 4.21666764e-002 1.15517147e-001 1.30497426e-001
      8.01305994e-002 2.69025952e-001 2.85544485e-001 2.85544485e-001
      7.08020031e-002 2.85544485e-001 1.21276878e-001 5.14922291e-002
      9.84850246e-003 2.27707296e-005 8.34380928e-003 2.56358143e-002
      4.06749249e-002 2.85544485e-001 2.85544485e-001 2.79079378e-001
      2.85544485e-001 2.85544485e-001 6.30474463e-002 1.08036682e-001
      5.89322299e-002 2.65345182e-002 2.55753338e-001 4.92912754e-002
      1.83069531e-003 4.07424377e-004 5.09857899e-003 1.26627870e-002
      3.90397571e-002 3.23438376e-001 3.62852275e-001 1.82849735e-001
      9.45471451e-002 2.74604303e-003 0. 0. 8.20108317e-003
      2.44347136e-002 6.58515319e-002 3.62852275e-001 3.62852275e-001
      2.66068950e-002 2.62321602e-003 8.64041410e-003 2.51409169e-002
      2.28258613e-002 1.07551794e-002 1.78821057e-001 3.62852275e-001
      9.90763530e-002 2.09971648e-002 1.22789608e-003 1.62002549e-003
      4.11535194e-003 1.34597262e-002 9.35082976e-003 7.53990188e-002
      3.62852275e-001 3.62852275e-001 9.75143015e-002 5.90400072e-003 0.
      0. 2.07290123e-003 1.44416299e-002 1.20602045e-002 2.77860820e-001
      3.52572441e-001 3.52572441e-001 6.52764142e-002 0. 0.
      8.29160213e-003 4.34470596e-003 1.84317809e-002 1.00343056e-001
      3.52572441e-001 7.88202435e-002 3.77516844e-003 0. 0.
      1.13416063e-002 9.62775201e-003 1.53129837e-002 3.52572441e-001
      3.52572441e-001 3.52572441e-001 4.24957089e-002 0. 0.
      3.01640164e-002 3.50838597e-003 2.36771107e-002 1.20368764e-001
      3.52572441e-001 3.24244052e-001 9.34811532e-002 9.73606482e-003
      9.76921874e-004 2.80443579e-003 5.35965664e-003 2.52610110e-002
      4.05992828e-002 3.24244052e-001 3.24244052e-001 2.03672096e-001
      2.14826629e-001 1.02534167e-001 1.19957710e-002 1.94382463e-002
      1.69949830e-002 3.12305875e-002 3.24244052e-001 3.24244052e-001
      4.43342701e-002 4.00934694e-003 0. 2.31922064e-002 8.03948566e-003
      3.75483669e-002 1.37895644e-001 3.24244052e-001 3.24244052e-001
      5.40500134e-002 2.30126474e-002 1.82659719e-002 2.76320986e-002
      2.91573703e-002 2.54924744e-002 1.24659076e-001 3.24244052e-001</_>
    <_>
      3.11903685e-001 3.11903685e-001 1.22955091e-001 4.48131859e-002
      3.33368070e-002 3.36906430e-003 1.19410179e-004 1.42174903e-002
      4.27292772e-002 3.11903685e-001 1.77628517e-001 1.28657389e-002
      5.62695879e-003 7.73755834e-003 6.05411828e-003 7.57166138e-003
      5.07891662e-002 2.53817856e-001 2.76289791e-001 3.11903685e-001
      3.11903685e-001 3.02699894e-001 8.76915604e-002 5.24909049e-002
      3.76474624e-003 4.06690501e-002 6.19356595e-002 3.11903685e-001
      2.30455533e-001 5.89019544e-002 1.85517482e-002 1.23439385e-002
      1.06588108e-002 1.63211357e-002 6.73784316e-002 2.19292343e-001
      3.43366534e-001 1.16095887e-002 4.28728620e-003 4.47835220e-004
      4.78539942e-003 4.25271969e-003 6.11510640e-003 5.39365895e-002
      3.43366534e-001 1.48021907e-001 3.37671139e-003 4.28194704e-004 0.
      1.76753867e-002 3.63408581e-005 3.51095423e-002 3.43366534e-001
      3.43366534e-001 3.35180640e-001 5.57308830e-002 3.09041031e-002
      5.13561489e-003 3.76624428e-003 5.90351596e-003 1.81201715e-002
      3.99540924e-002 3.43366534e-001 8.10995102e-002 1.49611989e-002
      1.67266373e-003 0. 4.28643078e-003 2.64814366e-002 1.36846393e-001
      3.43366534e-001 3.43366534e-001 2.44816970e-002 3.26164369e-003
      1.01644732e-003 2.39187386e-003 3.30268517e-002 3.17563713e-002
      2.27687150e-001 3.30446810e-001 1.88857228e-001 7.68594118e-003
      9.56943841e-004 6.77631353e-004 3.58781102e-003 5.87496348e-002
      3.30446810e-001 3.30446810e-001 1.61451846e-001 2.58944314e-002
      7.23945862e-003 9.35042335e-005 2.79799278e-004 5.97968465e-004
      2.45135278e-002 1.51387498e-001 3.30446810e-001 3.30446810e-001
      1.76526025e-001 1.14872092e-002 0. 1.33583527e-002 1.60631947e-002
      1.97270542e-001 3.30446810e-001 3.30446810e-001 1.29187584e-001
      3.06472797e-002 3.01195830e-002 1.07304126e-001 1.29952461e-001
      2.19942927e-001 1.53093457e-001 2.41400257e-001 2.00963899e-001
      9.34704021e-002 3.93579267e-002 5.26679866e-002 5.99400066e-002
      4.53032553e-002 2.40087565e-002 2.06011292e-002 1.13997003e-002
      7.57452846e-002 1.48979232e-001 6.79290518e-002 3.66478823e-002
      9.26979259e-003 5.17330412e-003 1.51081858e-002 5.71145080e-002
      2.65415698e-001 3.52794409e-001 3.52794409e-001 3.52794409e-001
      1.87781528e-001 3.71956639e-003 4.07476537e-003 4.19434067e-003
      1.35547137e-002 7.81853870e-003 1.05096042e-001 3.52794409e-001
      3.52794409e-001 4.31064777e-002 4.86157499e-002 3.35920453e-002
      1.38013763e-002 1.87450033e-002 2.40818970e-002 6.45907000e-002
      1.18103422e-001 1.06107980e-001 3.05365901e-002 3.60309891e-002
      2.63613537e-002 3.70868738e-003 3.81323174e-002 7.36846551e-002
      1.49106413e-001 1.63821235e-001 1.52226731e-001 4.27803367e-001
      4.03744576e-004 4.20905044e-003 4.60930867e-003 4.33657840e-002
      3.98893133e-002 4.21775058e-002 1.65754259e-001 4.27803367e-001
      4.27803367e-001 3.19662601e-001 4.84903865e-002 6.23116735e-003
      6.03602342e-002 5.01571931e-002 2.74238717e-002 3.86877432e-002
      4.27803367e-001 7.08142901e-003 2.24081352e-002 5.52994013e-002
      5.18955700e-002 9.59606022e-002 1.64860606e-001 2.70244539e-001
      7.78938308e-002 2.64814813e-002 1.10105677e-002 1.68099795e-002
      9.37436819e-002 1.67523205e-001 2.87016004e-001 2.87016004e-001
      2.87016004e-001 2.46991087e-002 1.20645212e-002 2.87016004e-001
      2.87016004e-001 2.65797704e-001 9.82105359e-002 7.66918957e-002
      4.47355062e-002 2.03878153e-002 6.28885860e-003 4.44928147e-002
      8.84737372e-002 2.54040599e-001 2.87016004e-001 2.87016004e-001
      2.87016004e-001 1.12625532e-001 3.53003256e-002 3.56579805e-003
      2.61621550e-002 4.45496030e-002 6.12981908e-004 1.92063907e-003
      2.98778457e-003 1.11452006e-002 4.62674908e-002 2.58878142e-001
      3.32302183e-001 3.32302183e-001 2.23034218e-001 1.91351585e-003
      5.40374313e-003 0. 2.24218075e-003 1.56858051e-003 2.16638409e-002
      2.17752904e-001 3.32302183e-001 4.48938347e-002 2.06155400e-003
      2.02640449e-003 0. 2.32837666e-002 1.31932460e-002 3.02608728e-001
      3.32302183e-001 2.45613605e-001 1.37988433e-001 2.70875054e-003
      8.10561422e-003 0. 3.41287591e-002 0. 2.32351236e-002
      3.16463053e-001 3.32302183e-001 3.56583983e-001 9.67868022e-004
      2.09328043e-003 1.21393896e-004 8.01773369e-003 6.50811847e-003
      5.61485672e-003 3.14715318e-002 3.56583983e-001 3.56583983e-001
      1.76985756e-001 8.51381663e-003 4.07762546e-003 1.02811884e-002
      6.93609752e-003 4.05706512e-003 1.00853173e-002 3.56583983e-001
      2.56852835e-001 1.45180209e-003 3.05089960e-003 0. 2.18052380e-002
      0. 8.85362178e-003 8.53144750e-002 3.56583983e-001 3.56583983e-001
      7.60747716e-002 1.58495887e-003 4.19581542e-003 2.86646485e-002
      8.42938200e-003 8.91549140e-003 5.06326891e-002 3.42848092e-001
      3.25137526e-001 3.25137526e-001 1.46717489e-001 3.38022672e-002
      1.09387729e-002 7.85015523e-003 3.04431445e-003 4.66786092e-003
      7.20192641e-002 1.28367558e-001 2.39424348e-001 3.25137526e-001
      2.96742052e-001 1.55739367e-001 1.58658009e-002 1.83942113e-002
      2.12244736e-003 4.41724658e-002 3.03196043e-001 3.25137526e-001
      5.72740994e-002 1.22120157e-002 3.95209044e-002 1.39098195e-002
      4.83161025e-003 1.56652145e-002 1.03059314e-001 7.74919614e-002
      3.25137526e-001 3.25137526e-001 1.62568599e-001 6.06732890e-002
      1.34723354e-002 8.03478342e-003 6.23337692e-003 3.65551971e-002</_>
    <_>
      3.15620154e-001 1.34452686e-001 1.09961219e-001 9.74692106e-002
      3.76909971e-002 2.88443957e-002 8.78217444e-003 3.13327983e-002
      2.48403743e-001 3.15620154e-001 5.70140444e-002 2.13854089e-002 0.
      8.02761223e-003 0. 2.68432125e-002 5.51762171e-002 3.15620154e-001
      3.15620154e-001 1.58787712e-001 2.28996024e-001 3.15620154e-001
      2.67600328e-001 7.12401122e-002 1.83751807e-002 1.36759104e-002
      1.57836229e-001 3.15620154e-001 5.88082448e-002 4.20226865e-002
      1.51533270e-002 8.04472808e-003 1.54800182e-002 3.03952154e-002
      2.92297080e-002 3.15620154e-001 3.33484232e-001 3.23750228e-002
      1.50638241e-002 0. 7.92483613e-003 4.14984860e-003 1.26349116e-002
      4.40476611e-002 3.33484232e-001 3.03672433e-001 5.01231290e-002
      1.79719105e-002 0. 1.34182572e-002 6.22477336e-003 1.92633588e-002
      2.47934580e-001 3.33484232e-001 3.33484232e-001 1.87490433e-002
      8.99589900e-003 8.09023622e-003 6.85054925e-004 1.31419683e-002
      3.16328108e-002 3.27269994e-002 3.33484232e-001 2.27753103e-001
      3.56478952e-002 1.34938499e-002 1.23293838e-002 1.04401296e-003
      1.40818406e-003 3.73485573e-002 3.33484232e-001 3.33484232e-001
      6.60075843e-002 1.89502239e-002 4.11933940e-003 0. 1.91108286e-002
      1.45372627e-002 1.06463432e-001 3.07035923e-001 2.83753753e-001
      3.14104967e-002 9.96703375e-003 0. 0. 4.39090580e-002
      1.40102401e-001 3.07035923e-001 3.07035923e-001 7.61620253e-002
      4.07740213e-002 9.41060297e-003 1.62111933e-003 9.32179764e-003
      1.87947918e-002 1.17356665e-001 2.51524180e-001 3.07035923e-001
      3.07035923e-001 3.30253839e-002 1.07772630e-002 4.58929362e-003
      1.09698316e-002 1.96158573e-001 3.07035923e-001 3.07035923e-001
      2.91384816e-001 8.64214301e-002 8.15386176e-002 2.91253440e-002
      6.79111555e-002 1.60865068e-001 2.89915115e-001 1.74406365e-001
      1.24037579e-001 1.89333737e-001 1.80637822e-001 1.73341349e-001
      1.47788944e-002 1.61165744e-002 1.57521274e-002 1.15857245e-002
      2.14881953e-002 3.98598462e-002 1.25089526e-001 3.21414083e-001
      2.63872650e-002 0. 1.58662722e-002 5.20339375e-003 7.82824904e-002
      1.62102818e-001 2.99786299e-001 3.21414083e-001 3.21414083e-001
      2.64355153e-001 2.51078848e-002 8.46268237e-003 4.68041888e-003
      2.89643114e-003 5.39050531e-003 3.78568769e-002 3.21414083e-001
      3.21414083e-001 1.61884785e-001 2.07774751e-002 6.94216508e-003
      1.38946371e-002 1.17655273e-003 2.11840812e-002 3.50561291e-002
      4.10996415e-002 3.47863287e-001 2.07561612e-001 7.80468360e-002
      1.04132481e-002 2.39372980e-002 2.02693534e-003 2.07182276e-003
      3.23889814e-002 1.58986345e-001 3.46637160e-001 3.93662184e-001
      6.27012029e-002 1.01917498e-002 8.32109060e-003 2.94138183e-004
      5.01314551e-003 8.03708006e-003 1.23150624e-001 3.93662184e-001
      3.93662184e-001 9.15835872e-002 4.95117903e-003 1.13058994e-002
      6.83705613e-004 4.47237224e-004 2.78889062e-003 2.60045361e-002
      3.93662184e-001 7.86374658e-002 5.21866307e-002 4.50126119e-002
      5.28982542e-002 6.34730533e-002 1.00213930e-001 1.44594252e-001
      1.62613869e-001 1.52310044e-001 2.53247954e-002 3.21586430e-002
      9.68821049e-002 2.21493691e-001 2.88217753e-001 2.88217753e-001
      2.17388332e-001 7.17113763e-002 3.73217389e-002 2.88217753e-001
      1.98289707e-001 1.92663759e-001 6.29961044e-002 4.53266986e-002
      1.86858736e-002 1.10780308e-002 1.95159651e-002 2.88217753e-001
      1.25477716e-001 2.77356982e-001 2.88217753e-001 2.88217753e-001
      2.88217753e-001 9.63752568e-002 1.89819895e-002 5.98722789e-003
      1.33030966e-001 1.69596691e-002 0. 1.96851846e-002 3.66102625e-003
      1.60187983e-003 3.21728699e-002 3.11871469e-001 3.11871469e-001
      2.41455466e-001 2.11484313e-001 4.77384068e-002 1.71552207e-002
      4.51722462e-003 0. 5.20336907e-004 6.31627515e-002 3.11871469e-001
      3.11871469e-001 8.87583755e-003 0. 4.92129521e-003 9.15256271e-004
      1.43014099e-002 2.03015972e-002 3.11871469e-001 3.11871469e-001
      1.43623203e-001 2.65119404e-001 4.54364680e-002 9.38627310e-003
      2.63012620e-003 1.37748737e-002 1.40576181e-003 1.15972951e-001
      3.11871469e-001 3.11871469e-001 3.32380652e-001 9.55137610e-002
      2.71482840e-002 1.29123544e-002 0. 0. 9.13986936e-003
      1.06884733e-001 3.32380652e-001 3.32380652e-001 5.28250560e-002
      1.31887095e-002 8.60823691e-003 0. 0. 0. 8.29838663e-002
      3.32380652e-001 3.32380652e-001 8.35468173e-002 1.80988573e-002
      8.60823691e-003 1.33180935e-002 0. 1.30196344e-002 1.89175010e-001
      3.32380652e-001 3.32380652e-001 3.55208367e-002 8.79247207e-003
      5.73882321e-003 1.57273300e-002 0. 0. 1.90445036e-001
      3.32380652e-001 3.23382705e-001 1.16820969e-001 9.15671587e-002
      1.22747840e-002 1.47222425e-003 1.99354836e-003 2.41697859e-003
      4.14549001e-002 3.23382705e-001 2.27029666e-001 2.33974338e-001
      3.23382705e-001 1.99210018e-001 1.52161513e-002 7.97419064e-003
      1.10261533e-002 2.91159214e-003 1.82316154e-001 3.23382705e-001
      2.25668121e-002 5.26189385e-003 1.35515851e-003 1.14253191e-002
      1.32903189e-003 1.61131879e-003 4.73530889e-002 3.23382705e-001
      3.23382705e-001 1.98708668e-001 2.31808931e-001 6.71669915e-002
      9.98776406e-003 5.31612663e-003 6.44527376e-003 6.83367893e-004
      2.54841864e-001</_>
    <_>
      2.90586561e-001 2.90586561e-001 1.80268660e-001 1.53719544e-001
      4.99564223e-002 2.56363623e-004 4.82724700e-003 1.19050238e-002
      1.44984663e-001 2.90586561e-001 2.90586561e-001 1.52274827e-002
      2.75039556e-003 5.74723259e-003 0. 3.16114572e-004 7.34101841e-003
      2.90586561e-001 2.11265907e-001 2.39047766e-001 1.83030576e-001
      2.90586561e-001 2.68426627e-001 1.94294930e-001 3.88953127e-002
      5.90987829e-003 5.18089160e-002 2.90586561e-001 2.06764117e-001
      6.55854195e-002 1.99575853e-002 3.36626545e-003 1.13623245e-002
      2.11558025e-002 1.74043160e-002 1.67998880e-001 3.42409551e-001
      7.43912458e-002 2.43524718e-003 0. 6.17912831e-003 0.
      9.78070544e-004 9.90976673e-003 3.42409551e-001 3.42409551e-001
      1.89801157e-002 8.35729516e-005 0. 2.70993151e-002 1.34077612e-002
      9.55706313e-002 2.89290190e-001 3.42409551e-001 3.42409551e-001
      8.91264006e-002 3.00330892e-002 3.44891590e-003 5.28159842e-004
      9.71525535e-003 2.81179566e-002 3.55832502e-002 2.28142783e-001
      2.91549474e-001 7.36753419e-002 1.49625801e-002 1.85649283e-003
      2.59720162e-003 3.15098502e-002 1.18824206e-001 1.56542569e-001
      3.42409551e-001 6.96642548e-002 4.98420093e-003 0. 0.
      3.72633375e-002 6.36346340e-002 3.09592098e-001 2.97055990e-001
      3.09592098e-001 1.11830663e-002 2.06340780e-003 0. 1.72193721e-003
      9.63434279e-002 3.09592098e-001 3.09592098e-001 1.48442492e-001
      6.54766634e-002 5.01933321e-002 3.56898531e-002 4.74371426e-002
      5.50091714e-002 3.86902168e-002 1.39088124e-001 3.09592098e-001
      1.36651918e-001 1.24499619e-001 1.59862880e-002 1.57521870e-002
      5.98959401e-002 1.48119524e-001 3.09592098e-001 3.09592098e-001
      3.09592098e-001 7.08312020e-002 2.64564641e-002 1.93192232e-002
      2.30507068e-002 2.75211241e-002 7.42972419e-002 1.56151950e-001
      3.28814715e-001 2.33500674e-001 1.21929206e-001 1.20245256e-001
      3.82772535e-002 4.09355350e-002 4.26411033e-002 1.15177613e-002
      4.77372203e-003 1.80691369e-002 5.34932017e-002 1.02623813e-001
      2.57742047e-001 8.29426348e-002 8.21298733e-003 2.19888054e-003
      1.76694943e-004 2.53938138e-002 3.00495654e-001 3.28814715e-001
      3.28814715e-001 3.28814715e-001 2.05677509e-001 1.85779240e-002
      9.56454128e-003 2.74729589e-003 1.18357223e-002 2.10576002e-002
      7.80737698e-002 3.28814715e-001 3.28814715e-001 1.17567785e-001
      4.84321564e-002 2.40885746e-002 3.70063516e-003 7.58104317e-004
      6.26588194e-003 2.42837332e-002 4.54221964e-002 2.13302791e-001
      2.43681535e-001 2.56503701e-001 1.77680086e-002 2.01759255e-003
      3.72794364e-003 1.34950811e-002 2.71432810e-002 2.48504486e-002
      1.00212693e-001 3.95012975e-001 5.79274893e-002 7.70905754e-003
      3.86988837e-003 1.94793008e-003 2.09946930e-003 1.52033083e-002
      1.00031368e-001 3.95012975e-001 3.95012975e-001 3.95012975e-001
      1.07926270e-002 3.98571324e-003 1.22542237e-003 1.31317158e-003
      1.96987391e-003 4.71731974e-003 3.95012975e-001 9.13279355e-002
      2.54562676e-001 1.84047997e-001 1.18473828e-001 4.41542380e-002
      6.07466362e-002 9.10357609e-002 6.20633829e-003 1.17036793e-002
      2.27961801e-002 1.21474631e-001 2.86227793e-001 2.86227793e-001
      2.86227793e-001 2.79148579e-001 1.31366044e-001 6.33735862e-003
      1.16803944e-002 2.86227793e-001 2.86227793e-001 2.04923198e-001
      6.91136271e-002 1.35071045e-002 9.00775567e-003 2.14487058e-003
      1.39537884e-003 5.69746643e-002 1.04061954e-001 2.86227793e-001
      2.86227793e-001 2.86227793e-001 1.65011287e-001 7.94709623e-002
      1.24760848e-002 1.02655254e-002 3.19361575e-002 6.12889007e-002
      1.83118898e-002 1.58357740e-004 0. 1.35153811e-002 9.25480053e-002
      3.24896663e-001 3.24896663e-001 2.79277503e-001 1.48449078e-001
      3.21195684e-002 4.72975243e-003 3.43052694e-003 1.46724423e-002
      2.09298488e-002 8.10708031e-002 2.70677507e-001 3.24896663e-001
      3.00321244e-002 1.49695370e-002 1.05571824e-004 0. 8.59148428e-003
      1.73652358e-002 3.24896663e-001 3.24896663e-001 2.07496032e-001
      1.07152142e-001 1.71890203e-002 4.10925876e-003 2.28701788e-003
      1.09729292e-002 6.93761278e-003 8.30336139e-002 3.24896663e-001
      3.24896663e-001 3.45256150e-001 3.39862667e-002 1.47680929e-002
      9.75460652e-003 2.17994815e-003 3.05383536e-003 2.25118361e-002
      5.61660826e-002 3.45256150e-001 3.45256150e-001 1.65812120e-001
      2.24388875e-002 1.19562615e-002 8.09612742e-004 3.62313516e-003
      5.43502485e-003 7.98518956e-003 2.25116804e-001 3.45256150e-001
      4.74097356e-002 1.52269611e-002 8.06748960e-003 5.76791493e-003
      1.32728124e-003 1.94925182e-002 1.25418261e-001 3.45256150e-001
      3.45256150e-001 3.44813049e-001 3.28164883e-002 1.00355754e-002
      1.41548011e-002 2.41542328e-003 3.62334889e-003 1.13871135e-002
      2.41161302e-001 3.06699634e-001 2.88059086e-001 1.16537526e-001
      2.23112591e-002 5.78883663e-003 1.00577055e-002 7.28852348e-003
      5.88086946e-003 6.27688989e-002 7.61793181e-002 3.34799111e-001
      3.34799111e-001 2.70737022e-001 3.20995450e-002 3.50957289e-002
      3.47597967e-003 3.77116608e-003 2.88852826e-002 3.34799111e-001
      3.34799111e-001 1.61761910e-001 1.05396919e-002 1.63366701e-002
      3.23915202e-003 4.85901581e-003 6.66828826e-003 4.90035601e-002
      1.25970289e-001 3.34799111e-001 3.34799111e-001 3.17838378e-002
      2.01787297e-002 8.09787831e-004 1.21475372e-003 6.45904802e-004
      1.70455221e-002</_>
    <_>
      3.02296937e-001 3.26633215e-001 1.70966372e-001 3.84705961e-002
      2.95478050e-002 0. 0. 9.17423330e-003 7.66799003e-002
      3.26633215e-001 1.77340448e-001 1.85789913e-002 6.80568349e-003
      5.50077530e-003 0. 3.10586154e-004 1.48066720e-002 2.50702739e-001
      2.86597669e-001 3.26633215e-001 3.26633215e-001 1.58920169e-001
      1.86221793e-001 3.00715044e-002 1.54445041e-002 4.74323006e-003
      2.04075407e-002 3.26633215e-001 2.60867327e-001 5.98350801e-002
      4.73494418e-002 1.97014008e-002 8.73277895e-003 9.74394102e-003
      9.96815041e-003 1.45708337e-001 3.22568506e-001 1.32120494e-002
      2.37595942e-003 1.89097563e-003 3.43500101e-003 0. 1.05580105e-003
      1.10698212e-002 3.22568506e-001 3.22568506e-001 4.73617809e-003
      5.69419144e-003 1.42190629e-003 2.13074032e-002 5.31772943e-003
      3.51827517e-002 2.97354877e-001 3.22568506e-001 3.22568506e-001
      6.39171451e-002 1.59410872e-002 1.37552703e-002 6.33454230e-003
      1.15374513e-002 2.24496517e-002 5.17001329e-003 3.22568506e-001
      2.23912895e-001 3.61649133e-002 2.79661417e-002 1.38015794e-002
      6.12844247e-003 4.12316620e-002 1.42929628e-001 3.13195258e-001
      3.22568506e-001 4.36776243e-002 2.02358724e-003 3.03924992e-003
      6.16292330e-003 2.84241587e-002 1.47927916e-002 1.90042406e-001
      3.09761941e-001 2.29015261e-001 3.78633500e-003 3.48845060e-004
      3.53957014e-003 2.11973432e-002 5.54307550e-002 2.84301519e-001
      3.09761941e-001 2.58604646e-001 2.85561942e-002 2.32479814e-002
      8.42305645e-003 7.33866449e-003 1.56286433e-002 1.62470080e-002
      1.20153062e-001 3.09761941e-001 3.09761941e-001 1.82580739e-001
      1.21302623e-002 4.57007700e-004 1.28700701e-003 5.40519543e-002
      2.56263405e-001 3.09761941e-001 3.09761941e-001 2.43676931e-001
      2.24973839e-002 5.19545898e-002 9.96086225e-002 2.04236880e-001
      1.22167028e-001 2.66603410e-001 1.98712960e-001 2.10722476e-001
      4.10096720e-002 2.57452689e-002 1.60057724e-001 6.41436279e-002
      4.18503135e-002 4.60793190e-002 1.88911781e-002 2.98698042e-002
      5.35152666e-002 2.73765232e-002 9.21154991e-002 5.59064299e-002
      1.86136935e-003 8.79477523e-003 9.92492773e-003 9.21709388e-002
      2.62690932e-001 3.29705924e-001 3.29705924e-001 3.29705924e-001
      3.26787591e-001 5.11077652e-003 6.75164117e-003 5.62031381e-003
      2.90826638e-003 2.37528309e-002 7.46229440e-002 3.07430416e-001
      3.29705924e-001 1.57780930e-001 8.08556899e-002 2.43790895e-002
      1.92767065e-002 1.32986782e-002 1.96226258e-002 2.46108342e-002
      5.23922779e-003 1.09491117e-001 1.08080275e-001 1.68475389e-001
      5.36805317e-002 2.57044472e-002 1.59556214e-002 5.10056317e-002
      1.15473397e-001 6.77985325e-002 1.24035291e-001 4.16110724e-001
      5.12114502e-002 9.34108067e-003 3.59036517e-003 3.36640980e-003
      5.35252038e-003 5.63674327e-003 1.43564967e-002 4.16110724e-001
      4.16110724e-001 4.16110724e-001 3.88916656e-002 1.18054356e-002
      6.00618077e-003 4.91701160e-003 4.46698023e-003 2.94891349e-003
      4.16110724e-001 2.99783405e-002 7.95722902e-002 8.22713673e-002
      9.53791440e-002 5.06744310e-002 1.36003524e-001 1.83065742e-001
      8.18545520e-002 3.14054191e-002 1.65081508e-002 3.30512896e-002
      1.26929343e-001 2.61726260e-001 2.87498564e-001 2.87498564e-001
      2.71470338e-001 5.84910326e-002 1.43616647e-002 2.87498564e-001
      2.87498564e-001 1.98311582e-001 1.04117110e-001 2.91283503e-002
      2.27322858e-002 7.90165924e-003 2.02719076e-003 6.82894811e-002
      1.47818357e-001 2.87498564e-001 2.87498564e-001 2.87498564e-001
      2.87498564e-001 8.68163481e-002 1.26928873e-002 2.24597892e-003
      3.75013947e-002 3.49397808e-002 1.46828708e-003 6.33896212e-004 0.
      1.02831442e-002 6.42527789e-002 2.20037490e-001 3.29654664e-001
      3.29654664e-001 2.41377428e-001 2.15124544e-002 4.18318855e-003 0.
      1.06892101e-002 8.21003132e-003 2.58157849e-002 1.92834318e-001
      3.29654664e-001 3.34158689e-002 4.73722536e-003 9.50844435e-004 0.
      2.60624979e-002 2.80125830e-002 3.26684952e-001 3.29654664e-001
      2.85866261e-001 1.56286299e-001 7.26834387e-002 1.03937928e-002 0.
      4.70227636e-002 1.01886634e-002 4.38852347e-002 2.78551579e-001
      3.29654664e-001 3.46158713e-001 2.86618676e-002 3.41113936e-003
      5.22204908e-003 2.17535044e-003 4.05951490e-004 6.51425403e-003
      1.88660026e-002 3.46158713e-001 3.46158713e-001 2.81885743e-001
      1.05780456e-002 2.95368042e-002 6.19169045e-003 3.77528695e-003
      5.05950814e-003 1.38644706e-002 3.17972034e-001 3.19065750e-001
      6.80680722e-002 1.13571240e-002 7.83307385e-003 3.47346365e-002
      6.08927279e-004 1.07323024e-002 5.12308367e-002 3.46158713e-001
      3.46158713e-001 9.71943811e-002 1.12665305e-002 4.35650535e-002
      4.78581153e-002 1.51011441e-002 1.29337264e-002 4.04474884e-002
      2.96582639e-001 3.19322556e-001 3.19322556e-001 9.01358500e-002
      2.48340331e-002 3.18229897e-003 4.77517257e-003 2.54391413e-002
      9.29731596e-003 6.23926818e-002 1.35366559e-001 2.88165361e-001
      3.19322556e-001 2.68164337e-001 8.84065926e-002 1.19430078e-002
      4.87282239e-002 6.30997494e-003 4.76388372e-002 3.19322556e-001
      3.19322556e-001 1.13323830e-001 1.88672040e-002 2.75893472e-002
      1.20344767e-002 2.95895040e-002 1.55441808e-002 6.46243021e-002
      1.28934368e-001 3.19322556e-001 3.19322556e-001 2.10782990e-001
      2.40387823e-002 1.68251749e-002 4.33678888e-002 4.66373470e-003
      2.25497857e-002</_>
    <_>
      2.68662632e-001 2.94998556e-001 1.48099303e-001 1.56600904e-002
      4.53013889e-002 3.34112812e-003 0. 4.36761742e-003 1.15586296e-001
      2.94998556e-001 1.72260270e-001 2.04764567e-002 0. 8.41459632e-003
      0. 0. 1.67136248e-002 2.94998556e-001 2.52932429e-001
      2.94998556e-001 2.94998556e-001 2.39781812e-001 2.35275373e-001
      8.51495788e-002 1.67091191e-002 1.14506530e-002 5.32255732e-002
      2.94998556e-001 2.33572319e-001 6.16604351e-002 2.14542001e-002
      2.45754141e-002 7.29557639e-003 1.10923601e-002 2.68790498e-002
      2.94998556e-001 3.39802772e-001 8.18567164e-003 2.74705642e-004 0.
      7.13957846e-003 5.15892124e-003 5.26215823e-004 2.01496352e-002
      3.39802772e-001 1.81963742e-001 3.12749250e-003 1.99149586e-002
      1.14076259e-002 5.41923940e-002 2.65187193e-002 6.39338493e-002
      3.39802772e-001 3.39802772e-001 3.39802772e-001 1.57830548e-002
      7.79922772e-003 2.50265398e-003 8.93232971e-003 7.97823444e-003
      6.11443166e-003 3.23261507e-002 3.39802772e-001 1.47820115e-001
      1.12557400e-003 1.48283765e-002 3.30006294e-002 1.55906146e-002
      2.25283522e-002 7.41487592e-002 3.39802772e-001 3.39802772e-001
      1.66602936e-002 8.46755970e-003 1.78385545e-002 5.57595957e-003
      4.91952561e-002 4.32785787e-002 2.54340321e-001 3.29271823e-001
      1.80716723e-001 1.56743787e-002 2.42170654e-002 1.21564129e-002 0.
      6.41804412e-002 2.71199971e-001 3.29271823e-001 1.76045105e-001
      2.98171137e-002 2.58215629e-002 1.22850947e-002 1.18454322e-002
      2.77129263e-002 1.95697658e-002 1.37842685e-001 3.28303933e-001
      3.29271823e-001 1.75409690e-001 2.99155358e-002 6.90441057e-002
      4.20648186e-003 2.60236077e-002 1.22883245e-001 3.29271823e-001
      3.29271823e-001 2.45327473e-001 2.09095031e-002 4.15802971e-002
      7.02852234e-002 8.91505927e-002 1.63779750e-001 2.51411289e-001
      2.32799545e-001 3.43499511e-001 1.04533993e-001 1.63384080e-002
      8.81583318e-002 4.94746417e-002 2.39625666e-002 2.61640362e-002
      1.89557765e-002 3.10755894e-002 9.14388895e-002 1.06864549e-001
      6.51377738e-002 5.37326783e-002 5.66934422e-003 3.94371245e-003
      2.42400449e-002 7.85806701e-002 2.71682382e-001 3.45623046e-001
      3.45623046e-001 1.75386414e-001 1.49000868e-001 2.79671643e-002
      9.06213000e-003 1.65021624e-002 1.18739530e-002 2.77401656e-002
      2.35267520e-001 3.45623046e-001 3.45623046e-001 1.09534390e-001
      3.39776389e-002 1.61880944e-002 5.81004797e-003 5.22749731e-003
      1.35700284e-002 1.93292852e-002 5.04710488e-002 1.51575610e-001
      1.20341383e-001 2.56437920e-002 2.50251833e-002 3.78996693e-002
      8.05842597e-003 2.43936069e-002 8.19255412e-002 2.03875646e-001
      2.08995283e-001 4.16848242e-001 5.28436862e-002 1.75380129e-002
      2.85145617e-003 3.69653979e-004 7.56488275e-003 1.63052753e-002
      3.16727728e-001 4.16848242e-001 4.16848242e-001 1.76089793e-001
      2.30885483e-002 1.18099386e-002 9.24134802e-005 1.13684507e-002
      7.25509748e-002 1.02913454e-001 4.16848242e-001 4.15455364e-002
      4.85039223e-003 4.43586968e-002 5.33545054e-002 3.48000824e-002
      1.65695012e-001 2.47582048e-001 1.75609678e-001 4.56104949e-002
      2.91237645e-002 3.23577560e-002 7.93410093e-002 1.67458206e-001
      2.76985914e-001 2.76985914e-001 2.76985914e-001 8.52844864e-002
      1.63905211e-002 2.76985914e-001 2.29706109e-001 2.17690170e-001
      7.08700195e-002 4.08766754e-002 5.91349788e-002 7.90754333e-002
      5.29218800e-002 1.07564084e-001 1.77238092e-001 2.09863961e-001
      2.76985914e-001 2.76985914e-001 2.76985914e-001 2.61192232e-001
      9.22634974e-002 1.29747614e-002 6.03077114e-002 4.32555676e-002
      3.71699175e-003 6.22622902e-003 2.22906098e-002 2.88210213e-002
      1.15713656e-001 3.22354019e-001 3.22354019e-001 1.22769974e-001
      1.27010807e-001 2.22575944e-002 1.69486646e-002 1.16491085e-002
      1.80816073e-002 1.08075542e-002 1.11389495e-001 3.22354019e-001
      3.22354019e-001 3.37411314e-002 3.62682436e-003 6.27402309e-003
      8.52151588e-003 4.15631682e-002 5.54044358e-002 3.22354019e-001
      3.22354019e-001 8.16211477e-002 1.23526692e-001 4.56048474e-002
      1.47154611e-002 1.07507557e-002 4.42379452e-002 1.31950071e-002
      2.95692235e-001 3.22354019e-001 2.96346277e-001 3.38986009e-001
      2.44739894e-002 1.13912970e-002 9.95103110e-005 7.34100875e-004
      6.97460899e-004 7.67302839e-003 2.03680620e-001 3.38986009e-001
      3.38986009e-001 1.15790665e-001 5.59305167e-003 5.10320766e-003 0.
      7.24303629e-003 1.64759923e-002 6.07035607e-002 3.38986009e-001
      2.72624433e-001 4.03313413e-002 1.28739327e-002 1.24752354e-002
      2.47298125e-002 6.45692518e-004 2.83442419e-002 2.22246394e-001
      3.38986009e-001 3.38986009e-001 4.07023169e-002 9.02839471e-003
