<?xml version="1.0"?>
<opencv_storage>
<my_svm type_id="opencv-ml-svm">
  <svm_type>C_SVC</svm_type>
  <kernel><type>RBF</type>
    <gamma>5.0625000000000009e-001</gamma></kernel>
  <C>2.5000000000000000e+000</C>
  <term_criteria><epsilon>1.1920928688624599e-009</epsilon>
    <iterations>20000</iterations></term_criteria>
  <var_all>324</var_all>
  <var_count>324</var_count>
  <class_count>3</class_count>
  <class_labels type_id="opencv-matrix">
    <rows>1</rows>
    <cols>3</cols>
    <dt>i</dt>
    <data>
      0 1 2</data></class_labels>
  <sv_total>523</sv_total>
  <support_vectors>
    <_>
      0. 0. 0. 0. 0. 0. 0. 0. 0. 0. 0. 0. 0. 0. 0. 0. 0. 0. 0. 0. 0. 0.
      0. 0. 0. 0. 0. 0. 0. 0. 0. 0. 0. 0. 0. 0. 0. 0. 0. 0. 0. 0. 0. 0.
      0. 0. 0. 0. 0. 0. 0. 0. 0. 0. 0. 0. 0. 0. 0. 0. 0. 0. 0. 0. 0. 0.
      0. 0. 0. 0. 0. 0. 0. 0. 0. 0. 0. 0. 0. 0. 0. 0. 0. 0. 0. 0. 0. 0.
      0. 0. 0. 0. 0. 0. 0. 0. 0. 0. 0. 0. 0. 0. 0. 0. 0. 0. 0. 0. 0. 0.
      0. 0. 0. 0. 0. 0. 0. 0. 0. 0. 0. 0. 0. 0. 0. 0. 0. 0. 0. 0. 0. 0.
      0. 0. 0. 0. 0. 0. 0. 0. 0. 0. 0. 0. 0. 0. 0. 0. 0. 0. 0. 0. 0. 0.
      0. 0. 0. 0. 0. 0. 0. 0. 0. 0. 0. 0. 0. 0. 0. 0. 0. 0. 0. 0. 0. 0.
      0. 0. 0. 0. 0. 0. 0. 0. 0. 0. 0. 0. 0. 0. 0. 0. 0. 0. 0. 0. 0. 0.
      0. 0. 0. 0. 0. 0. 0. 0. 0. 0. 0. 0. 0. 0. 0. 0. 0. 0. 0. 0. 0. 0.
      0. 0. 0. 0. 0. 0. 0. 0. 0. 0. 0. 0. 0. 0. 0. 0. 0. 0. 0. 0. 0. 0.
      0. 0. 0. 0. 0. 0. 0. 0. 0. 0. 0. 0. 0. 0. 0. 0. 0. 0. 0. 0. 0. 0.
      0. 0. 0. 0. 0. 0. 0. 0. 0. 0. 0. 0. 0. 0. 0. 0. 0. 0. 0. 0. 0. 0.
      0. 0. 0. 0. 0. 0. 0. 0. 0. 0. 0. 0. 0. 0. 0. 0. 0. 0. 0. 0. 0. 0.
      0. 0. 0. 0. 0. 0. 0. 0. 0. 0. 0. 0. 0. 0. 0. 0.</_>
    <_>
      2.77593553e-001 2.10082963e-001 1.74703419e-001 9.27954242e-002
      5.83491959e-002 5.75698577e-002 3.43896560e-002 7.90820420e-002
      2.14219615e-001 2.77593553e-001 2.77593553e-001 2.77593553e-001
      5.48831969e-002 5.27887158e-002 3.85434628e-002 4.31077033e-002
      6.38796091e-002 2.14275062e-001 1.52402744e-001 2.07021862e-001
      2.64322370e-001 1.38808683e-001 1.03269719e-001 7.47687444e-002
      7.71029443e-002 1.02019504e-001 1.46261066e-001 2.25141585e-001
      2.77593553e-001 2.77593553e-001 1.35630831e-001 1.05597466e-001
      1.17286600e-001 1.10661089e-001 8.21597800e-002 1.01096563e-001
      2.65262008e-001 2.65262008e-001 2.65262008e-001 8.23496208e-002
      6.66621625e-002 4.67891470e-002 9.01077539e-002 9.58696380e-002
      2.45253325e-001 2.22401276e-001 2.65262008e-001 2.63375640e-001
      1.48135185e-001 8.73822048e-002 4.62926961e-002 8.00253078e-002
      1.17471702e-001 2.65262008e-001 2.65262008e-001 2.65262008e-001
      2.65262008e-001 1.20476641e-001 6.56224340e-002 5.63217327e-002
      5.22692464e-002 4.71060053e-002 9.39695910e-002 1.13877155e-001
      1.45692661e-001 2.42977202e-001 1.72897235e-001 6.64523840e-002
      3.66642103e-002 4.12062109e-002 4.39787805e-002 6.71990812e-002
      2.09230334e-001 2.51665026e-001 2.24154875e-001 1.46234319e-001
      6.29570037e-002 5.63358143e-002 8.91861543e-002 1.21640250e-001
      2.30948105e-001 2.83993632e-001 2.83993632e-001 2.83993632e-001
      9.73934233e-002 4.08263132e-002 5.44352978e-002 8.17191303e-002
      4.49360907e-002 2.36909956e-001 1.66481942e-001 1.27413228e-001
      1.88667759e-001 1.37777165e-001 4.26289812e-002 2.85958443e-002
      7.05712289e-002 7.75154084e-002 1.43882155e-001 2.83993632e-001
      2.83993632e-001 1.86749339e-001 8.46420154e-002 9.02095437e-002
      3.15073505e-002 6.16651848e-002 6.17927611e-002 2.47686222e-001
      2.24163204e-001 1.83837384e-001 1.44699544e-001 1.02448605e-001
      1.32312775e-001 1.18621409e-001 1.48189217e-001 1.04391232e-001
      2.24163204e-001 1.83968186e-001 2.23127782e-001 1.85707927e-001
      1.62634194e-001 1.82284370e-001 2.24163204e-001 2.24163204e-001
      1.44095063e-001 1.41108125e-001 2.24163204e-001 1.22837193e-001
      8.44509080e-002 5.39031066e-002 1.41565338e-001 1.33415177e-001
      1.27061337e-001 1.00649603e-001 2.24163204e-001 1.71666488e-001
      1.31825566e-001 1.44177914e-001 1.28362298e-001 1.87175319e-001
      2.24163204e-001 1.84917003e-001 1.36394292e-001 1.91558585e-001
      1.01681769e-001 1.89026177e-001 1.35335967e-001 2.25396901e-001
      1.71037048e-001 1.39774054e-001 9.09583420e-002 1.10714294e-001
      1.10795289e-001 1.13381676e-001 9.87234935e-002 1.56984165e-001
      1.66675970e-001 9.86770019e-002 3.49095874e-002 1.53484549e-002
      1.12900004e-001 1.53176799e-001 1.19008832e-001 1.63782552e-001
      1.43175721e-001 2.63982862e-001 2.63982862e-001 2.07126796e-001
      1.25802055e-001 1.76446497e-001 1.75418064e-001 2.53921837e-001
      9.81346443e-002 1.02453902e-001 2.44714007e-001 2.63982862e-001
      5.43515235e-002 1.22732045e-002 2.63982862e-001 2.63982862e-001
      1.21216699e-001 5.68103231e-002 8.90801623e-002 6.46687150e-002
      3.45023870e-002 1.48521885e-002 2.71185283e-002 1.10248312e-001
      1.59579098e-001 1.82963252e-001 6.90746009e-002 5.04939370e-002
      7.23675787e-002 1.44983009e-001 5.19452281e-002 5.11879809e-002
      6.52314797e-002 1.36851475e-001 3.20931822e-001 4.12532687e-002
      6.78511485e-002 5.37704341e-002 6.36711121e-002 3.31168585e-002
      2.66570449e-002 3.82954150e-001 3.82954150e-001 3.82954150e-001
      5.89694753e-002 4.64891009e-002 5.34772947e-002 6.22187629e-002
      8.09729695e-002 8.05250406e-002 3.17698359e-001 3.82954150e-001
      1.22895621e-001 6.43729344e-002 6.84827417e-002 4.34776656e-002
      1.00286439e-001 1.56503126e-001 1.54855728e-001 1.56223863e-001
      1.79127410e-001 8.75958204e-002 9.14120972e-002 1.29515022e-001
      7.97996745e-002 1.84249669e-001 2.47444034e-001 2.33282760e-001
      2.47444034e-001 2.47444034e-001 8.80129859e-002 6.40626699e-002
      1.22941375e-001 1.01084836e-001 1.37689978e-001 1.14908949e-001
      1.73863351e-001 2.35826597e-001 1.59241185e-001 8.34668428e-002
      7.08004832e-002 2.28622481e-001 1.50531292e-001 1.81887224e-001
      2.47444034e-001 2.47444034e-001 2.47444034e-001 2.47444034e-001
      5.39506152e-002 1.17046624e-001 1.01632424e-001 1.94578007e-001
      2.68686026e-001 2.51563877e-001 1.48440301e-001 1.62582666e-001
      1.33467227e-001 1.12394169e-001 6.95926845e-002 4.32471186e-002
      1.84635997e-001 2.68686026e-001 1.39156640e-001 6.00791015e-002
      1.77465841e-001 2.68686026e-001 2.86621097e-002 5.38503863e-002
      9.98075902e-002 1.47785932e-001 2.68686026e-001 2.68686026e-001
      2.42459700e-001 2.13384882e-001 1.28874853e-001 2.09712069e-002
      3.85704935e-002 2.42553279e-002 1.02355003e-001 2.68686026e-001
      2.68686026e-001 1.37479380e-001 2.90560648e-002 2.25802660e-002
      3.16714048e-001 6.23279437e-002 2.18737051e-002 6.24862127e-002
      1.35644585e-001 6.35872185e-002 2.94192266e-002 2.59360820e-001
      3.86864483e-001 3.86864483e-001 7.50051290e-002 2.22961642e-002
      2.62272526e-002 2.37414297e-002 6.35232925e-002 4.69356067e-002
      3.06527644e-001 3.86864483e-001 8.67873058e-002 6.07156344e-002
      3.72950956e-002 5.45704737e-002 2.35015348e-001 1.45622134e-001
      7.34158456e-002 3.95117514e-002 1.30199477e-001 1.40524387e-001
      6.68194816e-002 2.58775093e-002 2.13807616e-002 3.63766253e-002
      6.30398393e-002 6.52799681e-002 1.10415980e-001 2.78211355e-001</_>
    <_>
      2.10673675e-001 4.04025726e-002 4.09487123e-003 2.75666971e-004
      7.07366783e-003 3.50187393e-003 1.91148892e-002 1.12262391e-001
      3.64165008e-001 2.16308370e-001 6.56092539e-002 3.02650761e-002
      1.97398830e-002 1.21861454e-002 1.81173868e-002 1.47589101e-002
      9.25479680e-002 3.64165008e-001 2.31915489e-001 1.94056947e-002
      2.16996879e-003 4.34171222e-003 3.79124074e-003 6.09745504e-003
      2.97586061e-002 3.34142715e-001 3.64165008e-001 3.64165008e-001
      6.41293302e-002 1.29071912e-002 4.75398917e-003 2.98054400e-003
      4.71932534e-003 1.79039873e-002 2.02809885e-001 3.64165008e-001
      1.99657023e-001 1.21763870e-001 6.13018237e-002 1.08130567e-001
      7.67039135e-002 1.35361955e-001 5.79188205e-002 1.48948938e-001
      3.11666578e-001 8.13479498e-002 6.15405068e-002 4.46178392e-002
      1.40755832e-001 9.49697345e-002 1.59103468e-001 7.25778714e-002
      1.02268584e-001 9.51566100e-002 3.11666578e-001 2.09431425e-001
      5.17283194e-002 9.97772142e-002 4.67963219e-002 9.51761454e-002
      8.56226087e-002 1.69260442e-001 3.11666578e-001 2.60274112e-001
      2.33496889e-001 1.23977967e-001 2.30687916e-001 1.23699144e-001
      2.22669378e-001 1.48750782e-001 1.24703765e-001 3.11666578e-001
      4.73395698e-002 9.89603400e-002 1.80732921e-001 1.34720892e-001
      6.79906607e-002 8.97250399e-002 6.99654818e-002 3.77165340e-002
      3.32322419e-002 1.91670954e-001 1.94817930e-001 2.57151276e-001
      1.97105557e-001 1.59541130e-001 1.54564232e-001 1.11446947e-001
      8.26444253e-002 6.83980137e-002 2.29054585e-001 2.19082430e-001
      2.57151276e-001 2.57151276e-001 1.78517044e-001 1.54509395e-001
      6.44719675e-002 6.99894279e-002 1.51675954e-001 2.57151276e-001
      2.22265363e-001 2.57151276e-001 2.57151276e-001 1.23890251e-001
      7.17656761e-002 5.66256829e-002 5.84100671e-002 2.57151276e-001
      2.20485449e-001 5.66786230e-002 1.48522994e-002 1.25714075e-002
      4.84257983e-003 2.60482263e-002 8.29182863e-002 2.93909132e-001
      2.93909132e-001 2.93909132e-001 7.42485821e-002 2.12333165e-002
      1.83533840e-002 8.42449162e-003 1.16628418e-002 3.45026180e-002
      1.69897795e-001 2.93909132e-001 1.73265696e-001 6.55620769e-002
      9.78975669e-002 9.89846885e-002 1.30207002e-001 1.92940593e-001
      1.54206976e-001 2.46638000e-001 2.93909132e-001 1.89018518e-001
      7.10493922e-002 7.85581619e-002 1.74623117e-001 2.11554691e-001
      1.75259531e-001 1.29224867e-001 1.42547607e-001 2.93909132e-001
      2.57952541e-001 1.12759061e-001 5.22645600e-002 6.40102774e-002
      3.95334996e-002 4.55304347e-002 5.33118881e-002 8.40526521e-002
      2.57952541e-001 2.08785966e-001 2.07726315e-001 1.73266903e-001
      2.57952541e-001 1.96510911e-001 1.34091869e-001 1.07198492e-001
      5.58896996e-002 2.57952541e-001 1.93798617e-001 8.45251903e-002
      7.70298094e-002 1.43582761e-001 1.77050084e-001 1.26185924e-001
      1.20940775e-001 1.26405537e-001 2.57952541e-001 1.56430840e-001
      1.59236372e-001 1.91753447e-001 2.57952541e-001 2.57952541e-001
      1.01031125e-001 1.31927356e-001 1.28465712e-001 1.75342172e-001
      1.22105397e-001 1.12516440e-001 1.57757550e-001 2.65119195e-001
      2.48614609e-001 9.03406739e-002 4.63763848e-002 3.29603031e-002
      9.15616974e-002 2.65119195e-001 8.03450868e-002 1.12480029e-001
      1.95846975e-001 1.58421233e-001 6.49244860e-002 5.85802048e-002
      4.54288796e-002 2.65119195e-001 1.07515186e-001 1.00032300e-001
      1.55365527e-001 2.65119195e-001 2.65119195e-001 8.25950056e-002
      1.00396238e-001 9.53801200e-002 2.09593281e-001 2.65119195e-001
      7.83665255e-002 1.00667275e-001 2.22800583e-001 2.50592619e-001
      9.73559394e-002 8.00958574e-002 1.37024537e-001 2.65119195e-001
      7.67250583e-002 3.57472934e-002 9.52137634e-002 1.33999899e-001
      3.01653266e-001 3.01653266e-001 1.15096420e-001 1.02235638e-001
      1.56294182e-001 5.14395833e-002 2.18057986e-002 5.75246587e-002
      2.00735241e-001 3.01653266e-001 3.01653266e-001 1.61858380e-001
      9.55526456e-002 1.13084748e-001 8.75222459e-002 3.81652117e-002
      6.75370470e-002 1.23452835e-001 3.01653266e-001 2.31132343e-001
      8.61689597e-002 5.97251318e-002 1.35522828e-001 4.02570702e-002
      3.15963365e-002 9.15729403e-002 2.29570433e-001 3.01653266e-001
      3.01653266e-001 7.43076354e-002 3.26522477e-002 2.95531768e-002
      6.85608834e-002 4.24107537e-002 4.04548459e-002 1.48021966e-001
      2.87842453e-001 2.87842453e-001 1.92186460e-001 1.73788831e-001
      1.77652672e-001 1.00291297e-001 1.07786328e-001 8.77316222e-002
      8.40896368e-002 2.87842453e-001 1.94010884e-001 1.75423712e-001
      1.98756829e-001 1.63698480e-001 9.03985947e-002 8.82366151e-002
      9.67316777e-002 1.43659413e-001 2.87842453e-001 2.87842453e-001
      9.06041637e-002 7.18074441e-002 6.70061111e-002 8.93604904e-002
      1.07507154e-001 7.87530094e-002 6.46765307e-002 2.87842453e-001
      2.87842453e-001 1.03919283e-001 9.39238593e-002 6.23653680e-002
      9.91182700e-002 7.66639337e-002 1.02205917e-001 1.30858183e-001
      3.29224855e-001 1.38082966e-001 9.82081667e-002 1.32836223e-001
      1.98381498e-001 2.08863974e-001 5.37361912e-002 9.68726873e-002
      1.49722338e-001 3.29224855e-001 2.30912507e-001 6.59030601e-002
      1.55906558e-001 3.29224855e-001 4.37461510e-002 4.71863821e-002
      5.28619029e-002 6.26794100e-002 3.29224855e-001 1.53093532e-001
      4.23343405e-002 4.32103463e-002 2.47201305e-002 5.25082313e-002
      2.62347460e-002 4.60738763e-002 8.80554393e-002 3.29224855e-001
      3.18931669e-001 6.54459372e-002 6.41023070e-002 5.91175631e-002</_>
    <_>
      4.99663912e-002 3.45038809e-002 5.12415469e-002 8.20330158e-002
      2.26189479e-001 1.38110876e-001 3.70838456e-002 3.12812664e-002
      4.48644198e-002 3.23623158e-002 2.93151755e-002 3.95236351e-002
      1.82823122e-001 4.20900732e-001 2.20339015e-001 1.59304477e-002
      9.67770442e-003 1.57950241e-002 6.67540729e-002 3.10551133e-002
      6.29637018e-002 7.68495575e-002 2.05024332e-001 1.07215308e-001
      2.08393469e-001 3.58683646e-001 1.32012501e-001 4.50013056e-002
      4.19257246e-002 6.44775853e-002 2.84746706e-001 4.20900732e-001
      2.15397015e-001 1.29252240e-001 2.29594395e-001 6.80412129e-002
      3.85875441e-002 2.95667574e-002 5.88634647e-002 1.81458443e-001
      3.34584266e-001 1.35503128e-001 3.15118469e-002 3.37744579e-002
      1.76185388e-002 4.98105213e-002 4.26404886e-002 6.34319037e-002
      1.27282575e-001 1.68877244e-001 1.95579201e-001 1.38243541e-001
      7.46361390e-002 4.17896286e-002 2.63217557e-002 5.01306877e-002
      9.34397429e-002 3.34584266e-001 3.34584266e-001 1.85309201e-001
      5.12527823e-002 3.80850509e-002 1.32369567e-002 3.24837044e-002
      6.40367121e-002 1.36491343e-001 3.33185464e-001 3.34584266e-001
      3.34584266e-001 2.68577278e-001 4.34276685e-002 1.71373952e-002
      3.04659940e-002 6.44238368e-002 7.63590559e-002 8.62206146e-002
      1.66757613e-001 3.47921371e-001 2.56301403e-001 7.98837766e-002
      4.92715091e-002 2.18415055e-002 5.32630049e-002 7.29334131e-002
      1.40607581e-001 2.00084239e-001 2.13758558e-001 9.51838046e-002
      6.97591379e-002 6.06621951e-002 2.55612116e-002 5.11380881e-002
      1.37257501e-001 1.81392118e-001 3.47921371e-001 3.47921371e-001
      3.47921371e-001 5.23820072e-002 4.24996391e-002 5.11886142e-002
      7.52035901e-002 7.68633559e-002 1.70703843e-001 2.31098175e-001
      2.63147652e-001 1.34651840e-001 6.11540154e-002 1.11939527e-001
      4.82131131e-002 3.06271724e-002 2.48057451e-002 5.35088219e-002
      1.69094697e-001 1.20229647e-001 2.82316297e-001 2.82316297e-001
      1.29858106e-001 9.11494642e-002 1.02357768e-001 9.23130065e-002
      2.40588173e-001 2.82316297e-001 2.82316297e-001 2.82316297e-001
      2.82316297e-001 1.25340626e-001 4.00292054e-002 3.48249525e-002
      1.63523853e-002 8.47647414e-002 2.48186186e-001 9.21503603e-002
      1.02422498e-001 1.04427829e-001 7.64325112e-002 1.03074938e-001
      8.89881328e-002 5.99608272e-002 9.02607441e-002 1.86153337e-001
      1.89911008e-001 2.22694710e-001 2.81256616e-001 1.18808396e-001
      3.65698412e-002 8.47390592e-002 1.02501608e-001 2.73494005e-001
      2.80090451e-001 2.55152166e-001 7.14988708e-002 8.99673626e-002
      2.73033362e-002 5.44530228e-002 8.60674530e-002 1.57139540e-001
      2.80090451e-001 2.80090451e-001 2.80090451e-001 2.12302908e-001
      2.39143092e-002 5.10438234e-002 5.62604964e-002 6.70833588e-002
      5.93436100e-002 6.58501685e-002 2.07882285e-001 1.82027936e-001
      8.31602067e-002 1.35376424e-001 1.03325628e-001 1.42515391e-001
      1.19177058e-001 9.57942978e-002 7.80563205e-002 2.56730527e-001
      2.80090451e-001 1.32685244e-001 9.59865451e-002 2.80090451e-001
      6.29650876e-002 6.72815293e-002 1.36591956e-001 1.24516070e-001
      2.56366551e-001 2.56366551e-001 2.56366551e-001 4.73763719e-002
      8.37087110e-002 1.12349994e-001 1.08082227e-001 8.92070010e-002
      9.17973146e-002 1.27455443e-001 1.08681254e-001 7.57003203e-002
      8.95701796e-002 1.30938545e-001 2.51299679e-001 2.26726919e-001
      1.60482287e-001 5.96675351e-002 2.31888399e-001 2.56366551e-001
      2.12033093e-001 1.17967375e-001 2.56366551e-001 2.56366551e-001
      1.96124390e-001 1.79159299e-001 5.73105514e-002 1.50538847e-001
      8.13423544e-002 7.49888718e-002 1.43373311e-001 2.56366551e-001
      6.69057518e-002 7.25504681e-002 8.54924321e-002 2.59560227e-001
      2.95825809e-001 1.85807258e-001 5.14966436e-002 4.68228534e-002
      8.77673626e-002 1.39524251e-001 1.09312549e-001 7.56204128e-002
      1.29846647e-001 1.75507620e-001 1.21315993e-001 1.73464864e-001
      2.48719186e-001 1.61712721e-001 6.46602884e-002 6.11327514e-002
      9.98284444e-002 1.30207911e-001 2.95825809e-001 2.95825809e-001
      7.00450465e-002 1.25516072e-001 1.96386993e-001 2.50315607e-001
      2.95825809e-001 2.00424165e-001 9.05670300e-002 1.52390197e-001
      3.19994614e-002 2.99402606e-002 1.56257927e-001 2.07909599e-001
      1.24760985e-001 9.41283181e-002 5.73880374e-002 3.27097662e-002
      1.09205410e-001 1.20307259e-001 7.75313750e-002 1.81178585e-001
      2.28760675e-001 2.71778584e-001 2.59759456e-001 1.49742290e-001
      7.66798779e-002 1.61509857e-001 2.33838871e-001 7.93157220e-002
      2.39470288e-001 2.71778584e-001 1.61857411e-001 2.71778584e-001
      2.71778584e-001 6.10057712e-002 5.85686490e-002 1.38199516e-002
      5.99970063e-003 3.47710252e-002 3.98750566e-002 2.15537876e-001
      2.71778584e-001 2.71778584e-001 1.64466903e-001 8.78155604e-002
      5.66120297e-002 2.49994081e-002 8.30146223e-002 1.98118031e-001
      2.28310615e-001 1.68249756e-001 1.24292485e-001 6.78879619e-002
      1.21207587e-001 1.45890757e-001 8.19296613e-002 1.50564656e-001
      2.29044512e-001 2.29044512e-001 1.66894317e-001 1.80047095e-001
      9.22923759e-002 2.29044512e-001 9.89710167e-002 1.00494929e-001
      1.64517924e-001 2.29044512e-001 1.26068905e-001 2.29044512e-001
      1.91266596e-001 1.39039278e-001 1.30037352e-001 1.02025010e-001
      5.35148494e-002 1.24114312e-001 1.89238712e-001 1.72492996e-001
      2.29044512e-001 1.76061481e-001 2.29044512e-001 2.29044512e-001
      1.13732867e-001 1.04455031e-001 1.47242665e-001 1.92191064e-001</_>
    <_>
      3.00853938e-001 3.00853938e-001 5.14643714e-002 4.87265131e-003
      2.72848383e-002 1.09966341e-002 1.64381377e-002 5.61971441e-002
      2.96840250e-001 3.00853938e-001 1.16527915e-001 9.68018174e-003
      5.98264392e-003 4.82400879e-002 2.50284094e-002 7.91026726e-002
      3.00853938e-001 3.00853938e-001 2.66558737e-001 2.78298587e-001
      6.64440393e-002 2.00634301e-002 5.62276803e-002 4.10071313e-002
      1.22292161e-001 9.01484936e-002 1.39407620e-001 2.10937366e-001
      8.54010358e-002 3.61669660e-002 2.13424321e-002 3.18329111e-002
      2.35446841e-002 5.28433621e-002 2.78071612e-001 3.00853938e-001
      1.16480902e-001 2.07909383e-002 6.37935288e-003 1.31194703e-002
      3.75022404e-002 3.25662494e-002 1.76015243e-001 3.28624070e-001
      3.01183075e-001 4.68683727e-002 2.02188194e-002 1.26976278e-002
      1.36873275e-002 3.15452740e-002 3.33970338e-002 3.28624070e-001
      3.28624070e-001 1.52440861e-001 1.02199048e-001 3.29329111e-002
      4.62108552e-002 3.14885415e-002 1.96911283e-002 1.22753326e-002
      1.73492357e-001 3.28624070e-001 2.63134301e-001 9.61490721e-002
      2.69104838e-002 4.93280217e-002 4.20797579e-002 3.43078859e-002
      7.43752196e-002 3.28624070e-001 3.28624070e-001 2.16016874e-001
      2.60546878e-002 2.46346667e-002 1.20496033e-002 5.38448524e-003
      1.33946296e-002 2.55067367e-002 3.26231658e-001 3.26231658e-001
      6.29408434e-002 6.96040168e-002 4.70757447e-002 3.70807610e-002
      3.85435969e-002 1.83979914e-001 5.25322706e-002 3.18892360e-001
      1.34733602e-001 8.14622343e-002 4.37143296e-002 1.48045309e-002
      1.73078235e-002 1.99828427e-002 2.81105377e-002 1.59004167e-001
      3.26231658e-001 3.26231658e-001 8.62357318e-002 8.78590569e-002
      4.59857024e-002 3.67466211e-002 7.90460855e-002 1.55940220e-001
      3.26231658e-001 3.26231658e-001 2.56084561e-001 1.87743977e-001
      4.43426482e-002 3.55649516e-002 3.38724889e-002 3.55429128e-002
      7.32827708e-002 8.03511962e-002 3.13587993e-001 1.95440769e-001
      5.00298850e-002 8.97992030e-002 6.31697476e-002 1.00960173e-001
      1.33802056e-001 1.10819988e-001 9.70936790e-002 1.22063428e-001
      1.41497165e-001 1.13344938e-001 8.75778869e-002 2.61551645e-002
      2.55371109e-002 5.50600290e-002 1.34533167e-001 2.27071971e-001
      3.13587993e-001 3.13587993e-001 5.33002503e-002 1.22878484e-001
      1.11828044e-001 1.49766043e-001 2.17451498e-001 2.84912616e-001
      2.63858706e-001 3.13587993e-001 3.13587993e-001 6.87636212e-002
      1.10580944e-001 5.93842715e-002 1.29661158e-001 1.51598334e-001
      1.25069916e-001 1.02664843e-001 1.28589898e-001 1.42070666e-001
      1.74551249e-001 1.46809444e-001 6.32156432e-002 1.33091047e-001
      1.45853519e-001 1.42762601e-001 1.93172142e-001 2.58392215e-001
      2.58392215e-001 2.13608786e-001 7.54338130e-002 8.23607519e-002
      1.82664230e-001 2.12917909e-001 2.58392215e-001 2.58392215e-001
      1.37845531e-001 1.15302809e-001 6.28788620e-002 7.70219564e-002
      9.91295204e-002 1.79960370e-001 1.78732663e-001 2.58392215e-001
      2.58392215e-001 2.30657861e-001 1.21152781e-001 6.81446418e-002
      3.63799445e-002 2.19579116e-002 4.04608697e-002 5.42489924e-002
      9.54695642e-002 2.72130370e-001 3.09927285e-001 1.59397095e-001
      5.15019074e-002 2.36114226e-002 8.78242590e-003 2.20424104e-002
      5.04047051e-002 1.76744774e-001 3.09927285e-001 3.09927285e-001
      9.86541361e-002 7.79377967e-002 1.98397394e-002 4.25714962e-002
      6.50086924e-002 8.82409662e-002 2.55329520e-001 3.09927285e-001
      2.64116526e-001 5.44450209e-002 1.86427496e-002 3.53130349e-003
      8.13254097e-004 1.33994147e-002 5.45169376e-002 3.09927285e-001
      3.09927285e-001 3.09927285e-001 1.78370420e-002 1.52658448e-002
      4.99733984e-002 1.25643611e-002 7.07669649e-003 3.51828970e-002
      2.26512894e-001 2.54293174e-001 2.63398021e-001 2.32227817e-001
      3.42752300e-002 7.39271119e-002 7.35478625e-002 7.63151869e-002
      9.25784707e-002 1.93004861e-001 1.88759699e-001 2.63398021e-001
      2.63398021e-001 8.49251822e-002 2.49981508e-002 1.76541433e-002
      1.50150685e-002 1.33441970e-001 2.63398021e-001 2.63398021e-001
      2.50821710e-001 1.59080327e-001 5.30140139e-002 4.40161414e-002
      2.11745836e-002 2.34075878e-002 5.82711808e-002 1.87016368e-001
      2.57516265e-001 2.63398021e-001 2.63398021e-001 1.17124900e-001
      5.42359389e-002 9.26726162e-002 1.62564620e-001 1.17082931e-001
      2.32808217e-001 2.32808217e-001 1.41994923e-001 1.60863981e-001
      9.67468247e-002 1.93589218e-002 7.23647326e-002 1.52934507e-001
      1.14397250e-001 2.32808217e-001 2.32808217e-001 1.91636503e-001
      1.54947713e-001 1.12985678e-001 6.32032529e-002 4.58093025e-002
      6.92271665e-002 6.95971474e-002 1.44534722e-001 2.24506631e-001
      2.32808217e-001 2.32808217e-001 1.59370884e-001 9.39733610e-002
      1.22553460e-001 2.32808217e-001 1.83161840e-001 2.01062799e-001
      2.32808217e-001 2.32808217e-001 1.87841654e-001 2.04189956e-001
      3.26716853e-003 2.10627299e-002 4.78528291e-002 1.02099620e-001
      3.02608132e-001 3.02608132e-001 1.87858284e-001 7.70536661e-002
      4.75027338e-002 3.86495539e-003 1.12666208e-002 1.56601761e-002
      9.93865505e-002 3.02608132e-001 3.02608132e-001 1.18831292e-001
      1.03033297e-002 1.05832629e-002 4.76436131e-002 6.76547959e-002
      1.98450193e-001 3.02608132e-001 3.02608132e-001 2.01451078e-001
      2.12918550e-001 7.34006092e-002 6.64602593e-002 5.87350177e-003
      2.37294156e-002 4.81571443e-002 3.02608132e-001 3.02608132e-001
      1.93837613e-001 2.59371195e-002 4.37400956e-003 3.65420640e-003</_>
    <_>
      1.51716881e-002 6.91714324e-003 1.43757779e-002 1.52784616e-001
      3.15068990e-001 2.02290475e-001 1.29090361e-002 1.40938116e-002
      1.40903294e-002 2.75436118e-002 4.26871851e-002 1.26213491e-001
      3.15068990e-001 3.15068990e-001 1.69492811e-001 5.30343838e-002
      4.74169701e-002 1.90147404e-002 8.16623867e-002 9.22789946e-002
      1.41593337e-001 3.15068990e-001 3.15068990e-001 5.99472448e-002
      3.99034657e-002 9.80806872e-002 2.04803839e-001 4.26848941e-002
      6.12443238e-002 2.08543018e-001 3.15068990e-001 3.15068990e-001
      1.61696985e-001 9.56539363e-002 7.48489946e-002 4.53216620e-002
      4.51505333e-002 7.27061406e-002 1.22956231e-001 2.56839275e-001
      1.87913314e-001 1.82212502e-001 2.48373151e-001 1.23537347e-001
      4.64417674e-002 1.24842850e-002 3.05166729e-002 4.81320508e-002
      7.95957744e-002 1.17229365e-001 2.15747491e-001 2.26187065e-001
      6.34039342e-002 2.39092708e-002 4.81125526e-002 6.19208924e-002
      1.40560463e-001 2.80862391e-001 2.80862391e-001 2.80862391e-001
      2.80862391e-001 1.83372214e-001 8.02759454e-002 1.77165959e-002
      2.72788443e-002 4.87103015e-002 6.08170219e-002 2.80862391e-001
      2.80862391e-001 2.80862391e-001 9.40799639e-002 3.52157503e-002
      2.13366430e-002 3.29463631e-002 1.08963773e-001 2.57572085e-001
      3.05404186e-001 2.27894515e-001 8.69158208e-002 3.86537425e-002
      1.22677917e-002 5.69361411e-002 8.85920692e-003 3.71269733e-002
      2.33343944e-001 3.05404186e-001 3.05404186e-001 5.00180572e-002
      5.34504242e-002 3.99573073e-002 5.92782497e-002 7.30227903e-002
      9.27966982e-002 1.10831350e-001 3.05404186e-001 3.05404186e-001
      1.75027475e-001 4.77087423e-002 3.21728513e-002 1.45400628e-001
      1.00065790e-001 8.62216502e-002 1.60712317e-001 3.05404186e-001
      2.74881333e-001 1.06201962e-001 6.78619519e-002 1.03801116e-001
      1.16377927e-001 9.75418612e-002 1.40593782e-001 1.73991591e-001
      1.09588921e-001 2.71124020e-002 9.74771976e-002 2.15624243e-001
      2.09864348e-001 3.65923233e-002 3.35542560e-002 1.55832544e-001
      2.48521879e-001 2.48521879e-001 2.48521879e-001 1.35317549e-001
      1.67393908e-001 7.05017149e-002 1.01519495e-001 5.75666688e-002
      8.61841664e-002 5.65510355e-002 1.04182445e-001 1.56821668e-001
      2.05979779e-001 2.48521879e-001 1.14052027e-001 1.23591900e-001
      3.69266830e-002 1.74641997e-001 2.48521879e-001 2.48521879e-001
      2.48521879e-001 2.48521879e-001 2.48521879e-001 1.24294974e-001
      1.33914016e-002 1.41709819e-002 9.19350237e-002 2.61551112e-001
      2.80394882e-001 2.80394882e-001 1.46061510e-001 7.33941048e-002
      5.83146885e-002 2.37059854e-002 4.00630645e-002 5.20671085e-002
      6.33260086e-002 2.80394882e-001 2.80394882e-001 1.17594600e-001
      3.68029177e-002 3.06286402e-002 1.14006177e-001 4.23989818e-002
      1.64424390e-001 2.77716964e-001 2.80394882e-001 2.80394882e-001
      1.36732429e-001 8.72620344e-002 1.27760217e-001 1.43135801e-001
      1.53389782e-001 1.02085002e-001 1.25816897e-001 2.80394882e-001
      2.49632537e-001 8.18157122e-002 4.73434329e-002 1.06621563e-001
      1.60962626e-001 2.36616045e-001 9.47024673e-002 2.71855835e-002
      2.87354439e-001 2.20185354e-001 8.74075964e-002 2.04106066e-002
      3.97635140e-002 3.09641987e-001 2.82513857e-001 9.01948065e-002
      7.41510838e-002 1.11190051e-001 5.46491779e-002 3.11719850e-002
      1.13336267e-002 6.36771619e-002 3.21518183e-001 3.21518183e-001
      1.24338575e-001 2.35875249e-002 2.07379341e-001 1.23920888e-001
      7.11800382e-002 5.46017624e-002 1.73186928e-001 3.21518183e-001
      3.21518183e-001 1.14048459e-001 3.73249315e-002 1.32204099e-002
      4.17002151e-003 4.05826140e-003 1.54549237e-002 1.17885508e-001
      9.56663191e-002 6.02099895e-002 1.77967757e-001 1.25407413e-001
      7.87284747e-002 1.82293817e-001 1.84139565e-001 1.66029051e-001
      9.44308788e-002 2.32893899e-001 1.14871264e-001 2.32893899e-001
      2.32893899e-001 1.07159354e-001 1.25513747e-001 1.61996320e-001
      1.59249619e-001 1.16947837e-001 1.43860325e-001 1.06751531e-001
      2.32893899e-001 1.43628061e-001 1.42499551e-001 7.49083534e-002
      2.32893899e-001 2.32893899e-001 2.32893899e-001 1.96761191e-001
      1.55259818e-001 2.32893899e-001 2.32893899e-001 1.91359445e-001
      6.33630231e-002 5.98167107e-002 1.57731146e-001 1.52507678e-001
      2.26486847e-001 1.02752075e-001 2.26486847e-001 2.24753037e-001
      2.26486847e-001 1.78218096e-001 1.67571679e-001 1.89939946e-001
      1.98937267e-001 2.26486847e-001 1.81824252e-001 1.15573615e-001
      9.52405035e-002 2.26486847e-001 1.77090362e-001 1.60092264e-001
      2.26486847e-001 2.26486847e-001 1.16635069e-001 7.53297061e-002
      1.49200693e-001 1.11662351e-001 1.65539324e-001 1.04368679e-001
      1.38633445e-001 1.99212834e-001 1.35909051e-001 8.90040025e-002
      2.85971742e-002 3.83741893e-002 2.25724969e-002 9.67032537e-002
      9.65855569e-002 1.75253615e-001 2.26486847e-001 2.20283121e-001
      2.66880482e-001 2.42318064e-001 5.43192700e-002 1.66945159e-002
      6.28382564e-002 4.83726077e-002 8.73504877e-002 2.66880482e-001
      2.30367735e-001 2.66880482e-001 2.66880482e-001 8.90294537e-002
      1.92560423e-002 2.47390904e-002 3.62642817e-002 3.61228883e-002
      1.51596487e-001 1.14067800e-001 1.02012441e-001 5.51534817e-002
      4.00751531e-002 7.37157688e-002 1.32607922e-001 7.97126666e-002
      1.67870000e-001 2.66880482e-001 2.66880482e-001 1.05107971e-001
      1.55960783e-001 7.48224780e-002 1.66390359e-001 2.66880482e-001
      2.32772082e-001 1.52244911e-001 2.66880482e-001 1.80136696e-001</_>
    <_>
      2.55561203e-001 1.31547898e-001 1.24079555e-001 2.55561203e-001
      2.55561203e-001 1.38225093e-001 5.69845550e-002 1.50801381e-002
      1.10744208e-001 1.45482659e-001 1.11392058e-001 7.25218058e-002
      1.33049861e-001 2.55561203e-001 1.88303962e-001 7.32976422e-002
      4.41216454e-002 1.13286145e-001 2.55561203e-001 1.85279116e-001
      1.58722982e-001 1.57998458e-001 2.36120865e-001 1.52963623e-001
      8.24531242e-002 2.50895638e-002 2.55561203e-001 1.82229996e-001
      9.88292396e-002 5.14820516e-002 9.46618691e-002 2.55561203e-001
      2.55561203e-001 1.40964866e-001 1.22375712e-001 1.86452493e-001
      2.36655310e-001 1.56876862e-001 9.55880135e-002 9.28652957e-002
      1.45499170e-001 8.32618698e-002 7.37268478e-002 7.33171254e-002
      2.36655310e-001 2.36655310e-001 1.66961759e-001 7.20583424e-002
      1.40328407e-001 2.36655310e-001 2.30998799e-001 1.22980617e-001
      6.32323101e-002 2.36655310e-001 2.36655310e-001 1.25695169e-001
      9.06825438e-002 8.22043121e-002 1.64577052e-001 1.50868386e-001
      1.08528152e-001 1.92690074e-001 2.36655310e-001 2.36655310e-001
      2.07044899e-001 1.11142501e-001 1.39532343e-001 2.18108371e-001
      1.41630083e-001 7.69612938e-002 9.63156447e-002 2.36655310e-001
      7.29737952e-002 4.87964824e-002 3.57778817e-002 1.03397459e-001
      3.10839564e-001 3.10839564e-001 8.79822001e-002 4.27279137e-002
      8.54231417e-002 2.66332943e-002 3.30121256e-002 5.51683716e-002
      1.00199319e-001 3.10839564e-001 2.85677612e-001 6.62887916e-002
      1.00581564e-001 6.78873286e-002 1.42942011e-001 8.88343379e-002
      8.09757859e-002 1.53188616e-001 3.10839564e-001 3.10839564e-001
      9.49043483e-002 5.57752103e-002 1.20266512e-001 3.19381803e-002
      5.05566262e-002 8.22639018e-002 2.34966278e-001 3.10839564e-001
      3.10839564e-001 9.45020318e-002 7.81689286e-002 5.35480864e-002
      2.72329152e-001 1.21466763e-001 9.79580879e-002 1.32343918e-001
      2.72329152e-001 2.55263329e-001 9.81303602e-002 4.24509607e-002
      2.11114913e-001 2.72329152e-001 1.00881159e-001 1.54943522e-002
      8.25021043e-002 2.72329152e-001 2.72329152e-001 1.72689527e-001
      1.45351738e-001 2.72329152e-001 8.75452980e-002 1.00097559e-001
      5.37192523e-002 6.40141889e-002 9.92569700e-002 1.42193332e-001
      8.30822885e-002 4.94318269e-002 1.16411984e-001 2.72329152e-001
      1.20690092e-001 2.88384166e-002 4.72625569e-002 1.11172080e-001
      1.88293725e-001 1.41755760e-001 9.79750305e-002 2.72329152e-001
      3.34858298e-001 9.74336416e-002 2.17902120e-002 1.93451680e-002
      7.08953813e-002 9.68295187e-002 4.90534380e-002 1.19988084e-001
      3.34858298e-001 3.34858298e-001 1.29842579e-001 5.30888736e-002
      3.71448062e-002 4.94796745e-002 4.22743075e-002 2.03428585e-002
      7.31854439e-002 3.34858298e-001 3.34858298e-001 7.93661550e-002
      1.92634221e-002 1.08738113e-002 1.68975238e-002 3.36366184e-002
      4.25768383e-002 5.86715825e-002 3.34858298e-001 3.34858298e-001
      7.68444911e-002 2.48782877e-002 2.34269109e-002 1.94478482e-002
      1.64355077e-002 2.36628260e-002 7.25391507e-002 3.34858298e-001
      2.68393159e-001 1.22865289e-001 1.14050306e-001 1.53810278e-001
      2.68393159e-001 2.09221974e-001 4.12641615e-002 3.76658775e-002
      2.68393159e-001 1.04482032e-001 6.71077892e-002 1.13767289e-001
      2.68393159e-001 2.68393159e-001 2.68393159e-001 7.70992339e-002
      2.59184502e-002 1.05378002e-001 2.68393159e-001 1.31979987e-001
      9.14248750e-002 1.00118496e-001 8.40794370e-002 4.24495786e-002
      1.60822012e-002 4.80500013e-002 2.68393159e-001 1.95302546e-001
      1.04269065e-001 1.29146650e-001 2.05023110e-001 2.42567435e-001
      1.16532914e-001 6.93771467e-002 5.74606284e-002 2.01983154e-001
      1.28046781e-001 8.60865563e-002 6.41622245e-002 4.59001362e-002
      6.12258092e-002 3.34839709e-002 3.14265937e-002 1.02140240e-001
      1.67231306e-001 2.86327332e-001 1.26682445e-001 1.11056432e-001
      1.04042977e-001 1.45070076e-001 3.09907850e-002 3.88244987e-002
      6.32100925e-002 2.86327332e-001 2.07084522e-001 3.29376422e-002
      5.75900152e-002 5.27480170e-002 1.81474417e-001 4.17050831e-002
      1.43741786e-001 2.86327332e-001 2.86327332e-001 2.86327332e-001
      1.21980079e-001 1.99255794e-001 2.54100263e-001 2.86327332e-001
      1.75072804e-001 4.21383791e-002 1.58984721e-001 2.86327332e-001
      3.16152006e-001 7.19152763e-002 3.33515033e-002 3.08418684e-002
      3.51920687e-002 1.33051937e-002 3.90639491e-002 4.54739258e-002
      3.16152006e-001 3.16152006e-001 6.64267242e-002 1.07574295e-002
      1.89255010e-002 1.79436300e-002 1.61438100e-002 3.90016437e-002
      7.14099631e-002 3.16152006e-001 3.16152006e-001 1.30645812e-001
      1.53751031e-001 1.19672857e-001 2.38962978e-001 7.30122924e-002
      3.10310423e-002 2.88005844e-002 3.16152006e-001 3.16152006e-001
      1.21397898e-001 1.37991220e-001 4.75650430e-002 4.39225882e-002
      3.58659737e-002 7.88813904e-002 9.03048813e-002 3.16152006e-001
      2.79454708e-001 1.03696391e-001 2.77128946e-002 3.42060775e-002
      4.56045121e-002 8.97975937e-002 3.70340124e-002 7.92624354e-002
      2.79454708e-001 2.79454708e-001 9.30213109e-002 5.78634702e-002
      6.24167249e-002 7.91966617e-002 1.64690301e-001 6.48010075e-002
      1.05498284e-001 2.12472826e-001 2.79454708e-001 8.35633352e-002
      6.62192404e-002 5.83279505e-002 1.67911559e-001 2.67638803e-001
      9.92688984e-002 1.50495142e-001 2.79454708e-001 2.79454708e-001
      6.04037344e-002 1.80242863e-002 4.39596027e-002 2.39219576e-001
      2.79454708e-001 1.25551313e-001 1.86576486e-001 2.22452149e-001</_>
    <_>
      1.52165920e-001 1.24127576e-002 4.58350852e-002 1.22880012e-001
      2.09290788e-001 1.53048649e-001 7.56348446e-002 2.60974050e-001
      2.77007818e-001 1.80230543e-001 1.29099607e-001 8.27025995e-002
      1.86096042e-001 2.77007818e-001 2.77007818e-001 1.23670980e-001
      2.10638955e-001 2.77007818e-001 8.17666948e-002 2.62120422e-002
      3.39752808e-002 7.55812451e-002 1.18017830e-001 1.27845928e-001
      7.78745562e-002 1.64771944e-001 2.45341673e-001 6.30725175e-002
      3.85590158e-002 3.32204476e-002 1.03480056e-001 2.77007818e-001
      2.77007818e-001 9.61449295e-002 1.65062711e-001 1.15319043e-001
      7.73310065e-002 1.50820389e-001 7.18455091e-002 1.54895276e-001
      2.64850914e-001 2.01543853e-001 8.58747512e-002 4.48443629e-002
      9.91263017e-002 1.17056936e-001 1.92835003e-001 1.39381751e-001
      2.64850914e-001 2.64850914e-001 2.60999680e-001 2.64850914e-001
      2.64850914e-001 1.29417807e-001 1.15124006e-002 2.90766228e-002
      1.53905461e-002 8.37851390e-002 2.64850914e-001 2.64850914e-001
      4.47681211e-002 3.11866701e-002 1.58714689e-002 5.58010451e-002
      3.04686055e-002 2.29169000e-002 8.00320506e-002 2.07647309e-001
      1.49170488e-001 2.64850914e-001 2.64850914e-001 7.30521679e-002
      9.50005054e-002 9.94581953e-002 5.37812561e-002 4.19121273e-002
      1.06264129e-001 8.93065780e-002 2.85663694e-001 2.85663694e-001
      2.62661606e-001 2.85663694e-001 1.14316672e-001 4.24051844e-002
      1.61254946e-002 6.55794740e-002 7.57021606e-002 1.58014297e-001
      2.85663694e-001 2.85663694e-001 5.66500574e-002 1.65227056e-002
      1.87798720e-002 2.54917834e-002 5.65157644e-002 6.04705550e-002
      2.07327724e-001 2.85663694e-001 1.60252094e-001 2.85663694e-001
      3.85886058e-002 2.74305958e-002 3.46874930e-002 5.76597638e-002
      5.25670238e-002 1.05955824e-001 2.85663694e-001 2.85663694e-001
      3.06805372e-002 3.57637629e-002 4.08499986e-002 1.18096493e-001
      2.58696437e-001 1.98616609e-001 9.22838673e-002 6.21325709e-002
      7.70381466e-002 1.74791459e-002 2.14140080e-002 2.58746240e-002
      1.86169446e-001 3.88644427e-001 3.88644427e-001 1.28547251e-001
      6.08260296e-002 4.88148369e-002 1.07317820e-001 8.78481567e-002
      5.76596893e-002 1.01232857e-001 1.86553329e-001 2.01039270e-001
      8.15102309e-002 7.12991804e-002 9.27903056e-002 7.70762190e-002
      4.77724075e-002 4.16752174e-002 1.18917406e-001 3.88644427e-001
      3.88644427e-001 1.52599424e-001 1.08951561e-001 5.56597114e-002
      3.93436709e-003 1.45687750e-002 1.56479236e-002 1.41990334e-001
      3.30126464e-001 3.30126464e-001 5.21081090e-002 1.30647859e-002
      4.94489400e-003 1.67297591e-002 2.16719564e-002 3.25563066e-002
      1.36856109e-001 3.30126464e-001 2.58778840e-001 8.52458701e-002
      7.35706985e-002 1.95797905e-002 1.21987417e-001 5.10959774e-002
      5.19110933e-002 1.11229658e-001 3.30126464e-001 3.30126464e-001
      5.38540296e-002 5.81954680e-002 4.55158986e-002 1.50333568e-001
      4.26832736e-002 5.80631904e-002 1.83729753e-001 3.30126464e-001
      3.30126464e-001 3.99084538e-002 3.45540456e-002 6.67127967e-002
      4.31259349e-002 2.04503573e-002 4.67567481e-002 1.28538862e-001
      2.78918654e-001 2.65331566e-001 1.21987753e-001 1.42796010e-001
      8.24728832e-002 1.90690860e-001 3.74686718e-002 7.99606293e-002
      2.16773912e-001 2.78918654e-001 2.78918654e-001 1.59744382e-001
      1.42366916e-001 2.11310133e-001 5.77466637e-002 4.16833758e-002
      6.13519959e-002 1.20287202e-001 2.78918654e-001 2.68166214e-001
      6.86083585e-002 3.92194279e-002 2.38485541e-002 6.69224933e-002
      6.16986342e-002 1.12086952e-001 1.40343204e-001 2.78918654e-001
      2.78918654e-001 2.53056407e-001 8.90761167e-002 2.89596524e-002
      1.48226887e-001 7.90487602e-002 3.55875827e-002 3.76958884e-002
      5.85517772e-002 9.31340083e-002 5.72500564e-002 9.27169323e-002
      1.54767230e-001 1.95644468e-001 6.54462725e-002 6.54521510e-002
      5.67566678e-002 2.77357519e-001 2.77357519e-001 1.64042771e-001
      1.90715760e-001 1.60459206e-001 2.77357519e-001 5.57524152e-002
      2.44844314e-002 1.54873403e-002 1.36323065e-001 9.72971693e-002
      5.75412288e-002 8.05987194e-002 2.77357519e-001 2.77357519e-001
      9.75698084e-002 1.11456953e-001 1.51284590e-001 2.77357519e-001
      2.77357519e-001 2.19632328e-001 1.70310855e-001 2.77357519e-001
      2.48775244e-001 8.18153992e-002 7.48300999e-002 4.96601909e-002
      2.36031070e-001 2.17626810e-001 5.29772155e-002 8.36499035e-002
      1.68456271e-001 2.48775244e-001 6.18846864e-002 5.26326559e-002
      8.54580775e-002 2.48775244e-001 1.75289869e-001 4.13120873e-002
      3.85670289e-002 2.19697610e-001 2.48775244e-001 7.71025196e-002
      9.25412476e-002 1.10003032e-001 2.48775244e-001 2.48775244e-001
      1.11585043e-001 8.14262852e-002 2.09319085e-001 2.48775244e-001
      4.75888625e-002 5.39792888e-002 1.58721566e-001 2.48775244e-001
      2.48775244e-001 8.24771300e-002 5.95098622e-002 2.41221726e-001
      2.00861201e-001 4.69128340e-002 5.86358942e-002 1.23155445e-001
      2.72479296e-001 2.38870502e-001 8.22167695e-002 5.35216704e-002
      1.03332415e-001 1.07374758e-001 6.23151213e-002 1.04495049e-001
      9.73372757e-002 2.72479296e-001 2.72479296e-001 2.72479296e-001
      1.39833421e-001 4.45536822e-002 1.96289510e-001 3.75240035e-002
      5.97282015e-002 1.95070133e-001 2.72479296e-001 2.38745883e-001
      9.50503424e-002 5.83996065e-002 1.26839608e-001 9.36011523e-002
      6.12167828e-002 6.24438338e-002 6.30199313e-002 2.72479296e-001
      2.72479296e-001 2.72479296e-001 1.21698946e-001 7.19703138e-002</_>
    <_>
      1.69053569e-001 2.37280563e-001 1.55985132e-001 7.68791065e-002
      5.29539473e-002 8.17881525e-002 1.29282132e-001 2.37280563e-001
      1.96479008e-001 5.54818437e-002 2.14920074e-001 2.37280563e-001
      2.37280563e-001 1.37369901e-001 1.95736155e-001 2.37280563e-001
      2.37280563e-001 6.68323562e-002 1.92062393e-001 2.37280563e-001
      2.37280563e-001 2.37280563e-001 1.07874684e-001 5.61034344e-002
      2.43153628e-002 3.35959494e-002 6.59372732e-002 7.25057423e-002
      2.20292106e-001 2.37280563e-001 2.37280563e-001 1.20479152e-001
      9.80975777e-002 5.76792881e-002 5.26605099e-002 4.46186475e-002
      9.25575942e-002 2.43580952e-001 2.77947903e-001 2.77947903e-001
      2.77947903e-001 2.77947903e-001 2.77947903e-001 2.23268956e-001
      1.00072391e-001 5.94927818e-002 5.47991097e-002 1.09042600e-001
      1.55208573e-001 9.33397114e-002 5.65911680e-002 1.05998665e-001
      9.99073461e-002 6.10229559e-002 9.47342739e-002 2.37274200e-001
      2.77947903e-001 2.77947903e-001 1.35976940e-001 1.61408141e-001
      1.64140493e-001 1.65454879e-001 1.17279969e-001 5.16017452e-002
      4.13299613e-002 7.79772773e-002 7.27797151e-002 9.55646709e-002
      4.11614515e-002 1.10028014e-001 1.58463061e-001 8.72759148e-002
      1.01099245e-001 7.97957480e-002 1.10142991e-001 1.26192257e-001
      2.24471122e-001 1.29520804e-001 1.20838150e-001 2.59546995e-001
      2.51972795e-001 2.74214208e-001 7.36878738e-002 2.71520652e-002
      1.14426082e-002 1.12862587e-001 3.93109508e-002 3.27221602e-002
      1.40314102e-001 2.74214208e-001 1.71485737e-001 7.54799843e-002
      7.99270496e-002 1.03857219e-001 2.08692104e-001 5.20589054e-002
      1.43182188e-001 2.74214208e-001 2.74214208e-001 2.74214208e-001
      1.21959254e-001 2.73854770e-002 1.49815315e-002 1.15249418e-001
      1.38879865e-001 6.95702210e-002 2.74214208e-001 2.74214208e-001
      9.29674432e-002 1.58827141e-001 2.74369210e-001 2.74369210e-001
      1.44902885e-001 1.00224070e-001 2.80535724e-002 8.16179886e-002
      1.13816991e-001 6.54645413e-002 7.08870515e-002 1.44511446e-001
      1.59808025e-001 9.56697613e-002 6.22505881e-002 4.59901728e-002
      1.37488350e-001 1.08063132e-001 1.30607545e-001 2.09917709e-001
      2.74369210e-001 2.59852648e-001 1.57621726e-001 1.74416482e-001
      9.50922370e-002 2.74369210e-001 2.61199594e-001 1.33586779e-001
      8.58562067e-002 1.09904073e-001 5.90952411e-002 9.37405005e-002
      1.38940588e-001 1.69579655e-001 2.74369210e-001 2.74369210e-001
      1.26904249e-001 9.13526565e-002 1.26932070e-001 1.37622297e-001
      9.47281718e-002 9.69567522e-002 7.51545280e-002 1.82119548e-001
      1.07198238e-001 3.66956070e-002 4.21498343e-002 1.15707867e-001
      8.54380950e-002 8.56112167e-002 5.63752130e-002 4.50617373e-002
      4.81267422e-002 5.02041690e-002 2.12512106e-001 8.33526477e-002
      1.01737149e-001 1.27763003e-001 2.81516045e-001 3.34585518e-001
      3.34585518e-001 3.34585518e-001 3.34585518e-001 4.95087281e-002
      7.76846781e-002 2.05195844e-001 1.65802583e-001 2.16641918e-001
      2.53047854e-001 1.33918494e-001 1.05016127e-001 5.87615743e-002
      1.27467901e-001 1.11305594e-001 2.13929847e-001 1.82539999e-001
      2.45229349e-001 1.09544560e-001 1.35510385e-001 1.76776618e-001
      2.11293042e-001 1.94660619e-001 9.02186260e-002 5.66145778e-002
      4.06763963e-002 2.45229349e-001 1.81090221e-001 9.49010551e-002
      1.50843695e-001 2.45229349e-001 1.01338960e-001 2.19540864e-001
      2.45229349e-001 2.45229349e-001 2.45229349e-001 2.31567994e-001
      1.84628293e-001 1.16746642e-001 1.34537056e-001 1.34498134e-001
      8.07372034e-002 9.16836336e-002 5.29004149e-002 2.45229349e-001
      8.16706419e-002 9.84564945e-002 7.01075420e-002 1.10269956e-001
      1.45988911e-001 1.48138434e-001 1.71926960e-001 7.95724317e-002
      7.10612759e-002 9.16662738e-002 1.15855902e-001 2.39469931e-001
      1.78719833e-001 1.51624411e-001 1.35722190e-001 1.47029653e-001
      2.41011586e-002 1.09710410e-001 1.99683502e-001 1.95527613e-001
      2.77567416e-001 2.39979431e-001 2.77567416e-001 2.77567416e-001
      2.02735081e-001 3.61841172e-002 5.45886271e-002 2.15638243e-002
      7.23137036e-002 8.90540630e-002 2.31178433e-001 2.31600881e-001
      2.77567416e-001 2.77567416e-001 4.77117598e-002 8.04015920e-002
      8.26450139e-002 6.88543841e-002 7.71979243e-002 1.13966510e-001
      9.04056728e-002 1.09092340e-001 2.30554059e-001 9.52551439e-002
      2.90984750e-001 2.90984750e-001 2.77146250e-001 2.90984750e-001
      1.63880676e-001 1.62195992e-002 5.74306734e-002 1.03531741e-001
      9.58704874e-002 2.31030867e-001 1.89874485e-001 8.22605267e-002
      6.58410564e-002 2.99846306e-002 1.17269114e-001 2.90984750e-001
      2.90984750e-001 1.14104949e-001 2.74348140e-001 1.81154042e-001
      8.14660937e-002 1.01591095e-001 4.80321944e-002 6.40516877e-002
      1.67399973e-001 1.59545764e-001 7.80800879e-002 1.74370155e-001
      8.90405625e-002 4.20146734e-002 4.63753939e-002 5.30645102e-002
      6.34842589e-002 1.70333654e-001 1.77079812e-001 1.65357694e-001
      2.29327977e-001 1.20797634e-001 1.20319851e-001 7.98870623e-002
      1.02621868e-001 1.52613357e-001 1.29354507e-001 1.10348955e-001
      4.99747396e-002 1.05487563e-001 5.77715598e-002 9.33311284e-002
      5.17014377e-002 1.22283854e-001 1.62773073e-001 2.36212417e-001
      1.88289359e-001 1.51927844e-001 2.27283895e-001 1.85319349e-001
      1.67843044e-001 1.33427083e-001 1.78175524e-001 2.36212417e-001
      2.36212417e-001 2.36212417e-001 2.36212417e-001 1.75443366e-001
      2.05138952e-001 2.02093542e-001 1.36829317e-001 2.27292284e-001</_>
    <_>
      2.07763031e-001 6.00508898e-002 1.82097796e-002 1.90618709e-002
      1.25857875e-001 2.38687590e-001 1.77111760e-001 2.38489792e-001
      2.79799819e-001 2.01772466e-001 2.50144631e-001 1.36030957e-001
      1.49732664e-001 6.50464445e-002 2.78818384e-002 1.04897358e-001
      2.31556341e-001 2.79799819e-001 1.05358176e-001 4.45155986e-002
      5.60058095e-003 7.86628388e-003 1.82289500e-002 7.95145184e-002
      1.78453118e-001 2.79799819e-001 2.79799819e-001 9.64621827e-002
      8.24435949e-002 4.88982126e-002 1.24002926e-001 4.69614528e-002
      1.84987392e-002 1.30460277e-001 2.79799819e-001 2.79799819e-001
      1.03946976e-001 2.63665080e-001 2.63665080e-001 2.63665080e-001
      2.04444855e-001 4.16732207e-002 4.63321730e-002 7.52897486e-002
      1.14643753e-001 7.95554668e-002 7.84687921e-002 1.61068231e-001
      2.63665080e-001 2.63665080e-001 1.16558492e-001 4.47119959e-002
      2.49001477e-002 3.38708051e-002 1.92718610e-001 1.05174989e-001
      6.96732700e-002 2.39729539e-001 1.25331596e-001 7.11536705e-002
      1.24772444e-001 2.63665080e-001 2.63665080e-001 2.63665080e-001
      1.25195116e-001 3.23853530e-002 1.44889668e-001 1.54475138e-001
      9.97462645e-002 8.16730633e-002 1.24693178e-001 2.63665080e-001
      1.80231050e-001 4.28573862e-002 2.25476101e-002 2.31981754e-001
      3.15503478e-001 2.26998717e-001 1.57001153e-001 7.00408891e-002
      1.15568995e-001 2.32451588e-001 9.08853635e-002 2.42082160e-002
      1.80732030e-002 9.71766412e-002 9.10100937e-002 1.27029866e-001
      1.36259317e-001 2.06638128e-001 3.15503478e-001 1.35231167e-001
      9.49634705e-003 5.44220582e-002 1.05454132e-001 1.16246492e-001
      1.31545290e-001 1.13293685e-001 3.15503478e-001 3.15503478e-001
      1.18657842e-001 2.51979451e-003 4.90719394e-004 8.12069420e-003
      4.25129980e-002 1.30800873e-001 2.20307142e-001 3.15503478e-001
      6.23880737e-002 6.40479177e-002 1.60550717e-002 1.84308309e-002
      2.02115215e-002 3.44403274e-002 1.50290877e-001 3.06624234e-001
      2.12638229e-001 9.39018801e-002 5.10161482e-002 5.58380000e-002
      6.09229505e-002 3.70766409e-002 3.37548628e-002 2.23795384e-001
      3.06624234e-001 3.03905040e-001 1.20962083e-001 1.02496617e-001
      8.79099146e-002 5.96524030e-002 2.65491400e-002 4.52752039e-002
      1.87861487e-001 3.06624234e-001 1.25487342e-001 2.01668084e-001
      1.99266806e-001 2.94933587e-001 1.71481580e-001 5.47275878e-002
      4.60253879e-002 1.53861523e-001 3.06624234e-001 2.52772301e-001
      1.87047929e-001 6.64416701e-002 3.68819721e-002 3.58628631e-002
      3.52938883e-002 6.02715947e-002 2.38772079e-001 2.71594822e-001
      2.71594822e-001 2.71594822e-001 1.12371884e-001 2.22586971e-002
      1.17261317e-002 2.17795782e-002 5.47766201e-002 1.34523407e-001
      2.71594822e-001 2.71594822e-001 2.28372648e-001 9.16055068e-002
      1.18433803e-001 5.28499112e-002 2.64450498e-002 3.72868851e-002
      1.40550137e-001 2.71594822e-001 2.71594822e-001 2.71594822e-001
      9.98739153e-002 6.99530765e-002 3.71784046e-002 3.12774405e-002
      5.06735854e-002 1.18661776e-001 2.48103961e-001 2.71594822e-001
      3.15767497e-001 1.65809065e-001 2.16128342e-002 3.67185753e-003
      7.19374744e-003 1.18256407e-002 2.87311766e-002 9.95940566e-002
      3.15767497e-001 3.15767497e-001 1.71973035e-001 1.22458385e-002
      3.15708894e-004 0. 8.20806436e-003 2.91157588e-002 7.24982098e-002
      3.15767497e-001 3.15767497e-001 2.11057737e-001 9.66623649e-002
      6.03206567e-002 3.04413196e-002 2.38857213e-002 5.32720946e-002
      1.07308663e-001 2.42105082e-001 3.15767497e-001 2.92255521e-001
      3.91677953e-002 1.13205947e-002 6.13830937e-003 9.14341770e-004
      1.71058122e-002 6.83851838e-002 3.15767497e-001 2.55036712e-001
      2.03478068e-001 1.78516015e-001 1.04606554e-001 5.56117184e-002
      5.12443967e-002 1.79728150e-001 2.55036712e-001 2.55036712e-001
      2.55036712e-001 2.55036712e-001 2.55036712e-001 2.55036712e-001
      1.90089971e-001 1.54751867e-001 1.55772671e-001 1.40100703e-001
      2.55036712e-001 1.39382035e-001 7.39280805e-002 5.58457524e-002
      4.02688347e-002 6.97345138e-002 5.30924834e-002 9.73685905e-002
      1.48328215e-001 1.33379802e-001 1.00976951e-001 1.19461440e-001
      8.56989622e-002 4.97174487e-002 1.38142154e-001 1.69755891e-001
      2.55036712e-001 1.01523452e-001 8.22777525e-002 2.54070729e-001
      1.91828340e-001 2.06635728e-001 9.97809768e-002 1.44975096e-001
      1.28543198e-001 1.18693605e-001 1.01960585e-001 2.54070729e-001
      2.54070729e-001 2.39142120e-001 1.68398395e-001 2.30439886e-001
      1.43134698e-001 7.66338482e-002 1.02578603e-001 1.03428312e-001
      2.54070729e-001 1.02224156e-001 2.34098271e-001 1.34282470e-001
      2.50489935e-002 9.59432945e-002 1.42773971e-001 2.54070729e-001
      8.32772404e-002 5.50656468e-002 2.04162970e-001 2.54070729e-001
      2.02492654e-001 1.48172155e-001 1.65179670e-001 8.01734254e-002
      7.97610432e-002 3.53893861e-002 5.48349544e-002 2.59913325e-001
      2.46618196e-001 2.17239693e-001 2.59913325e-001 1.83775082e-001
      5.91537356e-002 1.18042134e-001 1.27516076e-001 2.04892576e-001
      2.59913325e-001 2.59913325e-001 7.38662258e-002 5.30621447e-002
      7.28047267e-002 1.23804417e-002 1.07173160e-001 1.70520529e-001
      2.59913325e-001 1.05813488e-001 1.81613937e-001 1.33530155e-001
      2.01957583e-001 2.59913325e-001 1.58292994e-001 1.06280893e-001
      5.55683710e-002 5.50010465e-002 1.74826339e-001 9.92553383e-002
      6.62389696e-002 4.58318889e-002 2.25233316e-001 1.16610512e-001
      1.10175863e-001 1.41012013e-001 1.78339407e-001</_>
    <_>
      2.72365481e-001 8.68814439e-002 7.67866820e-002 1.37663826e-001
      2.46669203e-001 2.84377262e-002 3.78006026e-002 4.64733727e-002
      2.72365481e-001 2.72365481e-001 7.81464204e-002 3.64369191e-002
      1.11511730e-001 1.76224157e-001 1.83207449e-002 2.01822463e-002
      4.67748903e-002 2.72365481e-001 2.72365481e-001 1.57857046e-001
      2.10761324e-001 2.66957074e-001 2.72365481e-001 5.86179607e-002
      3.92471924e-002 1.89776029e-002 1.87520146e-001 2.72365481e-001
      1.12538278e-001 1.10520564e-001 1.57924846e-001 1.61380529e-001
      3.29572335e-002 2.61622202e-002 2.05830857e-002 2.59499162e-001
      3.52729708e-001 2.08277721e-002 7.77113484e-003 1.71200335e-002
      1.02511616e-002 5.97378705e-003 9.91674978e-003 1.71361119e-002
      3.52729708e-001 3.52729708e-001 1.93256605e-002 7.59935193e-003
      9.31128953e-003 4.14618384e-003 5.38721448e-003 1.77481994e-002
      1.65921748e-002 3.52729708e-001 3.52729708e-001 4.11195271e-002
      2.91894097e-002 3.88412215e-002 1.57990456e-002 1.50879472e-002
      2.26094518e-002 9.94991325e-003 3.38527441e-001 3.52729708e-001
      2.33226847e-002 1.80137102e-002 2.84154974e-002 1.27668008e-002
      1.79351233e-002 3.15409638e-002 1.33602172e-002 3.52729708e-001
      3.47433150e-001 6.48643598e-002 1.45874312e-002 5.64962020e-003
      4.95551899e-003 3.46474163e-003 9.96533409e-003 1.12979449e-002
      3.47433150e-001 3.47433150e-001 1.57692030e-001 5.33923358e-002
      2.54299194e-002 1.10184131e-002 4.85869031e-003 6.58002961e-003
      4.04190551e-003 3.47433150e-001 3.47433150e-001 4.66510020e-002
      8.11974425e-003 3.59711517e-003 1.16319451e-002 1.10596092e-002
      1.91054940e-002 1.44391106e-002 3.47433150e-001 3.47433150e-001
      1.23242810e-001 4.26008366e-002 1.87572669e-002 2.12149788e-002
      1.53287342e-002 2.56134793e-002 1.54216141e-002 3.10249954e-001
      2.33378813e-001 2.75976241e-001 2.78574079e-001 2.78574079e-001
      2.78574079e-001 6.37358874e-002 2.12916601e-002 9.74325743e-003
      1.46720707e-001 1.19387910e-001 7.86419362e-002 2.54194766e-001
      2.78574079e-001 2.03250214e-001 3.98871452e-002 2.85336059e-002
      1.77016836e-002 5.04515544e-002 2.48601168e-001 2.54725248e-001
      2.78574079e-001 2.78574079e-001 1.61783099e-001 5.89865670e-002
      1.48437414e-002 1.97192803e-002 1.58286437e-001 4.00864072e-002
      5.72289489e-002 1.40216529e-001 1.42868102e-001 1.12514339e-001
      4.43085842e-002 2.58963220e-002 1.19242081e-002 2.84123011e-002
      2.41770536e-001 1.30648702e-001 1.20185331e-001 1.63194105e-001
      1.73477367e-001 9.08824056e-002 1.31198287e-001 9.55509469e-002
      2.41770536e-001 2.41770536e-001 1.31466165e-001 5.18063568e-002
      8.59910548e-002 1.26774058e-001 1.22350827e-001 1.56426147e-001
      1.74920097e-001 2.41770536e-001 2.41770536e-001 1.26656741e-001
      1.19514517e-001 1.57599375e-001 2.40727186e-001 1.05854511e-001
      1.05752446e-001 9.74667296e-002 2.41770536e-001 2.41770536e-001
      1.47238895e-001 4.90082577e-002 8.18653181e-002 1.66712701e-001
      1.39348641e-001 1.10449277e-001 2.41770536e-001 2.41770536e-001
      2.65214443e-001 1.61119521e-001 5.13235033e-002 2.80738305e-002
      7.97842070e-002 1.01952732e-001 1.22306660e-001 1.85118362e-001
      2.65214443e-001 2.65214443e-001 2.65214443e-001 1.91885814e-001
      1.39537901e-001 1.37841120e-001 9.55585465e-002 1.56548053e-001
      1.54265806e-001 2.65214443e-001 1.30419329e-001 1.03993751e-001
      4.21360880e-002 4.77927849e-002 1.31299958e-001 1.30672380e-001
      1.31030962e-001 2.65214443e-001 1.89724326e-001 2.65214443e-001
      2.09964588e-001 1.05226845e-001 4.44757938e-002 1.39943510e-001
      8.29868093e-002 1.08443774e-001 1.74002036e-001 1.78535670e-001
      1.86271414e-001 1.69949263e-001 2.07990468e-001 1.82997540e-001
      1.02984391e-001 6.31680712e-002 4.39605191e-002 5.13915345e-002
      1.63999766e-001 5.57999276e-002 5.57710081e-002 7.92117864e-002
      9.18980688e-002 1.12809472e-001 7.67171681e-002 8.06834325e-002
      5.42032272e-002 5.47875911e-002 2.65871555e-001 2.65871555e-001
      2.03612030e-001 1.56727403e-001 1.41298816e-001 2.65871555e-001
      2.65871555e-001 2.65871555e-001 2.65871555e-001 1.86546907e-001
      7.32145384e-002 5.82019053e-002 2.74151787e-002 8.68282318e-002
      9.36054066e-002 2.16463044e-001 2.65871555e-001 2.65871555e-001
      2.11654142e-001 1.03305645e-001 6.82459697e-002 9.48032439e-002
      1.15841456e-001 1.06264688e-001 1.39080882e-001 1.06816627e-001
      1.64315358e-001 2.49443114e-001 1.42923340e-001 7.87719041e-002
      1.06026120e-001 8.96993130e-002 6.39049113e-002 7.90880993e-002
      1.78498194e-001 2.41933450e-001 2.58173704e-001 1.57644972e-001
      3.77787352e-002 2.83501036e-002 7.66565651e-002 5.97622730e-002
      2.17691794e-001 2.82964408e-001 2.82964408e-001 2.82964408e-001
      2.03784108e-001 9.27607045e-002 1.16478518e-001 9.93330404e-002
      2.52554920e-002 1.07688874e-001 2.82964408e-001 2.82964408e-001
      9.97774825e-002 8.03986564e-002 4.34909277e-002 5.69902882e-002
      9.86242592e-002 5.72049022e-002 5.86451218e-002 1.58345863e-001
      1.40390188e-001 2.59206712e-001 1.20193951e-001 6.60985410e-002
      6.15580902e-002 1.91409633e-001 1.24422386e-001 5.94295599e-002
      1.30762011e-001 1.81752816e-001 1.80517644e-001 1.07606493e-001
      1.36526853e-001 1.38313055e-001 1.75597638e-001 3.86311710e-002
      7.19820261e-002 2.63283551e-001 2.63283551e-001 2.63283551e-001
      2.63283551e-001 2.63283551e-001 1.84928492e-001 2.63283551e-001
      1.39426544e-001 5.92262670e-002 2.39154220e-001 2.63283551e-001</_>
    <_>
      3.78939450e-001 1.20817581e-002 1.50287189e-002 1.00530684e-002
      2.70152069e-003 7.96123222e-003 1.01815695e-002 1.60796102e-002
      3.78939450e-001 3.78939450e-001 2.62177717e-002 1.88357327e-002
      8.84791370e-003 4.45916317e-003 1.61963329e-002 1.47370407e-002
      2.75423918e-002 3.78939450e-001 3.29756409e-001 1.47526115e-002
      1.47255566e-002 7.85554107e-003 1.57636113e-003 1.45697342e-002
      2.20979936e-002 2.52766460e-002 2.73063600e-001 3.47627848e-001
      5.11956736e-002 3.59073952e-002 2.46363692e-002 9.73912049e-003
      2.34163944e-002 3.09597477e-002 4.60424311e-002 3.22992623e-001
      3.81577224e-001 6.20688163e-002 1.44799072e-002 4.89182351e-003
      9.83027276e-003 2.36039031e-002 1.83429252e-002 3.35220508e-002
      3.81577224e-001 3.81577224e-001 7.95460865e-002 1.05131380e-002
      6.54743332e-003 2.68422794e-002 1.84694789e-002 1.74496006e-002
      9.36998352e-002 3.81577224e-001 2.94143200e-001 1.15195490e-001
      5.29343709e-002 4.06735390e-002 2.83855759e-002 4.01411951e-002
      5.01128659e-002 5.34394756e-002 2.23498970e-001 3.46576214e-001
      1.20413996e-001 6.23897761e-002 4.64822911e-002 3.97928394e-002
      4.11595330e-002 3.62941995e-002 9.39666107e-002 2.73644805e-001
      3.42738360e-001 4.06846181e-002 6.33356115e-003 8.06958415e-003
      2.57594232e-002 1.75708663e-002 1.60816424e-002 7.33330175e-002
      3.42738360e-001 3.42738360e-001 6.21304885e-002 1.55732892e-002
      9.75898933e-003 4.42463905e-002 6.26820996e-002 8.22454467e-002
      8.04905817e-002 3.42738360e-001 3.42738360e-001 7.62293264e-002
      3.26254815e-002 3.60863842e-002 2.10116562e-002 3.85994539e-002
      2.67571863e-002 7.00918883e-002 2.76973516e-001 3.42738360e-001
      6.81793243e-002 2.93538794e-002 6.53871223e-002 1.36227667e-001
      8.84170681e-002 9.49365720e-002 7.04643577e-002 3.42738360e-001
      2.80984670e-001 1.49582624e-001 1.18504494e-001 7.04278499e-002
      2.16581505e-002 1.65120084e-002 4.56122234e-002 1.38529792e-001
      2.80984670e-001 2.80984670e-001 2.37950221e-001 1.40249535e-001
      1.27634853e-001 6.61490932e-002 1.99485179e-002 7.86804482e-002
      1.87350526e-001 2.80984670e-001 2.80984670e-001 2.07564577e-001
      1.44456893e-001 1.08696170e-001 3.15823592e-002 2.61839330e-002
      7.18852282e-002 1.16802990e-001 2.58917421e-001 2.80984670e-001
      1.95690066e-001 1.10886976e-001 1.00192837e-001 6.16340302e-002
      9.33518074e-003 5.02869524e-002 1.10217072e-001 2.80984670e-001
      2.60079622e-001 2.71520227e-001 1.30843788e-001 9.24365968e-002
      6.78620860e-002 3.81083526e-002 6.67266697e-002 1.02643922e-001
      2.71520227e-001 2.71520227e-001 2.71520227e-001 2.71520227e-001
      1.80757374e-001 8.63374844e-002 6.05485961e-002 4.00545709e-002
      7.02703670e-002 2.71520227e-001 1.75402015e-001 1.48220390e-001
      8.10781121e-002 3.35996039e-002 4.48797308e-002 1.73537340e-002
      2.45678890e-002 5.52816018e-002 2.10330695e-001 2.71520227e-001
      2.71520227e-001 2.04522967e-001 8.59138593e-002 5.53944223e-002
      3.89479510e-002 3.43952924e-002 5.88125736e-002 2.71520227e-001
      2.64597386e-001 2.13238195e-001 1.17408425e-001 8.70279819e-002
      2.62375250e-002 3.07813007e-002 8.83265957e-002 9.84450653e-002
      2.61623204e-001 2.64597386e-001 1.73195496e-001 6.13802932e-002
      1.08036660e-001 1.10640712e-001 6.09562322e-002 2.36275136e-001
      2.21180663e-001 2.64597386e-001 2.64597386e-001 1.61963463e-001
      8.12103450e-002 5.26500419e-002 2.86769103e-002 2.36105379e-002
      1.18845135e-001 1.12835526e-001 1.36947572e-001 2.62101859e-001
      1.63015082e-001 5.79105467e-002 5.61291352e-002 3.16555128e-002
      4.16992567e-002 2.64597386e-001 2.64597386e-001 2.63882965e-001
      2.34820411e-001 1.35402620e-001 8.42406973e-002 9.18908119e-002
      6.40487447e-002 8.53468329e-002 2.34820411e-001 2.34820411e-001
      2.34820411e-001 2.08147824e-001 1.19559847e-001 7.43085966e-002
      7.22763985e-002 7.27838054e-002 3.29481103e-002 1.93733677e-001
      2.22311184e-001 2.10046098e-001 2.34820411e-001 2.01671407e-001
      1.39405608e-001 4.65522483e-002 9.33117643e-002 8.67849812e-002
      2.23448366e-001 1.95551053e-001 2.34820411e-001 2.06170857e-001
      1.11144550e-001 4.75638732e-002 5.50303720e-002 1.32907808e-001
      7.62142017e-002 2.34820411e-001 2.34820411e-001 2.34820411e-001
      1.45313174e-001 1.17979407e-001 7.87846968e-002 5.23127131e-002
      8.20539817e-002 1.04692113e-002 8.11945572e-002 1.54483899e-001
      1.85045451e-001 2.45348737e-001 2.45348737e-001 1.01206809e-001
      6.08509742e-002 7.69311115e-002 2.23978292e-002 7.48692527e-002
      1.83219939e-001 2.45348737e-001 1.81507230e-001 1.32830471e-001
      7.74850994e-002 9.19209197e-002 2.30210021e-001 9.03618112e-002
      1.42856061e-001 2.15291411e-001 2.32843220e-001 2.45348737e-001
      2.45348737e-001 2.33224109e-001 1.76589370e-001 2.45348737e-001
      1.07931018e-001 1.07794814e-001 2.12343886e-001 2.45348737e-001
      2.56014585e-001 2.57180214e-001 1.36985838e-001 4.64607216e-002
      3.81134041e-002 1.72074940e-002 7.94373080e-002 9.82068628e-002
      1.35965511e-001 2.57180214e-001 2.57180214e-001 2.54451931e-001
      8.91571417e-002 3.88491750e-002 3.02584507e-002 1.50994539e-001
      1.89355239e-001 2.57180214e-001 2.57180214e-001 2.57180214e-001
      1.71759591e-001 7.30417520e-002 1.11296587e-001 1.30218584e-002
      1.19168190e-002 4.58579846e-002 1.72812298e-001 2.57180214e-001
      2.57180214e-001 2.57180214e-001 1.39648676e-001 1.12901982e-002
      4.21689497e-003 1.26811443e-002 2.74067521e-002 2.13687316e-001</_>
    <_>
      2.51340836e-001 2.18781933e-001 1.09192289e-001 8.05053040e-002
      1.60439074e-001 1.12689406e-001 1.23031259e-001 9.31012407e-002
      1.63192600e-001 1.98581278e-001 2.11669460e-001 1.79325059e-001
      1.52431548e-001 2.00593203e-001 1.64967716e-001 1.32281214e-001
      1.19436540e-001 7.48652592e-002 1.01030082e-001 8.46833661e-002
      1.02197126e-001 1.69770896e-001 2.45863885e-001 2.03715071e-001
      9.70381573e-002 5.08961454e-002 7.78529942e-002 1.50595367e-001
      1.41726121e-001 2.51340836e-001 2.51340836e-001 2.51340836e-001
      2.51340836e-001 2.31170386e-001 8.31906348e-002 4.73575220e-002
      1.13178067e-001 1.02905259e-001 8.75163674e-002 7.94171095e-002
      6.22182973e-002 6.94176480e-002 7.89533705e-002 5.17442636e-002
      6.26646429e-002 2.48733670e-001 2.16072410e-001 9.05464068e-002
      5.89071624e-002 1.67420600e-002 6.19977154e-002 1.12674072e-001
      9.04743224e-002 1.52875781e-001 1.28445983e-001 1.13688678e-001
      2.65613735e-001 2.65613735e-001 2.08509237e-001 1.65632650e-001
      1.63809612e-001 6.67120740e-002 6.30805045e-002 2.65613735e-001
      2.65613735e-001 2.65613735e-001 2.65613735e-001 7.72368982e-002
      1.87632874e-001 2.65613735e-001 1.69347167e-001 2.65613735e-001
      2.51904458e-001 1.75651222e-001 4.78765517e-002 2.13719085e-002
      1.22135142e-002 3.46912369e-002 5.16182706e-002 4.71721701e-002
      7.50213787e-002 3.12189341e-001 2.12660104e-001 4.70690839e-002
      4.08996604e-002 3.30202095e-002 4.79288325e-002 9.81338546e-002
      6.15043193e-002 1.42426476e-001 3.12189341e-001 3.12189341e-001
      1.03719078e-001 6.63165003e-002 1.48451468e-002 9.75297764e-002
      1.58085704e-001 9.38694403e-002 2.73399979e-001 3.12189341e-001
      3.12189341e-001 1.70996755e-001 1.25910595e-001 4.48367186e-002
      8.43844339e-002 1.62197039e-001 5.48635423e-002 3.12189341e-001
      1.09512629e-002 1.51111605e-002 1.17929563e-001 2.14642122e-001
      2.69790173e-001 1.48900688e-001 6.18102103e-002 9.12205596e-003
      1.05220489e-002 3.97553518e-002 4.79758456e-002 2.50116140e-001
      2.76729226e-001 2.76729226e-001 2.76729226e-001 1.99602917e-001
      3.77112031e-002 9.51795839e-003 7.11783841e-002 9.83215217e-003
      1.00981466e-001 2.02549636e-001 2.76729226e-001 1.68319151e-001
      4.53918763e-002 8.25029239e-002 1.99389786e-001 1.15967758e-001
      3.52897346e-002 1.31772563e-001 2.09578335e-001 2.76729226e-001
      2.76729226e-001 1.67527586e-001 1.36835441e-001 1.20643482e-001
      4.86570261e-002 5.72352149e-002 2.17264429e-001 2.30104759e-001
      2.30104759e-001 2.30104759e-001 1.83570758e-001 6.24933541e-002
      3.23438644e-002 1.90878123e-001 1.98127300e-001 2.30104759e-001
      2.30104759e-001 1.61315456e-001 2.14857355e-001 2.30104759e-001
      1.79749534e-001 2.30104759e-001 5.08752167e-002 4.77870032e-002
      4.28444110e-002 1.02062546e-001 2.20297575e-001 2.30104759e-001
      1.86933875e-001 1.29165888e-001 8.83052126e-002 8.31782743e-002
      9.81067866e-002 1.18541263e-001 1.34831011e-001 1.50504544e-001
      1.88149557e-001 1.85848624e-001 1.25851288e-001 1.41937181e-001
      2.24895343e-001 1.47006914e-001 1.24233790e-001 9.70983952e-002
      5.48289344e-002 1.32699654e-001 2.24895343e-001 1.32197231e-001
      2.06474900e-001 2.24895343e-001 1.67438060e-001 2.24895343e-001
      1.80522397e-001 9.81586277e-002 1.39971733e-001 2.11054608e-001
      7.89064392e-002 2.24895343e-001 3.78245898e-002 4.60524708e-002
      1.57358363e-001 1.34307578e-001 1.35824591e-001 1.79487929e-001
      2.24895343e-001 7.36506432e-002 6.43707663e-002 1.38285711e-001
      5.43524735e-002 2.17921451e-001 1.92488477e-001 1.54779583e-001
      2.24895343e-001 2.24895343e-001 1.96216941e-001 2.22824141e-001
      2.42065743e-001 3.56753580e-002 6.68373182e-002 7.97807500e-002
      2.06328481e-001 1.13054678e-001 5.45047075e-002 1.87956691e-001
      2.59299725e-001 2.59299725e-001 6.03618622e-002 8.05565044e-002
      9.19356495e-002 2.58229733e-001 2.54310697e-001 1.14676110e-001
      2.16302916e-001 2.59299725e-001 1.74857393e-001 4.67993692e-002
      4.83480133e-002 4.31814082e-002 9.56394449e-002 2.37121247e-002
      3.66467163e-002 1.46269277e-001 2.59299725e-001 1.87851653e-001
      5.83900027e-002 7.95885026e-002 9.77926180e-002 2.28870809e-001
      2.59299725e-001 7.57818818e-002 1.96546301e-001 2.57353365e-001
      1.47914290e-001 6.14764653e-002 7.30555579e-002 8.86506066e-002
      2.17215523e-001 2.55525917e-001 2.01067165e-001 2.42723510e-001
      1.95433974e-001 1.49103880e-001 1.09910816e-001 1.23902068e-001
      1.68010741e-001 2.34301344e-001 2.47235835e-001 1.65320113e-001
      1.76314533e-001 2.40966722e-001 7.92336315e-002 3.20189409e-002
      7.86299109e-002 1.82087660e-001 2.55525917e-001 2.55525917e-001
      9.83685628e-002 9.33288559e-002 7.17030689e-002 3.83650325e-002
      2.49628890e-002 8.16774666e-002 2.07202166e-001 2.55525917e-001
      2.55525917e-001 9.33667570e-002 5.64003550e-002 5.69315217e-002
      3.93614955e-002 4.21177186e-002 6.90763220e-002 9.41073224e-002
      1.16372027e-001 2.53717184e-001 2.79275388e-001 9.79379267e-002
      6.85698837e-002 1.28836527e-001 4.60975319e-002 9.13862139e-002
      9.36693773e-002 8.60929564e-002 3.28889191e-001 3.28889191e-001
      3.28889191e-001 3.28889191e-001 1.77930091e-002 1.73778255e-002
      1.85240749e-002 5.12836948e-002 8.83342698e-002 1.43173173e-001
      9.25112069e-002 7.62927234e-002 2.82712504e-002 7.89003372e-002
      2.79741343e-002 2.02656630e-002 3.65515426e-002 5.17701693e-002
      1.31627798e-001 3.19400430e-001 3.28889191e-001 2.18195572e-001</_>
    <_>
      1.28059462e-001 5.18977679e-002 8.44351873e-002 1.96413517e-001
      2.43349418e-001 7.42799416e-002 1.86394732e-002 6.63057193e-002
      1.03372976e-001 1.28165275e-001 1.23729438e-001 1.57073572e-001
      2.28177786e-001 2.43349418e-001 5.84260561e-002 6.61895843e-003
      1.52073041e-001 1.31916746e-001 2.42330015e-001 1.71339437e-001
      1.65809706e-001 1.51448295e-001 1.85222730e-001 1.18615769e-001
      7.25586265e-002 1.72176152e-001 2.43349418e-001 1.64047763e-001
      1.92408711e-001 2.43349418e-001 2.35643446e-001 2.43349418e-001
      5.42060696e-002 4.90003303e-002 2.39690423e-001 2.43349418e-001
      1.54409036e-001 2.12169886e-001 2.17609048e-001 1.22805454e-001
      7.18260109e-002 2.18244959e-002 2.15433091e-002 8.57416466e-002
      9.49163660e-002 2.17675611e-001 2.17675611e-001 2.17675611e-001
      2.12404460e-001 1.34489477e-001 2.16682926e-001 2.17675611e-001
      2.17675611e-001 1.72520995e-001 1.39100224e-001 1.42359629e-001
      1.89629182e-001 1.37751833e-001 1.00647233e-001 4.08719555e-002
      6.02703169e-002 1.12765200e-001 1.58243313e-001 2.17675611e-001
      1.71199530e-001 1.55854195e-001 2.17675611e-001 1.31504491e-001
      1.53192222e-001 2.17675611e-001 1.88701212e-001 2.17675611e-001
      1.39784873e-001 9.40873623e-002 1.59457639e-001 1.15165032e-001
      1.23191893e-001 1.48963764e-001 1.63961172e-001 1.49200022e-001
      7.02782273e-002 2.49234110e-001 2.26299256e-001 2.49234110e-001
      2.28177533e-001 1.49263307e-001 9.34639722e-002 1.51718289e-001
      1.28569752e-001 1.18387297e-001 1.92159906e-001 1.38078675e-001
      1.07103623e-001 1.17404856e-001 1.09315924e-001 8.60230699e-002
      1.49774849e-001 1.94452107e-001 1.53014079e-001 2.49234110e-001
      2.49234110e-001 2.18112648e-001 9.17397663e-002 8.00624564e-002
      6.57535717e-002 1.81557804e-001 2.37896070e-001 2.49234110e-001
      1.99190632e-001 1.16935357e-001 1.14283696e-001 1.08398907e-001
      9.01197568e-002 1.17591903e-001 9.36259702e-002 1.58139348e-001
      2.48612836e-001 1.25107676e-001 8.74292031e-002 1.14925072e-001
      1.18406229e-001 1.38421282e-001 5.42270914e-002 6.22796752e-002
      1.30028263e-001 2.47782126e-001 2.47226104e-001 2.34714180e-001
      2.19658360e-001 2.02115715e-001 1.23200461e-001 1.52673185e-001
      1.48787618e-001 2.15606511e-001 2.48612836e-001 2.48612836e-001
      1.62945524e-001 1.17007658e-001 2.16901287e-001 1.19391881e-001
      9.06987563e-002 7.86758065e-002 1.82230607e-001 2.48612836e-001
      1.30325928e-001 4.13298719e-002 5.08956797e-002 6.14861473e-002
      6.62808493e-002 4.19695601e-002 6.38489947e-002 1.17487468e-001
      2.63338536e-001 1.55353978e-001 6.20126948e-002 4.58214954e-002
      1.60001308e-001 1.25064582e-001 1.33874163e-001 1.46076813e-001
      1.74446255e-001 1.85309500e-001 3.27720106e-001 6.09492101e-002
      2.58794539e-002 5.24843857e-002 3.43841538e-002 2.71066055e-002
      5.49474806e-002 2.74508476e-001 3.27720106e-001 3.27720106e-001
      1.98697343e-001 4.22501750e-002 7.63332471e-002 8.41115937e-002
      7.29652047e-002 1.37849703e-001 3.27720106e-001 3.27720106e-001
      1.05837688e-001 1.32295340e-001 7.23032653e-002 1.01005450e-001
      1.00987047e-001 7.86317885e-002 1.33350387e-001 1.57559052e-001
      1.13386862e-001 2.39268810e-001 2.39268810e-001 1.50298312e-001
      6.97547197e-002 1.02325693e-001 1.37842447e-001 1.98528126e-001
      1.99254334e-001 2.39268810e-001 2.39268810e-001 1.86928764e-001
      5.98054975e-002 5.91036305e-002 1.08535625e-001 7.74880499e-002
      1.10180236e-001 1.77783728e-001 2.39268810e-001 2.36692712e-001
      1.25544339e-001 1.23465978e-001 7.06783757e-002 1.87460274e-001
      2.39268810e-001 2.39268810e-001 2.38500670e-001 2.39268810e-001
      2.99088210e-001 2.99088210e-001 1.28772944e-001 5.69049381e-002
      5.00946157e-002 6.46959245e-002 4.27960753e-002 8.68674219e-002
      2.95133740e-001 2.99088210e-001 9.31798741e-002 4.06505540e-002
      5.36109880e-002 3.78285125e-002 4.91548665e-002 1.57157890e-002
      7.72395357e-002 2.99088210e-001 2.99088210e-001 2.58888483e-001
      6.79795966e-002 6.35974184e-002 7.62128085e-002 6.36417866e-002
      9.28552896e-002 1.64575845e-001 2.97602564e-001 2.99088210e-001
      8.50581378e-002 2.25028172e-002 3.98750836e-003 3.07516027e-002
      2.79916860e-002 1.43319611e-002 7.10959584e-002 2.99088210e-001
      3.38700235e-001 2.06268933e-002 1.24890609e-002 1.74922254e-002
      3.76936630e-003 6.05202373e-003 7.16420449e-003 8.31540823e-002
      3.38700235e-001 3.38700235e-001 9.82753336e-002 2.36929525e-002
      1.32576758e-002 1.89277728e-003 6.76089432e-003 2.06007119e-002
      1.41985834e-001 3.38700235e-001 3.38700235e-001 5.57009652e-002
      1.34862857e-002 8.79875384e-003 6.42372947e-003 5.87872416e-003
      1.11389561e-002 6.66784048e-002 3.38700235e-001 3.38700235e-001
      7.87138268e-002 1.37993814e-002 1.34941582e-002 3.84370354e-003
      1.98646039e-002 3.74157131e-002 1.53474733e-001 3.38700235e-001
      2.86089718e-001 2.86089718e-001 4.79587503e-002 1.19674690e-002
      1.98180433e-002 2.50121504e-002 3.02820895e-002 1.20942600e-001
      2.86089718e-001 2.86089718e-001 2.58179873e-001 5.44377565e-002
      2.36230958e-002 6.23114966e-002 8.51313695e-002 9.44065750e-002
      1.47148415e-001 2.86089718e-001 2.86089718e-001 2.30060682e-001
      2.62448899e-002 9.80962813e-003 1.02976467e-002 4.70585041e-002
      4.17782813e-002 1.09368384e-001 2.86089718e-001 2.86089718e-001
      2.26967186e-001 3.00525911e-002 1.56147964e-002 2.24592350e-002
      3.16983461e-002 3.87495309e-002 6.49900660e-002 2.86089718e-001</_>
    <_>
      4.88415211e-002 8.71579051e-002 5.15620708e-002 7.18040019e-002
      1.37988448e-001 1.07365087e-001 7.02077448e-002 1.18422769e-001
      9.13484693e-002 4.72345315e-002 4.86070216e-002 3.52200046e-002
      2.21324980e-001 3.12601537e-001 3.12601537e-001 3.07873517e-001
      2.45404541e-001 1.08599514e-001 1.61540121e-001 6.24784082e-002
      4.07249779e-002 8.22688714e-002 1.49496496e-001 1.20487235e-001
      8.87414813e-002 8.77999440e-002 1.12842388e-001 1.03901364e-001
      4.90637608e-002 7.20599815e-002 3.12601537e-001 3.12601537e-001
      3.12601537e-001 1.62386134e-001 2.28043303e-001 1.03033252e-001
      7.18320757e-002 3.78884599e-002 6.88810349e-002 1.04083695e-001
      1.66859508e-001 2.07665190e-001 2.31111243e-001 2.31111243e-001
      1.12936109e-001 2.17638001e-001 1.73061997e-001 2.16836214e-001
      1.85831174e-001 8.80244896e-002 5.39432280e-002 1.27731308e-001
      1.63548648e-001 1.52420864e-001 6.10721074e-002 2.94423923e-002
      4.38640602e-002 1.51852012e-001 2.31111243e-001 2.31111243e-001
      2.17687041e-001 2.31111243e-001 9.10090059e-002 1.07795626e-001
      9.27163735e-002 1.24086447e-001 1.90668210e-001 2.31111243e-001
      2.31111243e-001 2.31111243e-001 2.31111243e-001 1.34327427e-001
      2.34148934e-001 1.98341951e-001 1.89455360e-001 1.80536672e-001
      1.02066763e-001 7.84888491e-002 1.40944242e-001 1.47598267e-001
      2.34148934e-001 1.78030252e-001 1.08939812e-001 7.42387772e-002
      4.61757816e-002 5.08964770e-002 8.52601230e-002 2.21176535e-001
      2.34148934e-001 2.34148934e-001 9.42657888e-002 1.07691176e-001
      1.57094181e-001 2.06625640e-001 2.34148934e-001 2.34148934e-001
      2.02689737e-001 1.90958142e-001 1.61481738e-001 7.24502578e-002
      5.84236458e-002 6.15884028e-002 7.10870028e-002 1.92517415e-001
      2.34148934e-001 1.43950924e-001 2.34148934e-001 1.27435759e-001
      2.81689137e-001 1.04559928e-001 8.76191258e-002 8.79858881e-002
      1.03156947e-001 7.53309801e-002 6.88722059e-002 3.73511799e-002
      1.46922439e-001 2.37914756e-001 5.36931641e-002 1.97514862e-001
      2.76838630e-001 2.81689137e-001 2.81689137e-001 9.92673114e-002
      7.27907494e-002 1.01064168e-001 2.81689137e-001 1.68089673e-001
      1.27784058e-001 1.01429246e-001 5.13105765e-002 4.09585498e-002
      7.65877739e-002 8.22807327e-002 2.25923046e-001 2.29573786e-001
      9.16336104e-002 2.16656908e-001 1.69212922e-001 2.81689137e-001
      2.06663623e-001 8.09125751e-002 6.48903176e-002 1.28625438e-001
      2.51131225e-002 9.45949927e-003 5.57122827e-002 1.29406273e-001
      3.09794635e-001 2.87888795e-001 1.22253612e-001 9.96778309e-002
      1.90794244e-002 5.34191206e-002 2.99677737e-002 1.28930300e-001
      1.86910957e-001 3.09794635e-001 3.09794635e-001 1.79483727e-001
      1.32530913e-001 5.59956022e-002 2.61094868e-002 9.91549436e-003
      7.21949935e-002 1.67234838e-001 3.09794635e-001 2.04347521e-001
      3.69800664e-002 9.98251140e-003 2.14498043e-002 2.67134178e-002
      1.51199838e-002 7.96951950e-002 3.06453228e-001 3.09794635e-001
      3.09794635e-001 6.90991059e-002 1.85855553e-002 1.32626602e-002
      6.88034594e-002 4.86726463e-002 1.77599519e-001 1.92820191e-001
      3.06508988e-001 3.06508988e-001 1.58591077e-001 1.13323070e-001
      8.78835618e-002 5.50285764e-002 4.86352928e-002 5.32450117e-002
      7.26157799e-002 3.02664638e-001 2.90837944e-001 1.28263578e-001
      7.38294348e-002 5.60298041e-002 5.17094322e-002 3.79857905e-002
      9.01540890e-002 2.85688818e-001 3.06508988e-001 3.06508988e-001
      1.43423617e-001 6.93785250e-002 2.65779886e-002 7.35661238e-002
      7.10558668e-002 5.73956780e-002 1.05683587e-001 3.06508988e-001
      1.68037653e-001 9.95741561e-002 6.67589158e-002 5.86208329e-002
      3.12123209e-001 1.16290376e-001 4.75349389e-002 4.82077487e-002
      4.59781624e-002 4.60570864e-002 4.16676253e-002 1.58316836e-001
      3.12123209e-001 2.68757641e-001 8.71784538e-002 7.60753527e-002
      6.60321191e-002 1.14153311e-001 1.01396501e-001 2.75842585e-002
      1.38867915e-001 3.07127744e-001 3.12123209e-001 1.93313852e-001
      4.72923219e-002 3.37557457e-002 5.97489886e-002 4.27059494e-002
      2.97979228e-002 1.10190645e-001 3.12123209e-001 3.12123209e-001
      1.83136582e-001 3.95651646e-002 3.60972807e-002 1.05035402e-001
      7.47189000e-002 5.49042411e-002 1.42627612e-001 3.12123209e-001
      9.13993642e-002 3.79523709e-002 6.29255697e-002 1.39299050e-001
      3.17851335e-001 2.42127791e-001 2.27492750e-002 4.26624492e-002
      1.01173885e-001 1.04768947e-002 1.06594404e-002 1.81047972e-002
      2.47937158e-001 3.17851335e-001 3.17851335e-001 8.35517645e-002
      3.10466196e-002 1.68214776e-002 3.17851335e-001 7.21813962e-002
      3.73835340e-002 5.22190109e-002 2.54243940e-001 2.45674655e-001
      8.15993994e-002 1.27660051e-001 1.71898156e-001 2.99224686e-002
      3.17460299e-002 3.46323289e-002 1.26901776e-001 3.17851335e-001
      3.17851335e-001 5.41411974e-002 7.49044642e-002 3.81295681e-002
      1.49310920e-002 1.96253378e-002 9.77075752e-003 2.14898095e-001
      3.10319453e-001 3.10319453e-001 1.97601512e-001 9.93223786e-002
      1.17362170e-002 5.71505390e-002 6.24361411e-002 4.63407300e-002
      1.11177243e-001 3.10319453e-001 2.26522043e-001 1.42573982e-001
      9.23074260e-002 4.64770161e-002 2.73571145e-002 8.11670199e-002
      6.77375421e-002 2.04452574e-001 3.10319453e-001 3.10319453e-001
      1.04097486e-001 6.63308054e-002 1.17485449e-002 5.47343865e-002
      1.10824868e-001 1.11301646e-001 1.91370308e-001 2.74680912e-001
      2.97449023e-001 1.17490813e-001 5.19957691e-002 4.07479964e-002</_>
    <_>
      6.48340583e-002 5.26237264e-002 9.85867903e-002 1.60025269e-001
      1.65971205e-001 1.45012021e-001 1.44228563e-001 1.27169564e-001
      6.70337006e-002 1.17429279e-001 7.12404326e-002 2.06699833e-001
      2.20979363e-001 1.67439565e-001 2.12931693e-001 2.19045803e-001
      2.20979363e-001 2.20979363e-001 4.64682579e-002 9.15251747e-002
      1.03603877e-001 2.03236908e-001 2.03378811e-001 2.20979363e-001
      2.09776551e-001 1.82050869e-001 6.47816360e-002 8.87093917e-002
      1.13364384e-001 1.24760047e-001 1.72384903e-001 2.06976905e-001
      2.20979363e-001 2.15762749e-001 2.20979363e-001 2.20979363e-001
      1.38328731e-001 6.99062347e-002 1.07795127e-001 1.17139533e-001
      8.83218646e-002 1.14185132e-001 2.39217997e-001 2.41367295e-001
      2.40766704e-001 2.41367295e-001 1.86967343e-001 3.34183984e-002
      2.24377904e-002 3.98917869e-002 2.71178130e-002 1.12903938e-001
      1.50920972e-001 1.82966128e-001 1.17532000e-001 1.24367341e-001
      7.94231817e-002 1.17250487e-001 1.47197276e-001 1.82057470e-001
      2.41367295e-001 2.41367295e-001 2.41367295e-001 2.41367295e-001
      2.41367295e-001 8.57860968e-002 7.60883763e-002 1.63624749e-001
      1.14398777e-001 1.52857512e-001 2.41367295e-001 2.40205228e-001
      2.57363558e-001 1.71472222e-001 2.62535401e-002 5.03560714e-003
      1.77733265e-002 1.50878131e-002 4.19263877e-002 7.76228532e-002
      2.36898303e-001 2.11879313e-001 7.07250386e-002 3.48244198e-002
      1.97688751e-002 2.39328891e-002 4.39145118e-002 1.20826736e-001
      2.28937447e-001 2.57363558e-001 2.57363558e-001 2.57363558e-001
      5.19912317e-002 4.09610569e-002 8.49924013e-002 1.23321965e-001
      8.64216089e-002 2.39059716e-001 2.57363558e-001 2.57363558e-001
      9.86745059e-002 1.45646380e-002 3.34310196e-002 1.30363181e-001
      2.57363558e-001 2.57363558e-001 2.57363558e-001 2.57363558e-001
      3.86439599e-002 5.23798019e-002 6.17663302e-002 1.45651326e-001
      2.02444360e-001 2.56158799e-001 2.49306828e-001 9.91666615e-002
      9.53898206e-002 8.94624814e-002 1.35376304e-001 8.27842280e-002
      1.55197412e-001 2.05367684e-001 2.41066024e-001 1.22878797e-001
      7.35913515e-002 1.11284494e-001 1.46240249e-001 6.27576262e-002
      6.02877475e-002 1.32433206e-001 2.56158799e-001 2.56158799e-001
      2.56158799e-001 1.66015476e-001 2.00757295e-001 1.88136235e-001
      1.63560539e-001 8.13145190e-002 1.63433746e-001 2.56158799e-001
      2.56158799e-001 1.28940538e-001 5.89228049e-002 1.78916603e-001
      1.51009172e-001 2.11085513e-001 1.06820844e-001 1.75755128e-001
      2.17913836e-001 1.49507865e-001 1.42347530e-001 1.76768318e-001
      2.16287315e-001 1.65269285e-001 1.77256733e-001 9.62209553e-002
      9.42411274e-002 2.23198056e-001 2.18839511e-001 1.47182748e-001
      1.71989039e-001 1.69296563e-001 2.23198056e-001 2.20496207e-001
      7.16934204e-002 1.12783231e-001 1.13805808e-001 7.20976368e-002
      1.04382433e-001 1.41704023e-001 2.23198056e-001 1.71777397e-001
      1.54694244e-001 4.46828268e-002 5.76248989e-002 1.20327368e-001
      1.66035727e-001 2.23198056e-001 2.23198056e-001 2.23198056e-001
      1.67484343e-001 1.87887281e-001 1.13717638e-001 6.47309870e-002
      1.68616980e-001 2.05669805e-001 9.65621471e-002 1.54248103e-001
      1.58330455e-001 1.43909484e-001 1.02329917e-001 6.87184036e-002
      8.64442438e-002 2.46672824e-001 2.46672824e-001 1.40977710e-001
      1.31656647e-001 1.68696851e-001 2.46672824e-001 2.46672824e-001
      1.34848848e-001 7.46946409e-002 9.94221345e-002 8.98445398e-002
      1.17110796e-001 1.98900998e-001 1.96417987e-001 2.46672824e-001
      2.46672824e-001 1.49551019e-001 1.12030476e-001 2.39017829e-001
      1.25076517e-001 4.27573770e-002 1.00363649e-001 2.46672824e-001
      1.26753330e-001 1.19183749e-001 1.52794957e-001 1.06597215e-001
      2.12864935e-001 2.27774605e-001 2.06383228e-001 1.57230794e-001
      1.42997593e-001 1.18824579e-001 6.80519342e-002 7.73320645e-002
      6.44550547e-002 9.73931774e-002 1.03874572e-001 1.60658404e-001
      8.61255303e-002 2.19769433e-001 9.02062580e-002 2.01666206e-001
      2.27774605e-001 1.76401719e-001 2.27774605e-001 2.27774605e-001
      2.27774605e-001 1.90816805e-001 1.10551678e-001 1.29210517e-001
      8.47363025e-002 1.17574453e-001 1.08227186e-001 1.90177456e-001
      1.99482411e-001 2.27774605e-001 2.27774605e-001 2.27774605e-001
      2.15269938e-001 1.01365671e-001 4.84846383e-002 4.38231826e-002
      2.92631965e-002 5.35413027e-002 1.28236130e-001 1.28387809e-001
      2.39805579e-001 1.71047345e-001 1.41348138e-001 4.45122346e-002
      6.29969984e-002 3.23864557e-002 9.49445888e-002 1.71135768e-001
      2.18046516e-001 1.64213628e-001 2.39805579e-001 9.07607451e-002
      5.37941381e-002 9.93693247e-002 1.77815616e-001 2.39805579e-001
      2.39805579e-001 2.39805579e-001 2.39805579e-001 2.39805579e-001
      1.09293245e-001 7.11619556e-002 1.24713413e-001 1.88986957e-001
      2.05862477e-001 2.39805579e-001 2.23998144e-001 2.39805579e-001
      1.83016658e-001 2.28698850e-001 8.73566940e-002 8.81483182e-002
      6.84620067e-002 6.87215179e-002 1.20397218e-001 1.68938190e-001
      1.04218557e-001 2.34468892e-001 2.34468892e-001 1.56172380e-001
      1.20075338e-001 1.23838477e-001 8.51735994e-002 5.29829226e-002
      8.27590376e-002 2.34468892e-001 1.58810973e-001 1.19109944e-001
      1.06253289e-001 1.46122769e-001 2.34468892e-001 1.57112151e-001
      1.66632324e-001 1.58138409e-001 2.34468892e-001 2.21842527e-001
      1.44700199e-001 1.97310075e-001 2.17345357e-001 2.34468892e-001
      1.85739353e-001 1.61855832e-001 1.03629194e-001 2.34468892e-001</_>
    <_>
      2.14010909e-001 1.15953073e-001 2.96977013e-002 3.46195661e-002
      7.21131861e-002 6.06237464e-002 5.17277196e-002 6.60162419e-002
      2.43437141e-001 1.16327979e-001 4.91063595e-002 4.16176543e-002
      1.07287563e-001 3.17774147e-001 1.71326965e-001 7.47133344e-002
      2.56781071e-001 2.88150311e-001 3.17774147e-001 8.04762244e-002
      2.39197630e-002 1.08472826e-002 2.24450249e-002 2.55138651e-002
      4.26075682e-002 6.08045235e-002 3.17774147e-001 3.17774147e-001
      7.34899417e-002 3.89938019e-002 4.40611057e-002 1.10690683e-001
      6.07376993e-002 5.21437526e-002 3.17774147e-001 3.17774147e-001
      5.93339652e-002 3.21007334e-002 8.14846531e-002 1.53949544e-001
      3.16802531e-001 2.15652108e-001 3.01679708e-002 1.63932294e-001
      1.28708199e-001 2.06706375e-002 1.63903050e-002 6.09540604e-002
      9.22069922e-002 3.16802531e-001 1.80264041e-001 4.09618244e-002
      3.87618281e-002 3.10544111e-002 2.69661993e-001 7.15524554e-002
      9.84383821e-002 9.72430110e-002 3.16802531e-001 1.98212057e-001
      5.35934940e-002 2.86386818e-001 3.16802531e-001 5.93901947e-002
      3.51364203e-002 6.55288771e-002 8.20898488e-002 3.16802531e-001
      2.67193973e-001 5.66735491e-002 5.69592603e-002 7.00751543e-002
      7.77845457e-002 8.00212398e-002 1.20399572e-001 9.60433334e-002
      2.87944198e-001 2.26710215e-001 2.12107182e-001 2.43945226e-001
      2.00312585e-001 1.79693803e-001 1.39765814e-001 1.04126595e-001
      6.62325621e-002 5.24381138e-002 4.04431075e-002 1.43875435e-001
      2.21479848e-001 2.37071425e-001 8.88346732e-002 1.09143853e-001
      8.53259340e-002 1.70461908e-001 2.87944198e-001 2.87944198e-001
      1.87749803e-001 2.19087198e-001 1.25261560e-001 2.04528257e-001
      1.19234525e-001 1.00237727e-001 6.62935600e-002 3.68527435e-002
      2.55730152e-002 1.00752026e-001 1.60428628e-001 2.35209152e-001
      2.89694995e-001 1.47669926e-001 8.69312957e-002 1.65052693e-002
      6.28651828e-002 9.95358080e-002 1.17210507e-001 1.11024119e-001
      2.89694995e-001 2.89694995e-001 7.21243769e-002 4.53171842e-002
      2.65751183e-002 1.55998453e-001 1.37586385e-001 9.29765850e-002
      1.97800606e-001 2.89694995e-001 2.89694995e-001 2.77457684e-001
      1.27601221e-001 4.95846197e-002 1.03719480e-001 1.18367642e-001
      1.22122839e-001 1.43247589e-001 2.89694995e-001 8.78228620e-002
      8.46767947e-002 7.78426528e-002 1.28420085e-001 2.89694995e-001
      1.55538917e-001 9.22761187e-002 8.64310637e-002 8.68786424e-002
      1.75509974e-001 2.64951847e-002 2.57205833e-002 3.39163430e-002
      3.54725718e-001 2.46327490e-001 7.65386447e-002 1.32398084e-001
      3.28927666e-001 3.96497622e-002 2.46063657e-002 2.11829394e-002
      5.41406348e-002 3.54725718e-001 2.85067797e-001 5.04533835e-002
      4.07815129e-002 4.92407605e-002 1.66097973e-002 5.95505722e-003
      1.35796666e-002 1.22330420e-001 3.54725718e-001 2.29572773e-001
      2.96852309e-002 2.32803430e-002 2.14995407e-002 2.38497332e-002
      2.21424028e-002 7.95831438e-003 1.02232017e-001 3.54725718e-001
      3.02317232e-001 2.83968095e-002 1.30330762e-002 1.04422253e-002
      1.45905539e-001 1.71859935e-001 8.98512751e-002 1.48358598e-001
      3.10635537e-001 3.10635537e-001 8.63505155e-002 1.20857880e-001
      8.10406730e-002 2.01087937e-001 1.22914515e-001 7.94444531e-002
      4.31742296e-002 2.13423520e-002 1.14230588e-002 6.18616566e-002
      1.13440827e-001 1.70085683e-001 2.14442939e-001 2.24580526e-001
      9.06628370e-002 1.32260710e-001 3.10635537e-001 3.10635537e-001
      1.27950594e-001 1.48862630e-001 9.89369527e-002 2.76511222e-001
      1.38342366e-001 6.54273331e-002 2.09223852e-002 3.60380672e-002
      4.34894674e-002 9.00963247e-002 1.64489239e-001 2.86906034e-001
      2.69793123e-001 2.39192337e-001 1.24744475e-001 1.07283905e-001
      1.08716041e-001 9.88998711e-002 7.61657655e-002 1.25326037e-001
      2.17387632e-001 1.19007148e-001 1.19121432e-001 1.12407856e-001
      2.69793123e-001 2.69793123e-001 1.79546311e-001 6.68768957e-002
      6.35418370e-002 4.75416742e-002 2.69793123e-001 1.14600420e-001
      7.98456445e-002 1.68017149e-001 1.68144673e-001 1.52888283e-001
      3.39529775e-002 1.15899146e-001 1.85970098e-001 2.46087596e-001
      7.67280608e-002 7.80656785e-002 2.69793123e-001 2.69793123e-001
      2.51182735e-001 8.55079070e-002 7.11167753e-002 7.32815564e-002
      7.64454529e-003 1.16547095e-002 1.60446875e-002 2.15118900e-001
      3.58967721e-001 1.49060443e-001 1.07831070e-002 5.06446557e-003
      3.82359023e-003 1.34413671e-002 2.08282415e-002 1.60975307e-002
      2.14095622e-001 3.58967721e-001 1.76072270e-001 9.68054216e-003
      4.55969432e-003 3.74179217e-003 1.85189918e-002 1.30105829e-002
      1.73321310e-002 2.45283395e-001 3.58967721e-001 2.44853765e-001
      2.33957954e-002 4.08943230e-003 5.11543266e-003 1.30844861e-002
      2.52307002e-002 2.32902709e-002 2.85749018e-001 3.58967721e-001
      3.58967721e-001 2.01730598e-002 4.29628510e-003 1.52436802e-002
      1.13667846e-001 1.51787072e-001 8.48132223e-002 1.84278369e-001
      3.08596760e-001 1.47532180e-001 4.93136756e-002 6.49405271e-002
      7.05513060e-002 2.39693403e-001 1.08025819e-001 4.48313355e-002
      1.37111582e-002 5.09684794e-002 3.00745778e-002 3.63089293e-002
      8.04894716e-002 3.08596760e-001 1.42401069e-001 1.62002951e-001
      1.18962705e-001 2.56190330e-001 3.08596760e-001 3.08596760e-001
      6.08426593e-002 1.02233753e-001 2.22469971e-001 3.08596760e-001
      1.03427716e-001 5.28569072e-002 1.59712341e-002 7.17556849e-002
      1.72095597e-002 4.19959277e-002 1.46599665e-001 3.08596760e-001</_>
    <_>
      7.84811825e-002 1.28598318e-001 1.78816527e-001 2.57219642e-001
      4.06982481e-001 2.91343719e-001 8.90249759e-002 5.76309897e-002
      8.96802023e-002 6.79945871e-002 4.01358083e-002 3.52516994e-002
      1.14676543e-001 2.71092653e-001 5.44026010e-002 2.10720375e-002
      3.15108746e-002 7.55425617e-002 5.49136586e-002 7.68347681e-002
      7.36501813e-002 2.20411509e-001 4.06982481e-001 2.58686692e-001
      4.53094803e-002 4.04193401e-002 6.20423593e-002 7.24477395e-002
      4.52594236e-002 2.94834301e-002 1.04862817e-001 4.06982481e-001
      7.39042237e-002 3.08172069e-002 4.53883410e-002 6.92085475e-002
      1.12051278e-001 1.23705119e-001 4.22336534e-002 6.44986555e-002
      8.24521109e-002 5.05388230e-002 6.08728193e-002 1.12918533e-001
      1.61061317e-001 7.13291690e-002 1.34328857e-001 1.33637294e-001
      2.18359113e-001 2.95201838e-001 2.95201838e-001 1.91346407e-001
      1.75992683e-001 1.95906416e-001 1.91690430e-001 1.56939700e-001
      4.21651043e-002 7.47404695e-002 7.34085515e-002 1.03801534e-001
      8.83696899e-002 1.33882016e-001 2.07435191e-001 1.59878433e-001
      1.43563941e-001 5.46169467e-002 2.10462630e-001 2.95201838e-001
      2.95201838e-001 1.11449525e-001 1.62534982e-001 2.86932796e-001
      3.04566491e-002 2.25772150e-002 5.06636798e-002 1.37645245e-001
      3.23047429e-001 3.23047429e-001 6.74293563e-002 3.47521566e-002
      3.62784676e-002 4.69408594e-002 2.16963533e-002 5.30574434e-002
      2.07571521e-001 3.23047429e-001 2.27099612e-001 5.13285547e-002
      3.84533368e-002 5.81499413e-002 1.15783792e-002 9.73334722e-003
      2.26989146e-002 1.66398779e-001 3.23047429e-001 3.23047429e-001
      5.19347787e-002 3.11508086e-002 4.34716418e-002 5.83960256e-003
      8.73676129e-003 3.11140977e-002 2.99125046e-001 3.23047429e-001
      3.23047429e-001 4.58983928e-002 2.08331812e-002 3.87899429e-002
      3.59928869e-002 3.61601748e-002 8.13348964e-002 2.77536750e-001
      2.77536750e-001 1.37022763e-001 3.76719534e-002 3.89292426e-002
      5.00986204e-002 9.01784748e-002 3.79473679e-002 2.63781957e-002
      9.82645601e-002 2.24971354e-001 3.73608321e-002 1.50439637e-002
      3.08791976e-002 5.70300333e-002 2.77536750e-001 2.49625772e-001
      2.77536750e-001 2.77536750e-001 2.77536750e-001 1.59054309e-001
      8.93681794e-002 1.16065197e-001 2.50732899e-001 2.77536750e-001
      1.92207500e-001 1.62502393e-001 1.65249482e-001 1.11319847e-001
      4.66902368e-002 5.07463440e-002 6.81083351e-002 2.52700776e-001
      1.66171670e-001 7.11636841e-002 1.43599166e-002 2.52043139e-002
      1.83182992e-002 1.95751023e-002 2.10513603e-002 7.81570151e-002
      1.53829306e-001 2.13413179e-001 6.53290451e-002 1.51145551e-002
      4.44097184e-002 1.57129824e-001 1.78758428e-001 7.75995702e-002
      1.03983894e-001 2.43284255e-001 3.59175533e-001 2.19789207e-001
      1.62788257e-001 9.19396058e-002 3.41068171e-002 5.53953201e-002
      7.72442743e-002 1.43033147e-001 3.59175533e-001 3.59175533e-001
      1.96383238e-001 6.11894019e-002 5.15950583e-002 5.46713807e-002
      9.55952480e-002 1.28774852e-001 2.08927229e-001 3.59175533e-001
      1.63337544e-001 1.94277223e-002 2.27410458e-002 6.46249056e-002
      2.98140138e-001 2.98140138e-001 9.69838649e-002 9.45950598e-002
      1.15450211e-001 1.78052619e-001 4.22483310e-002 8.12478811e-002
      1.71709195e-001 2.98140138e-001 2.98140138e-001 6.36668503e-002
      7.66168609e-002 1.04478315e-001 2.98140138e-001 1.00969717e-001
      4.69531491e-002 4.48973775e-002 6.58829659e-002 1.06018052e-001
      1.19053140e-001 1.48772016e-001 2.72433788e-001 2.98140138e-001
      1.23541318e-001 1.06517792e-001 8.66092369e-002 1.52808890e-001
      1.89855918e-001 1.33491367e-001 9.80309919e-002 2.19982639e-001
      2.55599558e-001 2.49730393e-001 1.37434915e-001 1.32877186e-001
      7.35873803e-002 8.07977766e-002 8.95084962e-002 1.26911268e-001
      2.55599558e-001 2.55599558e-001 2.55599558e-001 1.20309092e-001
      6.89385310e-002 6.66869208e-002 5.46251051e-002 1.11603163e-001
      1.06866531e-001 2.43794680e-001 2.55599558e-001 1.98725343e-001
      9.56010818e-002 1.51037768e-001 1.49384230e-001 7.94454366e-002
      8.87699276e-002 1.15814090e-001 2.55599558e-001 2.55599558e-001
      2.49131769e-001 9.13580731e-002 6.08936585e-002 1.10722810e-001
      7.23206252e-002 1.17336296e-001 1.17700882e-001 2.33646661e-001
      2.70869702e-001 2.26875663e-001 1.75462738e-001 1.02010712e-001
      8.60786811e-002 1.18751109e-001 1.75030455e-001 1.11030668e-001
      2.11840391e-001 2.70869702e-001 2.14807689e-001 8.08863491e-002
      7.25055262e-002 4.52209562e-002 1.00888565e-001 1.46060437e-001
      1.74150094e-001 2.14622289e-001 2.70869702e-001 2.34406561e-001
      1.21199749e-001 8.60663503e-002 1.32642850e-001 1.37013853e-001
      1.60862952e-001 8.59486535e-002 2.02816412e-001 2.70869702e-001
      2.34501094e-001 8.06559101e-002 7.95982108e-002 6.68593198e-002
      9.73209441e-002 1.28741771e-001 1.42922938e-001 1.65289730e-001
      2.93380529e-001 1.40399694e-001 5.16196005e-002 4.24607918e-002
      4.01475020e-002 8.27414542e-002 1.51353106e-001 1.98399931e-001
      1.82119131e-001 2.93380529e-001 1.23890780e-001 4.41785008e-002
      4.17143442e-002 6.30086511e-002 1.32342890e-001 1.04561053e-001
      6.00927025e-002 1.78897023e-001 2.93380529e-001 1.81988120e-001
      9.67639238e-002 5.90722524e-002 1.60314441e-001 1.35332733e-001
      1.42374322e-001 1.74232736e-001 2.13719815e-001 2.93380529e-001
      1.60168096e-001 1.01351209e-001 6.14423342e-002 2.21308097e-001
      1.91751391e-001 1.17679864e-001 1.61156550e-001 2.93380529e-001</_>
    <_>
      1.29612923e-001 6.62945583e-002 9.10036936e-002 1.05495013e-001
      7.27628469e-002 6.72139153e-002 1.39785051e-001 2.74205953e-001
      1.98453873e-001 8.16168562e-002 1.10151947e-001 1.61910981e-001
      2.74205953e-001 2.63456017e-001 1.19489238e-001 1.03674114e-001
