%YAML:1.0
my_svm: !!opencv-ml-svm
   svm_type: C_SVC
   kernel: { type:LINEAR }
   C: 1.0000000000000000e-02
   term_criteria: { epsilon:2.2204460492503131e-16, iterations:2000 }
   var_all: 4356
   var_count: 4356
   class_count: 3
   class_labels: !!opencv-matrix
      rows: 1
      cols: 3
      dt: i
      data: [ -1, 0, 1 ]
   sv_total: 3
   support_vectors:
      - [ 3.77838500e-03, 1.45000988e-03, 1.02464552e-03, 2.34593567e-03,
          2.56862631e-03, 9.86822299e-04, 7.61805975e-04, 1.10587943e-03,
          3.59321525e-03, 3.54413036e-03, 2.00747093e-03, 1.53866899e-03,
          3.39650223e-03, 4.27864213e-03, 2.26174248e-03, 1.66589243e-03,
          1.78341754e-03, 2.96929735e-03, 4.58148727e-03, 1.87746773e-03,
          1.32870802e-03, 2.81795394e-03, 2.65520741e-03, 1.79134833e-03,
          1.59552356e-03, 1.83038099e-03, 3.72875808e-03, 4.13558492e-03,
          2.22396012e-03, 1.74829178e-03, 3.74425296e-03, 4.52475762e-03,
          2.78147659e-03, 2.04530661e-03, 2.38217134e-03, 3.13951843e-03,
          2.46158335e-03, 1.95046316e-03, 1.56942662e-03, 2.92088278e-03,
          4.21003252e-03, 2.51141959e-03, 1.30158372e-03, 8.98846891e-04,
          1.53489353e-03, 2.30666297e-03, 2.87569175e-03, 2.66242097e-03,
          2.93904031e-03, 4.89863986e-03, 3.27957002e-03, 1.43513572e-03,
          9.85048362e-04, 1.48537848e-03, 3.49417492e-03, 2.63513671e-03,
          1.75984553e-03, 3.18859029e-03, 4.35793726e-03, 2.82500684e-03,
          1.48721447e-03, 1.32149970e-03, 2.18238379e-03, 2.98192934e-03,
          4.05894825e-03, 3.59243923e-03, 3.87318572e-03, 4.37184703e-03,
          3.12393042e-03, 2.05362262e-03, 1.59488386e-03, 1.90732128e-03,
          2.04652478e-03, 2.53487355e-03, 2.39769532e-03, 2.07752874e-03,
          4.98107774e-03, 1.96626713e-03, 4.98865964e-04, 4.18249780e-04,
          1.10577559e-03, 2.78504333e-03, 2.16616620e-03, 1.71136891e-03,
          2.93107680e-03, 1.31838880e-02, 3.01091210e-03, 1.03039690e-03,
          8.68510979e-04, 2.47902353e-03, 2.78535276e-03, 3.95187968e-03,
          3.28757265e-03, 2.64046085e-03, 4.42410866e-03, 2.82031111e-03,
          1.11308729e-03, 1.05202862e-03, 1.60271360e-03, 3.72279156e-03,
          3.79341678e-03, 2.50490569e-03, 3.73539724e-03, 1.21546052e-02,
          3.67750414e-03, 1.22414704e-03, 1.84093835e-03, 2.90956115e-03,
          3.07100359e-03, 1.13410549e-03, 1.46163988e-03, 2.13425257e-03,
          7.34305056e-03, 1.82922243e-03, 1.56723906e-03, 1.04628282e-03,
          2.98286346e-03, 3.66893923e-03, 1.70326431e-03, 2.73126317e-03,
          4.31169057e-03, 1.00178691e-02, 3.55343451e-03, 3.39322630e-03,
          2.56423233e-03, 3.75594804e-03, 3.86686460e-03, 2.59179785e-03,
          2.23345705e-03, 2.79940502e-03, 6.72222720e-03, 2.15211324e-03,
          1.66975381e-03, 1.76154310e-03, 3.43535375e-03, 4.92355460e-03,
          4.01186710e-03, 3.74195189e-03, 5.01594180e-03, 8.45494028e-03,
          4.85563884e-03, 3.57161928e-03, 2.61683390e-03, 4.38201753e-03,
          3.05031659e-03, 9.69032408e-04, 7.81106472e-04, 1.60219020e-03,
          7.99955986e-03, 2.11834302e-03, 1.22703786e-03, 2.09705532e-03,
          3.35417502e-03, 3.94355413e-03, 1.98684377e-03, 1.34351756e-03,
          2.62675714e-03, 7.96246156e-03, 3.61549109e-03, 1.49265886e-03,
          2.17872090e-03, 3.90043738e-03, 4.17107809e-03, 2.02664384e-03,
          2.07877508e-03, 2.44719046e-03, 6.50208350e-03, 3.17577226e-03,
          1.23559730e-03, 2.04869453e-03, 4.06198064e-03, 4.34710225e-03,
          3.39495088e-03, 1.90719822e-03, 3.85806453e-03, 7.89231900e-03,
          5.38393995e-03, 2.29296181e-03, 2.40936852e-03, 4.48964722e-03,
          3.79512925e-03, 1.81961141e-03, 1.06186792e-03, 1.58578332e-03,
          6.73057139e-03, 3.99791123e-03, 1.16635696e-03, 1.16612145e-03,
          3.44065134e-03, 4.57194122e-03, 2.27105268e-03, 7.47078215e-04,
          1.61042227e-03, 6.21399563e-03, 3.48564400e-03, 1.86530058e-03,
          1.48952543e-03, 3.81604023e-03, 4.85753082e-03, 2.58331047e-03,
          1.32878136e-03, 2.43272795e-03, 6.48598745e-03, 5.06044924e-03,
          2.23774277e-03, 2.48848088e-03, 4.26087156e-03, 4.86826757e-03,
          2.89312843e-03, 1.11802493e-03, 3.01071838e-03, 5.54790394e-03,
          5.24349790e-03, 3.55332671e-03, 2.67291674e-03, 4.37538326e-03,
          4.24202951e-03, 1.73659041e-03, 9.59922327e-04, 2.38594064e-03,
          6.71915384e-03, 3.90591379e-03, 2.41859839e-03, 1.30965898e-03,
          3.43123847e-03, 4.66741296e-03, 2.40196893e-03, 1.44697598e-03,
          2.05875351e-03, 7.14867562e-03, 3.00505967e-03, 2.63457582e-03,
          1.21561112e-03, 3.58152762e-03, 4.71489970e-03, 2.28012051e-03,
          9.87980398e-04, 3.16362525e-03, 6.79623662e-03, 5.58296964e-03,
          4.74615954e-03, 2.53137224e-03, 3.50909494e-03, 4.62245382e-03,
          2.67014001e-03, 1.73636351e-03, 2.17470713e-03, 6.61650626e-03,
          4.93907183e-03, 3.85823986e-03, 2.00581248e-03, 4.20034071e-03,
          4.36156569e-03, 2.26179394e-03, 2.07846658e-03, 2.48237024e-03,
          7.69158313e-03, 3.42402002e-03, 2.89640692e-03, 1.59815245e-03,
          3.68631259e-03, 3.18018766e-03, 1.98789127e-03, 1.23649056e-03,
          2.19402369e-03, 7.18369149e-03, 3.52664222e-03, 1.90609111e-03,
          2.38096062e-03, 2.89685745e-03, 4.96340264e-03, 2.57576234e-03,
          3.47874686e-03, 3.11782537e-03, 8.53530504e-03, 4.77171689e-03,
          3.69362975e-03, 2.23097485e-03, 4.91393963e-03, 3.85907013e-03,
          2.05255859e-03, 1.85426034e-03, 2.06442154e-03, 7.75946351e-03,
          3.47618083e-03, 2.12988234e-03, 2.64730956e-03, 4.44363849e-03,
          1.84120971e-03, 1.40536542e-03, 7.54652778e-04, 2.17955327e-03,
          9.49109718e-03, 3.29414546e-03, 1.54241081e-03, 1.99866924e-03,
          2.03989889e-03, 1.68554555e-03, 1.52980641e-03, 1.47740787e-03,
          2.80278036e-03, 5.86527120e-03, 3.69741558e-03, 1.38253742e-03,
          1.98859908e-03, 2.18390441e-03, 2.66527385e-03, 1.49711210e-03,
          8.27454845e-04, 2.28001247e-03, 1.02082398e-02, 2.98037590e-03,
          1.93581090e-03, 2.68233730e-03, 3.49843362e-03, 2.92434474e-03,
          1.71108963e-03, 1.07537035e-03, 2.91333161e-03, 5.79155702e-03,
          3.18590272e-03, 1.85543217e-03, 2.76509742e-03, 3.76475439e-03,
          1.35693408e-03, 9.71722533e-04, 1.60894520e-03, 2.26984336e-03,
          5.56174712e-03, 3.12855141e-03, 8.81131215e-04, 2.29527708e-03,
          2.81917769e-03, 2.33723596e-03, 9.45461565e-04, 1.55537296e-03,
          2.49013538e-03, 4.35835775e-03, 2.35799607e-03, 1.09023217e-03,
          3.01830773e-03, 3.95509880e-03, 2.46810261e-03, 1.34711608e-03,
          1.46941410e-03, 2.26945267e-03, 4.97407885e-03, 2.73836707e-03,
          1.38353102e-03, 3.41057405e-03, 3.79123422e-03, 3.45439347e-03,
          1.44181843e-03, 1.87139725e-03, 2.67139822e-03, 4.07022191e-03,
          2.78440840e-03, 1.37854950e-03, 3.78466561e-03, 3.91916698e-03,
          2.39072950e-03, 9.19808284e-04, 1.06604700e-03, 1.99430156e-03,
          4.10879683e-03, 1.75419054e-03, 1.27158291e-03, 2.10876251e-03,
          3.42272851e-03, 3.76739027e-03, 1.30953884e-03, 1.08548952e-03,
          1.28238031e-03, 3.98480101e-03, 2.09761690e-03, 1.93334022e-03,
          2.32298346e-03, 4.01242776e-03, 3.61195230e-03, 2.05184263e-03,
          1.49068737e-03, 2.02734931e-03, 3.92923597e-03, 2.52287486e-03,
          1.47492043e-03, 2.19880394e-03, 3.95906763e-03, 4.50149784e-03,
          2.26269383e-03, 1.37391943e-03, 2.45118374e-03, 4.03988222e-03,
          2.69244378e-03, 1.83318486e-03, 2.14726198e-03, 4.39933175e-03,
          3.31567810e-03, 1.36103807e-03, 1.20901479e-03, 2.66207242e-03,
          2.19914201e-03, 1.64123636e-03, 1.58250239e-03, 9.90772038e-04,
          2.13650800e-03, 3.68556078e-03, 2.05356209e-03, 1.69723690e-03,
          3.21131176e-03, 4.52806056e-03, 2.91811000e-03, 1.64462090e-03,
          1.20351370e-03, 2.36270227e-03, 4.24702233e-03, 3.86681780e-03,
          2.24562222e-03, 2.55497452e-03, 2.74942722e-03, 1.85418490e-03,
          1.65278919e-03, 1.16235099e-03, 2.85579730e-03, 3.77736567e-03,
          3.59958899e-03, 2.72059068e-03, 4.40606987e-03, 4.46870644e-03,
          3.22232698e-03, 1.47819554e-03, 1.56647863e-03, 2.78436160e-03,
          2.70047248e-03, 2.32194993e-03, 1.70327269e-03, 2.65984633e-03,
          4.02143039e-03, 2.18117912e-03, 7.67554215e-04, 9.22449864e-04,
          1.79377361e-03, 2.45758705e-03, 3.39716231e-03, 3.02028959e-03,
          2.73594866e-03, 3.75243230e-03, 2.55519175e-03, 1.18111353e-03,
          1.26027595e-03, 1.46821619e-03, 2.98076915e-03, 2.88805459e-03,
          2.44156178e-03, 3.59763391e-03, 4.03409265e-03, 3.18141957e-03,
          1.30175636e-03, 1.46674796e-03, 1.80754822e-03, 2.34206533e-03,
          2.88271974e-03, 2.89965374e-03, 3.11822165e-03, 3.98833817e-03,
          4.02572518e-03, 1.87214254e-03, 2.01263209e-03, 1.94014318e-03,
          1.93639740e-03, 3.18059092e-03, 2.71192915e-03, 2.13906285e-03,
          3.47867236e-03, 2.05622753e-03, 1.15436013e-03, 9.80274635e-04,
          1.19175261e-03, 2.91834516e-03, 2.98387022e-03, 2.30552512e-03,
          3.76778375e-03, 9.06995498e-03, 2.63846060e-03, 9.40801459e-04,
          1.40495773e-03, 2.30853981e-03, 2.34086905e-03, 2.24256539e-03,
          2.62519694e-03, 2.84151803e-03, 4.40959679e-03, 2.87632924e-03,
          1.79064146e-03, 1.79266906e-03, 1.83963170e-03, 2.74005579e-03,
          3.14296060e-03, 2.45300285e-03, 4.76089865e-03, 1.18466765e-02,
          4.35187435e-03, 2.01442651e-03, 1.83527439e-03, 2.33069481e-03,
          3.43343662e-03, 2.23729014e-03, 2.01502070e-03, 2.09311279e-03,
          5.84181165e-03, 1.93237851e-03, 1.02245994e-03, 1.43963657e-03,
          3.16205062e-03, 3.88636440e-03, 3.07317963e-03, 3.72143602e-03,
          4.26300615e-03, 8.89379159e-03, 4.31425823e-03, 2.17396021e-03,
          1.96135417e-03, 3.97035433e-03, 3.75246978e-03, 2.98755802e-03,
          2.42002844e-03, 2.86768749e-03, 8.23413115e-03, 3.05853435e-03,
          1.91038114e-03, 2.18558591e-03, 2.95229186e-03, 4.48069302e-03,
          3.90094449e-03, 4.75250557e-03, 5.54239191e-03, 1.11533217e-02,
          4.81051952e-03, 2.24298192e-03, 2.10134289e-03, 3.66831408e-03,
          2.97287852e-03, 1.94924942e-03, 2.24109646e-03, 1.78808090e-03,
          6.32283278e-03, 3.36924475e-03, 7.94816297e-04, 1.11721922e-03,
          2.74803443e-03, 3.54148750e-03, 2.52721901e-03, 2.29691551e-03,
          3.23350681e-03, 7.35466275e-03, 5.11753513e-03, 1.99434673e-03,
          1.36347464e-03, 3.42415622e-03, 3.10810586e-03, 2.76829349e-03,
          3.24971694e-03, 2.92318873e-03, 8.23058467e-03, 3.92305199e-03,
          1.18868682e-03, 1.00551720e-03, 2.63933488e-03, 4.07850929e-03,
          3.15004517e-03, 2.96489988e-03, 4.10366710e-03, 7.44166132e-03,
          5.61060710e-03, 2.85149552e-03, 1.36104389e-03, 3.21922894e-03,
          3.53177730e-03, 1.95584819e-03, 1.42401061e-03, 1.77425751e-03,
          5.64808352e-03, 4.85133473e-03, 1.61332253e-03, 1.52436586e-03,
          2.97678681e-03, 4.14650282e-03, 2.14703334e-03, 8.58615735e-04,
          2.08435208e-03, 5.43936947e-03, 4.34426358e-03, 3.24837817e-03,
          1.95355830e-03, 3.49141448e-03, 3.94484121e-03, 3.03002982e-03,
          1.98826846e-03, 2.70572305e-03, 5.23837423e-03, 5.27972262e-03,
          2.68349284e-03, 1.74735009e-03, 3.20135942e-03, 4.54839133e-03,
          2.52667535e-03, 1.33033108e-03, 2.04176479e-03, 5.40334266e-03,
          6.17407588e-03, 4.33377130e-03, 2.85340613e-03, 3.52441543e-03,
          3.60583118e-03, 1.61371520e-03, 6.56753196e-04, 2.20339978e-03,
          5.51851932e-03, 5.17898472e-03, 4.10203403e-03, 1.44879729e-03,
          2.80548539e-03, 3.85345519e-03, 2.00676965e-03, 8.46179668e-04,
          1.78499648e-03, 5.39668370e-03, 3.74699594e-03, 2.79767811e-03,
          9.99331241e-04, 4.00246354e-03, 3.91992182e-03, 1.90953293e-03,
          8.03886738e-04, 2.00911798e-03, 5.97439846e-03, 6.79916423e-03,
          4.93262708e-03, 2.51372857e-03, 3.07506137e-03, 4.18840442e-03,
          2.03435030e-03, 7.76270987e-04, 2.40674033e-03, 7.58833811e-03,
          5.76637033e-03, 4.41220449e-03, 1.86450814e-03, 3.49281356e-03,
          3.95017117e-03, 1.69679720e-03, 1.88455253e-03, 2.37667887e-03,
          8.60401616e-03, 4.00833692e-03, 2.17512064e-03, 1.47814979e-03,
          4.32703551e-03, 3.13527975e-03, 1.00269029e-03, 8.14243627e-04,
          1.75120402e-03, 6.80347439e-03, 2.35628220e-03, 1.29724178e-03,
          2.40823696e-03, 3.64618725e-03, 4.21522511e-03, 1.56276871e-03,
          1.32582732e-03, 2.87591014e-03, 1.00988708e-02, 5.28623210e-03,
          2.89776502e-03, 2.09634076e-03, 4.34927596e-03, 2.74434709e-03,
          1.68141769e-03, 1.06282486e-03, 2.07717204e-03, 7.78772077e-03,
          3.56352655e-03, 1.67857180e-03, 3.28654936e-03, 4.25778190e-03,
          2.36321939e-03, 7.62532349e-04, 7.56633992e-04, 1.45345891e-03,
          7.51424814e-03, 1.93182379e-03, 1.49409380e-03, 2.49792938e-03,
          3.08296178e-03, 2.87788361e-03, 1.05646870e-03, 6.68883091e-04,
          1.55567937e-03, 4.72880807e-03, 2.39299098e-03, 1.29445503e-03,
          2.58609024e-03, 3.64386430e-03, 2.37192377e-03, 1.47332426e-03,
          8.79833358e-04, 1.86266215e-03, 1.04980255e-02, 2.99304002e-03,
          2.31362251e-03, 3.40673258e-03, 3.84964515e-03, 2.89210351e-03,
          1.23945123e-03, 7.82340241e-04, 1.78689370e-03, 4.90593771e-03,
          3.44099244e-03, 2.64394237e-03, 2.71927193e-03, 3.79087753e-03,
          2.60227569e-03, 1.17320579e-03, 9.43186111e-04, 1.42412831e-03,
          4.15366841e-03, 2.37219804e-03, 8.97374819e-04, 2.35427637e-03,
          3.33858491e-03, 3.00928764e-03, 1.67775643e-03, 1.15530647e-03,
          1.55188446e-03, 3.55664804e-03, 2.97972513e-03, 1.13595556e-03,
          2.37080501e-03, 3.44060664e-03, 3.31178051e-03, 1.43219670e-03,
          1.18332379e-03, 1.25149707e-03, 4.83673112e-03, 3.47263622e-03,
          2.00430676e-03, 3.02412803e-03, 3.70479515e-03, 4.47488530e-03,
          2.89044739e-03, 2.80146208e-03, 1.68763578e-03, 4.54981253e-03,
          3.74505692e-03, 1.73396256e-03, 2.56620650e-03, 4.16998146e-03,
          3.31955566e-03, 1.96040887e-03, 1.05622539e-03, 1.15754316e-03,
          3.62483086e-03, 2.54474138e-03, 9.83408652e-04, 1.42262515e-03,
          3.11791105e-03, 4.29907767e-03, 1.94786850e-03, 1.29744550e-03,
          1.91527372e-03, 4.08203620e-03, 2.04231590e-03, 9.52407892e-04,
          1.01115531e-03, 3.62515310e-03, 3.86459241e-03, 2.48112413e-03,
          2.27320194e-03, 1.81590451e-03, 3.79392901e-03, 3.23816040e-03,
          1.21201214e-03, 1.56753918e-03, 3.42314062e-03, 5.24154538e-03,
          2.36531883e-03, 2.53332593e-03, 2.29740748e-03, 4.12166305e-03,
          2.41940212e-03, 1.08010159e-03, 1.40118448e-03, 4.56940755e-03,
          3.81631893e-03, 3.12010618e-03, 1.87162030e-03, 1.10242295e-03,
          2.59622629e-03, 1.84383790e-03, 1.01440679e-03, 9.53534094e-04,
          2.21420708e-03, 3.57023301e-03, 3.18420492e-03, 2.24602013e-03,
          2.73451745e-03, 4.47897241e-03, 3.11190332e-03, 1.23851805e-03,
          1.68660132e-03, 2.49459036e-03, 7.85309449e-03, 3.35776038e-03,
          2.88382382e-03, 1.33542437e-03, 3.56531935e-03, 2.65896320e-03,
          1.45058380e-03, 1.35433662e-03, 6.39609853e-03, 4.83435020e-03,
          2.97725294e-03, 2.91818683e-03, 2.23805592e-03, 4.77949716e-03,
          4.18645004e-03, 2.28430214e-03, 2.58797803e-03, 4.34058439e-03,
          1.91753393e-03, 2.15002778e-03, 1.68064854e-03, 2.27234443e-03,
          4.08420572e-03, 3.06281634e-03, 1.64603803e-03, 1.89559592e-03,
          1.40870479e-03, 1.84127514e-03, 2.54884572e-03, 2.41062068e-03,
          2.10129051e-03, 3.62981833e-03, 3.96090373e-03, 2.37705139e-03,
          2.18719617e-03, 1.44929974e-03, 3.74550652e-03, 2.33961106e-03,
          1.67230191e-03, 1.40787789e-03, 3.56168905e-03, 3.41202295e-03,
          2.29413854e-03, 2.50875903e-03, 3.63636133e-03, 3.59757850e-03,
          2.63403123e-03, 2.47527403e-03, 2.15591933e-03, 3.89426597e-03,
          3.74382036e-03, 2.98168999e-03, 2.56540044e-03, 3.57461302e-03,
          1.88639062e-03, 1.95172138e-03, 1.85387454e-03, 1.43828755e-03,
          3.48715414e-03, 2.38891179e-03, 1.91913999e-03, 1.70054403e-03,
          1.54250709e-03, 2.85731629e-03, 2.42568064e-03, 1.45667267e-03,
          2.61823018e-03, 9.85316001e-03, 4.39053914e-03, 1.87899289e-03,
          1.83411886e-03, 1.95718673e-03, 3.80062172e-03, 2.47550290e-03,
          2.12586997e-03, 2.07871618e-03, 4.01757471e-03, 2.78487639e-03,
          2.02659378e-03, 2.23838328e-03, 3.68539593e-03, 7.41321454e-03,
          2.53375759e-03, 2.11691996e-03, 3.78018618e-03, 9.98963322e-03,
          5.41103072e-03, 2.37570540e-03, 2.12496147e-03, 7.18394574e-03,
          2.56546726e-03, 1.76791369e-03, 1.28370116e-03, 1.52997801e-03,
          6.61368156e-03, 3.62498383e-03, 2.15061870e-03, 1.66885043e-03,
          1.97984371e-03, 3.32091772e-03, 3.34295235e-03, 3.89336376e-03,
          3.53638548e-03, 1.04296431e-02, 3.90127255e-03, 2.33132299e-03,
          1.93719089e-03, 2.42976286e-03, 7.95479678e-03, 2.19288073e-03,
          2.33879732e-03, 2.78490246e-03, 7.39212427e-03, 4.84342081e-03,
          3.19211953e-03, 2.55921436e-03, 7.56961480e-03, 1.06441109e-02,
          3.62304621e-03, 4.33015125e-03, 5.64062828e-03, 1.02517717e-02,
          5.32986550e-03, 3.48603236e-03, 2.86380155e-03, 1.03764702e-02,
          2.27221614e-03, 2.27670907e-03, 1.95980677e-03, 2.57193577e-03,
          6.55078655e-03, 3.27148335e-03, 1.55210751e-03, 8.51690245e-04,
          1.77735055e-03, 2.67675240e-03, 2.91662943e-03, 2.92287464e-03,
          3.72739136e-03, 7.65487039e-03, 5.32949576e-03, 3.03493231e-03,
          9.09550348e-04, 1.98137225e-03, 9.09147039e-03, 2.48457538e-03,
          2.97545386e-03, 3.68581037e-03, 6.93317130e-03, 3.58793000e-03,
          1.79616432e-03, 1.51638989e-03, 8.95532221e-03, 8.74101557e-03,
          3.43734445e-03, 3.34133417e-03, 5.07380953e-03, 8.49866774e-03,
          5.59924217e-03, 2.72165937e-03, 1.45028788e-03, 8.66641290e-03,
          2.97048711e-03, 2.28347746e-03, 2.21525971e-03, 2.89961835e-03,
          5.42120915e-03, 4.88052797e-03, 2.49757199e-03, 1.00886601e-03,
          2.07467051e-03, 3.58018721e-03, 2.03109975e-03, 1.61034265e-03,
          2.16868636e-03, 5.14421659e-03, 6.62086112e-03, 3.64397094e-03,
          1.72868383e-03, 2.33568577e-03, 7.36926217e-03, 3.13326227e-03,
          3.00201168e-03, 3.34446109e-03, 6.50401367e-03, 5.52252261e-03,
          1.63096050e-03, 1.95255748e-03, 7.01326691e-03, 8.82204995e-03,
          2.62152986e-03, 2.02081376e-03, 3.64698889e-03, 6.91111712e-03,
          6.87167607e-03, 3.14239832e-03, 2.09712889e-03, 8.39136913e-03,
          2.90174922e-03, 1.64932245e-03, 1.02353736e-03, 2.18386413e-03,
          5.52973431e-03, 6.79000793e-03, 3.78826377e-03, 1.93184312e-03,
          2.25734920e-03, 2.37891823e-03, 1.69282290e-03, 1.10891403e-03,
          2.00740807e-03, 6.63900981e-03, 6.02745172e-03, 2.78230477e-03,
          1.87266385e-03, 2.31427886e-03, 8.76036473e-03, 2.38941377e-03,
          1.19524542e-03, 2.70736846e-03, 7.20504066e-03, 6.84761163e-03,
          3.58928647e-03, 1.77668827e-03, 8.47360399e-03, 6.62160525e-03,
          1.99577748e-03, 2.14129803e-03, 2.73255468e-03, 8.05947464e-03,
          6.46191277e-03, 3.34360171e-03, 2.20657606e-03, 6.58243056e-03,
          2.19236943e-03, 1.67040876e-03, 1.39144878e-03, 2.23746523e-03,
          9.58968233e-03, 5.23824245e-03, 2.22394289e-03, 1.96189433e-03,
          2.88304547e-03, 1.73655094e-03, 1.89207355e-03, 1.18467899e-03,
          1.73460995e-03, 7.07566924e-03, 2.81894300e-03, 1.46738114e-03,
          2.79227179e-03, 3.02341371e-03, 6.11783937e-03, 2.30138074e-03,
          2.55680806e-03, 4.15523490e-03, 1.08408965e-02, 6.09534141e-03,
          3.55144823e-03, 2.90761236e-03, 6.97391434e-03, 7.04064080e-03,
          2.29933625e-03, 1.43565447e-03, 2.73233163e-03, 7.71556422e-03,
          4.47549578e-03, 2.63988832e-03, 3.44838086e-03, 7.82546401e-03,
          1.56205881e-03, 1.49858661e-03, 1.05338311e-03, 2.11796327e-03,
          9.07714292e-03, 2.85048131e-03, 1.60433014e-03, 2.19717971e-03,
          2.38160416e-03, 1.95343653e-03, 1.24061690e-03, 1.16210699e-03,
          2.12880783e-03, 5.17922547e-03, 3.59020941e-03, 2.19729519e-03,
          2.34389608e-03, 2.55096285e-03, 5.13197435e-03, 2.05261330e-03,
          1.17915624e-03, 3.13958083e-03, 9.90027376e-03, 4.58866218e-03,
          2.54323124e-03, 2.66006473e-03, 5.99966198e-03, 6.01600902e-03,
          2.33353744e-03, 1.61226536e-03, 2.79838871e-03, 4.79120621e-03,
          3.78307328e-03, 1.87453791e-03, 2.43130582e-03, 6.02349825e-03,
          1.91193633e-03, 1.14229601e-03, 1.31098367e-03, 1.31901447e-03,
          4.91760159e-03, 3.46728880e-03, 1.89186435e-03, 1.90575363e-03,
          2.16250587e-03, 2.92014540e-03, 2.26692250e-03, 1.97547767e-03,
          1.68345310e-03, 5.00291353e-03, 3.43489856e-03, 2.25654198e-03,
          1.87788089e-03, 2.30492232e-03, 6.04399433e-03, 2.11627339e-03,
          1.57391885e-03, 1.80866825e-03, 4.78301756e-03, 3.73124541e-03,
          2.01416691e-03, 2.13276688e-03, 5.99622587e-03, 5.32038184e-03,
          2.83764536e-03, 2.42697983e-03, 2.04205303e-03, 5.31618204e-03,
          3.82246659e-03, 3.39200418e-03, 1.98898115e-03, 4.14582668e-03,
          2.61685136e-03, 2.15059519e-03, 1.95069239e-03, 1.56283868e-03,
          3.99274938e-03, 2.60629482e-03, 1.52765936e-03, 1.62418047e-03,
          2.49439664e-03, 3.77832330e-03, 2.44181068e-03, 2.40682834e-03,
          1.40083150e-03, 3.76227708e-03, 2.07884260e-03, 1.32456189e-03,
          1.79589412e-03, 3.62349488e-03, 4.71769506e-03, 2.57603521e-03,
          2.74658273e-03, 2.36142403e-03, 4.49051335e-03, 3.25040380e-03,
          2.84412340e-03, 1.99775235e-03, 4.40578302e-03, 7.49598630e-03,
          3.23195010e-03, 4.11624368e-03, 2.67038331e-03, 4.54594055e-03,
          2.61789956e-03, 1.95081357e-03, 2.44481489e-03, 7.24439463e-03,
          4.12019994e-03, 3.67601798e-03, 2.80283648e-03, 1.33334298e-03,
          2.56310194e-03, 2.08370062e-03, 1.53880648e-03, 1.11775997e-03,
          2.84089590e-03, 4.48898645e-03, 4.20667185e-03, 2.85718753e-03,
          2.13580439e-03, 3.67117277e-03, 3.54250171e-03, 2.35775206e-03,
          2.67032534e-03, 3.44662578e-03, 9.43495613e-03, 3.82577465e-03,
          2.67888606e-03, 1.60375144e-03, 2.88867857e-03, 2.31941603e-03,
          5.06779086e-03, 2.81637115e-03, 7.78909354e-03, 8.83668195e-03,
          3.88805382e-03, 3.30181932e-03, 2.83815153e-03, 4.13786434e-03,
          3.51683749e-03, 3.06269526e-03, 2.38476228e-03, 7.80354859e-03,
          2.92631844e-03, 2.11050501e-03, 1.18196302e-03, 1.03354419e-03,
          3.14774853e-03, 3.09452112e-03, 1.74532062e-03, 2.72388943e-03,
          3.03773209e-03, 3.37758381e-03, 2.46575987e-03, 1.96692930e-03,
          1.37917197e-03, 4.34303284e-03, 3.31538264e-03, 2.27671349e-03,
          2.84987874e-03, 4.02310025e-03, 7.08802463e-03, 2.57267104e-03,
          2.00956920e-03, 1.92614843e-03, 3.48890969e-03, 3.56283458e-03,
          1.90438190e-03, 1.95482653e-03, 7.04771234e-03, 7.46321818e-03,
          3.52424569e-03, 2.35220836e-03, 2.71970010e-03, 6.77330466e-03,
          4.07351786e-03, 3.28875356e-03, 2.70038657e-03, 8.34103394e-03,
          3.08351731e-03, 1.68324378e-03, 1.30253099e-03, 1.46839640e-03,
          3.52048944e-03, 2.20388640e-03, 1.52489275e-03, 1.76743441e-03,
          2.91577028e-03, 6.25970028e-03, 2.03842088e-03, 1.70951942e-03,
          3.19819036e-03, 1.01370672e-02, 5.70577709e-03, 2.12321687e-03,
          1.63584214e-03, 4.92086494e-03, 7.72625348e-03, 3.48207355e-03,
          2.06734962e-03, 1.89233629e-03, 4.88140061e-03, 2.83165788e-03,
          2.35705078e-03, 1.74859830e-03, 6.83304248e-03, 9.68547631e-03,
          3.03909206e-03, 2.56785774e-03, 3.03300587e-03, 1.10325543e-02,
          4.47356468e-03, 3.56697198e-03, 1.76103716e-03, 8.91651213e-03,
          4.83002979e-03, 1.26207015e-03, 1.43624481e-03, 2.46338500e-03,
          7.24661211e-03, 3.67080653e-03, 2.58398848e-03, 1.71428546e-03,
          3.96975596e-03, 5.74790081e-03, 2.63419584e-03, 3.11552593e-03,
          5.52214310e-03, 1.01778870e-02, 5.30885858e-03, 3.68601340e-03,
          2.23632203e-03, 5.14342962e-03, 8.17160308e-03, 3.03577771e-03,
          2.84283585e-03, 2.33689696e-03, 8.13880190e-03, 3.68082430e-03,
          4.00255667e-03, 3.28044361e-03, 7.69101596e-03, 8.70410819e-03,
          3.36389965e-03, 4.69504017e-03, 4.29493655e-03, 1.17065236e-02,
          7.67548243e-03, 6.98210252e-03, 5.76703250e-03, 8.28615762e-03,
          4.52546496e-03, 1.72247691e-03, 1.86367566e-03, 3.26255057e-03,
          7.78860459e-03, 3.20452754e-03, 1.66223967e-03, 1.05478393e-03,
          3.92453372e-03, 5.56048192e-03, 2.66745640e-03, 3.35177151e-03,
          5.03198151e-03, 9.71458014e-03, 5.76644717e-03, 1.65587245e-03,
          1.26688427e-03, 4.49463492e-03, 8.03019758e-03, 2.50975555e-03,
          2.86785956e-03, 3.12124705e-03, 1.06717553e-02, 4.65455605e-03,
          3.18151223e-03, 3.61008360e-03, 7.04501104e-03, 7.98569527e-03,
          2.52397126e-03, 2.94296956e-03, 5.79334423e-03, 1.13557698e-02,
          6.13063201e-03, 2.71686772e-03, 2.72498955e-03, 7.11990893e-03,
          4.58887126e-03, 2.22297478e-03, 2.36635888e-03, 3.66723142e-03,
          6.44381670e-03, 5.64015098e-03, 1.57216436e-03, 1.78376073e-03,
          4.02414007e-03, 5.58333751e-03, 1.97732169e-03, 2.27374071e-03,
          3.58346570e-03, 7.35275354e-03, 6.73648482e-03, 2.72637838e-03,
          1.72836706e-03, 5.25873434e-03, 8.20115022e-03, 2.97806831e-03,
          3.14137526e-03, 5.17275184e-03, 9.59650427e-03, 5.44567173e-03,
          2.26864521e-03, 2.51660892e-03, 6.84318459e-03, 9.91508551e-03,
          4.05600155e-03, 4.84534632e-03, 4.48690820e-03, 8.48904997e-03,
          6.97768060e-03, 3.47974314e-03, 2.66882358e-03, 8.58799927e-03,
          4.85523045e-03, 1.94323366e-03, 1.88284554e-03, 3.07932077e-03,
          7.63577316e-03, 6.61484525e-03, 3.00084986e-03, 1.43211719e-03,
          4.24050959e-03, 4.49119648e-03, 1.53998472e-03, 2.31513754e-03,
          2.60709971e-03, 8.91734101e-03, 4.81400033e-03, 2.53783073e-03,
          1.50815875e-03, 4.73993970e-03, 9.47943237e-03, 3.90766235e-03,
          4.10067244e-03, 3.94112105e-03, 8.84096231e-03, 6.07013563e-03,
          4.86851996e-03, 3.04554380e-03, 7.76109518e-03, 9.61988512e-03,
          3.59306741e-03, 3.52054299e-03, 3.07925558e-03, 1.00490181e-02,
          5.65318577e-03, 4.87837894e-03, 3.33325728e-03, 9.20052268e-03,
          3.91179556e-03, 1.69740780e-03, 3.24099394e-03, 3.93228466e-03,
          1.03042498e-02, 5.06800693e-03, 2.67562154e-03, 1.57903053e-03,
          4.76332707e-03, 4.51549562e-03, 3.16743879e-03, 1.63221569e-03,
          1.97685347e-03, 7.88104627e-03, 3.64305428e-03, 1.72575423e-03,
          2.09334004e-03, 4.89544263e-03, 9.55496076e-03, 4.03494202e-03,
          4.00975440e-03, 4.21596831e-03, 1.28177321e-02, 5.66611812e-03,
          4.54026926e-03, 2.88440124e-03, 9.02473181e-03, 8.91524274e-03,
          4.80355928e-03, 3.10231675e-03, 2.53032218e-03, 1.11319963e-02,
          4.27067420e-03, 3.26098455e-03, 2.37082411e-03, 8.21817759e-03,
          3.53965606e-03, 2.35485751e-03, 1.16045680e-03, 2.04142905e-03,
          1.09299337e-02, 4.27354686e-03, 1.86029077e-03, 1.92919362e-03,
          3.53740784e-03, 4.42906003e-03, 2.18076189e-03, 8.27556709e-04,
          1.69056479e-03, 4.72832751e-03, 3.80319357e-03, 1.90024078e-03,
          1.95276015e-03, 3.92391579e-03, 8.16900749e-03, 3.81163531e-03,
          2.40603928e-03, 2.00191350e-03, 1.29671693e-02, 4.26481711e-03,
          2.64847022e-03, 2.29040557e-03, 6.86980225e-03, 8.45520850e-03,
          4.02432494e-03, 2.42440449e-03, 2.46596546e-03, 6.20986428e-03,
          4.40067798e-03, 3.85268126e-03, 2.89160595e-03, 8.55233800e-03,
          3.47204297e-03, 1.68714847e-03, 7.96817651e-04, 1.98776508e-03,
          4.50713979e-03, 3.68072023e-03, 1.46373978e-03, 1.90262077e-03,
          3.19711212e-03, 4.60757921e-03, 2.81244493e-03, 2.48016138e-03,
          2.49232422e-03, 4.26857453e-03, 3.51848314e-03, 2.01000227e-03,
          1.96370995e-03, 2.94453953e-03, 7.60003971e-03, 3.83220846e-03,
          2.30398937e-03, 3.68001941e-03, 5.66011388e-03, 3.38292448e-03,
          2.36624177e-03, 2.32862704e-03, 7.05876714e-03, 9.04288050e-03,
          5.60556212e-03, 3.85996047e-03, 3.73712718e-03, 5.69231249e-03,
          3.22379824e-03, 2.23957119e-03, 2.10127840e-03, 6.97830087e-03,
          3.71504598e-03, 2.29633320e-03, 2.49384018e-03, 2.38313386e-03,
          3.53292166e-03, 2.91339448e-03, 2.18537729e-03, 1.82532449e-03,
          2.81297020e-03, 5.36939641e-03, 2.50888197e-03, 2.50690640e-03,
          2.84367171e-03, 3.94964917e-03, 3.38928704e-03, 2.15587951e-03,
          1.85263832e-03, 4.23608767e-03, 8.58251192e-03, 5.18342108e-03,
          3.71406926e-03, 3.56808840e-03, 4.14500805e-03, 2.81916489e-03,
          2.34869542e-03, 2.04735040e-03, 5.70953451e-03, 1.04504870e-02,
          5.56079205e-03, 3.40219121e-03, 3.62735707e-03, 4.34919493e-03,
          3.70081584e-03, 2.54723546e-03, 1.76899019e-03, 8.77947733e-03,
          6.78031472e-03, 3.33515508e-03, 1.41083775e-03, 1.34516717e-03,
          3.15362890e-03, 1.99722056e-03, 3.33746057e-03, 1.81551999e-03,
          5.82034374e-03, 6.51586242e-03, 3.26814572e-03, 2.46845768e-03,
          2.40986398e-03, 4.84254630e-03, 3.45972227e-03, 2.26365542e-03,
          1.56267558e-03, 6.12194138e-03, 8.10774229e-03, 2.50008539e-03,
          1.92040554e-03, 2.04461091e-03, 5.52258920e-03, 3.35484673e-03,
          3.78500065e-03, 2.08850089e-03, 7.73987453e-03, 6.89247902e-03,
          3.45180230e-03, 3.57639999e-03, 3.41911800e-03, 6.97263842e-03,
          4.21241811e-03, 3.11444979e-03, 2.06682575e-03, 6.79418677e-03,
          4.91704885e-03, 1.55536528e-03, 1.61949021e-03, 1.67125394e-03,
          3.65870865e-03, 3.60487285e-03, 1.80735160e-03, 1.13373064e-03,
          4.85393498e-03, 6.02411339e-03, 2.74957344e-03, 2.41284957e-03,
          2.60400167e-03, 4.38625226e-03, 4.24515456e-03, 3.27827153e-03,
          2.38129846e-03, 5.15524903e-03, 6.12358237e-03, 3.07948329e-03,
          3.61181214e-03, 2.81131431e-03, 4.49659582e-03, 3.40545829e-03,
          1.63629244e-03, 1.40438811e-03, 5.50819281e-03, 7.39262579e-03,
          4.66345297e-03, 4.25225776e-03, 3.36163351e-03, 4.80367430e-03,
          4.21638694e-03, 2.35752622e-03, 1.71270350e-03, 6.60423189e-03,
          5.37859881e-03, 2.62048445e-03, 1.29669113e-03, 1.91288639e-03,
          3.70003819e-03, 2.69391318e-03, 1.95619371e-03, 1.81507401e-03,
          4.28269338e-03, 7.46268220e-03, 2.84358440e-03, 1.60412467e-03,
          2.77332356e-03, 9.46544204e-03, 3.83494771e-03, 2.85789208e-03,
          1.56499923e-03, 6.02259301e-03, 6.88349316e-03, 3.59479338e-03,
          2.25987472e-03, 2.28287536e-03, 4.17274935e-03, 2.68792943e-03,
          1.68804079e-03, 9.84642189e-04, 5.57588646e-03, 7.71889696e-03,
          5.30038541e-03, 3.43177048e-03, 2.93105678e-03, 1.31126801e-02,
          4.18716483e-03, 2.28748680e-03, 1.94300222e-03, 6.56548748e-03,
          6.28177123e-03, 2.84832017e-03, 1.35850091e-03, 1.60098216e-03,
          6.16894383e-03, 3.21914651e-03, 2.84716673e-03, 1.92484702e-03,
          5.22627449e-03, 6.61116047e-03, 2.88810907e-03, 2.18835194e-03,
          1.87900511e-03, 9.39358305e-03, 7.57920742e-03, 5.31392638e-03,
          4.74984385e-03, 6.36567688e-03, 7.80452555e-03, 6.18678378e-03,
          2.49024061e-03, 1.84599636e-03, 7.02055870e-03, 3.99873080e-03,
          2.40927283e-03, 1.77300058e-03, 6.79140026e-03, 8.56244937e-03,
          6.35182252e-03, 3.05249449e-03, 3.00346222e-03, 9.41920746e-03,
          8.03041365e-03, 5.01018716e-03, 5.82777103e-03, 8.38302262e-03,
          5.31028118e-03, 1.49015628e-03, 6.55212672e-04, 1.19129312e-03,
          7.08240503e-03, 4.09391196e-03, 3.25705693e-03, 3.31109366e-03,
          4.90089320e-03, 7.37527199e-03, 2.03459873e-03, 8.72920733e-04,
          4.27466165e-03, 9.45144426e-03, 5.12980204e-03, 2.33675330e-03,
          2.84038484e-03, 5.02415467e-03, 7.80537911e-03, 3.83066968e-03,
          1.43268390e-03, 2.02750950e-03, 7.44497962e-03, 4.23352513e-03,
          3.71425622e-03, 4.51997994e-03, 7.04084570e-03, 9.06465575e-03,
          5.47816046e-03, 2.11178861e-03, 4.83512552e-03, 9.45022516e-03,
          5.96901122e-03, 3.65187787e-03, 4.03209776e-03, 6.50830474e-03,
          6.39579119e-03, 1.90964970e-03, 1.03635876e-03, 3.62863299e-03,
          7.18920073e-03, 3.74432583e-03, 2.02053925e-03, 2.35995557e-03,
          4.29033302e-03, 7.61080440e-03, 2.33715796e-03, 2.07674969e-03,
          4.53628227e-03, 6.59632217e-03, 5.47527289e-03, 2.41399906e-03,
          2.35487823e-03, 5.21182083e-03, 8.83435272e-03, 5.00917528e-03,
          1.62513566e-03, 3.43440543e-03, 7.78890913e-03, 5.34737855e-03,
          3.30137881e-03, 3.50216241e-03, 5.58318850e-03, 9.22426116e-03,
          5.25476085e-03, 2.65728659e-03, 3.99996061e-03, 7.65005220e-03,
          5.84983500e-03, 4.03868128e-03, 3.97588219e-03, 7.86127523e-03,
          6.26590848e-03, 1.63186551e-03, 2.06717593e-03, 4.22178349e-03,
          6.94218045e-03, 5.40883699e-03, 2.77055381e-03, 2.95612984e-03,
          4.73648589e-03, 7.15319160e-03, 2.24678940e-03, 2.30697682e-03,
          2.51448317e-03, 7.53489276e-03, 4.79821395e-03, 2.49911379e-03,
          2.87336297e-03, 5.31334290e-03, 8.84117838e-03, 2.27175700e-03,
          2.34264228e-03, 3.66548635e-03, 7.88741745e-03, 6.22937409e-03,
          3.69294011e-03, 4.45530843e-03, 7.70868547e-03, 9.25052539e-03,
          2.96786730e-03, 3.56211467e-03, 3.01086484e-03, 9.39626526e-03,
          5.76483645e-03, 3.44211329e-03, 4.84733051e-03, 7.91302789e-03,
          7.19862618e-03, 2.64733774e-03, 2.19517690e-03, 3.35713523e-03,
          1.05567733e-02, 5.10087330e-03, 2.96457135e-03, 2.34271004e-03,
          5.30723576e-03, 6.91966247e-03, 2.89740041e-03, 1.36631471e-03,
          2.15868372e-03, 7.89946038e-03, 3.90601391e-03, 1.93590601e-03,
          1.89000927e-03, 5.16349217e-03, 9.56351589e-03, 3.59304599e-03,
          4.10553301e-03, 4.29405551e-03, 1.18004521e-02, 6.55430043e-03,
          4.31180513e-03, 4.20464808e-03, 7.90712982e-03, 8.40651803e-03,
          3.21153365e-03, 1.54424063e-03, 2.72106286e-03, 8.92902538e-03,
          4.97096730e-03, 3.06693907e-03, 3.44779389e-03, 8.28173943e-03,
          5.58563136e-03, 2.57547013e-03, 1.62511668e-03, 1.10560236e-03,
          9.84324608e-03, 3.92729463e-03, 1.93441089e-03, 1.87558692e-03,
          4.33690846e-03, 6.30906038e-03, 2.49711284e-03, 1.40659523e-03,
          1.66715786e-03, 4.97585442e-03, 4.49352851e-03, 2.71958602e-03,
          2.31982395e-03, 4.63578990e-03, 8.88807233e-03, 2.88445642e-03,
          7.75203458e-04, 1.93001877e-03, 1.16362460e-02, 5.39455842e-03,
          2.38389801e-03, 2.52540549e-03, 7.14693731e-03, 8.74022860e-03,
          3.22617847e-03, 1.59133074e-03, 1.85791124e-03, 5.33505622e-03,
          4.94278502e-03, 2.97919824e-03, 2.22318945e-03, 6.63811993e-03,
          5.13864635e-03, 1.62764650e-03, 1.40298030e-03, 2.07894319e-03,
          4.92259208e-03, 3.58292041e-03, 2.32178555e-03, 1.83356612e-03,
          3.60821793e-03, 6.43381523e-03, 2.85373582e-03, 2.31729168e-03,
          2.73911445e-03, 4.90368530e-03, 3.28436284e-03, 2.10313546e-03,
          1.90137594e-03, 4.11472237e-03, 8.01566336e-03, 2.94783735e-03,
          1.60598464e-03, 2.09834869e-03, 5.36532979e-03, 5.16032754e-03,
          2.94353976e-03, 2.04995135e-03, 6.01129280e-03, 8.12892430e-03,
          3.48365959e-03, 2.53751036e-03, 3.51499044e-03, 5.33165922e-03,
          5.35112154e-03, 2.62205396e-03, 1.77869259e-03, 6.57101208e-03,
          6.28538290e-03, 2.95902463e-03, 1.99319771e-03, 2.89747352e-03,
          4.15888615e-03, 3.22959712e-03, 2.01706705e-03, 1.62022503e-03,
          3.26263160e-03, 8.66105314e-03, 3.57392523e-03, 2.26297695e-03,
          3.50694358e-03, 4.65106778e-03, 3.38398828e-03, 2.09551211e-03,
          1.26996753e-03, 4.95439069e-03, 8.18545651e-03, 3.02811130e-03,
          2.18437938e-03, 3.95049946e-03, 5.22866752e-03, 4.50453069e-03,
          2.14409037e-03, 1.36084727e-03, 6.08508475e-03, 9.41374712e-03,
          3.01000313e-03, 2.33467948e-03, 4.49920679e-03, 5.35853067e-03,
          4.26640781e-03, 2.20987876e-03, 9.73921153e-04, 7.95800891e-03,
          5.21533703e-03, 2.18824809e-03, 1.20495725e-03, 1.98535179e-03,
          5.17685153e-03, 2.73900526e-03, 1.63514516e-03, 1.14665634e-03,
          4.37049801e-03, 5.91233233e-03, 3.34867672e-03, 2.05626129e-03,
          3.47463950e-03, 5.83694084e-03, 3.31199425e-03, 2.21126783e-03,
          1.68364798e-03, 4.72199218e-03, 7.75475847e-03, 5.61763998e-03,
          2.17209500e-03, 3.01905023e-03, 5.81425009e-03, 2.78517371e-03,
          1.70168537e-03, 1.61104708e-03, 4.91973758e-03, 7.26991333e-03,
          6.12859847e-03, 2.88866088e-03, 3.90187185e-03, 5.78360260e-03,
          3.62047623e-03, 2.19676807e-03, 1.83911098e-03, 5.30223781e-03,
          4.96491417e-03, 2.00259290e-03, 1.18690729e-03, 2.98810611e-03,
          4.43420140e-03, 2.77442066e-03, 1.42127741e-03, 1.30025693e-03,
          4.19486081e-03, 6.75627589e-03, 2.58612563e-03, 2.28129420e-03,
          3.19804274e-03, 4.84308368e-03, 3.24024120e-03, 1.70285208e-03,
          1.07390119e-03, 5.08147478e-03, 7.22299144e-03, 4.64187469e-03,
          1.70265220e-03, 3.46848555e-03, 5.20553300e-03, 3.13281314e-03,
          1.59643602e-03, 1.58076535e-03, 5.85394120e-03, 7.77171506e-03,
          4.52381093e-03, 1.93936564e-03, 3.46304290e-03, 5.85306482e-03,
          3.72095546e-03, 2.07456201e-03, 1.81250169e-03, 7.09809409e-03,
          6.02078438e-03, 1.74332270e-03, 1.73376477e-03, 2.16528447e-03,
          4.14472679e-03, 2.21821992e-03, 1.64057373e-03, 8.66046757e-04,
          4.28972766e-03, 6.87203463e-03, 2.40424834e-03, 2.09407182e-03,
          2.45798379e-03, 1.29730850e-02, 4.62861918e-03, 2.04934506e-03,
          2.19971174e-03, 5.16205607e-03, 7.47418357e-03, 1.92045746e-03,
          1.45543762e-03, 2.58261128e-03, 5.25859930e-03, 3.13964440e-03,
          1.40999525e-03, 1.79159478e-03, 6.05488336e-03, 7.01796496e-03,
          2.06056051e-03, 1.76376174e-03, 2.97953095e-03, 1.29146315e-02,
          4.74381028e-03, 1.79116568e-03, 3.75517691e-03, 7.38947699e-03,
          6.58174930e-03, 3.72981024e-03, 2.43669306e-03, 2.43041641e-03,
          7.16445968e-03, 4.03461093e-03, 2.08719983e-03, 2.25735037e-03,
          4.46553482e-03, 8.47613718e-03, 4.94658062e-03, 3.21306544e-03,
          4.00848128e-03, 9.19576082e-03, 5.88528486e-03, 3.82903684e-03,
          4.45436127e-03, 5.38115017e-03, 7.25115044e-03, 2.95360642e-03,
          1.99204637e-03, 2.92603043e-03, 8.03128257e-03, 4.03392548e-03,
          2.06520059e-03, 3.56906699e-03, 6.26399135e-03, 8.77734926e-03,
          5.08732628e-03, 4.44427179e-03, 4.97320807e-03, 8.97899177e-03,
          5.88458637e-03, 4.60062176e-03, 5.01452992e-03, 7.40071898e-03,
          6.62674475e-03, 3.96251678e-03, 1.40706054e-03, 2.25760438e-03,
          5.92344766e-03, 3.31880711e-03, 3.05073778e-03, 2.62223161e-03,
          3.95504991e-03, 8.28955881e-03, 5.05392998e-03, 2.05207430e-03,
          4.50963154e-03, 8.42140522e-03, 5.76059660e-03, 3.91772296e-03,
          3.05074337e-03, 3.91533878e-03, 7.02151703e-03, 4.26577777e-03,
          2.30081286e-03, 3.04913637e-03, 6.45262934e-03, 4.32372559e-03,
          2.67612282e-03, 2.32042978e-03, 4.03239205e-03, 7.79357273e-03,
          5.34796389e-03, 3.91146680e-03, 5.30136749e-03, 9.53485537e-03,
          8.33534170e-03, 4.50850185e-03, 2.88222753e-03, 4.11134539e-03,
          7.53594376e-03, 4.70384210e-03, 1.23283011e-03, 2.03802227e-03,
          6.58908905e-03, 4.36046161e-03, 3.01883649e-03, 1.97971635e-03,
          3.04054632e-03, 8.52562115e-03, 4.31407802e-03, 1.44534616e-03,
          2.71608797e-03, 6.93453243e-03, 5.71919326e-03, 2.90777115e-03,
          2.66914256e-03, 4.80721658e-03, 7.22298119e-03, 5.11495396e-03,
          2.65292125e-03, 3.01614637e-03, 8.12568888e-03, 5.91428997e-03,
          2.69476185e-03, 2.69036437e-03, 3.02830338e-03, 7.60455010e-03,
          4.96256072e-03, 2.61003175e-03, 3.66816297e-03, 8.97028390e-03,
          7.35266646e-03, 2.79957079e-03, 4.11455845e-03, 6.17871713e-03,
          7.67157692e-03, 1.92699255e-03, 1.36008498e-03, 2.65270122e-03,
          7.37178279e-03, 5.65128913e-03, 2.69719749e-03, 2.77884980e-03,
          5.79108717e-03, 8.33170954e-03, 1.79466803e-03, 1.85451354e-03,
          2.45705084e-03, 7.92513508e-03, 4.63764044e-03, 1.71693717e-03,
          2.47620023e-03, 7.09567266e-03, 6.78792130e-03, 2.46270560e-03,
          1.88385788e-03, 3.60986451e-03, 9.40386672e-03, 6.94087241e-03,
          3.11025581e-03, 4.09894064e-03, 5.91222523e-03, 7.37697771e-03,
          2.15161755e-03, 1.69374305e-03, 3.22372583e-03, 9.37945209e-03,
          5.85009204e-03, 2.43232073e-03, 3.77574167e-03, 6.98697148e-03,
          7.66400620e-03, 2.13185558e-03, 2.44667754e-03, 3.60271102e-03,
          9.86655336e-03, 5.53785870e-03, 1.84559298e-03, 2.78357579e-03,
          6.35782862e-03, 7.30528357e-03, 2.42887391e-03, 1.07104599e-03,
          2.15942319e-03, 7.26562366e-03, 4.54476755e-03, 2.09718710e-03,
          2.32019997e-03, 6.93984190e-03, 7.60237779e-03, 3.44347861e-03,
          1.80409499e-03, 4.82586911e-03, 1.03465514e-02, 5.97331813e-03,
          2.59684119e-03, 3.36988224e-03, 7.55299069e-03, 7.58704171e-03,
          3.66250169e-03, 1.35298446e-03, 3.01515334e-03, 8.19094665e-03,
          4.69144620e-03, 2.24325061e-03, 2.58963578e-03, 7.77321309e-03,
          7.40470132e-03, 2.11015786e-03, 7.84666161e-04, 1.57583738e-03,
          1.00189885e-02, 4.64544352e-03, 1.30965852e-03, 1.37637660e-03,
          5.28923469e-03, 7.31884316e-03, 3.01747792e-03, 1.41907751e-03,
          1.84461125e-03, 5.72163519e-03, 4.63342853e-03, 1.63859408e-03,
          1.44610426e-03, 5.25198318e-03, 7.97206629e-03, 3.39366868e-03,
          1.43279438e-03, 2.22848845e-03, 1.19499667e-02, 4.25737863e-03,
          1.51710364e-03, 1.76943908e-03, 5.91282547e-03, 7.89816584e-03,
          4.05253284e-03, 2.10784911e-03, 2.65816995e-03, 6.15177536e-03,
          4.67563234e-03, 1.83543295e-03, 1.76042179e-03, 5.27850352e-03,
          6.37835125e-03, 2.37631123e-03, 1.16869994e-03, 2.26180861e-03,
          5.57605317e-03, 4.62635327e-03, 2.14187568e-03, 1.39880041e-03,
          4.56106989e-03, 6.92120241e-03, 2.39745295e-03, 1.27184833e-03,
          3.14092962e-03, 5.20328153e-03, 3.98604991e-03, 2.03760783e-03,
          1.36410689e-03, 5.09274937e-03, 7.40045914e-03, 3.66617856e-03,
          1.99003797e-03, 3.31441034e-03, 6.15751557e-03, 4.24230611e-03,
          2.22736318e-03, 1.38828298e-03, 4.94903466e-03, 7.27279019e-03,
          3.58004426e-03, 2.54860008e-03, 4.31278162e-03, 6.11515157e-03,
          4.35928721e-03, 2.14356300e-03, 1.65890832e-03, 5.70189534e-03,
          6.84222113e-03, 1.44897494e-03, 1.42418465e-03, 3.32092168e-03,
          5.12033468e-03, 4.17650957e-03, 1.78767857e-03, 1.08403002e-03,
          4.74559609e-03, 7.65370112e-03, 1.74096937e-03, 1.93679472e-03,
          3.56473750e-03, 4.64408658e-03, 4.22226265e-03, 2.61150999e-03,
          1.49570312e-03, 6.77026156e-03, 7.21821655e-03, 2.51875143e-03,
          2.97334814e-03, 4.17286903e-03, 5.64899715e-03, 4.35133791e-03,
          2.12996849e-03, 1.76613405e-03, 5.23466291e-03, 8.00872128e-03,
          1.66807277e-03, 3.13877501e-03, 4.04003588e-03, 4.81029926e-03,
          4.54771612e-03, 4.07317048e-03, 2.60406733e-03, 7.66912056e-03,
          5.31704677e-03, 3.92919546e-03, 2.06213957e-03, 2.83625233e-03,
          5.44949621e-03, 2.36116373e-03, 1.66365621e-03, 1.72837463e-03,
          3.37257190e-03, 5.26218396e-03, 5.55931265e-03, 3.26583441e-03,
          4.07631649e-03, 5.59488917e-03, 3.24897864e-03, 2.49010511e-03,
          2.16677273e-03, 3.44035216e-03, 6.76560774e-03, 5.33763692e-03,
          4.10034694e-03, 4.17524017e-03, 6.32408634e-03, 2.79121194e-03,
          2.15047644e-03, 1.77839620e-03, 4.61487053e-03, 6.37671584e-03,
          6.01608958e-03, 4.20782575e-03, 5.51368622e-03, 6.11373549e-03,
          3.45942401e-03, 3.12344474e-03, 3.22517217e-03, 4.72836616e-03,
          6.05083397e-03, 4.06900654e-03, 2.60076718e-03, 2.98590213e-03,
          5.22808963e-03, 2.61683925e-03, 1.64736318e-03, 1.52073556e-03,
          4.00868803e-03, 6.88985502e-03, 3.55281681e-03, 1.85383263e-03,
          3.20382672e-03, 6.02243515e-03, 3.43546947e-03, 2.29956675e-03,
          1.73987378e-03, 5.14222821e-03, 6.38397038e-03, 3.96280084e-03,
          2.72013363e-03, 3.12412693e-03, 4.65725316e-03, 2.66793137e-03,
          2.18540174e-03, 2.93271849e-03, 5.12284692e-03, 6.99823722e-03,
          3.92302964e-03, 2.33462104e-03, 2.68464163e-03, 5.38974488e-03,
          4.11930494e-03, 2.73441174e-03, 2.73856474e-03, 4.90515539e-03,
          6.15594257e-03, 1.96676748e-03, 1.04389864e-03, 2.12114002e-03,
          4.88589704e-03, 3.24152620e-03, 1.78986706e-03, 2.01638602e-03,
          4.61355504e-03, 5.75844478e-03, 2.00236356e-03, 1.43842469e-03,
          2.89639831e-03, 1.24049447e-02, 4.89244936e-03, 2.30134418e-03,
          3.59150744e-03, 6.24078605e-03, 7.01390579e-03, 3.32003343e-03,
          1.43844739e-03, 1.85363670e-03, 5.14790695e-03, 3.98126291e-03,
          2.34633987e-03, 2.37185345e-03, 4.62092180e-03, 7.85514433e-03,
          3.83813074e-03, 2.02711672e-03, 2.49078241e-03, 1.34569295e-02,
          5.01687452e-03, 3.44995246e-03, 4.17567557e-03, 6.26465958e-03,
          5.92567120e-03, 2.32167682e-03, 1.62729213e-03, 2.17190478e-03,
          7.39046512e-03, 3.44021642e-03, 2.22381391e-03, 3.95825645e-03,
          6.04311842e-03, 7.80017814e-03, 4.81710397e-03, 3.45888012e-03,
          4.50291298e-03, 8.78548715e-03, 5.86158456e-03, 4.14584856e-03,
          4.72166762e-03, 7.93939177e-03, 6.68277731e-03, 4.13678121e-03,
          2.27440801e-03, 1.94190210e-03, 8.25803354e-03, 4.15004883e-03,
          3.74901644e-03, 4.30019945e-03, 6.31383387e-03, 9.44629125e-03,
          5.56570245e-03, 3.66394804e-03, 3.50078871e-03, 8.89351871e-03,
          6.73458446e-03, 5.76327136e-03, 5.32545196e-03, 8.42450745e-03,
          5.44908550e-03, 3.57502466e-03, 1.72848301e-03, 3.35534709e-03,
          6.27937261e-03, 4.25837329e-03, 2.75505288e-03, 2.22154567e-03,
          3.68966348e-03, 5.57554141e-03, 4.36283043e-03, 3.43485083e-03,
          5.16051287e-03, 1.00407330e-02, 9.33472067e-03, 5.69357676e-03,
          3.19211604e-03, 4.48883930e-03, 7.20532890e-03, 3.35179013e-03,
          2.17780075e-03, 2.82464898e-03, 6.68230699e-03, 4.21052938e-03,
          3.02537950e-03, 1.90450600e-03, 5.40699903e-03, 6.62346045e-03,
          4.06743074e-03, 3.35549563e-03, 5.18050324e-03, 1.11368066e-02,
          8.97615589e-03, 5.71192801e-03, 4.40134062e-03, 6.87882444e-03,
          5.11582149e-03, 3.68176727e-03, 2.34809704e-03, 3.06963571e-03,
          7.57453684e-03, 5.74475061e-03, 2.81788432e-03, 2.46017310e-03,
          4.01238026e-03, 6.35865657e-03, 3.98619380e-03, 2.55644880e-03,
          3.77440406e-03, 8.35850090e-03, 6.68282481e-03, 3.06599098e-03,
          3.59010464e-03, 6.02925243e-03, 5.97444410e-03, 2.67027668e-03,
          1.80982554e-03, 3.79912625e-03, 7.94466864e-03, 5.97327575e-03,
          3.27048008e-03, 4.37128684e-03, 6.43662177e-03, 6.85269898e-03,
          4.25491575e-03, 3.37395817e-03, 5.35942940e-03, 8.25120881e-03,
          5.50731551e-03, 3.76775418e-03, 4.89359675e-03, 7.38940900e-03,
          5.15098451e-03, 3.04462574e-03, 2.57969880e-03, 4.39719111e-03,
          8.74225702e-03, 5.41082025e-03, 2.42993468e-03, 3.06306011e-03,
          5.03352145e-03, 6.51676720e-03, 3.17509263e-03, 1.92496297e-03,
          3.01774195e-03, 9.10135638e-03, 4.04287176e-03, 1.95194490e-03,
          2.89940462e-03, 5.58047974e-03, 5.88662317e-03, 4.73294826e-03,
          3.91390361e-03, 5.98933408e-03, 8.16225354e-03, 4.91829542e-03,
          2.64140847e-03, 2.54004402e-03, 5.63410902e-03, 7.02076731e-03,
          4.15266259e-03, 3.72493942e-03, 5.11297118e-03, 8.57803132e-03,
          3.95667925e-03, 2.12734705e-03, 2.66698608e-03, 6.55527273e-03,
          6.44724537e-03, 2.79196119e-03, 1.51490688e-03, 3.36261629e-03,
          1.00338282e-02, 4.91677504e-03, 2.14887620e-03, 2.22857413e-03,
          5.62513201e-03, 6.61385059e-03, 2.59583769e-03, 2.05663592e-03,
          3.08040157e-03, 6.92222873e-03, 3.18942824e-03, 1.66062894e-03,
          2.31315428e-03, 7.41226785e-03, 6.30947575e-03, 3.16377194e-03,
          2.52733054e-03, 5.67080313e-03, 9.64085851e-03, 6.06007501e-03,
          2.45685782e-03, 3.16374213e-03, 7.04532908e-03, 6.65035844e-03,
          1.91897189e-03, 2.69647175e-03, 3.59068904e-03, 6.57646265e-03,
          4.21086280e-03, 2.33421871e-03, 2.94550485e-03, 7.61759793e-03,
          6.48955256e-03, 2.65316735e-03, 1.38115312e-03, 3.05017014e-03,
          1.06030749e-02, 3.16075492e-03, 1.56132807e-03, 1.90745853e-03,
          5.28085791e-03, 7.09922379e-03, 3.15630902e-03, 1.92766183e-03,
          2.34947237e-03, 5.47469361e-03, 4.02291166e-03, 2.17514066e-03,
          1.48988341e-03, 5.19112544e-03, 6.93245698e-03, 2.22430401e-03,
          2.14143097e-03, 3.16967955e-03, 8.33561271e-03, 3.76010593e-03,
          2.04449054e-03, 2.43354356e-03, 6.47774665e-03, 7.56709743e-03,
          2.69112340e-03, 2.05759145e-03, 2.69200839e-03, 5.14697144e-03,
          4.05890681e-03, 3.00089829e-03, 2.07685307e-03, 5.40450029e-03,
          5.78161003e-03, 2.86548911e-03, 2.13156641e-03, 3.04082804e-03,
          5.36600454e-03, 3.51623702e-03, 1.97240780e-03, 1.28865475e-03,
          4.28051734e-03, 6.59558317e-03, 3.38407257e-03, 3.20398086e-03,
          3.53706209e-03, 4.92923986e-03, 3.55996750e-03, 1.52012007e-03,
          1.50552834e-03, 4.89412807e-03, 6.59291260e-03, 2.51883245e-03,
          2.63654697e-03, 3.09506129e-03, 5.30995196e-03, 4.06456320e-03,
          2.57480075e-03, 1.87633990e-03, 5.56085305e-03, 6.42267196e-03,
          3.14507564e-03, 3.64330434e-03, 3.30318348e-03, 5.56002092e-03,
          3.89566505e-03, 2.66678887e-03, 2.26100930e-03, 5.74559113e-03,
          6.48117764e-03, 2.56075803e-03, 3.81486188e-03, 3.31348041e-03,
          3.79445078e-03, 3.82850203e-03, 2.03314214e-03, 1.58141286e-03,
          4.38031321e-03, 7.50496658e-03, 1.70757249e-03, 3.86719080e-03,
          3.30302748e-03, 2.91816844e-03, 4.33338666e-03, 2.81501492e-03,
          2.38739629e-03, 7.80560588e-03, 7.37918215e-03, 2.42509949e-03,
          3.51883098e-03, 3.44024180e-03, 4.15156968e-03, 4.38349927e-03,
          2.68943678e-03, 2.09062430e-03, 6.03220519e-03, 8.17663409e-03,
          1.98082929e-03, 3.54543142e-03, 3.22780595e-03, 4.38890513e-03,
          4.27708169e-03, 2.69843242e-03, 2.29614251e-03, 8.04097578e-03,
          6.11838419e-03, 2.17649015e-03, 2.84234155e-03, 2.81313248e-03,
          5.98198781e-03, 2.08568689e-03, 1.94438803e-03, 1.23995426e-03,
          4.86918306e-03, 6.02728268e-03, 3.20984796e-03, 2.76264711e-03,
          4.06160159e-03, 6.32210169e-03, 2.65848450e-03, 1.99642871e-03,
          1.85684033e-03, 4.60854406e-03, 6.91255508e-03, 1.66180183e-03,
          2.70953309e-03, 3.20351683e-03, 6.13340503e-03, 2.97632813e-03,
          1.56021270e-03, 1.36281701e-03, 6.16093865e-03, 6.67767180e-03,
          1.73777656e-03, 2.76734633e-03, 4.20501549e-03, 6.61112554e-03,
          3.25393979e-03, 2.26409384e-03, 2.68284534e-03, 6.16712589e-03,
          6.02448778e-03, 3.44561692e-03, 1.88590342e-03, 2.79082544e-03,
          4.78746602e-03, 2.63291248e-03, 1.83890574e-03, 1.29213650e-03,
          4.50249203e-03, 6.21812372e-03, 3.81319295e-03, 2.23949249e-03,
          2.17414252e-03, 5.95342088e-03, 3.88108962e-03, 2.77915015e-03,
          1.91608036e-03, 5.11923153e-03, 5.28914714e-03, 2.15927046e-03,
          1.76570565e-03, 3.30432295e-03, 5.62302861e-03, 3.62804602e-03,
          1.38378958e-03, 2.31044460e-03, 6.00801315e-03, 5.85747883e-03,
          2.75640958e-03, 2.07129493e-03, 2.74001854e-03, 5.14422916e-03,
          4.16240050e-03, 2.48213625e-03, 3.15595604e-03, 6.64139492e-03,
          5.53639606e-03, 3.48907476e-03, 2.28202925e-03, 1.28395727e-03,
          4.44994681e-03, 2.98604416e-03, 2.08735652e-03, 1.41721754e-03,
          4.16303892e-03, 7.04478612e-03, 4.52753808e-03, 2.84699420e-03,
          2.01076735e-03, 1.30891697e-02, 4.42906516e-03, 2.78364494e-03,
          2.39453302e-03, 5.55172330e-03, 6.09339448e-03, 3.18941916e-03,
          1.83300814e-03, 2.08882638e-03, 4.72322246e-03, 2.61811470e-03,
          1.83414551e-03, 2.59469310e-03, 5.78531204e-03, 7.83906225e-03,
          2.68413243e-03, 1.69607741e-03, 2.29463796e-03, 1.19632306e-02,
          4.42372356e-03, 1.75056944e-03, 2.13845214e-03, 7.16267480e-03,
          6.35126419e-03, 4.05530725e-03, 2.12481432e-03, 1.22510281e-03,
          6.93193683e-03, 3.35609354e-03, 2.45905598e-03, 2.87512294e-03,
          5.78850182e-03, 9.06006154e-03, 5.19645214e-03, 3.43110575e-03,
          2.37908005e-03, 9.24058259e-03, 5.78590529e-03, 5.01834182e-03,
          3.86948721e-03, 7.99988955e-03, 8.08557682e-03, 2.88854120e-03,
          2.03289231e-03, 1.69564667e-03, 7.32292328e-03, 3.28268204e-03,
          1.39441784e-03, 2.30781571e-03, 8.04369617e-03, 9.77979787e-03,
          3.94549314e-03, 4.26842552e-03, 4.00528358e-03, 9.25845560e-03,
          5.02863945e-03, 3.08100902e-03, 2.87842029e-03, 9.23742168e-03,
          6.79136673e-03, 3.06327431e-03, 1.78079621e-03, 1.40887080e-03,
          5.51936356e-03, 3.43882781e-03, 2.79300450e-03, 1.67638052e-03,
          5.73645718e-03, 7.73431547e-03, 3.86565342e-03, 3.22787580e-03,
          4.23702272e-03, 9.54703800e-03, 7.54677318e-03, 4.43844963e-03,
          3.83873144e-03, 7.50379637e-03, 8.10863078e-03, 2.62676273e-03,
          2.43931403e-03, 3.57293384e-03, 6.55201869e-03, 2.71750800e-03,
          1.40077085e-03, 1.37767231e-03, 7.53440335e-03, 7.91350845e-03,
          3.02614272e-03, 3.62507929e-03, 5.03307534e-03, 9.02314857e-03,
          6.50981907e-03, 3.21926549e-03, 3.20128631e-03, 7.83477910e-03,
          5.30693587e-03, 2.64064735e-03, 2.00025737e-03, 3.60457273e-03,
          7.45036546e-03, 5.13094384e-03, 2.20780214e-03, 3.09784384e-03,
          6.96853641e-03, 7.30779488e-03, 3.71376332e-03, 3.41017311e-03,
          4.48652357e-03, 8.59072339e-03, 5.11225499e-03, 2.53731408e-03,
          3.41550959e-03, 7.06624473e-03, 5.31416899e-03, 2.34764023e-03,
          2.56523816e-03, 4.11747675e-03, 8.01946782e-03, 5.10551361e-03,
          2.84071872e-03, 2.17861217e-03, 5.63276652e-03, 6.53986819e-03,
          3.50351050e-03, 3.15851718e-03, 4.48599458e-03, 8.37330427e-03,
          5.85743273e-03, 3.31951212e-03, 4.21464210e-03, 5.78607852e-03,
          5.62127540e-03, 4.05259104e-03, 3.27893929e-03, 4.30681696e-03,
          7.89551530e-03, 4.27698577e-03, 1.91217824e-03, 2.36781267e-03,
          5.79420524e-03, 6.19189767e-03, 4.44528693e-03, 2.96373572e-03,
          3.78609565e-03, 7.56091345e-03, 3.84877715e-03, 2.48452695e-03,
          3.24163632e-03, 7.10799266e-03, 4.69263503e-03, 3.68725159e-03,
          3.23901302e-03, 3.94580420e-03, 7.67621212e-03, 5.01170615e-03,
          2.64129066e-03, 4.42105159e-03, 6.38761185e-03, 7.45516969e-03,
          4.07558214e-03, 3.18581355e-03, 3.91563214e-03, 7.88401347e-03,
          5.45291463e-03, 2.67585507e-03, 3.74274072e-03, 7.36177061e-03,
          5.19859092e-03, 2.68037035e-03, 2.59263371e-03, 5.25514362e-03,
          9.33752023e-03, 5.20069897e-03, 2.62966030e-03, 3.48768150e-03,
          7.21488241e-03, 6.92924811e-03, 1.90768822e-03, 2.57666921e-03,
          3.46660567e-03, 6.36435580e-03, 3.77817824e-03, 2.42972071e-03,
          3.14066978e-03, 7.56798359e-03, 6.11538813e-03, 2.84035155e-03,
          3.82788084e-03, 5.85271884e-03, 9.82910208e-03, 6.33359095e-03,
          3.57269705e-03, 3.18305427e-03, 6.19829074e-03, 6.18707668e-03,
          2.10357760e-03, 2.88339565e-03, 3.61584569e-03, 8.50450993e-03,
          5.02643548e-03, 2.82352488e-03, 2.56912410e-03, 6.98662503e-03,
          6.61191624e-03, 1.90262985e-03, 2.11080676e-03, 2.89588002e-03,
          8.99491273e-03, 2.90298485e-03, 2.08106823e-03, 2.19236687e-03,
          7.22850719e-03, 7.49632763e-03, 2.79296609e-03, 1.64965924e-03,
          2.70208484e-03, 5.42654330e-03, 3.59475869e-03, 1.78180833e-03,
          2.10122764e-03, 6.94484496e-03, 6.22608792e-03, 1.22199976e-03,
          2.50937650e-03, 3.36209382e-03, 1.23588610e-02, 4.26126644e-03,
          2.37428094e-03, 1.75290927e-03, 6.56988332e-03, 6.46709558e-03,
          1.77540409e-03, 2.33358284e-03, 3.80162825e-03, 4.95759910e-03,
          3.86561779e-03, 2.10791151e-03, 1.98518205e-03, 5.98368468e-03,
          6.81215758e-03, 2.58649094e-03, 1.92787510e-03, 2.90069683e-03,
          5.77158993e-03, 3.25562782e-03, 2.10915762e-03, 1.55740068e-03,
          6.02777535e-03, 7.16764294e-03, 2.99433246e-03, 2.66649690e-03,
          3.25174746e-03, 5.78911602e-03, 3.87999811e-03, 2.87556276e-03,
          2.33678147e-03, 6.71150954e-03, 6.12276653e-03, 1.81270170e-03,
          2.09611701e-03, 3.50657315e-03, 4.98063304e-03, 4.01895121e-03,
          2.06714706e-03, 1.62381213e-03, 5.18705882e-03, 6.67165313e-03,
          1.44247839e-03, 1.83659454e-03, 3.52824293e-03, 5.53464796e-03,
          4.32927534e-03, 2.90431385e-03, 2.25276267e-03, 6.26515783e-03,
          6.59701927e-03, 2.04363163e-03, 2.54856539e-03, 3.12779122e-03,
          5.11685107e-03, 3.81149049e-03, 2.49923230e-03, 1.80529233e-03,
          6.11141743e-03, 7.73648219e-03, 1.91626186e-03, 3.12587153e-03,
          3.04393354e-03, 4.71498957e-03, 3.69685260e-03, 2.60701543e-03,
          1.77190639e-03, 8.11403617e-03, 6.91439910e-03, 1.78664085e-03,
          1.80183293e-03, 3.57556483e-03, 5.27971284e-03, 4.46970668e-03,
          2.70167110e-03, 1.98092195e-03, 5.64549863e-03, 8.31518322e-03,
          2.55079102e-03, 2.14249152e-03, 3.53178242e-03, 4.71928855e-03,
          4.21616482e-03, 2.65122158e-03, 2.47122184e-03, 7.85090216e-03,
          4.59227758e-03, 1.45277521e-03, 1.80820911e-03, 2.00315099e-03,
          5.67217916e-03, 2.44782749e-03, 8.40811408e-04, 1.45897234e-03,
          7.21756276e-03, 3.98492441e-03, 1.72772654e-03, 2.03460641e-03,
          2.59509496e-03, 6.65880041e-03, 2.91514117e-03, 1.22693297e-03,
          3.33933067e-03, 7.34241446e-03, 4.15937230e-03, 1.70115184e-03,
          1.70088909e-03, 1.68358628e-03, 5.42211020e-03, 2.64496938e-03,
          7.46471458e-04, 2.82943109e-03, 7.30343210e-03, 3.10758548e-03,
          1.67946657e-03, 1.46169937e-03, 2.39052880e-03, 6.15519239e-03,
          3.32621322e-03, 1.23962166e-03, 4.98663494e-03, 6.92165457e-03,
          2.96238740e-03, 1.30077603e-03, 1.07231562e-03, 2.78194156e-03,
          6.14009146e-03, 2.85813119e-03, 9.13438038e-04, 2.53423396e-03,
          6.16072956e-03, 3.33725964e-03, 2.03297986e-03, 1.70359598e-03,
          2.69631715e-03, 5.05408458e-03, 3.27108870e-03, 1.70037779e-03,
          3.06924223e-03, 6.05504727e-03, 2.88764364e-03, 1.65871659e-03,
          1.27016264e-03, 2.48126336e-03, 5.89195127e-03, 3.06495884e-03,
          8.86608672e-04, 4.17923881e-03, 5.88634983e-03, 2.55796942e-03,
          2.07471661e-03, 1.58485363e-03, 2.50697066e-03, 5.34775946e-03,
          3.42314434e-03, 2.03033560e-03, 4.56102984e-03, 5.86834364e-03,
          3.21854767e-03, 2.61681131e-03, 2.25576409e-03, 3.07803275e-03,
          5.11770044e-03, 2.31898623e-03, 1.34714996e-03, 2.45235022e-03,
          6.11204281e-03, 6.81246212e-03, 2.02573068e-03, 9.87466308e-04,
          1.69411476e-03, 1.14633553e-02, 3.70558654e-03, 1.69991457e-03,
          2.25003203e-03, 8.34854785e-03, 3.38098709e-03, 1.82951032e-03,
          1.72540068e-03, 2.56794784e-03, 5.21863298e-03, 3.34848557e-03,
          1.58874621e-03, 2.57808808e-03, 5.54762315e-03, 5.89363370e-03,
          1.73904549e-03, 1.23788055e-03, 1.69708929e-03, 1.11987256e-02,
          4.53532999e-03, 2.09690304e-03, 1.74622773e-03, 6.22982578e-03,
          7.81721063e-03, 2.05154158e-03, 9.91616165e-04, 1.30648969e-03,
          6.63555926e-03, 2.98453611e-03, 1.00990501e-03, 2.14436930e-03,
          8.66195094e-03, 9.17389710e-03, 2.87323142e-03, 2.75290757e-03,
          3.88636906e-03, 9.18101426e-03, 3.60553968e-03, 1.92984892e-03,
          2.71969242e-03, 9.75752529e-03, 5.72814932e-03, 1.79169467e-03,
          1.17982086e-03, 1.85550097e-03, 7.12757278e-03, 3.59294447e-03,
          1.51376601e-03, 1.98160089e-03, 6.81549869e-03, 6.66825846e-03,
          2.55837594e-03, 2.99506495e-03, 3.92979011e-03, 9.72067937e-03,
          4.47785389e-03, 2.07374408e-03, 2.97924434e-03, 7.48561136e-03,
          8.41589831e-03, 2.27635540e-03, 1.52326154e-03, 2.68975948e-03,
          6.68201968e-03, 1.80654274e-03, 6.48068904e-04, 1.11094071e-03,
          7.58395623e-03, 9.03536193e-03, 2.84019252e-03, 3.30286263e-03,
          5.03603695e-03, 9.33677051e-03, 5.11952024e-03, 2.17933767e-03,
          1.84631627e-03, 8.79003666e-03, 5.45731792e-03, 2.10492243e-03,
          1.19239220e-03, 2.74483091e-03, 8.64083227e-03, 2.83298106e-03,
          8.48353084e-04, 1.73276081e-03, 5.65778743e-03, 5.71948383e-03,
          3.09250690e-03, 2.85640638e-03, 4.97907680e-03, 9.24152788e-03,
          6.48959959e-03, 1.88553659e-03, 1.64563407e-03, 5.51587855e-03,
          5.68045257e-03, 2.08661472e-03, 2.82408390e-03, 4.24368493e-03,
          7.61801330e-03, 4.50450601e-03, 2.23594368e-03, 1.56897283e-03,
          6.46496098e-03, 7.12356949e-03, 3.16118496e-03, 3.26898950e-03,
          4.28080838e-03, 8.81953351e-03, 5.09936828e-03, 2.57731788e-03,
          2.04193173e-03, 7.99646229e-03, 4.55725007e-03, 2.71160691e-03,
          2.67029461e-03, 3.64899402e-03, 7.59978732e-03, 5.05199796e-03,
          1.25611632e-03, 1.37840654e-03, 4.36450355e-03, 4.23087366e-03,
          2.19058595e-03, 2.80913920e-03, 4.98254830e-03, 8.77704658e-03,
          6.13501715e-03, 1.87017990e-03, 1.77017972e-03, 4.71252482e-03,
          5.35764312e-03, 2.48060934e-03, 2.88238074e-03, 3.55393230e-03,
          8.37354641e-03, 4.73406771e-03, 1.22605567e-03, 2.11023865e-03,
          7.13571534e-03, 8.76456313e-03, 2.70858640e-03, 1.76169153e-03,
          2.84320605e-03, 9.00312606e-03, 5.03251282e-03, 2.19584233e-03,
          2.22390122e-03, 8.91397428e-03, 4.95194504e-03, 1.78319064e-03,
          2.41339649e-03, 4.34460444e-03, 8.69399589e-03, 5.96349221e-03,
          1.47915992e-03, 1.80573110e-03, 4.97596990e-03, 6.14383444e-03,
          2.22871732e-03, 1.66359253e-03, 3.07225809e-03, 1.03254039e-02,
          6.05454901e-03, 2.34455988e-03, 1.95661164e-03, 5.79911564e-03,
          7.07093487e-03, 2.88268505e-03, 2.63584591e-03, 2.90852087e-03,
          9.90315713e-03, 5.49410563e-03, 2.81623378e-03, 1.85264391e-03,
          6.81350427e-03, 7.29915826e-03, 2.66917935e-03, 2.25346861e-03,
          2.42179842e-03, 7.84394052e-03, 4.32334933e-03, 2.88611464e-03,
          2.25799624e-03, 7.40827248e-03, 5.75147429e-03, 2.43968773e-03,
          2.82276585e-03, 3.56163364e-03, 1.11854086e-02, 6.42935652e-03,
          2.78650341e-03, 2.17437977e-03, 5.26252482e-03, 5.17294649e-03,
          2.21573748e-03, 2.57042632e-03, 2.62400694e-03, 9.83418152e-03,
          5.25784632e-03, 2.84769898e-03, 2.11973023e-03, 4.73724492e-03,
          6.60441490e-03, 1.49583293e-03, 2.26694718e-03, 2.75681401e-03,
          1.04810065e-02, 4.06401278e-03, 2.30033835e-03, 1.89062511e-03,
          6.70121284e-03, 7.03264680e-03, 1.78841839e-03, 2.53441674e-03,
          3.77081218e-03, 4.46970807e-03, 3.91474087e-03, 2.00414238e-03,
          2.63282633e-03, 7.05156988e-03, 3.90488515e-03, 1.24911033e-03,
          2.18725251e-03, 3.57669336e-03, 1.24717010e-02, 4.51624300e-03,
          1.95533223e-03, 1.83922949e-03, 4.40427754e-03, 4.01832722e-03,
          1.54050870e-03, 2.15026923e-03, 4.04440658e-03, 5.20750554e-03,
          3.53786536e-03, 1.83839642e-03, 2.47678999e-03, 4.76565352e-03,
          6.36392273e-03, 2.07505818e-03, 2.17812299e-03, 2.94610299e-03,
          4.05193120e-03, 3.81726329e-03, 1.89274992e-03, 1.67131459e-03,
          6.01820508e-03, 8.15837551e-03, 2.27476167e-03, 2.16937880e-03,
          2.99992412e-03, 4.67279181e-03, 4.06064093e-03, 2.56949151e-03,
          2.05405895e-03, 7.92445242e-03, 4.68816189e-03, 2.26350618e-03,
          2.21151789e-03, 3.20063485e-03, 5.19158086e-03, 4.00893576e-03,
          1.28552911e-03, 1.75184978e-03, 4.42830008e-03, 4.98653064e-03,
          3.18187452e-03, 2.67668627e-03, 2.78460630e-03, 5.44483215e-03,
          4.18868754e-03, 1.63090171e-03, 1.13077695e-03, 4.40233247e-03,
          6.13832660e-03, 2.06201104e-03, 2.32754857e-03, 3.32666398e-03,
          4.76396270e-03, 4.19724546e-03, 2.34882534e-03, 1.63292233e-03,
          5.35685383e-03, 9.23141092e-03, 2.35749502e-03, 2.38352036e-03,
          3.36413877e-03, 4.18724818e-03, 3.50558688e-03, 2.30670045e-03,
          1.86508975e-03, 8.46870989e-03, 4.81617916e-03, 3.09000956e-03,
          3.30641354e-03, 3.88688687e-03, 4.64177737e-03, 3.81264673e-03,
          1.81160658e-03, 8.18874512e-04, 3.69687402e-03, 5.71896276e-03,
          3.16570466e-03, 3.69718042e-03, 3.83896753e-03, 4.02696617e-03,
          3.28138587e-03, 2.19790125e-03, 1.14899524e-03, 5.10107074e-03,
          3.75879346e-03, 1.11762877e-03, 8.44075577e-04, 9.34283657e-04,
          5.38768293e-03, 1.91664114e-03, 1.10809261e-03, 3.76551994e-03,
          6.35638600e-03, 2.85887835e-03, 1.86465017e-03, 1.44583650e-03,
          2.16602790e-03, 6.15905784e-03, 2.63892347e-03, 1.95940258e-03,
          4.10550740e-03, 5.83873177e-03, 4.31212923e-03, 1.72131124e-03,
          1.03294686e-03, 1.50784699e-03, 6.13001734e-03, 2.59705586e-03,
          1.78132288e-03, 4.09337459e-03, 5.01063000e-03, 3.94955510e-03,
          2.94819009e-03, 2.26567034e-03, 2.88881129e-03, 6.70703826e-03,
          3.56594613e-03, 2.75643985e-03, 3.96359200e-03, 3.64094391e-03,
          2.54691229e-03, 1.93105033e-03, 1.56646792e-03, 2.06748117e-03,
          5.72212134e-03, 2.64675240e-03, 1.44147535e-03, 3.59446253e-03,
          4.93274210e-03, 2.51021585e-03, 2.44159857e-03, 2.04812433e-03,
          2.21084431e-03, 5.16858976e-03, 3.13673448e-03, 1.65409013e-03,
          3.97784030e-03, 5.44692390e-03, 3.13375704e-03, 2.68480252e-03,
          2.46088626e-03, 2.74218712e-03, 5.99859189e-03, 3.15552414e-03,
          1.97839900e-03, 3.17952409e-03, 2.60911416e-03, 2.98174960e-03,
          2.84132105e-03, 3.48493061e-03, 2.87514273e-03, 5.66930184e-03,
          3.14054778e-03, 2.11389642e-03, 3.80480429e-03, 4.64945845e-03,
          3.26856738e-03, 1.74300361e-03, 1.69340183e-03, 2.42806110e-03,
          5.43425186e-03, 2.97529576e-03, 1.19841192e-03, 2.86508352e-03,
          5.63719496e-03, 6.44483604e-03, 1.62192434e-03, 1.27559423e-03,
          1.98807637e-03, 1.04359044e-02, 3.71699897e-03, 1.51579687e-03,
          1.54345005e-03, 5.83924865e-03, 3.10371746e-03, 2.07353639e-03,
          2.50109495e-03, 2.73808744e-03, 6.27855072e-03, 3.16138752e-03,
          1.36479340e-03, 3.28071998e-03, 5.43853547e-03, 5.88087691e-03,
          1.54440338e-03, 1.52648287e-03, 2.52472190e-03, 1.06393322e-02,
          3.65007552e-03, 1.28450687e-03, 2.17692833e-03, 5.98484697e-03,
          6.57819258e-03, 1.84868718e-03, 1.15768379e-03, 1.87800359e-03,
          6.05147472e-03, 3.20737413e-03, 1.32213160e-03, 1.43310672e-03,
          6.16262527e-03, 7.07123242e-03, 2.41945311e-03, 2.30464572e-03,
          3.36123980e-03, 1.00881215e-02, 5.11832489e-03, 2.24838010e-03,
          2.91015045e-03, 6.67019980e-03, 5.79433050e-03, 1.64493173e-03,
          1.28456764e-03, 2.22678250e-03, 6.65542763e-03, 3.49746225e-03,
          1.79809018e-03, 1.64308539e-03, 5.43899601e-03, 5.93864452e-03,
          1.64684723e-03, 2.16827029e-03, 3.58821987e-03, 1.14233233e-02,
          5.95564209e-03, 4.14861972e-03, 2.99918768e-03, 5.76579757e-03,
          5.59005002e-03, 2.01709289e-03, 1.12344965e-03, 1.93945412e-03,
          8.04501213e-03, 2.74705887e-03, 1.10565242e-03, 1.88341318e-03,
          5.87521913e-03, 6.07723184e-03, 3.11591546e-03, 2.11498607e-03,
          3.95820942e-03, 9.48487222e-03, 5.78381820e-03, 1.50573940e-03,
          2.00480316e-03, 6.09268202e-03, 4.99753654e-03, 1.50347501e-03,
          1.35993876e-03, 2.61103525e-03, 8.99387896e-03, 3.99667770e-03,
          1.77012046e-03, 1.86819409e-03, 5.29500749e-03, 5.77455712e-03,
          2.45032343e-03, 2.86695012e-03, 4.43829689e-03, 1.01929950e-02,
          5.67604182e-03, 1.99832697e-03, 1.82510656e-03, 5.31649683e-03,
          4.82100714e-03, 2.52380618e-03, 2.32538162e-03, 2.42179818e-03,
          7.41625018e-03, 4.60390933e-03, 1.12331402e-03, 1.41613290e-03,
          5.05929952e-03, 4.71628038e-03, 1.69179810e-03, 2.66129803e-03,
          4.42669587e-03, 9.25173238e-03, 6.11542910e-03, 2.53605307e-03,
          1.76295335e-03, 5.17675607e-03, 4.65888623e-03, 1.98071427e-03,
          2.47983192e-03, 3.20609147e-03, 7.80345034e-03, 4.45472961e-03,
          1.72969606e-03, 1.42326765e-03, 4.85440111e-03, 5.16977673e-03,
          1.52264745e-03, 2.76483176e-03, 5.17144194e-03, 9.06594843e-03,
          5.40326210e-03, 3.08882468e-03, 2.05647363e-03, 5.03257150e-03,
          5.29071549e-03, 1.28836161e-03, 2.02816282e-03, 3.84274451e-03,
          7.88240973e-03, 5.54979872e-03, 2.01744004e-03, 1.24574779e-03,
          5.26258303e-03, 6.23448053e-03, 1.78822211e-03, 1.46326877e-03,
          2.93310010e-03, 1.00249350e-02, 5.76194329e-03, 2.48219306e-03,
          1.63312582e-03, 6.05949014e-03, 5.35088871e-03, 1.79505022e-03,
          1.75551814e-03, 4.15472547e-03, 8.53343122e-03, 4.94656060e-03,
          3.06294300e-03, 2.01843190e-03, 3.88049940e-03, 6.80184178e-03,
          2.52388231e-03, 1.50716444e-03, 3.35150841e-03, 1.09463595e-02,
          4.68507735e-03, 2.16603605e-03, 1.92295609e-03, 5.72701357e-03,
          5.87327313e-03, 2.51159887e-03, 2.17065634e-03, 3.88399395e-03,
          1.10337818e-02, 5.93542075e-03, 2.21906463e-03, 1.32851198e-03,
          5.32225054e-03, 5.74309984e-03, 2.50132266e-03, 2.73350812e-03,
          2.64298287e-03, 8.97073932e-03, 4.19592252e-03, 1.88211421e-03,
          1.24525826e-03, 5.20678237e-03, 6.23057736e-03, 2.99784285e-03,
          2.21286202e-03, 3.93535150e-03, 1.20204734e-02, 4.97796061e-03,
          2.35567172e-03, 1.66329695e-03, 5.23782382e-03, 5.95714431e-03,
          3.20100971e-03, 2.50398042e-03, 3.07721016e-03, 9.70708858e-03,
          3.85474903e-03, 1.51850400e-03, 1.25517335e-03, 5.52533148e-03,
          4.27655131e-03, 1.71542063e-03, 2.28324533e-03, 3.06977215e-03,
          1.16421804e-02, 3.02112149e-03, 1.47396803e-03, 1.50133949e-03,
          4.37894929e-03, 4.61496320e-03, 1.96711882e-03, 2.41631293e-03,
          3.22837965e-03, 6.33324310e-03, 3.08704306e-03, 1.19622541e-03,
          2.04871013e-03, 5.12095587e-03, 5.11749927e-03, 2.58087390e-03,
          2.45985412e-03, 3.00856750e-03, 1.34646660e-02, 3.29693081e-03,
          1.15271518e-03, 8.86495633e-04, 4.75749699e-03, 5.05086593e-03,
          2.07705959e-03, 2.37212214e-03, 2.74587586e-03, 7.16080656e-03,
          4.12122160e-03, 8.65897513e-04, 1.52255932e-03, 5.06181363e-03,
          4.85409563e-03, 2.21570139e-03, 2.05395441e-03, 2.58722762e-03,
          5.68148820e-03, 3.03441519e-03, 6.00783620e-04, 1.04171946e-03,
          4.52650711e-03, 4.92424937e-03, 2.95792799e-03, 2.22389447e-03,
          2.71867053e-03, 5.57791255e-03, 4.31732880e-03, 1.41697482e-03,
          1.10600889e-03, 4.36071958e-03, 4.41235024e-03, 2.12148530e-03,
          1.78329693e-03, 3.60573526e-03, 6.01736456e-03, 3.40868998e-03,
          4.24898259e-04, 1.16041687e-03, 3.77848186e-03, 5.06178802e-03,
          2.73318402e-03, 2.13173707e-03, 3.86299589e-03, 5.90935675e-03,
          3.87543160e-03, 1.53914408e-03, 1.34479126e-03, 4.55310941e-03,
          4.46658023e-03, 2.84094433e-03, 2.75035738e-03, 3.62398033e-03,
          4.70181787e-03, 3.65030533e-03, 1.98269030e-03, 8.27606942e-04,
          3.51849268e-03, 5.37839858e-03, 2.96857650e-03, 3.57683212e-03,
          3.19233187e-03, 3.93253192e-03, 3.24739260e-03, 2.27595540e-03,
          1.46535574e-03, 5.12268860e-03, 4.05494682e-03, 2.69192108e-03,
          2.70061987e-03, 3.82381491e-03, 5.46827586e-03, 3.58184637e-03,
          1.88597187e-03, 1.17908709e-03, 4.09833016e-03, 5.29212458e-03,
          2.53718416e-03, 3.02635506e-03, 3.55286500e-03, 5.45312697e-03,
          3.57616437e-03, 3.18169896e-03, 2.14755139e-03, 5.79999061e-03,
          5.59964217e-03, 1.41662755e-03, 8.15644802e-04, 1.27264578e-03,
          5.92358923e-03, 2.66387942e-03, 9.98161267e-04, 2.22121761e-03,
          4.65034833e-03, 5.80397109e-03, 2.91288598e-03, 1.74690469e-03,
          2.98530678e-03, 6.95139542e-03, 4.18805331e-03, 1.41432357e-03,
          2.35141837e-03, 3.50374077e-03, 5.59490873e-03, 9.01941501e-04,
          5.75931568e-04, 1.64072681e-03, 7.27596041e-03, 3.34439939e-03,
          9.11354087e-04, 1.08487438e-03, 5.84070571e-03, 5.55461645e-03,
          2.06894171e-03, 7.11924455e-04, 2.81628803e-03, 7.55043793e-03,
          4.59381565e-03, 9.27463057e-04, 9.38087527e-04, 4.77929693e-03,
          5.02805645e-03, 3.39337997e-03, 1.97528070e-03, 2.34753010e-03,
          6.34779595e-03, 3.90385394e-03, 1.36334472e-03, 2.09765579e-03,
          2.55250069e-03, 4.57901973e-03, 3.66039248e-03, 2.55876174e-03,
          2.38370616e-03, 5.59403701e-03, 3.57288262e-03, 1.98628963e-03,
          3.59119521e-03, 3.85399628e-03, 5.11196908e-03, 2.57702474e-03,
          9.37738339e-04, 2.55548162e-03, 7.19787274e-03, 4.30717459e-03,
          6.79012213e-04, 1.12904818e-03, 3.56592122e-03, 4.95959446e-03,
          2.90869921e-03, 1.69406598e-03, 2.43604043e-03, 7.25466711e-03,
          4.02152585e-03, 1.30054704e-03, 2.14766315e-03, 4.16704174e-03,
          4.30612778e-03, 2.76830094e-03, 1.90800463e-03, 1.85830658e-03,
          6.14829129e-03, 3.24506685e-03, 1.17977057e-03, 2.90914113e-03,
          5.16632060e-03, 5.09797595e-03, 1.33289758e-03, 1.11844507e-03,
          2.23211735e-03, 8.34058039e-03, 3.55538260e-03, 1.07869937e-03,
          2.07097107e-03, 5.69930719e-03, 4.80507361e-03, 2.10775202e-03,
          1.39124529e-03, 1.96765806e-03, 7.80110760e-03, 3.50457337e-03,
          1.00692734e-03, 1.73705933e-03, 4.31520026e-03, 5.08878799e-03,
          1.33853720e-03, 2.26178463e-03, 3.68524855e-03, 1.37971612e-02,
          3.63241718e-03, 1.24562462e-03, 1.88601180e-03, 5.80973364e-03,
          4.58336622e-03, 1.60367368e-03, 1.19504530e-03, 2.06746650e-03,
          6.55073673e-03, 3.31634143e-03, 1.92526495e-03, 2.31417199e-03,
          5.09182503e-03, 4.68345685e-03, 2.15969724e-03, 2.25079386e-03,
          2.93517741e-03, 1.09498510e-02, 6.16261130e-03, 3.68332607e-03,
          3.32239084e-03, 5.28547633e-03, 5.08336723e-03, 1.89029227e-03,
          1.89086876e-03, 2.78400304e-03, 8.46121740e-03, 2.78061372e-03,
          1.82414148e-03, 2.91677332e-03, 6.17403490e-03, 5.42252045e-03,
          3.28850839e-03, 3.71359801e-03, 3.97032592e-03, 1.19856289e-02,
          5.66712115e-03, 3.26224021e-03, 3.30723799e-03, 6.43373188e-03,
          4.40277392e-03, 1.31457928e-03, 1.66476984e-03, 2.12010229e-03,
          8.21008440e-03, 3.08288448e-03, 1.43264642e-03, 2.07355269e-03,
          5.01247821e-03, 5.04552852e-03, 2.09324295e-03, 3.12072155e-03,
          4.94582718e-03, 1.00565581e-02, 5.69790183e-03, 1.89654867e-03,
          2.12879479e-03, 5.05989697e-03, 4.79515316e-03, 1.52231206e-03,
          2.19946331e-03, 2.46374472e-03, 1.10017229e-02, 2.43047858e-03,
          1.39678793e-03, 2.11613881e-03, 5.59997885e-03, 4.79993597e-03,
          1.75470579e-03, 2.70652864e-03, 5.04030287e-03, 1.14233261e-02,
          5.83523093e-03, 2.20708223e-03, 2.58047204e-03, 5.73387370e-03,
          4.60501201e-03, 1.43696915e-03, 1.82641507e-03, 3.34117701e-03,
          7.55704008e-03, 4.30297432e-03, 1.81676517e-03, 1.68057752e-03,
          4.76957066e-03, 4.93691536e-03, 1.47175614e-03, 1.68957666e-03,
          4.52953950e-03, 8.88514519e-03, 5.19806612e-03, 3.17786983e-03,
          2.89048045e-03, 5.40936179e-03, 4.26255213e-03, 1.18050713e-03,
          1.31903379e-03, 3.50607838e-03, 1.01054488e-02, 4.81420290e-03,
          1.75294257e-03, 1.97561109e-03, 5.01026679e-03, 4.99854656e-03,
          1.43691164e-03, 1.46187353e-03, 4.14158357e-03, 1.14419954e-02,
          5.76015376e-03, 2.45630578e-03, 2.62756506e-03, 5.20458212e-03,
          4.74705920e-03, 1.82143180e-03, 1.32388063e-03, 4.16628225e-03,
          8.59887619e-03, 3.73631297e-03, 2.16203765e-03, 2.84755370e-03,
          5.64097660e-03, 6.16536988e-03, 2.62021110e-03, 1.66262314e-03,
          3.33686685e-03, 1.03233317e-02, 3.35337920e-03, 1.42880343e-03,
          2.15143687e-03, 5.94018074e-03, 4.42001224e-03, 1.83612574e-03,
          1.12338201e-03, 3.93273914e-03, 1.08902566e-02, 4.68293484e-03,
          1.41040748e-03, 1.97989843e-03, 5.68687031e-03, 5.84633881e-03,
          2.06693355e-03, 1.48436567e-03, 2.65966612e-03, 1.33385509e-02,
          4.07478865e-03, 1.20685250e-03, 1.71138335e-03, 5.20927226e-03,
          5.79453493e-03, 3.20124859e-03, 2.54347455e-03, 3.17863817e-03,
          1.12327570e-02, 3.84652102e-03, 1.87684048e-03, 1.73595326e-03,
          5.39905345e-03, 5.62337087e-03, 3.15182447e-03, 3.03718843e-03,
          2.81758024e-03, 9.63402912e-03, 2.75341747e-03, 1.60640676e-03,
          1.24646560e-03, 4.95766662e-03, 5.82665019e-03, 2.29492853e-03,
          2.44791945e-03, 2.77922978e-03, 1.30726015e-02, 4.98410128e-03,
          2.24621897e-03, 1.56194903e-03, 5.35460096e-03, 5.25799813e-03,
          2.68285745e-03, 3.08855111e-03, 3.02291824e-03, 1.18832504e-02,
          3.39160045e-03, 2.11783196e-03, 1.71489641e-03, 4.92923195e-03,
          5.14458073e-03, 2.08037440e-03, 2.29613832e-03, 3.15076788e-03,
          1.29609108e-02, 2.73043173e-03, 9.21477098e-04, 9.78267752e-04,
          4.48854733e-03, 5.04232151e-03, 1.80803635e-03, 1.61045662e-03,
          2.63563916e-03, 7.10286200e-03, 3.83121101e-03, 1.30877004e-03,
          1.57122279e-03, 4.94913571e-03, 4.08842554e-03, 1.74026494e-03,
          1.93126092e-03, 3.40709276e-03, 1.63770095e-02, 3.08276014e-03,
          1.29578775e-03, 1.31607300e-03, 4.24996624e-03, 4.33786446e-03,
          1.37203780e-03, 1.71699759e-03, 3.46590532e-03, 7.65208993e-03,
          3.76918609e-03, 1.36174005e-03, 1.70463568e-03, 4.63855080e-03,
          4.43614926e-03, 1.78717880e-03, 1.19095761e-03, 3.22252559e-03,
          5.90732973e-03, 3.22239706e-03, 8.31858953e-04, 1.20419159e-03,
          4.57998365e-03, 4.81064245e-03, 1.84851908e-03, 1.65572204e-03,
          3.58915282e-03, 6.27026008e-03, 3.95293208e-03, 1.78244174e-03,
          9.89616499e-04, 4.71567409e-03, 4.24576597e-03, 8.02856172e-04,
          1.14518660e-03, 3.28449556e-03, 7.14538945e-03, 3.34122358e-03,
          1.93478260e-03, 1.59720972e-03, 4.88742441e-03, 4.80256649e-03,
          8.53284902e-04, 1.36830017e-03, 3.06650111e-03, 7.34284287e-03,
          4.26174141e-03, 2.36018398e-03, 1.73993362e-03, 4.81840968e-03,
          4.38206270e-03, 2.13820045e-03, 1.83707452e-03, 2.93990527e-03,
          5.87905804e-03, 3.70078837e-03, 1.76354649e-03, 1.00409263e-03,
          4.35114047e-03, 5.07334713e-03, 2.01513781e-03, 2.14032503e-03,
          2.52983253e-03, 5.95427072e-03, 3.25280079e-03, 2.56846426e-03,
          2.06720550e-03, 5.34189865e-03, 4.54041641e-03, 1.46315794e-03,
          1.47454755e-03, 2.73503200e-03, 7.50173908e-03, 3.93009651e-03,
          2.01252010e-03, 1.50283857e-03, 4.64525912e-03, 4.87174466e-03,
          1.69030949e-03, 2.13303836e-03, 2.72707641e-03, 7.52264494e-03,
          3.57950479e-03, 2.04540486e-03, 2.00194516e-03, 4.55045607e-03 ]
      - [ 6.04358092e-02, 3.88228633e-02, 1.74087193e-03,
          -2.10545055e-04, -1.73410736e-02, 8.33232235e-03,
          -1.17614297e-02, 2.44292654e-02, 6.01360016e-02,
          -2.21408866e-02, 1.34627232e-02, -2.57158112e-02,
          4.34114151e-02, -5.00676408e-02, 3.91245633e-02,
          1.52511233e-02, 3.22795473e-02, 8.00846145e-03, 3.22691314e-02,
          1.61054228e-02, -4.45074774e-02, 6.38463022e-03,
          -5.06627113e-02, -5.48940413e-02, -3.09485551e-02,
          1.23356953e-02, 1.69725046e-02, -5.64952493e-02,
          -4.59680818e-02, -7.68899545e-02, 9.96223744e-03,
          -8.19671378e-02, -4.92696986e-02, -1.97912492e-02,
          2.51889061e-02, -3.79413925e-02, -1.76402573e-02,
          1.09421089e-02, -5.40910475e-03, 5.53843454e-02,
          -1.72138494e-02, 3.64922434e-02, 6.91884942e-03,
          3.97828817e-02, 2.87350304e-02, -1.59115363e-02,
          1.15301507e-02, -2.10197782e-03, 6.04689680e-02,
          -7.86061399e-03, 1.65482871e-02, 1.93528738e-02,
          1.21345278e-02, 2.23339722e-02, -4.23678048e-02,
          -1.93203669e-02, -4.93267998e-02, 1.86030567e-02,
          -4.53764945e-02, -4.10758751e-03, -2.50295997e-02,
          -1.21483039e-02, -4.99642082e-02, -6.30737394e-02,
          -2.83119138e-02, 6.27423963e-03, 1.07239056e-02,
          -6.58471882e-02, -4.48044902e-03, -2.02280451e-02,
          -8.78768321e-03, -6.25858605e-02, -2.02548336e-02,
          2.34679990e-02, 8.25404096e-03, 1.30938580e-02,
          -3.20809856e-02, 5.37162600e-03, 1.13314372e-02,
          9.88022424e-03, 6.52585775e-02, -4.09031399e-02,
          8.67402367e-03, 1.61846951e-02, 2.94845458e-03,
          -3.94960381e-02, 2.47763637e-02, 1.42901829e-02,
          3.92131433e-02, 7.61761442e-02, -6.34280592e-02,
          1.97546333e-02, 1.57937463e-02, 7.03028357e-03,
          -5.47457002e-02, 6.96241530e-03, -2.47863750e-03,
          -4.47654314e-02, -3.51663604e-02, -4.36110273e-02,
          -1.29191279e-02, 3.41263786e-02, 1.48874456e-02,
          -2.13553905e-02, -5.31934015e-03, -2.50670835e-02,
          -2.71309707e-02, 1.84214637e-02, -4.21909392e-02,
          5.21875434e-02, 3.81684229e-02, -4.57124598e-02,
          -4.91692722e-02, -9.10391752e-03, 1.08862352e-02,
          5.50758578e-02, 7.49870241e-02, -2.64867358e-02,
          7.52793401e-02, 7.54259005e-02, -5.79280294e-02,
          -2.14906000e-02, 5.27738445e-02, -7.93353468e-03,
          4.00936492e-02, 2.59573124e-02, -6.26414195e-02,
          3.73556614e-02, 4.77547385e-02, -3.79511379e-02,
          -3.29094082e-02, -2.80125681e-02, -2.51184572e-02,
          3.55011486e-02, 1.92590766e-02, -4.19562235e-02,
          5.34371287e-02, 5.23741134e-02, -2.13916209e-02,
          -2.29759123e-02, 7.94287119e-03, -3.94163057e-02,
          2.91352291e-02, -3.70928273e-02, -8.90390277e-02,
          2.46785749e-02, 3.36384475e-02, -8.86302628e-03,
          -2.58139540e-02, 5.24483584e-02, -5.24563296e-03,
          4.64090370e-02, -1.73493009e-02, -9.15189758e-02,
          2.84496490e-02, 4.77019660e-02, 3.59411053e-02,
          -1.08920028e-02, 1.81815252e-02, -2.38695480e-02,
          5.83430193e-02, -1.85567723e-03, -7.39492029e-02,
          4.18976210e-02, 2.76109204e-02, -6.43519685e-02,
          -5.42170815e-02, 1.07966037e-02, -1.91899035e-02,
          2.98873354e-02, -3.11098658e-02, -5.04490808e-02,
          2.97822244e-02, 6.54775277e-02, 1.55230034e-02,
          -2.91156918e-02, -4.75894064e-02, -3.98336351e-02,
          6.77531352e-03, -1.78691112e-02, -1.03837170e-01,
          5.52266696e-03, 4.96642999e-02, 2.17491630e-02, 2.76495311e-02,
          -2.11417191e-02, -3.83429192e-02, 1.24380914e-02,
          2.21191235e-02, -9.06911939e-02, -3.06546572e-03,
          1.64305493e-02, 1.28137898e-02, 2.08345931e-02,
          -1.22933080e-02, -3.08109038e-02, 2.62151044e-02,
          1.58690382e-02, -5.18445447e-02, 3.54735628e-02,
          7.09061399e-02, 1.73998810e-02, -2.90250536e-02,
          -7.17847049e-02, -6.27772734e-02, -5.92745235e-03,
          2.72040218e-02, -1.42623633e-02, -2.07610391e-02,
          -1.53052583e-02, -3.67598124e-02, -4.34844606e-02,
          -2.77861394e-02, -9.56670493e-02, 2.27431348e-03,
          -1.69032738e-02, -5.46967238e-02, 4.31628190e-02,
          5.17496234e-03, 2.66741589e-02, 4.62387577e-02,
          -7.35202944e-03, -6.94206683e-04, 4.28229943e-02,
          2.04762258e-02, -4.18898910e-02, 4.81832922e-02,
          -2.34601786e-03, 2.75819637e-02, -5.59545401e-03,
          -4.26539108e-02, -7.60857854e-03, 4.38509844e-02,
          -9.29049589e-03, -1.42557342e-02, -1.55393430e-03,
          -2.75668297e-02, 2.57742479e-02, -8.34488496e-03,
          -1.87245812e-02, -4.01658230e-02, 2.50019263e-02,
          1.08240657e-02, -5.45751154e-02, -2.52434276e-02,
          -3.23027335e-02, 3.35623999e-03, -1.20893382e-02,
          -7.08595887e-02, -3.83621901e-02, 2.41849683e-02,
          -3.18087302e-02, -6.35716692e-02, 2.93006990e-02,
          5.49833179e-02, 7.13156685e-02, -1.31468587e-02,
          -2.02732123e-02, 2.97545083e-03, 7.33464062e-02,
          -5.90500794e-03, -6.55678958e-02, 1.84520055e-02,
          1.67847574e-02, 2.44535841e-02, -2.18797494e-02,
          2.20964737e-02, -1.67717636e-02, 6.82115704e-02,
          -9.61173605e-03, -6.44556284e-02, 1.87489148e-02,
          1.81183703e-02, 4.25178260e-02, -2.61699752e-04,
          -2.09442689e-03, 2.01084632e-02, 5.58081642e-02,
          -4.66192029e-02, -4.29421477e-02, 1.80694330e-02,
          -1.62369162e-02, 2.05346420e-02, 2.11362578e-02,
          3.94432731e-02, -1.35765988e-02, 5.78497611e-02,
          -4.50393781e-02, -4.10231855e-03, 2.04882957e-02,
          -2.94651110e-02, 1.37654413e-02, 2.01707426e-02,
          4.88891453e-02, -3.94256087e-03, 3.22646499e-02,
          1.33146802e-02, -2.35640048e-03, 4.18589599e-02,
          -2.95610111e-02, 2.06370875e-02, 8.02327879e-03,
          3.21420692e-02, 7.81955477e-03, 1.14034470e-02, 3.30656469e-02,
          -1.51753128e-02, 2.37817988e-02, -3.30931619e-02,
          1.82866007e-02, 2.55023539e-02, 4.59885187e-02,
          -3.55201736e-02, -5.82828943e-04, -1.51885934e-02,
          -4.07370329e-02, 1.76550206e-02, 2.57085473e-03,
          2.80067064e-02, -1.24290131e-03, -1.87733732e-02,
          -3.28126885e-02, 1.47518730e-02, -3.45842578e-02,
          -6.91517070e-02, 4.05543521e-02, -1.80449511e-03,
          2.83694081e-02, 1.60777867e-02, 4.00932953e-02,
          -1.00436565e-02, 1.66568141e-02, 1.05534922e-02,
          -5.90250529e-02, 3.15456837e-02, 8.73118639e-03,
          4.10110923e-03, 1.05643468e-02, 5.95325530e-02,
          -1.73171759e-02, 2.08301935e-02, -2.00955886e-02,
          -2.56659798e-02, 2.79128589e-02, 1.60065535e-02,
          4.66064550e-02, 2.75954455e-02, -9.39099304e-03,
          -4.93960269e-02, 1.16033107e-02, -8.04196857e-03,
          -5.82439192e-02, 3.64012457e-02, -2.08024494e-02,
          3.58268470e-02, 1.34004196e-02, 1.74025297e-02,
          -2.61204690e-02, 4.28133644e-02, -1.67860519e-02,
          -2.53333133e-02, 4.30375487e-02, 6.28326321e-03,
          2.46583205e-02, 1.54952453e-02, 5.61976731e-02,
          -8.28049853e-02, -1.52819520e-02, 7.74413534e-03,
          2.23989654e-02, 2.66518742e-02, -8.75244476e-03,
          4.34885174e-02, -8.06246791e-03, 7.56998807e-02,
          -5.77072874e-02, 3.20236422e-02, 1.27649298e-02,
          -2.41795313e-02, 2.21656933e-02, -4.16324101e-02,
          1.92915723e-02, 4.82190819e-03, 2.13792529e-02,
          -3.86852026e-03, 8.51865578e-03, 4.75556664e-02,
          1.14181144e-02, 1.90520212e-02, -4.52985801e-02,
          2.96886303e-02, -2.16746759e-02, 3.06202974e-02,
          -2.20181234e-02, 1.96846500e-02, 1.07236439e-02,
          3.57201770e-02, 8.45879782e-04, 6.67608110e-03, 5.82542121e-02,
          -7.34797271e-04, -6.50952160e-02, -2.55093095e-03,
          -8.01453541e-04, 7.28615820e-02, -3.42869349e-02,
          -3.42723280e-02, -2.95116920e-02, 4.09331173e-02,
          -3.32158469e-02, -5.42553514e-02, 2.46701669e-02,
          3.32893208e-02, 3.34989615e-02, 2.66719852e-02,
          -7.29435124e-04, -5.96744707e-03, 1.07585890e-02,
          -4.70317015e-03, -2.41556223e-02, -1.31848836e-02,
          -1.86477639e-02, 3.34229544e-02, -1.61861163e-02,
          -4.54733036e-02, -2.25534495e-02, -5.58495745e-02,
          -3.14605683e-02, -2.19514705e-02, -4.43155989e-02,
          8.86878651e-03, -9.29927861e-04, -1.88279916e-02,
          4.75664297e-03, 1.19826931e-04, 3.29261981e-02, 1.53387152e-02,
          2.59813033e-02, 7.41324900e-03, 1.87562834e-02, 5.27131706e-02,
          -8.26837569e-02, 5.78292273e-03, 3.40819843e-02,
          3.10711656e-02, 2.89009162e-03, 4.65989448e-02, 5.03842719e-02,
          4.29574884e-02, -1.10662133e-02, -8.06949511e-02,
          -5.53130023e-02, -1.49602666e-02, 3.94875649e-03,
          1.54269384e-02, 2.48491485e-03, -3.13823745e-02,
          -1.41652450e-02, 7.75397848e-03, -1.06905662e-01,
          -5.00429571e-02, 5.05107716e-02, -1.33862365e-02,
          7.49784941e-03, 3.32071669e-02, 2.33841855e-02, 2.96247397e-02,
          -5.01540340e-02, -1.03401564e-01, 3.33806612e-02,
          1.11322217e-02, -3.98667809e-03, -1.61751993e-02,
          1.44517180e-02, 3.51200290e-02, -1.01063270e-02,
          -1.76808611e-03, -4.60102558e-02, 2.15918142e-02,
          2.34242789e-02, 4.91684712e-02, 2.09010672e-02, 1.20123886e-02,
          2.71955098e-04, 2.31633690e-04, 6.37900755e-02,
          -1.64776608e-01, -3.46802697e-02, 3.47172916e-02,
          1.02775609e-02, 3.86256203e-02, -2.23125727e-03,
          6.78466866e-03, 1.64306127e-02, -3.42199542e-02,
          -6.89653382e-02, -5.70908859e-02, 1.13274604e-02,
          4.70621511e-04, 7.90510233e-03, -9.51538607e-03,
          -1.23074921e-02, 4.94485274e-02, 5.48509881e-02,
          -1.47563927e-02, 4.90469001e-02, 1.64828859e-02,
          1.32562397e-02, -2.87391758e-03, -3.79296467e-02,
          7.03327730e-03, 4.71847989e-02, 8.13137218e-02,
          -4.63465229e-02, 1.85007439e-03, 3.32434028e-02,
          1.70247704e-02, 3.10158674e-02, 2.97266934e-02, 1.54529223e-02,
          2.84701977e-02, 4.35888544e-02, -3.90795656e-02,
          1.03148203e-02, 5.32992370e-03, -4.03334387e-03,
          -3.14177498e-02, -7.24304616e-02, -9.78936255e-03,
          4.27781269e-02, 4.30937596e-02, -4.90421727e-02,
          -3.45935486e-02, 3.65678570e-03, -2.52692923e-02,
          2.28454042e-02, -2.11703572e-02, -1.91918984e-02,
          1.55583825e-02, -1.79752409e-02, -4.01615165e-02,
          3.84401493e-02, 5.16855083e-02, 6.12845039e-03, 4.96184900e-02,
          3.07017397e-02, 1.60550829e-02, 5.31194918e-02, 7.44323060e-02,
          -1.06247850e-02, 6.21031374e-02, 6.30286857e-02,
          4.43388559e-02, 2.22813990e-02, -8.70383251e-03,
          1.27928238e-02, 4.96654250e-02, 3.55908200e-02,
          -8.55779275e-02, -2.96007022e-02, 4.41511918e-04,
          -2.64116228e-02, 6.64890930e-02, -9.32640955e-03,
          -2.62780897e-02, -2.37358529e-02, -4.24517989e-02,
          -1.16203576e-01, -3.92508209e-02, 7.25849764e-03,
          -4.87409271e-02, 1.53064998e-02, 5.33882855e-03,
          -4.99619395e-02, -3.34245339e-02, -7.13830292e-02,
          4.53528157e-03, 7.82433376e-02, 6.53307214e-02, 5.97969927e-02,
          4.05543149e-02, -2.72310786e-02, -9.20753088e-03,
          2.84751020e-02, 7.62541890e-02, 1.42469248e-02, 6.58642277e-02,
          3.29675265e-02, 1.14678089e-02, 3.58726010e-02,
          -3.03455861e-03, -1.69925559e-02, 2.22351570e-02,
          7.75911435e-02, -7.81470537e-02, -8.52268189e-03,
          1.09175853e-02, 2.85416767e-02, 3.27875949e-02,
          -3.49360816e-02, -8.72626901e-02, -6.33059368e-02,
          -1.20395506e-02, -4.08884138e-02, 1.63843185e-02,
          3.09890583e-02, 2.03490350e-02, 2.25218870e-02,
          -5.22179678e-02, -8.65542367e-02, -5.50967678e-02,
          -4.69797291e-02, 1.50824757e-02, 3.74157541e-02,
          9.32084862e-03, 3.45140584e-02, 4.64497842e-02, 1.00836279e-02,
          -2.43695322e-02, 3.08731776e-02, 3.72043699e-02,
          -1.75474398e-02, 1.44823613e-02, 1.20375752e-02,
          2.95220502e-02, 3.57342660e-02, 5.62590139e-04, 3.54725728e-03,
          5.32255284e-02, 1.74453426e-02, -7.99458399e-02,
          1.32558057e-02, 3.50194760e-02, -5.18450700e-03,
          1.59095954e-02, -1.03089707e-02, -2.81485971e-02,
          -5.99233396e-02, -5.46732210e-02, -8.66044760e-02,
          -4.17275988e-02, -1.40168676e-02, -2.46268362e-02,
          -4.89742786e-04, -1.47730475e-02, -2.18149312e-02,
          1.73367001e-02, -7.14363381e-02, -4.78206277e-02,
          4.68685962e-02, 1.32293086e-02, 1.95126459e-02, 2.28026826e-02,
          2.66157538e-02, 2.13939212e-02, 6.39827847e-02,
          -7.55797373e-04, 6.71296753e-03, 3.19001526e-02,
          -2.96717416e-02, 9.60302446e-03, 1.58668943e-02,
          5.44943474e-02, -2.92734266e-03, 6.74995780e-02,
          3.42921168e-02, -7.03646094e-02, -4.14975658e-02,
          -2.71402784e-02, -1.70652233e-02, 1.40372021e-02,
          -1.42738530e-02, -3.12329512e-02, 9.48530063e-03,
          -2.03889757e-02, -3.52919847e-02, -5.35057597e-02,
          -5.83575591e-02, -3.31881717e-02, -5.44232968e-03,
          1.38028506e-02, -3.14242244e-02, 2.33770963e-02,
          -1.53243635e-02, -1.10606058e-02, 2.19910126e-02,
          -2.67478768e-02, 2.56938580e-02, 7.04472931e-03,
          3.20603624e-02, -2.09391825e-02, 3.15307640e-02,
          8.69071390e-03, -4.89499159e-02, 4.49736379e-02,
          -2.47062966e-02, 4.76669893e-02, -1.00056583e-03,
          -3.55764925e-02, -4.02732380e-03, 3.80066633e-02,
          -2.49952711e-02, -6.88901246e-02, -2.77173165e-02,
          -5.51167950e-02, -2.78073084e-02, -1.72485486e-02,
          -2.93287943e-04, 3.01602948e-02, 4.39474843e-02,
          -4.08503488e-02, -5.48729338e-02, -3.55361998e-02,
          -5.51335588e-02, -8.30931996e-04, -2.10194681e-02,
          1.86151173e-02, 3.14052664e-02, 7.27832913e-02,
          -7.12822285e-03, -5.00946045e-02, 3.29422504e-02,
          -2.99429949e-02, 5.79176806e-02, 2.51378547e-02,
          -1.42397191e-02, -1.05218897e-02, 2.50711590e-02,
          -1.07734082e-02, -6.01045974e-02, 4.96497452e-02,
          -1.38387186e-02, 5.15571907e-02, 7.67623947e-04,
          1.03881424e-02, -2.13882793e-02, 3.97118255e-02,
          -5.92203718e-03, -4.06510383e-02, -1.84615217e-02,
          -5.46356738e-02, 1.79369822e-02, -1.26182726e-02,
          4.77527454e-02, 2.92335134e-02, 7.53242522e-02,
          -2.75719501e-02, -5.36627918e-02, 4.80020195e-02,
          -1.20054549e-02, 1.25083281e-02, -1.47933802e-02,
          3.04079279e-02, -6.27030106e-03, 5.63799217e-02,
          -1.37199182e-02, -1.74774043e-02, 2.15352885e-02,
          -2.07577348e-02, 3.05277277e-02, -6.09270111e-03,
          1.62549485e-02, 9.36008897e-03, 1.38188787e-02, 4.33077030e-02,
          -3.20914462e-02, -2.76885293e-02, -2.53406782e-02,
          2.16745809e-02, 2.99643143e-03, 1.98269170e-02,
          -4.69701411e-03, -1.65565603e-03, -2.18932424e-03,
          -2.26589087e-02, 3.10843419e-02, -2.75809225e-02,
          2.04227194e-02, -3.00053284e-02, 4.76874085e-03,
          1.76584795e-02, 5.32441065e-02, 2.48640440e-02,
          -4.66081686e-02, -1.33467540e-02, -2.71461308e-02,
          5.41800968e-02, -1.22509934e-02, 1.15984492e-03,
          1.55890388e-02, 2.17683855e-02, -2.81745642e-02,
          5.21120392e-02, 1.30336462e-02, 3.73550621e-03, 2.42929421e-02,
          -3.94510757e-03, 4.48713303e-02, 5.62174097e-02,
          3.14557888e-02, 7.33955503e-02, 6.36793971e-02,
          -1.84868053e-02, 1.71863893e-03, -3.33357640e-02,
          -1.36146871e-02, 3.13890316e-02, 1.09614739e-02,
          2.54319180e-02, 5.74793406e-02, 2.36464757e-03,
          -7.62618780e-02, -4.46059555e-02, 4.57084700e-02,
          1.32655567e-02, 4.06926386e-02, 5.78485578e-02, 2.93941312e-02,
          1.66322775e-02, 2.36953963e-02, -4.16284353e-02,
          -8.37164279e-03, 1.03381239e-02, -2.77826488e-02,
          -4.60260771e-02, 1.41751058e-02, 3.11109815e-02,
          1.58531386e-02, 2.06058435e-02, 1.25978561e-02, 2.02768836e-02,
          -1.33706713e-02, 1.46029692e-03, -1.28451353e-02,
          4.78240754e-03, -9.10848193e-03, 5.50391562e-02,
          -3.49535793e-02, 4.47673462e-02, 6.35560825e-02,
          -1.42975682e-02, -1.58447269e-02, 1.10073388e-02,
          6.13833591e-02, 4.73863482e-02, 3.99473645e-02, 3.87192518e-03,
          3.97659466e-02, 6.09677583e-02, -6.73387758e-03,
          -3.64717133e-02, -4.49862033e-02, -3.53289582e-03,
          -2.98235193e-02, 1.49552599e-02, -2.60994267e-02,
          -1.34121468e-02, 8.35411698e-02, -2.60867681e-02,
          -3.67549099e-02, -3.35763805e-02, 2.85758823e-02,
          -1.90219376e-02, 2.19890662e-02, -7.93257430e-02,
          7.72316977e-02, 5.61126694e-02, -3.98105988e-03,
          8.82587675e-03, 8.69241077e-03, 5.24506606e-02, 4.70976196e-02,
          5.97413406e-02, -2.38877814e-03, 3.75644676e-02,
          -7.58949202e-03, -4.70088003e-03, 3.96707747e-03,
          -1.60913803e-02, 3.70727703e-02, 6.33812323e-02,
          9.80709717e-02, -9.72338766e-02, 3.19710225e-02,
          3.78476991e-03, -5.28790466e-02, -2.90906541e-02,
          -1.90631989e-02, 1.87448151e-02, -2.08103582e-02,
          -2.52645407e-02, -2.59702411e-02, -3.69161852e-02,
          -3.96479741e-02, -2.70469543e-02, -1.58410706e-02,
          -3.48451808e-02, 7.24467449e-03, -1.69063150e-03,
          -2.44641826e-02, 4.36223261e-02, 6.85442612e-02,
          -7.96818826e-03, 1.90855805e-02, 6.04332192e-03,
          -2.71711368e-02, 3.42853218e-02, 3.31032611e-02,
          8.83219987e-02, 1.67701254e-03, 4.88172024e-02,
          -2.12554727e-02, -1.72316898e-02, 6.66370019e-02,
          3.03369295e-02, 7.54926652e-02, 4.15049009e-02, 4.37018946e-02,
          -4.50036023e-03, -8.99976213e-03, -3.23809162e-02,
          2.93845031e-02, 2.99620572e-02, -4.91888151e-02,
          7.08012516e-03, -7.10795168e-03, -2.97303926e-02,
          -7.64740556e-02, -3.20646577e-02, -1.75579358e-02,
          -1.87351946e-02, 6.02557510e-02, -6.45425462e-04,
          6.73950315e-02, 2.01448221e-02, -2.25289483e-02,
          3.28071378e-02, 4.14284989e-02, -4.51199859e-02,
          -3.38055864e-02, 9.04748440e-02, 5.01496866e-02,
          6.60976842e-02, 5.86226434e-02, 5.00494763e-02, 4.11527492e-02,
          1.94297172e-02, -2.41785776e-02, -2.16822363e-02,
          5.11887856e-02, 3.42054926e-02, 3.24747860e-02, 5.51729240e-02,
          1.07139228e-02, -3.37878019e-02, 2.74375477e-03,
          -4.48925719e-02, -6.83360696e-02, 3.30652855e-02,
          7.55810132e-03, 6.96543455e-02, 3.40045653e-02, 1.14285257e-02,
          1.10196462e-02, -4.24085930e-02, -5.35247102e-02,
