<?xml version="1.0"?>
<opencv_storage>
<my_svm type_id="opencv-ml-svm">
  <svm_type>C_SVC</svm_type>
  <kernel><type>RBF</type>
    <gamma>5.0625000000000009e-001</gamma></kernel>
  <C>1.2500000000000000e+001</C>
  <term_criteria><epsilon>1.1920928688624599e-009</epsilon>
    <iterations>20000</iterations></term_criteria>
  <var_all>324</var_all>
  <var_count>324</var_count>
  <class_count>8</class_count>
  <class_labels type_id="opencv-matrix">
    <rows>1</rows>
    <cols>8</cols>
    <dt>i</dt>
    <data>
      1 2 3 4 6 7 9 10</data></class_labels>
  <sv_total>507</sv_total>
  <support_vectors>
    <_>
      1.54777728e-002 1.38966069e-001 3.38780612e-001 2.38955393e-001
      2.94892900e-002 4.77637071e-003 4.94942814e-003 3.67278187e-003
      1.17203277e-002 6.49338737e-002 3.38780612e-001 3.38780612e-001
      1.13332190e-001 2.37610266e-002 3.05285696e-002 8.85462910e-002
      3.79252881e-002 3.35177593e-002 9.73095838e-003 3.23922075e-002
      3.38780612e-001 3.38780612e-001 1.71602175e-001 8.91195517e-003
      8.19892716e-003 4.42636991e-003 1.29000517e-002 3.85259315e-002
      7.13348240e-002 3.38780612e-001 3.38780612e-001 9.05587226e-002
      5.87100834e-002 1.68096349e-001 7.97908753e-002 5.25689051e-002
      2.69745708e-001 2.69745708e-001 2.69745708e-001 5.13222665e-002
      4.21573073e-002 6.00821860e-002 1.94421396e-001 9.00791958e-002
      4.71106283e-002 2.69745708e-001 2.15281457e-001 6.23851530e-002
      3.02969199e-002 8.97588804e-002 2.89119147e-002 6.28545955e-002
      1.15578040e-001 2.69745708e-001 1.36476487e-001 8.58199149e-002
      2.00090393e-001 1.35953292e-001 8.23878795e-002 1.02717668e-001
      2.69745708e-001 2.51861334e-001 1.36713654e-001 2.69745708e-001
      7.35633820e-002 8.49550590e-002 7.73107335e-002 1.18328393e-001
      5.87019883e-002 1.66366756e-001 2.13350803e-001 2.47446120e-001
      1.95498884e-001 2.47938093e-002 2.27018669e-002 1.75258014e-002
      6.37553409e-002 2.31237002e-002 1.16557449e-001 3.09368372e-001
      3.09368372e-001 3.99134867e-002 4.39283758e-004 1.24584872e-003
      1.06262765e-003 3.46661955e-002 1.05302162e-001 3.09368372e-001
      3.09368372e-001 2.85225004e-001 1.83882073e-001 7.13388994e-002
      1.06385380e-001 6.40107617e-002 9.52343941e-002 6.54639676e-002
      1.57858834e-001 2.19379723e-001 1.60907209e-001 3.20026577e-002
      5.14313467e-002 1.14164464e-001 6.59438893e-002 1.17131256e-001
      2.73398072e-001 3.09368372e-001 2.87649095e-001 8.00814331e-002
      3.27601028e-003 3.46103706e-003 1.05840310e-001 3.24149013e-001
      3.24149013e-001 7.77108818e-002 3.35765281e-003 1.19125436e-003
      2.95881461e-003 1.97098851e-002 1.77291129e-002 1.89627394e-001
      3.24149013e-001 2.66076386e-001 1.20387360e-001 6.01433404e-002
      3.91684994e-002 1.96893346e-002 9.69818211e-004 7.05275743e-004
      4.18815995e-003 1.78507581e-001 3.24149013e-001 3.24149013e-001
      8.52292776e-002 4.05305531e-003 8.09782476e-004 7.63142342e-003
      6.56643556e-003 3.91296819e-002 1.35922685e-001 3.20943713e-001
      3.24149013e-001 2.09990844e-001 1.18707702e-001 3.29423063e-002
      9.26737934e-002 5.20228520e-002 1.97114632e-001 2.27649242e-001
      1.59501791e-001 1.13916792e-001 2.28426397e-001 1.89814106e-001
      1.15159415e-001 2.09715024e-001 7.75335208e-002 6.44565448e-002
      9.61533487e-002 8.73735398e-002 7.64293894e-002 2.40302280e-001
      2.16519743e-001 1.77476525e-001 1.78428799e-001 2.18753517e-002
      5.84675111e-002 1.15058467e-001 1.61036298e-001 2.19242498e-001
      2.40302280e-001 2.40302280e-001 2.40302280e-001 2.40302280e-001
      5.61311059e-002 4.27817926e-002 8.42903927e-002 6.08546473e-002
      9.28444639e-002 2.40302280e-001 2.21119106e-001 2.40302280e-001
      1.26099527e-001 1.90036461e-001 1.96298257e-001 1.07407294e-001
      9.78708193e-002 9.57598686e-002 1.78836495e-001 1.38240039e-001
      1.21768981e-001 3.72168757e-002 1.56136647e-001 2.23861814e-001
      1.58331871e-001 2.08907217e-001 2.14781910e-001 1.53335229e-001
      1.05798624e-001 1.02121226e-001 2.23861814e-001 1.24623068e-001
      9.24483761e-002 8.29206556e-002 9.91610438e-002 1.13783367e-001
      2.23861814e-001 2.23861814e-001 2.23861814e-001 1.17437564e-001
      1.00768715e-001 2.06744939e-001 2.23861814e-001 2.23861814e-001
      1.82336196e-001 1.54434770e-001 2.16418982e-001 2.23861814e-001
      1.15444663e-003 1.59643020e-003 8.57862295e-004 6.56281877e-003
      2.18779966e-001 3.27879846e-001 3.27879846e-001 3.82599980e-002
      1.25041557e-003 9.18219704e-003 3.59760923e-003 4.10557725e-003
      2.78791413e-003 6.58313483e-002 2.87218213e-001 3.27879846e-001
      1.95636928e-001 4.62614670e-002 2.11885292e-003 9.28739202e-004
      7.48070015e-004 2.90415320e-003 3.60398144e-002 3.04023772e-001
      3.27879846e-001 2.33251289e-001 1.15840500e-002 6.85961265e-003
      1.60181813e-003 1.05368393e-003 5.43962058e-004 1.13331378e-002
      1.09481692e-001 3.27879846e-001 3.27879846e-001 1.20422892e-001
      1.76068261e-001 7.79928965e-003 5.63228317e-003 4.47593862e-003
      2.59803068e-002 8.91980603e-002 2.06236944e-001 3.10814589e-001
      3.00529093e-001 3.10814589e-001 3.38084921e-002 9.08314437e-003
      1.55385891e-002 9.71697271e-003 1.60973277e-002 5.86068481e-002
      1.43104061e-001 3.10814589e-001 1.27973422e-001 4.71743150e-003
      2.42314581e-003 1.81559334e-003 3.17327417e-002 1.30051086e-002
      2.02108055e-001 3.10814589e-001 3.10814589e-001 3.10814589e-001
      1.69308618e-001 1.08738346e-002 1.41212821e-003 6.55373558e-002 0.
      1.50773637e-002 1.74883753e-001 3.10814589e-001 2.15142369e-001
      8.04127306e-002 2.54968759e-002 1.43146729e-002 4.38162126e-002
      3.56162861e-002 1.26453564e-001 1.80865079e-001 2.48070985e-001
      8.55071843e-002 1.44597486e-001 3.29201549e-001 1.14816859e-001
      1.49418637e-001 1.05451047e-001 1.46898597e-001 1.60704523e-001
      1.49188742e-001 3.50318521e-001 3.50318521e-001 6.98271990e-002
      4.47114790e-003 5.73649034e-002 1.03887646e-002 5.54914735e-002
      6.57034069e-002 1.36024877e-001 1.86306909e-001 3.50318521e-001
      3.50318521e-001 3.91395614e-002 6.39460087e-002 3.45406868e-002
      7.20334798e-002 5.33369444e-002 4.39745598e-002</_>
    <_>
      4.55170162e-002 2.04110205e-001 3.18414092e-001 5.35484925e-002
      3.19367796e-002 1.71761513e-002 4.73875413e-003 7.28375511e-003
      1.73477661e-002 1.58584818e-001 3.18414092e-001 3.18414092e-001
      4.76021580e-002 5.04118279e-002 1.19672427e-002 2.08515190e-002
      2.09861211e-002 2.03458928e-002 1.51480347e-001 2.37304196e-001
      3.18414092e-001 2.60627210e-001 4.84412573e-002 1.89595968e-002
      3.55204791e-002 3.14123258e-002 7.54565820e-002 1.04512490e-001
      3.18414092e-001 3.18414092e-001 1.94441274e-001 1.21476308e-001
      5.32701239e-002 1.76574886e-001 1.88404322e-001 1.34086102e-001
      2.94452429e-001 2.94452429e-001 8.24979395e-002 2.30231881e-002
      2.28760876e-002 8.26811325e-003 1.40787065e-002 1.82028357e-002
      9.93503183e-002 2.94452429e-001 1.34309337e-001 1.25514185e-002
      1.75464973e-002 1.05936192e-002 9.96519253e-003 1.32611440e-002
      1.54110849e-001 2.94452429e-001 2.48372763e-001 2.94452429e-001
      1.23524897e-001 8.20487663e-002 7.07168952e-002 4.56767865e-002
      1.16312586e-001 1.80208251e-001 2.35666648e-001 2.94452429e-001
      1.43656135e-001 7.86593854e-002 7.85457343e-002 8.64880979e-002
      1.06344305e-001 4.77912053e-002 2.87743479e-001 2.94452429e-001
      1.26944363e-001 8.64374638e-003 5.21819852e-003 4.52177273e-003
      4.29192744e-003 4.88440366e-003 7.67788738e-002 3.39277029e-001
      3.39277029e-001 9.96637158e-003 4.09562141e-003 4.94326418e-003
      1.27975631e-003 1.15541602e-002 6.69232570e-003 3.34545851e-001
      3.39277029e-001 1.69457778e-001 1.09311551e-001 4.79024462e-002
      5.12066670e-002 2.67169885e-002 6.42639697e-002 7.19474182e-002
      1.48975357e-001 3.39277029e-001 2.46429175e-001 1.80516262e-002
      1.76922772e-002 3.63692753e-002 1.44044869e-002 6.27132058e-002
      1.44033790e-001 3.39277029e-001 3.39277029e-001 7.85495490e-002
      7.65239894e-002 8.22325051e-002 2.65984356e-001 2.65984356e-001
      2.07744300e-001 4.20214236e-002 2.66618039e-002 2.65714955e-002
      4.88950312e-002 7.31428042e-002 1.24045730e-001 2.65984356e-001
      2.65984356e-001 2.00406626e-001 6.43309429e-002 9.80357975e-002
      1.19674884e-001 1.28295392e-001 9.10980161e-003 1.38880312e-002
      6.97112754e-002 2.42245510e-001 2.65984356e-001 2.65984356e-001
      7.78898224e-002 4.83061820e-002 2.01021675e-002 4.29791175e-002
      6.25264272e-002 2.19701797e-001 2.65984356e-001 2.65984356e-001
      2.65984356e-001 2.17547223e-001 1.17701501e-001 7.74820819e-002
      1.96636289e-001 1.30718961e-001 1.90171167e-001 1.44770339e-001
      8.59627947e-002 4.99201640e-002 1.14727192e-001 1.99057236e-001
      2.20808536e-001 2.20808536e-001 1.42488569e-001 1.42906636e-001
      6.14433289e-002 9.32974145e-002 1.06145293e-001 1.13097817e-001
      1.98060334e-001 2.20808536e-001 2.09670559e-001 1.00214720e-001
      1.53062433e-001 1.45130977e-001 1.56369627e-001 1.73528194e-001
      2.20808536e-001 2.20808536e-001 2.20808536e-001 2.20808536e-001
      1.29680783e-001 1.43363684e-001 9.29172337e-002 6.62127137e-002
      1.23794347e-001 2.20808536e-001 2.19493702e-001 2.20808536e-001
      8.00753310e-002 1.71733588e-001 2.30567172e-001 6.71637729e-002
      1.29455373e-001 1.11295968e-001 1.37153491e-001 2.30567172e-001
      8.35006908e-002 2.69546229e-002 1.00548759e-001 2.07136884e-001
      6.94104433e-002 2.30567172e-001 2.30567172e-001 2.30567172e-001
      2.30567172e-001 3.60930935e-002 1.72193795e-001 1.66761652e-001
      2.30567172e-001 1.17014125e-001 1.18062206e-001 1.14341058e-001
      1.28236637e-001 2.30567172e-001 2.10660368e-001 1.32845163e-001
      1.03852265e-001 2.30567172e-001 2.21633047e-001 2.30567172e-001
      1.58770368e-001 5.06511107e-002 1.26821160e-001 1.74577087e-001
      6.55928580e-003 2.62056571e-003 5.05926646e-003 2.44557187e-002
      2.59488374e-001 2.90630937e-001 2.90630937e-001 1.02206163e-001
      2.40113568e-002 4.34076861e-002 6.67411601e-003 1.34441080e-002
      3.92521173e-002 2.06534699e-001 2.90630937e-001 2.90630937e-001
      2.42931888e-001 1.24132119e-001 1.89526424e-001 2.38773264e-002
      1.11974832e-002 3.68850417e-002 4.65947874e-002 2.64807969e-001
      2.90630937e-001 1.86159566e-001 1.09615989e-001 8.22286829e-002
      1.58158373e-002 2.39856262e-003 1.28132384e-002 3.38780843e-002
      1.36204898e-001 2.90630937e-001 2.90630937e-001 1.49153247e-001
      2.80034721e-001 2.40560677e-002 2.27823611e-002 2.58903690e-002
      5.73332049e-002 1.22867435e-001 2.80034721e-001 2.66107857e-001
      2.80034721e-001 2.80034721e-001 9.93666500e-002 5.85196018e-002
      5.33825867e-002 2.34141890e-002 5.85537031e-002 9.94777977e-002
      1.36877432e-001 2.80034721e-001 2.21417353e-001 1.46281281e-002
      8.95693339e-003 1.51899655e-003 2.18481626e-002 2.33133044e-002
      2.72001624e-001 2.80034721e-001 2.80034721e-001 2.80034721e-001
      1.18305013e-001 4.31262031e-002 9.83422250e-003 1.27870049e-002
      7.55259814e-003 1.74860656e-002 1.04397997e-001 2.80034721e-001
      2.49382615e-001 7.85308257e-002 8.01343918e-002 6.02158159e-002
      6.96601123e-002 7.87005052e-002 9.82419997e-002 2.49382615e-001
      2.49382615e-001 1.84186131e-001 5.56127690e-002 1.76331416e-001
      2.08847463e-001 2.35528767e-001 1.62873611e-001 9.09212604e-002
      2.04950824e-001 2.35143095e-001 2.49382615e-001 2.49382615e-001
      1.82439670e-001 5.01332283e-002 4.78809364e-002 3.07889730e-002
      7.34371468e-002 1.52787060e-001 1.79529428e-001 1.91627532e-001
      2.49382615e-001 2.49382615e-001 1.49484292e-001 1.23398162e-001
      9.10779163e-002 1.03341691e-001 1.41517043e-001 1.12513430e-001</_>
    <_>
      1.75110012e-001 3.18623513e-001 3.18623513e-001 2.80824937e-002
      1.87051073e-002 9.59768333e-003 4.28518979e-003 2.21086130e-003
      2.16357987e-002 3.18623513e-001 3.18623513e-001 1.25138089e-001
      7.39548132e-002 1.29969925e-001 1.94678977e-002 6.79647457e-003
      1.03088925e-002 7.46021792e-002 9.35608596e-002 3.18623513e-001
      3.18623513e-001 1.01228252e-001 4.63725328e-002 4.96306978e-002
      1.49434745e-001 5.78530580e-002 6.13713004e-002 2.90192991e-001
      3.17508578e-001 9.35209766e-002 2.02009007e-002 5.31500131e-002
      4.86337692e-002 1.78844348e-001 1.00823179e-001 1.28879622e-001
      3.04732740e-001 1.98109895e-001 3.38923670e-002 7.99946189e-002
      2.14835301e-001 6.93936646e-002 1.55613665e-002 1.54145882e-001
      3.04732740e-001 5.94043210e-002 8.78042262e-003 6.60844799e-003
      1.47840884e-002 8.99422020e-002 6.12159483e-002 1.70891687e-001
      3.04732740e-001 3.04732740e-001 2.74155945e-001 8.64742771e-002
      2.81674489e-002 2.81457528e-002 5.00053726e-002 3.44960429e-002
      6.18659854e-002 1.35119960e-001 2.73028493e-001 1.12286061e-001
      2.32270565e-002 1.86639223e-002 1.50622111e-002 2.84414571e-002
      6.37822375e-002 3.04732740e-001 3.04732740e-001 2.64500886e-001
      6.74671214e-003 2.45548110e-003 1.93530356e-003 1.53172167e-003
      8.68810900e-003 3.23047116e-002 3.43544930e-001 3.43544930e-001
      1.62458897e-001 1.21541787e-002 1.00421170e-002 9.87377204e-003
      4.94405814e-003 1.37984799e-002 7.97860846e-002 3.43544930e-001
      1.80599913e-001 2.08206642e-002 1.04392571e-002 3.44219315e-003
      6.23472501e-003 4.41054534e-003 2.75342111e-002 2.76819408e-001
      3.43544930e-001 3.43544930e-001 4.85399812e-002 8.04050267e-003
      3.08026443e-003 4.58724331e-003 4.20408929e-003 9.47401375e-002
      3.43544930e-001 3.43544930e-001 1.17417201e-001 7.85474759e-003
      7.13061020e-002 1.10449873e-001 2.39090353e-001 2.39090353e-001
      9.83842611e-002 8.22868496e-002 2.39090353e-001 9.90408882e-002
      9.13193375e-002 1.77863225e-001 1.12391874e-001 1.11723274e-001
      7.83713982e-002 8.08210373e-002 8.61760974e-002 2.39090353e-001
      2.02212527e-001 2.39090353e-001 4.12505865e-002 4.39143144e-002
      2.06024662e-001 2.39090353e-001 2.39090353e-001 2.39090353e-001
      1.70181781e-001 8.21708366e-002 5.26426323e-002 1.85168788e-001
      8.42644051e-002 1.36727914e-001 1.48120493e-001 1.10424526e-001
      1.61861360e-001 2.39090353e-001 2.26649404e-001 2.39090353e-001
      2.31752157e-001 1.01674505e-001 6.82246760e-002 6.70452788e-002
      1.23585805e-001 7.55723640e-002 1.46997273e-001 1.72778428e-001
      2.31752157e-001 1.33070782e-001 1.16541237e-001 1.97166681e-001
      7.29796216e-002 1.13203160e-001 1.80184215e-001 2.31752157e-001
      2.31752157e-001 1.27362028e-001 2.31752157e-001 1.20732307e-001
      9.29727480e-002 8.08090270e-002 9.12277773e-002 1.65453017e-001
      2.31752157e-001 1.77935839e-001 2.31752157e-001 1.89729065e-001
      1.87663481e-001 2.31752157e-001 1.38336420e-001 1.43201172e-001
      1.72229290e-001 1.76951244e-001 1.28200054e-001 2.31752157e-001
      7.98653532e-003 2.22670659e-002 5.71570210e-002 3.76514159e-002
      1.40400961e-001 3.31389844e-001 3.27549428e-001 7.01215714e-002
      8.31461698e-003 2.47813971e-003 1.81938033e-003 3.42047517e-003
      3.71340886e-002 3.31389844e-001 3.31389844e-001 2.52241969e-001
      8.34122300e-003 2.02640123e-003 2.38202009e-002 3.53322327e-002
      9.64940116e-002 2.00753301e-001 2.70931542e-001 1.33750930e-001
      5.73128760e-002 2.21092328e-002 5.34457862e-002 3.33829853e-003
      1.81456318e-003 2.27088351e-002 3.31389844e-001 3.31389844e-001
      3.08420807e-001 1.56285129e-002 1.01106148e-003 3.28076165e-003
      3.75581793e-002 5.65631874e-003 2.86539271e-002 7.07435086e-002
      1.88804239e-001 2.78544277e-001 2.78544277e-001 1.50175542e-001
      9.57450420e-002 2.78544277e-001 2.22367533e-002 3.00567541e-002
      5.02719730e-002 4.63159308e-002 1.08640894e-001 2.60771245e-001
      1.98398426e-001 2.78544277e-001 5.31933382e-002 1.53346674e-003 0.
      0. 6.59772679e-002 1.94737047e-001 2.78544277e-001 2.78544277e-001
      1.74982771e-001 2.78544277e-001 1.36425672e-002 3.01178289e-003
      2.86923093e-003 2.64758077e-002 1.11081954e-002 1.49358645e-001
      2.78544277e-001 2.78544277e-001 2.57069677e-001 5.08041084e-002
      3.73749137e-002 4.59773727e-002 2.46492252e-002 1.06124796e-001
      1.93083569e-001 1.34866044e-001 2.57069677e-001 1.53485879e-001
      6.48133382e-002 1.22451708e-001 9.63008404e-002 1.32559150e-001
      1.28090292e-001 2.56054610e-001 1.91296205e-001 2.57069677e-001
      2.57069677e-001 1.27172023e-001 3.24104540e-002 1.89644117e-002
      2.72746552e-002 1.72700994e-002 7.65756071e-002 1.03300482e-001
      2.57069677e-001 2.19686538e-001 2.57069677e-001 2.57069677e-001
      9.69048440e-002 1.37886196e-001 1.46742895e-001 2.57069677e-001
      1.36096150e-001 2.35107422e-001 3.22573930e-002 2.17153020e-002
      1.85896918e-001 3.12780291e-001 1.77846789e-001 5.44592775e-002
      7.64433667e-002 3.53057683e-002 8.05013552e-002 5.60236210e-003
      7.04140775e-003 2.32482910e-001 3.41648340e-001 3.41648340e-001
      2.86911000e-002 4.92941774e-003 1.14578044e-003 5.69616864e-003
      4.30466048e-002 2.70539671e-001 3.41648340e-001 2.55775601e-001
      7.92563334e-002 6.55081719e-002 7.85352960e-002 2.29334943e-002
      4.84661572e-002 1.03716273e-002 8.75345916e-002 3.41648340e-001
      3.41648340e-001 8.87773335e-002 5.82272978e-003 2.90317694e-003
      1.30122737e-003 1.06832692e-002</_>
    <_>
      2.98432589e-001 1.40555695e-001 3.77066657e-002 3.24209556e-002
      2.62162685e-002 1.46664260e-002 8.45112801e-002 1.40960962e-001
      1.99453771e-001 2.98432589e-001 1.45266011e-001 6.84209839e-002
      5.78106865e-002 3.73697132e-002 1.71977505e-002 1.28637016e-001
      1.26972899e-001 2.98432589e-001 1.26440316e-001 1.30501539e-001
      6.87640533e-002 1.27672806e-001 1.89616233e-001 8.87800083e-002
      2.98432589e-001 2.98432589e-001 1.28446937e-001 1.99079737e-001
      1.25488117e-001 7.19310194e-002 8.26222450e-002 5.28090633e-002
      6.36543706e-002 2.98432589e-001 2.98432589e-001 1.77675217e-001
      2.68742055e-001 1.07706793e-001 9.93889719e-002 8.06836262e-002
      5.85484579e-002 1.90901253e-002 8.56599286e-002 1.03635333e-001
      2.68742055e-001 1.35767370e-001 9.10988450e-002 1.76122278e-001
      1.27837583e-001 1.02513164e-001 3.44100036e-002 8.31086114e-002
      1.10775575e-001 2.28648126e-001 2.68742055e-001 2.37364829e-001
      2.40577832e-001 9.74405706e-002 5.37639856e-002 5.08326292e-002
      2.68742055e-001 2.68742055e-001 2.23091125e-001 1.44945845e-001
      2.68742055e-001 2.68742055e-001 1.55392736e-001 9.51413587e-002
      2.72751749e-002 1.03546195e-001 1.49733365e-001 1.32673621e-001
      3.26345526e-002 2.13877514e-001 3.16625714e-001 8.20500031e-002
      6.82546571e-002 9.21911374e-002 1.83074117e-001 1.12084568e-001
      4.33610268e-002 2.84392014e-002 2.37906471e-001 3.16625714e-001
      1.35233492e-001 1.38210282e-001 2.46145681e-001 2.91385829e-001
      9.19479728e-002 1.24899065e-002 4.88931648e-002 3.16625714e-001
      3.16625714e-001 9.90887508e-002 4.88768779e-002 2.50765141e-002
      7.34197944e-002 6.60666153e-002 2.54650190e-002 4.17633206e-002
      2.96545386e-001 3.16625714e-001 7.58249462e-002 6.62770122e-002
      6.46247566e-002 4.30355892e-002 1.86094735e-002 1.36388214e-002
      6.34301975e-002 2.98461951e-002 2.20897757e-002 6.37660474e-002
      1.42020062e-001 1.96469977e-001 2.89446235e-001 2.33951926e-001
      1.23425506e-001 1.66437835e-001 4.24249098e-002 1.42291589e-002
      2.56395172e-002 2.69911867e-002 6.87796772e-002 2.89446235e-001
      2.89446235e-001 2.07047984e-001 2.12793872e-001 1.11336354e-002
      1.82622112e-003 1.32908160e-002 3.47842127e-002 1.35364309e-001
      2.88262218e-001 2.89446235e-001 2.89446235e-001 2.89446235e-001
      4.27406318e-002 8.28854740e-003 1.81744155e-002 2.04951279e-002
      4.33889329e-002 1.19852826e-001 1.63253993e-001 2.89446235e-001
      1.76317409e-001 1.49679452e-001 1.06468052e-001 6.53648973e-002
      6.25678301e-002 1.13318264e-001 2.52126545e-001 2.52126545e-001
      1.28219530e-001 7.83809423e-002 2.52126545e-001 2.25421041e-001
      9.64918062e-002 1.19766116e-001 8.22096691e-002 2.52126545e-001
      2.52126545e-001 8.67045075e-002 2.52126545e-001 9.21167135e-002
      4.03450504e-002 5.78518324e-002 5.66532649e-002 1.11267775e-001
      1.47942677e-001 1.38454959e-001 2.52126545e-001 2.52126545e-001
      8.96712393e-002 5.73306642e-002 7.47859105e-002 7.66750202e-002
      1.03716768e-001 2.46888146e-001 2.52126545e-001 2.52126545e-001
      9.27325115e-002 2.66643882e-001 2.14014962e-001 3.91540267e-002
      4.71928157e-002 2.97654439e-002 2.28114724e-001 2.52918780e-001
      1.84014291e-001 2.12155491e-001 6.74023777e-002 8.27256665e-002
      1.99930277e-002 3.00348885e-002 6.52011856e-002 6.98429644e-002
      1.10766977e-001 2.26348728e-001 2.66643882e-001 4.26154509e-002
      2.74794642e-002 2.04830039e-002 2.32934039e-002 2.89457571e-002
      2.03246981e-001 2.66643882e-001 2.66643882e-001 2.66643882e-001
      3.01999152e-002 1.78600959e-002 1.05443290e-002 1.25106797e-001
      2.66643882e-001 1.63171455e-001 2.66643882e-001 2.66643882e-001
      2.82326519e-001 6.09691348e-003 2.97732058e-005 3.14224581e-003
      1.62197556e-002 1.88698731e-002 1.25974759e-001 3.40857357e-001
      3.40857357e-001 3.40857357e-001 3.19920331e-002 3.34547344e-003
      4.44218097e-003 7.54608074e-003 6.32676808e-003 8.07198510e-003
      6.37595057e-002 3.40857357e-001 1.83951035e-001 4.63083992e-003
      9.86790843e-003 9.61352885e-003 4.58526090e-002 2.54897363e-002
      4.35932688e-002 1.99835062e-001 3.40857357e-001 3.40857357e-001
      1.49850892e-002 1.47536360e-002 1.43076265e-002 2.20262259e-002
      1.20619414e-002 1.88233443e-002 3.89150418e-002 3.40857357e-001
      3.56719673e-001 8.00755471e-002 1.71906017e-002 1.86396893e-002
      1.36020631e-002 1.94658302e-002 8.00481904e-003 3.26266401e-002
      3.56719673e-001 3.56719673e-001 1.11306027e-001 2.49570701e-002
      3.02542709e-002 1.64667927e-002 2.06292551e-002 3.18736210e-002
      9.00143385e-002 3.56719673e-001 3.56719673e-001 3.60698253e-002
      2.40270644e-002 2.00450383e-002 1.38602052e-002 7.57900253e-003
      1.31411552e-002 1.38121890e-002 3.30263823e-001 3.56719673e-001
      6.42183498e-002 1.98667031e-002 1.22749079e-002 5.68963960e-003
      6.51358580e-003 2.58822888e-002 3.35547738e-002 2.86260784e-001
      2.82627612e-001 3.60485837e-002 1.24704670e-002 8.42314307e-003
      6.96530612e-003 6.37278240e-003 7.67560899e-002 2.82627612e-001
      2.82627612e-001 1.88738063e-001 2.52013914e-002 2.27630381e-002
      1.67634841e-002 1.40704304e-001 2.12208644e-001 2.82627612e-001
      2.82627612e-001 2.82627612e-001 2.63796002e-001 2.73909178e-002
      1.11274906e-002 8.76035821e-003 1.51653299e-002 5.16160624e-003
      9.90183875e-002 2.19027027e-001 2.61520505e-001 9.72383171e-002
      6.04431070e-002 8.52532983e-002 3.37321423e-002 1.08124986e-001
      6.11080192e-002 2.82627612e-001 2.82627612e-001 1.21859141e-001</_>
    <_>
      3.30398887e-001 4.68628407e-002 8.32463522e-003 5.82696171e-003
      2.21375041e-002 7.64062721e-003 8.83370265e-003 1.51342591e-002
      3.30398887e-001 3.30398887e-001 4.13407944e-002 1.43918395e-002
      7.03731738e-003 3.59844118e-002 6.12409413e-003 5.96124902e-002
      9.50304344e-002 3.30398887e-001 3.30398887e-001 7.70503879e-002
      3.29797938e-002 2.28121430e-002 5.67613505e-002 2.15194356e-002
      1.51725516e-001 1.41353309e-001 2.71867067e-001 3.30398887e-001
      1.65729091e-001 7.44770467e-002 4.04439978e-002 9.38077271e-002
      2.93961037e-002 1.52938634e-001 1.32934168e-001 3.30398887e-001
      2.86534309e-001 9.59182158e-002 4.19477150e-002 4.16966416e-002
      7.94984326e-002 3.54445316e-002 1.90901771e-001 1.75626636e-001
      2.86534309e-001 2.09334686e-001 8.74954462e-002 5.31791858e-002
      7.76625350e-002 1.18451923e-001 1.00610480e-001 2.86534309e-001
      1.66461959e-001 1.41177222e-001 2.86534309e-001 1.78513512e-001
      1.23189740e-001 8.35905448e-002 7.44245425e-002 3.08080781e-002
      9.88414511e-002 1.32822096e-001 2.86534309e-001 2.86534309e-001
      1.47383809e-001 1.82156667e-001 1.71704978e-001 1.11905783e-001
      7.18510896e-002 6.06267229e-002 1.27871335e-001 2.73504972e-001
      2.21104007e-002 3.48515511e-002 5.64361997e-002 4.27273102e-002
      5.10300398e-002 7.62108117e-002 3.16790998e-001 3.16790998e-001
      3.22772823e-002 8.02321546e-003 5.83400764e-002 1.56112492e-001
      1.22861266e-001 9.90455300e-002 2.09665418e-001 3.16790998e-001
      3.16790998e-001 4.09336165e-002 4.16173004e-002 1.85369939e-001
      3.16790998e-001 1.38463944e-001 5.44460379e-002 6.38585314e-002
      7.49387816e-002 8.50146711e-002 4.31294516e-002 3.13963816e-002
      2.72548348e-001 3.16790998e-001 2.45256200e-001 1.17449895e-001
      1.50455281e-001 1.53818458e-001 8.25889781e-002 2.83669271e-002
      8.02653804e-002 4.80082110e-002 3.34349349e-002 4.22781743e-002
      6.98937327e-002 5.73125295e-002 2.89170593e-001 2.89170593e-001
      1.28616676e-001 2.09834769e-001 1.15333773e-001 5.74998334e-002
      3.36573757e-002 8.41459632e-002 5.63360490e-002 2.89170593e-001
      2.89170593e-001 1.67982697e-001 7.96555579e-002 2.29923185e-002
      1.52096022e-002 3.66263241e-002 6.71837702e-002 1.04325116e-001
      2.89170593e-001 2.89170593e-001 2.31838018e-001 1.51728526e-001
      5.01288660e-002 2.11414620e-002 1.28967520e-002 1.48969600e-002
      6.29495829e-002 2.89170593e-001 2.89170593e-001 2.89170593e-001
      2.54421800e-001 1.79297879e-001 1.39620185e-001 1.05083779e-001
      5.76487593e-002 3.70189585e-002 1.69131190e-001 2.08708271e-001
      1.99787095e-001 2.03126743e-001 2.54421800e-001 2.54421800e-001
      1.89462259e-001 7.90296867e-002 5.70726879e-002 4.62198704e-002
      9.37356427e-002 9.68092754e-002 1.73203453e-001 1.20753840e-001
      9.40574110e-002 8.48682523e-002 5.58312908e-002 8.22947323e-002
      2.54421800e-001 2.54421800e-001 1.72417834e-001 1.19613469e-001
      2.54421800e-001 2.36458361e-001 1.07224599e-001 9.88582000e-002
      1.38294920e-001 1.98842213e-001 2.54421800e-001 8.67831409e-002
      7.10324347e-002 3.06599259e-001 3.06599259e-001 1.44582286e-001
      5.57606407e-002 3.95794474e-002 3.41514535e-002 5.66253215e-002
      3.18135992e-002 3.96508127e-002 2.51115799e-001 3.06599259e-001
      1.41525388e-001 5.64114079e-002 1.97872669e-002 3.20771150e-002
      2.66327746e-002 3.79913412e-002 1.03517547e-001 3.06599259e-001
      2.69191593e-001 5.08942604e-002 6.74301982e-002 9.79984850e-002
      2.24941850e-001 3.06599259e-001 1.83618769e-001 1.64748147e-001
      1.21927798e-001 1.23723812e-001 3.97408418e-002 5.05300909e-002
      4.26349118e-002 1.20720126e-001 2.08365768e-001 3.06599259e-001
      1.78436726e-001 1.72631238e-002 8.66458099e-003 4.46203211e-003
      1.66522581e-002 4.02412377e-002 1.11207008e-001 2.43908703e-001
      3.25014383e-001 3.25014383e-001 4.18635346e-002 1.20431380e-002
      7.47149019e-003 6.35651778e-003 1.57716982e-002 2.01854691e-001
      2.33439952e-001 3.25014383e-001 3.25014383e-001 2.40654107e-002
      8.98990035e-003 0. 3.74579756e-003 6.65511703e-003 2.60079764e-002
      2.21714437e-001 3.25014383e-001 3.25014383e-001 3.87933627e-002
      7.81536289e-003 2.47799396e-003 5.12532750e-003 6.81895879e-004
      1.62393562e-002 3.77822630e-002 3.25014383e-001 2.67957002e-001
      1.00450359e-001 6.15014546e-002 4.86237444e-002 7.21480399e-002
      5.03191538e-002 3.09371084e-001 2.74388880e-001 3.09371084e-001
      8.27948973e-002 9.48342532e-002 8.20166767e-002 4.84208204e-002
      1.09731711e-001 8.15785527e-002 2.52055407e-001 3.09371084e-001
      1.39552668e-001 3.09371084e-001 7.73574188e-002 3.50987539e-002
      1.78127568e-002 3.33914533e-002 3.99103854e-003 4.29813229e-002
      2.97508724e-002 3.09371084e-001 3.09371084e-001 7.48693720e-002
      3.67680825e-002 2.13867780e-002 5.14956936e-002 1.26356632e-002
      4.53546196e-002 7.46192858e-002 3.09371084e-001 9.21679959e-002
      5.94008490e-002 2.16310397e-002 7.69169861e-003 3.61790918e-002
      4.25386801e-002 1.75845072e-001 2.96053797e-001 2.96053797e-001
      2.82417983e-001 3.91720198e-002 3.54874809e-003 8.62308312e-003
      5.96267097e-002 6.96652457e-002 1.17100127e-001 2.31410071e-001
      2.96053797e-001 2.96053797e-001 2.94656344e-002 4.86751227e-003
      3.55199212e-003 2.54082847e-002 1.74513739e-002 5.00910953e-002
      2.30529577e-001 2.96053797e-001 2.30072036e-001 2.23282222e-002
      1.11537492e-002 2.53004748e-002 1.62483737e-001 1.17776588e-001
      1.66994512e-001 2.96053797e-001 2.96053797e-001</_>
    <_>
      1.29391467e-002 3.99096198e-002 3.30327690e-001 3.30327690e-001
      1.14960417e-001 6.11240044e-003 6.41526422e-003 9.53292660e-003
      9.64845996e-003 4.88103069e-002 9.07626674e-002 3.30327690e-001
      2.88797677e-001 1.12337455e-001 4.36576232e-002 1.60565913e-001
      1.03280440e-001 4.60291021e-002 3.31163593e-003 3.18082748e-003
      1.65105358e-001 3.30327690e-001 3.30327690e-001 6.20062873e-002
      3.92720290e-003 3.93953500e-003 2.44541280e-003 1.10976938e-002
      5.20441383e-002 2.30728701e-001 3.30327690e-001 2.67944843e-001
      9.81398076e-002 8.18908811e-002 6.14187904e-002 2.26138849e-002
      1.43022045e-001 1.07906252e-001 1.16673797e-001 1.12767227e-001
      1.25440806e-001 7.37822354e-002 2.33110115e-001 2.33110115e-001
      1.57458887e-001 2.33110115e-001 1.13395207e-001 5.87961897e-002
      3.68036479e-002 1.36991560e-001 5.23383208e-002 1.35887846e-001
      1.81965098e-001 2.33110115e-001 8.12978595e-002 1.44538715e-001
      2.14254513e-001 2.33110115e-001 1.56353697e-001 1.25015333e-001
      2.33110115e-001 2.33110115e-001 1.66961759e-001 2.33110115e-001
      1.54622167e-001 9.31821764e-002 5.03620431e-002 1.41623646e-001
      1.04499623e-001 2.33110115e-001 2.33110115e-001 2.27268919e-001
      2.20397174e-001 1.03236429e-001 7.87742585e-002 3.00473962e-002
      1.49527162e-001 5.54776825e-002 1.91393688e-001 2.50595987e-001
      2.11385459e-001 4.50521894e-002 4.80657294e-002 8.34207013e-002
      3.02681234e-002 1.86437175e-001 2.21533611e-001 2.50595987e-001
      2.50595987e-001 1.13097638e-001 1.46161586e-001 2.50595987e-001
      2.50595987e-001 2.91092452e-002 1.48238733e-001 8.76691341e-002
      1.76235750e-001 1.44378722e-001 9.78864953e-002 4.66081314e-002
      2.07768738e-001 2.50595987e-001 8.38157758e-002 2.50595987e-001
      2.08330303e-001 2.05962628e-001 1.41085863e-001 6.72529489e-002
      6.71436428e-004 1.74592598e-004 1.22701414e-002 2.26654023e-001
      3.10490817e-001 3.10490817e-001 3.70375142e-002 6.13918412e-004
      8.46195093e-004 4.87945834e-003 1.56973973e-002 6.26068637e-002
      1.78335607e-001 3.03997040e-001 2.57312804e-001 1.42496958e-001
      5.62291034e-002 2.99270302e-002 9.06669302e-004 0. 2.48471799e-004
      1.41152795e-002 2.97706991e-001 3.10490817e-001 3.10490817e-001
      2.89926045e-002 2.19555851e-003 1.50155248e-002 3.26241658e-004
      1.09478878e-003 8.72362684e-003 1.08539037e-001 3.10490817e-001
      3.10490817e-001 1.90315962e-001 9.28184316e-002 1.13075182e-001
      6.19355105e-002 8.53778422e-002 1.60363883e-001 1.38684347e-001
      1.78566739e-001 2.66612291e-001 2.03580558e-001 2.14937463e-001
      2.56780744e-001 1.20032378e-001 5.13977595e-002 2.57228725e-002
      8.57403949e-002 1.41190350e-001 2.66612291e-001 1.86388269e-001
      2.66612291e-001 2.28536174e-001 7.29139568e-003 3.79361166e-003
      7.38213165e-003 3.86744328e-002 1.08436592e-001 2.66612291e-001
      2.66612291e-001 2.66612291e-001 2.66612291e-001 6.05589785e-002
      9.86698736e-003 1.20106176e-003 2.44416185e-002 5.95995635e-002
      9.42899436e-002 1.10464714e-001 2.66612291e-001 1.48385137e-001
      1.85004398e-001 1.32191822e-001 1.03569999e-002 9.37082842e-002
      1.34411171e-001 1.88488886e-001 1.41732469e-001 2.29216486e-001
      9.60038602e-002 1.38580963e-001 1.92564160e-001 1.50013477e-001
      1.90925673e-001 1.25271022e-001 1.07354902e-001 1.51769653e-001
      1.99934885e-001 2.29216486e-001 8.85560140e-002 3.53164785e-002
      2.29622889e-002 6.59402162e-002 9.17069241e-002 2.29216486e-001
      1.91553369e-001 2.29216486e-001 1.26066729e-001 1.58620760e-001
      2.29216486e-001 2.22311556e-001 1.99245900e-001 1.52503639e-001
      2.29216486e-001 2.15528190e-001 2.29216486e-001 1.17830199e-003
      1.69127889e-004 5.56151848e-004 4.31432482e-003 2.97891814e-002
      3.27722818e-001 3.27722818e-001 1.73261270e-001 4.71907994e-003
      8.65644962e-003 3.02503409e-004 2.88268959e-004 1.14619581e-003
      7.41040939e-003 1.26902536e-001 3.27722818e-001 3.27722818e-001
      1.05581664e-001 9.15469881e-003 5.46674104e-003 2.97727971e-003
      3.25083407e-003 1.10635050e-002 6.69076294e-002 3.27722818e-001
      2.69331187e-001 2.89418269e-002 1.08044501e-002 2.02860334e-003
      4.33478534e-004 8.38903943e-005 6.35459879e-003 3.00724283e-002
      3.27722818e-001 3.27722818e-001 3.27722818e-001 8.61902237e-002
      3.04938946e-003 1.73596246e-003 0. 1.08771550e-003 9.47116036e-003
      1.40195906e-001 3.06168735e-001 3.03602844e-001 3.06168735e-001
      8.29822645e-002 5.03466371e-003 0. 2.59638997e-003 4.72619431e-003
      1.72759201e-002 8.07141140e-002 3.03368717e-001 8.61489400e-002
      2.62812222e-003 3.08320479e-004 1.39984349e-003 6.24368712e-002
      5.42907901e-002 1.13264143e-001 3.06168735e-001 3.06168735e-001
      3.06168735e-001 2.34578371e-001 3.15500833e-002 7.35054165e-002
      2.45965958e-001 1.02709390e-001 3.17220055e-002 2.20843300e-001
      3.06168735e-001 2.33189985e-001 2.71824837e-001 5.22410199e-002
      1.38839940e-002 2.11515352e-002 2.02647075e-002 8.02095979e-002
      4.10214290e-002 9.79192406e-002 9.04503092e-002 3.46735418e-001
      3.46735418e-001 5.92448413e-002 6.02481104e-002 3.92699242e-002
      1.01326413e-001 3.87152955e-002 4.73605208e-002 3.46735418e-001
      3.46735418e-001 8.47452953e-002 8.00726637e-002 1.44075945e-001
      2.89680511e-002 7.58568803e-003 1.07516674e-002 7.29041770e-002
      2.28549823e-001 3.46735418e-001 3.46735418e-001 2.18398646e-002
      2.48063486e-002 2.43893033e-003 3.25322547e-003 2.22166441e-003
      2.30828673e-002</_>
    <_>
      2.76209891e-001 6.36187047e-002 2.73989812e-002 3.72549817e-002
      3.44618559e-002 3.05788256e-002 7.35817105e-002 1.84302241e-001
      2.76209891e-001 2.76209891e-001 9.14947093e-002 3.07241976e-002
      3.72607708e-002 2.53285728e-002 8.61507729e-002 1.23888709e-001
      1.70569375e-001 2.76209891e-001 2.76209891e-001 1.11060001e-001
      7.15863705e-002 8.34594443e-002 9.38837454e-002 6.23376556e-002
      1.64318323e-001 1.83929116e-001 2.76209891e-001 2.76209891e-001
      2.20349371e-001 5.18437847e-002 5.47821485e-002 5.97161278e-002
      8.47293735e-002 2.76209891e-001 1.91755712e-001 2.76209891e-001
      2.56723046e-001 6.16750531e-002 3.42386626e-002 7.09751099e-002
      2.24220492e-002 1.08351730e-001 2.26714849e-001 2.51833171e-001
      2.56723046e-001 1.33652404e-001 3.49559896e-002 4.09801528e-002
      7.28032291e-002 4.04934473e-002 1.07526787e-001 2.56723046e-001
      2.56723046e-001 1.29186168e-001 2.56723046e-001 1.91929609e-001
      1.32474646e-001 1.61347374e-001 4.95894067e-002 5.91047257e-002
      2.00907573e-001 1.52778551e-001 2.56723046e-001 1.75462291e-001
      2.15805575e-001 2.56723046e-001 1.94326773e-001 5.98025620e-002
      6.76414594e-002 2.02655882e-001 1.23882316e-001 1.15277708e-001
      2.55324375e-002 2.62197219e-002 7.08869398e-002 7.18845874e-002
      6.03532903e-002 1.02868371e-001 2.99796700e-001 2.99796700e-001
      2.36543790e-002 2.57498529e-002 2.19465755e-002 4.34080102e-002
      5.64067364e-002 8.80387872e-002 2.99796700e-001 2.99796700e-001
      1.83726862e-001 2.69734208e-002 3.07853315e-002 2.15023547e-001
      2.99796700e-001 1.64811656e-001 5.98906130e-002 8.91337320e-002
      2.85609871e-001 1.32468939e-001 1.37223601e-002 1.76213421e-002
      6.34007826e-002 2.31981620e-001 1.25418231e-001 1.72355413e-001
      2.99796700e-001 2.99796700e-001 6.46068230e-002 1.24480408e-002
      7.18753934e-002 4.60661054e-002 5.37938215e-002 7.05555305e-002
      1.43663824e-001 1.92080498e-001 2.62037307e-001 1.75443828e-001
      1.60845026e-001 1.54957950e-001 1.52086660e-001 5.60668707e-002
      3.42336595e-002 5.35446480e-002 9.75316837e-002 2.62037307e-001
      2.62037307e-001 1.64449528e-001 1.13722973e-001 4.62696142e-003
      1.68025959e-002 3.16924043e-002 1.18067853e-001 2.33746111e-001
      2.62037307e-001 2.62037307e-001 2.52669603e-001 2.62037307e-001
      8.48694667e-002 4.71552089e-002 2.50614025e-002 2.15174295e-002
      4.47767265e-002 2.62037307e-001 2.62037307e-001 2.62037307e-001
      2.34775141e-001 2.34775141e-001 1.69248983e-001 1.03016913e-001
      7.47577474e-002 4.68076468e-002 2.34775141e-001 2.07339242e-001
      1.43874750e-001 1.78819329e-001 2.34775141e-001 2.34775141e-001
      1.25057667e-001 7.20916316e-002 2.24272460e-002 9.84198749e-002
      1.06554143e-001 9.21479091e-002 2.34775141e-001 1.79896012e-001
      1.18860856e-001 7.33979568e-002 6.65088817e-002 2.76593175e-002
      2.34775141e-001 2.34775141e-001 1.97629273e-001 1.88723236e-001
      1.82353362e-001 1.75818667e-001 6.94724470e-002 7.53219128e-002
      1.91089250e-002 2.34775141e-001 2.34775141e-001 2.14745417e-001
      8.67145509e-002 2.68471092e-001 2.68471092e-001 1.24237724e-001
      4.99845408e-002 3.48829962e-002 8.45027417e-002 6.90038949e-002
      6.00477904e-002 4.39043865e-002 8.29369500e-002 2.17083648e-001
      9.81432274e-002 2.17135325e-001 2.17022255e-001 7.73201510e-002
      2.13483032e-002 2.62001790e-002 2.68471092e-001 1.99230298e-001
      1.74307585e-001 6.90863952e-002 7.93660060e-002 7.88552165e-002
      2.03041613e-001 2.68471092e-001 2.68471092e-001 1.81401566e-001
      1.35258719e-001 9.01581720e-002 1.81576848e-001 2.68471092e-001
      2.31456846e-001 1.36155829e-001 8.28460827e-002 2.36394644e-001
      2.23832339e-001 1.58111211e-002 7.24745216e-003 1.88366622e-002
      3.49581130e-002 5.97209930e-002 2.31529668e-001 3.20090503e-001
      3.20090503e-001 3.20090503e-001 4.37583961e-002 2.74368431e-002
      2.06149761e-002 4.16917307e-003 7.26119243e-003 8.81901458e-002
      2.05311269e-001 3.20090503e-001 1.71969026e-001 2.11568121e-002
      1.04016587e-002 1.58687569e-002 4.02034037e-002 2.38553286e-002
      1.14176266e-001 2.59275705e-001 3.20090503e-001 3.20090503e-001
      1.83171723e-002 6.73288293e-003 9.60738864e-003 8.94501060e-003
      3.97752831e-003 1.27960416e-002 6.15735166e-002 3.20090503e-001
      3.06297988e-001 9.62669253e-002 7.52955899e-002 5.71900085e-002
      1.90249160e-002 6.70636864e-003 9.94419754e-002 1.47094235e-001
      3.06297988e-001 3.06297988e-001 1.07000284e-001 7.44616613e-002
      4.81291562e-002 2.69552562e-002 1.82035360e-002 1.53196633e-001
      3.06297988e-001 3.06297988e-001 3.06297988e-001 4.33464944e-002
      2.87910979e-002 7.71999639e-003 7.07696192e-003 1.78167794e-003
      7.19693257e-003 3.83948125e-002 3.06297988e-001 3.06297988e-001
      9.43832844e-002 4.63537797e-002 2.83314958e-002 4.44664881e-002
      2.36322656e-002 9.04721916e-002 1.77958101e-001 3.06297988e-001
      1.88653722e-001 7.91995227e-002 3.80333401e-002 4.44048233e-002
      7.07776174e-002 1.03602171e-001 1.67213693e-001 2.54302233e-001
      2.54302233e-001 1.07685082e-001 8.49345177e-002 9.01124105e-002
      1.70958757e-001 2.32809052e-001 2.02582195e-001 1.94566905e-001
      2.10206300e-001 1.93542585e-001 9.61817652e-002 5.47529310e-002
      3.69840823e-002 3.70281078e-002 8.92893672e-002 9.97785255e-002
      2.54302233e-001 2.54302233e-001 2.54302233e-001 6.82866499e-002
      7.97049701e-002 1.35104433e-001 1.15728587e-001 1.89570725e-001
      1.63969085e-001 2.54302233e-001 2.54302233e-001 2.15609089e-001</_>
    <_>
      1.23118609e-001 2.60258168e-001 1.99157342e-001 1.63793281e-001
      8.46288502e-002 1.38259530e-002 4.51991446e-002 6.80019110e-002
      1.04882523e-001 2.60258168e-001 2.60258168e-001 2.10476235e-001
      1.07840359e-001 5.43192588e-002 9.10822302e-003 5.28913699e-002
      1.02050029e-001 1.28832474e-001 8.08730125e-002 1.84969008e-001
      2.39046097e-001 2.60258168e-001 2.60258168e-001 8.68936256e-002
      4.29302193e-002 3.64453606e-002 8.20267424e-002 2.60258168e-001
      2.60258168e-001 1.95235759e-001 2.60258168e-001 1.62675396e-001
      8.06491077e-002 8.65610242e-002 1.65734485e-001 1.96693480e-001
      2.62251824e-001 2.62251824e-001 8.89120027e-002 3.80846523e-002
      3.05482056e-002 3.70496535e-003 2.86196116e-002 1.62984714e-001
      2.62251824e-001 2.25240216e-001 5.32595031e-002 5.75776808e-002
      3.38003561e-002 4.07776572e-002 2.64400821e-002 2.25512192e-001
      2.62251824e-001 2.62251824e-001 2.62251824e-001 2.24653676e-001
      1.34389371e-001 9.06937495e-002 6.54369146e-002 4.17975672e-002
      6.11234121e-002 1.60921603e-001 2.17788026e-001 1.19728982e-001
      9.75282565e-002 2.14446768e-001 1.37338161e-001 1.02320589e-001
      1.07771784e-001 2.62251824e-001 2.62251824e-001 1.66169986e-001
      9.76530984e-002 3.05036679e-002 3.86822633e-002 2.61724703e-002
      4.06700112e-002 1.27594635e-001 2.89332241e-001 2.89332241e-001
      2.67820686e-001 1.20618977e-001 6.90747947e-002 5.03621846e-002
      4.41442132e-002 4.30482663e-002 1.79456607e-001 2.85494298e-001
      1.17850587e-001 1.56499416e-001 1.71918739e-002 2.56526656e-002
      1.30490527e-001 1.17832296e-001 2.23783031e-001 2.89332241e-001
      2.89332241e-001 2.89332241e-001 6.51118383e-002 2.31234375e-002
      1.78831518e-002 3.35069224e-002 6.72747791e-002 1.89746708e-001
      2.89332241e-001 2.89332241e-001 4.33812365e-002 2.19647270e-002
      3.20346355e-002 6.07340448e-002 9.25531164e-002 2.54206866e-001
      2.60020226e-001 2.54116565e-001 1.07226163e-001 2.17775069e-002
      4.25783098e-002 1.47858530e-001 8.42056945e-002 1.07491113e-001
      2.29721516e-001 1.84224874e-001 2.15632096e-001 1.72112301e-001
      1.39278203e-001 1.86098441e-001 1.13287084e-002 7.93532468e-003
      7.38129253e-003 5.06930351e-002 2.60020226e-001 2.60020226e-001
      2.60020226e-001 1.06976785e-001 4.68492135e-002 9.24126133e-002
      2.60732193e-002 3.16516832e-002 6.47314265e-002 1.09637387e-001
      2.60020226e-001 2.60020226e-001 2.60020226e-001 2.60020226e-001
      2.43213132e-001 1.14882052e-001 1.40458584e-001 9.97832566e-002
      6.11792430e-002 1.37655646e-001 1.40238628e-001 1.58147261e-001
      2.43213132e-001 1.50465325e-001 1.10845052e-001 2.43213132e-001
      1.34714246e-001 1.03724249e-001 1.49413750e-001 1.63678393e-001
      1.99129894e-001 2.15922445e-001 2.43213132e-001 8.80158022e-002
      7.16343820e-002 4.65511717e-002 2.16897447e-002 1.08482994e-001
      1.81228817e-001 2.20966801e-001 2.43213132e-001 2.43213132e-001
      1.82080746e-001 1.45461097e-001 6.36376068e-002 4.51775566e-002
      1.56703934e-001 1.44770980e-001 2.43213132e-001 2.43213132e-001
      4.52953354e-002 3.59281078e-002 1.46163598e-001 1.79500356e-001
      2.42790133e-001 2.42790133e-001 1.57535389e-001 1.22176066e-001
      1.06013812e-001 2.88145877e-002 2.24626698e-002 6.45995140e-002
      2.42790133e-001 2.42790133e-001 2.42790133e-001 1.06687449e-001
      6.73869718e-003 9.22023784e-003 1.54745057e-001 1.58923045e-001
      2.42790133e-001 2.30357677e-001 2.01843396e-001 1.81310877e-001
      1.45342410e-001 2.42432505e-001 1.57553911e-001 1.24182858e-001
      1.48849323e-001 2.42790133e-001 2.42790133e-001 2.42790133e-001
      1.15934744e-001 8.29810873e-002 1.10779675e-002 5.90737611e-002
      2.30778381e-002 1.62527766e-002 2.88624112e-002 4.58957367e-002
      2.43131846e-001 2.76280671e-001 2.98150063e-001 2.98150063e-001
      1.32872701e-001 7.89323226e-002 2.37182397e-002 9.46775451e-003
      1.25675322e-002 4.99845706e-002 1.06727347e-001 2.98150063e-001
      2.98150063e-001 2.98150063e-001 6.99156225e-002 4.47922610e-002
      6.05955608e-002 5.16702123e-002 7.30962604e-002 5.14311492e-002
      1.57697916e-001 2.48729736e-001 1.76271588e-001 1.07559100e-001
      3.41061279e-002 1.65141765e-002 1.57012064e-002 3.07737533e-002
      2.91208178e-002 2.07180753e-001 2.98150063e-001 2.98150063e-001
      2.65517831e-001 9.11789685e-002 1.53373415e-002 9.64814704e-003
      2.22569378e-003 1.42447250e-002 1.03975326e-001 2.39871651e-001
      2.65517831e-001 2.65517831e-001 2.65517831e-001 1.62413925e-001
      5.25098145e-002 2.30606738e-002 7.51008317e-002 5.21106869e-002
      1.48829177e-001 2.65517831e-001 2.65517831e-001 9.31857228e-002
      1.27031617e-002 8.74146819e-003 3.40708010e-002 3.51043642e-002
      5.91319278e-002 2.48433232e-001 2.65517831e-001 2.65517831e-001
      2.46158183e-001 1.06314048e-001 1.05417714e-001 2.16723740e-001
      1.12534881e-001 7.14732260e-002 3.45765762e-002 2.65517831e-001
      2.18544871e-001 2.52411097e-001 2.52411097e-001 2.20004603e-001
      7.01789260e-002 1.32462606e-001 9.34451595e-002 1.48378924e-001
      1.17297307e-001 2.52411097e-001 2.52411097e-001 2.52411097e-001
      2.38178149e-001 7.93410540e-002 4.81059365e-002 8.10261816e-002
      3.09670866e-002 1.47364780e-001 2.10534900e-001 2.25521252e-001
      2.52411097e-001 2.09631875e-001 2.52411097e-001 1.49319127e-001
      9.78916734e-002 4.82704006e-002 1.11948863e-001 1.61557779e-001
      1.32925749e-001 1.73034713e-001 8.07129219e-002 4.81058471e-002
      5.14573120e-002 6.26769662e-002 8.23426396e-002 1.09582894e-001</_>
    <_>
      1.32367209e-001 2.59473264e-001 2.59473264e-001 7.20505118e-002
      7.20218420e-002 1.64508030e-001 2.59473264e-001 9.40913260e-002
      4.86210510e-002 2.59473264e-001 2.59473264e-001 6.79292381e-002
      3.00857630e-002 4.24994491e-002 7.98508599e-002 2.49845833e-001
      1.35048166e-001 8.50881636e-002 9.83890146e-002 8.41773674e-002
      2.07059115e-001 1.48469239e-001 6.91794604e-002 1.48440868e-001
      2.59473264e-001 1.95630521e-001 6.39292896e-002 2.19137788e-001
      8.96200240e-002 6.59122840e-002 5.00056632e-002 5.39105050e-002
      8.37924331e-002 2.59473264e-001 2.59473264e-001 2.59473264e-001
      2.64217824e-001 1.97020307e-001 6.10084049e-002 3.58166620e-002
      8.12471509e-002 3.38552296e-002 3.99840549e-002 9.34603959e-002
      2.44430333e-001 2.43622050e-001 9.35905874e-002 4.82367575e-002
      4.59508188e-002 8.89973342e-002 3.60494740e-002 1.08321264e-001
      2.64217824e-001 2.64217824e-001 2.64217824e-001 1.60511911e-001
      8.66474882e-002 7.40045980e-002 1.15308076e-001 5.55708744e-002
      8.01753998e-002 1.79100111e-001 2.64217824e-001 2.64217824e-001
      1.62507430e-001 1.15351915e-001 1.04661524e-001 1.58953622e-001
      8.42441097e-002 2.16909662e-001 2.64217824e-001 2.64217824e-001
      3.61414440e-002 6.12458633e-003 3.20491660e-003 6.97000232e-003
      2.84086820e-002 2.28962936e-002 2.98616856e-001 3.24212790e-001
      1.87880725e-001 2.74285860e-002 1.15947303e-004 0. 1.31916418e-003
      4.45988812e-002 2.01310098e-001 3.24212790e-001 3.24212790e-001
      6.05442300e-002 2.98963971e-002 4.51576859e-002 9.27487388e-002
      2.96636168e-002 7.39350244e-002 7.39087537e-002 3.24212790e-001
      3.24212790e-001 7.64269009e-002 1.46684460e-002 2.24632360e-002
      7.20798448e-002 2.68065166e-002 1.65454194e-001 3.24212790e-001
      3.24212790e-001 1.52215943e-001 2.14372259e-002 5.17359525e-002
      9.28534716e-002 2.46759370e-001 2.46759370e-001 1.31881073e-001
      6.38493448e-002 1.60317346e-001 8.64390433e-002 4.95737121e-002
      1.83448806e-001 1.02737397e-001 1.69556692e-001 1.19374871e-001
      6.69090524e-002 4.77853566e-002 2.46759370e-001 2.46759370e-001
      2.09569111e-001 3.01340930e-002 3.47272567e-002 1.99235320e-001
      2.46759370e-001 2.46759370e-001 2.46759370e-001 2.29043320e-001
      6.80133253e-002 4.55645248e-002 1.81717247e-001 5.57353720e-002
      1.29842892e-001 1.43060893e-001 1.03875197e-001 1.43270656e-001
      2.46759370e-001 2.46759370e-001 1.93635792e-001 2.36970052e-001
      9.79128331e-002 8.59033614e-002 7.48782903e-002 5.93347475e-002
      4.28413302e-002 2.26588294e-001 2.19655305e-001 2.36970052e-001
      1.55179143e-001 2.36970052e-001 2.30180845e-001 7.32047260e-002
      8.98366868e-002 4.70019579e-002 1.47975609e-001 1.32090867e-001
      1.33797035e-001 2.33694091e-001 7.71717280e-002 6.63341805e-002
      8.03902447e-002 9.86484960e-002 1.54933289e-001 2.36970052e-001
      2.36970052e-001 1.68222025e-001 1.42565697e-001 2.36970052e-001
      2.28094861e-001 1.14386663e-001 9.36178863e-002 1.13777153e-001
      2.36970052e-001 2.36970052e-001 1.74104959e-001 2.74679810e-002
      2.52974898e-001 2.52974898e-001 5.39400540e-002 1.06047794e-001
      6.29016012e-002 2.04263866e-001 1.38602674e-001 3.32719274e-002
      9.67240427e-003 1.15084313e-001 2.52974898e-001 8.46300721e-002
      2.52974898e-001 2.52974898e-001 2.41439074e-001 5.38470224e-002
      1.13506475e-002 1.03487507e-001 2.52974898e-001 2.52974898e-001
      6.69498518e-002 5.64918257e-002 5.67137524e-002 1.53523266e-001
      1.99519843e-001 2.52974898e-001 5.92253581e-002 1.04733542e-001
      1.64725006e-001 2.52974898e-001 2.52974898e-001 1.87127590e-001
      6.56381473e-002 7.18357861e-002 1.53964981e-001 3.96598913e-002
      2.28862674e-003 9.33740474e-003 6.10768199e-002 1.18958727e-001
      2.82042891e-001 2.82042891e-001 1.97329044e-001 1.41174600e-001
      2.82042891e-001 1.99843179e-002 1.34634543e-002 3.33113223e-002
      4.55471724e-002 9.92614925e-002 2.82042891e-001 2.22772256e-001
      2.82042891e-001 6.76641241e-002 3.78161483e-003 1.18896842e-003
      5.09706326e-004 3.73817682e-002 1.80474281e-001 2.82042891e-001
      2.82042891e-001 2.06129029e-001 2.82042891e-001 3.23104672e-002
      4.27016430e-003 7.25085288e-003 2.47708540e-002 1.57866925e-002
      7.69164562e-002 2.25035474e-001 2.82042891e-001 2.83524305e-001
      5.11958711e-002 1.62351541e-002 3.14471796e-002 5.67033254e-002
      8.61084536e-002 1.84218377e-001 1.05792589e-001 2.83524305e-001
      2.83524305e-001 8.32820237e-002 3.94730791e-002 5.49308732e-002
      4.80654389e-002 7.49043003e-002 2.34579474e-001 2.83524305e-001
      2.83524305e-001 2.83524305e-001 5.17011136e-002 1.03812050e-002
      1.60234720e-002 2.00541597e-002 4.84168064e-003 4.45679622e-003
      4.42767739e-002 2.83524305e-001 2.83524305e-001 1.00365296e-001
      4.55416329e-002 2.25327164e-002 4.89687510e-002 3.51232812e-002
      1.93609476e-001 2.83524305e-001 2.83524305e-001 1.16733164e-001
      4.76229116e-002 2.82076206e-002 6.93313330e-002 1.13331750e-001
      8.84952024e-002 1.72506914e-001 2.56125867e-001 2.56125867e-001
      8.43361691e-002 5.48040196e-002 1.25213429e-001 2.56125867e-001
      2.56125867e-001 1.60657018e-001 7.98645839e-002 9.27727446e-002
      1.55695304e-001 9.47240219e-002 1.05977021e-001 7.57356882e-002
      7.32060969e-002 1.73926085e-001 1.59467995e-001 2.56125867e-001
      2.56125867e-001 1.63098961e-001 1.09093934e-001 1.78731129e-001
      2.56125867e-001 2.56125867e-001 2.56125867e-001 1.81477457e-001
      1.83687806e-001 1.05792873e-001 9.47602391e-002</_>
    <_>
      1.10056266e-001 1.72571436e-001 1.97005048e-001 9.55608264e-002
      8.83927271e-002 3.06838285e-002 2.04458833e-002 4.08754125e-002
      7.05256537e-002 2.61054009e-001 2.74478257e-001 2.74478257e-001
      7.82066956e-002 3.81091423e-002 1.33327860e-002 4.12879400e-002
      3.75006460e-002 9.42330286e-002 5.08949868e-002 1.27332538e-001
      2.62830168e-001 2.74478257e-001 2.74478257e-001 8.57075676e-002
      6.10194579e-002 6.85379729e-002 4.62429337e-002 2.12847307e-001
      2.74478257e-001 2.74478257e-001 2.74478257e-001 2.30808064e-001
      4.99150120e-002 1.92928910e-001 1.27096310e-001 1.26954764e-001
      2.49980494e-001 2.49980494e-001 1.43351942e-001 3.24996524e-002
      2.44376678e-002 7.58588454e-003 2.45626643e-002 4.52133380e-002
      2.15335608e-001 2.49980494e-001 1.19584501e-001 1.65210366e-002
      6.27719611e-002 4.72969487e-002 3.52863111e-002 2.49980494e-001
      2.49980494e-001 2.49980494e-001 2.49980494e-001 2.42847189e-001
      1.33973077e-001 1.25851005e-001 9.52089727e-002 2.44936608e-002
      1.21820033e-001 1.09327495e-001 2.02834949e-001 1.93073288e-001
      1.59676984e-001 1.22212805e-001 1.13846809e-001 1.26329780e-001
      4.83103320e-002 2.49980494e-001 2.49980494e-001 2.49980494e-001
      7.20242113e-002 3.35665718e-002 9.28925723e-003 4.17824127e-002
      4.81732115e-002 7.68871456e-002 2.94377506e-001 2.94377506e-001
      1.97908804e-001 8.29214901e-002 3.33504304e-002 1.31735327e-002
      2.55027246e-002 8.92802700e-002 8.97511393e-002 2.94377506e-001
      2.32981473e-001 1.11749999e-001 3.62771638e-002 6.86675385e-002
      1.05457731e-001 7.20612407e-002 1.74510539e-001 2.94377506e-001
      2.94377506e-001 2.94377506e-001 9.71274897e-002 2.52858363e-002
      1.61610357e-002 2.68962160e-002 9.71141383e-002 2.38811836e-001
      2.94377506e-001 2.94377506e-001 1.57425135e-001 3.92219312e-002
      2.94216424e-002 1.98328495e-002 9.91569012e-002 2.67778218e-001
      2.67778218e-001 2.08534077e-001 6.65556416e-002 3.02614123e-002
      3.11574377e-002 1.03750400e-001 7.12499395e-002 1.05551198e-001
      2.67778218e-001 2.67778218e-001 2.10878626e-001 2.36246616e-001
      1.13613687e-001 9.78129730e-002 3.57972421e-002 3.36003304e-002
      2.20251530e-002 7.97909498e-002 2.67778218e-001 2.67778218e-001
      2.67778218e-001 4.73449193e-002 4.58356999e-002 7.98765495e-002
      2.51968484e-002 1.33751342e-002 6.92773089e-002 2.04150483e-001
      2.67778218e-001 2.67778218e-001 2.21065328e-001 1.58742487e-001
      2.38436088e-001 1.37614056e-001 7.99013004e-002 1.45447344e-001
      1.18336879e-001 8.75251964e-002 2.38436088e-001 1.84931532e-001
      2.01698720e-001 2.29688898e-001 1.69504464e-001 2.26708174e-001
      9.28582549e-002 7.29307756e-002 7.95663670e-002 2.05327541e-001
      1.85883030e-001 1.87911287e-001 2.38436088e-001 4.10370827e-002
      5.04656285e-002 5.00280112e-002 4.81137522e-002 1.05618998e-001
      2.38436088e-001 2.38436088e-001 2.38436088e-001 2.38436088e-001
      1.27139553e-001 1.27654940e-001 4.29293551e-002 2.07002405e-002
      1.15440227e-001 1.18472070e-001 2.28695780e-001 2.38436088e-001
      1.01689167e-001 9.28898826e-002 1.74859941e-001 1.36106804e-001
      1.86575472e-001 2.45896846e-001 1.79911390e-001 1.11577801e-001
      9.22896788e-002 3.49547938e-002 1.04807355e-002 7.76190087e-002
      2.45896846e-001 2.45896846e-001 2.45896846e-001 1.73167020e-001
      3.25623862e-002 2.06375290e-002 2.26811022e-001 1.46306530e-001
      2.45896846e-001 1.88300937e-001 1.16063491e-001 2.40097180e-001
      1.04253225e-001 1.85686469e-001 1.90808907e-001 9.34647247e-002
      5.82127981e-002 2.45896846e-001 2.45896846e-001 2.45896846e-001
      1.94660366e-001 6.09502457e-002 3.57920043e-002 5.08170575e-002
      1.11419469e-001 8.73882249e-002 2.30425727e-002 1.02737404e-001
      1.42428145e-001 2.82034069e-001 2.82034069e-001 1.07249215e-001
      1.26408070e-001 1.05710573e-001 4.56650145e-002 1.32508818e-002
      4.64750379e-002 7.40791634e-002 2.74905503e-001 2.82034069e-001
      2.82034069e-001 2.82034069e-001 1.73476562e-001 7.54917413e-002
      3.41253504e-002 1.16543926e-001 1.63696676e-001 1.17037356e-001
      1.47892758e-001 8.75758752e-002 1.68203890e-001 1.62389547e-001
      5.39792739e-002 1.97162032e-002 8.48295167e-002 1.27390638e-001
      6.81357235e-002 2.41267458e-001 2.82034069e-001 2.82034069e-001
      2.62045622e-001 4.00065184e-002 2.01011598e-002 1.50758969e-002
      1.16721876e-002 3.65771726e-002 2.16351628e-001 2.62045622e-001
      2.62045622e-001 2.62045622e-001 2.62045622e-001 1.33379549e-001
      2.91940570e-002 3.00301220e-002 7.13644177e-002 2.88618226e-002
      1.31201252e-001 2.62045622e-001 2.02518448e-001 6.51140362e-002
      1.55466832e-002 2.16801558e-002 4.34517153e-002 3.40221152e-002
      9.60155576e-002 2.62045622e-001 2.62045622e-001 2.62045622e-001
      2.62045622e-001 1.30125403e-001 7.58323818e-002 2.12141722e-001
      1.15195282e-001 3.53202075e-002 9.16605517e-002 2.62045622e-001
      2.53579110e-001 2.53579110e-001 2.53579110e-001 1.24731869e-001
      7.35345110e-002 1.59835428e-001 6.86697960e-002 1.09081127e-001
      1.13897227e-001 1.45267650e-001 2.16038197e-001 2.53579110e-001
      2.22346157e-001 8.18583220e-002 1.29070371e-001 4.96827178e-002
      3.67867351e-002 8.17694664e-002 2.53579110e-001 2.53579110e-001
      2.53579110e-001 1.12862766e-001 2.53579110e-001 1.67482555e-001
      5.91051765e-002 6.67518452e-002 8.17959234e-002 2.53579110e-001
      2.53579110e-001 1.73091799e-001 4.50753942e-002 4.90191504e-002
      6.92721382e-002 4.36834395e-002 9.53213274e-002 1.47122860e-001</_>
    <_>
      1.05608933e-001 3.09410721e-001 2.10057959e-001 5.95296957e-002
      1.55804958e-002 1.62574165e-002 1.18936673e-002 1.58691425e-002
      5.94561175e-002 3.09410721e-001 3.09410721e-001 1.63611680e-001
      2.95381062e-002 7.75876502e-003 4.48003365e-003 5.23980102e-003
      5.83502371e-003 9.99054462e-002 8.43312591e-002 3.09410721e-001
      2.99933434e-001 3.09410721e-001 1.06228307e-001 3.06941606e-002
      6.40554503e-002 1.00346945e-001 6.63870201e-002 3.09410721e-001
      3.09410721e-001 1.95484370e-001 1.22726083e-001 5.40846400e-002
      2.71696467e-002 5.85122928e-002 1.48617133e-001 1.24154948e-001
      2.79689550e-001 2.50190377e-001 3.90091911e-002 1.67869963e-002
      2.21679602e-002 4.44758683e-003 1.16938995e-002 5.47138155e-002
      2.79689550e-001 2.65062809e-001 4.65369821e-002 4.18771654e-002
      2.79994104e-002 7.35334232e-002 3.23801562e-002 2.38824785e-001
      2.79689550e-001 2.79689550e-001 2.79689550e-001 2.09469542e-001
      4.97480743e-002 6.15014657e-002 8.00398141e-002 2.17013340e-002
      2.83975508e-002 1.14989921e-001 2.52561361e-001 1.17263131e-001
      6.15567528e-002 4.32737917e-002 4.21838574e-002 6.87254965e-002
      6.44724667e-002 2.79689550e-001 2.79689550e-001 2.79689550e-001
      4.50540036e-002 1.85593981e-002 1.59386229e-002 2.02989839e-002
      4.96671982e-002 5.35000600e-002 3.24867845e-001 3.24867845e-001
      1.84078544e-001 6.74943998e-002 5.80051467e-002 3.11780088e-002
      2.40352005e-002 2.51744296e-002 6.61313981e-002 1.96420997e-001
      2.78018743e-001 9.14988667e-002 1.11658592e-002 1.65058039e-002
      2.16335002e-002 2.43848953e-002 3.39669771e-002 2.78861672e-001
      3.24867845e-001 3.24867845e-001 1.28589675e-001 4.18196954e-002
      3.50415632e-002 3.49017195e-002 5.15484773e-002 8.89933705e-002
      3.24867845e-001 3.24867845e-001 2.64245927e-001 3.20887007e-002
      6.74842224e-002 1.04431957e-001 1.46203622e-001 2.49336407e-001
      2.49336407e-001 4.53416780e-002 6.89679980e-002 8.41636807e-002
      7.84773827e-002 2.49336407e-001 1.98528901e-001 9.67651308e-002
      1.41532972e-001 1.36293560e-001 6.26785234e-002 8.98993909e-002
      1.61711529e-001 1.80868775e-001 2.60096136e-002 2.74593551e-002
      6.93761483e-002 2.49336407e-001 2.49336407e-001 2.49336407e-001
      1.33865282e-001 5.46038039e-002 3.64475474e-002 2.14377150e-001
      1.23400845e-001 9.23179984e-002 1.38303176e-001 2.19534785e-001
      2.49336407e-001 2.49336407e-001 2.49336407e-001 2.39449039e-001
      2.27992997e-001 2.13554993e-001 9.82097760e-002 6.84138089e-002
      1.09680794e-001 6.96051866e-002 7.85916001e-002 1.08580150e-001
      1.77729353e-001 8.67875814e-002 1.80355594e-001 2.23651305e-001
      9.00894180e-002 1.23920470e-001 1.45046875e-001 2.27992997e-001
      2.27992997e-001 1.23113431e-001 2.27992997e-001 1.56592563e-001
      1.37028530e-001 4.28547524e-002 9.33256969e-002 1.54297024e-001
      2.27992997e-001 2.27992997e-001 2.27992997e-001 2.06736237e-001
      1.76651165e-001 2.27992997e-001 6.04890212e-002 1.13402002e-001
      1.65453926e-001 1.37676507e-001 1.98342338e-001 2.27992997e-001
      1.24433544e-002 7.23281205e-002 1.17753655e-001 7.75233358e-002
      1.27715483e-001 2.93351054e-001 2.93351054e-001 1.86346054e-001
      2.65167765e-002 1.17886644e-002 8.45703669e-003 1.14010787e-002
      6.92925379e-002 2.31871024e-001 2.93351054e-001 2.93351054e-001
      4.19758782e-002 4.40403959e-003 7.32782260e-002 1.03961118e-001
      1.54538035e-001 1.70676544e-001 2.09172726e-001 2.56437212e-001
      8.25984105e-002 1.19764559e-001 2.05815479e-001 1.21612130e-002
      3.51584814e-002 7.19057098e-002 2.93351054e-001 2.93351054e-001
      2.93351054e-001 8.48812982e-002 1.92086250e-002 2.52682567e-002
      1.03383753e-002 5.10895299e-003 8.70583113e-003 3.76075879e-002
      1.83567256e-001 2.71886230e-001 2.71886230e-001 1.14850335e-001
      2.57084277e-002 1.97238743e-001 3.04996818e-002 2.46482734e-002
      2.40869578e-002 7.03106895e-002 2.26330161e-001 2.71886230e-001
      2.71886230e-001 2.71886230e-001 1.80330183e-002 3.38733126e-003
      1.31989066e-002 1.60963796e-002 5.28311431e-002 2.71886230e-001
      2.71886230e-001 2.71886230e-001 4.23119627e-002 1.58288032e-001
      1.17086368e-002 6.25642901e-003 6.39306905e-004 2.30070446e-002
      8.16433057e-002 2.71886230e-001 2.71886230e-001 2.71886230e-001
      2.85197377e-001 5.85405268e-002 5.82236946e-002 1.83482822e-002
      3.23924571e-002 7.47316256e-002 1.21506065e-001 1.90443933e-001
      2.85197377e-001 2.85197377e-001 7.99036548e-002 9.21250805e-002
      3.36197168e-002 5.06389663e-002 1.14028916e-001 1.06418684e-001
      2.59740770e-001 2.85197377e-001 2.85197377e-001 7.75836110e-002
      1.59238856e-002 2.76480848e-003 2.30824724e-002 1.25463847e-002
      3.46049368e-002 1.91605240e-001 2.85197377e-001 2.85197377e-001
      2.85197377e-001 1.51648670e-001 4.29751463e-002 7.02513084e-002
      3.15654799e-002 4.45001088e-002 1.10887803e-001 2.85197377e-001
      1.08023390e-001 1.01781838e-001 1.45343333e-001 1.94462374e-001
      1.16415307e-001 1.83282807e-001 1.17712416e-001 2.25118011e-001
      2.85449713e-001 3.56490612e-002 7.62657821e-002 2.71732181e-001
      2.88766354e-001 2.57758498e-001 1.05595291e-001 5.19575961e-002
      3.84364240e-002 4.32074964e-002 1.68685392e-001 2.88766354e-001
      2.88766354e-001 1.31564096e-001 1.21601447e-001 7.19907209e-002
      7.70490542e-002 1.14042655e-001 1.02615550e-001 7.44925514e-002
      1.55674115e-001 2.88766354e-001 2.88766354e-001 9.08297375e-002
      4.77533229e-002 6.25961721e-002 2.60701310e-002 3.71150076e-002</_>
    <_>
      1.79772768e-002 1.68603286e-001 3.10537755e-001 1.13577828e-001
      1.52921066e-001 4.84789610e-002 3.93258557e-002 4.23397757e-002
      3.24335098e-002 1.49300531e-001 3.10537755e-001 3.10537755e-001
      8.83074552e-002 6.89442679e-002 3.25510949e-002 2.14101840e-002
      4.44813520e-002 4.96335216e-002 7.19489828e-002 1.09096609e-001
      3.10537755e-001 3.10537755e-001 1.24764979e-001 5.69000803e-002
      4.20386940e-002 4.99231070e-002 6.13498837e-002 2.46216178e-001
      3.10537755e-001 3.10537755e-001 1.67310908e-001 1.26290634e-001
      1.08572699e-001 1.08292826e-001 1.15038253e-001 1.55121535e-001
      2.82316059e-001 2.82316059e-001 1.88344672e-001 3.00630201e-002
      2.10068692e-002 1.33879427e-002 4.51425603e-003 3.11151147e-002
      2.29693115e-001 2.82316059e-001 1.41929314e-001 4.30646986e-002
      1.57924183e-002 2.77696140e-002 6.45194529e-003 4.23211828e-002
      1.95666641e-001 2.82316059e-001 2.82316059e-001 2.82316059e-001
      1.45170659e-001 4.58509214e-002 8.02546665e-002 5.59351332e-002
      3.83336246e-002 5.47901578e-002 1.90356374e-001 2.82316059e-001
      1.27001718e-001 6.25636801e-002 6.90792426e-002 1.47005290e-001
      9.86503139e-002 1.30252257e-001 2.43105128e-001 2.82316059e-001
      1.31668732e-001 4.22037691e-002 2.19858214e-002 2.33415253e-002
      3.07327155e-002 1.49042271e-002 2.24779859e-001 3.11241448e-001
      3.11241448e-001 3.42732742e-002 2.22717896e-002 1.64661780e-002
      6.20900877e-002 7.64468387e-002 6.80703968e-002 3.11241448e-001
      3.11241448e-001 8.30569714e-002 6.85209036e-002 2.97105666e-002
      3.18995751e-002 5.20277433e-002 6.44228086e-002 1.01767771e-001
      3.11241448e-001 3.11241448e-001 2.15604991e-001 1.71186086e-002
      7.30821909e-003 1.55311283e-002 2.69655380e-002 5.25665991e-002
      2.24777192e-001 3.11241448e-001 3.11241448e-001 4.48403060e-002
      5.87831661e-002 2.66111065e-002 2.20340833e-001 2.65704244e-001
      2.53368139e-001 6.29647076e-002 2.96205934e-002 2.87576038e-002
      4.39979210e-002 2.22570807e-001 7.28413016e-002 1.88833162e-001
      2.65704244e-001 1.80338562e-001 1.00668766e-001 9.09773633e-002
      1.01757243e-001 1.59970224e-001 1.47083588e-002 5.52564953e-003
      5.00641651e-002 2.65704244e-001 2.65704244e-001 2.65704244e-001
      8.06879550e-002 1.04443487e-002 1.22670420e-002 9.74985287e-002
      4.34554964e-002 1.22532472e-001 2.65704244e-001 2.65704244e-001
      2.65704244e-001 2.65704244e-001 1.20643236e-001 9.78570208e-002
      2.37306312e-001 1.10230997e-001 1.14935368e-001 8.84322226e-002
      9.29778889e-002 6.78117424e-002 7.94800371e-002 1.02976456e-001
      2.37306312e-001 2.37306312e-001 1.39529973e-001 1.18523978e-001
      7.50709549e-002 1.45623446e-001 1.31012440e-001 1.50834635e-001
      1.53365821e-001 1.94816768e-001 2.37306312e-001 7.49993473e-002
      1.23291567e-001 1.16438881e-001 1.21946037e-001 1.94100797e-001
      2.37306312e-001 2.37306312e-001 2.37306312e-001 2.37306312e-001
      1.43110469e-001 1.84906960e-001 4.24884036e-002 1.12081759e-001
      1.33878678e-001 1.88412264e-001 2.37306312e-001 2.37306312e-001
      5.41242436e-002 1.43565908e-001 1.92983091e-001 1.07823431e-001
      1.28568217e-001 1.61384776e-001 2.48899803e-001 2.06357300e-001
      9.04600546e-002 1.11576766e-002 5.48474193e-002 1.01170488e-001
      7.57389367e-002 1.99676827e-001 2.48899803e-001 2.48899803e-001
      1.31005973e-001 2.33355798e-002 1.04797013e-001 1.95321739e-001
      2.46780410e-001 6.36587515e-002 1.29741922e-001 1.24282286e-001
      9.36788917e-002 2.40526244e-001 2.48899803e-001 2.98133381e-002
      8.47555846e-002 1.73722535e-001 2.48899803e-001 2.48899803e-001
      2.48899803e-001 1.11608878e-001 9.84881446e-002 2.19134554e-001
      6.55680057e-003 2.81462516e-003 1.38193360e-002 4.90315855e-002
      3.04588646e-001 3.04588646e-001 3.04588646e-001 3.76314521e-002
      7.22844806e-003 3.60064097e-002 5.64020406e-003 2.06989925e-002
      5.28899394e-002 1.66172981e-001 3.04588646e-001 3.04588646e-001
      2.60748744e-001 1.27728432e-001 1.21982731e-002 5.03781531e-003
      1.39394626e-002 2.67697666e-002 6.25604689e-002 2.63453335e-001
      3.04588646e-001 1.50434703e-001 1.49232615e-002 2.18912587e-002
      2.73660244e-003 1.48375658e-003 3.40678194e-003 3.75933535e-002
      1.42072394e-001 3.04588646e-001 3.04588646e-001 1.21728458e-001
      2.74584711e-001 1.27569679e-002 4.25482802e-002 3.40292342e-002
      4.88548651e-002 1.26443207e-001 2.87027270e-001 2.87027270e-001
      2.87027270e-001 2.87027270e-001 4.82360087e-002 1.04436807e-001
      2.66466159e-002 3.48720923e-002 6.41489327e-002 8.50113481e-002
      1.67347148e-001 2.87027270e-001 1.75120011e-001 9.99829266e-003
      6.49929652e-003 2.76355469e-003 4.07983772e-002 2.25713011e-002
      2.07410604e-001 2.87027270e-001 2.87027270e-001 2.87027270e-001
      1.30492494e-001 2.67003272e-002 1.00003826e-002 2.61588842e-002
      1.45996250e-002 1.81179158e-002 9.58314463e-002 2.87027270e-001
      2.32701793e-001 6.14511669e-002 8.90500396e-002 3.28652225e-002
      5.62936105e-002 1.04801528e-001 8.36321265e-002 2.61261880e-001
      2.61261880e-001 5.19696176e-002 9.50462744e-002 2.31188789e-001
      2.61261880e-001 1.40920743e-001 1.82948902e-001 1.09190330e-001
      1.61972299e-001 2.61261880e-001 2.61261880e-001 2.61261880e-001
      1.77839652e-001 4.07044254e-002 5.25619388e-002 5.87568954e-002
      5.56289293e-002 1.24146543e-001 2.05420941e-001 7.25198314e-002
      2.61261880e-001 2.61261880e-001 2.33698174e-001 1.10512577e-001
      1.02774076e-001 6.71551749e-002 9.68708992e-002 9.91339758e-002</_>
    <_>
      1.53557375e-001 2.54073292e-001 2.54073292e-001 1.23448305e-001
      1.23874985e-001 2.97282748e-002 5.34574911e-002 9.86048505e-002
      1.43476948e-001 2.54073292e-001 2.54073292e-001 1.36672333e-001
      7.05182180e-002 1.10162728e-001 5.92419803e-002 1.38951754e-002
      7.27147758e-002 2.54073292e-001 1.99096933e-001 1.04971819e-001
      1.82940334e-001 2.54073292e-001 2.54073292e-001 8.75902548e-002
      9.51545537e-002 1.33374572e-001 2.15663090e-001 2.54073292e-001
      1.57110915e-001 1.05390720e-001 1.37573078e-001 1.30694225e-001
      8.39368924e-002 1.31350115e-001 1.49133921e-001 2.54073292e-001
      2.52076298e-001 8.74271989e-002 4.53556627e-002 6.44484907e-002
      1.15161002e-001 8.86677057e-002 1.38236821e-001 2.65849769e-001
      2.65849769e-001 4.28379327e-002 1.94152184e-002 3.55049893e-002
      3.29699293e-002 1.02849759e-001 1.15694597e-001 2.65849769e-001
      2.65849769e-001 1.39261723e-001 2.55182534e-001 1.36853397e-001
      1.75191954e-001 9.19242874e-002 1.27837032e-001 1.17084876e-001
      1.83021232e-001 1.69120818e-001 1.82940781e-001 4.08888124e-002
      1.18952796e-001 2.65849769e-001 1.36124685e-001 1.96513355e-001
      1.99990705e-001 2.65849769e-001 1.97578177e-001 8.44441727e-002
      6.41890895e-003 1.31182484e-002 1.73712932e-002 3.42358053e-002
      8.25737938e-002 2.19744816e-001 2.98784047e-001 2.98784047e-001
      1.67429317e-002 5.81100956e-002 3.66151296e-002 2.78897118e-002
      8.16218928e-002 1.03361502e-001 1.81665048e-001 2.98784047e-001
      1.42494604e-001 4.30155471e-002 1.03860616e-003 4.19497564e-002
      9.83350128e-002 1.26705810e-001 2.98784047e-001 2.98784047e-001
      2.98784047e-001 8.46009329e-002 2.53317095e-002 1.25980573e-002
      3.10809501e-002 3.16708125e-002 1.62678525e-001 2.98784047e-001
      2.98784047e-001 2.85236806e-001 4.77955826e-002 1.57055035e-002
      7.12208450e-002 4.92075719e-002 5.43351918e-002 2.31384546e-001
      2.50503272e-001 2.50503272e-001 2.25886241e-001 1.41479060e-001
      1.06665723e-001 2.50503272e-001 8.75441208e-002 6.53495118e-002
      1.07593477e-001 7.99968541e-002 1.05796725e-001 2.50503272e-001
      1.97752357e-001 2.50503272e-001 3.24052349e-002 2.44080112e-003
      2.74851499e-003 1.84535123e-002 7.29463696e-002 2.50503272e-001
      2.50503272e-001 2.50503272e-001 1.33582860e-001 2.50503272e-001
      2.73611546e-002 1.79982223e-002 2.69202255e-002 1.78429484e-002
      6.10709451e-002 2.24048883e-001 2.50503272e-001 2.50503272e-001
      2.49908566e-001 1.04161896e-001 1.54990062e-001 1.12811826e-001
      4.94214706e-002 6.49987236e-002 1.81036532e-001 1.76113695e-001
      2.16611072e-001 1.24340981e-001 9.56223011e-002 2.34425053e-001
      1.63794786e-001 1.07251532e-001 1.75336540e-001 8.84829015e-002
      2.23363191e-001 2.49908566e-001 2.49908566e-001 8.97559598e-002
      5.69274649e-002 5.86686917e-002 1.24119576e-002 2.57997718e-002
      8.17609057e-002 1.46645948e-001 2.49908566e-001 2.49908566e-001
      1.41828135e-001 2.15888709e-001 1.52009800e-001 1.11584716e-001
      1.75284460e-001 1.19955771e-001 2.45565668e-001 2.49908566e-001
      2.77348235e-002 3.40239145e-002 1.31012410e-001 2.81697243e-001
      2.81697243e-001 2.78165549e-001 5.34863807e-002 6.76584542e-002
      1.21520072e-001 2.00872831e-002 2.05385201e-002 7.73814172e-002
      2.81697243e-001 2.81697243e-001 2.44630516e-001 5.70204742e-002
      2.36331392e-003 8.68585147e-003 8.21700990e-002 1.07707493e-001
      2.81697243e-001 2.81697243e-001 1.75470680e-001 1.65788472e-001
      6.83005825e-002 7.86190629e-002 1.84401244e-001 2.76229978e-002
      4.42277119e-002 2.81697243e-001 2.81697243e-001 2.08908916e-001
      6.33395016e-002 2.95393970e-002 1.28249126e-002 2.84026600e-002
      2.17385571e-002 3.16303177e-003 8.49332660e-003 4.45048558e-003
      4.41549253e-003 8.57936814e-002 3.20403397e-001 3.20403397e-001
      1.30807713e-001 2.12227911e-001 2.04600431e-002 4.51718410e-003
      8.62087705e-004 1.14065580e-004 8.38920753e-003 1.65353745e-001
      3.20403397e-001 3.20403397e-001 3.72698754e-002 1.36778541e-002
      1.78936236e-002 1.01844110e-002 3.72199994e-003 1.81929376e-002
      2.89401770e-001 3.20403397e-001 2.03980625e-001 2.03236699e-001
      3.35507207e-002 1.07845515e-002 5.91591094e-003 6.34412328e-003
      4.58252197e-003 9.94103625e-002 3.20403397e-001 3.20403397e-001
      2.69924313e-001 1.89106554e-001 4.70347144e-002 9.80117545e-003
      6.84898719e-003 3.13920435e-003 1.40324300e-002 7.59902671e-002
      2.69924313e-001 2.27968335e-001 2.69924313e-001 2.69924313e-001
      8.29796270e-002 8.58961493e-002 4.17902134e-002 5.18217683e-002
      5.85573614e-002 1.57660201e-001 2.69924313e-001 2.69924313e-001
      6.32526055e-002 3.72270830e-002 8.09062198e-002 1.90494396e-002
      1.96483321e-002 9.27093104e-002 2.69924313e-001 2.38422900e-001
      2.69924313e-001 2.69924313e-001 1.00153819e-001 2.37645373e-001
      1.00145482e-001 5.21758683e-002 4.72935662e-002 1.97243944e-001
      1.03180557e-001 3.19258779e-001 3.19258779e-001 3.19258779e-001
      1.49504095e-001 7.22006708e-002 5.74062169e-002 3.68784890e-002
      9.05333012e-002 5.40660731e-002 1.08217932e-001 3.19258779e-001
      3.19258779e-001 1.25763208e-001 3.27184089e-002 2.50727292e-002
      4.41990793e-002 7.26518333e-002 1.19992539e-001 3.19258779e-001
      3.19258779e-001 1.34098366e-001 2.23062351e-001 1.40971467e-001
      5.01338691e-002 6.24509975e-002 9.68192294e-002 7.90362433e-002
      9.95661840e-002 1.93985909e-001 7.21897483e-002 7.24076182e-002
      2.85493862e-002 2.62018424e-002 5.88720627e-002 7.66328052e-002</_>
    <_>
      2.04440296e-001 1.00819767e-001 6.20983392e-002 3.69006954e-002
      4.65015583e-002 3.88892293e-002 2.44624257e-001 2.25981057e-001
      2.13377640e-001 2.78807849e-001 1.95910767e-001 9.30177122e-002
      6.82188570e-002 5.28022386e-002 9.02067870e-002 9.85357687e-002
      1.46083981e-001 2.78807849e-001 2.78807849e-001 1.74446419e-001
      1.30749315e-001 5.41190132e-002 8.12956318e-003 1.83642861e-002
      1.57362223e-001 1.89433575e-001 2.78807849e-001 2.78807849e-001
      2.74577975e-001 8.29929635e-002 5.88447936e-002 2.80967019e-002
      4.82779928e-002 5.00077046e-002 1.30328044e-001 2.78807849e-001
      2.52108812e-001 2.29019418e-001 1.14280283e-001 6.57545030e-002
      6.73205256e-002 1.34386703e-001 1.38174802e-001 2.44937479e-001
      1.98339000e-001 2.52108812e-001 1.37052715e-001 9.63735655e-002
      5.67424744e-002 7.17488453e-002 9.02152061e-002 2.11188227e-001
      2.52108812e-001 2.10084036e-001 2.52108812e-001 2.52108812e-001
      1.47263035e-001 1.03680566e-001 5.55251651e-002 8.18368495e-002
      5.66506796e-002 8.38320032e-002 2.50298619e-001 1.81958675e-001
      2.52108812e-001 2.52108812e-001 1.38058409e-001 1.05277866e-001
      6.27814159e-002 5.50207645e-002 7.47724548e-002 1.32247552e-001
      7.83420280e-002 6.32771254e-002 1.27838060e-001 6.64900243e-002
      3.58214043e-002 4.72023599e-002 3.05871516e-001 3.05871516e-001
      1.21629171e-001 4.94174585e-002 7.91962594e-002 1.95574552e-001
      1.53863549e-001 8.39908496e-002 1.19287439e-001 2.78454781e-001
      3.05871516e-001 7.33958110e-002 5.23608625e-002 3.05871516e-001
      3.05871516e-001 1.17057562e-001 5.22345528e-002 3.09812892e-002
      7.13754296e-002 1.30420208e-001 4.85580228e-002 3.44105177e-002
      2.60695070e-001 3.05871516e-001 1.86400309e-001 7.05956444e-002
      9.14737284e-002 1.14860117e-001 1.83321714e-001 5.39258868e-002
      2.45880514e-001 2.10971937e-001 1.62494719e-001 5.58424033e-002
      1.39199225e-002 7.72291701e-003 1.05388694e-001 2.60181397e-001
      2.31875688e-001 2.43584737e-001 1.59788430e-001 8.95308256e-002
      6.23275377e-002 5.31665869e-002 5.49844168e-002 2.12831929e-001
      2.60181397e-001 2.02170193e-001 1.96789950e-001 1.62010178e-001
      1.60109773e-001 8.52008611e-002 5.38770631e-002 4.71374802e-002
      1.55719966e-001 2.60181397e-001 1.45455062e-001 2.60181397e-001
      1.23662733e-001 4.86196838e-002 2.76849419e-002 5.52618615e-002
      5.24397455e-002 2.60181397e-001 2.60181397e-001 1.73799470e-001
      2.44322419e-001 2.22650930e-001 1.49210781e-001 1.16556078e-001
      6.91846907e-002 5.84259070e-002 1.02636546e-001 1.24149010e-001
      1.74005017e-001 1.69522166e-001 2.44322419e-001 2.44322419e-001
      1.59447238e-001 1.11488022e-001 3.30326930e-002 6.58540726e-002
      8.76807123e-002 1.28764465e-001 2.30545774e-001 1.55171975e-001
      7.56829381e-002 5.49495183e-002 9.49141011e-002 6.22762442e-002
      2.44322419e-001 2.44322419e-001 1.51446119e-001 2.14464560e-001
      2.44322419e-001 1.81660056e-001 9.20003802e-002 1.58124119e-001
      5.84081076e-002 2.44322419e-001 2.44322419e-001 1.90268189e-001
      9.03049484e-002 2.88826853e-001 2.88826853e-001 1.20841078e-001
      6.43455535e-002 1.48104811e-002 3.83393429e-002 6.38227910e-002
      5.33202812e-002 6.45190850e-002 1.74623266e-001 2.88826853e-001
      6.92711025e-002 3.65513600e-002 3.73425968e-002 3.78385969e-002
      3.42874303e-002 4.36330475e-002 2.88826853e-001 2.88826853e-001
      2.12209731e-001 8.12816620e-002 8.13739225e-002 4.38037105e-002
      2.50422269e-001 2.88826853e-001 2.44177133e-001 2.88826853e-001
      1.54254764e-001 6.24437407e-002 1.17528938e-001 1.56004429e-001
      9.22019258e-002 7.84876719e-002 8.45684111e-002 2.46568292e-001
      3.53256196e-001 8.86224061e-002 3.45840752e-002 2.39086021e-002
      2.19938830e-002 3.87280993e-002 1.01737991e-001 1.03432812e-001
      1.94308311e-001 3.53256196e-001 2.18196765e-001 1.74822975e-002
      1.28212599e-002 1.68448035e-002 2.38160733e-002 1.43736586e-001
      1.99096248e-001 1.84990153e-001 3.53256196e-001 1.17509186e-001
      9.61013697e-003 1.62990030e-003 3.99696920e-003 5.87368384e-003
      4.93876934e-002 1.01137377e-001 3.53256196e-001 3.53256196e-001
      2.91724205e-001 1.22684296e-002 2.27020215e-003 6.17344165e-003
      3.35924211e-003 1.08211366e-002 5.55951111e-002 2.08618090e-001
      3.22660655e-001 1.95395112e-001 3.25692669e-002 3.14627141e-002
      4.70861346e-002 3.43177803e-002 1.84974402e-001 2.36169845e-001
      1.49022296e-001 3.22660655e-001 1.52082697e-001 3.14338021e-002
      2.99366470e-002 6.30197674e-002 3.43966633e-002 1.84927821e-001
      2.31289923e-001 1.88473135e-001 3.22660655e-001 2.81215072e-001
      1.02200881e-002 6.95624109e-003 1.22088464e-002 5.27854869e-003
      1.01592038e-002 6.13528639e-002 1.54628754e-001 3.22660655e-001
      3.11574042e-001 1.54836494e-002 5.64447045e-003 1.59037039e-002
      9.47984215e-003 5.06011508e-002 1.27386689e-001 2.17850715e-001
      2.44119748e-001 1.33219674e-001 2.01728996e-002 3.30632664e-002
      4.16903384e-002 3.90681513e-002 1.39565825e-001 2.14475110e-001
      2.10961133e-001 2.44119748e-001 8.75786394e-002 5.43385968e-002
      1.85896516e-001 2.34661609e-001 1.33341193e-001 1.43778101e-001
      1.13083109e-001 2.04559758e-001 2.44119748e-001 1.55410111e-001
      2.02746969e-002 1.43518317e-002 6.62183687e-002 5.59296496e-002
      2.22550124e-001 2.44119748e-001 2.44119748e-001 1.58703029e-001
      4.43996228e-002 4.26361822e-002 1.06401443e-001 2.17277080e-001
      1.62619263e-001 2.44119748e-001 2.44119748e-001 2.42510512e-001</_>
    <_>
      5.53864203e-002 8.79600924e-003 2.80363038e-002 1.03667416e-001
      1.17150277e-001 1.17326014e-001 2.64113426e-001 2.64113426e-001
      1.41519815e-001 2.64113426e-001 4.66498099e-002 2.06678770e-002
      4.11861390e-002 4.95575257e-002 3.05363592e-002 1.18685320e-001
      2.64113426e-001 2.64113426e-001 6.49975985e-002 5.59633449e-002
      2.60318756e-001 2.64113426e-001 2.64113426e-001 1.20305277e-001
      1.14472538e-001 1.11698933e-001 5.73345423e-002 2.64113426e-001
      1.38429046e-001 1.90794304e-001 1.72669873e-001 1.10667139e-001
      3.95053141e-002 1.13398589e-001 2.36176148e-001 2.62780964e-001
      2.85383195e-001 8.62867385e-002 2.68621221e-002 1.33186150e-002
      1.47453118e-002 1.14536034e-002 3.18779834e-002 5.31734079e-002
      2.85383195e-001 2.85383195e-001 1.23232931e-001 4.87922952e-002
      3.47707011e-002 6.06633388e-002 6.07050769e-002 1.77582726e-001
      1.26379907e-001 2.85383195e-001 2.85383195e-001 1.33095562e-001
      1.01461776e-001 4.96119037e-002 2.53087804e-002 5.95731027e-002
      1.41717985e-001 2.85383195e-001 2.04861447e-001 2.85383195e-001
      2.00815484e-001 1.45805582e-001 1.24476619e-001 3.41605358e-002
      1.00595437e-001 8.02194923e-002 2.60577053e-001 2.85383195e-001
      2.41924882e-001 7.34219402e-002 4.87990454e-002 6.64970204e-002
      1.19327314e-001 1.18407950e-001 2.23831028e-001 2.11664602e-001
      2.35478148e-001 1.00164324e-001 1.03836313e-001 1.22512273e-001
      5.99923916e-002 7.08768815e-002 1.25900254e-001 2.70577639e-001
      2.70577639e-001 1.01997420e-001 2.49571621e-001 2.12692186e-001
      2.58424431e-001 2.37315163e-001 6.59824610e-002 6.54283836e-002
      5.99904545e-002 1.36559755e-001 2.48007253e-001 9.14447755e-002
      2.70577639e-001 2.70577639e-001 1.77864686e-001 4.99291793e-002
      4.59836982e-002 7.99537599e-002 7.50924423e-002 6.89960197e-002
      2.11785436e-002 3.32187787e-002 1.54633075e-001 2.65197456e-001
      2.65197456e-001 2.46441633e-001 5.89091554e-002 1.60019398e-002
      9.30763874e-003 8.63385201e-002 9.37849507e-002 1.30298764e-001
      1.40923664e-001 1.65965199e-001 1.62312225e-001 2.12874264e-001
      2.37678930e-001 1.05673425e-001 4.80646174e-003 5.26762800e-003
      1.19182123e-002 4.56888378e-002 2.65197456e-001 2.65197456e-001
      2.65197456e-001 1.72196120e-001 1.25493426e-002 1.32732913e-001
      1.81975197e-002 1.17803421e-002 3.21395956e-002 1.10298142e-001
      2.47741759e-001 2.65197456e-001 2.65197456e-001 2.65197456e-001
      7.83491954e-002 5.39599545e-002 4.80554141e-002 3.21124159e-002
      3.10129784e-002 5.51224872e-002 2.76379585e-001 2.76379585e-001
      1.36038318e-001 1.96343407e-001 1.17440507e-001 9.39122066e-002
      9.29644480e-002 4.87027019e-002 6.35524988e-002 1.87463507e-001
      2.76379585e-001 2.02483311e-001 2.76379585e-001 2.78720893e-002
      7.53864506e-003 7.44817453e-003 2.25686841e-002 2.88795717e-002
      2.12780461e-001 2.76379585e-001 2.76379585e-001 2.76379585e-001
      1.64912507e-001 7.17829540e-002 6.53604940e-002 9.16722044e-002
      1.57936011e-002 1.72421783e-001 2.76379585e-001 2.76379585e-001
      1.30299687e-001 2.46723935e-001 2.65394896e-001 1.91052899e-001
      9.94273350e-002 4.77737300e-002 8.61474052e-002 2.16410682e-001
      1.45252630e-001 5.14965244e-002 2.76602060e-001 2.76602060e-001
      1.19649962e-001 7.17260316e-002 1.84900798e-002 5.45160882e-002
      2.06906557e-001 1.21131606e-001 1.88368276e-001 1.85167268e-001
      1.31084904e-001 1.16523877e-001 1.14667080e-001 4.08845693e-002
      1.21398211e-001 2.76602060e-001 2.28702709e-001 2.22346991e-001
      9.00916234e-002 8.20839480e-002 4.63841856e-002 4.79205474e-002
      2.34726593e-002 8.82639810e-002 2.76602060e-001 2.76602060e-001
      8.62847548e-003 2.43511912e-003 2.56279437e-003 3.65065847e-004
      4.44658399e-002 2.16314480e-001 2.90836692e-001 2.90836692e-001
      4.07894813e-002 2.61433035e-001 3.89777124e-003 6.15895260e-004 0.
      8.98697134e-003 7.03039691e-002 2.90836692e-001 2.90836692e-001
      2.90836692e-001 2.35041343e-002 2.70726066e-003 3.75651318e-004
      7.72169791e-003 4.42365855e-002 1.06494024e-001 2.90836692e-001
      2.90836692e-001 5.43147251e-002 2.30144575e-001 1.51237026e-002
      1.12307817e-003 1.19724311e-002 5.23542054e-002 8.73069316e-002
      1.77039444e-001 2.90836692e-001 2.90836692e-001 3.38940829e-001
      2.71053463e-002 2.98354565e-003 9.98442876e-004 4.57005855e-003
      6.21136045e-003 4.56399024e-002 1.75551683e-001 3.38940829e-001
      3.38940829e-001 1.54174268e-001 3.29730250e-002 2.06656847e-002
      3.05478070e-002 3.00394860e-003 2.51775458e-002 5.09616174e-002
      3.38940829e-001 3.38940829e-001 2.70369556e-002 1.47311413e-003
      4.00558114e-003 2.38434952e-002 2.49762069e-002 2.00507883e-002
      9.31808650e-002 3.38940829e-001 3.38940829e-001 5.39729111e-002
      2.16637994e-003 8.26092553e-004 1.09233931e-002 3.66879464e-003
      3.20447958e-003 1.77708026e-002 3.38940829e-001 3.15593123e-001
      1.50923893e-001 4.14088443e-002 3.17130201e-002 2.54508704e-002
      9.92692262e-003 3.54990885e-002 1.27712429e-001 3.15593123e-001
      3.04461390e-001 3.05060521e-002 8.61828867e-003 8.67520180e-003
      2.04016897e-003 8.63251463e-003 5.41836619e-002 3.15593123e-001
      3.15593123e-001 3.15593123e-001 6.55090809e-002 8.63289367e-003
      5.92759904e-003 1.43641802e-002 1.38075382e-003 7.13335397e-003
      3.15560475e-002 3.15593123e-001 2.13977352e-001 3.37426439e-002
      2.97372546e-002 2.53942218e-002 2.56034657e-002 8.64523172e-004
      6.84202835e-002 3.15593123e-001 3.15593123e-001</_>
    <_>
      6.57185316e-002 3.03415686e-001 3.03415686e-001 5.22022508e-002
      8.62247124e-003 1.14388601e-003 4.24681045e-003 4.47800476e-003
      9.64216515e-003 3.03415686e-001 3.03415686e-001 3.03415686e-001
      1.89087205e-002 1.27012366e-002 0. 3.58793139e-003 4.28808527e-003
      4.21009026e-002 5.62757552e-002 2.90106475e-001 3.03415686e-001
      2.39937365e-001 2.52608266e-002 3.95789882e-003 6.32861257e-002
      4.13291231e-002 4.92032543e-002 2.30609864e-001 3.03415686e-001
      3.03415686e-001 7.54239187e-002 4.14287075e-002 5.41371759e-004
      1.14329606e-001 1.04848459e-001 1.12110250e-001 3.06585342e-001
      3.06585342e-001 9.93689224e-002 8.23322404e-003 1.61555745e-002 0.
      4.62253764e-003 1.18988613e-002 1.87572986e-001 3.06585342e-001
      1.17760435e-001 4.64733597e-003 4.69919574e-003 7.55256834e-003
      1.78655644e-003 4.37574647e-002 1.70985833e-001 3.06585342e-001
      3.06585342e-001 2.49797702e-001 9.65913981e-002 5.22587784e-002
      7.37349093e-002 2.29842844e-003 8.21186900e-002 9.84479934e-002
      1.73423693e-001 2.94787109e-001 1.24384165e-001 8.17960426e-002
      4.85366136e-002 6.11796528e-002 8.93525127e-003 1.63236842e-001
      3.06585342e-001 2.72025436e-001 1.72046974e-001 1.87895615e-002
      2.09665450e-004 1.53271612e-004 3.58548900e-003 1.47588961e-002
      1.85130328e-001 3.03793192e-001 3.03793192e-001 6.42962977e-002
      1.68843158e-002 2.06448417e-003 1.93463592e-003 1.77807529e-002
      4.12972681e-002 3.03793192e-001 3.03793192e-001 2.66862839e-001
      5.82652800e-002 4.13412601e-002 8.37268531e-002 1.32260649e-002
      6.63700104e-002 7.57277161e-002 2.70829707e-001 3.03793192e-001
      1.54549390e-001 4.85318117e-002 1.36013255e-002 1.99730080e-002
      1.75809152e-002 1.97878420e-001 2.37656698e-001 3.03793192e-001
      2.71540672e-001 9.39074606e-002 5.72310090e-002 8.54980424e-002
      2.64654607e-001 2.64654607e-001 1.02899887e-001 1.17657958e-002
      9.19496417e-002 5.91665357e-002 6.57500997e-002 1.86787039e-001
      1.94970027e-001 2.59057641e-001 1.45060211e-001 4.84992787e-002
      4.79878392e-003 1.69814304e-001 2.00174019e-001 1.93460360e-001
      2.92643290e-002 5.03469333e-002 2.64654607e-001 2.64654607e-001
      2.64654607e-001 1.12432495e-001 8.91629234e-002 2.90085301e-002
      2.65026391e-002 1.67797104e-001 2.14826599e-001 2.64654607e-001
      1.78706110e-001 1.51892349e-001 6.80371225e-002 1.78920507e-001
      1.98816031e-001 1.96821049e-001 2.25542426e-001 1.93057582e-001
      1.06748350e-001 7.70567209e-002 6.17211312e-002 1.94718894e-002
      1.38119385e-001 1.77320465e-001 1.86568677e-001 2.09018499e-001
      2.05984667e-001 2.25542426e-001 9.12603736e-002 9.74595845e-002
      3.48212346e-002 1.43448830e-001 1.91082403e-001 1.08776294e-001
      2.25542426e-001 1.92302287e-001 1.28370360e-001 7.42343217e-002
      5.26841730e-002 4.81912754e-002 2.25542426e-001 2.25542426e-001
      2.22386852e-001 2.25542426e-001 2.22502291e-001 2.25542426e-001
      1.12542696e-001 8.95686224e-002 7.92924687e-002 2.25542426e-001
      2.25542426e-001 1.78085268e-001 5.60626909e-002 1.39272720e-001
      2.73434043e-001 7.45092928e-002 1.67776212e-001 9.89559516e-002
      1.47646174e-001 2.00778514e-001 4.81170528e-002 1.98578779e-002
      1.86518952e-002 7.12460205e-002 1.27604097e-001 2.73434043e-001
      2.73434043e-001 2.02216700e-001 6.58836141e-002 2.93430872e-002
      2.23711684e-001 1.75024375e-001 2.70953387e-001 1.92611828e-001
      1.68115601e-001 1.18100449e-001 1.06494114e-001 1.84091702e-001
      1.50936574e-001 6.16676211e-002 1.00044765e-001 2.61804730e-001
      2.73434043e-001 2.73434043e-001 1.90213874e-001 4.15684581e-002
      3.97297256e-002 3.90267558e-002 5.73410504e-002 1.79842561e-002
      5.38644679e-002 1.37709245e-001 2.59825617e-001 2.43039399e-001
      2.59825617e-001 9.87674817e-002 6.63720667e-002 2.59825617e-001
      2.24734217e-001 6.73038438e-002 5.57406992e-002 1.10004641e-001
      8.71424526e-002 2.13281289e-001 1.78214014e-001 2.59825617e-001
      8.18577260e-002 8.76109023e-003 2.19971946e-004 2.49784277e-003
      1.31207198e-001 1.75786361e-001 2.59825617e-001 2.59825617e-001
      1.47390813e-001 2.59825617e-001 1.67403623e-001 4.99601895e-003
      1.78383756e-003 2.13172846e-002 2.33761854e-002 1.74215347e-001
      2.59825617e-001 2.59825617e-001 2.71061867e-001 2.71061867e-001
      5.23413792e-002 2.76560523e-002 2.30241641e-002 2.12294981e-002
      1.11087061e-001 1.15170673e-001 2.71061867e-001 2.71061867e-001
      2.00016290e-001 9.38713104e-002 6.06580973e-002 3.57942954e-002
      4.82035577e-002 1.90117881e-001 1.93997085e-001 2.71061867e-001
      2.71061867e-001 2.71061867e-001 2.07471251e-002 2.48992001e-003
      8.09508562e-003 2.04169913e-003 6.03746111e-003 5.07991351e-002
      2.71061867e-001 2.71061867e-001 2.71061867e-001 2.32044429e-001
      1.85703654e-002 4.70904224e-002 1.82529315e-002 7.96478391e-002
      7.06218109e-002 1.77141100e-001 1.92799747e-001 1.26889750e-001
      1.20745920e-001 1.15425222e-001 5.97722791e-002 8.57971832e-002
      1.56000927e-001 1.34957522e-001 1.24824136e-001 1.45344809e-001
      2.38594577e-001 3.06363463e-001 2.72711456e-001 1.43706515e-001
      8.74307156e-002 5.97052574e-002 4.39436957e-002 5.05300798e-002
      1.59632385e-001 3.06363463e-001 3.06363463e-001 5.12224436e-002
      4.27626632e-002 3.27993929e-002 1.18589088e-001 7.56937563e-002
      5.39113656e-002 3.06363463e-001 3.06363463e-001 3.06363463e-001
      8.62380415e-002 3.06747649e-002 2.01366711e-002 6.37499765e-002
      6.94889426e-002 1.52945504e-001</_>
    <_>
      4.70960140e-002 2.78685868e-001 2.78685868e-001 8.14628080e-002
      5.41920476e-002 8.95275734e-003 1.26142902e-002 8.29776563e-003
      1.78107619e-002 2.78685868e-001 2.78685868e-001 2.29063496e-001
      3.33002694e-002 3.91294770e-002 9.67793912e-003 1.30293453e-002
      1.41973430e-002 1.47320464e-001 9.35332030e-002 2.16531262e-001
      2.78685868e-001 2.78685868e-001 1.98098913e-001 6.05609789e-002
      6.95575997e-002 5.04028052e-002 1.14085741e-001 2.78685868e-001
      2.78685868e-001 1.95874318e-001 1.33388564e-001 1.40909806e-001
      6.07900359e-002 7.32762739e-002 8.41115043e-002 2.74043977e-001
      2.77081639e-001 2.01265439e-001 4.21265773e-002 2.53656656e-002
      3.33630219e-002 3.47129256e-002 3.74178290e-002 1.45419508e-001
      2.77081639e-001 1.81618407e-001 5.52794561e-002 3.39495949e-002
      2.39723902e-002 4.82779704e-002 9.43630561e-002 2.77081639e-001
      2.77081639e-001 2.77081639e-001 2.77081639e-001 1.47646740e-001
      6.73986077e-002 8.68295059e-002 7.39474148e-002 7.65624568e-002
      6.08246699e-002 1.82200670e-001 2.77081639e-001 1.23983815e-001
      7.71318972e-002 1.12934500e-001 5.00833839e-002 1.12228051e-001
      1.36389866e-001 2.77081639e-001 2.77081639e-001 1.98945507e-001
      1.04173742e-001 7.66192600e-002 6.05757236e-002 2.99124792e-002
      5.03808111e-002 1.38980255e-001 3.11910480e-001 3.11910480e-001
      1.45881280e-001 1.22567758e-001 1.32956162e-001 9.46730077e-002
      6.71871379e-002 4.61878367e-002 1.01899162e-001 2.85152376e-001
      1.32014170e-001 1.12953499e-001 1.22817010e-002 4.84213717e-002
      6.72663972e-002 1.85586773e-002 1.55036986e-001 3.11910480e-001
      3.11910480e-001 3.11910480e-001 5.03646769e-002 2.53033824e-002
      3.15783061e-002 6.44173399e-002 7.11330771e-002 1.38800830e-001
      3.11910480e-001 3.11910480e-001 1.24751888e-001 4.04833220e-002
      6.01408333e-002 4.97661307e-002 1.69970468e-001 2.52019852e-001
      2.52019852e-001 1.44697398e-001 6.84696138e-002 3.47149670e-002
      7.06786066e-002 2.52019852e-001 1.25721499e-001 5.77419102e-002
      1.78371102e-001 1.97957814e-001 1.23026311e-001 1.68216810e-001
      1.25333935e-001 1.92261755e-001 1.46579426e-002 2.03180630e-002
      4.12745923e-002 1.37257829e-001 2.52019852e-001 2.52019852e-001
      2.52019852e-001 1.02518953e-001 2.16742437e-002 2.38664493e-001
      6.03014417e-002 2.25799512e-002 8.70115608e-002 1.67947829e-001
      2.12142542e-001 2.52019852e-001 2.52019852e-001 2.49541789e-001
      2.46044517e-001 1.31199569e-001 1.06220372e-001 9.55147818e-002
      1.12758353e-001 7.87547082e-002 1.40516341e-001 1.64606273e-001
      2.08028913e-001 9.66217443e-002 1.65474132e-001 2.46044517e-001
      7.11408779e-002 1.84437096e-001 1.41099751e-001 2.07081646e-001
      2.05090523e-001 1.32771373e-001 2.46044517e-001 1.16681702e-001
      6.44558072e-002 4.70308438e-002 1.04320899e-001 6.68942332e-002
      1.71258748e-001 2.17987999e-001 2.46044517e-001 2.46044517e-001
      1.58167437e-001 1.87175572e-001 6.80509582e-002 1.56131417e-001
      1.45128682e-001 8.08502659e-002 2.46044517e-001 2.46044517e-001
      1.63396690e-002 7.24033937e-002 1.32957026e-001 6.61426783e-002
      2.57581472e-001 2.57581472e-001 2.57581472e-001 9.95646790e-002
      4.56231497e-002 5.00501925e-003 9.29419138e-003 3.27651650e-002
      1.22546919e-001 2.57581472e-001 2.57581472e-001 2.10704312e-001
      3.20876837e-002 8.75902735e-003 9.86819938e-002 7.25768507e-002
      1.85274497e-001 2.57581472e-001 2.57581472e-001 2.57581472e-001
      6.58679456e-002 1.55374974e-001 2.06731662e-001 3.25531214e-002
      2.48032976e-002 1.99606627e-001 2.57581472e-001 2.57581472e-001
      2.57581472e-001 4.47365977e-002 1.80800129e-002 4.40184772e-002
      3.43249217e-002 2.44118851e-002 3.87258902e-002 1.91014521e-002
      8.31658393e-002 2.81282187e-001 2.81282187e-001 2.50507861e-001
      3.57424542e-002 1.82703838e-001 6.55988697e-003 1.60384004e-003
      3.85684730e-003 3.35148498e-002 9.44019184e-002 2.81282187e-001
      2.81282187e-001 2.67240316e-001 2.00915083e-001 8.15762132e-002
      4.27337289e-002 1.87247582e-002 1.47124073e-002 7.03182220e-002
      2.81282187e-001 2.81282187e-001 1.47190630e-001 1.33566946e-001
      1.91966705e-002 2.75188070e-002 2.02085283e-002 1.29920039e-002
      3.70689146e-002 2.78943628e-001 2.81282187e-001 2.81282187e-001
      2.69994587e-001 6.32341206e-002 6.95511000e-003 9.23711248e-003
      1.92378741e-002 1.68563835e-002 5.86712956e-002 1.70207962e-001
      2.69994587e-001 2.69994587e-001 2.69994587e-001 1.32098988e-001
      5.49999699e-002 5.57290278e-002 9.26626697e-002 5.80410697e-002
      1.79196000e-001 2.69994587e-001 2.69994587e-001 1.34596109e-001
      4.42123488e-002 2.04360373e-002 2.29151957e-002 2.74139997e-002
      7.29400739e-002 2.69994587e-001 2.69994587e-001 2.69994587e-001
      2.69994587e-001 2.69776314e-001 4.86859679e-002 1.00902371e-001
      5.22652492e-002 2.21804157e-002 1.00685902e-001 1.94182351e-001
      1.32007942e-001 2.46120915e-001 2.46120915e-001 2.44629398e-001
      1.38647631e-001 1.65213630e-001 6.55609071e-002 1.46905363e-001
      1.52028114e-001 1.25632420e-001 1.46913096e-001 2.46120915e-001
      2.46120915e-001 1.69940338e-001 9.60204005e-002 3.22113261e-002
      6.56603053e-002 8.88957903e-002 2.22287327e-001 2.46120915e-001
      2.46120915e-001 8.68323445e-002 1.23650424e-001 5.74999526e-002
      4.56843749e-002 1.00739978e-001 1.07599430e-001 2.29230285e-001
      2.41970763e-001 2.34697387e-001 1.07188292e-001 7.47431591e-002
      5.50863072e-002 1.06414519e-001 1.53271720e-001 2.28304088e-001</_>
    <_>
      1.11611746e-001 2.73232192e-001 2.73232192e-001 1.84163108e-001
      6.27555996e-002 4.31235954e-002 5.38189076e-002 3.46967466e-002
      3.16651836e-002 2.73232192e-001 2.73232192e-001 2.35704035e-001
      1.98003445e-002 2.81042047e-002 3.24984826e-002 4.95682694e-002
      4.41525988e-002 1.88241959e-001 8.49965364e-002 4.84626479e-002
      2.73232192e-001 2.73232192e-001 2.73232192e-001 1.05070777e-001
      1.36825338e-001 1.48416668e-001 7.67024085e-002 2.73232192e-001
      8.73502418e-002 9.32557881e-002 1.19215749e-001 1.03218243e-001
      9.58118588e-002 1.73757866e-001 1.70768812e-001 2.61039197e-001
      2.79631346e-001 1.47849113e-001 2.90645733e-002 2.88208993e-003
      4.47837673e-002 4.52567078e-002 5.46564087e-002 1.41658589e-001
      2.79631346e-001 1.45654172e-001 4.94079553e-002 1.17173605e-002
      6.35652151e-003 4.69707288e-002 5.93180098e-002 2.79631346e-001
      2.79631346e-001 2.79631346e-001 2.79631346e-001 1.04048595e-001
      6.04597442e-002 4.79669236e-002 9.06838179e-002 1.10028476e-001
      1.53710857e-001 1.22318767e-001 2.79631346e-001 1.52857423e-001
      1.24370731e-001 1.89860404e-001 6.69241399e-002 1.05880782e-001
      1.02715202e-001 2.79631346e-001 2.79631346e-001 1.93032593e-001
      2.38408186e-002 3.22226658e-002 1.29298177e-002 1.16036730e-002
      4.73396890e-002 9.03747380e-002 3.35090369e-001 3.35090369e-001
      1.01532847e-001 4.02313620e-002 4.78909016e-002 3.35849635e-002
