%YAML:1.0
my_svm: !!opencv-ml-svm
   svm_type: C_SVC
   kernel: { type:LINEAR }
   C: 1.0000000000000000e-02
   term_criteria: { epsilon:2.2204460492503131e-16, iterations:2000 }
   var_all: 4356
   var_count: 4356
   class_count: 4
   class_labels: !!opencv-matrix
      rows: 1
      cols: 4
      dt: i
      data: [ 1, 2, 3, 4 ]
   sv_total: 6
   support_vectors:
      - [ 0., 0., 0., 0., 0., 0., 0., 0., 0., 0., 0., 0., 0., 0., 0., 0.,
          0., 0., 0., 0., 0., 0., 0., 0., 0., 0., 0., 0., 0., 0., 0., 0.,
          0., 0., 0., 0., 0., 0., 0., 0., 0., 0., 0., 0., 0., 0., 0., 0.,
          0., 0., 0., 0., 0., 0., 1.88852474e-03, 0., 0., 0., 0., 0., 0.,
          0., 1.88852474e-03, 9.25288443e-03, 0., 0., 0., 0., 0., 0., 0.,
          9.25288443e-03, 0., 0., 0., 0., 0., 0., 0., 0., 0., 0., 0., 0.,
          0., 0., 0., 0., 0., 0., 1.53199844e-02, 0., 0., 0., 0., 0., 0.,
          0., 1.53199844e-02, 5.08977799e-04, 0., 0., 0., 0., 0., 0., 0.,
          5.08977799e-04, 0., 0., 0., 0., 0., 0., 0., 0., 0., 0., 0., 0.,
          0., 0., 0., 0., 0., 0., -9.51301493e-03, 0., 0., 0., 0., 0.,
          0., 0., -9.51301493e-03, 9.64476913e-03, 0., 0., 0., 0., 0.,
          0., 0., 9.64476913e-03, 0., 0., 0., 0., 0., 0., 0., 0., 0., 0.,
          0., 0., 0., 0., 0., 0., 0., 0., 1.06519377e-02, 0., 0., 0., 0.,
          0., 0., 0., 1.06519377e-02, 2.17195805e-02, 0., 0., 0., 0., 0.,
          0., 0., 2.17195805e-02, 0., 0., 0., 0., 0., 0., 0., 0., 0., 0.,
          0., 0., 0., 0., 0., 0., 0., 0., 1.47435544e-02, 0., 0., 0., 0.,
          0., 0., 0., 1.47435544e-02, -3.08056399e-02, 0., 0., 0., 0.,
          0., 0., 0., -3.08056399e-02, 0., 0., 0., 0., 0., 0., 0., 0.,
          0., 0., 0., 0., 0., -4.84863482e-03, 0., 0., 0., 0.,
          -2.13575549e-02, 0., 0., 0., 0., 0., 0., 0., -2.13575549e-02,
          -3.14853080e-02, 0., 0., 0., -6.20433874e-03, 0., 0., 0.,
          -3.14853080e-02, -4.76807218e-05, -1.64993235e-05, 0., 0.,
          -2.44058989e-04, -6.68896246e-05, -3.27011694e-05,
          -2.33504707e-05, -4.91003520e-05, -3.35153018e-04,
          -5.98142215e-04, -1.40822097e-03, -9.46647051e-05,
          -4.53747460e-04, -1.45084094e-04, -3.11809883e-04,
          -1.89063183e-04, -2.34221661e-04, -2.62884330e-02,
          -2.74988706e-05, 0., 0., -2.41887625e-04, -4.01337784e-05,
          -1.96207020e-05, -3.36845696e-05, -2.62897145e-02,
          -4.05310169e-02, -5.11419354e-03, -5.91206504e-03,
          -5.67988209e-05, -5.91206504e-03, -2.81116692e-04,
          -3.79804667e-04, -8.92977041e-05, -4.04906124e-02,
          -3.06030161e-05, -7.44700781e-04, -2.14393437e-03,
          -1.01912292e-05, -2.03897380e-05, -5.24165671e-06,
          -4.41094635e-05, -1.44486812e-05, -1.90608989e-05,
          -1.18000654e-03, -3.04491841e-03, -4.03139042e-03,
          -6.70469672e-06, -5.31849544e-03, -5.16770115e-07,
          -2.63043839e-05, -7.86189503e-06, -1.17830141e-03,
          -1.82657503e-02, -2.79576518e-03, -4.03139042e-03,
          -6.11473752e-06, -2.94005685e-03, -2.87347011e-05,
          -4.65553749e-05, -1.23828941e-05, -1.82712451e-02,
          -2.72836313e-02, -4.03139042e-03, -4.03139042e-03,
          -8.73533963e-07, -2.60512135e-03, -7.36277070e-06,
          -1.41431028e-05, -1.34384281e-05, -2.72974446e-02,
          -3.26861721e-03, -3.13106948e-03, -3.39210592e-03,
          -7.42046586e-06, -1.72054642e-04, -1.34023066e-05,
          -3.83262886e-05, -1.97245699e-05, -3.32861277e-03,
          -3.51888360e-03, -1.74972555e-03, -3.89856659e-03,
          -1.06006655e-06, -2.40130787e-04, -4.67981627e-05,
          -1.45425758e-04, -1.95159533e-04, -3.51888360e-03,
          -3.99114788e-02, -2.02964619e-03, -3.89844482e-03, 0.,
          -2.04690470e-04, -2.23371771e-05, -5.58965075e-05,
          -3.21702828e-05, -3.99141647e-02, -3.27622438e-05,
          -4.20206459e-03, -4.79610171e-03, 0., -2.28875069e-04,
          -6.88412038e-05, -1.98692956e-04, -2.19606518e-04,
          -3.27622438e-05, -5.22708194e-03, -3.50586954e-04,
          -1.03652524e-03, 0., -2.40098852e-05, -6.59350872e-06,
          -1.98707894e-05, -2.09576046e-05, -5.22812363e-03,
          -6.70455722e-03, -1.52741981e-04, -4.15630289e-04, 0.,
          -2.45914780e-05, -2.08382176e-06, -1.14051427e-05,
          -3.93838218e-06, -6.65772427e-03, 3.88504937e-03,
          -2.01412407e-03, -2.17880518e-03, 0., -2.28702775e-05,
          -6.54487303e-06, -1.78186438e-05, -1.55891212e-05,
          3.87775688e-03, 3.16279195e-03, -1.36241526e-03,
          -2.08883267e-03, 0., -1.79470208e-05, -8.06451396e-07,
          -2.73136357e-06, -5.62625928e-07, 3.16279195e-03, 0., 0., 0.,
          0., 0., 0., 0., 0., 0., 0., 0., 0., 0., 5.29758539e-03, 0., 0.,
          0., 0., 0., 0., 0., 0., 0., 0., 0., 0., 0., 0., 0., 0., 0.,
          1.55357523e-02, 0., 0., 0., 0., 1.30606626e-04,
          -5.76455262e-04, 2.13022437e-03, 3.18266713e-04,
          1.13759341e-03, 1.31442663e-04, 2.27145647e-05, 1.40362899e-05,
          8.94608151e-04, 4.07141121e-03, -2.19383801e-04,
          4.12779208e-03, 9.22002015e-04, 1.56372832e-03,
          -2.72564241e-04, -7.26898201e-04, -3.71593596e-05,
          5.01316739e-03, -2.60616798e-04, -4.53509274e-05,
          5.38789108e-03, -2.14014188e-04, 3.88137274e-03,
          7.67055375e-04, -1.88285019e-03, -2.21403810e-04,
          2.15884554e-03, 5.05580846e-03, 6.40061731e-03, 7.80921336e-03,
          1.63557299e-03, 2.29523890e-03, 2.21983413e-03,
          -6.58239843e-03, -1.29706680e-03, 9.64648370e-03,
          2.04629335e-03, -2.70511805e-06, 5.13044419e-04,
          -2.16541797e-04, 1.50388491e-03, -4.83744778e-04,
          -6.63001090e-04, 2.59366177e-04, 2.64740316e-03,
          1.22685428e-03, -1.13431306e-03, -5.32552367e-05,
          6.01889682e-04, 4.21564793e-03, 3.59760998e-05,
          -6.18860708e-04, -6.18794817e-04, 2.95885932e-03,
          2.67764367e-03, 1.34271744e-03, 5.38045727e-03, 3.06360860e-04,
          -7.40949414e-04, 9.90356202e-04, -1.17632293e-03,
          2.93546729e-03, 6.33493951e-03, 3.13487323e-03, 3.27070872e-03,
          2.87786592e-03, 4.02650144e-03, 5.85733866e-03, 1.23376120e-03,
          1.15293008e-03, 7.50775915e-04, 4.57953056e-03, 2.26218253e-03,
          -1.30138698e-03, -2.75418302e-03, -1.69064349e-03,
          9.12271719e-03, 5.09949576e-04, -1.51642098e-03,
          -1.13717944e-03, 2.19489192e-03, 7.95719400e-03,
          -6.37042322e-05, -7.31725013e-03, 3.00539075e-04,
          3.38223809e-03, 1.99142378e-03, -4.80928365e-03,
          -1.88589876e-03, -4.01499448e-03, 4.45714779e-03,
          -1.62996782e-03, -6.70067675e-05, -5.59921423e-03,
          4.75870533e-04, -5.30616904e-04, -2.84501049e-03,
          -3.75164254e-03, 3.24038113e-03, 3.35216126e-03,
          -7.33659556e-03, -7.85992388e-03, 1.13602178e-02,
          -1.99167170e-02, -8.53893813e-03, -2.12505162e-02,
          -1.12198330e-02, -1.44342082e-02, 8.29932373e-03,
          3.84987378e-03, 2.05086498e-03, 4.92612307e-04, 3.13029066e-03,
          5.50688652e-04, -3.08504631e-03, -4.00207331e-03,
          2.92637083e-03, 1.30081112e-02, 5.98526734e-04,
          -3.29004484e-03, -3.21732508e-03, 1.77953187e-02,
          -2.09152902e-04, -3.29108024e-03, -4.44890372e-03,
          1.51287979e-02, 2.58008600e-03, 1.32829556e-02, 5.43222949e-03,
          1.14035737e-02, -5.09502459e-03, -4.94038546e-03,
          -6.48128754e-03, -1.84113700e-02, -1.14038261e-02,
          -1.03172474e-02, -8.30728188e-03, -5.95714804e-03,
          -1.18262060e-02, 5.25703728e-02, -2.19074357e-03,
          -4.62034484e-03, -7.55357090e-03, -3.99184693e-03,
          1.72650740e-02, 2.19615852e-03, -7.27277715e-03,
          1.18481054e-03, 1.51675390e-02, 2.00385577e-03, 4.13127011e-03,
          5.11992148e-05, 1.47066200e-02, 1.55495396e-02, 6.53910171e-03,
          -3.33062559e-03, 4.39120270e-03, 1.16006238e-02,
          3.44506348e-03, 3.93538084e-03, -2.74188607e-03,
          3.10620130e-03, -2.92966597e-05, 1.60830386e-03,
          -1.06491195e-02, 8.80656671e-03, 3.62750031e-02,
          9.82285105e-03, 1.41751720e-02, 6.38298038e-03, 1.49589498e-03,
          -2.20515952e-02, 6.20710291e-03, -4.49362630e-03,
          2.19062287e-02, 3.02043520e-02, 6.46705274e-03,
          -2.27477145e-03, -1.19526060e-02, -3.91961485e-02,
          -2.17869179e-03, 5.42168552e-03, 2.79912027e-03,
          1.09646085e-03, 9.20166634e-03, 1.91190944e-03,
          -4.07354301e-03, -3.71180498e-03, -7.52210384e-03,
          2.13299689e-04, 7.89375696e-03, 3.37047572e-03, 3.48928222e-03,
          8.03606061e-04, -7.92497594e-04, -7.58992508e-03,
          -8.47793929e-03, -2.18816847e-03, -3.32291089e-02,
          1.14721153e-02, 1.38510913e-02, 4.69620107e-03, 6.30454272e-02,
          -3.75560322e-03, -8.83631874e-03, -6.31033257e-03,
          -4.79983576e-02, -2.45962851e-02, 3.45380278e-03,
          2.18546912e-02, 1.41805140e-02, 4.82761580e-03,
          -3.31485149e-04, -7.24138878e-03, -2.73971502e-02,
          -2.79330444e-02, 1.31211721e-03, 1.24555605e-03,
          4.79145674e-04, 3.60780605e-03, -5.44262701e-04,
          -2.34722300e-03, -9.11873020e-03, 2.71285605e-03,
          5.08999731e-03, 1.19907541e-04, -6.45160442e-04,
          -3.10406857e-03, 1.28012011e-03, -4.79330914e-03,
          -1.41723291e-03, -3.83796287e-03, 4.40278556e-03,
          1.15607784e-03, -1.00038778e-02, -1.05035109e-02,
          2.11841520e-02, 2.08674204e-02, 6.35733455e-03, 1.77937672e-02,
          -2.05712821e-02, -3.17207091e-02, -7.00441236e-03,
          -2.08532847e-02, -1.06287701e-03, 9.75709117e-04,
          4.55933576e-03, -8.77353083e-03, 7.42999977e-03,
          -2.01301705e-02, 3.33096436e-03, -1.29285483e-02,
          -3.42682539e-03, -1.20849232e-03, -3.64174391e-03,
          -1.46875347e-04, -9.67561360e-03, -8.13146005e-04,
          -1.66169787e-03, -1.29714643e-03, -5.69013273e-03,
          -6.14729477e-03, -6.50373055e-04, -3.06680915e-03,
          -8.44856040e-05, -9.69375018e-03, -4.62897879e-04,
          -1.43486995e-03, 9.21266837e-05, -5.97732421e-03,
          -2.91307438e-02, -3.15052364e-03, -2.47367588e-03,
          -2.50862422e-03, -6.50949031e-03, -6.49882434e-03,
          -1.40386261e-02, -1.07216183e-02, -2.84247100e-02,
          -1.59213413e-02, 8.09393474e-04, 3.49206780e-03,
          -9.88605316e-04, -1.99449398e-02, -4.11294634e-03,
          -2.14312598e-02, -6.53191702e-03, -1.63385682e-02,
          -1.13141965e-02, -1.40040182e-03, -3.55138560e-03,
          -1.16421503e-03, -1.07427388e-02, -2.02059094e-03,
          -4.32229741e-03, -2.19598971e-03, -1.00239171e-02,
          -1.46929419e-03, -1.88449852e-03, -1.98870478e-03,
          -7.14125053e-04, -2.57678167e-03, -6.42906234e-04,
          -1.78629416e-03, 1.30654580e-03, -3.92898452e-04,
          -2.47098431e-02, -2.34083994e-03, 7.96636567e-04,
          -9.28947236e-03, -3.08075286e-02, -5.60277142e-03,
          -2.27575768e-02, -1.36748869e-02, -2.25410648e-02,
          -7.98345543e-03, -5.15970122e-03, -4.76176850e-03,
          -4.73441510e-03, -2.18705479e-02, 2.17188979e-04,
          -7.01291393e-03, 1.12509180e-03, -5.17382985e-03,
          5.45902876e-04, -1.39507116e-03, -2.30268133e-03,
          8.60383534e-06, -8.07224307e-03, 1.08255446e-03,
          1.88937483e-04, 3.58068064e-04, 6.60935766e-04,
          -1.41979684e-03, 3.72651732e-04, -2.32077180e-03, 0.,
          8.94330034e-04, 7.27462408e-04, 1.08405664e-04, 1.38951570e-03,
          -9.67017317e-04, -2.49910820e-03, -8.10996688e-04,
          -5.65294223e-03, 1.81538286e-04, -6.82998449e-02,
          2.65876087e-03, 2.62917019e-03, 2.33336189e-03,
          -3.67942150e-04, -1.74671132e-03, 1.86700176e-03,
          -9.33640287e-04, 2.16608809e-04, 2.57659843e-03,
          1.99772534e-03, 1.31315808e-03, 3.37045826e-03, 2.18067347e-04,
          0., 0., 0., 0., 0., 0., 0., 0., 0., 0., 0., 0., 0.,
          9.50161647e-03, 0., 0., 0., 0., 1.13610970e-02, 0., 0., 0., 0.,
          0., 0., 0., 1.13610970e-02, 7.59633770e-03, 0., 0., 0.,
          6.78793108e-03, 0., 0., 0., 7.59633770e-03, 8.88150680e-05,
          3.85631720e-04, 6.89077366e-04, -1.07844498e-04,
          1.12536689e-03, -3.54689255e-04, -1.40116678e-03,
          2.14722953e-04, 3.13832075e-04, 1.05127145e-03, 2.88090459e-03,
          3.06724221e-03, 7.43097218e-04, 8.98957078e-04, 7.50954205e-04,
          -2.67511560e-03, -4.09027089e-05, 1.66191335e-03,
          -3.92984552e-03, 2.79611180e-04, 6.35589182e-04,
          -1.23750081e-03, 9.93213151e-04, -3.34965473e-04,
          -8.93877586e-05, 2.43399103e-04, -3.96196544e-03,
          -2.55593471e-02, 1.66146681e-02, 1.78874526e-02,
          2.21668335e-04, -5.66013437e-03, -3.67722423e-05,
          5.02152310e-04, 2.16026604e-03, -2.51102000e-02,
          5.64378512e-04, 3.28639930e-04, 9.27248970e-04, 4.29645705e-04,
          7.21143559e-04, 8.72009405e-05, -2.30480891e-05,
          2.06304700e-04, 6.46178785e-04, 3.56962043e-03, 4.08240082e-03,
          1.02502443e-02, 2.72665900e-04, -9.28704534e-03,
          4.98834852e-05, 2.85488059e-04, 3.45128938e-04, 3.92190367e-03,
          2.83366926e-02, 4.27559298e-03, 4.76996880e-03, 3.60949984e-04,
          2.90223397e-03, 1.77615846e-04, 4.62870739e-05, 4.64182580e-04,
          2.83252690e-02, -5.15276194e-03, -1.80827044e-02,
          -2.69813761e-02, -4.89234924e-04, -4.76371963e-04,
          2.30795878e-04, -3.39521444e-03, -1.45917083e-03,
          -5.94286248e-03, 7.31537212e-03, 3.50188580e-03,
          6.25118101e-03, -2.78000865e-04, 6.31523365e-03,
          1.67484116e-03, 2.11194681e-04, -1.61895691e-03,
          6.61178492e-03, 7.42518634e-04, 9.62095102e-04,
          -6.67523313e-03, 1.59945805e-02, -5.15129184e-03,
          -3.84540763e-03, -7.97678076e-04, -3.63425561e-03,
          -8.68005585e-03, 3.09519470e-02, -9.63275693e-03,
          -2.83082519e-02, -1.06296630e-03, -3.69860994e-04,
          1.57142919e-03, -5.98289724e-03, -5.32803964e-03,
          3.14377025e-02, 3.73593764e-03, -1.09736156e-02,
          -1.14496732e-02, 5.42976009e-03, -1.56362280e-02,
          3.94851295e-03, 9.06639919e-03, -5.97774843e-03,
          2.96390848e-03, -1.66177191e-02, -5.36188425e-04,
          -1.30600845e-02, 2.17060396e-03, -5.19762840e-03,
          3.15155572e-04, 5.78064751e-03, 1.76457316e-03,
          -1.77536495e-02, -2.79440973e-02, -8.09803978e-03,
          -2.43277475e-02, 7.11190805e-04, 1.77286975e-02,
          1.32412952e-03, -2.90052779e-03, 1.45111140e-03,
          -2.62754373e-02, -6.47164416e-03, -1.07946973e-02,
          -1.45141026e-02, 1.24773383e-03, -1.82409231e-02,
          7.34003203e-04, 1.53087825e-02, 7.71544408e-03,
          -6.70099771e-03, 5.03195357e-03, 1.79863516e-02,
          1.81492902e-02, 1.42781436e-03, 7.33367307e-03, 4.97427362e-04,
          -1.41284307e-02, 6.72071194e-03, 5.33266924e-03,
          -2.68099774e-02, -1.46920402e-02, -2.16158871e-02,
          8.66902818e-04, 1.31970234e-02, 1.56064762e-03,
          -1.37888612e-02, -3.35403858e-03, -2.69073937e-02,
          -2.71516442e-02, -1.15980236e-02, -2.55209673e-02,
          4.80257208e-03, 1.02525130e-02, 1.04726385e-03,
          -2.54834797e-02, -6.04636548e-03, -3.00192274e-02,
          1.34261902e-02, -5.53278252e-03, 7.25202449e-03,
          2.38803937e-03, 3.05803493e-02, 3.05973412e-03,
          -1.29172057e-02, -5.36128134e-03, 1.45323202e-02,
          8.36018752e-03, 3.86835053e-03, 1.65021606e-02, 3.14105675e-03,
          4.03423756e-02, 2.77911848e-03, 8.10028054e-04,
          -2.98980698e-02, 8.62295460e-03, -2.23118737e-02,
          -2.76205270e-03, -1.26987612e-02, 1.59327115e-03,
          2.43530739e-02, 1.40205072e-03, -2.84868665e-02,
          -5.00078313e-03, -2.41352618e-02, -1.99036673e-02,
          -9.15010518e-04, -1.98609568e-03, 9.98512493e-04,
          1.99221540e-02, 5.24838688e-03, -1.95433833e-02,
          -1.40135130e-02, -1.87862683e-02, 1.34450467e-02,
          7.50374282e-03, 8.84172134e-03, 1.89659104e-03, 8.05484131e-02,
          2.45084288e-03, -1.75829623e-02, -3.73096466e-02,
          1.50146158e-02, 7.40921870e-03, 1.26905739e-02, 1.75380185e-02,
          3.04964208e-03, 2.75019128e-02, 2.87209055e-03,
          -4.72354777e-02, -3.04763969e-02, 7.05371611e-03,
          -3.16915289e-03, -3.02085886e-03, 6.36805920e-03,
          5.62497834e-03, 3.43616903e-02, 5.82226226e-03,
          -2.64711678e-02, -1.71933286e-02, 5.50084747e-04,
          -1.01057412e-02, -6.91543217e-04, -9.94305243e-04,
          2.50323093e-03, 2.90679093e-03, 3.93887749e-04,
          -3.20491716e-02, -1.18011618e-02, -9.73808672e-03,
          1.35699417e-02, 1.62333790e-02, 1.71194039e-02, 5.19827334e-03,
          2.88648270e-02, -6.24716328e-03, -4.71207313e-02,
          -4.84415255e-02, 1.45532889e-02, -7.62578845e-03,
          8.92081857e-03, 6.57470257e-04, 3.70506197e-04, 5.06663276e-03,
          1.34121557e-03, -3.18974294e-02, -2.83199865e-02,
          -8.45186692e-03, -1.09444968e-02, -1.67674618e-04,
          -3.57680328e-05, -8.37689964e-04, -3.31620164e-02,
          -8.91816744e-05, -2.19790339e-02, -8.12000502e-03,
          -1.11076925e-02, -3.75469704e-03, -8.34261009e-05,
          -1.29313878e-04, -5.93553472e-04, -1.28783863e-02,
          1.82525531e-04, -8.96946061e-03, -2.90714554e-03,
          -4.17669164e-03, 1.43632013e-02, 5.87924325e-04,
          3.00598098e-03, -1.11969572e-03, -2.86458340e-02,
          2.28092633e-03, -4.30105776e-02, -4.40357216e-02,
          1.38212917e-02, 8.99473298e-03, 2.28394219e-03, 4.03430918e-03,
          -7.46722624e-04, -2.09040586e-02, 2.08762620e-04,
          -2.21744161e-02, -1.61045864e-02, 9.12740082e-03,
          -8.14839825e-03, -9.51142982e-04, -2.30121985e-03,
          -3.44519550e-03, -2.34494451e-02, -3.98991117e-03,
          -1.54019389e-02, -6.40041241e-03, -1.00290654e-02,
          -3.29499529e-03, -2.38671596e-03, -5.15939482e-03,
          -1.25840760e-03, -1.63599383e-02, -6.30141352e-04,
          -4.13658749e-03, -1.34354446e-03, -3.24101048e-03,
          4.15648744e-02, -2.75817513e-03, -3.70588666e-03,
          -1.45412877e-03, -3.83541174e-02, -3.98010761e-03,
          -3.30873728e-02, -2.84382012e-02, 4.18138281e-02,
          7.25782197e-03, -1.98778952e-03, -4.61915601e-03,
          -2.19997906e-04, -1.81057118e-02, -9.49914160e-04,
          -4.69982717e-03, -1.99489645e-03, 7.12031685e-03,
          -1.61166932e-03, -2.22143438e-03, -4.75961762e-03,
          6.92660833e-05, -5.53838387e-02, 2.87944804e-05,
          -1.59588712e-03, -3.76898854e-04, -1.68414484e-03,
          -3.34702129e-03, -5.17595909e-04, -1.44446397e-03,
          4.66088713e-05, -1.08915381e-03, 4.14696085e-04,
          -4.55473601e-05, 1.75531779e-04, -3.14852456e-03,
          1.26899714e-02, -1.25331932e-03, -3.54994345e-03,
          -8.53318852e-07, -6.13976419e-02, -1.08727778e-04,
          2.15088343e-03, 3.18688550e-03, 1.26757445e-02,
          -3.75406118e-03, -2.51703932e-05, -3.10395291e-04,
          1.47231898e-04, -1.02104060e-03, 2.21293609e-04,
          3.24333948e-03, 1.44276430e-03, -3.75572639e-03,
          4.46604937e-03, 2.97596736e-04, -2.53249018e-04,
          5.13479055e-04, 4.47461614e-03, 0., -9.11404713e-05,
          -3.04576188e-05, 2.73193768e-03, 3.47874081e-03,
          2.32768754e-04, 4.21121978e-04, 1.80874762e-04,
          -8.02501198e-03, 2.67435797e-04, -4.92457766e-04,
          -2.08263911e-04, 2.50376738e-03, 9.41906404e-03,
          1.30327325e-03, -4.34047164e-04, 7.55545311e-03,
          8.93164612e-03, 6.66702457e-04, -3.85004329e-04,
          7.23226985e-04, 5.95698878e-03, 8.88492167e-03, 7.86030293e-03,
          1.22391796e-02, 4.37761704e-03, -2.31873197e-03,
          2.46472354e-03, 2.60159693e-04, 2.53576669e-03, 8.50206614e-03,
          1.50393881e-03, 4.58793329e-05, 8.58629821e-04,
          -1.43588707e-03, 4.15908499e-03, 3.81658436e-04,
          7.52383727e-04, -3.43163381e-04, 1.65247964e-03,
          6.67805318e-03, 2.99945031e-03, 4.12039645e-03,
          -1.05372374e-03, -1.13713099e-02, 3.56799224e-03,
          9.87587031e-04, -1.21735642e-03, 4.47265850e-03,
          1.00513571e-03, 3.50012491e-03, 8.10677838e-03, 2.28985958e-03,
          1.76340993e-02, -1.44330994e-03, -2.03001825e-03,
          -1.62914686e-03, -7.73485343e-04, 7.58860400e-03,
          5.45828789e-03, -1.02467760e-02, 1.83786508e-02,
          1.15340967e-02, -4.15762002e-03, -1.01145385e-02,
          -1.57090519e-02, -2.79769069e-03, 2.20871042e-03,
          6.21917751e-03, 5.85427554e-03, 3.86913161e-04,
          -3.05626332e-03, 2.40580761e-04, -9.38629528e-05,
          1.35636760e-03, 3.51146376e-03, -5.89841185e-03,
          -6.07402064e-03, -1.35277053e-02, -4.71590960e-04,
          -3.57175973e-04, -1.44465710e-03, -1.73548295e-03,
          2.02938588e-03, -3.15176952e-03, 1.04972785e-02,
          9.57375765e-03, 1.08868617e-03, 3.86246317e-03,
          -2.34559979e-02, -9.23595915e-04, 5.75354148e-04,
          1.31406891e-03, 1.10801505e-02, 8.85600597e-03, 1.54200196e-02,
          3.91585566e-03, -1.59165385e-04, 1.23002017e-02,
          -5.11960872e-03, 2.82211986e-04, 6.47371449e-03,
          1.04681943e-02, 1.56443682e-03, -1.29415998e-02,
          -1.83288530e-02, 4.09142056e-04, -1.00092944e-02,
          2.83423753e-04, -1.96814188e-03, -1.62731123e-03,
          2.50870036e-03, 2.63292110e-03, -2.29364112e-02,
          -1.30810740e-03, 1.38231786e-03, -2.45536994e-02,
          -4.90211975e-03, 1.06746498e-02, 4.02804511e-03,
          1.17238341e-02, -1.52435191e-02, 1.01846480e-03,
          7.11427303e-03, 1.43638847e-03, 2.75430945e-03,
          -7.79168098e-04, 2.49635894e-03, 1.88621390e-03,
          -1.51225859e-02, 1.05206212e-02, 1.24397138e-02,
          -1.23551125e-02, 1.49604131e-03, -7.26800552e-03,
          -2.05223057e-02, 2.42196545e-02, 2.15255544e-02,
          1.43327424e-02, -2.19741743e-02, -3.02133951e-02,
          -3.60552482e-02, -1.08929025e-03, -3.74793001e-02,
          2.60660402e-03, 1.59893576e-02, 4.35973052e-03,
          -2.03703921e-02, -1.68477539e-02, 8.46259762e-04,
          1.67944897e-02, -3.81575269e-03, 2.85525713e-03,
          -1.32889953e-03, -2.64518033e-03, -3.24080163e-03,
          -1.51897203e-02, 4.37937584e-03, 8.29225592e-03,
          -1.35480883e-02, 3.99769191e-03, -1.39328167e-02,
          -1.89347728e-03, 2.51028966e-02, 1.94795970e-02,
          4.41642758e-03, -1.00072543e-03, 2.97421664e-02,
          3.06347609e-02, 1.72276003e-03, 2.09775027e-02,
          -2.99034431e-03, 2.75665671e-02, 2.51054261e-02,
          3.24091851e-03, -9.12427343e-03, -6.19129092e-03,
          -1.80020416e-03, -4.49277135e-03, 1.37071162e-02,
          -1.64144265e-03, -2.04816535e-02, -1.60488281e-02,
          -9.19495523e-03, -1.93993151e-02, 4.29186970e-03,
          1.23066455e-02, -4.95456904e-03, 4.14553657e-02,
          -1.77615392e-03, -6.42534420e-02, -8.03723261e-02,
          -2.09119245e-02, -2.64840224e-03, 2.05521397e-02,
          2.13165823e-02, -2.18233117e-03, 4.41857092e-02,
          -1.12391822e-03, 2.11014263e-02, 1.91636924e-02,
          -3.39163467e-03, -9.69322212e-03, 3.16149853e-02,
          6.19625784e-02, -2.26443494e-03, 7.59934932e-02,
          -9.32680268e-04, -7.47599965e-03, -9.84569080e-03,
          -1.18842358e-02, -1.45446835e-02, 8.38384964e-04,
          5.99867385e-03, 1.67581101e-03, 4.62737642e-02,
          -1.50910043e-03, -4.22938019e-02, -2.74453312e-02,
          -1.42069487e-02, -1.97472759e-02, 1.17582306e-02,
          1.74929798e-02, 1.40334407e-04, 1.51861031e-02,
          -1.39659888e-03, -7.69317895e-02, -6.32353872e-02,
          -1.82650182e-02, 8.91186390e-03, 3.67897637e-02,
          4.99824695e-02, 8.83422606e-03, 1.04551941e-01, 3.38451428e-05,
          1.21314470e-02, 1.20560862e-02, 1.36266518e-02, 2.29987372e-02,
          3.12023554e-02, 3.86288464e-02, 1.01364423e-02, 7.31796101e-02,
          4.06222371e-03, -4.67549749e-02, -6.59454241e-02,
          2.06302367e-02, 1.84511468e-02, 8.58264137e-03, 1.81517787e-02,
          6.69950712e-03, 4.54586968e-02, 5.83728962e-03,
          -6.39718696e-02, -2.83067375e-02, 2.33083013e-02,
          -6.42401632e-04, -1.47089281e-03, 1.35930616e-03,
          -2.31711019e-04, 7.43254693e-03, -3.49007384e-03,
          -4.19494212e-02, -4.02378030e-02, 1.69965133e-05,
          6.91042617e-02, 1.29832514e-02, 4.02791090e-02, 2.01915968e-02,
          9.18276608e-02, 1.24632260e-02, -5.31989783e-02,
          -1.02123111e-01, 7.29064494e-02, 6.39861301e-02,
          7.92101491e-03, 1.88297946e-02, 2.60133762e-03, 2.44777463e-02,
          -1.94986793e-03, -8.82725045e-02, -3.74492109e-02,
          6.42001480e-02, 3.19615309e-03, 5.71971433e-03, 5.09118941e-03,
          2.10679937e-04, -4.92404066e-02, 2.25313101e-03,
          -3.65317464e-02, -1.55882156e-02, 7.87234865e-03,
          8.97920877e-03, 7.34653510e-03, 3.77124292e-03, 3.06086405e-03,
          -2.07472295e-02, 2.02067150e-03, -3.23631875e-02,
          -2.09769830e-02, 8.75260402e-03, 4.10086997e-02,
          4.62809345e-03, 2.49387939e-02, 7.49891333e-04, 2.39642640e-03,
          3.36188357e-03, -3.78080979e-02, -3.62543315e-02,
          4.79737595e-02, 2.78309081e-02, -8.43286142e-03,
          9.86805651e-03, 1.48171000e-02, -1.53130386e-02,
          1.11446949e-02, -2.44332477e-02, -2.03430858e-02,
          2.40025967e-02, 1.14239538e-02, -2.32269196e-03,
          -6.05671725e-04, 2.10541091e-03, -2.27714442e-02,
          3.08792968e-03, -1.10544199e-02, 5.09840529e-03,
          1.22017572e-02, 5.26584452e-03, 6.71994465e-04,
          -3.48202739e-05, -2.76839768e-04, -1.19461399e-02,
          3.04406654e-04, 1.36767898e-03, 3.58513813e-03, 4.68950393e-03,
          1.98118649e-02, -2.11237743e-02, -3.11063748e-04,
          -8.69068690e-03, -3.66420895e-02, 3.22811790e-02,
          2.76269321e-03, 7.71703571e-03, 1.47858253e-02, 1.15594845e-02,
          -3.04090558e-03, 1.15905341e-03, -1.43582122e-02,
          -2.91170888e-02, 1.52582638e-02, -6.23373501e-03,
          -2.81059090e-03, 6.23507518e-03, 5.91292232e-03,
          3.87075765e-04, 3.78645462e-04, 2.10211016e-04,
          -4.62747402e-02, 9.75152125e-06, -3.95377458e-04,
          8.37939966e-04, 5.87063842e-03, 2.91038537e-03,
          -3.04459973e-04, 6.05060850e-05, 1.48064180e-04,
          8.22013244e-04, 4.05914820e-04, 4.21441766e-03, 1.83689385e-03,
          2.96408171e-03, 5.38123166e-03, 2.28126813e-03, 4.03576158e-03,
          2.73339823e-03, -5.93628399e-02, 1.67425940e-04,
          -1.55195342e-02, -5.20002889e-03, 5.21217659e-03,
          3.46857589e-03, 3.68372057e-05, 1.68632821e-03, 1.77996524e-03,
          4.46421932e-03, 2.45386711e-03, 4.47561312e-03, 4.66979202e-03,
          3.97520605e-03, 6.45695487e-04, 4.30975371e-04, 4.35063645e-04,
          1.41439436e-03, 9.47167282e-04, -1.97113168e-05,
          -6.05507303e-05, 2.41175236e-04, 6.73922244e-04,
          6.45691529e-04, 3.89166363e-03, 1.05762668e-02, 7.14267546e-04,
          1.30034825e-02, 3.55381810e-04, 1.93847445e-04, 8.73780577e-04,
          1.56356161e-03, 2.46620434e-03, 3.03981709e-03, 7.80861499e-03,
          1.04300701e-03, 1.95437926e-03, 7.20341850e-05, 2.06813740e-04,
          7.55523157e-04, 2.63805152e-03, 6.10275846e-03, 1.61091015e-02,
          1.71732921e-02, 5.85579721e-04, -1.62283587e-03,
          1.89011407e-04, -9.63824095e-06, 6.66553562e-04,
          6.32712198e-03, -2.45355512e-03, 2.82044685e-03,
          2.18890724e-03, 2.05076602e-03, 2.43322016e-03, 3.69389891e-03,
          -2.68259109e-03, -1.67597528e-03, -3.20471521e-03,
          -4.52244561e-03, 1.37793820e-03, -2.24513980e-03,
          1.19623691e-02, -1.34794312e-02, 9.70273511e-04,
          -1.12484628e-02, -1.01987664e-02, -8.03186372e-03,
          2.47822213e-03, 5.42160822e-03, -7.31506967e-04,
          2.31323624e-03, -3.91084142e-03, 7.44034071e-03,
          -1.05458358e-03, -2.45613069e-03, 7.01708021e-04,
          -1.52526377e-02, 4.16498221e-02, 2.30458751e-02,
          8.38047359e-03, -2.20669508e-02, 1.14397276e-02,
          -3.92773800e-05, -8.86301231e-03, -2.05638353e-02,
          2.94346339e-03, 3.23692407e-03, 3.72498157e-03, 1.62887329e-03,
          -1.11944592e-02, 6.42712461e-04, -1.84311182e-03,
          -4.20421042e-04, 3.20841349e-03, 3.88587313e-03,
          3.72739050e-05, 1.78162463e-03, 1.23390439e-03,
          -2.49148700e-02, 6.90240005e-04, -1.98762771e-03,
          -2.90291122e-04, 4.04536864e-03, -6.75969478e-03,
          8.33414309e-03, 3.17354058e-03, 1.32151356e-03,
          -2.73774639e-02, 1.83261209e-03, -2.56753410e-03,
          -2.94296979e-03, -5.89784142e-03, 4.11603786e-03,
          2.27372777e-02, 2.59484258e-02, 2.06783810e-03,
          -2.20163632e-02, 2.21803947e-03, -2.48743482e-02,
          -8.82088300e-03, 3.41447419e-03, -2.16082875e-02,
          8.66674911e-03, 7.22962152e-03, 9.69574845e-04,
          -2.92348396e-02, 7.05282146e-04, -4.57158487e-04,
          1.30935130e-03, -2.02299710e-02, -5.72943781e-03,
          2.66583953e-02, 2.14825980e-02, 1.15623430e-03,
          -2.20739655e-02, -1.85269117e-03, 1.77391451e-02,
          1.21854143e-02, -4.28655837e-03, -1.23708034e-02,
          7.56288134e-03, 1.30075272e-02, 1.11229755e-02, 1.05636027e-02,
          1.29448657e-03, -2.57309340e-02, -1.23751294e-02,
          -1.12106260e-02, -3.93856410e-03, 1.63992122e-02,
          4.06126790e-02, 7.37004494e-03, 2.30312273e-02,
          -4.24151542e-03, -1.45801706e-02, -5.02971979e-03,
          -7.27390219e-03, -1.34614282e-04, 3.15372013e-02,
          1.12087717e-02, 2.30755447e-03, -3.49675156e-02,
          1.06034137e-03, 1.94485616e-02, 1.15770092e-02,
          -2.35673491e-04, -1.89390909e-02, 1.24682682e-02,
          1.68942362e-02, 4.80001746e-03, -5.24438312e-03,
          1.97327603e-03, 3.15207988e-02, 2.42321976e-02,
          -1.99778304e-02, -4.16209921e-02, 3.93354706e-03,
          2.29383763e-02, 3.13949795e-03, -3.50989774e-02,
          2.44827918e-03, -5.14245313e-03, -1.22963241e-03,
          -3.87564823e-02, -1.00935781e-02, 8.09228513e-03,
          -2.17936351e-03, 7.98705872e-03, -4.20527309e-02,
          1.44197387e-04, 1.14582600e-02, 1.30896773e-02,
          -1.21062389e-02, -3.05607077e-02, 2.86264271e-02,
          4.84626228e-03, -1.26087340e-02, 1.44800718e-03,
          -1.81018445e-03, 2.03558616e-02, 1.00427177e-02,
          -2.47132257e-02, -3.85385938e-02, 1.09597007e-02,
          3.12072560e-02, -1.46040078e-02, 4.96483818e-02,
          -1.40087130e-02, 2.91820057e-02, 1.67712215e-02,
          -3.57511304e-02, -3.09695546e-02, 4.54947259e-03,
          5.36824483e-03, -1.02635613e-02, -4.29517291e-02,
          -1.04319886e-03, 9.36333183e-03, 4.22336021e-03,
          -2.71147937e-02, -9.27834865e-03, -5.21179615e-03,
          4.39221913e-04, -1.73809342e-02, -7.32823275e-03,
          -1.59234218e-02, 3.94259356e-02, 2.28145365e-02,
          -5.87656582e-03, 2.00606156e-02, 7.62810884e-03,
          1.96280014e-02, -8.63494119e-04, 3.75839733e-02,
          -2.45648390e-03, 2.83142296e-03, 6.82003237e-03,
          1.90812647e-02, 3.34936418e-02, 1.61494352e-02, 3.49571407e-02,
          -1.51666719e-03, 8.99852428e-04, -1.27459748e-03,
          -7.58780837e-02, -1.11079395e-01, 3.48235182e-02,
          4.03165556e-02, 3.68705788e-03, 1.05944658e-02,
          -1.04326871e-03, 1.67252384e-02, -4.14889585e-03,
          3.77843827e-02, 2.64183823e-02, 4.06178385e-02, 5.15854321e-02,
          2.99684587e-03, 8.18285998e-03, -4.27523395e-03,
          -2.95167249e-02, -2.35728920e-03, 3.85395368e-03,
          -7.19231600e-03, 5.55833802e-02, 8.57324675e-02,
          1.22059388e-02, 2.71495935e-02, 4.79849987e-03, 1.20020155e-02,
          3.44752916e-03, -5.76769412e-02, -5.22338860e-02,
          8.56857076e-02, 5.83119206e-02, 5.95658738e-03, 1.31126968e-02,
          -1.77594437e-03, -5.79316765e-02, -6.27661776e-03,
          -7.96340629e-02, -5.34689240e-02, 5.53410202e-02,
          9.60819423e-02, 1.12255011e-02, 1.78600866e-02, 4.30638855e-03,
          1.02003422e-02, 6.53191609e-03, -1.70293301e-02,
          -1.65262539e-03, 9.54772010e-02, 7.36146644e-02,
          3.01717757e-03, 1.11067854e-02, -1.86222477e-03,
          -7.44007677e-02, -1.03756571e-02, -2.51573678e-02,
          -4.86739650e-02, 6.83969185e-02, 4.64414544e-02,
          -9.33831208e-04, 3.51755670e-03, -3.09244986e-03,
          -6.45639598e-02, -1.55215908e-03, -5.07668555e-02,
          -2.03545671e-02, 4.74995598e-02, 1.87634043e-02,
          -2.15539662e-03, -1.62895350e-03, -2.48216814e-03,
          -2.76037045e-02, -3.92096769e-03, -2.36799456e-02,
          -3.17217708e-02, 1.80413239e-02, 1.00223482e-01,
          2.04730182e-04, 7.37701077e-03, -6.27415534e-03,
          -5.22686429e-02, -2.22421298e-03, -2.00720262e-02,
          -9.35531687e-03, 1.01094373e-01, 4.25674058e-02,
          -3.39691644e-03, -3.23862978e-03, -7.67350197e-03,
          -2.85463948e-02, -3.64239793e-03, 2.76587550e-02,
          1.73241310e-02, 4.27220054e-02, -7.88258202e-03,
          -1.19216209e-02, 1.27618492e-03, -1.58763099e-02,
          -5.17957211e-02, 5.42148016e-03, -2.47130473e-03,
          -8.99666268e-03, -6.61374349e-03, 6.13956293e-03,
          -2.53699743e-03, -1.12333114e-03, -9.61200614e-03,
          -3.73096988e-02, 5.65112149e-03, -5.88425668e-03,
          -3.48692131e-03, 6.28365297e-03, 3.56268771e-02,
          6.58499310e-04, 7.50743959e-04, -2.21125297e-02,
          -3.63812521e-02, -1.15369912e-02, 3.22431996e-02,
          3.12793851e-02, 3.62325273e-02, 2.02002134e-02, 3.26222647e-03,
          -4.74267220e-03, -7.70984357e-03, -2.96933427e-02,
          -2.29964987e-03, 9.03568882e-03, 3.54803912e-03,
          2.10544486e-02, 1.41878368e-03, 2.46037205e-04,
          -2.65056278e-05, 3.35607503e-04, -7.14522153e-02,
          -8.09549674e-05, -6.58071367e-03, -1.68676651e-03,
          1.38028373e-03, 4.32878966e-04, 8.08396435e-05, 4.18085983e-04,
          4.20236465e-04, 5.19184675e-03, 8.27677839e-04, 3.61996423e-03,
          1.38590613e-03, 8.98537692e-04, 2.04598978e-02,
          -9.37001896e-04, -2.69084726e-03, 2.14970660e-05,
          -4.99559753e-02, -9.98073592e-05, 5.04312525e-03,
          3.75429052e-03, 2.06488743e-02, 8.19049682e-03, 8.62687943e-04,
          2.13847565e-03, 8.67415452e-04, 4.25010687e-03, 4.27745894e-04,
          3.01167555e-03, 1.05637941e-03, 8.04856792e-03, 3.73038522e-04,
          2.15434562e-03, 5.89453708e-03, 1.24433544e-04, 7.41384830e-03,
          9.30687747e-05, 4.61516436e-04, 3.04584595e-04, 4.37755923e-04,
          7.61081523e-04, 9.49338451e-03, 1.40683651e-02, 6.69226938e-05,
          -1.30852479e-02, 2.02418916e-04, 1.05307263e-03,
          7.96473178e-04, 9.89365624e-04, -1.33595910e-04,
          1.54481898e-03, 3.92660778e-03, 2.61964335e-04, 9.21096373e-03,
          5.61504683e-04, 2.25981767e-03, 1.14582793e-03, 8.14566301e-05,
          -2.60564343e-06, 8.32601171e-03, 8.40012729e-03,
          1.30019762e-04, -4.01591994e-02, 4.04078542e-04,
          4.71222075e-03, 4.13670251e-03, 1.48807641e-03, 1.36659236e-03,
          9.72639397e-03, 1.05839036e-02, -1.20965135e-03,
          -1.17718205e-02, 6.10919343e-03, 1.71553681e-03,
          -4.75957571e-03, 1.21383392e-03, -1.18029090e-02,
          1.31096505e-02, 1.61762480e-02, -1.09162638e-02,
          -3.52878906e-02, 9.70005430e-03, -7.93741457e-03,
          -1.27007607e-02, -9.37293842e-03, 4.08720830e-03,
          -2.05994514e-03, 1.01282923e-02, 3.21057951e-03,
          5.68885356e-04, 9.00953449e-03, -1.31657254e-02,
          -6.36098022e-03, 5.68635715e-03, -7.15161720e-03,
          -7.53582572e-04, 1.50060398e-04, 1.56764816e-02,
          -1.53700206e-02, 1.25877755e-02, -2.29972918e-02,
          -8.54417123e-03, -3.40585015e-03, 9.12768766e-03,
          2.33876705e-02, 1.69021022e-02, 5.71331766e-04,
          -1.60845108e-02, 2.14248570e-03, -8.17376375e-03,
          -3.75829032e-03, 1.08401757e-02, -5.89292496e-03,
          1.54433232e-02, 2.83771250e-02, 2.32214713e-03, 5.06560765e-02,
          2.01923700e-04, -2.98731346e-02, -2.57500149e-02,
          -8.01328756e-03, -2.78567225e-02, 1.23593742e-02,
          2.10397858e-02, 1.04097719e-03, -1.53494384e-02,
          6.05137611e-04, -5.00047114e-03, 2.92310235e-03,
          -2.81355865e-02, -4.00885642e-02, -1.08342385e-02,
          -2.40747668e-02, 1.99885201e-03, -2.51079332e-02,
          -1.45162526e-03, 1.91473030e-02, 2.86416290e-03,
          -4.08936478e-02, 5.90085378e-03, 2.59301234e-02,
          2.81969588e-02, 1.66884381e-02, 3.97546217e-02, 2.52039311e-03,
          -2.68524271e-02, -1.48679912e-02, -4.28220956e-03,
          -7.26567721e-03, -5.07730758e-03, 1.48877082e-03,
          9.81939491e-03, 7.44567886e-02, 9.46249720e-03,
          -2.61010565e-02, -1.62623860e-02, -1.19828843e-02,
          -3.88507321e-02, -1.43065006e-02, -3.49203795e-02,
          1.08657302e-02, 1.79484952e-02, -4.47902159e-04,
          7.41907116e-03, 6.64559891e-03, -4.22464609e-02,
          -4.54269648e-02, -3.52424756e-02, -4.33680415e-02,
          1.04395868e-02, 4.07111682e-02, 6.25679269e-03, 9.76529252e-03,
          -1.18208043e-02, -4.93262149e-02, 4.49743308e-03,
          1.23382383e-03, -1.42612308e-03, 7.81678315e-03,
          9.15404260e-02, 3.86928255e-03, -3.02519631e-02,
          -1.20091448e-02, -2.17999169e-03, 4.96899858e-02,
          7.19698938e-03, -7.54677225e-03, 8.53939075e-03,
          3.65192927e-02, 9.11714509e-04, -7.67839281e-03,
          6.99506234e-03, 4.36593108e-02, -5.48045859e-02,
          -2.27910150e-02, -4.86575961e-02, -6.35009666e-04,
          4.82396185e-02, 5.44940727e-03, -7.31317885e-03,
          -1.73080750e-02, -6.61212355e-02, -3.31508294e-02,
          -3.17295045e-02, -2.89075021e-02, -8.74496903e-03,
          2.37755827e-03, 1.48069784e-02, -4.78675663e-02,
          -2.51158644e-02, -3.08275111e-02, 2.93060057e-02,
          3.22166793e-02, 2.44264454e-02, 2.89166532e-03,
          -2.60674465e-03, 1.17294153e-03, -1.22025295e-03,
          7.24266691e-04, 2.87247635e-02, 5.80162108e-02, 1.05714872e-02,
          -2.36254465e-03, 9.59686190e-03, 6.26975223e-02,
          8.19723587e-03, 5.26037700e-02, 2.71540787e-02, 6.32997081e-02,
          -8.04734230e-02, -6.41313195e-03, -1.71444733e-02,
          -1.50020616e-02, -3.64658162e-02, 1.25063676e-02,
          -4.52952795e-02, -1.03926780e-02, -5.86583875e-02,
          -2.57387031e-02, 1.65252648e-02, -8.81041493e-03,
          1.29861450e-02, 2.91229524e-02, 9.15750454e-04,
          -1.80451181e-02, -6.49840990e-03, -1.99021101e-02,
          2.45608836e-02, -1.92078669e-03, -4.22908226e-03,
          -3.25311371e-03, 1.35884667e-02, -2.80550681e-03,
          1.21972505e-02, 3.22654005e-03, 1.94624029e-02, 3.34770754e-02,
          -6.60457788e-03, -2.62034754e-03, -8.37917626e-03,
          -2.58660456e-03, -1.02651427e-02, 2.47622412e-02,
          6.00119773e-03, 2.96370406e-02, -2.12395135e-02,
          -1.13244914e-02, -2.69543729e-03, 6.71921822e-04,
          -3.48123126e-02, -9.42270644e-03, -2.40712389e-02,
          -2.00577565e-02, -2.55992357e-02, 3.51004526e-02,
          2.29150169e-02, 1.48533350e-02, -4.90693608e-03,
          -3.58601920e-02, -9.68884956e-03, -1.24814510e-02,
          -1.86762139e-02, 2.98655778e-02, 5.82524575e-02,
          1.56978192e-03, 9.26049612e-03, 9.21915693e-04,
          -2.78546158e-02, -6.13443553e-04, -1.71574226e-04,
          6.83626207e-03, 5.63811772e-02, 6.96837828e-02, 1.98123548e-02,
          3.24814171e-02, 7.40383344e-04, -8.54566693e-02,
          -1.89000927e-03, -3.64321843e-02, -4.15213741e-02,
          6.54500723e-02, 6.13667853e-02, 2.75958776e-02, 4.45652120e-02,
          -6.53970565e-05, -2.39942297e-02, -5.24155854e-04,
          -1.40421418e-03, -5.06110722e-03, 6.02457896e-02,
          5.54073565e-02, 5.37691526e-02, 5.86173758e-02,
          -1.44093577e-03, -8.27511251e-02, -2.17359932e-03,
          -7.67786652e-02, -5.20105176e-02, 4.94020730e-02,
          3.35874818e-02, 1.91718731e-02, 3.28374803e-02,
          -9.34746698e-04, -2.67058741e-02, -5.42358670e-04,
          -1.35970209e-02, -7.64027191e-03, 3.28081660e-02,
          2.35776529e-02, 5.54918312e-03, 1.66571755e-02,
          -9.16324556e-04, -4.40671854e-03, -1.67825914e-04,
          2.23170444e-02, 1.27852010e-02, 2.34470423e-02, 5.13918847e-02,
          4.37394157e-02, 5.30060716e-02, 1.40812379e-04,
          -6.41660690e-02, -2.67537474e-03, -6.35518134e-02,
          -4.29603718e-02, 5.16856350e-02, 1.96748376e-02,
          1.19548179e-02, 2.04134919e-02, 1.12495758e-03,
          -2.95299664e-02, -4.75445209e-04, -1.23770749e-02,
          -6.69844076e-03, 1.84235293e-02, 9.76531208e-03,
          9.58154211e-04, 1.25864614e-03, -2.25324742e-02,
          -1.18708506e-03, -1.61526632e-02, 1.20864203e-02,
          1.47315313e-03, 2.00167694e-03, 8.90056789e-03,
          -1.28204527e-04, -6.17694622e-03, -8.43163300e-03,
          -3.00578363e-02, -6.96309889e-03, 3.14773316e-03,
          2.84546637e-03, 8.17326456e-03, 1.12357130e-02,
          -1.03896493e-02, -1.60573237e-02, -1.84633285e-02,
          -1.41838370e-02, -8.39990936e-03, -8.63395911e-03,
          -1.77203678e-02, 1.65523950e-03, 1.64025370e-02,
          -5.38698724e-03, -1.27779925e-02, -6.18629530e-03,
          -3.05418558e-02, -1.81495608e-03, 4.02580015e-03,
          3.07505461e-03, 1.43641420e-02, 4.27029561e-03, 4.99349735e-05,
          -6.40428974e-04, -3.07436450e-04, -5.09564951e-02,
          -2.78522057e-04, 7.24635040e-03, 4.44366317e-03,
          4.47438937e-03, 1.18289061e-03, 2.36972282e-03, 4.75338288e-03,
          5.53124773e-05, 5.59164118e-03, -2.40022113e-04,
          2.06191582e-03, 6.27639762e-04, 1.31603470e-03, 4.92257392e-03,
          4.39909520e-03, 3.79889784e-03, -1.68493189e-05,
          -7.08228070e-03, 6.97407755e-04, 9.17358138e-03,
          1.04419990e-02, 5.83811151e-03, 2.09029345e-03, 5.21451980e-03,
          7.68702198e-03, 3.43963358e-04, 1.17648700e-02, 2.34122170e-04,
          2.53506657e-03, 2.20611994e-03, 2.42948462e-03, 4.58014169e-04,
          5.35177765e-04, 1.58207235e-03, 4.14847891e-04, 9.98665486e-03,
          6.05849382e-05, 4.56256745e-03, 1.86933740e-03, 4.39127034e-04,
          8.56559840e-04, 2.83716712e-03, 1.93775329e-03, 4.90591978e-04,
          9.45732649e-03, 3.28588212e-04, 1.19478144e-02, 8.56009778e-03,
          8.78508552e-04, 3.79312725e-04, 1.12014124e-03, 3.25832539e-03,
          1.47270941e-04, 1.02167623e-02, 1.06062813e-04, 5.88095607e-03,
          2.45360401e-03, 3.82245576e-04, 2.30400998e-04, 5.93852997e-03,
          5.41215809e-03, 9.09345545e-05, 1.76442619e-02, 1.67345250e-04,
          7.73663633e-03, 7.73896417e-03, 3.42892279e-04,
          -2.94721592e-03, 2.23957642e-04, 3.74291372e-03,
          1.84413930e-03, -2.68594455e-03, 1.58170192e-03,
          -5.52146276e-03, -2.54073227e-03, -2.20506452e-03,
          -5.71691357e-02, -1.26568293e-02, -1.48707023e-02,
          1.03643993e-02, -2.53540254e-03, -1.96414394e-03,
          5.43835852e-03, 1.24626942e-02, -4.92897592e-02,
          -7.32682273e-03, 4.48913168e-04, 3.11972527e-03,
          -1.09668495e-03, -2.07317690e-03, -6.05794368e-03,
          1.73957720e-02, 9.42200236e-03, -4.06002905e-03,
          -3.43768671e-02, -9.30633582e-03, -1.39396805e-02,
          -4.94023087e-03, -1.92148855e-03, -9.03098844e-03,
          1.78256463e-02, 1.95726119e-02, -2.43842099e-02,
          -2.46136729e-02, 2.77570076e-03, 5.83440345e-03,
          2.61803693e-03, 6.65091863e-03, -1.06639485e-03,
          -2.25338200e-03, 6.16768328e-03, -2.38140728e-02,
          -6.40194714e-02, -6.30730251e-03, -2.41402816e-02,
          3.84437060e-03, 3.10642971e-03, -2.82336143e-04,
          8.10695533e-03, 1.83609575e-02, -6.30907044e-02,
          -9.66296345e-03, -5.62330650e-04, 3.41732730e-03,
          1.00330135e-03, 1.33257527e-02, -9.41069273e-04,
          3.53175774e-02, 4.03998010e-02, -8.27831030e-03,
          -2.57758554e-02, -4.88171447e-03, -1.55120017e-02,
          1.50196534e-03, 2.44250707e-02, -1.18952245e-04,
          1.11704292e-02, 1.14999367e-02, -2.44960468e-02,
          -1.26891257e-02, 7.09165912e-03, -1.46967694e-02,
          2.88085057e-03, 4.30625789e-02, 3.42895160e-03,
          -1.43186143e-03, 5.10822656e-03, -1.75332334e-02,
          -5.45474961e-02, -1.91720016e-02, -5.74550778e-02,
          4.80637915e-04, 2.52661109e-02, 3.68547067e-03, 1.93139128e-02,
          2.53944527e-02, -5.88752404e-02, -1.40116448e-02,
          9.61841841e-04, -2.31602490e-02, 4.69671283e-03,
          8.18619970e-03, 4.53929929e-03, 8.05567112e-03, 2.25626249e-02,
          -1.96422115e-02, -4.90690544e-02, -3.41177322e-02,
          -5.95852733e-02, 4.60106926e-03, -2.96399859e-03,
          2.66763545e-03, 4.50422242e-02, 4.39649262e-02,
          -5.03411256e-02, -4.20450158e-02, 5.61011164e-03,
          -1.16905272e-02, 3.32222693e-03, 2.62521561e-02,
          3.39411316e-03, 1.37640210e-02, 1.03970738e-02,
          -4.49022837e-02, -4.59809043e-02, -8.02831911e-03,
          -2.80851014e-02, 1.98499416e-03, 4.55075875e-02,
          1.16185052e-02, -1.75996367e-02, -9.19332821e-03,
          -4.36926484e-02, -1.45861283e-02, -2.47872341e-02,
          -5.53899892e-02, 3.21752834e-03, 1.94923170e-02,
          2.10002437e-03, 5.23574278e-02, 8.01021010e-02,
          -1.22100562e-02, -2.81034783e-02, -4.39755432e-02,
          -7.75401220e-02, 6.35242602e-03, -1.90180801e-02,
          6.96195289e-03, -2.67009176e-02, 1.82993189e-02,
          -2.83550974e-02, -1.81200821e-02, 1.32951594e-03,
          -8.44716374e-03, 8.55487678e-03, -1.46048132e-03,
          9.31095611e-03, -1.80044193e-02, 5.02771745e-03,
          -1.45804398e-02, 2.39134487e-02, 1.62742659e-02,
          3.10097784e-02, 1.42501192e-02, 1.68799125e-02, 1.09531358e-02,
          -1.09986747e-02, 1.35113578e-02, 2.76201330e-02,
          1.64693091e-02, -1.39264427e-02, -2.11885311e-02,
          1.33006899e-02, -9.94190797e-02, 9.82136279e-03,
          -2.01199949e-02, 3.44151806e-04, 1.25643918e-02,
          4.82811332e-02, 2.78749056e-02, 2.31988495e-04, 1.83697436e-02,
          -4.36714888e-02, 1.74807403e-02, 2.51604361e-03,
          -2.97140237e-03, 5.50583526e-02, 9.13390052e-03,
          1.30481767e-02, 3.12970765e-02, 1.21520401e-03,
          -1.49512663e-02, -5.82685287e-04, -2.55425647e-02,
          -1.24007249e-02, 9.34556499e-03, 1.96908303e-02,
          2.81819962e-02, 3.21821608e-02, 8.98982573e-04, 2.52615362e-02,
          -2.26006174e-04, -1.10073760e-02, 7.07491243e-04,
          1.99593510e-02, -4.18462697e-03, 8.90230946e-03,
          -1.88377239e-02, 6.21218060e-05, -7.84487501e-02,
          4.20324686e-05, -3.43825854e-02, -1.97809469e-02,
          -4.56678169e-03, -1.22631444e-02, 3.69604095e-03,
          4.70200408e-04, 2.10108398e-03, -8.62867571e-03,
          -2.97894760e-04, -4.59991433e-02, -2.85131726e-02,
          -1.30973943e-02, 6.96922764e-02, 3.21894996e-02,
          2.71543376e-02, -4.04024700e-04, -5.47571201e-03,
          -8.01324495e-04, -2.91208513e-02, -1.19600547e-02,
          6.91770688e-02, 5.85761480e-02, 2.96745263e-02, 2.16350909e-02,
          7.50892563e-04, -6.51184395e-02, -6.57710363e-04,
          -5.60824908e-02, -2.14831792e-02, 5.53385355e-02,
          -2.16934476e-02, -3.25620710e-03, -1.39845358e-02,
          1.31007482e-03, -1.42308306e-02, -1.24277337e-03,
          -4.10153307e-02, -2.30593961e-02, -2.42527016e-02,
          -2.83022132e-03, -3.37806232e-02, -3.69129963e-02,
          2.93244305e-03, -4.30296436e-02, 4.13518952e-04,
          -3.15341540e-02, -1.13123078e-02, -3.23211169e-03,
          4.16193604e-02, 4.54676561e-02, 2.09347494e-02,
          -9.77054355e-04, -3.48337814e-02, 2.68297154e-03,
          -6.25899285e-02, -2.65860818e-02, 4.05000187e-02,
          2.82153618e-02, 9.76572838e-03, 1.95738729e-02, 4.35150228e-03,
          -2.58340146e-02, 3.37011577e-03, -1.08444635e-02,
          -4.46497416e-03, 2.66471989e-02, 5.77152520e-03,
          -2.51970310e-02, -3.61651704e-02, 1.93097582e-03,
          -6.17115498e-02, 7.65112927e-03, -2.11095754e-02,
          -1.19867118e-03, 1.17137097e-02, 1.53001593e-02,
          8.45994148e-03, 3.42400209e-03, 9.94042028e-03,
          -1.56430081e-02, 3.58411856e-03, 1.09333508e-02,
          3.14262696e-03, 1.07729034e-02, 3.19757994e-04,
          -9.95147694e-03, -8.32277630e-03, 5.09761274e-03,
          -1.32633476e-02, 2.83385185e-03, 2.51542218e-03,
          -4.81792213e-03, -7.30474386e-03, 3.79696896e-04,
          -2.28623440e-03, -2.39813380e-04, 8.39256158e-04,
          -3.21138254e-03, 1.98883424e-03, 9.18546284e-04,
          6.30214228e-04, 4.08453452e-05, -4.64633014e-03,
          -1.21604130e-02, 1.03354054e-02, 6.41004927e-03,
          -1.40719833e-02, -7.43000943e-04, 1.50765954e-02,
          3.69919580e-03, -5.01481025e-03, 3.93725419e-03,
          3.15137464e-03, 8.60804040e-03, -2.43969960e-03,
          -1.46215549e-02, 3.61451181e-03, 4.95901424e-03,
          4.52831527e-03, 5.70654497e-03, 5.27426973e-03, 3.77447647e-03,
          1.91814522e-03, -3.53811076e-04, 3.00815217e-02,
          3.66205495e-04, 1.03243196e-03, 8.12596118e-04, 5.32980449e-03,
          2.05487144e-04, 4.39423462e-03, 7.32376473e-03,
          -3.14281533e-05, 5.37099643e-03, 3.98099255e-05,
          -1.36273203e-03, -1.43561592e-05, 3.42980289e-04,
          4.49515460e-03, 5.45821805e-03, 4.49674344e-03, 4.13351721e-04,
          -7.01896753e-03, 3.73915565e-04, 4.02406603e-03,
          3.42168566e-03, 4.25310200e-03, -7.77370005e-04,
          5.08990546e-04, 1.78852305e-03, 1.39933589e-04, 1.49979183e-04,
          1.55109476e-04, -8.18628934e-04, -9.91193338e-06,
          3.03477311e-04, 3.58356326e-03, 8.10302910e-04, 2.20972928e-03,
          1.31793044e-04, 1.45641053e-02, 5.07042336e-04, 6.16353611e-03,
          3.60041647e-03, 3.79892648e-03, -2.43676142e-04,
          3.81115312e-03, 6.03948859e-03, -2.54830084e-04,
          -5.90448640e-03, 8.30649456e-04, 1.02383764e-02,
          1.62753500e-02, 4.19474178e-04, 2.82864389e-03, 2.63924856e-04,
          7.02300982e-04, 1.41905533e-04, 1.05874874e-02, 3.76867742e-04,
          1.42554590e-03, 5.76584833e-04, 2.78130127e-03, 1.83597137e-03,
          1.91232585e-03, 3.83957173e-03, 2.65012495e-04,
          -5.86191099e-03, 3.58960708e-04, 1.05023487e-02,
          7.03356508e-03, 2.08408036e-03, -1.00134034e-02,
          2.91721406e-03, 3.29390541e-03, -6.41419843e-04,
          -1.52255856e-02, -7.94990640e-03, 1.24003012e-02,
          -4.82496805e-03, -3.25058796e-03, -1.49449147e-02,
          -1.13754934e-02, -1.92356743e-02, -1.58452324e-03,
          3.02894432e-02, -9.58676264e-03, 2.06485521e-02,
          7.46771507e-03, 1.13480480e-03, -6.42723963e-03,
          1.22577301e-03, 2.24965089e-03, 9.14171978e-04,
          -1.35340672e-02, -3.45660519e-04, 1.12537034e-02,
          -5.95674966e-04, -5.70922857e-03, -2.92868447e-02,
          -8.16478021e-03, -1.48390997e-02, -4.39748028e-03,
          7.60946283e-03, 5.52208256e-03, 2.60803644e-02,
          -3.45429842e-04, -2.49986034e-02, -5.11243055e-03,
          -3.25556099e-03, -7.44309044e-03, -8.30692425e-03,
          8.55214987e-03, 9.08442598e-04, 3.18151638e-02, 2.15214007e-02,
          -5.11193229e-03, -4.27737311e-02, -1.54564334e-02,
          -1.83317885e-02, -1.42740821e-02, -5.76197654e-02,
          -5.26249781e-03, 1.86304562e-02, 2.49050707e-02,
          -4.16829139e-02, -4.71086428e-03, -2.53913109e-03,
          -7.01422477e-03, -1.41396176e-03, 1.65867377e-02,
          2.60969647e-03, 3.71825136e-02, 2.98762806e-02,
          -5.92278829e-03, -1.28247207e-02, -9.89966560e-03,
          -1.44418525e-02, -6.78265409e-04, 5.31534180e-02,
          -3.53831638e-07, 3.21524553e-02, 3.37842926e-02,
          -1.47748310e-02, -5.31824268e-02, -1.15369996e-02,
          -2.31925622e-02, -4.42456501e-03, -2.51720306e-02,
          -6.49851572e-04, 4.48931707e-03, 7.01103453e-03,
          -5.77594265e-02, -5.01887538e-02, -3.99782583e-02,
          -5.90965152e-02, -8.00920092e-03, -4.26484942e-02,
          4.26563341e-03, 4.82792035e-02, 7.18531758e-02,
          -5.14142066e-02, -2.67042289e-03, -8.63049366e-03,
          -1.65349599e-02, 3.86803132e-03, 3.50751611e-03,
          2.06029415e-03, 5.80057204e-02, 5.68716452e-02,
          -8.34231090e-04, -7.84092303e-03, -2.20982917e-02,
          -3.42275389e-02, 7.43717828e-04, -6.04478568e-02,
          1.68141199e-03, 8.34253430e-02, 5.46468981e-02,
          -1.32051297e-02, -5.13642877e-02, -1.72732659e-02,
          -5.58578745e-02, 6.27302623e-04, -5.42091504e-02,
          -2.32843170e-03, 7.97216818e-02, 5.08420020e-02,
          -5.40392548e-02, 4.51627839e-03, -3.31570283e-02,
          -6.20939210e-02, -2.85109226e-03, -1.36099815e-01,
          -5.62661327e-03, -1.71522200e-02, 3.25625166e-02,
          4.55246773e-03, 3.71205658e-02, -1.88254323e-02,
          -5.80947436e-02, 6.59117568e-03, -6.10295460e-02,
          4.73205000e-03, 6.78371936e-02, 6.97789788e-02, 3.91645953e-02,
          6.85647875e-02, -2.89993379e-02, -3.03614400e-02,
          1.19769312e-02, -1.18835114e-01, -5.73455298e-04,
          5.21204807e-02, 5.58574423e-02, 7.60034099e-02, 3.88864130e-02,
          -3.10641695e-02, -2.52930820e-02, 1.98038341e-03,
          -1.17310397e-01, 3.49335279e-03, -4.41956148e-03,
          1.29724825e-02, 3.70022692e-02, 5.54168597e-02, 8.74608755e-04,
          -2.04259828e-02, 1.28774962e-03, -1.34276554e-01,
          3.32307583e-03, -4.76145279e-03, 6.96983479e-04,
          5.47585972e-02, 7.06524327e-02, -1.68200098e-02,
          -2.77238153e-02, 6.77893450e-03, -1.16583392e-01,
          1.92747335e-03, 3.69373187e-02, 6.18400015e-02, 7.16229379e-02,
          7.76755288e-02, 1.94813963e-03, -1.04494682e-02,
          8.55524186e-03, -1.01038121e-01, 7.01632863e-03,
          4.16535847e-02, 5.09888418e-02, 7.84866661e-02, 9.17302072e-03,
          1.39817083e-02, -1.05900420e-02, 1.62919998e-04,
          -8.61593932e-02, -2.43830122e-03, -3.85129405e-03,
          9.61702783e-04, 9.64272860e-03, -2.81746928e-02,
          -2.56119436e-03, 2.27451348e-03, 1.76829507e-03,
          -4.82559167e-02, -1.00273138e-03, -3.79841439e-02,
          -2.05090847e-02, -2.87125818e-02, 5.07796668e-02,
          -5.53028379e-03, -8.62947293e-03, 1.09662523e-03,
          -5.28697595e-02, 5.69683500e-04, 3.44776511e-02,
          2.48844549e-02, 5.17393313e-02, 2.97472011e-02, 3.76051627e-02,
          1.77793819e-02, 1.66776625e-03, -3.63010019e-02,
          2.72282702e-03, -7.12146005e-03, 2.45613744e-03,
          2.88369022e-02, -1.05183152e-02, -2.01529777e-03,
          -1.11406045e-02, 1.60333533e-02, -8.32730532e-03,
          -1.42197357e-03, -4.36983928e-02, -2.29637995e-02,
          -3.15091759e-02, -2.48493385e-02, -1.46269565e-02,
          -3.31678577e-02, 7.84271583e-03, 2.80689262e-02,
          7.57807959e-03, -1.68025736e-02, -6.43844716e-03,
          -3.56252454e-02, 2.94214617e-02, 2.89783105e-02,
          3.50494012e-02, 1.05557600e-02, -4.03438043e-03,
          1.54104747e-03, -8.42717011e-03, -5.72883198e-03,
          2.27257330e-02, 1.11352876e-02, 2.00660117e-02, 1.10034933e-02,
          7.00863916e-03, 3.01003773e-02, 3.55511392e-03,
          -6.94626477e-03, -9.02601797e-03, 4.96863108e-03,
          -1.86186396e-02, -3.98967676e-02, -3.87224406e-02,
          3.08235711e-03, 9.41512268e-03, 1.71698127e-02, 1.72559914e-04,
          1.54507998e-02, -6.81106886e-03, 1.47881880e-02,
          5.18987980e-03, 3.72193917e-03, 1.60608869e-02, 3.02986763e-02,
          -7.31926484e-05, 5.90108382e-03, 1.36104086e-02,
          1.38088567e-02, 3.18014063e-03, 3.06786993e-03,
          -1.91108417e-03, 3.13403085e-03, 2.56497432e-02,
          2.50887126e-03, -2.83677084e-03, 5.30966325e-03,
          8.46668985e-03, 1.20327370e-02, 7.01354025e-03, 1.97285675e-02,
          6.12322101e-03, 1.75001230e-02, -8.97122780e-04,
          -3.19464481e-03, 7.16860173e-03, 9.02384426e-03,
          -7.29413517e-03, 8.72856064e-04, 1.78029668e-02,
          2.36510881e-03, 2.11100709e-02, -1.26818409e-02,
          -6.36261143e-03, -3.22862365e-03, -1.69735905e-02,
          -4.85796249e-03, 2.78339582e-03, 1.23131210e-02,
          -1.61183404e-03, -2.20022500e-02, 1.50976586e-03,
          4.33034869e-03, 6.22678967e-03, -4.12034849e-03,
          -3.74703808e-03, 2.91803712e-03, 8.52504559e-03,
          2.89878668e-03, 1.01863546e-02, -2.63307942e-03,
          1.62718364e-03, 1.61462335e-03, -8.75946600e-03,
          -3.88620817e-03, 3.44734150e-03, 7.27974996e-03,
          -3.81021266e-04, -8.98778345e-03, 2.52334605e-04,
          2.12994404e-03, 2.34523229e-03, -4.53489274e-03,
          8.45305622e-03, 8.94164480e-03, 9.02264006e-03, 2.10233778e-03,
          -9.39644128e-03, 3.54600977e-03, 4.48722020e-03,
          -6.69346482e-05, 6.50391309e-03, -1.75507157e-03,
          4.55063157e-04, -2.79621501e-03, 1.57532911e-03,
          2.67577614e-03, 1.69816636e-03, 3.48878093e-03,
          -2.98261293e-04, -1.02622120e-03, -5.64403417e-05,
          1.65369827e-03, 3.89542943e-03, 2.33779923e-04,
          -2.20816527e-02, 8.64403031e-04, 3.73985793e-04,
          -3.65054293e-04, -1.60115783e-03, -7.32110231e-04,
          -4.95224667e-04, -1.81389856e-03, 7.14614216e-05,
          -1.76852767e-03, 3.88835440e-04, 1.05812203e-03,
          1.77505048e-04, -7.11711124e-04, 1.11120548e-02,
          3.15042620e-04, 2.48105614e-04, 2.42168404e-04, 6.83446229e-03,
          6.49097608e-04, 2.45794305e-03, 1.14664563e-03, 1.10578993e-02,
          9.76239052e-03, 5.34725899e-04, 4.00410063e-04, 4.09375207e-04,
          1.51366834e-02, 5.03413321e-04, 4.79769567e-03, 7.07972189e-03,
          9.40571912e-03, 1.84734433e-03, 1.33988375e-04, 7.26420549e-05,
          9.80876139e-05, 4.88350401e-03, 1.04155240e-03, 2.96249520e-03,
          1.33838516e-03, 1.95720582e-03, 6.23567635e-03, 8.35605490e-04,
          2.09915423e-04, 6.11286436e-04, 1.47381471e-02, 5.67268522e-04,
          9.04909335e-03, 6.46724319e-03, 5.44308638e-03,
          -8.70319363e-03, 2.21029099e-04, -5.06738143e-04,
          4.56546957e-04, -5.95753128e-03, -2.92588520e-04,
          8.48970469e-03, 3.25699756e-03, -8.61279201e-03,
          -2.85100061e-02, 2.08407233e-04, -1.13517819e-02,
          -1.22741276e-05, 6.43146178e-03, 1.34390453e-03,
          2.68741027e-02, 2.40950566e-02, -2.51585189e-02,
          4.44684410e-03, -3.16960795e-04, -1.33254449e-03,
          -1.02305342e-03, 3.70115065e-03, 6.94541261e-04,
          9.11359675e-03, 6.97484706e-03, 4.79686866e-03, 1.45111326e-02,
          5.00720041e-03, -3.16138333e-03, 6.12985063e-03,
          1.05253672e-02, -7.30312779e-04, 1.02453167e-02,
          6.11092150e-03, 7.42373057e-03, 1.59117840e-02,
          -2.88249273e-03, -7.80502800e-03, -4.10025590e-04,
          5.63350925e-03, 6.81272242e-04, 3.12444046e-02, 1.43853780e-02,
          1.60751417e-02, -2.58428920e-02, -8.17396026e-03,
          -1.64945778e-02, -9.94652277e-04, -4.88334559e-02,
          -2.53778487e-03, 5.58349229e-02, 5.86420149e-02,
          -2.66821980e-02, 9.42774350e-04, -4.48347826e-04,
          -1.83775497e-03, -3.70689886e-05, 7.75120361e-03,
          6.67729590e-04, 2.18361076e-02, 1.58964209e-02, 7.67541758e-04,
          4.40425265e-06, -2.10025301e-03, -5.35318861e-03,
          -9.73185874e-04, 1.34928497e-02, 4.30134707e-04,
          4.59521860e-02, 3.08023524e-02, 1.64320838e-04,
          -1.21152913e-02, -1.03830248e-02, -1.45450300e-02,
          2.26693810e-03, -3.75514552e-02, -4.73736646e-03,
          3.54401506e-02, 1.90580823e-02, -1.39384381e-02,
          -1.20161539e-02, -1.67964231e-02, -3.48748304e-02,
          -1.86259614e-03, -9.16909277e-02, -1.02245808e-03,
          5.73092662e-02, 6.40285313e-02, -1.58328228e-02,
          1.06591256e-02, -4.36457747e-04, -6.40897360e-03,
          -5.06525859e-04, -6.27390482e-03, -2.78501259e-03,
          4.78878655e-02, 3.41130830e-02, 8.56365077e-03,
          -1.48309516e-02, -4.38263454e-03, -1.45450933e-02,
          4.42894734e-03, -5.43653443e-02, 6.57738699e-03,
          2.24219970e-02, 1.59397684e-02, -1.38887791e-02,
          3.21544185e-02, -1.97697561e-02, -4.08333093e-02,
          6.38496771e-04, -7.06760883e-02, 5.21105248e-03,
          4.87134643e-02, 2.90589482e-02, 3.13036554e-02, 7.61713907e-02,
          -2.57949457e-02, -2.56926510e-02, -9.77309886e-04,
          -1.91173077e-01, -2.52378942e-03, 3.32582579e-03,
          4.56855595e-02, 7.50548244e-02, 4.03095819e-02,
          -1.36286020e-03, -9.69212782e-03, 1.51037774e-03,
          -2.07794532e-02, 7.99948908e-03, 4.25939225e-02,
          3.99206989e-02, 4.13627140e-02, 1.56765785e-02, 2.42925622e-03,
          -1.33400261e-02, 5.02896309e-03, -9.39176306e-02,
          2.16898508e-03, -5.02324896e-03, 5.51762665e-03,
          9.68384370e-03, 3.84915881e-02, -3.69784683e-02,
          -4.06952538e-02, -1.04067882e-03, -1.30436718e-01,
          -4.51564207e-04, 2.66364906e-02, 2.51823049e-02,
          3.68219838e-02, 8.96515399e-02, -9.28891636e-03,
          -2.72705480e-02, 1.89378229e-03, -1.03363805e-01,
          9.41752107e-04, 3.78012955e-02, 3.07381004e-02, 8.90163556e-02,
          -2.37010457e-02, -9.86456289e-04, -9.48459376e-03,
          -6.73166869e-05, -5.82152829e-02, 1.31400395e-03,
          -2.02067532e-02, -1.75328855e-03, -2.50284094e-02,
          -3.04115191e-02, 5.06263832e-03, -1.16456244e-02,
          5.98265463e-03, -4.02552783e-02, -3.96752643e-04,
          -2.70801373e-02, -8.25764798e-03, -3.21147218e-02,
          4.69922423e-02, -2.93837711e-02, -3.53190191e-02,
          -1.31189037e-04, -7.54346251e-02, 1.47776445e-03,
          1.20433355e-02, 7.04141846e-03, 4.57568280e-02, 3.45244482e-02,
          2.33664233e-02, 2.41763182e-02, 1.92244153e-03,
          -4.07638252e-02, 1.58814166e-03, 2.41549592e-03,
          7.60862255e-04, 3.12223807e-02, -3.85316950e-03,
          -9.37749911e-03, -2.52658557e-02, 1.92342058e-03,
          -9.65271369e-02, 3.64839449e-03, -2.95563377e-02,
          -9.67899244e-03, -3.37454537e-03, 4.56678718e-02,
          2.20292676e-02, 1.91095322e-02, 1.84214173e-03,
          -1.44387344e-02, 2.21792865e-03, -5.93171408e-03,
          -2.04935856e-03, 4.07430716e-02, 8.92194919e-03,
          4.90439571e-02, 5.22524863e-02, 5.83965192e-03,
          -2.62077469e-02, -1.01572471e-02, -2.31660288e-02,
          -1.22390902e-02, 1.39660842e-03, 1.34969491e-03,
          1.29966596e-02, 3.11465263e-02, 1.22782565e-03,
          -9.82467644e-03, -2.33512535e-03, -1.36947986e-02,
          -1.05896629e-02, 7.16001086e-04, 2.54551899e-02,
          1.26086958e-02, 1.35812564e-02, -7.08855689e-04,
          -4.11225893e-02, -1.85387824e-02, -1.16601093e-02,
          -9.33490787e-03, 1.87489167e-02, 1.24001214e-02,
          6.88916771e-03, 1.47264777e-02, -2.87707848e-03,
          -1.93544123e-02, -4.72605228e-03, -2.80998473e-04,
          -6.39947830e-04, 1.04273455e-02, 6.68452075e-03,
          1.58075858e-02, 1.48543064e-02, -5.18856104e-04,
          4.62099584e-03, -1.28509462e-04, -4.52040881e-03,
          -1.83674670e-03, 6.24578167e-03, -1.78381130e-02,
          4.81011812e-03, 1.46636264e-02, -9.74726514e-04,
          2.50799960e-04, -4.06251318e-04, 1.27078278e-03,
          2.38551875e-04, -1.82097945e-02, 1.19624082e-02,
          5.32084471e-03, 1.24133509e-02, 3.16296238e-04, 2.17537247e-02,
          -2.78267282e-04, 4.00472851e-03, 1.01460016e-03,
          9.16945934e-03, 5.93986828e-03, 5.01742586e-03, 6.38126349e-03,
          -1.82366418e-03, -9.38240380e-04, 5.75765793e-04,
          4.18075547e-03, 1.64879556e-03, 5.23416232e-03,
          -1.65360272e-02, 6.74350373e-03, 1.32438708e-02,
          3.74568347e-03, 9.36013646e-03, -1.60082604e-03,
          1.11582791e-02, 5.58063108e-03, -1.92388967e-02,
          -1.99273638e-02, 3.75839206e-03, 7.18382839e-03,
          2.13303627e-03, 8.78378935e-03, -7.40830612e-04,
          1.93680846e-03, 1.58854038e-03, -2.08130665e-02,
          1.18552111e-02, 7.53990142e-03, 3.77568929e-03, 3.02396785e-03,
          3.96606792e-03, 7.13634491e-03, 1.21709788e-02, 9.37279593e-03,
          8.56544822e-03, 4.42500971e-03, 2.24098563e-03, 3.37362406e-03,
          3.33988527e-03, 1.48793682e-03, 2.31294893e-03, 1.51785940e-03,
          3.14555736e-03, 2.60169199e-03, -3.41464067e-03,
          4.64509707e-03, 5.84240397e-03, 3.52145493e-04, 3.25999819e-02,
          4.50965425e-04, 8.52299199e-05, 3.50379385e-04,
          -3.31208785e-03, 1.50212122e-03, 5.69841533e-04,
          2.54486280e-04, 7.25125545e-04, -3.36742168e-03,
          2.82564375e-04, 1.51118293e-04, 3.09690018e-04, 1.46797823e-03,
          1.10674778e-03, 1.22710248e-03, 2.74088769e-03, 3.82752449e-04,
          1.68910399e-02, 2.60852306e-04, 1.25857303e-04, 5.09880192e-04,
          1.49370695e-03, 1.01078069e-03, 5.53581049e-04, 2.23867581e-04,
          1.27762405e-03, -3.74232535e-03, 1.96884193e-05,
          2.96064409e-05, 1.02905389e-04, 7.07019528e-04, 3.19307693e-03,
          -1.08437511e-04, -4.12716327e-06, 4.40742333e-05,
          5.41922403e-03, 1.37417775e-03, 3.91152594e-03, 2.11815466e-03,
          4.64168377e-03, 5.01853507e-03, -7.25995167e-04,
          -8.72894743e-05, 1.07511843e-03, 4.00021719e-03,
          8.84397887e-04, 9.87560675e-03, 1.06035909e-02, 5.39851002e-03,
          3.38058779e-03, -2.77966523e-04, -8.02162031e-05,
          1.55443468e-05, 5.54484082e-04, -6.56075790e-05,
          -8.79156869e-05, -1.63146251e-04, 3.88680911e-03,
          6.58632908e-03, 1.51312246e-03, 4.98239696e-03, 3.10163625e-04,
          -1.39482075e-03, 1.49819098e-04, 6.68310560e-03,
          1.38142239e-03, 6.29519252e-03, -7.12489185e-04,
          -7.04560254e-04, -2.11620762e-04, -1.92302268e-03,
          8.50214798e-04, 2.33107782e-03, 6.47902628e-03, 3.80588602e-03,
          -2.50457470e-05, 1.34732574e-02, 3.35335312e-03,
          5.73655171e-03, 5.57665713e-03, 1.50167728e-02, 1.25052826e-02,
          1.25872856e-02, 1.77058671e-02, 8.55061226e-03, 5.02793817e-03,
          9.72650072e-04, 9.17075784e-04, -2.66204122e-04,
          7.00777455e-04, 8.18035449e-04, 8.30168370e-03, 5.48604736e-03,
          5.31521440e-03, 8.13586917e-03, -5.53289615e-03,
          -5.53651538e-04, 2.63445720e-04, 9.32172500e-03,
          6.00541802e-03, 1.40980696e-02, 7.34983291e-03, 1.01807211e-02,
          -3.44215264e-03, 2.06169614e-04, -5.78248780e-03,
          1.08213327e-03, -1.60067750e-03, 2.22381111e-03,
          9.44335759e-03, 2.16895086e-03, -2.37566046e-03,
          -2.76724086e-03, -1.09146477e-03, -8.90458561e-03,
          -5.50660770e-03, 1.31859556e-02, 8.54460872e-04,
          4.18055430e-02, 3.35390121e-02, 7.24396959e-04, 4.53719869e-03,
          -1.71602494e-03, -3.41869029e-03, 3.69559595e-04,
          4.62583127e-03, 4.60863928e-04, 1.37929693e-02, 1.06637403e-02,
          5.59412688e-03, -2.76752887e-03, -3.43027459e-05,
          -4.26753657e-03, -2.05413625e-03, -4.48225215e-02,
          -9.38292826e-04, 1.68479178e-02, 8.65109451e-03,
          -2.00433242e-05, -6.86023501e-04, -2.32830504e-03,
          -7.74780661e-03, -8.65348615e-03, -7.57176243e-03,
          3.36981751e-03, 4.40436788e-02, 1.02892695e-02, 3.12537281e-03,
          1.33876270e-02, 2.16699278e-04, -3.09152268e-02,
          -9.00128484e-03, -4.64334749e-02, 7.99547881e-03,
          4.92425933e-02, 2.33466960e-02, 1.46885635e-02, 1.63838838e-03,
          -2.03696010e-03, -4.32167947e-03, -3.19275795e-03,
          -2.36664489e-02, 1.65066554e-03, 1.57317352e-02,
          1.20869139e-02, 6.54667430e-03, -4.41140495e-03,
          -1.52362250e-02, -2.10263971e-02, -9.94943921e-03,
          -5.27086109e-02, -3.84507445e-03, 1.41672352e-02,
          8.35274626e-03, 7.26473285e-03, 2.83505917e-02, 1.00750681e-02,
          -6.80317776e-03, 5.90424519e-03, -6.55774912e-03,
          -3.10975796e-04, 3.22635770e-02, 2.13523936e-02,
          3.70939933e-02, 1.25952512e-02, 1.79957598e-02,
          -7.02713616e-04, 1.35448119e-02, -9.55452770e-02,
          1.90024567e-03, -1.42446440e-02, -1.87557843e-02,
          9.04020015e-03, 1.51492767e-02, -5.90305834e-04,
          -5.88567369e-03, -1.90138456e-03, -9.06074233e-03,
          -9.74719587e-04, 1.11156283e-02, 1.31710377e-02,
          1.90500449e-02, 8.09371844e-03, 3.00251180e-04,
          -9.37841274e-03, 2.93778931e-03, -3.19035612e-02,
          -1.09049422e-03, -1.68577861e-02, -5.48547413e-03,
          1.24847135e-02, -9.69459023e-03, 2.22441107e-02,
          1.24292932e-02, 1.39786750e-02, -6.57369662e-03,
          5.43543603e-03, -3.09642777e-02, -1.45028606e-02,
          -1.08582377e-02, -2.70337816e-02, 2.19908846e-03,
          -6.32545585e-03, 1.81659535e-02, 7.28918333e-03,
          7.98087753e-03, -3.65191922e-02, -5.58398059e-03,
          -2.17308160e-02, -8.99150036e-03, -3.24087613e-03,
          -6.92385295e-03, 1.99519726e-03, -2.87155844e-02,
          1.76355141e-04, -2.47019716e-02, -1.39892893e-02,
          -2.56940140e-03, -3.77599313e-03, 2.89427885e-03,
          2.35474276e-04, -5.30016550e-04, 4.99507505e-03,
          4.18130681e-03, -1.14994682e-02, 3.37666692e-03,
          1.58535514e-03, -8.11437331e-03, -5.99873392e-03,
          -1.28764799e-02, 4.84860362e-03, -2.75659002e-02,
          1.18400473e-02, -2.13834886e-02, -2.03229692e-02,
          -9.40045435e-03, 4.19017188e-02, 8.50536046e-04,
          6.70060050e-04, 2.99808476e-03, -6.22691493e-03,
          1.25450846e-02, -3.85363586e-03, -1.78241692e-02,
          4.02631089e-02, -7.73677323e-03, 7.59703014e-03,
          9.61796264e-04, -1.20267004e-03, -3.75407971e-02,
          2.53306166e-03, -6.04786491e-03, -7.57646281e-03,
          -9.03879851e-03, 2.47266120e-03, -1.59269711e-03,
          3.31354677e-03, 2.97086383e-03, 2.81334925e-03, 1.78646005e-03,
          -8.44480749e-03, -1.04395393e-02, 2.25021387e-03,
          5.31352907e-02, 1.85773848e-03, 1.23811245e-03, 2.45493092e-02,
          -2.48490237e-02, -8.29913560e-03, -1.76120782e-03,
          -1.46283023e-02, 4.48129512e-02, 2.05598325e-02,
          5.08695794e-03, 1.32887659e-03, 8.72109365e-03,
          -7.29685742e-03, -3.23261297e-03, 2.78256135e-03,
          -9.64419683e-04, 1.49461674e-02, -1.88614940e-03,
          -9.23839211e-03, 5.04546240e-03, 2.35293079e-02,
          -2.18177121e-02, -5.03569702e-03, -1.35567794e-02,
          -6.80358335e-03, -9.88815809e-05, 1.93197432e-03,
          -3.96778435e-03, -6.36823708e-03, 9.00649186e-03,
          -2.24506650e-02, -3.39734531e-03, -8.89474293e-04,
          -5.38432447e-04, 1.60049601e-03, 1.49013177e-02,
          9.60001908e-03, 9.29883588e-03, 2.42696307e-03, 4.82793257e-04,
          -4.64566081e-04, 3.34887276e-03, 9.12704738e-04,
          9.08422656e-03, 6.71900669e-03, 8.48120172e-03, 3.57613200e-03,
          7.22410332e-04, -3.98604851e-03, 3.63004394e-03,
          8.72599892e-03, 9.34646372e-03, 5.29753231e-03, 4.44731349e-03,
          1.46664679e-03, -6.25578628e-04, -1.88930309e-04,
          -2.13187877e-02, -3.07448907e-04, -4.28966916e-04,
          3.38760263e-04, 3.60751082e-03, -2.73866765e-03,
          2.07252824e-03, -1.39074540e-03, 1.80743565e-03,
          -5.60837938e-03, 1.74704776e-03, -5.97717182e-04,
          2.24791863e-03, -2.40028556e-03, 1.40142459e-02,
          1.20478384e-02, 2.33465293e-03, 9.00703948e-03, 7.10794237e-03,
          4.55185724e-03, 6.86555356e-03, 8.53373948e-03, 1.21266497e-02,
          3.06376955e-03, -1.08377379e-03, 8.13575229e-04,
          5.46813011e-03, 3.83354910e-03, 1.30723859e-03, 6.39109232e-04,
          2.72105797e-03, 2.39731767e-03, 9.25742497e-04, 5.48527343e-03,
          1.46435748e-03, 5.89026790e-03, 3.42951063e-03, 2.03290954e-03,
          -5.22701594e-05, 8.97609338e-04, 5.18370303e-04,
          -1.23504549e-03, -9.80544137e-04, -9.73432616e-04,
          2.94452161e-03, -5.95900172e-04, -1.04660910e-04,
          -4.44716495e-03, -1.50531286e-03, -1.21780334e-03,
          1.16444018e-03, 7.20189128e-04, -7.91688159e-04,
          5.46372088e-04, 2.95276809e-02, 2.93494784e-04, 3.07223207e-04,
          4.63889446e-04, 1.07023737e-03, 8.41629284e-04, 2.64741690e-03,
          1.40770129e-03, 1.79123983e-03, 8.22770962e-05,
          -5.99081159e-06, 9.04442160e-04, 3.47746565e-04,
          -1.10191479e-03, -2.80464697e-03, -1.82848642e-04,
          -2.11381796e-03, 3.34659053e-05, 1.49045791e-02,
          5.42787893e-06, -3.19605460e-03, -1.71763927e-03,
          -3.10511491e-03, -4.32568137e-03, 8.83953995e-04,
          5.12052386e-04, 1.90037666e-04, -8.59797583e-04,
          -4.19356875e-05, -2.85511045e-03, -1.29958987e-03,
          -5.46576362e-03, 7.56215677e-03, 5.41844522e-04,
          1.74608047e-03, 1.95568555e-05, 2.77565466e-03, 1.26864443e-05,
          7.64396740e-04, 2.60430679e-04, 7.60878855e-03, 1.18117854e-02,
          1.08331081e-03, 3.24159185e-03, 5.27542834e-05, 1.84688810e-02,
          1.07113978e-04, 2.14349618e-03, 1.64116512e-03, 1.17865736e-02,
          -2.74521099e-05, 1.71670090e-05, 2.76146369e-04,
          8.08098557e-05, 3.75430426e-03, 4.63904180e-05, 9.67548385e-06,
          2.37578170e-05, 1.35208575e-05, 3.80078360e-04,
          -4.53656027e-03, -3.12457886e-03, 1.87002544e-04,
          1.71238407e-02, 2.80709879e-04, 1.87630381e-03, 6.69253583e-04,
          3.79579258e-04, 1.01907775e-04, 1.07657502e-03, 7.96788023e-04,
          4.45492449e-04, 7.94155430e-03, 2.17925364e-04, 4.78528626e-03,
          2.38193152e-03, 1.36305069e-04, 2.55927537e-02,
          -2.18280300e-04, 1.31147704e-03, 2.16761162e-03,
          1.21209938e-02, 3.80098657e-03, 1.30025251e-02, 1.03850923e-02,
          2.53657904e-02, 1.88416662e-03, -1.30960601e-03,
          -9.56296921e-04, 8.92695156e-04, 6.21397980e-03,
          1.74110828e-04, 2.15431117e-03, 1.03801396e-03, 1.80031429e-03,
          6.59972522e-03, 1.18011003e-03, -3.10638221e-04,
          3.79693578e-03, 9.17358138e-03, 2.78322469e-03, 7.35416729e-03,
          4.42344975e-03, 7.27362232e-03, 2.33100429e-02,
          -3.59774870e-03, -3.87895480e-03, 2.80917913e-04,
          2.81426520e-03, 8.37610045e-04, 1.21127795e-02, 7.10501615e-03,
          2.33582444e-02, 1.82726141e-02, -3.30941664e-04,
          -2.26530829e-03, 3.16766702e-04, -4.24404368e-02,
          1.59166564e-04, 2.03304682e-02, 1.58458017e-02, 1.81312766e-02,
          5.17007755e-03, -7.50819803e-04, -3.69736436e-03,
          3.22563981e-04, 5.26055973e-03, 1.07355823e-03, 9.00086854e-03,
          4.28989297e-03, 5.12447720e-03, 7.61311688e-03, 1.63444690e-03,
          1.09542243e-03, 6.25665241e-04, -4.68858965e-02,
          6.90725108e-04, 1.13757327e-02, 7.10545946e-03, 7.07687763e-03,
          9.69173969e-04, -8.12198501e-04, -1.43789675e-03,
          -2.94319959e-03, -1.96362808e-02, -2.06230499e-04,
          1.15489559e-02, 4.68386710e-03, 1.13285368e-03,
          -1.69262022e-03, -9.41067282e-03, -1.64915677e-02,
          -8.07445869e-03, -4.08361703e-02, 2.24194792e-03,
          1.27033482e-03, 2.29412224e-03, -1.36935466e-03,
          9.13556723e-04, 1.20355406e-04, 4.93718137e-04,
          -2.61488580e-03, -1.10439491e-03, -2.94376980e-03,
          1.11922817e-02, 7.31343683e-03, 5.84039080e-04,
          -2.10190639e-02, -2.55831308e-03, -1.12844473e-02,
          -4.30071494e-03, -2.10796222e-02, -9.78421420e-03,
          -2.28999229e-03, -1.03145640e-03, -2.17582006e-02,
          3.31605338e-02, -5.51198318e-04, -2.22592219e-03,
          -3.67586908e-04, -8.44822358e-03, 5.37615211e-04,
          -2.03621201e-03, 8.38472683e-04, 3.40265036e-02,
          8.24847352e-03, -3.06097115e-03, -7.27411918e-03,
          -7.56086723e-04, -2.80241314e-02, -5.10414306e-04,
          -2.08586846e-02, -6.40007434e-03, 8.49816203e-03,
          -8.07753485e-03, 2.23753508e-04, -6.19038066e-04,
          -1.79367460e-04, 6.06259936e-03, 1.22975442e-04,
          5.52001549e-03, 4.12275689e-03, -8.39252397e-03,
          -1.96210872e-02, -2.56771687e-04, -1.40372431e-03,
          -4.11055895e-04, -2.01003198e-02, -7.12193665e-04,
          -1.20814107e-02, -7.73914997e-03, -1.99469235e-02,
          -2.70396908e-04, -6.45913230e-03, -1.58262607e-02,
          5.81366126e-04, -2.80003957e-02, 8.47741685e-05,
          -1.62191205e-02, -3.58490925e-03, 7.59485469e-04,
          4.19140048e-03, -1.11481245e-03, -1.11969719e-02,
          1.90213718e-03, -1.17093194e-02, 1.25308591e-03,
          4.47335624e-04, 4.15705889e-03, 4.12289798e-03,
          -1.82472002e-02, -3.90646223e-04, -3.50287743e-03,
          1.71909155e-03, -1.05641326e-02, -1.86259771e-04,
          -9.67792142e-03, -6.65402645e-03, -1.92036293e-02,
          -9.92054958e-03, 9.92444926e-04, -3.42914485e-03,
          2.97983596e-03, 2.97841121e-04, 5.75187383e-04,
          -5.10176830e-03, -2.18315725e-03, -1.21483188e-02,
          -1.14070801e-02, 3.02659930e-03, -8.40187632e-03,
          4.36502334e-04, -3.30149122e-02, 1.32138515e-03,
          1.33773556e-03, 1.27153390e-03, -1.11022349e-02,
          1.75146759e-02, -2.97957286e-03, -5.02852025e-03,
          1.05029170e-03, -1.72214378e-02, 1.83097401e-03,
          1.49195443e-03, 4.30562766e-03, 1.77747495e-02,
          -1.11355148e-02, -2.54740962e-03, -1.04114115e-02,
          5.92227268e-04, -2.58391201e-02, 1.02552120e-03,
          3.48859769e-03, 3.06727481e-03, -1.05352951e-02,
          -3.75860720e-03, -2.59237783e-03, -6.15325943e-03,
          2.16138363e-03, 3.94789036e-03, 1.53804244e-03, 8.37513339e-03,
          7.42092403e-03, -3.52572952e-03, 1.00773829e-03,
          -7.83707201e-03, -7.34051736e-03, 2.62733386e-03,
          -1.25740515e-02, -6.04450470e-04, 2.68317200e-03,
          5.52758866e-04, 2.04301695e-03, 1.01491660e-02,
          -2.25223089e-03, -3.67500423e-03, 7.28768180e-04,
          -1.16464607e-02, -7.18495343e-04, 3.46983247e-03,
          8.28468255e-05, 1.08645000e-02, -7.44533259e-04,
          -7.12177902e-03, -1.44719454e-02, -1.15747051e-03,
          -2.08015251e-03, 5.88812772e-03, 1.44900270e-02,
          9.35197063e-03, 7.79375550e-04, 3.46590835e-03,
          -6.32621755e-04, -2.11726618e-03, -2.25581252e-03,
          4.44230810e-03, 1.26457936e-03, 7.08999904e-03, 2.73075583e-03,
          4.16101608e-03, 1.55228786e-02, 1.62328884e-03, 7.62353011e-04,
          2.81296001e-04, -2.25180443e-02, 3.20969411e-04,
          1.08408497e-03, 1.02156179e-03, 1.54761896e-02, 9.39612370e-03,
          8.88934126e-04, -3.75188538e-04, 1.88427139e-03,
          -7.81577080e-03, 7.00058416e-04, 2.88041861e-04,
          7.29673658e-04, 9.39252041e-03, 4.54321317e-03, 6.48521120e-04,
          2.71086843e-04, 8.08588171e-04, -7.46903848e-03,
          4.88113583e-04, 5.43092238e-03, 3.06304824e-03, 5.65619161e-03,
          1.50976994e-03, 8.89142277e-04, 3.84709274e-04, 3.39128519e-03,
          -2.64207437e-03, 3.52952949e-04, 1.60806361e-04,
          2.84391543e-04, 1.50887144e-03, 1.30851492e-02, 1.40522886e-03,
          1.53055403e-03, 3.79343610e-03, 2.00890028e-03, 2.30587274e-03,
          8.38357722e-04, 3.66349297e-04, 1.28376391e-02,
          -4.29738458e-04, -2.62651767e-04, 2.48404103e-04,
          9.12964169e-04, -3.96428816e-03, 5.75457176e-04,
          -5.54344105e-03, -5.39925322e-03, -3.89775931e-04,
          4.10348782e-03, 4.56663081e-04, 1.30795373e-03, 4.61262139e-03,
          5.52167837e-03, 2.27632280e-03, 1.85809971e-03, 5.46284486e-04,
          3.88457230e-03, 1.14152778e-03, -7.40997260e-04,
          2.10459530e-05, 3.61496466e-04, 4.97779856e-03, 1.37871108e-03,
          -1.69000099e-03, -5.64770075e-04, 1.28429045e-03,
          -2.77040736e-03, -2.07369521e-04, -5.43916132e-04,
          -1.02362546e-05, 5.31434035e-03, -1.97310583e-05,
          -3.58277489e-03, -2.20732857e-03, -2.86678225e-03,
          -1.21358770e-03, -7.59454088e-06, -3.34363818e-07, 0.,
          -5.70566335e-04, -2.64467035e-05, -3.58277489e-03,
          -2.04860698e-03, -1.21358770e-03, -8.24358838e-04,
          -9.12554679e-05, -1.89871880e-05, -5.32511922e-06,
          1.13289952e-02, 0., -7.17960473e-04, -2.39930378e-04,
          -8.62017856e-04, -3.58277489e-03, -5.48384523e-05,
          -1.01403575e-05, -1.59543870e-05, -1.09048568e-04, 0.,
          -7.37862138e-04, -2.46581185e-04, -3.58277489e-03 ]
      - [ 0., 0., 0., 0., 0., 0., 0., 0., 0., 0., 0., 0., 0., 0., 0., 0.,
          0., 0., 0., 0., 0., 0., 0., 0., 0., 0., 0., 0., 0., 0., 0., 0.,
          0., 0., 0., 0., 0., 0., 0., 0., 0., 0., 0., 0., 0., 0., 0., 0.,
          0., 0., 0., 0., 0., 0., 3.57578788e-03, 0., 0., 0., 0., 0., 0.,
          0., 3.57578788e-03, 1.23957489e-02, 0., 0., 0., 0., 0., 0., 0.,
          1.23957489e-02, 0., 0., 0., 0., 0., 0., 0., 0., 0., 0., 0., 0.,
          0., 0., 0., 0., 0., 0., 1.35157928e-02, 0., 0., 0., 0., 0., 0.,
          0., 1.35157928e-02, 4.91624232e-03, 0., 0., 0., 0., 0., 0., 0.,
          4.91624232e-03, 0., 0., 0., 0., 0., 0., 0., 0., 0., 0., 0., 0.,
          0., 0., 0., 0., 0., 0., -3.10199941e-03, 0., 0., 0., 0., 0.,
          0., 0., -3.10199941e-03, 7.44721806e-03, 0., 0., 0., 0., 0.,
          0., 0., 7.44721806e-03, 0., 0., 0., 0., 0., 0., 0., 0., 0., 0.,
          0., 0., 0., 0., 0., 0., 0., 0., 8.40267260e-03, 0., 0., 0., 0.,
          0., 0., 0., 8.40267260e-03, -1.10888369e-02, 0., 0., 0., 0.,
          0., 0., 0., -1.10888369e-02, 0., 0., 0., 0., 0., 0., 0., 0.,
          0., 0., 0., 0., 0., 0., 0., 0., 0., 0., -2.96317320e-03, 0.,
          0., 0., 0., 0., 0., 0., -2.96317320e-03, -1.76366009e-02, 0.,
          0., 0., 0., 0., 0., 0., -1.76366009e-02, 0., 0., 0., 0., 0.,
          0., 0., 0., 0., 0., 0., 0., 0., 0., 0., 0., 0., 0.,
          -1.56657472e-02, 0., 0., 0., 0., 0., 0., 0., -1.56657472e-02,
          -8.62190127e-03, 0., 0., 0., 0., 0., 0., 0., -8.62190127e-03,
          0., 0., 0., 0., 0., 0., 0., 0., 0., 0., 0., 0., 0., 0., 0., 0.,
          0., 0., -1.30760623e-02, 0., 0., 0., 0., 0., 0., 0.,
          -1.30760623e-02, -1.56293735e-02, 0., 0., 0., 0., 0., 0., 0.,
          -1.56293735e-02, 0., 0., 0., 0., 0., 0., 0., 0., 0., 0., 0.,
          0., 0., 0., 0., 0., 0., 0., -1.56500805e-02, 0., 0., 0., 0.,
          0., 0., 0., -1.56500805e-02, -4.38529905e-03, 0., 0., 0., 0.,
          0., 0., 0., -4.38529905e-03, 0., 0., 0., 0., 0., 0., 0., 0.,
          0., 0., 0., 0., 0., 0., 0., 0., 0., 0., -2.17632204e-02, 0.,
          0., 0., 0., 0., 0., 0., -2.17632204e-02, 6.36104553e-04, 0.,
          0., 0., 0., 0., 0., 0., 6.36104553e-04, 0., 0., 0., 0., 0., 0.,
          0., 0., 0., 0., 0., 0., 0., 0., 0., 0., 0., 0., 2.59751617e-03,
          0., 0., 0., 0., 0., 0., 0., 2.59751617e-03, 1.54658547e-03, 0.,
          0., 0., 0., 0., 0., 0., 1.54658547e-03, 0., 0., 0., 0., 0., 0.,
          0., 0., 0., 0., 0., 0., 0., 6.68512005e-03, 0., 0., 0., 0., 0.,
          0., 0., 0., 0., 0., 0., 0., 0., 0., 0., 0., 0., 1.62157174e-02,
          0., 0., 0., 0., 6.12283999e-04, -3.94201721e-04,
          9.16193647e-04, 3.16991034e-04, 1.41884363e-03, 0.,
          -4.70489831e-05, -1.57229842e-05, 2.29403857e-04,
          9.51579120e-03, 9.80584591e-05, 1.81630324e-03, 1.52845646e-03,
          3.87654430e-03, 1.60741729e-05, -1.03205617e-03,
          -3.44895932e-04, 2.83112703e-03, 5.77413884e-04,
          -6.10373565e-04, 2.06424226e-03, 5.53275575e-04,
          6.64984295e-03, 1.25816418e-03, -3.29342904e-04,
          -2.53139902e-03, -1.39211523e-04, 8.34262371e-03,
          2.42789136e-03, 2.18960154e-03, 9.30902176e-03, 6.30099326e-03,
          1.98391825e-03, -4.49842261e-03, -7.47793401e-03,
          3.42486333e-03, 5.09958388e-03, 2.39139816e-04, 3.77380289e-04,
          8.61461915e-04, 4.82496014e-03, -4.78080765e-05,
          -6.11874158e-04, -1.87515820e-04, 2.96043348e-03,
          3.03977448e-03, 1.47583126e-03, 4.41446347e-04, 1.13286675e-04,
          -9.26424516e-04, 2.60989800e-05, 1.20605138e-04,
          9.27803922e-05, 2.40447395e-03, 8.44016671e-03, 2.34546000e-03,
          1.93216780e-03, 7.25199468e-03, 5.90617349e-03,
          -4.90551931e-04, -3.43927206e-03, -3.86492908e-03,
          4.50812560e-03, 2.94858613e-03, 6.60630548e-03, 3.92423337e-03,
          -2.03899017e-05, -1.59628727e-02, 5.06822194e-04,
          3.84459854e-05, 1.83308742e-03, 3.76998843e-03, 1.24400470e-03,
          4.50693117e-03, -3.00666725e-04, 2.01223069e-04,
          5.12742772e-05, -5.41853777e-04, 1.46671038e-04,
          -2.67220254e-04, 9.15888464e-04, -1.11766485e-03,
          1.28495563e-02, 8.22557020e-04, 1.63660865e-04,
          -3.38704698e-03, -6.92541944e-04, 1.40979944e-03,
          -1.09831884e-03, -4.30612313e-03, -1.48579024e-03,
          7.72062829e-03, 6.30539842e-03, 4.43927059e-03,
          -5.11269271e-03, -3.47254169e-03, -6.97408745e-04,
          4.55204258e-03, 3.10204108e-03, -5.22028981e-03,
          2.00493392e-02, 1.78132858e-02, 1.83607582e-02,
          -1.50379287e-02, -7.47702597e-03, -6.53160620e-04,
          1.10517452e-02, -8.05429276e-03, -3.21653835e-03,
          3.32377409e-03, 2.17361795e-03, 8.57883599e-04,
          -8.02321453e-03, 3.98105796e-04, 2.64971331e-03,
          7.39767822e-03, -3.15553974e-03, -6.96907891e-03,
          -4.56758263e-03, 2.09716358e-03, 6.31526485e-03,
          -8.91188160e-03, -1.27465383e-03, 1.11879327e-03,
          1.00778500e-02, -5.76761086e-03, 1.35988938e-02,
          8.61870474e-04, 5.64200897e-03, 6.40194211e-03,
          -3.38308653e-03, 7.51146395e-03, 1.56523306e-02,
          1.86895598e-02, 8.38556699e-03, -1.72592457e-02,
          -2.65135337e-02, -1.55797331e-02, 1.45171201e-02,
          -2.54313461e-02, 1.13572991e-02, 1.70873553e-02,
          2.48789378e-02, -1.32199340e-02, 6.68534683e-03,
          -4.47715539e-03, 2.93159531e-03, 6.40148763e-04,
          4.97585908e-03, -3.70161666e-04, 9.41391743e-04,
          3.38220946e-03, 4.94169816e-03, 1.34561537e-02,
          -2.80007091e-03, 6.30429387e-03, -5.45950746e-03,
          4.80044121e-03, 1.33090501e-03, 1.48868875e-03,
          -7.85450824e-03, 7.82678742e-03, -3.07934219e-03,
          -6.48611411e-03, -1.16337324e-02, -4.72019287e-03,
          1.61467940e-02, -2.68279598e-03, 1.44736692e-02,
          1.23092867e-02, -8.95708147e-03, -1.46680316e-02,
          8.27469490e-03, 1.04416786e-02, -8.69007688e-03,
          2.04961677e-03, -1.34561993e-02, -1.68397501e-02,
          -2.66326740e-02, -2.38283593e-02, 7.64609594e-03,
          4.89845220e-03, 3.97985661e-03, -1.26004510e-03,
          -4.44184896e-03, 1.17602490e-03, -1.09919626e-03,
          -9.21347179e-03, 3.89087899e-03, 1.25492560e-02,
          8.43667053e-03, 2.04807473e-03, 1.30320463e-04, 1.42561935e-03,
          -1.00573513e-03, 5.02422918e-03, -4.26525995e-03,
          4.98999376e-03, -1.68326329e-02, 2.13304274e-02,
          1.86334457e-02, 4.82065044e-03, -1.40954209e-02,
          1.15685281e-04, -3.18550132e-02, -4.19658013e-02,
          -2.82944478e-02, 2.33098250e-02, 2.26700958e-02,
          1.66006144e-02, 3.88869946e-03, -1.27500612e-02,
          -6.04177080e-03, 8.52303021e-03, -1.42905330e-02,
          4.34615556e-03, 3.91503423e-03, 2.97511765e-03,
          -1.77697686e-03, 8.73252284e-04, -3.39877862e-03,
          -1.76634861e-03, 7.91719835e-03, -1.44467654e-03,
          -7.07958126e-03, -6.47371542e-03, -4.58049309e-03,
          -1.39503507e-03, -1.20538776e-03, -5.16266329e-04,
          2.35997228e-04, 1.67898589e-03, 1.96845271e-03,
          -5.60365571e-03, 2.78804041e-02, 6.14607520e-03,
          5.24148392e-03, -3.08347167e-03, -1.78952236e-02,
          -1.36402985e-02, 2.13012211e-02, -1.07484059e-02,
          2.90785776e-03, 1.37637649e-03, -5.29462425e-03,
          -3.12896445e-03, -1.08488929e-02, -9.81664471e-03,
          -3.58684105e-04, 1.15504710e-03, -3.71361594e-03,
          -1.03687297e-03, -2.44389544e-03, -1.12691277e-03,
          -4.32896952e-04, -1.12895714e-03, -7.23054342e-04,
          -2.86711176e-04, 8.31231882e-05, 8.09092657e-04,
          -2.71425233e-03, -2.63909693e-03, -1.10240990e-05,
          -4.15911665e-04, -4.10190260e-04, -5.15021291e-03,
          -1.23308226e-03, 1.51353958e-03, 1.23057282e-03,
          -1.77288498e-03, -8.48228950e-03, -4.76992223e-03,
          -6.02316624e-03, -8.04011431e-03, -1.14815980e-02,
          -1.89059065e-03, 1.69174699e-03, 2.42231297e-03,
          -7.62529531e-03, -7.53009366e-03, -1.51977199e-03,
          -2.07725237e-03, -3.99333751e-03, -4.58175829e-03,
          -6.25806814e-03, 1.92968233e-03, 4.56384849e-03,
          -5.91737404e-03, -5.10217808e-03, -1.03561906e-05,
          -3.25595873e-04, 0., -7.16255605e-03, -1.10150175e-03,
          1.04554347e-03, 1.03381579e-03, -3.37069901e-03,
          -2.84089183e-04, 7.29050080e-04, 1.19351753e-04,
          4.14655842e-05, -1.95372337e-03, 1.48538034e-04,
          1.47662970e-04, 2.55907478e-04, 2.85610804e-05,
          -1.42552471e-02, -2.52554147e-03, 4.68268263e-04,
          8.63786321e-04, -8.73412844e-03, -7.82689452e-03,
          -4.31708619e-03, 1.82846165e-03, -6.54553249e-03,
          -3.69377714e-03, -6.90847737e-05, 1.80841924e-03,
          9.35922202e-04, -4.20604926e-03, 1.20922679e-03,
          -9.34132433e-04, 8.47537711e-04, -1.16817176e-03,
          6.24531473e-04, 2.79947883e-04, 1.45503334e-04, 1.02842539e-04,
          5.07948571e-04, 5.13728555e-05, 1.14999702e-05, 0.,
          5.76598628e-04, 6.11512747e-04, 6.94639766e-06, 2.07861904e-05,
          6.17055266e-05, 6.77868782e-04, 2.44610361e-04, 2.42785081e-05,
          0., 6.11512747e-04, 1.38550217e-03, 8.63343943e-04,
          1.01852336e-03, 9.09749418e-04, -2.21886691e-02,
          3.59609956e-04, 8.04997762e-05, 5.76037746e-05, 1.34686637e-03,
          1.24451832e-03, 9.06179412e-05, 2.12412982e-04, 5.45849616e-04,
          1.38550217e-03, 1.38550217e-03, 1.69949562e-04, 6.49485446e-05,
          1.38550217e-03, 0., 0., 0., 0., 0., 0., 0., 0., 0., 0., 0., 0.,
          0., 1.61435513e-03, 0., 0., 0., 0., 1.56674813e-02, 0., 0., 0.,
          0., 0., 0., 0., 1.56674813e-02, 1.00540277e-03, 0., 0., 0.,
          1.48952035e-02, 0., 0., 0., 1.00540277e-03, 3.80417128e-04,
          -3.76556185e-04, 1.13082511e-04, -7.59189279e-05,
          2.62703956e-03, 3.01792123e-03, -6.76140044e-05,
          -1.08771306e-03, 6.84309751e-04, 5.24824811e-03,
          1.76515407e-03, 8.34452105e-04, 7.02825841e-03, 7.37074856e-03,
          4.74470668e-03, -1.51660666e-03, -2.96810805e-03,
          3.94528965e-03, -7.99189694e-03, 6.69524365e-04,
          -7.95226733e-05, -1.95457964e-04, 3.07357754e-03,
          1.81917020e-03, 6.14858072e-05, -1.32987378e-04,
          -7.76130892e-03, 3.44398082e-03, 8.25523864e-03,
          1.05253770e-04, 3.77873355e-03, 5.65142429e-04, 5.08593163e-03,
          1.35845377e-03, 9.26693203e-04, 3.29091004e-03, 5.75061480e-04,
          4.18558891e-04, -5.69775584e-05, 1.26193068e-03,
          9.37716803e-04, 7.51956322e-05, -5.58574466e-05,
          8.83292159e-05, 5.65274095e-04, -2.09886464e-03,
          4.69363178e-04, -9.76964875e-05, 4.92113584e-04,
          -5.29417256e-03, 4.38409916e-04, 2.40921931e-04,
          9.73450311e-04, -1.03636971e-03, 9.88940988e-03,
          2.65545095e-04, -2.58182432e-03, 9.62680147e-04,
          -4.42751218e-03, 3.47237976e-04, 1.91648913e-04,
          5.60256361e-04, 9.96236224e-03, 3.17504108e-02, 2.63871308e-02,
          2.97074094e-02, -2.42674327e-03, -1.15247006e-02,
          2.35460902e-04, 1.41756871e-04, 6.64579857e-04, 3.18168588e-02,
          -1.25516125e-03, 1.71906361e-03, 1.95649778e-03,
          -1.84751314e-03, -4.06698650e-03, -2.14650505e-03,
          -2.47576996e-03, -7.69813429e-04, -1.48871797e-03,
          -1.06319692e-02, 5.11182006e-03, 1.31459897e-02,
          -1.62216066e-03, -8.64186697e-03, -5.16861351e-03,
          -9.72296926e-04, 1.30723859e-03, -1.51948659e-02,
          2.92396620e-02, 5.55903837e-03, 1.57088153e-02,
          -5.58811985e-03, -8.69571418e-03, -2.02206126e-03,
          9.99320415e-04, 3.58723733e-03, 2.88460366e-02, 1.36506818e-02,
          1.14565054e-02, 2.49478351e-02, -1.29193580e-02,
          -1.37297167e-02, -9.38327890e-03, 4.38423455e-03,
          1.80527405e-03, 1.53606962e-02, 2.70315073e-03, 5.34774328e-04,
          3.03264707e-03, -8.89765797e-04, -8.06711894e-03,
          1.56587514e-04, -2.58162105e-03, -8.30941892e-04,
          2.67062476e-03, 5.69032214e-04, -1.42077040e-02,
          -3.26702744e-02, -7.66473648e-04, -7.06184804e-02,
          -2.53516017e-04, -2.56360072e-04, 7.43117067e-04,
          9.56632954e-04, 2.31539104e-02, 1.51939373e-02, 3.23049799e-02,
          -1.13226951e-03, -3.02116796e-02, -8.04028008e-04,
          -5.02305804e-03, -2.02333811e-03, 2.36529447e-02,
          7.01311529e-02, 1.96288060e-02, 1.61164626e-02,
          -2.22319923e-03, -1.05438098e-01, -1.97546417e-03,
          -8.53027683e-03, -7.29057333e-03, 7.08438158e-02,
          -9.06494074e-03, -7.97492359e-03, -2.42454130e-02,
          -1.36762264e-03, -1.81020219e-02, -2.06174725e-03,
          -6.60372153e-03, -2.43647117e-03, -8.84083100e-03,
          -6.20793691e-03, -6.74522761e-03, -1.38331866e-02,
          -1.58863852e-03, -3.65828872e-02, -6.04078313e-03,
          -3.14822644e-02, -1.58306565e-02, -8.25185236e-03,
          3.13075669e-02, 8.26019328e-03, 9.88095440e-03,
          -7.55223329e-04, -7.13188201e-02, -2.73374282e-03,
          -2.73963325e-02, -2.27907896e-02, 3.16141024e-02,
          6.24955334e-02, 1.54435644e-02, 1.30535979e-02, 3.44626140e-04,
          -5.58091030e-02, -5.65751130e-03, -2.57944874e-02,
          -3.00032962e-02, 6.08428493e-02, 2.43367720e-03,
          -1.76498340e-03, -5.42860129e-04, -2.40124646e-03,
          -6.36813268e-02, -1.93297374e-03, -2.94126794e-02,
          -1.28432326e-02, 3.48889199e-03, 8.66180565e-03,
          7.94870371e-04, 2.44026561e-03, -1.87812175e-03,
          -2.45595910e-02, -6.37573143e-03, -2.74059339e-03,
          -3.44998017e-03, 5.88761084e-03, 2.75323037e-02,
          5.11853211e-03, 8.25302023e-03, -3.27349757e-03,
          -2.36421824e-02, -1.81750953e-03, -5.83067117e-03,
          -1.60762705e-02, 2.81731896e-02, 4.26253527e-02,
          -8.02384410e-03, -5.33077819e-03, -3.09461146e-03,
          1.19356476e-02, -4.27912595e-03, 1.76082030e-02,
          1.90448109e-02, 4.10675667e-02, 4.59624501e-03,
          -1.82119024e-03, -7.93140102e-03, -1.32360216e-02,
          -3.21225114e-02, -1.76135562e-02, -3.75330611e-03,
          -9.30341426e-03, -4.38861130e-03, -1.67803555e-05,
          2.48219818e-04, -2.68842815e-03, -7.93144945e-03,
          -1.78029891e-02, -1.03027362e-03, -2.01299670e-03,
          -1.22101919e-03, -6.98840595e-04, -1.51612898e-02,
          7.15070171e-03, 1.25113805e-03, 2.12361827e-03,
          -1.46810082e-03, -1.57795455e-02, 5.16513139e-02,
          3.81597802e-02, -2.26328149e-02, 1.98105313e-02,
          5.81158372e-03, -1.59794453e-03, 1.63989072e-03,
          -1.44865960e-02, -1.69332721e-03, -1.39278965e-02,
          -9.03208740e-03, 1.98595915e-02, -3.55524593e-03,
          -4.56967333e-04, -3.66381253e-04, -1.40085130e-03,
          -3.01005493e-04, -1.77970469e-05, 1.84755994e-03,
          5.77135826e-04, -3.63320298e-03, -6.81176840e-04,
          -2.55211053e-04, -3.75722389e-04, -7.17045914e-04,
          5.32410850e-05, -8.39819550e-04, -5.36086969e-04,
          2.79552565e-04, -1.76828809e-03, -4.07340564e-02,
          -1.04258058e-03, 9.37943405e-04, -9.10439529e-04,
          7.23353168e-03, 2.22867471e-03, -9.64620616e-03,
          -1.77740026e-02, -4.08171490e-02, -7.30598485e-03,
          -9.45802254e-04, -7.62592943e-04, -4.88466874e-04,
          -4.66011325e-03, 2.29235411e-05, -7.72890029e-03,
          -1.95561675e-03, -7.03494297e-03, -5.13622724e-03,
          -2.01302324e-03, -5.11197199e-04, 1.61942979e-03,
          -6.56135799e-03, -7.01565063e-03, -7.01260380e-03,
          -1.96491904e-03, -5.73944813e-03, -2.84951902e-03,
          -8.16869142e-04, 8.94211757e-04, 9.50780406e-04,
          -7.83918984e-03, -4.22505342e-04, -1.51046878e-03,
          -6.26964262e-04, -2.68491055e-03, 8.43534188e-04,
          -3.00354743e-03, -5.94894402e-03, 2.68291868e-03,
          -1.02672437e-02, -3.32478480e-03, -7.13737169e-03,
          -1.41367014e-03, 9.22678446e-04, 1.28892157e-03,
          -3.49360169e-04, 2.78250256e-04, 1.04993640e-03,
          -1.21556725e-02, 5.48365526e-04, 9.21329367e-04,
          2.51411024e-04, 1.15469773e-03, 2.48713855e-04, 9.85166116e-05,
          1.12188973e-04, 1.57285423e-04, -1.86188743e-02,
          3.20424697e-05, 6.50037737e-06, 5.80314409e-05, 2.63084657e-04,
          1.40474076e-04, 5.66668277e-05, 1.16736926e-04, 9.43712585e-05,
          1.48149615e-04, 1.62161436e-04, 3.71712740e-05, 1.55299767e-05,
          3.01936059e-04, 5.25168283e-03, 1.86966106e-04, 6.93226320e-05,
          1.30365544e-04, -2.16103662e-02, 3.77774013e-05,
          2.31138011e-03, 1.92882575e-03, 5.25168283e-03, 5.84936887e-03,
          1.73207183e-04, 2.29620142e-04, 1.50751890e-04, 2.59373017e-04,
          5.88144903e-05, 5.74241509e-04, 1.78514878e-04, 5.76181198e-03,
          7.48235872e-03, -9.75466159e-04, -8.99773324e-04,
          4.86754143e-04, 7.99402595e-03, -1.66946105e-04,
          2.58347536e-05, -5.30707417e-04, 2.39731558e-03,
          4.09698533e-03, 2.44763098e-03, -6.69000379e-04,
          4.24545084e-04, 1.13121688e-03, -6.43598323e-04,
          4.37518989e-04, -1.93738204e-04, -6.53876748e-04,
          9.46076587e-03, -3.10636312e-03, -7.86519051e-03,
          6.38311356e-03, 9.70333628e-03, -1.90990558e-03,
          1.40374123e-05, 1.51628547e-03, 1.77735800e-03, 1.16834389e-02,
          6.81312568e-03, -3.29199102e-04, 3.92058259e-03,
          7.87414203e-04, -4.42000851e-03, 3.80234653e-03,
          8.23959522e-03, 9.17662960e-03, -2.59455596e-03,
          9.18088714e-04, 4.25233447e-04, 1.97777571e-03,
          -4.43330593e-03, -1.43413269e-03, -2.51837802e-04,
          -8.21821101e-04, -4.67215618e-03, -4.78174491e-03,
          8.29182100e-04, -5.69228374e-04, 3.86008713e-03,
          -1.62754524e-02, 3.14463512e-04, -2.91064440e-04,
          -2.43709655e-03, 1.13383902e-03, -9.28093120e-03,
          3.07478523e-03, 6.09249342e-04, 1.17282281e-02,
          -1.54204695e-02, -1.39094619e-02, -1.54764450e-04,
          8.54071230e-04, -1.45848924e-02, 3.21164681e-03,
          4.05973829e-02, 2.05149371e-02, 9.20881145e-03,
          -1.83564089e-02, 1.43167248e-03, 2.02847784e-03,
          8.48699082e-03, 8.78852606e-03, -3.01529979e-03,
          -2.26013782e-03, -9.14621749e-04, 1.36605848e-03,
          -8.68590921e-03, -5.27385273e-04, -2.12912587e-03,
          2.42859867e-04, 4.54646739e-04, 8.94834194e-03, 1.00558274e-03,
          2.22780500e-02, 2.63893534e-03, -8.33506659e-02,
          -4.64260485e-03, -2.73846718e-03, 3.03403824e-04,
          9.37852915e-03, -6.92909677e-03, 4.62138373e-03,
