%YAML:1.0
my_svm: !!opencv-ml-svm
   svm_type: C_SVC
   kernel: { type:LINEAR }
   C: 1.0000000000000000e-02
   term_criteria: { epsilon:2.2204460492503131e-16, iterations:2000 }
   var_all: 10404
   var_count: 10404
   class_count: 2
   class_labels: !!opencv-matrix
      rows: 1
      cols: 2
      dt: i
      data: [ -1, 1 ]
   sv_total: 1
   support_vectors:
      - [ 6.36931928e-03, 6.65365951e-03, 1.01911684e-03,
          -2.84633413e-03, -1.06932521e-02, 2.61730934e-03,
          -1.02590453e-02, -1.44946086e-03, -2.21669022e-03,
          8.47910251e-03, 2.64004711e-03, -7.75798317e-03,
          -8.31018947e-03, -1.42461285e-02, 4.58474364e-03,
          -1.51414154e-02, -2.23879586e-03, 2.36447225e-03,
          2.97728973e-03, -6.50120259e-04, 3.65656568e-03,
          -4.15508635e-03, -6.81454502e-03, 6.31850772e-03,
          -1.18956482e-02, -8.27098917e-03, -1.19448807e-02,
          5.67911251e-04, -2.40782083e-05, -1.76989194e-02,
          -1.79506596e-02, -1.25768827e-02, 9.45543591e-03,
          -3.69306165e-03, 1.08939374e-03, -1.76747493e-03,
          -3.54825635e-03, -6.70945179e-03, -2.26076227e-03,
          2.59127724e-03, -7.07308343e-03, 1.33792795e-02,
          -1.14729267e-03, 4.68266150e-03, 2.88175372e-03,
          -7.98881799e-03, 4.29845974e-03, 1.95336156e-03,
          1.01589197e-02, -4.02912684e-03, 3.98429809e-03,
          5.22568822e-03, 2.46636802e-04, -3.90795898e-03,
          -1.97400129e-03, -9.19689611e-03, -1.70140993e-02,
          -4.64273198e-03, -1.01824682e-02, 5.09707304e-03,
          1.15064075e-02, 7.75195239e-03, 5.21202339e-03, 2.10568612e-03,
          -6.93498878e-03, -2.42328527e-03, 1.74355395e-02,
          1.24571742e-02, 3.97700584e-03, 3.35699925e-03,
          -5.31306770e-03, 3.31876660e-03, -7.39399390e-03,
          4.94844839e-03, 4.52487217e-03, 2.45713652e-03,
          -4.19667549e-03, -6.30227802e-03, -2.14688643e-03,
          -4.55768313e-03, -5.04398951e-03, -7.40493275e-03,
          2.10598158e-03, 1.08125368e-02, -8.55584629e-03,
          -6.27264567e-03, 7.60462182e-03, 2.94687017e-03,
          1.05428286e-02, -7.07018748e-03, 5.45603968e-03,
          1.01906182e-02, 7.06025725e-03, 9.11956467e-03, 2.22638827e-02,
          -1.06836064e-02, -1.16336513e-02, -1.23641584e-02,
          -2.17412296e-03, 4.12312243e-03, 1.94447488e-02,
          9.77580994e-03, -1.13882003e-02, 1.86319835e-02,
          3.29127349e-03, -7.76665471e-03, 2.20613228e-03,
          5.02335234e-03, -1.55429181e-03, -3.81397246e-03,
          4.32941830e-03, -8.83902237e-03, -1.03261566e-03,
          4.09097783e-03, 3.37121950e-04, 3.46165965e-03, 1.56157766e-03,
          -7.93126039e-03, -1.16294194e-02, 5.62272093e-04,
          -1.13292988e-02, -1.26368238e-03, -4.50069131e-03,
          -2.87332246e-03, -5.04095806e-03, -2.17802473e-03,
          5.40466374e-03, 5.13998652e-03, 2.60873395e-03,
          -1.26947612e-02, 1.63691286e-02, 1.53219304e-03,
          -5.26595954e-03, -2.16173823e-03, 1.04672685e-02,
          4.94890497e-04, -3.17089236e-03, 1.07594375e-02,
          -1.42714381e-02, 6.07359922e-03, -1.42808901e-02,
          -7.99193326e-03, -2.42064032e-03, 9.54844523e-03,
          -9.12823621e-03, -1.55010149e-02, -1.18452692e-02,
          -1.33294966e-02, -1.52960431e-03, -9.08275321e-03,
          4.59451275e-03, 3.34683387e-03, 5.98284940e-04,
          -6.52117655e-03, -1.88643429e-02, -1.73190087e-02,
          -1.75140724e-02, -1.44969635e-02, -1.06625911e-02,
          1.04021030e-02, 1.29556321e-02, 1.68677326e-02,
          -3.71646747e-04, -5.72820799e-03, 2.03552982e-03,
          -1.20212436e-02, 3.72821861e-03, -2.94107217e-02,
          -5.43429749e-03, 9.88039281e-03, 1.47765465e-02,
          1.97638921e-03, -1.37750264e-02, -2.46702926e-03,
          -7.91096501e-03, 6.93041738e-03, -2.02547535e-02,
          -9.62082203e-03, 1.69368573e-02, 1.35541828e-02,
          1.36665907e-02, -6.23750547e-03, -1.15573863e-02,
          -9.84852575e-03, -1.60429478e-02, -1.22081609e-02,
          8.94197170e-03, 1.45390015e-02, 2.79326104e-02, 1.88912731e-02,
          3.81293707e-03, -2.73005688e-03, 4.02246648e-03,
          -2.12359205e-02, -2.27525495e-02, -1.37701537e-02,
          1.04905944e-02, 2.61864699e-02, 4.10354091e-03,
          -1.43101811e-02, -1.53167928e-02, 7.68280216e-03,
          -5.36143780e-03, -8.90350342e-03, -1.64354255e-03,
          1.37463259e-02, 2.26404909e-02, 6.50368631e-03,
          -6.13388093e-03, 1.06154743e-03, 1.01379501e-02,
          -3.60466004e-03, -1.56143857e-02, -1.91744824e-03,
          1.01903006e-02, 1.34533551e-02, -4.05425951e-03,
          -5.36141498e-03, -4.15681861e-03, 1.43796473e-03,
          -1.22206695e-02, -1.42500009e-02, -1.20601431e-02,
          5.76063292e-03, 2.00148132e-02, -4.41378308e-03,
          -1.67048313e-02, -4.64481162e-03, -3.96964344e-04,
          -3.86521686e-03, -3.30803753e-03, 2.73580453e-03,
          4.93884226e-03, 1.39234895e-02, 3.14154546e-03,
          -9.23840143e-03, 1.96986808e-03, 2.64091021e-03,
          -2.47986754e-03, -3.61436210e-03, 4.71872184e-03,
          6.20923424e-03, 1.34051628e-02, 7.29762251e-04,
          -2.38192827e-02, -4.78379009e-03, -6.21842127e-03,
          -8.74125492e-03, 3.27112549e-03, 1.46443015e-02,
          4.77845361e-03, 1.84375886e-02, -3.96932196e-03,
          -1.07236132e-02, 4.23036516e-03, 1.16517104e-03,
          -3.85059137e-03, 1.21839705e-03, 1.53339710e-02,
          1.27528692e-02, 4.63849865e-03, -5.34148561e-03,
          -1.73243079e-02, -3.86313605e-03, 7.13721011e-03,
          -1.10396149e-03, 3.62798735e-03, 1.54624525e-02,
          1.56545490e-02, -8.61455593e-03, 1.17902074e-03,
          -3.69988233e-02, -1.33767249e-02, -1.20604234e-02,
          -1.98852830e-03, -2.32761740e-04, 1.34806959e-02,
          8.73631518e-03, 1.32491393e-02, -9.61369090e-03,
          -2.71609630e-02, -1.61069296e-02, -3.06462892e-03,
          2.11789133e-03, 2.39745644e-03, 2.64726696e-03,
          -2.39641475e-03, -7.12511502e-03, 2.34746630e-03,
          -1.22791519e-02, 7.37783033e-04, 5.63870510e-03,
          -5.89469774e-03, 3.29934340e-03, 5.91082498e-03,
          -2.37488537e-03, -8.46070424e-03, -3.36388662e-03,
          -1.71198007e-02, -2.38232943e-03, 1.32716233e-02,
          -5.01947664e-03, -3.11819883e-03, -3.23151099e-03,
          -1.45657570e-03, 1.79773837e-03, 1.47279375e-03,
          -9.52318404e-03, 8.24490213e-04, 2.12023850e-03,
          -2.45934376e-03, 2.22843955e-03, -4.87093022e-03,
          -1.83985047e-02, -1.23988455e-02, -7.99043011e-03,
          -2.05020830e-02, -1.27802109e-02, -4.48412867e-03,
          -8.67726281e-03, -3.92635120e-03, -2.17930312e-04,
          -1.07868165e-02, 4.15461045e-03, -2.70769792e-03,
          -1.62995849e-02, -2.93913623e-03, 7.48800812e-03,
          2.29288824e-03, -9.91739798e-04, -4.67239268e-04,
          1.71324157e-03, 9.38406866e-03, -3.18139023e-03,
          -1.43057983e-02, -1.93280680e-03, -6.22043107e-03,
          3.57742119e-03, -6.92520011e-03, 2.13788683e-03,
          -8.08142498e-03, 6.43096957e-03, 3.71457776e-03,
          -1.76827330e-02, -1.41520202e-02, 3.77796032e-03,
          1.73031207e-04, 4.37197322e-03, 3.09035578e-03,
          -8.30139127e-03, 1.35945221e-02, -2.14300933e-03,
          -1.70503687e-02, -1.55159207e-02, -2.27362252e-04,
          7.76886824e-04, -4.57557337e-03, -1.38194431e-02,
          -1.72260348e-02, 1.45124514e-02, 2.61253212e-03,
          -2.37436662e-03, 8.94805510e-03, 3.68749909e-03,
          -3.81797552e-03, -9.61945392e-03, -6.19582832e-03,
          -1.05629787e-02, 6.36112317e-03, 7.43029872e-03,
          3.30836256e-03, -3.87044926e-03, -3.05669918e-03,
          -7.67826859e-04, -9.36086755e-03, -8.86936393e-03,
          -7.52111059e-03, 7.60212122e-03, 1.56596806e-02,
          -7.27557065e-03, -3.02007189e-03, -5.17315604e-03,
          -4.74629598e-03, -8.83688685e-03, -8.83994345e-03,
          -1.33012580e-02, 1.86253395e-02, 3.99052026e-03,
          -6.15879940e-03, -1.35954926e-02, -3.59551399e-03,
          -5.96606638e-03, -1.64997727e-02, -1.54414894e-02,
          -1.69264730e-02, 1.72513109e-02, 1.46837812e-03,
          -3.37792444e-03, -5.34968730e-03, -5.09882206e-03,
          2.62803561e-03, -1.28996815e-03, 2.19751359e-03,
          -3.87561088e-03, 5.34947123e-03, 5.76966093e-04,
          -1.09603563e-02, -2.64243502e-03, 4.63779797e-05,
          -2.60502519e-03, -6.68911869e-03, 8.54314584e-03,
          6.00345572e-03, -2.75737810e-04, 1.44410675e-04,
          -1.16875097e-02, -3.25863389e-03, 3.67394602e-03,
          -9.98336356e-03, -4.87252651e-03, -1.42160216e-02,
          -5.27631957e-03, 1.28297126e-02, -6.55599590e-03,
          -7.92459643e-04, 9.60817561e-03, 7.53573608e-03,
          -5.78072527e-03, -1.26176956e-03, -1.78894568e-02,
          -1.19768530e-02, -8.24589189e-03, -3.49441124e-03,
          -1.08910790e-02, -2.28729472e-03, 4.12903726e-03,
          9.50337294e-03, -9.56131704e-03, 1.15398653e-02,
          6.27519283e-03, 2.45495408e-04, 1.35525130e-03,
          -1.83130372e-02, -5.14622265e-03, 1.72916520e-02,
          6.34283992e-03, -5.48219029e-03, -1.21679367e-03,
          5.85943181e-03, 7.01986765e-03, -6.16771542e-03,
          -9.06103477e-03, 2.76558893e-03, 4.54015192e-03,
          1.08810002e-02, 8.20647366e-03, -7.39255594e-03,
          -1.55130951e-02, -1.17827859e-02, -7.02863513e-03,
          -2.32962482e-02, -2.20468231e-02, -6.13380922e-03,
          1.09059922e-02, 1.14816753e-02, -3.13986116e-03,
          -6.51367614e-03, 5.08938916e-03, -2.13952689e-03,
          -1.25701353e-02, -4.03379789e-03, 1.24988081e-02,
          -3.62939271e-03, -5.37528750e-03, 4.05869167e-03,
          6.14960305e-03, 7.41883554e-03, -1.92860875e-03,
          -1.69920046e-02, -8.06395616e-03, 1.89244282e-02,
          -8.47359002e-03, 7.18003022e-04, -2.44456413e-03,
          2.83173611e-03, 2.32985988e-03, -5.14072087e-03,
          -2.44035777e-02, -1.60297137e-02, -1.08219953e-02,
          1.86675679e-04, 4.81816242e-03, -1.98618640e-04,
          -4.11988329e-03, -1.50018279e-03, 3.99377942e-03,
          -8.01915955e-03, 6.28349153e-05, 6.32124022e-03,
          -1.24403033e-02, -7.78273540e-03, -2.43254844e-03,
          -1.41779343e-02, -8.57942458e-03, -5.81119629e-03,
          -1.41546745e-02, -8.24597012e-03, 5.28202998e-03,
          -8.64181295e-03, 6.34329487e-03, -1.12316990e-02,
          3.85518163e-03, 5.60521439e-04, -1.24376249e-02,
          -1.50277084e-02, 5.95608028e-03, 7.30278064e-03,
          -3.80898407e-03, 1.34175066e-02, -1.12822829e-02,
          -1.43917394e-04, 3.64648062e-03, 1.71611653e-04,
          -4.25240956e-03, 5.79137169e-03, 1.59325812e-03,
          -2.02625040e-02, -4.71218070e-03, -1.40022673e-03,
          -8.91682319e-03, -7.98609387e-03, -6.56063808e-03,
          -1.31299747e-02, -4.46079951e-03, 1.18905632e-02,
          -1.06024416e-02, 2.03292188e-03, -6.53605955e-03,
          -1.19248952e-03, -6.41992828e-03, -3.99550237e-03,
          -7.46242562e-03, 9.97551996e-03, 2.66159931e-03,
          9.69627406e-04, 8.44478514e-03, 3.30688170e-04,
          -6.41865842e-03, 8.61563836e-04, -4.60049696e-03,
          1.19382364e-03, 2.12538801e-02, 6.20924635e-03,
          -2.08975840e-03, -4.46001207e-03, -1.18575132e-04,
          3.89505830e-03, 1.91587559e-03, -2.94272113e-03,
          -1.93780176e-02, 1.30342424e-03, 8.12218152e-03,
          -8.00442230e-03, 9.74289235e-03, -4.00174875e-03,
          -2.38312222e-03, -6.51429174e-04, -1.79381203e-02,
          -2.09618751e-02, -4.59323032e-03, -1.41473068e-03,
          -6.77474495e-03, -6.09842595e-04, 1.71278231e-03,
          8.07779841e-03, -2.00100872e-03, 1.14721025e-03,
          7.06009753e-03, 1.33859161e-02, 9.64547566e-04, 3.54777137e-03,
          -9.24385153e-03, 1.21148070e-03, 7.74782384e-03,
          -4.21260064e-03, -3.66259855e-03, 8.86785891e-03,
          4.70667519e-03, -2.34009768e-03, 7.81270303e-03,
          6.10377314e-03, 1.71208847e-03, -2.51980545e-03,
          -5.65294176e-03, -4.20232723e-03, -1.39558278e-02,
          -2.28590053e-03, -6.45065075e-03, 1.01242273e-03,
          -1.35361766e-02, 3.02217039e-03, 7.87654892e-03,
          7.32696243e-03, -3.46804038e-03, -5.04575903e-03,
          2.59242486e-03, -5.25350124e-03, -2.29179859e-03,
          1.11686648e-03, -2.97486386e-03, 3.95380717e-04,
          -6.59090187e-03, -1.75156805e-03, 1.23183131e-02,
          1.62848756e-02, 1.14123598e-02, 1.84617762e-03, 1.71042816e-03,
          -9.08358488e-03, -1.30876303e-02, -9.90996696e-03,
          -4.22161585e-03, 3.90027853e-04, -7.02940347e-03,
          -3.22729419e-03, -1.25707164e-02, 8.73006694e-03,
          -1.05552282e-03, -6.80076517e-03, -4.10468876e-03,
          6.07712520e-03, 2.21535619e-02, 1.21181058e-02, 1.39049757e-02,
          -1.06441863e-02, -6.70961151e-03, 7.24281243e-04,
          9.78133176e-04, 8.58431449e-04, 3.59224924e-03, 1.35189500e-02,
          1.12926576e-03, -5.42367017e-03, -1.47592304e-02,
          7.58558465e-03, 1.41289644e-03, 7.87085108e-03,
          -5.63277863e-03, 1.25756382e-03, -4.65575000e-03,
          -1.92122124e-02, -8.66376515e-03, -1.66180171e-02,
          5.69576630e-03, 2.28123995e-03, 5.72968647e-03, 7.77982641e-03,
          -5.68035617e-03, -9.11712460e-03, -7.02378154e-03,
          5.42198215e-03, 1.03712082e-02, 4.02707327e-03, 6.09401031e-04,
          5.20354277e-03, 4.65366151e-03, 2.88641942e-03, 5.74646145e-03,
          -3.83269647e-03, -9.37603693e-03, -8.99619795e-03,
          9.04395245e-03, 1.08131825e-03, 6.77339593e-03, 5.38321864e-03,
          5.66219445e-03, -6.20172499e-03, -1.00338012e-02,
          1.77495333e-03, 4.96250764e-03, 7.95823056e-03, 2.46229605e-03,
          3.67869413e-03, -3.46318376e-03, -7.50517193e-03,
          3.02279112e-03, 3.22781992e-03, 4.87573957e-03, 2.74685379e-02,
          -1.14007294e-02, -1.25462189e-02, 1.96466502e-03,
          -6.68938039e-03, -1.08408714e-02, 1.10380827e-02,
          1.04185110e-02, -6.89521665e-03, 3.14715840e-02,
          -9.86919086e-03, -4.61808173e-03, -4.72242665e-03,
          -1.24569936e-02, 8.78580380e-04, -2.86251702e-03,
          -8.10107403e-03, 3.12389969e-03, 1.58980452e-02,
          -1.66588591e-03, -1.46132486e-03, 6.96336478e-03,
          1.77118951e-03, -2.00645477e-02, -6.43659523e-03,
          1.14252407e-03, 4.73165623e-04, 1.48130357e-02, 1.16985675e-03,
          4.18750802e-03, 7.69228255e-03, -1.97504126e-02,
          -1.73682591e-03, 4.85182600e-03, 9.73913993e-04,
          -9.71098524e-03, 1.20992735e-02, 8.97500257e-04,
          1.80944859e-03, -5.59981819e-03, -3.51787265e-03,
          3.50322272e-03, -6.45288825e-03, -8.21320061e-03,
          -1.55936778e-02, -1.47404373e-02, -5.32329222e-03,
          5.23369294e-03, 6.95108203e-03, 8.22301768e-03,
          -2.15137787e-02, -1.19565614e-02, 2.36567529e-03,
          -3.74743924e-03, 8.98868963e-03, 5.89739392e-03,
          8.66864156e-03, 1.62172094e-02, -8.28321744e-03,
          -3.63686355e-03, -7.75968656e-03, -7.68652745e-03,
          -1.81645453e-02, -7.56317331e-03, -2.10917951e-03,
          1.81896668e-02, 2.04703957e-02, 1.20977452e-02, 1.57925952e-02,
          -5.17892931e-03, -2.47023790e-03, -1.32311750e-02,
          -4.57922369e-03, -1.35853542e-02, 3.58995446e-03,
          1.16408132e-02, 1.81388706e-02, 1.24062113e-02,
          -3.26713058e-03, -1.05625892e-03, -7.13386340e-03,
          6.63865265e-03, -1.24741383e-02, -7.93784205e-03,
          6.95987698e-03, 1.47188380e-02, 3.11928615e-03,
          -4.53721033e-03, -7.37250317e-03, -1.58821568e-02,
          -7.44911609e-03, -2.56854389e-03, 1.90296269e-03,
          9.49307438e-03, 1.40217440e-02, -1.10523710e-02,
          -9.02549457e-03, -2.89938925e-03, -6.42576534e-03,
          -9.66078974e-03, -6.15142984e-03, 3.60743888e-03,
          3.39439418e-03, -5.09557081e-03, 2.27410579e-03,
          5.68081625e-03, 2.04335991e-03, 1.31022455e-02, 3.17066617e-04,
          -8.09349585e-03, -2.86218524e-03, 7.57822581e-03,
          1.56952292e-02, 5.25075104e-03, -2.80678621e-03,
          1.05535984e-02, 1.58168990e-02, 9.89243481e-03,
          -8.31138436e-03, 1.24458410e-03, 1.14283310e-02,
          1.30729629e-02, -2.06826124e-02, -4.33571544e-03,
          2.76631233e-03, 1.37856249e-02, -5.98593848e-04,
          -2.36979686e-03, 1.00222128e-02, 7.89169595e-03,
          -6.51603565e-03, -2.01495308e-02, -3.54641047e-03,
          5.83844772e-03, 7.74979964e-03, 9.68485419e-03,
          -3.77842109e-03, 1.20608062e-02, 1.74551234e-02,
          -8.06171820e-03, 3.77347111e-03, -1.04307905e-02,
          -4.04460495e-03, 4.49771807e-03, 1.71355659e-03,
          5.45343431e-03, 1.48062464e-02, 1.12121599e-02, 6.08134968e-03,
          8.19991995e-03, -1.67316105e-02, -1.46771939e-02,
          -3.09961569e-03, -7.51393521e-03, 4.93179308e-03,
          2.58910526e-02, 1.09142242e-02, 1.25957271e-02,
          -6.83545042e-03, -1.29108168e-02, -7.11396290e-03,
          -4.09708917e-03, -2.16439483e-03, 1.19767431e-03,
          1.24585908e-02, 1.18437521e-02, 7.08167022e-03,
          -1.36844744e-03, -6.14499021e-03, -1.82362776e-02,
          -8.97408184e-03, -4.50485200e-03, -3.60816228e-03,
          1.18072517e-02, -1.15377316e-03, 9.96351987e-03,
          1.53182959e-02, -1.55937700e-02, -1.89918615e-02,
          -1.94818676e-02, -3.40141146e-03, -6.06540591e-03,
          9.86991823e-03, 3.46389250e-03, 1.67825669e-02, 7.10699894e-03,
          -1.61318853e-02, -2.33514272e-02, -1.34330792e-02,
          4.06159274e-03, -9.87331499e-04, -5.72832068e-03,
          -2.86316709e-03, 6.99565513e-03, 1.38952779e-02,
          -1.84934046e-02, -2.19754651e-02, -1.38690332e-02,
          -1.41820703e-02, -3.18582682e-03, 4.65154881e-05,
          -4.53694677e-03, 2.28205863e-02, 4.24775342e-03,
          -1.94663201e-02, -1.54142398e-02, -2.28152331e-03,
          1.17177833e-02, 5.09359234e-04, 1.70196383e-03, 3.74339474e-03,
          1.00399861e-02, 1.16871577e-02, -1.44031141e-02,
          -1.03050536e-02, -5.09315124e-03, 1.89607521e-03,
          6.08638022e-03, 1.18021970e-03, -5.31115243e-03,
          3.23062413e-03, -2.02441798e-03, -6.39371714e-03,
          -1.01462537e-02, -9.17879306e-03, -4.75628115e-03,
          4.85266140e-03, 9.23191383e-03, -6.84190216e-03,
          -9.79177305e-04, -1.30375158e-02, -2.95109805e-02,
          -9.80661064e-03, -2.39484361e-04, 1.41486134e-02,
          6.56630099e-03, 1.03419861e-02, -1.45331607e-03,
          -4.27283486e-03, -1.81450397e-02, -3.09400000e-02,
          -2.04276592e-02, -2.57579400e-03, -2.76962644e-03,
          4.77148918e-03, 1.01387920e-02, -6.91173784e-03,
          -1.40933534e-02, 9.07798577e-03, -9.59015079e-03,
          -9.91712045e-03, -5.61646558e-03, -7.83210061e-03,
          5.32061001e-03, 7.02879485e-03, -2.20624567e-03,
          1.14314621e-02, 1.99052694e-04, -2.36048512e-02,
          -1.88882779e-02, -1.43868485e-02, -9.46780667e-03,
          -4.05513588e-03, -3.28431535e-03, 3.99233168e-03,
          2.02879775e-02, -6.16012700e-03, -2.15187520e-02,
          -8.55609193e-04, -9.82586294e-03, -1.04264924e-02,
          4.50143404e-03, 1.11202542e-02, 1.01589356e-02, 8.72478914e-03,
          -7.72931846e-03, -2.83628851e-02, -1.64805390e-02,
          -2.09126100e-02, -4.52737464e-03, -1.11743025e-02,
          -6.40628103e-04, -9.59372555e-04, 1.07460991e-02,
          6.09930605e-03, -2.06366498e-02, -2.09206436e-03,
          -7.91428145e-03, -5.03936724e-04, -2.53181043e-03,
          -1.21659762e-03, 5.50345238e-03, 2.07639206e-02,
          4.00261953e-03, -2.19010804e-02, -3.10410047e-03,
          -4.02237661e-03, -6.44375244e-03, -7.37062097e-03,
          -6.65033981e-03, -9.61704366e-03, 9.67731699e-03,
          -3.40278866e-03, -2.97734831e-02, -2.00547576e-02,
          -2.17718966e-02, 2.99064768e-03, 3.07310093e-03,
          8.77938978e-03, 9.52786859e-03, 1.75290890e-02,
          -4.43592295e-03, -1.32215023e-02, -8.69068410e-03,
          -1.14863906e-02, -2.30350113e-03, 1.06394768e-03,
          3.69275827e-03, 1.15316734e-02, 6.08695811e-03,
          -2.51562824e-03, -2.00970005e-02, 6.06013509e-03,
          1.51697602e-02, 7.72459549e-04, 5.30219590e-03,
          -8.28480348e-03, -1.46558473e-03, 4.75308485e-03,
          -1.10744424e-02, -1.42267374e-02, 5.46952104e-03,
          2.07236074e-02, 1.46117313e-02, 1.54970838e-02,
          -1.30146807e-02, -1.66047923e-02, -7.80972186e-03,
          -9.77446605e-03, -1.01758437e-02, 7.81255309e-03,
          1.53463623e-02, 1.09905307e-03, -9.24841443e-04,
          -5.71372639e-03, 8.51404096e-04, -3.48229636e-03,
          -1.57205984e-02, -1.93579048e-02, 4.11926769e-03,
          2.25813165e-02, 1.15330480e-02, 2.55371910e-03,
          -9.66448151e-03, -9.61912703e-03, 1.54395273e-03,
          -2.59277108e-03, -5.32322656e-03, 7.24541908e-03,
          6.55828649e-03, 2.52251402e-02, 2.17121635e-02,
          -9.66015086e-03, -1.93680841e-02, -1.44773135e-02,
          -6.29435293e-03, -6.64592115e-03, -9.46636871e-03,
          -1.61581207e-02, 1.48022193e-02, 9.86764580e-03,
          -4.27517481e-03, -1.00882184e-02, 3.67572880e-03,
          -7.23334961e-03, -1.22834062e-02, -1.50638458e-03,
          1.60440765e-02, 1.42221041e-02, 3.54997837e-03,
          -2.52415962e-03, -7.82628637e-03, -3.48319323e-03,
          -1.56905071e-03, -2.93100631e-04, -1.83182908e-03,
          -8.38668179e-03, -1.30453694e-03, -5.95824188e-03,
          -5.08974399e-03, -1.14843464e-02, 3.28557333e-04,
          -4.54460317e-03, -1.93093047e-02, -1.30777527e-02,
          -1.72437709e-02, 1.44689518e-03, 5.14283823e-03,
          -1.08952262e-03, -6.25474204e-04, 4.00003372e-03,
          -1.07789123e-02, -7.22378911e-03, 1.50969001e-02,
          2.05516331e-02, -7.86091294e-03, -4.47891746e-03,
          -2.25567888e-03, -1.29778087e-02, -2.25783233e-02,
          -2.16990337e-03, -6.63091103e-03, 4.20333259e-03,
          2.20121394e-04, -4.81397472e-03, -5.02178539e-03,
          -1.13460794e-02, -1.03141684e-02, -9.10215895e-04,
          -9.61068552e-03, 2.23649130e-03, 1.39507884e-02,
          2.25810390e-02, -2.62811198e-03, -1.20549873e-02,
          -1.84075981e-02, -1.31509369e-02, -1.01790903e-02,
          1.35955750e-03, -2.66638352e-03, 1.65971927e-02,
          8.35257489e-03, -1.06210923e-02, -5.13617694e-03,
          1.21475253e-02, -9.86271352e-03, -1.21834641e-02,
          9.66497418e-03, -1.53123196e-02, 6.26776309e-04,
          9.19652916e-03, -1.50792105e-02, -3.59872309e-03,
          1.06400251e-03, 2.29303085e-04, 4.61816229e-03,
          -1.76510941e-02, -1.45185059e-02, 3.67863826e-03,
          1.03215668e-02, -2.42953585e-03, -1.53704584e-02,
          -4.61486023e-04, -1.23926383e-02, -1.74392504e-03,
          -5.55004168e-04, -2.20966414e-02, -5.81720471e-03,
          -4.05031315e-04, -9.72102117e-03, -1.41666438e-02,
          -9.62328631e-04, -2.81234062e-03, 1.20846312e-02,
          6.32112287e-03, -1.59966964e-02, 3.77704483e-03,
          1.14325052e-02, 2.25335825e-03, 4.53625293e-03, 4.42757457e-03,
          8.52551777e-03, 1.27815437e-02, -9.95653402e-03,
          -2.31572632e-02, -1.30289206e-02, -1.09535102e-02,
          7.31145171e-03, 8.56876187e-03, 6.35356409e-03, 1.99471582e-02,
          1.36982324e-02, 2.23391945e-03, -2.22358219e-02,
          -1.63300857e-02, -1.01365754e-02, -2.75129545e-03,
          -7.36111449e-03, -1.24819623e-03, 8.94142035e-03,
          2.57115681e-02, -6.72977977e-03, -9.50384792e-03,
          -9.86201409e-03, -2.95276884e-02, 4.30273404e-03,
          -3.10896360e-03, -9.67135094e-03, 7.73761049e-03,
          9.93973482e-03, 5.34564489e-04, -1.61473230e-02,
          -7.27051683e-03, 1.72964274e-03, 1.53799038e-02,
          1.65117241e-03, -3.03754490e-03, 1.28998179e-02,
          1.42927393e-02, 1.69069937e-03, -8.13416578e-03,
          -8.90560215e-04, 5.23774233e-03, 2.21543722e-02,
          7.21260021e-03, -5.70688164e-03, 1.34196077e-02,
          5.20527083e-03, -8.20671488e-03, -9.93218645e-03,
          -6.32162532e-03, -2.66025239e-03, 9.16611962e-03,
          -4.40770574e-03, -1.87767688e-02, 4.24334576e-04,
          -5.31880092e-03, -1.77770294e-03, -1.58938505e-02,
          1.53716491e-03, 5.78045752e-03, 1.55658154e-02,
          -3.21654812e-03, -5.63518191e-03, 1.28801838e-02,
          -7.39544572e-04, 1.79074996e-03, 7.82679580e-03,
          1.48648731e-02, 3.13067646e-03, -1.04430849e-02,
          -1.02431094e-02, 5.41513972e-03, 1.30042192e-02,
          -8.62675661e-04, -7.57462345e-04, -2.08823406e-03,
          1.39396777e-02, 1.03505969e-04, -1.44525841e-02,
          5.74748265e-03, -3.96906445e-03, 5.48790721e-03,
          -6.28160732e-03, -9.70483106e-03, -4.80083935e-03,
          1.12198507e-02, 8.59649573e-03, 1.87343813e-03, 3.29702161e-03,
          2.07143202e-02, 1.37368999e-02, -1.76433485e-03,
          -1.83615123e-03, 1.98109238e-03, 1.57212354e-02,
          1.09220305e-02, -7.54538877e-03, -1.83997431e-03,
          8.98421858e-04, 4.17839410e-03, -2.09014653e-03,
          -4.09567822e-03, 5.82706823e-04, -2.13650346e-04,
          -1.96002911e-05, -2.71112635e-03, 4.23847046e-03,
          -7.64721830e-04, -5.53466380e-03, -1.73686247e-03,
          6.67090667e-03, -6.81208330e-05, -4.68853861e-03,
          -5.23795839e-03, 1.78700536e-02, 4.60166531e-03,
          -1.72512128e-03, -3.63135338e-03, -7.15224072e-03,
          4.41310136e-03, 1.36548737e-02, 1.42830350e-02, 1.03055676e-02,
          -7.63756782e-03, -4.57904255e-03, 2.84411618e-03,
          6.25255192e-03, -5.07303234e-03, -1.80498802e-03,
          1.45087379e-03, -2.55027064e-03, -1.35784466e-02,
          -8.10553506e-03, 2.96322932e-03, -1.19012445e-02,
          -7.76689313e-03, 4.79778554e-03, 3.18593113e-03,
          -6.50405360e-04, -9.36403777e-03, -6.32190052e-03,
          1.63898934e-02, 7.88258389e-03, 5.56372222e-04, 7.52790552e-03,
          6.08725566e-03, -1.04681626e-02, -7.20869424e-03,
          -2.77755968e-03, -4.35724476e-04, 7.39377458e-03,
          9.73150413e-03, -1.81859545e-03, 8.15857854e-03,
          2.80781300e-03, 5.55299176e-03, -5.58584323e-03,
          -1.11069009e-02, -2.22721137e-02, 1.92713796e-03,
          2.73287017e-03, -1.25394976e-02, 2.87149847e-03,
          1.22892456e-02, -4.73596435e-03, -7.74030574e-03,
          -1.09064393e-02, -2.21522292e-03, 1.76058349e-03,
          7.17349863e-03, -7.55332829e-03, 6.12834143e-03,
          4.12647333e-03, -1.17215747e-02, -7.64919864e-03,
          6.11452851e-03, -1.03123754e-03, 3.99929006e-03,
          6.69726450e-03, 6.07445696e-03, 1.70340929e-02, 2.46999087e-03,
          4.00889339e-03, -3.67107498e-03, -2.95803510e-03,
          -1.89212710e-02, -5.97209018e-03, -8.66920687e-04,
          1.05739404e-02, 1.32840695e-02, 1.34207318e-02,
          -1.65202729e-02, -1.90620199e-02, -3.35303089e-03,
          -8.66146013e-03, -1.44649809e-03, 1.19725093e-02,
          2.87111732e-03, 9.43545904e-03, 1.15305511e-03,
          -2.49363948e-05, -1.63726099e-02, 8.33589933e-04,
          -1.55328372e-02, -1.58515424e-02, 9.79982666e-04,
          8.72406643e-03, 2.75273286e-02, 9.75822192e-03, 4.50778333e-03,
          4.13034204e-03, 1.75719871e-03, -1.10363793e-02,
          -5.95507259e-03, 6.67547761e-03, 4.56948299e-03,
          4.16682707e-03, 1.29710417e-02, -9.24723595e-03,
          2.19502696e-03, 1.01459716e-02, -3.57867265e-03,
          -3.27512086e-03, 2.30319775e-03, -1.23888871e-03,
          4.42687096e-03, -5.90001349e-04, 9.88609716e-03,
          1.08358478e-02, 1.23856673e-02, -8.16348474e-03,
          -8.67615081e-03, 2.79241148e-03, -1.04192120e-03,
          6.55325083e-03, 6.68200944e-03, -9.70512815e-03,
          1.63273569e-02, 1.74780246e-02, 5.83370868e-03, 1.93587085e-03,
          -2.71670870e-03, -1.64755676e-02, -8.70008580e-03,
          -4.08608787e-04, -1.60096660e-02, 1.39299396e-03,
          1.25942100e-02, 1.53824212e-02, 7.12565007e-03, 8.69306084e-03,
          -5.29036450e-04, 4.23188414e-03, -3.37206572e-03,
          -7.06735952e-03, 2.24549742e-03, 9.23498161e-03,
          1.53115215e-02, -8.19819421e-03, -7.37253157e-03,
          1.23488409e-02, 8.38288455e-04, 3.75966099e-03, 5.99258533e-03,
          5.60400402e-03, 1.67391468e-02, 1.80605259e-02, 4.59752651e-03,
          -9.72719491e-03, -1.82195157e-02, -1.29310286e-03,
          4.04765364e-03, 6.57920958e-03, 5.33642853e-03, 3.82931158e-03,
          -1.10108790e-03, -1.20091075e-02, -2.15026215e-02,
          -8.79727118e-03, -1.03172092e-02, 1.12073198e-02,
          4.50313836e-03, -4.88480832e-03, 8.28718301e-03,
          1.47252697e-02, -6.45913929e-03, -1.44039756e-02,
          8.39300919e-03, -9.17118741e-04, 6.72461605e-03,
          5.52116800e-03, -6.04834640e-03, 1.30614860e-03,
          6.49453094e-03, -2.35826150e-03, 1.82479402e-04,
          5.67313889e-03, 2.82948255e-03, 1.37679065e-02, 2.77101574e-03,
          -9.76361893e-03, -1.08890980e-02, 1.05054933e-03,
          -5.55777689e-03, -1.83708984e-02, 2.32506846e-03,
          -2.73678615e-03, 1.18249627e-02, -1.13667687e-03,
          -1.51893534e-02, -1.21926609e-02, 4.25344845e-03,
          -9.56822839e-03, -4.73703118e-03, 1.62698701e-03,
          1.45799313e-02, 1.03164138e-02, -9.36848857e-03,
          -7.07387878e-03, 3.28740850e-03, 1.95098249e-03,
          -3.29330913e-03, -1.25994382e-03, -6.47074170e-03,
          -1.08800624e-02, 7.36223254e-03, -1.25689982e-02,
          -8.20830371e-03, 1.84316225e-02, 1.55570488e-02,
          1.39172282e-02, 1.19346334e-03, -2.45614955e-03,
          -9.84505285e-03, -1.03556574e-03, -1.95943769e-02,
          -1.98465697e-02, 6.69344794e-04, 2.39390880e-03,
          -1.78567339e-02, -3.79211362e-03, -2.01046700e-03,
          1.41758984e-03, 2.24488904e-03, -1.69443004e-02,
          -1.99700575e-02, 5.49243297e-03, 1.32053904e-02,
          2.63813697e-03, 2.09709600e-04, -7.77908228e-03,
          -9.02372506e-03, -6.86103897e-03, -1.69581529e-02,
          -1.26984939e-02, 1.21407565e-02, 7.71203171e-03,
          1.92362405e-02, -9.01755702e-04, 3.03222192e-03,
          -1.21975588e-02, -6.70716958e-03, -2.64389180e-02,
          -2.36829892e-02, 3.06388356e-05, 4.00016876e-03,
          1.01256790e-02, 4.73698135e-03, 1.19248666e-02,
          -7.65418168e-03, -1.15482518e-02, -3.20415646e-02,
          -1.86409038e-02, 8.14180262e-03, 1.26595078e-02,
          1.36582954e-02, -4.63099359e-03, -1.16509069e-02,
          -9.96435340e-03, -4.74986155e-06, -3.02411485e-02,
          -1.61600597e-02, 6.19200105e-03, 4.61341022e-03,
          1.19117443e-02, 6.56247092e-03, 1.44180225e-03, 3.54419556e-03,
          -7.85855297e-03, -2.03072187e-02, -1.69099439e-02,
          3.40033392e-03, 4.14312584e-03, 4.13657771e-03, 3.94834299e-03,
          1.96884349e-02, 6.77545229e-03, 4.57777176e-03,
          -1.40504548e-02, -1.34919938e-02, -5.80448890e-03,
          1.66883424e-03, 1.03829224e-02, 4.70720325e-03, 1.15299197e-02,
          1.32811291e-03, 6.26695924e-04, -3.19563374e-02,
          -1.79345515e-02, 9.40703135e-03, 1.19053209e-02,
          1.03744632e-02, 7.42945028e-03, 1.85341388e-02, 1.41290091e-02,
          -4.91286162e-04, -2.53376625e-02, -2.01346967e-02,
          -2.28853128e-03, 1.29205929e-02, 1.15587246e-02,
          5.84186520e-03, 1.32418992e-02, 1.07403798e-02,
          -8.77793506e-03, 9.54330375e-04, -5.42263687e-03,
          -1.09553980e-02, -1.62910726e-02, 4.24572220e-03,
          1.10628167e-02, 1.13435797e-02, 4.02958086e-03, 2.01551127e-03,
          -3.61843943e-03, -6.26651011e-03, -8.44858494e-03,
          -1.56900436e-02, -5.71173709e-03, -7.33747962e-04,
          8.68328847e-04, 2.45128246e-03, 2.00877921e-03,
          -2.47271196e-03, -1.07264053e-02, -4.48106788e-03,
          -1.55085512e-03, 2.14790460e-03, 1.38711557e-02,
          6.30013226e-03, -4.99779475e-04, -1.95682561e-03,
          -5.03790611e-03, -1.64859518e-02, -6.28396962e-03,
          -2.43148152e-02, -3.31718125e-03, 2.28800200e-04,
          3.84825328e-03, 6.47282787e-03, 1.21723730e-02,
          -1.74763409e-04, -5.06537559e-04, 2.06942670e-03,
          2.93858349e-04, -1.15572717e-02, -6.35710265e-03,
          -6.06091972e-03, -4.05036844e-03, -2.27769394e-03,
          4.51363577e-03, -1.45732407e-02, -5.07810386e-03,
          7.79401045e-03, -4.51484928e-03, -7.74774840e-03,
          1.36738221e-04, -3.66855238e-04, 1.22089377e-02,
          -1.42258231e-03, -1.45306773e-02, -1.21799177e-02,
          -6.52050227e-03, -2.10277885e-02, -1.13680903e-02,
          4.43593832e-03, 1.63899884e-02, 1.99623965e-02, 1.04029672e-02,
          -1.11118192e-02, -3.29578132e-03, -2.59938301e-03,
          -1.97692085e-02, -6.20765192e-03, 8.50655418e-03,
          1.90566089e-02, 2.82248873e-02, 1.05779124e-02,
          -1.17458468e-02, -9.80766583e-03, 7.35015562e-03,
          -2.66616489e-03, -3.85715999e-03, -4.36040107e-03,
          3.35302181e-03, 1.00335134e-02, -4.29998338e-03,
          -6.78036455e-03, 5.42920490e-04, -8.13885685e-03,
          1.10203389e-03, -5.28158620e-03, -4.30565700e-03,
          -2.32147239e-03, -1.03101332e-03, 1.25702377e-02,
          -6.80972682e-03, -1.02085317e-03, -2.88659381e-03,
          -8.28468893e-03, -5.02778636e-03, 4.31905501e-03,
          1.18542584e-02, 1.65993758e-02, -5.31702256e-03,
          -1.20539712e-02, 1.87044195e-03, -1.20444885e-02,
          5.40034240e-03, 3.45442537e-03, 1.83234876e-03, 4.23350744e-03,
          3.45783634e-03, -1.31142028e-02, -9.20860283e-03,
          8.26765783e-03, 6.35883259e-03, 1.00091437e-03,
          -2.89441459e-03, -6.62188465e-03, -5.21421153e-03,
          -4.41483594e-03, -9.99959279e-03, 2.54077115e-03,
          1.28257573e-02, 1.16914464e-02, -1.09319072e-02,
          -1.63650662e-02, -1.90308485e-02, -8.08269624e-03,
          -2.32148776e-03, -1.09942565e-02, -1.87758785e-02,
          8.96780659e-03, 3.24782380e-03, 4.95392457e-03, 4.97170398e-03,
          5.47259627e-03, -3.85459699e-03, -4.46324935e-03,
          -1.32362703e-02, -5.25270542e-03, 1.08753499e-02,
          3.57497903e-03, -6.34763972e-04, 9.32615064e-03,
          -2.83637363e-03, -1.55369090e-02, -7.94702675e-03,
          -4.54007462e-03, 6.61399588e-03, 1.57185234e-02,
          8.42957571e-03, -4.09689872e-03, -1.74313877e-02,
          -9.17020999e-03, -7.53323548e-03, 6.11512363e-03,
          2.61426275e-03, -2.54007406e-03, 4.59974073e-03,
          -1.44648214e-03, -1.46589177e-02, -1.64081920e-02,
          2.51713907e-03, 1.59324962e-03, 1.33859003e-02,
          -8.35539680e-03, -6.10058289e-03, 1.63921155e-02,
          6.19553123e-03, 3.87355965e-03, -2.58594542e-03,
          -4.87623038e-03, 1.28007098e-03, 4.68118256e-03,
          -2.49348185e-03, -9.83255450e-03, -5.04406076e-03,
          -1.35970963e-02, -1.70303583e-02, -1.55422669e-02,
          4.49133664e-03, 1.15665998e-02, 1.40955411e-02, 1.25300894e-02,
          -1.22028927e-03, -5.15501853e-03, -1.19784102e-02,
          -5.47194853e-03, -4.29861620e-03, 1.22892379e-03,
          8.49556061e-04, 1.78687219e-02, 1.07100476e-02, 1.92967022e-03,
          -6.45979960e-03, -1.98925529e-02, 4.03489743e-04,
          -9.35872085e-03, -1.17458040e-02, -1.07639302e-02,
          -3.38145671e-03, 2.50807665e-02, 2.10228236e-03,
          -6.33749459e-03, -1.51585517e-02, -1.52057521e-02,
          -7.69494334e-03, -9.28696536e-04, 6.92028878e-03,
          2.57840939e-02, 1.34034436e-02, -4.19296231e-03,
          -1.44770518e-02, -1.76947303e-02, 8.29401519e-03,
          -6.23905985e-03, -1.00001041e-02, -9.04670544e-03,
          6.23648614e-03, 3.18954990e-04, 8.18749075e-04, 4.08093585e-03,
          -1.38015125e-03, 7.06033432e-04, -5.57918614e-03,
          -1.76784098e-02, -7.40655884e-03, -1.72126421e-03,
          7.37534184e-03, -6.37517916e-03, 7.29098078e-03,
          2.76987511e-03, 3.44998180e-03, -1.13082984e-02,
          -5.28598297e-03, 4.51480178e-03, 5.90240117e-03,
          8.02554470e-03, -1.20400470e-02, -9.20543820e-03,
          2.13382370e-03, 1.85242947e-02, 5.15995314e-04,
          -7.74993189e-03, -1.27504542e-02, 8.20520986e-03,
          1.67666804e-02, -8.85465741e-03, -5.31145604e-03,
          5.67774661e-03, 2.46748817e-03, -1.03560220e-02,
          -2.67277530e-04, -7.00622564e-03, 9.71775223e-03,
          -5.24572656e-03, -8.61888693e-04, 5.85841853e-03,
          4.68602730e-03, 6.63908524e-03, 9.29340068e-03, 6.75527239e-03,
          5.30335819e-03, -5.98337175e-03, 1.22918282e-03,
          2.72854557e-03, 3.84310167e-03, 5.64066041e-03, 3.62818339e-03,
          8.37113895e-03, 8.83034803e-03, 1.10788764e-02, 5.27305063e-03,
          -1.57297193e-03, 6.88597374e-03, 1.26799159e-02,
          -6.17851876e-03, -1.39881680e-02, 1.16498340e-02,
          9.33046173e-03, -7.71737006e-03, -1.48150548e-02,
          -5.42348193e-04, -9.29893460e-03, -3.80054978e-03,
          -7.29401084e-03, -7.19632441e-03, 1.86803676e-02,
          6.18565967e-03, -6.04672963e-03, -1.28046293e-02,
          1.33830765e-02, 1.22848395e-02, 1.60979982e-02, 7.13279657e-03,
          4.24680626e-03, 5.49308443e-03, 5.84149221e-03, 4.15826635e-03,
          6.41931826e-03, 1.34903695e-02, 1.48097230e-02, 3.38148000e-03,
          -9.50217154e-03, -3.73270083e-03, 4.44442313e-03,
          -9.34088975e-03, -8.52952898e-03, 1.40590882e-02,
          -5.07596880e-03, -5.19863889e-03, 2.71665235e-03,
          -7.21195247e-03, -9.47916787e-03, 1.03874858e-02,
          -3.82527272e-04, -2.95424601e-03, -5.91540360e-04,
          1.10000111e-02, 7.29610352e-03, 7.21671805e-03,
          -1.73296016e-02, -7.36982329e-03, 6.56475034e-03,
          -8.30962602e-03, -8.19480792e-03, 1.34933079e-02,
          2.07127109e-02, 5.60220238e-03, -7.17152943e-05,
          -1.70621444e-02, 1.69873226e-03, 1.63347425e-03,
          -1.21475663e-02, -5.01309009e-03, 1.82451531e-02,
          -8.97234073e-04, -5.99328335e-03, -9.13126767e-03,
          -9.44178365e-03, 9.19206068e-03, 1.23528084e-02,
          -5.89477038e-03, -4.75968327e-03, 7.55923148e-03,
          8.88899341e-03, 4.42192238e-03, -1.35923957e-03,
          -2.30002161e-02, 3.30285076e-03, -3.98031436e-03,
          -8.51290126e-04, 5.31081867e-04, 1.56971030e-02,
          -8.10747966e-03, -6.47959672e-03, -8.93446803e-03,
          -1.29088480e-02, 2.78197869e-04, 8.66492838e-03,
          -1.92312046e-03, -8.58879765e-04, 1.31602660e-02,
          -1.47130117e-02, -1.52621260e-02, -1.22400504e-02,
          -1.03456378e-02, 8.85019545e-03, 1.58010051e-02,
          8.01505707e-03, 6.27031317e-03, 1.36691239e-03,
          -1.80192739e-02, -1.87422670e-02, -6.89749839e-03,
          -1.05645508e-02, 3.71760735e-03, 1.69358440e-02,
          1.85741689e-02, 2.04481762e-02, 2.66118720e-03,
          -1.37683265e-02, -7.66509026e-03, -1.59762185e-02,
          -1.36129092e-02, 7.87581317e-03, 1.42555572e-02,
          1.35400356e-03, 6.68373052e-03, 1.89530809e-04,
          -2.08419748e-02, -1.14994878e-02, -8.48293584e-03,
          -1.18740713e-02, 4.79533197e-03, 2.15991288e-02,
          3.62412003e-03, 1.63897909e-02, 4.92391270e-03,
          -1.13565922e-02, -6.63723145e-03, 5.62924892e-03,
          -4.16104589e-03, -4.03237902e-03, 1.63389184e-02,
          7.42327841e-03, 3.09276581e-03, 1.14431442e-03,
          -9.69207287e-03, 7.68044218e-03, 1.94450691e-02,
          3.14102415e-03, 2.89585936e-04, 4.64613363e-03,
          -1.36904251e-02, -2.36134394e-03, -3.68765410e-04,
          -2.16976628e-02, -1.38836158e-02, -3.48656275e-03,
          -1.08509772e-02, 3.57039995e-03, 1.23952236e-02,
          8.52098875e-03, 7.95727968e-03, 1.01246359e-03,
          -3.36381537e-03, -7.32582994e-03, 2.67705647e-03,
          -1.29884211e-02, 4.77982080e-03, -1.40604272e-03,
          7.57318456e-04, 1.83774550e-02, 9.30051506e-03, 7.57298106e-03,
          3.31506692e-03, 8.15306697e-03, 2.28151330e-03, 5.56927733e-03,
          -1.15725622e-02, -1.02291415e-02, 7.16120889e-03,
          7.49352202e-03, -3.46025848e-03, -8.88407603e-03,
          3.29481135e-03, -9.61720664e-03, 6.92825648e-04,
          -1.08692562e-02, 2.82891165e-03, 5.27549163e-03,
          7.67821167e-03, 1.33353320e-03, -1.77328428e-03,
          -2.01497949e-03, -1.47759030e-02, 2.10366584e-03,
          -2.45313207e-03, 6.49965974e-03, 2.27291696e-02,
          1.81391537e-02, -8.26891325e-03, -1.98768694e-02,
          -5.19866915e-03, -1.44431228e-02, 6.27971487e-03,
          -1.61163730e-03, 1.00903763e-02, 1.93505548e-02,
          7.03605823e-03, -7.37384241e-03, -1.51448026e-02,
          -1.66417249e-02, -1.79544911e-02, 8.48590210e-03,
          -1.26209029e-03, 4.42573708e-03, 1.05897328e-02,
          9.82103776e-03, -6.74935244e-03, -1.52970525e-02,
          -1.59072429e-02, -1.50482003e-02, 8.45898688e-03,
          -3.30166687e-04, 4.69950726e-03, 1.84652377e-02,
          9.05180909e-03, -2.32656281e-02, -2.43440811e-02,
          -1.95649471e-02, -1.48510626e-02, 1.38556510e-02,
          1.43498369e-02, 1.65613890e-02, 2.69248839e-02, 8.99168756e-03,
          -1.83824077e-02, -1.61718205e-02, -9.36970022e-03,
          -7.52721122e-03, 1.55062284e-02, 1.00044897e-02,
          1.48350056e-02, 3.01787984e-02, 5.05326642e-03,
          -1.54511556e-02, -2.05549058e-02, -6.33891113e-03,
          -7.68766925e-03, -4.24513360e-03, -4.64348402e-03,
          4.78582364e-03, 2.18628831e-02, 6.32138131e-03,
          -7.00394390e-03, -1.46287251e-02, -3.49014089e-03,
          -2.67064944e-03, -5.25668962e-03, -1.61427935e-03,
          -8.53216159e-04, 1.25016319e-02, 1.60976257e-02,
          -2.18030699e-02, -1.83216296e-02, -8.25105235e-03,
          -3.38283717e-03, 1.10219861e-03, -3.11647099e-03,
          9.70540568e-04, 1.76165923e-02, -6.61901897e-03,
          -9.42137279e-03, -9.81953088e-03, -1.57027449e-02,
          -1.12004513e-02, -8.85158498e-03, -8.10785405e-03,
          -5.89406444e-03, 1.11505799e-02, 1.27577689e-02,
          -1.71734896e-02, -8.78410600e-03, 8.40983633e-03,
          1.70338824e-02, 1.05980765e-02, -4.69227927e-03,
          -4.23845509e-03, 2.71596760e-03, 2.00509857e-02,
          -3.47398408e-02, -2.58531682e-02, -3.34769953e-04,
          1.65058728e-02, 1.17219007e-02, -3.92371818e-04,
          2.41931339e-04, 1.15269888e-02, 1.71941295e-02,
          -1.53572382e-02, -1.91404670e-02, -4.52306122e-03,
          2.03603806e-04, -2.43318779e-03, -8.60895962e-03,
          -1.82114949e-03, 7.53885275e-03, 1.35351820e-02,
          -2.08700467e-02, -2.64167376e-02, 4.45412518e-03,
          1.64998006e-02, 1.21905729e-02, -1.07036624e-02,
          -3.44124134e-03, 1.24239931e-02, 1.29480055e-02,
          -3.23806219e-02, -2.11255029e-02, -1.47546292e-04,
          1.00218114e-02, 1.02528017e-02, 3.62184737e-03, 1.30665274e-02,
          2.56990883e-02, 9.53534804e-03, -2.62965076e-02,
          -2.70837154e-02, 1.27002655e-03, 8.70075542e-03,
          1.13266874e-02, 9.58103500e-03, 1.65153854e-02, 1.62723754e-02,
          -9.93655645e-04, -1.95151102e-02, -1.86573155e-02,
          -2.00464553e-03, 1.06155630e-02, 1.33554423e-02,
          -1.68550666e-03, 5.14943479e-03, 1.72750074e-02,
          1.07856188e-02, -2.92257778e-02, -2.19302475e-02,
          -1.10399416e-02, 3.49850836e-03, 1.16817644e-02,
          2.58959387e-03, 1.37922661e-02, 1.30159138e-02, 3.94793926e-03,
          -2.28597298e-02, -1.29495021e-02, 5.55193936e-03,
          6.62623206e-03, 2.38517229e-03, 3.19271465e-03, 1.17831314e-02,
          7.27411686e-03, -2.59940076e-04, -1.22750457e-02,
          -1.92813464e-02, -1.14692897e-02, -1.53659959e-04,
          -5.04017621e-03, 3.62548837e-03, 4.55855625e-03,
          1.84074249e-02, 2.12678518e-02, -1.53287407e-02,
          -9.26763471e-03, 3.11745075e-03, 1.00208912e-02,
          5.77237597e-03, -1.08862715e-02, 2.95094983e-03,
          3.35985259e-03, 1.73562523e-02, -3.65859875e-03,
          -1.63221676e-02, -1.53487828e-03, 2.65731523e-03,
          1.63748849e-03, -8.36815126e-03, -4.45112353e-03,
          6.07586559e-03, 1.82334967e-02, 3.45259882e-03,
          -1.92712396e-02, -2.72920704e-03, 1.44566991e-03,
          -2.03556586e-02, -5.68284933e-03, 8.14167038e-03,
          2.51649451e-02, 1.91988368e-02, 2.96755601e-03,
          -1.00542633e-02, 8.98803305e-03, 3.95783316e-03,
          -2.70890184e-02, -2.64695031e-03, 1.43116107e-02,
          1.95928514e-02, 1.67623833e-02, 2.10463256e-03,
          -1.67199466e-02, 4.58182022e-03, 3.18385195e-03,
          -1.82773229e-02, -6.98511209e-03, 3.98819288e-03,
          1.55253382e-02, 2.28596944e-02, 5.77972457e-03,
          -1.66376447e-03, 1.46860359e-02, -3.09965643e-03,
          -2.08795369e-02, -1.06102936e-02, 3.00423056e-03,
          2.17331536e-02, 2.21123137e-02, 8.83628521e-03,
          -7.97759555e-03, 3.35506583e-03, -3.75710754e-03,
          -9.15139075e-03, -2.69220257e-03, 3.65394354e-03,
          1.33971190e-02, 1.86360255e-02, -2.45162286e-03,
          -1.68335922e-02, 1.37065933e-03, -6.74859621e-03,
          4.53791628e-03, 1.39548266e-02, 5.66304836e-04, 1.78531255e-03,
          1.70368459e-02, 1.19201606e-02, -5.83717786e-03,
          -3.59941885e-04, -4.56234207e-03, -6.46727160e-03,
          -1.00241890e-02, -4.83083888e-04, 8.86654668e-03,
          1.02718156e-02, -3.61446146e-04, -7.09768385e-03,
          -1.02372291e-02, -1.60536915e-02, -1.56298652e-03,
          -4.41324757e-03, -2.41864566e-03, -4.92489198e-03,
          6.06157817e-03, -5.32947760e-03, -2.19772775e-02,
          5.35085704e-03, 2.08545662e-03, 8.34816601e-03, 1.97009165e-02,
          3.18863639e-03, -4.77496814e-03, 5.51307714e-03,
          -1.16194161e-02, -2.67626159e-02, -1.32320803e-02,
          -4.44402732e-03, 4.91253659e-03, 2.01925002e-02,
          5.64455800e-03, -1.11022657e-02, -7.28089362e-03,
          -3.01572843e-03, -2.49152444e-02, -2.75479723e-02,
          -1.16479611e-02, 1.07348273e-02, 6.25694590e-03,
          -6.23106398e-03, -5.05525945e-03, 4.76697134e-03,
          -1.53225996e-02, -3.23969647e-02, -3.32043134e-02,
          -1.22719351e-02, 2.24188175e-02, 3.46885878e-03,
          5.88784053e-04, 1.27050688e-03, 8.58692452e-03,
          -4.04195627e-03, -2.41652150e-02, -9.99778789e-03,
          5.02646854e-03, 1.07454527e-02, 1.99250840e-02, 5.77227259e-03,
          -1.61161367e-03, 8.59465392e-04, 1.26150041e-03,
          -2.61794850e-02, -1.61630455e-02, 1.13275135e-03,
          4.84999007e-04, 7.88284838e-03, -2.17517652e-03,
          5.56754367e-03, 1.31319715e-02, -1.30331272e-03,
          -3.41625512e-02, -4.01429124e-02, -1.17665790e-02,
          2.03307010e-02, 1.42529001e-02, 5.21437963e-03, 8.90639145e-03,
          1.57807749e-02, 4.84302687e-03, -3.21519524e-02,
          -3.04042567e-02, 2.02730345e-03, 1.33495266e-02,
          1.02035841e-02, 7.97821674e-04, 1.54421907e-02, 3.09006162e-02,
          1.56502668e-02, -1.55004114e-02, -1.32587822e-02,
          -1.18045779e-02, -3.67390341e-03, -2.18065269e-03,
          -7.41314376e-03, 3.80656100e-03, 2.91026756e-02,
          6.91947527e-03, -5.52625069e-03, -2.25802567e-02,
          -2.26982832e-02, 2.03854684e-03, -2.75637652e-03,
          -1.16829565e-02, -6.01663813e-03, 1.80309415e-02,
          1.43170245e-02, -2.37355400e-02, -1.41411703e-02,
          2.54871859e-03, -6.45627407e-03, -5.97337540e-03,
          -8.18798225e-03, 1.49521446e-02, 3.42932977e-02,
          2.35397182e-02, 5.57809463e-03, -8.27509537e-03,
          -1.28251649e-02, -1.25729423e-02, -4.71627247e-03,
          -1.91903498e-04, 9.89360828e-03, 2.68151313e-02,
          1.85198919e-03, -7.32365577e-03, -1.81770045e-02,
          -1.42523991e-02, 7.70333689e-04, 8.65127426e-03,
          3.19053838e-03, -1.09002944e-02, 4.74578515e-03,
          1.05777606e-02, -3.81011935e-03, -1.86327230e-02,
          -7.76078086e-03, -6.67398330e-03, -8.90989415e-03,
          4.85698506e-03, -9.47895274e-03, 6.92618079e-03,
          1.31192459e-02, 7.27571920e-03, -1.32203312e-03,
          -1.62087120e-02, -1.22317951e-03, 8.42597801e-03,
          7.73955416e-03, -3.60357575e-03, 5.25064999e-03,
          9.04065277e-03, 1.12316478e-03, -5.35018230e-03,
          -1.44350212e-02, 2.79691350e-03, 8.47406778e-03,
          1.13138240e-02, 6.05866080e-04, 9.39287059e-03, 5.53317508e-03,
          1.09338695e-02, 1.41716702e-02, -1.01272324e-02,
          -2.06779242e-02, -2.26976397e-03, 1.38315205e-02,
          -8.29833079e-05, -7.49945128e-03, -5.60724083e-03,
          -3.21864546e-03, 5.93222957e-03, 5.05041983e-03,
          -1.20729571e-02, 4.54833265e-03, 2.96602165e-03,
          -5.77792013e-03, -2.26279180e-02, 1.83210312e-03,
          8.54541082e-03, 5.11608459e-03, 3.72168235e-03,
          -1.66777913e-02, -7.20813405e-03, 1.48964580e-02,
          2.35032160e-02, -4.91616200e-04, -9.14929528e-03,
          -7.52122840e-03, -2.22542556e-03, -4.21418250e-03,
          -1.16969300e-02, 2.20365240e-03, 8.14298913e-03,
          1.82364155e-02, -8.74356274e-03, -5.76144177e-03,
          -7.56693818e-03, 1.09137679e-02, 9.47272032e-03,
          -6.41636644e-03, 1.26631549e-02, 1.01548862e-02,
          4.44345688e-03, -4.55275690e-03, -7.31361751e-03,
          -1.39604099e-02, 1.10435607e-02, 1.85694988e-03,
          2.64594797e-03, 9.07081366e-03, 2.54853885e-03, 2.43799528e-03,
          9.94370505e-03, -5.93237905e-03, -1.20175472e-02,
          4.71130386e-03, 6.51418045e-03, -1.15053401e-04,
          2.59809871e-03, 1.03690587e-02, 9.04007908e-03, 5.58665395e-03,
          -1.07793845e-02, -2.82282028e-02, 2.44511408e-03,
          1.45769343e-02, 8.14064313e-03, -1.57618822e-04,
          -5.28834574e-03, -1.19336536e-02, 7.45508494e-03,
          3.43917124e-03, -8.82647187e-03, -2.88074277e-03,
          -1.03109488e-02, 3.03799519e-03, -5.35882951e-04,
          -2.57924502e-03, -3.09383590e-03, 1.49394525e-02,
          9.71907191e-03, -5.31890569e-03, -1.43697858e-02,
          -1.95251424e-02, 6.76049991e-03, 1.76046706e-05,
          5.04205236e-03, -2.40780483e-03, 1.08523490e-02,
          -9.66818130e-04, -2.31229216e-02, -9.65218805e-03,
          -2.88219145e-03, 8.73985421e-03, -2.94820685e-03,
          -1.27030984e-02, -9.71581694e-03, 1.09428391e-02,
          2.94632814e-03, -1.62651874e-02, -2.39883941e-02,
          -9.48459283e-03, 3.55090201e-03, 4.10931389e-04,
          -2.82306428e-04, 1.09637519e-02, 2.18710769e-02,
          -2.58261710e-03, -8.12635291e-03, -1.05965715e-02,
          -7.57157523e-03, 1.31103108e-02, 7.63186906e-03,
          1.52704061e-03, 5.68658905e-03, -4.48024459e-03,
          -1.19926184e-02, -1.43072885e-02, -8.97289440e-03,
          -7.37243914e-04, 1.10815233e-02, 1.80496871e-02,
          3.80198052e-03, 1.69135313e-02, -1.02457311e-03,
          -1.22428732e-02, -1.31134968e-02, -2.14281268e-02,
          -4.60993405e-03, 2.44317073e-02, 5.86665375e-03,
          1.20575086e-03, 1.31471353e-02, 5.06809563e-04,
          -3.35615948e-02, -2.10124590e-02, -1.70919001e-02,
          -3.78179742e-04, 1.74735375e-02, 1.39486231e-02,
          6.40723994e-03, 1.98038165e-02, -2.43494054e-03,
          -1.29413297e-02, -1.58517696e-02, -4.90502082e-03,
          -2.28146696e-03, 8.00973363e-03, 3.84831266e-03,
          2.24705786e-03, 2.06775963e-02, 3.98243917e-03,
          -3.09630483e-03, -1.13471616e-02, -1.41358702e-03,
          -1.73014391e-03, 1.15266647e-02, -5.73900528e-03,
          -1.87513675e-03, 2.24013049e-02, 1.62871424e-02,
          -2.02132352e-02, -1.64285451e-02, -1.22255152e-02,
          -3.54801188e-03, 1.80304609e-02, -1.43421278e-03,
          -3.65139823e-03, 2.25209258e-02, 5.84796164e-03,
          -1.43236779e-02, -1.94981880e-02, -7.09380629e-03,
          -8.21392096e-05, 1.16208298e-02, 4.37742192e-03,
          -6.57528732e-03, 1.84645131e-02, -7.59034697e-03,
          -7.09937885e-04, -1.85727086e-02, -9.88186058e-03,
          -1.06609967e-02, 9.35889315e-03, 1.52728509e-03,
          7.09267426e-03, 1.60357878e-02, 1.15439072e-02,
          -1.27316862e-02, -2.02444643e-02, -2.13007517e-02,
          -1.05050690e-02, 7.38766836e-03, 2.67863879e-03,
          1.02561535e-02, 1.98175572e-02, 8.54726881e-03,
          -2.25997642e-02, -1.80684701e-02, -1.28345601e-02,
          -1.86837860e-03, 1.64533481e-02, 1.03007574e-02,
          1.63719021e-02, 1.09294578e-02, -1.02969510e-02,
          -2.31999923e-02, -1.79977231e-02, -2.20213477e-02,
          -3.07342503e-03, 7.61774881e-03, 9.01845098e-03,
          9.61205736e-03, 4.15109051e-03, -1.77331120e-02,
          -2.49529351e-02, -2.71884128e-02, -1.54249668e-02,
          -1.10839994e-03, 7.51734572e-03, 1.48290833e-02,
          1.36161847e-02, 1.76349152e-02, -5.77380240e-04,
          -3.07077989e-02, -2.22383887e-02, 9.19847284e-03,
          1.10264327e-02, 1.09160040e-02, 1.11944554e-02, 1.20858150e-02,
          7.96095096e-03, -9.03004780e-03, -2.93719377e-02,
          -2.69859638e-02, -1.23982942e-02, 9.10029374e-03,
          5.13000414e-03, 7.79217435e-03, 6.79376442e-03, 1.93282496e-02,
          -1.02792215e-02, -3.40972990e-02, -2.45601628e-02,
          -6.49578637e-03, 2.30477154e-02, 2.25988571e-02,
          7.96322525e-03, 5.62778674e-03, 4.94852290e-03,
          -1.07856281e-02, -1.68989487e-02, -8.10577627e-03,
          4.00599698e-03, 1.22271646e-02, 1.40609620e-02, 5.19431755e-03,
          3.34052485e-03, 1.90203043e-03, -2.79805460e-03,
          -1.67320799e-02, -2.06252523e-02, -5.05590625e-03,
          3.65088647e-03, 9.41732246e-03, 1.84401477e-04, 5.34384698e-03,
          1.45083515e-03, 1.53220296e-02, -2.21820846e-02,
          -2.24572569e-02, -5.88553399e-03, 2.05666758e-02,
          2.42726002e-02, 1.18360240e-02, 5.04083466e-03, 9.87569708e-03,
          2.58897780e-03, -1.85016822e-02, -1.48446942e-02,
          -8.08222778e-03, 1.02053843e-02, 2.07391214e-02,
          1.61313135e-02, 7.53878336e-03, 9.68657993e-03, 7.48953503e-03,
          -1.21413870e-02, -1.90018285e-02, -3.13222921e-03,
          2.35963729e-04, 3.33088799e-03, -2.80662370e-03,
          7.15767359e-03, 7.40611786e-03, 1.73437633e-02,
          -1.96486954e-02, -1.58305466e-02, 1.12211555e-02,
          6.76213158e-03, 1.12331444e-02, -3.66201531e-03,
          3.41345463e-03, 9.86428000e-03, -4.27219202e-04,
          -1.89852435e-02, -9.39864758e-03, 5.05119516e-03,
          -2.05243798e-03, 8.78016744e-03, 7.25125289e-03,
          4.30393545e-03, -3.95876868e-03, 9.87142418e-03,
          -2.44724043e-02, -1.20889884e-03, 9.14329570e-03,
          3.82103119e-03, 3.73872765e-03, 5.67109790e-03, 9.67054069e-03,
          1.60818128e-03, 3.55323707e-03, -1.82833932e-02,
          -1.39304092e-02, 6.48144586e-03, 1.62853918e-03,
          1.50397541e-02, 3.18139256e-03, 5.97573351e-03, 9.05010011e-03,
          -3.25290486e-03, -1.80247594e-02, -2.45215800e-02,
          -1.58689953e-02, -2.20375787e-03, 1.42811211e-02,
          7.65527505e-03, 1.54760154e-02, 7.03279488e-03,
          -1.22039451e-03, -1.77705660e-02, -1.22545082e-02,
          -3.57654039e-03, 6.94894348e-04, 5.72466012e-03,
          8.87117255e-03, 1.26980031e-02, 1.33157996e-02,
          -3.28454236e-03, -1.08826924e-02, -1.82161573e-02,
          -1.36365816e-02, -1.23738043e-03, 1.11902924e-02,
          4.64765448e-03, 7.61551829e-03, 1.11215224e-03,
          -4.98595089e-03, -1.06059192e-02, -1.32329008e-02,
          -6.02921937e-03, 5.57902968e-03, 9.78351198e-03,
          -5.08549344e-03, 7.27523863e-03, 2.51050945e-03,
          7.43394578e-03, -9.43364459e-04, -2.38335021e-02,
          -3.27185233e-04, 9.44764446e-03, 8.13703146e-03,
          -1.58992726e-02, -7.08075846e-03, -2.33680545e-03,
          1.64603852e-02, -5.29373763e-03, -6.09651254e-03,
          -5.06365206e-03, 2.97219027e-03, 1.97653901e-02,
          -7.38385646e-03, -3.39675276e-03, -4.10745991e-03,
          8.13498069e-03, -3.54755390e-03, -1.93127356e-02,
          -7.84697197e-03, 4.46661469e-03, 1.18525084e-02,
          -1.57992244e-02, -6.90434035e-03, -4.22020210e-03,
          1.31209102e-02, 3.26562789e-03, -2.22889688e-02,
          -1.85918051e-03, 6.30365359e-03, -3.26247187e-03,
          -4.20224946e-03, -7.21204840e-03, 8.81023798e-03,
          2.47550514e-02, 3.21757142e-03, -1.27963442e-02,
          -2.63727806e-03, 1.29290472e-03, -1.43938409e-02,
          -1.11847492e-02, -5.76074654e-03, 8.98295641e-03,
          1.89791676e-02, -1.10936689e-03, -2.76234876e-02,
          -1.00068105e-02, -6.39570993e-04, 1.48271192e-02,
          2.04222254e-03, -6.48009079e-03, 4.77976864e-03,
          1.41453827e-02, -1.42385237e-04, -1.37963472e-02,
          2.45075743e-03, -6.18973107e-04, -5.67035610e-03,
          1.72236131e-03, 1.37278773e-02, 1.49548864e-02, 6.37386134e-03,
          -1.08941102e-04, -1.70060731e-02, -6.82248408e-03,
          1.70789426e-03, -6.87579066e-03, -1.01430751e-02,
          7.45776226e-04, 4.56581824e-03, 5.06853638e-03,
          -5.35034575e-03, -1.66151263e-02, -1.77158869e-03,
          -7.51238130e-03, 7.67234713e-04, 1.01172701e-02,
          9.87291336e-03, 2.81976233e-03, -1.39314041e-04,
          -7.22078281e-03, -2.26506032e-02, -1.66014081e-03,
          8.52334604e-04, -4.16817889e-03, 2.16461509e-03,
          1.25862109e-02, 5.11786202e-03, -5.33341104e-03,
          -1.06035648e-02, -2.71353982e-02, 7.03439163e-03,
          1.19577562e-02, 9.76744294e-03, 2.00363854e-03, 6.47639157e-03,
          3.31703550e-03, -1.06300274e-03, 2.92207376e-04,
          -1.54574700e-02, -1.13081411e-02, -3.33953998e-03,
          6.73832279e-03, 4.58480371e-03, -1.62181165e-03,
          4.07972187e-03, 6.50747167e-03, 1.41816703e-03,
          -2.16457713e-02, -2.60917395e-02, -5.84738282e-03,
          5.97118074e-03, -7.11622695e-03, 2.31682020e-03,
          4.41331044e-03, 1.23973386e-02, -8.05512909e-03,
          -1.70281213e-02, -5.49654523e-03, 1.52763380e-02,
          1.29418611e-03, -9.53700673e-03, 5.86011331e-04,
          9.55877360e-03, 4.46843961e-03, 2.96024373e-03,
          -9.27878264e-03, -4.44741035e-03, -1.07415603e-03,
          2.11370178e-03, -1.95249468e-02, 9.70519986e-03,
          8.42720922e-03, 7.17568444e-03, 6.28285948e-03,
          -2.53112242e-02, -3.02783530e-02, -6.64825784e-03,
          1.21657019e-02, -1.02011510e-03, 6.39499398e-03,
          1.05079962e-02, 1.62506197e-02, 9.06935020e-04,
          -2.41340399e-02, -2.36476213e-02, -6.81961887e-03,
          1.31051484e-02, -4.43969294e-03, -3.24741006e-03,
          1.07351374e-02, 1.47602893e-02, 5.70682716e-03,
          -1.85975116e-02, -1.77395400e-02, -4.51528979e-03,
          6.17064210e-03, -1.65162738e-02, 9.29169729e-03,
          8.78701452e-03, 5.69343613e-03, -8.01981799e-03,
          -1.03402557e-02, -1.50432475e-02, -2.79275537e-03,
          5.96903590e-03, -1.40332477e-02, -4.92911646e-03,
          8.87717004e-04, -2.35014642e-03, -3.20487947e-04,
          -1.88823901e-02, -1.44439833e-02, -1.46145350e-03,
          9.82654281e-04, -7.35213887e-03, -1.89624564e-03,
          1.02099758e-02, 2.05332413e-02, 2.63525941e-03,
          -7.47524993e-03, -1.00553315e-02, -9.05652624e-03,
          -1.19357919e-02, -7.37430295e-03, 2.18679034e-03,
          7.15801260e-03, 1.63220670e-02, -2.03111153e-02,
          -1.13706859e-02, -1.42376311e-02, -4.13141120e-03,
          1.20601552e-02, -1.99308712e-03, 6.63398241e-04,
          8.08700279e-04, -7.14692054e-03, -1.11120557e-02,
          -2.81962380e-03, -8.99345148e-03, -6.10674545e-03,
          -1.19309244e-03, 2.23774649e-03, 7.06693809e-03,
          7.92024471e-03, -2.79769581e-03, 8.21543112e-03,
          -3.24211927e-04, -2.20023957e-03, -1.27502792e-02,
          1.61738880e-03, 3.54700093e-03, 8.74616019e-03, 4.78250295e-04,
          8.97691771e-03, 1.68844424e-02, 1.13149779e-03,
          -6.93547830e-04, -1.90165900e-02, 1.81255990e-03,
          3.28587601e-03, 8.92707147e-03, -1.03006465e-03,
          5.58057800e-03, 5.62497554e-03, 1.24163628e-02,
          -2.78512272e-03, -1.55204991e-02, -1.34115824e-02,
          -5.23204030e-03, 2.35530850e-03, 3.48696206e-03,
          5.83905960e-03, 1.54276919e-02, 6.27254136e-03,
          -7.88966566e-03, -2.21497584e-02, -6.69015944e-03,
          -7.26471143e-03, -9.49981040e-04, -7.18691293e-03,
          6.20558346e-03, -2.52279663e-03, 2.63752823e-04,
          3.22782638e-04, 1.21050626e-02, 7.11741392e-03,
          -2.05871230e-03, 6.71288464e-03, 1.27075650e-02,
          -1.18607678e-03, -1.44902235e-02, -5.06562460e-03,
          -1.19208256e-02, -7.88332056e-03, -2.62280949e-03,
          -5.28916437e-03, 1.01186391e-02, 1.89265739e-02,
          -7.44893029e-03, 1.14361779e-03, -4.08914266e-03,
          4.02533077e-03, 9.12824087e-03, -1.95992434e-05,
          -1.42292976e-02, -7.88539648e-03, 6.27093855e-03,
          6.51951972e-03, -5.21326251e-03, -5.67495078e-03,
          -1.88450143e-02, -2.58742087e-02, 3.28285620e-03,
          -1.11321481e-02, -7.35296635e-05, 5.25269238e-03,
          8.71222373e-03, -7.53514282e-03, -7.15370569e-03,
          -4.35297191e-03, -6.10608887e-03, -3.15447990e-03,
          6.93436712e-03, 1.18561275e-02, 1.24112004e-02, 5.05975075e-03,
          -2.30387901e-03, -2.66102497e-02, -1.15702394e-02,
          2.47746706e-03, 1.51716396e-02, 3.73287499e-03,
          -6.10141596e-03, -9.45387688e-03, 7.66175054e-03,
          -2.28355196e-03, -9.92872380e-03, -9.28874966e-03,
          -9.05952044e-03, 1.33352831e-03, 8.34973529e-03,
          6.86229486e-03, 4.47645597e-03, 1.09994346e-02,
          -1.84003124e-03, -2.91317906e-02, -2.66133212e-02,
          5.15914196e-03, 1.26765324e-02, -1.01929123e-03,
          -7.34631205e-03, -7.60441180e-03, 4.22489922e-03,
          -2.06236658e-03, -2.68811230e-02, -1.53415026e-02,
          7.82158598e-03, 1.63283218e-02, -1.68305077e-03,
          -5.78743173e-03, 1.05453329e-03, 8.73083156e-03,
          -2.54047755e-03, -1.94219761e-02, -2.15432141e-02,
          -8.32611462e-04, 1.00806914e-02, -2.02745711e-03,
          -7.76052766e-05, 1.47261163e-02, 2.03325357e-02,
          -3.50806792e-03, -2.48069558e-02, -2.12262347e-02,
          -4.41832468e-03, 1.47938337e-02, -9.47243441e-03,
          -9.18855984e-03, 1.96004822e-03, 1.07817734e-02,
          -1.13801677e-02, -1.93556845e-02, -1.38911624e-02,
          -5.80550823e-03, 6.78372569e-03, -4.96899057e-03,
          -6.09703362e-03, -2.14202236e-03, 7.47628685e-04,
          -7.80971255e-03, -1.20839979e-02, -1.78882796e-02,
          -1.91950263e-03, 1.55316275e-02, -1.34198158e-03,
          -3.53165041e-03, 8.69771186e-03, 4.90378961e-03,
          -2.58319657e-02, -3.60112824e-03, -2.18432602e-02,
          -3.23321647e-03, 1.13288891e-02, -3.90211656e-03,
          -8.86889454e-03, 7.73176970e-03, -3.20498832e-03,
          -9.52487718e-03, -1.32267810e-02, -1.22567303e-02,
          -2.14076531e-03, 1.16359899e-02, -5.47092734e-03,
          -5.52412681e-03, -1.48001434e-02, -9.47391801e-03,
          -1.21920621e-02, -1.53383175e-02, -1.81166679e-02,
          -7.04312557e-03, 1.43720536e-02, -2.62844702e-03,
          -1.10814041e-02, -1.61749311e-02, -1.36682978e-02,
          -1.73632950e-02, -1.79690926e-03, -6.92493794e-03,
          -4.63792006e-04, 9.50772874e-03, 3.67616667e-05,
          4.48499108e-03, 1.49519062e-02, 3.36666300e-04,
          -2.14776713e-02, -1.39162727e-02, -7.87932612e-03,
          -8.95361602e-03, 1.02483938e-02, 5.84664429e-03,
          1.35463560e-02, 1.55636920e-02, -5.05560637e-03,
          -1.16684483e-02, -1.72524862e-02, -7.24057574e-03,
          5.77432057e-03, 4.98517510e-03, 3.11514642e-03,
          -2.62065954e-03, -7.27749662e-03, -9.63355880e-03,
          -1.79193132e-02, -1.72473155e-02, 6.17644109e-04,
          -5.25640836e-03, 5.68926334e-03, 3.74793867e-03,
          9.79691371e-03, -2.66810367e-03, -4.71245917e-03,
          -1.82278883e-02, -1.25888828e-02, -2.02606223e-03,
          4.89316322e-03, 1.71875022e-02, 1.22653078e-02, 2.37674136e-02,
          1.39654856e-02, -6.81805797e-03, -2.84089558e-02,
          -1.44264027e-02, -1.22459168e-02, 7.71066314e-03,
          1.73455197e-02, 1.65433865e-02, 1.66018382e-02, 1.02043226e-02,
          -1.06532648e-02, -6.21218793e-03, -3.60735618e-02,
          -1.66622959e-02, -5.31330844e-03, 1.16159171e-02,
          1.45984935e-02, 1.84594430e-02, 1.02724545e-02, 8.35922826e-03,
          -1.87599380e-02, -3.51469889e-02, -3.67300957e-02,
          -7.24607753e-03, 2.57060770e-02, 1.64120048e-02,
          1.89505517e-02, 1.20850801e-02, 2.90351314e-03,
          -2.60573123e-02, -8.11770558e-03, -3.20322183e-03,
          7.71418633e-03, 1.82702057e-02, 1.37428418e-02, 4.93617402e-03,
          1.87105387e-02, -4.09335783e-03, -2.78967153e-02,
          -1.62252784e-02, 1.42137054e-03, 1.46420188e-02,
          2.46772394e-02, 1.35606099e-02, 9.27548949e-03, 1.69865731e-02,
          2.56064744e-03, -1.40944859e-02, -2.45520715e-02,
          -2.70357765e-02, 3.32311913e-03, 1.59077886e-02,
          9.91294999e-03, 1.77050568e-02, 1.46687524e-02,
          -2.16327491e-03, -4.62312624e-03, -1.32708643e-02,
          -7.12359184e-03, -1.52713154e-03, 7.14954780e-03,
          5.00272261e-03, 1.56426579e-02, 2.16021352e-02,
          -3.90203204e-04, -2.46682819e-02, -2.57653426e-02,
          -8.87455139e-03, 9.76592582e-03, 1.26296943e-02,
          8.15368164e-03, 9.06208530e-03, 1.47295818e-02, 1.41761526e-02,
          -2.35369001e-02, -2.61323918e-02, -2.19400693e-03,
          7.45288888e-03, 1.59915630e-02, 6.75231218e-03, 1.25796329e-02,
          7.52875302e-03, 6.94757700e-03, -1.33623071e-02,
          -1.50153991e-02, -6.81011472e-03, -7.86845479e-03,
          -2.51325406e-03, 8.09558854e-03, 2.05362346e-02,
          1.65211745e-02, -2.21841910e-04, -1.29147284e-02,
          -3.37889232e-02, -3.59387067e-03, 8.44899158e-04,
          6.80101756e-03, 1.52281150e-02, 2.94143502e-02, 1.65359341e-02,
          -7.36653281e-04, -2.33035553e-02, -1.31842140e-02,
          9.98112001e-03, 5.68807730e-03, 1.65756028e-02, 1.11842742e-02,
          1.25829820e-02, 5.11428062e-03, 1.39645024e-04,
          -2.55428851e-02, -6.09364081e-03, 3.06265661e-03,
          5.67812147e-03, 4.01743967e-03, 1.12648252e-02, 1.53892506e-02,
          1.23321172e-02, -4.94149001e-03, -2.46345904e-02,
          -2.61385199e-02, 4.42133565e-03, 1.95866246e-02,
          7.86465872e-03, 1.36306817e-02, 2.09431965e-02, 1.61020663e-02,
          8.59512831e-04, -3.21754925e-02, -1.78699270e-02,
          -8.65268148e-03, 4.91173705e-03, 1.84627355e-03,
          1.14294486e-02, 2.40259953e-02, 1.41226836e-02,
          -4.79119457e-03, -7.41063524e-03, -6.13837270e-03,
          4.00939444e-03, 3.56380735e-03, 2.37992126e-03, 9.49058589e-03,
          7.75206229e-03, 1.16945514e-02, -1.48187240e-03,
          -3.34562920e-03, -7.60088442e-03, 7.18131242e-03,
          6.99888635e-03, 6.91531552e-03, -1.19775708e-04,
          2.15270813e-03, 7.36043276e-03, 4.83621052e-03,
          -2.89778821e-02, -3.05711385e-02, -9.26629175e-03,
          7.66345579e-03, 5.25877252e-03, 1.50569668e-02, 1.58298332e-02,
          1.65618863e-02, -1.94660411e-03, -1.97922774e-02,
          -3.48406434e-02, -1.52016170e-02, -1.72339019e-03,
          4.83877026e-03, 1.01699233e-02, 2.52653118e-02, 2.70306654e-02,
          -2.51161429e-04, -3.87264160e-03, -3.31987464e-03,
          1.01810256e-02, 8.09614174e-03, 1.11577353e-02,
          -7.25641148e-03, -2.08849204e-03, 2.36670036e-04,
          6.72416855e-03, -1.46225756e-02, -2.46510431e-02,
          -8.61794129e-03, 2.11371575e-02, 2.46039387e-02,
          -4.58400976e-03, 4.21180995e-03, -6.71997026e-04,
          1.18231727e-02, -2.01327559e-02, -3.20108943e-02,
          -1.63394287e-02, -8.28854274e-03, 3.78019270e-03,
          9.43327043e-03, 3.08582038e-02, 1.47006754e-02, 2.64878123e-04,
          -2.24436633e-02, -2.36616358e-02, -1.84876043e-02,
          -6.81083533e-04, 1.78961642e-02, 1.52556635e-02,
          3.16902585e-02, 7.03742635e-03, -6.06837822e-03,
          -2.42641140e-02, -3.72993983e-02, -5.27101941e-03,
          7.16242194e-03, 2.24308111e-02, 8.85787420e-03, 5.26145007e-03,
          8.89195409e-03, 6.71148952e-03, -1.59453675e-02,
          -3.26853991e-02, 5.39737288e-03, 2.15659369e-04,
          1.20626751e-03, 1.03982454e-02, 2.65603811e-02, 1.78091992e-02,
          4.64312546e-03, -2.78335419e-02, -3.04014925e-02,
          -1.37895495e-02, 7.69756362e-03, 2.00908221e-02,
          2.08188351e-02, 2.69755144e-02, 1.23403147e-02, 3.88729433e-03,
          -1.55433398e-02, -1.69857144e-02, 1.64159248e-03,
          1.07162548e-02, 5.69154276e-03, 1.09781595e-02, 2.43352745e-02,
          1.32963220e-02, 1.30675454e-02, -1.75200440e-02,
          -2.89118476e-02, -2.96443910e-03, -4.35363268e-03,
          -9.74967238e-03, -4.23326943e-04, 1.55859152e-02,
          1.15493648e-02, 3.68827255e-03, -7.45718833e-03,
          -1.59086771e-02, 7.79325899e-04, -7.44059216e-04,
          -6.65676128e-03, -4.33603860e-03, 2.55267718e-03,
          8.10404029e-03, 4.03668918e-03, -7.80914538e-03,
          -1.44918170e-02, 3.57480021e-04, -7.66000361e-04,
          -1.38403373e-02, -1.58082005e-02, 3.37742385e-03,
          1.08918231e-02, 1.24551784e-02, 8.12790473e-04,
          -2.96519883e-03, -3.53249750e-04, -7.31744803e-03,
          -1.59014203e-02, -1.91289186e-02, -4.31618467e-03,
          1.59651171e-02, 2.14520488e-02, -8.28473270e-03,
          -8.15563742e-03, -4.21838742e-03, 1.03387991e-02,
          -1.82149198e-03, -6.56252773e-03, -1.36891135e-03,
          1.08245248e-02, 6.80758851e-03, -2.09974241e-03,
          -6.40465645e-03, -4.05240944e-03, 3.75130470e-03,
          -1.30414953e-02, -1.97047126e-02, 5.13743283e-03,
          5.12890937e-03, -3.63194570e-03, -1.19750109e-03,
          1.09595800e-04, 1.85323972e-03, 2.56072334e-03,
          -5.58710378e-03, -1.09548429e-02, -5.44906920e-03,
          4.42118244e-03, 7.06533389e-03, -4.71529458e-03,
          -8.47755373e-03, -8.64924211e-03, -8.78938474e-03,
          -3.77246900e-03, -2.67334911e-03, 3.36007960e-03,
          1.04579516e-02, 3.77924717e-03, 4.31392714e-03,
          -1.20487874e-02, -4.52023232e-03, 1.38926618e-02,
          -5.18343132e-03, -1.62108000e-02, 6.94816606e-03,
          2.71092355e-03, -4.47759638e-03, -5.17735118e-03,
          -1.16400030e-02, -5.38399443e-03, 5.81436930e-03,
          9.30855703e-03, -1.35785518e-02, 3.30841751e-04,
          -6.55682932e-04, -3.05979222e-04, 5.89771755e-03,
          -8.76506604e-03, -1.17589557e-03, 1.21097928e-02,
          -4.42093518e-03, -6.49861014e-03, 2.54368992e-03,
          7.75703602e-03, 1.36863347e-02, -1.25662994e-03,
          -1.14632696e-02, -3.59352503e-04, 1.35257822e-02,
          -3.63872922e-03, -6.50693942e-03, -7.55820156e-06,
          -3.29290982e-03, -1.89596589e-03, -1.12614632e-02,
          -5.31646237e-03, -6.83474261e-03, 3.24822124e-03,
          1.64025817e-02, -3.48860817e-03, -2.11751717e-03,
          -1.09159686e-02, -1.09633850e-02, -5.91775775e-03,
          9.76708718e-04, 4.04835865e-03, 3.86345922e-03, 4.14937921e-03,
          -7.85146840e-03, -2.47305608e-03, -3.85263446e-03,
          -7.08614336e-03, 3.28329531e-03, -8.24642088e-03,
          2.73827952e-03, 6.09637145e-03, 3.86225572e-03,
          -6.35335688e-03, -1.03641786e-02, -1.00632412e-02,
          2.36474327e-03, 9.79086291e-03, -1.32477684e-02,
          -5.44973742e-03, -4.02509607e-03, 1.93196640e-03,
          -1.84176043e-02, -1.31609906e-02, -2.28059781e-03,
          9.42004658e-03, 4.67054546e-03, -4.02255915e-04,
          9.33852512e-03, -5.94230834e-03, -7.97481835e-03,
          -1.40891811e-02, 1.35622534e-03, 3.87817534e-04,
          1.34715228e-03, 8.04304425e-03, 4.07352764e-03,
          -8.08407087e-04, -1.13783628e-02, -5.81349758e-03,
          -1.25624659e-02, -4.01268853e-03, -9.16214194e-03,
          1.40168134e-03, 7.75061594e-03, -1.77652687e-02,
          -1.52197864e-03, -6.88450923e-03, -5.42769383e-04,
          -1.11487722e-02, -5.40693337e-03, -2.47988937e-04,
          1.28325913e-02, 7.92120118e-04, -2.45634874e-04,
          2.65655603e-04, -1.12906769e-02, 5.71621023e-03,
          -1.90189516e-03, 4.06336156e-04, -3.39745940e-03,
          5.07941144e-03, -2.02516140e-03, -5.93434414e-03,
          9.97971045e-04, 1.50905885e-02, 1.08217336e-02,
          -5.25799301e-03, -6.66263048e-03, 6.58999057e-03,
          9.18934401e-03, 2.26395810e-03, -1.59644149e-02,
          -2.04524808e-02, -1.70809142e-02, -4.62228636e-04,
          2.41006212e-03, 5.12424624e-03, 6.53769029e-03, 1.40144313e-02,
          -3.27294599e-03, -2.30503213e-02, -6.68312982e-03,
          6.62228558e-03, 9.55081452e-03, -1.42298534e-03,
          -4.74657957e-03, 9.14745964e-03, 1.84907373e-02,
          -3.17585352e-03, -3.23449224e-02, -3.16312201e-02,
          -8.13558418e-03, -4.75625135e-03, -5.38030872e-04,
          6.67614629e-03, 9.56972782e-03, 1.57966856e-02,
          -7.72452215e-04, -1.79119054e-02, -1.78749487e-02,
          -5.93921309e-03, -7.50870327e-04, 7.47247692e-03,
          5.42823866e-04, 2.98929145e-03, 1.13189854e-02,
          -1.44146336e-02, -2.95006391e-02, -1.46734156e-02,
          1.26540745e-02, 1.01184826e-02, -4.40244703e-03,
          -1.33100459e-02, -4.08708584e-03, 1.30329176e-03,
          -6.12319307e-03, -3.56256664e-02, -1.93374343e-02,
          -3.06197512e-03, -1.02050295e-02, 2.11320803e-04,
          1.13335727e-02, 1.71235707e-02, 1.86506584e-02,
          -1.37850000e-02, -2.47334167e-02, -8.85869656e-03,
          6.94583775e-03, 3.94719129e-04, -6.04874594e-03,
          -1.03124455e-02, 1.94197055e-03, 2.22716085e-03,
          -5.23446081e-03, -1.56664532e-02, -1.20730046e-02,
          3.38789402e-03, 8.89514852e-03, -5.58588188e-03,
          -8.92369635e-03, -1.76112610e-03, 6.73103612e-03,
          -2.04444323e-02, -1.43888099e-02, -1.71649642e-03,
          6.33484079e-03, 1.06373047e-02, -1.74950401e-03,
          -1.34089300e-02, -1.73625089e-02, -9.40896012e-03,
          -3.91689641e-03, -1.82825103e-02, 1.42080733e-03,
          1.15183443e-02, 7.31406827e-03, -5.55180013e-03,
          -1.13550862e-02, -8.67833756e-03, 9.92727652e-03,
          -1.80367846e-02, -2.32783202e-02, 4.10917029e-03,
          1.39383450e-02, 1.21030565e-02, 2.94413534e-03,
          -4.96673863e-03, -7.56165106e-03, -1.44161412e-03,
          -7.60874804e-03, -3.89589253e-03, 1.08566377e-02,
          1.69596523e-02, 1.89441480e-02, 2.47133221e-03,
          -1.24361748e-02, -2.07886826e-02, -1.36683052e-02,
          -1.04484987e-02, -1.07072433e-02, -5.63783990e-03,
          8.13756976e-03, 1.32015245e-02, 1.39839230e-02,
          -2.77129561e-03, -2.00534351e-02, -3.41514335e-03,
          -1.79800987e-02, -1.47887636e-02, -3.00577576e-05,
          1.36859864e-02, 2.81089786e-02, 1.03802085e-02,
          -5.36160031e-03, -4.63353889e-03, -1.46300122e-02,
          -2.46526804e-02, -1.76144522e-02, -8.31428077e-03,
          -3.79533484e-03, 1.33226598e-02, 1.91210955e-02,
          7.32685486e-03, -1.19382208e-02, -1.06043192e-02,
          3.93242721e-04, -7.64854718e-03, 5.17729321e-04,
          1.46999806e-02, 1.09340856e-02, 2.15827674e-02, 5.14881872e-03,
          -1.05684586e-02, 2.78023328e-03, -1.76078244e-03,
          -2.50119232e-02, -1.11155780e-02, 1.34569732e-02,
          1.08051253e-02, 1.26351630e-02, 3.52730602e-03,
          -4.22921404e-03, 7.50442082e-03, -5.01775090e-03,
          -2.04363130e-02, -5.34941349e-03, 1.64751187e-02,
          1.11676706e-02, 2.71784216e-02, 1.88411772e-02,
          -4.05973010e-03, -2.20718863e-03, -1.11355586e-02,
          -3.08825672e-02, -1.07472232e-02, 1.77540146e-02,
          1.75012741e-02, 1.93856191e-02, 1.05599314e-02, 1.08038159e-02,
          6.80994568e-03, 7.12971203e-03, -3.43006030e-02,
          -2.08106227e-02, 4.98011615e-03, 1.10833375e-02,
          1.23301158e-02, 9.85495280e-03, 6.97907805e-03, 1.26133217e-02,
          -6.21489668e-03, -3.59542854e-02, -2.73033772e-02,
          -4.45763906e-03, 1.32819498e-02, 1.20837381e-02,
          2.01317240e-02, 1.63108967e-02, 1.82023104e-02,
          -1.54077588e-02, -3.73263434e-02, -1.13156941e-02,
          1.69192720e-02, 1.42844729e-02, 1.80181488e-02, 8.62861425e-03,
          7.32781040e-03, 3.10952729e-03, -1.69233810e-02,
          -3.37929279e-02, -1.60262790e-02, 6.51029171e-03,
          1.03000551e-02, 1.78606901e-02, 2.23608240e-02, 1.63454153e-02,
          8.70698970e-03, -7.43442029e-03, -2.67375149e-02,
          -1.51937446e-02, -4.34106262e-03, 2.81235366e-03,
          1.86563039e-03, 2.01046932e-02, 1.61556937e-02, 6.79569459e-03,
          5.35409991e-03, -1.19723482e-02, -1.19084800e-02,
          -9.48544126e-03, -8.47648829e-03, 2.48093344e-03,
          2.03483924e-02, 1.86264869e-02, 1.15000252e-02,
          -3.05327564e-03, -2.74547096e-02, -1.25163654e-02,
          -3.51797719e-03, -2.45757308e-03, 9.52159800e-03,
          1.55534809e-02, 6.28944766e-03, 7.35930819e-03,
          -1.40325278e-02, -1.98438717e-03, -1.20204678e-02,
          5.35431458e-03, -1.70417922e-03, 1.49186058e-02,
          9.81822610e-03, 1.99075835e-03, -2.43764557e-03,
          -4.24648775e-03, -1.23437503e-02, -2.02315347e-03,
          -9.98408627e-03, -5.54032670e-03, 4.85942326e-03,
          1.60561483e-02, 1.39012374e-02, 6.82506245e-03,
          -8.06220807e-03, -2.62961183e-02, -5.69813093e-03,
          2.15243199e-03, 3.36337602e-03, 1.16647491e-02, 2.20094305e-02,
          1.23032788e-02, 7.08191469e-03, -1.98812038e-02,
          -1.01208244e-03, 6.99875923e-03, 1.05404267e-02,
          1.07542183e-02, 8.26702453e-03, 4.78499010e-03, 5.18253911e-03,
          -8.84217769e-03, -2.51580141e-02, -1.16908699e-02,
          -1.16057275e-03, 8.07465147e-03, 1.47573985e-02,
          6.86024129e-03, 1.76127218e-02, -7.19066593e-04,
          -6.74107810e-03, -5.58027811e-03, -2.04675496e-02,
          5.52062411e-04, 9.46055539e-03, -1.35351147e-03,
          1.17789051e-02, 1.18950168e-02, 9.56086256e-03, 1.09308735e-02,
          -1.14703504e-02, -2.28111446e-02, -3.38612311e-03,
          6.38929056e-03, -3.75439972e-03, 7.84513075e-03,
          1.35154314e-02, 1.10555170e-02, 1.29773654e-02,
          -8.81033670e-03, -8.08206480e-03, -3.11972294e-03,
          3.70711251e-03, 5.25396969e-03, 1.67844328e-03, 1.28776785e-02,
          8.22462665e-04, 4.61817626e-03, -1.06004989e-02,
          -1.38899349e-02, -4.26675397e-05, 1.19296936e-02,
          3.99941020e-03, 1.34895986e-03, 1.28729222e-02, 3.62932193e-03,
          1.55985579e-02, -2.23786030e-02, -4.11737598e-02,
          -1.65601168e-02, 1.02246134e-02, 2.54293531e-03,
          1.56166898e-02, 2.30899863e-02, 2.13557817e-02, 6.21967204e-03,
          -2.53359489e-02, -5.17625958e-02, -1.94312967e-02,
          4.55470290e-03, 4.63064574e-03, 2.06115115e-02, 3.79220806e-02,
          2.57638209e-02, -1.86957332e-05, -2.48173196e-02,
          -2.52013430e-02, -1.12249497e-02, 1.81345250e-02,
          6.56099152e-03, 1.56678874e-02, 2.72075105e-02, 9.78595484e-03,
          4.41310881e-03, -1.02122417e-02, -3.41872796e-02,
          -4.61730378e-04, 9.11448151e-03, 2.28474233e-02,
          1.84125956e-02, 3.56834158e-02, 1.51217915e-02,
          -2.74646818e-03, -1.64029375e-02, -3.23241428e-02,
          -9.56612639e-03, -2.77969451e-03, 6.58111740e-03,
          1.59513373e-02, 2.22752411e-02, 8.23514350e-03,
          -7.40942406e-03, -1.14752175e-02, -1.58707500e-02,
          -1.33712403e-02, -1.09312339e-02, 3.78335267e-03,
          2.63415705e-02, 2.59564202e-02, 1.21533051e-02,
          -9.85014904e-03, -7.90265203e-03, -1.65989306e-02,
          7.73863168e-03, 6.95164781e-03, 6.58819778e-03, 1.12126849e-03,
          5.61010651e-03, 1.23176677e-02, -2.03504041e-03,
          -2.41685961e-03, -5.14624408e-03, -7.37991557e-03,
          -3.53547768e-03, 2.52472749e-03, 7.98575860e-03,
          6.29960094e-03, 2.78644655e-02, 5.59829455e-03,
          -1.71152409e-02, -2.03685965e-02, -1.63365919e-02,
          -4.90650674e-03, 1.09594804e-03, 2.06709672e-02,
          2.08860133e-02, 9.05767828e-03, 3.17326654e-03,
          -8.38730391e-03, -6.48624962e-03, -3.33426846e-03,
          5.70760341e-03, -9.38468147e-03, 2.35829968e-03,
          1.59568805e-02, 6.53285475e-04, 8.25760327e-03,
          -1.57347675e-02, -1.40856113e-02, -1.18920358e-03,
          -6.23574154e-03, -4.38628253e-03, 9.82913841e-03,
          1.92768537e-02, 1.74858030e-02, -2.27435492e-03,
          -1.03587145e-02, -7.32492516e-03, -1.41984969e-03,
          -1.81934086e-03, -1.54507682e-02, 1.88099162e-03,
          1.61010660e-02, 7.24162860e-03, 2.17930949e-03, 8.26818030e-03,
          -5.00806095e-03, 4.66030370e-03, 3.46071669e-04,
          -2.03269199e-02, -1.08543132e-02, 7.15551758e-03,
          4.94548492e-03, 1.46382032e-02, 5.54540986e-03,
          -4.02149791e-03, 1.19301621e-02, 6.66808151e-03,
          -1.68959778e-02, -9.03942902e-03, -2.40795827e-03,
          1.01637905e-02, 1.97841674e-02, 6.45321282e-03,
          -4.19646455e-03, -2.99145048e-03, -5.23425452e-03,
          -1.94633715e-02, -5.69746923e-03, 1.26645397e-02,
          7.38245388e-03, 6.60625985e-03, 5.38740121e-03, 7.78279919e-03,
          5.01981983e-03, -8.72152625e-04, -1.33048054e-02,
          -5.33251092e-03, -3.35214660e-03, 2.96147773e-04,
          3.96580854e-03, 6.71338430e-03, 6.69586821e-04, 8.77669826e-03,
          9.57840960e-03, -4.60887235e-03, -1.45994721e-03,
          -7.09009450e-03, -2.67797173e-03, 3.74310301e-03,
          5.86532662e-03, 1.84229692e-03, 2.95958552e-03,
          -7.97550427e-04, -1.16491702e-03, 1.23571986e-02,
          -3.19459732e-03, 4.39492241e-03, 1.29437691e-03,
          -2.69861729e-03, 3.85974837e-03, 1.10785384e-02,
          9.83529072e-03, -2.23116716e-03, 3.69300996e-03,
          -1.14267934e-02, -1.13143856e-02, -1.47086494e-02,
          -8.73277709e-03, -3.42632155e-03, 5.84826525e-03,
          -5.10953274e-03, -3.58283031e-03, -3.86268669e-03,
          -1.03649506e-02, -1.12398304e-02, -9.46782157e-03,
          1.15090357e-02, 2.11214763e-03, 7.24072102e-03, 8.32207780e-03,
          -3.60794179e-03, -4.77633579e-03, -8.21690448e-03,
          8.69687088e-03, 1.70436390e-02, 5.39486017e-03,
          -3.64934979e-03, 1.30507527e-02, 1.40936980e-02,
          -6.86651096e-03, -1.79236662e-02, -4.31419583e-03,
          1.20000727e-02, 1.23228775e-02, -3.88402399e-03,
          -3.24938726e-03, 1.44688203e-03, 2.24781237e-04,
          -2.56688194e-03, -4.59309062e-03, -8.63831304e-03,
          4.99414839e-03, 6.19245414e-03, -2.55675451e-03,
          -7.74580147e-03, 3.45476699e-04, 1.06473779e-02,
          -9.01791081e-03, -1.46503784e-02, -6.46804518e-04,
          1.42187783e-02, 7.75280828e-03, 5.18657081e-03,
          -1.63411823e-04, 1.62773430e-02, 4.92878724e-03,
          -9.63132828e-03, -1.17264194e-02, -6.14915229e-03,
          9.35018156e-03, 1.54032586e-02, 1.04511753e-02,
          -8.34778603e-03, -2.83590844e-03, -1.56656224e-02,
          -1.46481013e-02, -3.96466302e-03, 2.80302367e-03,
          1.48924626e-02, 2.15352345e-02, -6.24932675e-03,
          -1.57072919e-03, 1.52169876e-02, 4.08578292e-03,
          -6.96336559e-04, -1.35368286e-02, 6.31284248e-03,
          1.32956784e-02, 2.29147798e-03, -3.79444147e-03,
          -4.85104928e-03, 4.58782818e-03, -4.95566428e-03,
          3.26108740e-04, -5.79728233e-03, 1.45744011e-02,
          1.63331479e-02, -3.73031216e-05, -2.79428437e-03,
          -1.47403078e-02, -1.07922060e-02, -6.36522425e-03,
          -1.08835334e-02, 4.88887588e-03, 4.26901039e-03,
          4.20457497e-03, 1.04604764e-02, -4.23122756e-03,
          -6.16508129e-04, -2.23125122e-03, -1.30375195e-02,
          1.71681819e-03, 8.57593399e-03, 6.99159782e-03, 3.97318881e-03,
          -6.03342243e-03, -1.43656479e-02, -6.23472920e-03,
          -5.40759822e-04, -2.82463129e-03, 1.49958325e-03,
          3.41190933e-03, 1.22781275e-02, -6.58036734e-04,
          -1.27375079e-02, -1.69602595e-02, 5.55052003e-03,
          3.47960158e-03, -8.66875239e-03, -8.46730359e-03,
          -3.75044270e-04, 2.09473334e-02, -2.14282353e-03,
          -1.10434387e-02, 2.81663891e-03, -1.85389780e-02,
          -1.00919530e-02, 4.15440556e-03, 4.63457452e-03,
          2.44595157e-03, -8.62601493e-03, -9.63590050e-04,
          1.35594448e-02, 9.74362949e-04, -2.35789381e-02,
          -9.05358326e-03, -7.38809491e-03, -6.34055585e-03,
          -1.40255317e-02, -8.66264198e-03, 3.24865780e-03,
          7.73177482e-03, -6.86070463e-03, -1.75777934e-02,
          4.11846396e-03, 1.37045961e-02, 1.06811058e-02,
          -3.89571209e-03, -1.32571207e-02, -1.72635950e-02,
          -2.81851552e-03, 1.45550910e-03, -7.42851244e-03,
          5.28639695e-03, 3.26067349e-03, 3.35686211e-03,
          -1.46606136e-02, -2.90412121e-02, -2.15986017e-02,
          -4.55135858e-04, -3.63821210e-03, -1.57238133e-02,
          -9.64871375e-04, 3.70945106e-03, -2.80256406e-03,
          -7.57060666e-03, 6.74476661e-03, 3.47045739e-03,
          9.96233523e-03, -1.24110291e-02, -2.28775796e-02,
          -9.34242643e-03, 5.08147152e-03, 9.93735716e-03,
          -1.26921143e-02, -7.83406850e-03, -4.20916779e-03,
          6.21334603e-03, -6.57996105e-04, 9.32780036e-04,
          1.17815230e-02, 1.59638058e-02, 9.55785718e-03,
          -1.45574808e-02, -1.62697546e-02, -1.89479012e-02,
          -1.41255558e-03, -1.77439200e-04, -1.17529957e-02,
          -3.27504566e-03, 3.57654039e-03, 1.17652239e-02,
          -1.84342861e-02, -1.64962001e-02, -1.09293377e-02,
          6.06294628e-03, 1.36491447e-03, -1.57671850e-02,
          1.23473571e-03, 8.90925585e-04, 1.00145824e-02,
          -3.03592975e-03, -1.12490123e-02, -6.24054158e-03,
          1.01015735e-02, -6.38006860e-03, -1.88521314e-02,
          1.75211276e-03, 1.57977678e-02, 1.45215699e-02, 1.49853004e-03,
          -5.29186428e-03, -3.73054342e-03, 2.75545218e-03,
          -6.29296806e-03, -2.12437008e-02, -1.15767047e-02,
          -5.20872138e-03, 1.25603406e-02, -7.55734416e-03,
          -1.39406389e-02, 1.84954284e-03, 9.05815512e-03,
          -1.42327826e-05, -1.61018986e-02, -1.05276797e-02,
          6.51963940e-03, 1.67611837e-02, -1.17857773e-02,
          -5.31145837e-03, -4.76844050e-03, 9.84251685e-03,
          -1.00259911e-02, -1.62048340e-02, 1.33717386e-03,
          1.48635823e-02, 2.91186702e-02, 9.39404068e-04,
          -6.69165747e-03, 7.70422304e-03, -3.27491760e-03,
          -1.48949474e-02, -2.44263615e-02, -1.44742765e-02,
          1.41363812e-03, 1.32093504e-02, 1.06023187e-02,
          -2.19099806e-03, 4.00618324e-03, -3.31979408e-03,
          -1.19942166e-02, -1.53750740e-02, 3.52821080e-03,
          2.08879411e-02, 2.17604153e-02, -1.09154237e-02,
          -8.03088769e-03, -3.95381707e-04, 8.59560259e-03,
          -8.79817363e-03, -1.14452485e-02, -1.85858756e-02,
          1.09286178e-02, -2.72842427e-03, -5.49911475e-03,
          -1.79156588e-04, 1.64329540e-03, 3.47769447e-03,
          -4.13239235e-03, -9.18759871e-03, -3.59169650e-03,
          -1.28042523e-03, -1.78747025e-04, 9.99589078e-03,
          7.72669306e-03, 2.64889118e-03, -1.33547490e-03,
          -9.67811607e-03, -1.15982657e-02, 3.71928629e-03,
          9.88048501e-03, 4.52450337e-03, 9.76396911e-03, 8.15101527e-03,
          6.95837336e-03, -1.15296477e-02, 7.41889374e-03,
          -4.19643195e-03, -9.47066955e-03, 3.99640016e-03,
          9.22824955e-04, 3.87399807e-03, 5.08394558e-03, 4.07333300e-03,
          1.59867108e-03, -1.34933461e-02, 1.33951579e-03,
          9.59002972e-03, 1.35375801e-02, 1.51206283e-02, 9.86591633e-03,
          1.36666056e-02, 6.96684001e-03, -6.25451002e-03,
          -3.23761478e-02, -2.10945960e-02, 2.98067322e-03,
          2.08660215e-02, 1.73406228e-02, 1.66426990e-02, 8.90675001e-03,
          8.18601064e-03, -4.85273311e-03, -3.64239514e-02,
          -2.57825479e-02, 1.60667263e-02, 1.62303578e-02,
          1.74131431e-02, 1.67265758e-02, 1.52238635e-02, 1.18596349e-02,
          -1.70667227e-02, -3.08514219e-02, -9.31152795e-03,
          -4.67655569e-04, 1.92397032e-02, 3.05943396e-02,
          2.58456431e-02, 1.20440386e-02, -5.02458308e-03,
          -2.01726370e-02, -3.08375470e-02, -1.18081896e-02,
          1.91738941e-02, 2.06022970e-02, 2.72908360e-02, 2.05141902e-02,
          1.11081759e-02, -1.00920368e-02, -2.82306336e-02,
          -1.64304748e-02, -1.57052521e-02, 5.57569368e-03,
          2.48345360e-03, 1.02006802e-02, 1.64591596e-02, 1.69867761e-02,
          2.03603320e-03, -9.74997040e-03, -5.39247924e-03,
          -2.51541869e-03, 3.01795262e-05, 9.63007845e-03,
          1.35351019e-02, 2.12767124e-02, 1.22050513e-02, 2.45534640e-04,
          -7.02182902e-03, -2.07892396e-02, -1.60671789e-02,
          1.39942551e-02, 1.61131416e-02, 2.13596076e-02, 1.75719988e-02,
          9.44738183e-03, -9.45282076e-03, -1.00220172e-02,
          -7.26867095e-03, -1.47174634e-02, 4.62547969e-03,
          1.40966754e-02, 2.29542516e-02, 2.24229563e-02, 1.52172586e-02,
          5.90898097e-03, -2.30950583e-03, -1.33294491e-02,
          2.43285671e-03, 1.00736236e-02, 6.16734754e-03, 1.60652529e-02,
          7.40297651e-03, 4.73174918e-03, 2.59704283e-03,
          -1.04361400e-02, -1.84140652e-02, -1.82105303e-02,
          6.23313384e-03, 1.03340130e-02, 2.32827794e-02, 3.51405563e-03,
          2.11040396e-02, 9.97311529e-03, -7.51643907e-03,
          -1.49371754e-02, -2.15196125e-02, 3.40250693e-03,
          9.70019214e-03, 1.91160999e-02, 1.46213174e-02, 1.41031025e-02,
          7.50248600e-03, -5.25493501e-03, -1.15140956e-02,
          -1.22720264e-02, -8.47807713e-03, 6.82833698e-03,
          2.83554588e-02, 1.30409701e-02, 2.48214900e-02, 1.68526527e-02,
          1.58041134e-03, -1.71307400e-02, -2.40180325e-02,
          -7.97964260e-03, -1.76020293e-03, 1.57600679e-02,
          5.40998345e-03, 1.82376709e-02, 8.67661834e-03, 2.49828608e-03,
          -1.96810458e-02, -1.47469472e-02, -8.96738283e-03,
          9.03863693e-04, 8.15032236e-03, 1.00076906e-02, 2.27830149e-02,
          4.85291984e-03, 9.80805233e-03, -7.47454818e-03,
          -2.53410619e-02, -1.56361628e-02, 2.68409308e-03,
          9.47797764e-03, 7.69130467e-03, 1.96319316e-02, 1.46450512e-02,
          8.96046311e-03, -1.74283388e-03, -8.19510501e-03,
          -3.17139039e-03, 1.15715610e-02, 3.22791329e-03,
          1.06904060e-02, 1.80202592e-02, 4.91172401e-03, 1.02835335e-02,
          -1.32779824e-02, -1.60612017e-02, -1.11699263e-02,
          6.04308071e-03, -3.57406796e-03, 5.38381934e-03,
          1.59078315e-02, 5.37124649e-03, 7.03874091e-03,
          -9.58850700e-03, -1.47085665e-02, -5.66230435e-03,
          1.39531270e-02, 7.62186060e-03, 3.68111511e-03, 1.38881411e-02,
          7.87292793e-03, -2.58688326e-03, -9.34293214e-03,
          -1.51955904e-02, 1.01777883e-02, 1.81886815e-02,
          -3.80587787e-03, -2.99046701e-03, 5.42145967e-03,
          -8.33386183e-03, 1.53859647e-03, -8.44458956e-03,
          -1.12804566e-02, 6.00360660e-03, 1.86726805e-02,
          5.53490082e-03, 3.24687397e-04, 9.13049560e-03, 4.79135942e-03,
          1.13705155e-02, -1.78604457e-03, -2.04659905e-02,
          2.73166224e-03, 2.21207310e-02, 5.83054079e-03,
          -9.51668713e-03, -1.92220660e-03, 8.17085709e-03,
          2.22979486e-03, 7.98215903e-03, -1.58340950e-02,
          -7.96176586e-03, 6.43334212e-03, -2.59871618e-03,
          -1.56941395e-02, -3.95705691e-03, 2.10084654e-02,
          2.16115490e-02, 5.90527954e-04, -2.10680347e-02,
          -1.07553564e-02, 1.74970012e-02, 6.92967046e-03,
          -1.05803749e-02, -3.67951370e-03, 2.69974675e-03,
          1.03430208e-02, 1.59325842e-02, -1.67875905e-02,
          -1.08881555e-02, 5.42848418e-03, 2.82077282e-03,
          -1.88225172e-02, -2.37078941e-03, 1.20330527e-02,
          2.06264574e-02, -6.00175466e-03, -4.71314834e-03,
          2.51732720e-03, -3.60533618e-03, -1.04497727e-02,
          -1.77348775e-04, 5.50711667e-03, 1.81563944e-02,
          1.05168521e-02, -4.79416602e-04, -7.52262445e-03,
          2.36112019e-03, -1.20836757e-02, -2.38582250e-02,
          -1.14119181e-03, 5.92065370e-03, 1.59443505e-02,
          1.34893386e-02, 1.15008298e-02, -6.33374974e-03,
          -2.69892765e-03, -1.81600987e-03, -1.45103149e-02,
          -3.23590985e-03, 9.05408803e-03, 1.58477835e-02,
          1.45789571e-02, -2.69930251e-03, -2.77434289e-03,
          6.44834992e-03, -1.20175648e-02, -1.29691763e-02,
          -8.07903428e-03, 9.59584396e-03, 1.92792434e-02,
          1.98593736e-02, 6.36364985e-03, -1.00048622e-02,
          1.84112415e-03, -1.44946193e-02, -3.10562644e-02,
          -9.98892705e-04, 1.85024238e-03, 1.38904545e-02,
          1.77134983e-02, 1.39860483e-02, 1.32429851e-02, 3.38772289e-03,
          -2.32338719e-02, -1.58418212e-02, 7.21520162e-04,
          -2.85383081e-03, 6.10282551e-03, 1.08421491e-02,
          1.01287132e-02, 2.79359432e-04, 3.53985699e-03,
          -1.88039932e-02, -2.69794259e-02, -8.17003939e-03,
          -6.35441532e-03, 1.47353569e-02, 2.08223183e-02,
          2.18791831e-02, 1.34687126e-02, 5.92921488e-03,
          -3.33893448e-02, -1.94143131e-02, -6.14100881e-03,
          -8.86138901e-03, 1.05755841e-02, 2.10996885e-02,
          5.76647324e-03, 9.17046156e-04, -7.47184129e-03,
          -1.97368041e-02, 9.23680980e-03, 1.37472665e-02,
          -5.28428704e-03, -6.74433913e-03, -7.29832053e-03,
          -1.76834629e-03, -7.98689574e-03, -3.93750984e-03,
          -1.53186452e-02, -1.41604745e-03, 8.15830845e-03,
          4.27343883e-03, -3.24441073e-03, -3.82172572e-03,
          1.15184868e-02, 7.84058962e-03, -6.37330348e-03,
          -3.87172289e-02, 6.54041395e-03, -2.87192292e-03,
          -2.43236474e-03, -5.55878156e-04, 2.97757378e-03,
          6.43546414e-03, 1.27226848e-03, -2.72257114e-03,
          -2.98362169e-02, 1.34171126e-03, -2.85456167e-03,
          4.38463874e-03, 4.32898477e-03, 3.94418696e-03,
          -1.10331019e-02, -1.65056274e-03, 2.08419189e-03,
          6.13581529e-03, 3.19506368e-03, 9.05684952e-04, 5.91619685e-03,
          -8.54751328e-04, -3.74873262e-03, -1.58978917e-03,
          -4.35304719e-05, 1.57720186e-02, 8.94025248e-03,
          -1.28721530e-02, -1.20573547e-02, 5.54271974e-03,
          -8.88975430e-03, -1.77488266e-03, 7.47508230e-03,
          5.62734494e-04, 6.06010621e-03, -1.39528774e-02,
          -1.31970150e-02, -5.27660316e-03, 8.74966383e-03,
          1.98610476e-03, 7.31480168e-03, 1.88453645e-02, 1.12386793e-02,
          2.55009420e-02, -6.70477515e-03, -1.87781919e-02,
          -9.00699571e-03, -1.29634468e-03, -1.92008670e-02,
          5.95790567e-03, -9.61965788e-03, 4.43322212e-03,
          1.98777579e-02, 1.59742702e-02, -4.86444711e-04,
          -5.95191261e-03, 1.13114771e-02, 2.42950558e-03,
          -7.82910548e-03, -1.75850522e-02, 9.28652845e-03,
          6.08050358e-03, 1.01431634e-03, 6.53711846e-03,
          -2.76246201e-03, 1.56862270e-02, 1.18696354e-02,
          -1.60599202e-02, 1.31539898e-02, -2.51442823e-03,
          2.22583283e-02, -5.32820595e-05, -1.01805227e-02,
          3.51744867e-03, 2.09362414e-02, -2.32411316e-03,
          5.82469907e-03, -6.78584864e-03, 3.70024168e-03,
          8.30884930e-03, -4.63758502e-03, -5.82100311e-03,
          4.87804879e-03, 2.16142815e-02, 8.10063258e-03,
          -6.38177525e-03, -2.00472027e-02, -7.50479405e-04,
          -1.61733059e-03, 6.18352322e-03, 1.44881001e-02,
          -3.86593165e-03, 1.27542606e-02, 4.92130173e-03,
          -1.91097446e-02, -2.20448617e-02, -5.26676141e-03,
          6.54363120e-03, 2.47146050e-03, 7.09712319e-03,
          -6.88093714e-03, 1.37492092e-02, -3.05999117e-03,
          -1.64712146e-02, -2.03137826e-02, 2.22983630e-03,
          7.17356941e-03, -1.31793963e-02, 4.45782579e-03,
          -7.75361620e-03, 1.80584304e-02, 5.08450903e-03,
          -1.68651808e-02, -3.00569441e-02, -2.81395065e-03,
          1.21993106e-02, -5.61503880e-03, 1.70858912e-02,
          -6.46903971e-03, 9.11056623e-03, -3.44136963e-03,
          -1.93987470e-02, 5.99852204e-03, -5.97262941e-03,
          8.50193575e-03, 1.17683280e-02, 1.25579918e-02, 1.70927029e-03,
          -8.83147679e-03, -7.06758257e-03, 2.06700247e-03,
          -1.62159814e-03, -3.42931133e-03, 8.64250772e-03,
          1.51140159e-02, 1.29922153e-02, -7.21450662e-03,
          -1.07051423e-02, -1.78608876e-02, -1.18627623e-02,
          7.88184442e-03, -1.04470002e-02, -1.16005233e-02,
          -1.36885932e-03, 1.13175232e-02, -7.75850471e-03,
          3.57594201e-03, 6.37426972e-03, 1.30497226e-02,
          -9.64167342e-03, -1.68330912e-02, -8.96190386e-03,
          -2.97917146e-03, 1.15159936e-02, -1.67131443e-02,
          4.49958898e-04, -1.76807423e-03, 5.50926058e-03,
          -4.27092239e-03, -3.05063208e-03, 1.49070900e-02,
          1.87195390e-02, 1.83589961e-02, -3.69788357e-03,
          -1.25131151e-02, -1.76964309e-02, -2.68183998e-03,
          -1.25601422e-02, -1.46706952e-02, 3.92306689e-03,
          1.37910796e-02, 2.48379018e-02, -6.23501325e-03,
          -1.62795857e-02, 4.31624649e-04, 1.00380098e-02,
          -9.81996953e-03, -2.03793142e-02, -5.79925813e-03,
          4.10017278e-03, 1.42506519e-02, -1.07828928e-02,
          -5.54310158e-03, -1.97044690e-03, 1.04477517e-02,
          -1.11769792e-02, -1.38677303e-02, -2.19717203e-03,
          1.16183013e-02, 1.81463230e-02, -7.38881249e-03,
          -1.01760644e-02, -7.54951034e-03, 1.54993618e-02,
          -4.49634343e-03, -1.87157355e-02, -4.64291871e-03,
          5.71765006e-03, 1.33093856e-02, -2.93853157e-03,
          -9.47965961e-03, 4.08580713e-03, 1.43088624e-02,
          3.18894209e-03, -7.62076722e-03, -7.14954827e-03,
          1.85357779e-02, 1.78009626e-02, -5.92951709e-03,
          -9.89119802e-03, -9.07763187e-03, -1.47573999e-03,
          -1.42036530e-03, -2.24258434e-02, -9.32377239e-04,
          8.59183259e-03, 2.01625638e-02, -4.69703926e-03,
          1.43174213e-04, -7.37583870e-03, 1.65678374e-02,
          1.89026212e-03, -6.95305504e-03, 4.33823559e-03,
          1.51220784e-02, 2.47300528e-02, -1.05788447e-02,
          -1.05364854e-02, -1.70242898e-02, -1.39986835e-02,
          -4.55544516e-03, -1.01404227e-02, 3.38299898e-03,
          2.03130692e-02, 2.47629248e-02, -3.86481755e-03,
          -5.31657971e-03, -1.61441136e-02, -1.18368426e-02,
          -5.79905696e-04, -9.95548628e-03, -3.44467070e-03,
          2.06318721e-02, 9.37033352e-03, 4.80981963e-03, 1.29210986e-02,
          5.29248826e-03, -5.21651749e-03, -8.84406175e-03,
          3.67456378e-04, 1.10666258e-02, 2.49290112e-02, 3.76797020e-02,
          5.30102523e-03, -4.56791790e-03, -2.23710351e-02,
          -2.72076074e-02, -9.54180304e-03, -1.73664943e-03,
          1.14060510e-02, 2.18443926e-02, 2.90860347e-02, 1.44388517e-02,
          -4.97290130e-05, -1.14989486e-02, -2.02219393e-02,
          9.04559996e-03, -1.10288514e-02, -1.21821696e-02,
