%YAML:1.0
my_svm: !!opencv-ml-svm
   svm_type: C_SVC
   kernel: { type:LINEAR }
   C: 1.0000000000000000e-02
   term_criteria: { epsilon:2.2204460492503131e-16, iterations:2000 }
   var_all: 4356
   var_count: 4356
   class_count: 2
   class_labels: !!opencv-matrix
      rows: 1
      cols: 2
      dt: i
      data: [ -1, 1 ]
   sv_total: 1
   support_vectors:
      - [ 1.76365096e-02, -5.61943930e-03, -1.15278037e-02,
          -4.68281657e-03, 3.94690363e-03, -3.79814743e-03,
          -2.25251596e-02, -1.97175443e-02, -5.36648137e-03,
          3.16011277e-03, -2.23381035e-02, -2.48843674e-02,
          -1.02900639e-02, 1.27349189e-02, -1.08157918e-02,
          -1.23578263e-02, -5.17401146e-03, 7.90310372e-03,
          6.17480045e-03, 9.44858324e-03, -8.04609095e-04,
          6.29099598e-03, 6.37141801e-03, 2.08506477e-03,
          -1.05612995e-02, -9.67905018e-03, -1.02434158e-02,
          2.49845604e-03, -1.31888771e-02, -2.99387928e-02,
          -1.21124731e-02, 1.14111491e-02, -6.46587275e-03,
          -1.18550686e-02, 5.29584754e-03, -9.70449299e-03,
          1.35225523e-03, 5.79656474e-03, 2.93540838e-03,
          -6.51958724e-03, 1.34849148e-02, -2.31404081e-02,
          -1.39596509e-02, -9.92754847e-03, 5.53800818e-03,
          2.91008805e-03, 5.18054934e-03, 1.02553451e-02,
          -2.04920024e-02, 1.73941012e-02, 7.37903698e-04,
          -9.30569833e-04, -1.14813894e-02, -1.28890923e-03,
          1.59192190e-03, -2.08592648e-03, -1.01654520e-02,
          -1.34356720e-02, 1.47337494e-02, -1.93710625e-02,
          -1.32310968e-02, -3.33074713e-03, 6.88937353e-03,
          -1.76637731e-02, -3.83969978e-03, 1.61329121e-03,
          -1.14210006e-02, 2.50080340e-02, -5.63217001e-03,
          -1.12631114e-03, -6.03361428e-03, -5.14430087e-03,
          5.79019636e-03, -1.35157434e-02, -3.65208369e-04,
          -2.19875220e-02, 7.75555428e-03, -8.05609487e-03,
          6.45865267e-03, 2.64000357e-03, 8.13728105e-03, 2.46997434e-03,
          -2.47574355e-02, -8.43373127e-03, -3.04217301e-02,
          -4.20815730e-03, -3.08059212e-02, 3.40202684e-03,
          2.41719615e-02, 3.21178399e-02, 5.23125567e-03,
          -8.79162457e-03, -1.57484517e-03, -2.21150853e-02,
          1.13624763e-02, -4.64968703e-04, 8.39838479e-03,
          7.39678694e-03, 1.79421511e-02, 9.18320846e-03,
          -2.28298903e-02, -1.36736222e-02, -2.15016678e-02,
          9.04824468e-04, -8.78489669e-03, 1.97496032e-03,
          1.41102029e-02, 1.53536042e-02, 7.46578490e-03,
          -1.53156566e-02, 3.69465421e-03, -5.83385071e-03,
          8.43851070e-04, -1.90477781e-02, 6.06356235e-03,
          2.12256350e-02, 4.00414094e-02, 1.14195915e-02,
          -2.10733563e-02, -5.55449119e-03, 8.34239554e-03,
          -8.51215213e-04, -2.00810060e-02, -8.42222129e-04,
          1.20836422e-02, 2.31523290e-02, 9.84025064e-06,
          -1.40188374e-02, 8.09223216e-04, 5.54480357e-03,
          1.95566732e-02, -1.37764949e-03, 8.08469672e-03,
          9.52584390e-03, -8.12380109e-03, -7.87856802e-03,
          -1.27959531e-02, -1.96739868e-03, -1.06310137e-04,
          1.74534526e-02, -3.28614470e-03, 9.13874712e-03,
          8.96997377e-03, -1.43206138e-02, -8.19200929e-03,
          -3.23562101e-02, -2.05598418e-02, -5.55050466e-03,
          9.47981235e-03, -4.11020825e-03, 6.66763820e-03,
          5.87140629e-03, 1.31518301e-02, -6.16090186e-03,
          -3.96203734e-02, -1.36883780e-02, 2.97167338e-03,
          2.51283441e-02, 1.48205291e-02, 2.04770118e-02, 1.55245271e-02,
          2.31597037e-03, -1.06667830e-02, -2.92567648e-02,
          -3.26808654e-02, -1.17779626e-02, 9.33176314e-04,
          -8.05566180e-03, 9.99921467e-03, 5.05213812e-03,
          -7.96826615e-04, -2.71593034e-03, -3.55860628e-02,
          -3.97629663e-02, -1.24700880e-02, 1.20334532e-02,
          1.92518462e-03, 1.00998115e-02, 9.87856556e-03, 8.93688947e-03,
          1.05781842e-03, -2.54821703e-02, -7.69617502e-03,
          -2.49432772e-03, 2.26330152e-03, 3.56026529e-03,
          8.64046160e-03, 5.85409673e-03, -4.71456908e-03,
          -2.91857426e-03, -2.62190942e-02, -1.22322906e-02,
          -7.95682147e-03, -1.04653193e-02, 8.81533429e-04,
          4.11210628e-03, 7.42802804e-04, 1.29307583e-02,
          -1.30716925e-02, -3.08593791e-02, -2.77544670e-02,
          -7.95465056e-03, 1.07478350e-02, 2.10347446e-03,
          1.04340976e-02, -2.54639570e-04, -4.59481776e-03,
          -1.65546965e-02, -3.41739543e-02, -2.75956113e-02,
          -3.77253257e-03, 1.24897889e-03, 2.74830195e-03,
          5.78675373e-03, -1.02982344e-03, -9.16201680e-04,
          1.19815581e-03, -1.45630874e-02, -4.98442072e-03,
          2.73296726e-03, 2.61504273e-03, 6.13963651e-03, 4.05400805e-03,
          -6.15006452e-03, 2.56157313e-02, 6.55698730e-03,
          -2.07101982e-02, -1.01492694e-02, -3.83650023e-03,
          -1.00800144e-02, -2.12172456e-02, -1.18459752e-02,
          -4.44380008e-03, 1.92157757e-02, -1.18073234e-02,
          -4.59219180e-02, -2.81190015e-02, -6.42227428e-03,
          6.15186582e-04, -9.87338601e-04, -1.07943884e-03,
          7.53572723e-03, 2.49377713e-02, -1.43792816e-02,
          -4.77571748e-02, -2.51469798e-02, -2.42362451e-02,
          -1.45446314e-02, -1.39652183e-02, -5.14425570e-03,
          -6.78407308e-03, 1.04431110e-02, 1.16708428e-02,
          -2.33523957e-02, -9.76741221e-03, -3.24193134e-05,
          -9.20316204e-03, -1.43197458e-02, -3.11328517e-03,
          8.27284902e-03, 1.61031485e-02, 2.67843483e-03,
          -2.77717132e-02, -7.36338831e-03, 2.50945915e-03,
          1.61050875e-02, -1.63807033e-03, -7.44280079e-03,
          -7.08217872e-03, -1.00923786e-02, -1.83950178e-02,
          -3.28858942e-02, -4.16728761e-03, 5.33637498e-03,
          2.14779680e-03, -1.20571060e-02, -1.46744829e-02,
          -1.73201365e-03, 3.13810026e-03, -1.39399655e-02,
          -2.19524689e-02, -7.16693839e-03, 2.21334547e-02,
          2.29878742e-02, -1.04680229e-02, -2.25845706e-02,
          -3.21031511e-02, -1.23264152e-03, -6.83512725e-03,
          -3.98240462e-02, -1.82266273e-02, 7.57667935e-03,
          1.46352444e-02, 4.78514284e-03, -1.34709844e-04,
          -1.43565536e-02, -1.49525004e-03, -7.74672348e-03,
          -3.94203365e-02, -2.46634074e-02, 1.15381777e-02,
          2.48968368e-03, -1.36767782e-03, 4.80740378e-03,
          2.00868165e-03, 8.82549863e-03, -1.01118498e-02,
          -1.86542906e-02, -1.44122224e-02, -2.91897939e-03,
          1.84540562e-02, 2.67199310e-03, -6.19146833e-03,
          -2.36473884e-02, -1.13354341e-04, -1.81169715e-02,
          -2.54387315e-02, -1.62901171e-02, 9.26497299e-03,
          -9.15372802e-04, -1.50641138e-02, -1.93229821e-02,
          -2.09417548e-02, 9.87348147e-04, -1.76371038e-02,
          -3.32885273e-02, -5.85669698e-03, 1.45462854e-02,
          -5.22667915e-03, -1.16740610e-03, 3.73373996e-03,
          4.93238214e-03, 4.83519770e-03, -1.71470195e-02,
          -2.31819097e-02, 7.22300669e-04, 2.02975906e-02,
          -1.46327913e-03, -5.53992111e-03, -6.88734604e-03,
          -1.05900236e-03, 7.38389604e-03, -1.96572077e-02,
          -2.43531596e-02, 4.67084814e-03, 5.28094359e-03,
          -1.52769834e-02, -2.55168639e-02, -1.12073394e-02,
          -1.56226475e-02, -4.00544377e-03, -4.83041489e-03,
          -2.60975659e-02, -1.04248784e-02, 8.25351977e-04,
          -2.33822279e-02, -1.97822861e-02, -1.37251224e-02,
          -3.59706231e-03, 1.82627812e-02, -1.40475808e-02,
          -1.36657692e-02, 1.41921751e-02, 1.45780295e-02,
          1.99161489e-02, -2.35211500e-03, 4.31711087e-03,
          1.54016223e-02, 8.20302032e-03, -1.14146313e-02,
          -6.33072341e-03, 7.45426677e-03, 9.37949680e-03,
          6.24302018e-04, 1.45630875e-05, 1.32614989e-02, 1.14485556e-02,
          -8.46366049e-04, -2.04620771e-02, -2.71855444e-02,
          -1.54898027e-02, -1.87436305e-02, -1.94121129e-03,
          -9.59988125e-03, -4.00390523e-03, 1.02119157e-02,
          1.81464516e-02, -2.07728390e-02, -2.34782435e-02,
          -1.31901177e-02, 3.38128675e-03, 1.31916162e-02,
          -4.02742531e-03, -1.01098628e-03, 5.97915193e-03,
          -1.15667935e-02, 6.16644369e-03, 1.02912812e-02,
          1.17621673e-02, 4.42034740e-04, -1.09299575e-03,
          -9.16799158e-03, -5.90802077e-03, 1.82547269e-03,
          7.73013290e-03, 2.43497989e-03, -7.93999434e-03,
          -1.11987749e-02, -1.17324525e-02, 8.99303611e-03,
          -3.23081366e-03, -1.41647784e-02, -3.13824229e-03,
          1.52649358e-03, -1.55753549e-02, -1.30172474e-02,
          1.37585066e-02, 5.27885219e-04, 1.16656683e-02,
          -1.73085462e-03, -1.52271206e-03, 6.96638413e-03,
          2.63190741e-04, -2.58962740e-03, -9.65331495e-03,
          1.13402363e-02, 2.99967779e-03, 1.60526019e-02,
          -5.49634639e-03, -1.64932329e-02, -9.94634908e-03,
          -4.48205927e-03, 1.72622297e-02, -1.78578077e-03,
          -1.10339792e-02, -1.66592915e-02, 2.30013896e-02,
          -4.47838427e-03, -5.67354728e-03, -1.61673408e-03,
          1.48992790e-02, 9.31456103e-04, -1.05155688e-02,
          -1.23111084e-02, -1.19041456e-02, 2.04636212e-02,
          7.57232122e-03, 6.28907932e-03, 6.21832674e-03, 9.24924109e-03,
          3.24375671e-03, -3.49723012e-03, 3.26416251e-04,
          -1.96850616e-02, 1.08515956e-02, -1.04244510e-02,
          -2.34981552e-02, -1.67251322e-02, 9.47159249e-03,
          -6.56706979e-03, -1.24212671e-02, -3.02276071e-02,
          -2.38636620e-02, 3.58263310e-03, 4.74717142e-03,
          -3.49723757e-03, -7.01879093e-04, 1.03028938e-02,
          2.78670021e-04, -4.05070983e-04, -5.60141960e-03,
          -2.00371332e-02, 1.06605887e-02, 5.53443749e-03,
          1.31791933e-02, 4.74940194e-03, 1.50767062e-02,
          -6.00080658e-03, -2.93301768e-03, -6.78567495e-03,
          -1.75238792e-02, 1.04925698e-02, 4.43018926e-03,
          3.86383943e-03, -3.60760023e-03, -5.38756745e-03,
          -4.63928003e-03, -8.71460140e-03, -4.91828099e-03,
          -2.80962419e-02, -9.00489031e-05, 1.06897056e-02,
          1.36593031e-02, 1.52545366e-02, 1.95478685e-02,
          -1.02712144e-03, 1.14799635e-02, 1.12939496e-02,
          -7.85776973e-03, -5.60600171e-03, 1.37118192e-03,
          1.21174485e-03, 6.55115722e-03, 1.21528367e-02,
          -8.95572361e-03, 2.49204296e-03, 1.38672404e-02,
          1.55176986e-02, 2.46429890e-02, 4.84486198e-04, 6.12385804e-03,
          2.68182973e-03, -5.68116829e-03, -2.16967030e-03,
          4.41545388e-03, 6.46117795e-03, 1.58527754e-02, 2.15680874e-03,
          -1.57455113e-02, 6.99653849e-03, -3.94504331e-03,
          -2.73442501e-03, 2.22614454e-03, 2.23531201e-02,
          2.00660489e-02, 1.58730708e-02, 6.74488116e-03,
          -1.30956145e-02, -9.58284829e-03, 8.08128808e-03,
          4.58327821e-03, 5.36644831e-03, 6.50918251e-03,
          -4.69940575e-03, -4.55189776e-03, -1.39293093e-02,
          -2.86256168e-02, -4.03059460e-03, -1.31399941e-03,
          1.21309469e-02, 9.51290783e-03, -1.79048069e-02,
          -1.69890560e-02, 5.63633256e-03, -5.57495235e-03,
          -1.87193993e-02, -2.86897877e-03, -1.26947723e-02,
          5.56857930e-03, 4.75527951e-03, -1.83595028e-02,
          -1.09004462e-02, 1.10949166e-02, 1.77566689e-02,
          6.41781976e-03, 1.08245257e-02, -8.33970122e-03,
          1.79664996e-02, -3.20803747e-03, -2.29362417e-02,
          -1.89250223e-02, -3.50331829e-04, -5.64780971e-03,
          -1.97499637e-02, -2.79680267e-03, 4.76184161e-03,
          9.92368255e-03, -1.09905573e-02, -1.65345091e-02,
          -1.14784669e-02, 5.99283120e-03, 1.52812060e-02,
          -3.65493353e-03, -1.75753536e-04, 9.12890490e-03,
          1.10673243e-02, -1.49471341e-02, -3.58179919e-02,
          -4.46334993e-03, 1.03731938e-02, 2.69672424e-02,
          1.04491822e-02, 1.58111639e-02, -1.00973640e-02,
          4.99170739e-03, -4.38881516e-02, -5.82589321e-02,
          -1.00974580e-02, 1.10418443e-02, 2.18612161e-02,
          2.14970652e-02, 2.61742845e-02, 7.33983796e-03, 5.52230085e-05,
          -3.83136347e-02, -3.96877564e-02, -9.50211193e-03,
          1.07636265e-02, 2.06687097e-02, -3.52439587e-03,
          -4.68073692e-03, -5.02614072e-03, 7.79573573e-03,
          -5.18385060e-02, -4.33218777e-02, -1.58750322e-02,
          1.51034743e-02, 2.55942941e-02, 1.60350781e-02, 1.77767016e-02,
          2.23537553e-02, 1.03817238e-02, -3.89946327e-02,
          -4.18068543e-02, -4.13097860e-03, 6.34081941e-03,
          2.24947762e-02, 2.45625470e-02, 2.45837905e-02, 2.07823813e-02,
          1.74649861e-02, -2.58342717e-02, -2.76217870e-02,
          -1.03098759e-02, -1.61310006e-02, 1.13497721e-02,
          1.09636458e-02, 7.73976138e-03, 4.77953674e-03, 8.60886276e-03,
          -4.21524681e-02, -4.62514199e-02, -8.29486363e-03,
          1.49777802e-02, 2.83675827e-02, 2.33449582e-02, 2.82058399e-02,
          2.57734377e-02, 1.42537635e-02, -2.51731128e-02,
          -3.20944265e-02, -3.59201804e-03, -1.45735720e-03,
          2.40793335e-03, 3.48462956e-04, 3.67387501e-03, 6.52847439e-03,
          1.02622136e-02, -1.22074764e-02, -1.71567518e-02,
          -3.72978137e-03, 3.20958602e-03, 2.99849780e-04,
          -5.21362992e-03, -6.11292571e-03, -2.28324602e-03,
          1.62950950e-03, 6.85331272e-03, -1.99059285e-02,
          -9.32468381e-03, 1.08536668e-02, 1.28509477e-03,
          -1.88563615e-02, -6.59818156e-03, 1.73225801e-03,
          1.39070181e-02, 1.28169148e-03, -3.26021872e-02,
          -1.25545189e-02, -8.00955202e-03, -2.57332940e-02,
          -2.35480033e-02, 4.76018060e-03, 1.29493279e-02,
          3.48270312e-02, 2.07763854e-02, -1.85460057e-02,
          -1.29634021e-02, -1.62058044e-02, -2.40765605e-02,
          -1.69444568e-02, 1.60648022e-02, 3.21659744e-02,
          4.06825058e-02, 4.02216800e-03, -1.10129798e-02,
          2.25630845e-03, 2.17301218e-04, -6.36504963e-03,
          -2.26447433e-02, -1.97036588e-03, 4.73614177e-03,
          5.91526926e-03, -1.37375807e-02, -7.87832774e-03,
          1.32625550e-02, 1.79093797e-02, -1.12978052e-02,
          -2.43855920e-02, -1.79111194e-02, -8.06378573e-03,
          2.00794707e-03, -2.33242335e-03, -1.81606356e-02,
          2.18341663e-03, -1.91975646e-02, -8.19768477e-03,
          -1.48541117e-02, 7.48820929e-03, 1.75485015e-02,
          2.01196261e-02, -1.41950464e-02, -2.08482053e-02,
          1.57837756e-02, 3.92796937e-03, 5.28065022e-03,
          -8.97712354e-03, -1.10983942e-02, -1.41113140e-02,
          -4.17784927e-03, -6.58176187e-03, -1.66845124e-03,
          1.01261865e-02, 1.69211105e-02, -6.38656598e-03,
          -2.01627687e-02, -1.43506201e-02, -1.18164718e-02,
          7.77891278e-03, 1.08959870e-02, -1.21856453e-02,
          -1.37606524e-02, -1.47025157e-02, -1.71092376e-02,
          -1.98456459e-02, -2.78662588e-03, 3.21918260e-03,
          2.53501926e-02, -1.37485396e-02, -1.52771268e-02,
          1.10971951e-03, 4.97409143e-03, 9.69539862e-03, 4.92362864e-03,
          -4.82088886e-03, -3.37746064e-03, -8.55080143e-04,
          -3.99890682e-03, -1.82175599e-02, -3.37388888e-02,
          -3.63405682e-02, -2.79616588e-03, -8.50647688e-03,
          -7.26618385e-03, 3.49239912e-03, 3.17928917e-03,
          8.99408758e-03, -6.30618911e-03, -8.99910647e-03,
          -1.93455853e-02, 2.42992048e-03, -7.94447865e-03,
          -7.61979539e-03, 4.21250286e-03, 1.75098497e-02,
          -5.55624487e-03, -1.62625238e-02, -1.05928797e-02,
          1.02164864e-03, 1.86793841e-02, -1.33282579e-02,
          -1.25298249e-02, -1.25832635e-03, 4.75661689e-03,
          1.47911897e-02, -6.71149418e-03, -3.40625942e-02,
          -2.95505505e-02, -3.81839694e-04, 2.05791788e-03,
          -6.92597823e-03, 8.92146397e-03, 1.42097436e-02,
          9.83530749e-03, -2.42957808e-02, -2.87238434e-02,
          -6.83372142e-03, 9.09366738e-03, -4.65822127e-03,
          -1.19018101e-03, -2.05676421e-03, 2.27096211e-02,
          -4.05308994e-04, 2.18488072e-04, 6.97788037e-03,
          1.94386113e-03, 2.14302149e-02, 1.11478427e-02, 7.20359525e-03,
          5.78772323e-03, 4.24288353e-03, -1.54237263e-03,
          -1.32604511e-02, 6.49910187e-03, -1.18399905e-02,
          2.95719728e-02, 1.32381599e-02, -9.48974863e-03,
          -1.29278237e-02, 1.29869189e-02, 2.30622711e-03,
          8.67155439e-04, -3.93454218e-03, -1.16175106e-02,
          6.89208449e-04, 9.23135225e-03, 8.26981477e-03, 7.43616605e-03,
          -2.15788931e-03, -1.27209416e-02, -3.63876745e-02,
          -2.34069247e-02, -1.59320030e-02, 1.07175652e-02,
          8.96891207e-03, -7.39102159e-03, -1.49526559e-02,
          8.11698567e-03, 1.35510145e-02, 2.73796380e-03,
          -9.33500589e-04, -1.94276664e-02, 1.91508140e-02,
          3.83105059e-03, -1.25689534e-02, -1.01742502e-02,
          2.23446302e-02, -7.60403741e-03, -1.67276599e-02,
          -2.62805466e-02, -2.29024272e-02, 1.64472330e-02,
          1.95342917e-02, 4.05859930e-04, 1.21688319e-03, 1.38653805e-02,
          1.27187800e-02, -2.30919961e-02, -2.70514917e-02,
          -2.04738453e-02, 1.38087124e-02, -7.64822494e-03,
          -1.82003081e-02, -6.43340219e-03, 1.73005592e-02,
          2.39915680e-03, -1.16026346e-02, -3.91272418e-02,
          -3.20212059e-02, 1.78127475e-02, 7.08476035e-03,
          5.97911770e-04, 8.81620031e-03, 2.58912537e-02,
          -1.99459810e-02, -2.03383956e-02, -1.21016214e-02,
          -1.38102137e-02, 1.46586141e-02, 2.39199325e-02,
          1.45550184e-02, 1.81353521e-02, 1.76985003e-02,
          -1.98837779e-02, -1.11073023e-02, 7.96266645e-03,
          1.55085698e-03, 4.36680857e-03, 8.58259946e-03, 1.60908122e-02,
          2.26276387e-02, 2.02549323e-02, -1.65271293e-02,
          -2.58749817e-02, -2.80989464e-02, -1.17802909e-02,
          1.70220714e-02, 1.44323623e-02, 5.48959011e-03, 2.04976760e-02,
          1.20999226e-02, -1.87093709e-02, -1.78143457e-02,
          -2.41081025e-02, 2.99943052e-03, 2.12076884e-02,
          1.21077271e-02, 1.09954057e-02, 2.95234937e-02, 2.16828696e-02,
          2.81937537e-03, -1.13203367e-02, -8.80156271e-03,
          -5.11002075e-03, 7.90430605e-03, -8.53555370e-03,
          6.30248664e-03, 2.69921273e-02, 1.39293689e-02,
          -5.17198024e-03, -3.14919576e-02, -2.65823361e-02,
          -1.43170282e-02, 1.31183835e-02, 2.47435435e-03,
          1.84961334e-02, 3.22116911e-02, 7.22474605e-03,
          -2.83305272e-02, -2.49250159e-02, -2.19337698e-02,
          -9.15468857e-03, 2.69268639e-02, 1.25246132e-02,
          2.68362425e-02, 2.90828906e-02, 1.67700015e-02,
          -3.77778113e-02, -4.26315218e-02, -2.96557155e-02,
          -2.20183213e-03, 2.62024403e-02, 1.88342240e-02,
          3.45540978e-02, 3.61331142e-02, -9.99709778e-03,
          -2.63512321e-02, -3.15577760e-02, -2.63629202e-02,
          -1.16532734e-02, 9.33364499e-03, 7.05034565e-03,
          1.08432220e-02, 2.48033460e-02, 7.82352127e-03,
          -2.28920020e-02, -3.00335344e-02, -1.44194709e-02,
          1.22755649e-03, 1.27562676e-02, -2.65670521e-03,
          -6.08459522e-04, 2.15467326e-02, 3.16814743e-02,
          -5.41897863e-02, -4.71995175e-02, -2.40216646e-02,
          8.69969930e-03, 2.12015342e-02, 2.24787313e-02, 2.60326788e-02,
          3.17850299e-02, -9.13253054e-03, -2.95605194e-02,
          -3.85505147e-02, -2.00262070e-02, 1.68403555e-02,
          3.33218724e-02, 1.75338853e-02, 2.20648162e-02, 2.30070613e-02,
          1.84416845e-02, -1.85111035e-02, -2.92869043e-02,
          -4.91632381e-03, 2.00971738e-02, 1.78325158e-02,
          1.62812613e-03, 5.46660926e-03, 9.17254575e-03, 3.64310481e-02,
          -4.02995571e-02, -4.84205559e-02, -1.39079513e-02,
          2.34815571e-02, 2.90898159e-02, 5.67165622e-03, 1.15583641e-02,
          2.25633457e-02, 3.28170545e-02, -3.00937071e-02,
          -4.53355759e-02, -2.19391752e-02, 9.47572477e-03,
          2.83002649e-02, 8.23862571e-03, 1.65830515e-02, 1.22687062e-02,
          2.79372018e-02, -2.65189037e-02, -3.30012403e-02,
          -8.21036007e-03, 8.53626244e-03, 3.29294018e-02,
          9.87903774e-03, 1.57668293e-02, 1.15081714e-02, 9.50536970e-03,
          -4.18949090e-02, -4.56637703e-02, -2.14468986e-02,
          1.64885297e-02, 2.46233121e-02, 1.01680560e-02, 1.65578946e-02,
          2.05492508e-02, 2.13075019e-02, -2.67971102e-02,
          -4.75655869e-02, -1.95364449e-02, 9.92755499e-03,
          -3.88554949e-03, -1.14334663e-02, 7.95617234e-03,
          1.81159675e-02, 2.38376055e-02, -2.87670996e-02,
          -4.44014668e-02, -2.32495628e-02, 1.78318378e-02,
          3.31546590e-02, 1.25076529e-02, 2.41151787e-02, 1.95176695e-02,
          3.35038197e-03, -1.91138554e-02, -4.29106578e-02,
          -4.17957176e-03, 1.12155629e-02, 1.90542173e-02,
          3.43538195e-05, 7.54386839e-03, 1.23379417e-02, 2.05869172e-02,
          3.17477807e-03, -3.77053916e-02, -1.49386218e-02,
          2.24491861e-03, -1.99246109e-02, -1.86564643e-02,
          1.50659988e-02, 4.04466838e-02, 5.26632555e-02, 8.51590931e-03,
          -2.68168245e-02, -1.81198923e-03, -1.10371644e-02,
          -2.38750521e-02, -2.27864217e-02, 1.80100985e-02,
          4.25540656e-02, 4.77537848e-02, -4.28122841e-03,
          -4.55983989e-02, -7.44269742e-03, 5.30529581e-03,
          6.04147557e-03, -5.92160132e-03, 5.39004663e-03,
          2.52037439e-02, 3.88584584e-02, -3.04085598e-03,
          -3.20900418e-02, -4.45834640e-03, -5.60329296e-03,
          -1.12642683e-02, -1.41594606e-02, 1.02808885e-02,
          2.05687117e-02, 2.22540200e-02, -1.12781553e-02,
          -3.18076834e-02, 1.90063263e-03, -5.67747606e-03,
          -1.24845710e-02, -2.12595500e-02, 2.80118920e-03,
          1.52109172e-02, 2.18291506e-02, -7.87841436e-03,
          -3.27955037e-02, -1.09487195e-02, 3.97104304e-03,
          1.59421675e-02, -1.82166172e-03, -1.76114717e-03,
          -6.76128035e-03, 1.04170991e-02, -1.77439433e-02,
          -4.78991941e-02, -1.56967118e-02, -8.02149903e-03,
          1.74750935e-03, -1.22560710e-02, 3.73502309e-03,
          9.73325036e-03, 4.94541880e-03, -1.04899947e-02,
          -3.44614834e-02, -1.79387722e-02, 3.16400384e-03,
          3.70645430e-03, -1.42300082e-02, 6.21369435e-03,
          -1.90260922e-04, 6.82208780e-03, 3.82096732e-05,
          -3.75561900e-02, -2.59051584e-02, -3.57460184e-03,
          2.29390170e-02, 1.13331042e-02, 3.90924048e-03,
          -2.39847414e-03, 9.03816335e-03, 1.74742956e-02,
          -3.31784114e-02, -3.55469063e-02, -2.19749343e-02,
          4.32959292e-03, 8.94190837e-03, 5.00469701e-03, 1.24469670e-02,
          2.39535440e-02, -3.49814119e-03, -3.16654332e-02,
          -3.02034020e-02, -1.50538953e-02, 1.09933931e-02,
          -9.70903132e-03, 7.81141175e-03, 4.81182430e-03,
          1.50472671e-02, 8.64093192e-03, -2.86385883e-02,
          -3.72440107e-02, -1.80676151e-02, -1.00982655e-03,
          -5.33665577e-03, 7.57227186e-03, 1.14689600e-02,
          1.22895855e-02, 1.72583945e-02, -1.80754978e-02,
          -3.74825560e-02, -1.86823588e-02, -3.67799541e-03,
          -3.28899827e-03, 2.89277942e-03, 1.79994758e-02,
          2.88036913e-02, 1.38833942e-02, -1.44925117e-02,
          -3.10084317e-02, -1.58766601e-02, 4.41367598e-03,
          -1.16223318e-03, 1.24721304e-02, 2.73054303e-03,
          1.85764860e-02, 3.87849100e-03, -1.35164298e-02,
          -2.43268646e-02, -1.46386465e-02, -7.81542156e-03,
          -8.62574112e-03, 9.38124675e-03, 1.24294246e-02,
          1.42311435e-02, 1.10602248e-02, 9.04386491e-03,
          -1.19452458e-02, -2.08992269e-02, -2.53242650e-03,
          -1.42299721e-03, -1.30065414e-03, -9.23076738e-03,
          7.84556288e-03, -2.17424458e-04, 8.03909171e-03,
          2.21147458e-03, 8.42699723e-04, 4.35542688e-03,
          -1.01653775e-02, 5.70324482e-03, 1.88002717e-02,
          1.34877046e-04, -1.60675887e-02, -3.96062210e-02,
          -1.51030859e-02, -6.18883409e-03, 1.59777477e-02,
          -3.05351079e-03, -1.02246366e-02, -1.37846312e-02,
          -5.33823809e-03, 6.91710040e-03, -4.46488988e-03,
          -1.20538520e-02, -1.18024461e-02, 7.87045714e-03,
          -1.01957535e-02, 1.61904320e-02, 2.53892597e-02,
          1.92546789e-02, -1.26439063e-02, -5.55138290e-02,
          -3.45695019e-02, -1.23922052e-02, 1.41850850e-02,
          -2.38480698e-03, 7.72363506e-04, 1.05503360e-02,
          -1.77728834e-05, -1.00613246e-02, -3.69124152e-02,
          -2.36016829e-02, 4.33346722e-03, 2.97118258e-02,
          2.05982383e-03, -9.54169501e-03, -2.31864583e-03,
          8.47991370e-03, -9.21042822e-03, -2.41561271e-02,
          -4.52439897e-02, -1.34168314e-02, 2.26197876e-02,
          6.68299710e-03, -2.22575152e-03, 8.30440223e-03,
          7.89838657e-03, -6.69438578e-03, -3.47174853e-02,
          -2.12589446e-02, 1.17631734e-03, 2.36910414e-02,
          2.95155379e-03, -1.07098762e-02, -1.43362163e-03,
          -4.36672801e-03, -2.05936804e-02, -2.62936465e-02,
          -3.38424295e-02, -5.52480854e-03, 4.35164431e-03,
          3.42442747e-03, -1.15069868e-02, -1.09479763e-02,
          -3.50619177e-03, -1.27830049e-02, -1.34243360e-02,
          -3.01591642e-02, 2.52374168e-03, 2.95172371e-02,
          1.30930133e-02, 5.52887563e-03, 2.10527238e-02, 1.10944761e-02,
          -3.33343185e-02, -2.41173338e-02, -2.04270072e-02,
          5.22319181e-03, 2.26612650e-02, 5.46228699e-03, 1.40069304e-02,
          2.08471678e-02, 2.09653517e-03, -1.87363997e-02,
          -3.59625742e-02, -3.90394218e-02, 7.13737914e-03,
          1.90200880e-02, 1.29837142e-02, -1.51297997e-03,
          -6.88220188e-03, -2.65144114e-03, -2.77195685e-02,
          -4.57129851e-02, -2.06300337e-02, 1.33334203e-02,
          2.35654060e-02, 1.82131976e-02, 8.70028976e-03,
          -2.67100986e-03, -5.80384629e-03, -3.34445350e-02,
          -3.07023451e-02, -1.64922569e-02, 7.53062265e-03,
          2.84851603e-02, 2.15006620e-02, 2.83937678e-02, 1.89048052e-02,
          -7.16981158e-05, -3.91366147e-02, -3.96145098e-02,
          -2.78658941e-02, 1.68181472e-02, 3.17501798e-02,
          3.38868834e-02, 3.98512892e-02, 3.58515978e-02,
          -1.17099620e-02, -1.99730322e-02, -5.82838506e-02,
          -2.75915805e-02, 1.96998566e-02, 2.42502522e-02,
          9.66618303e-03, 2.25521941e-02, 2.09500343e-02, 5.02510415e-03,
          -3.93350236e-02, -5.37725426e-02, -4.22267765e-02,
          1.38780642e-02, 3.52104828e-02, 2.35302001e-02, 4.13010940e-02,
          3.96580696e-02, 1.48010710e-02, -4.55201715e-02,
          -4.07647640e-02, -1.61700007e-02, 8.80263001e-03,
          3.24785709e-02, 2.78598834e-02, 3.04918103e-02, 4.09186855e-02,
          -2.92642787e-03, -4.81320247e-02, -5.71987331e-02,
          -2.73305010e-02, 1.60463415e-02, 3.20767537e-02,
          2.29841676e-02, 3.30569595e-02, 3.20946798e-02, 7.72951823e-03,
          -2.24807262e-02, -4.16031629e-02, -3.41838859e-02,
          -2.35127681e-03, 1.21200550e-02, 1.82078052e-02,
          3.81651409e-02, 4.25187275e-02, 1.53451869e-02,
          -1.42912092e-02, -5.55139892e-02, -2.38838326e-02,
          -1.96522125e-03, 4.63130604e-03, 2.19031218e-02,
          5.01403511e-02, 4.01398875e-02, 1.77110136e-02,
          -4.08784635e-02, -2.97982227e-02, -1.33815622e-02,
          1.07445577e-02, 2.85113230e-02, 1.89709011e-02, 2.51391530e-02,
          2.00631395e-02, 8.73006787e-03, -4.38812561e-02,
          -1.95405446e-02, -4.36629634e-03, 1.24945110e-02,
          2.58609205e-02, 1.73007604e-02, 2.65597925e-02, 1.83101408e-02,
          -9.99733806e-03, -3.07674613e-02, -4.59970050e-02,
          -9.68574081e-03, 1.12860678e-02, 1.13976272e-02,
          2.68308073e-02, 4.54711653e-02, 2.80010048e-02, 7.84907769e-03,
          -4.62591089e-02, -3.57776806e-02, -1.85053404e-02,
          1.36293285e-02, 1.72551516e-02, 2.31470708e-02, 4.33750600e-02,
          2.68592108e-02, -4.97329235e-03, -2.34197825e-02,
          -3.22293714e-02, -8.76768213e-03, 1.06165269e-02,
          1.95412207e-02, 1.44282850e-02, 2.17303447e-02, 2.58248579e-02,
          -4.91299294e-03, -3.03305350e-02, -3.95760238e-02,
          -1.53744370e-02, 8.22036993e-03, 2.41951272e-02,
          1.67901185e-03, 2.77177151e-03, 8.53561331e-03, 7.66110700e-03,
          -4.29416411e-02, -5.20399660e-02, -2.25944519e-02,
          1.49129564e-02, 1.87360756e-02, 3.19394916e-02, 4.72358093e-02,
          3.48938741e-02, -4.58488800e-03, -4.09456827e-02,
          -4.74310555e-02, -2.02134214e-02, 1.02508459e-02,
          2.93194279e-02, 2.26885639e-02, 4.25985865e-02, 3.60947028e-02,
          -6.49827486e-03, -3.41507196e-02, -6.11420013e-02,
          -2.37236861e-02, 3.38771497e-03, 3.36872116e-02,
          1.38778640e-02, 4.96572116e-03, 6.12215931e-03, 1.25021869e-02,
          -1.76241994e-02, -4.47575338e-02, -9.91995446e-03,
          1.10090512e-03, 1.77392026e-03, 5.51552745e-04, 1.69666708e-02,
          1.40334740e-02, 1.54342437e-02, -3.81688550e-02,
          -4.19867225e-02, -1.79005638e-02, 1.79697189e-03,
          2.68099941e-02, 2.98217963e-02, 3.78237404e-02, 1.93737317e-02,
          6.40847022e-03, -1.29304994e-02, -8.82091280e-03,
          -6.15504384e-03, -3.81381670e-03, -4.54342738e-03,
          -5.81436837e-03, 2.03975979e-02, 1.95389483e-02,
          2.77838595e-02, -2.20860187e-02, -3.58953364e-02,
          -6.34352863e-03, -1.04496926e-02, -1.15388120e-02,
          -1.76697653e-02, 5.02278656e-03, 1.14723789e-02,
          1.22708296e-02, -9.88861732e-03, -1.93390530e-02,
          -6.11233106e-03, 6.76212134e-03, -1.41957840e-02,
          -3.38321924e-02, -8.10357649e-03, 3.96801112e-03,
          7.15052616e-03, 7.88436923e-03, -4.52542026e-03,
          2.34269144e-04, -2.47557438e-03, -2.25792229e-02,
          -4.00156267e-02, -1.09991711e-02, 1.86570697e-02,
          3.55036370e-02, 2.16048043e-02, 1.48639707e-02, 6.37312420e-03,
          2.88747600e-03, -1.73644349e-02, -2.97995247e-02,
          -1.89667922e-02, 1.10245030e-02, 1.55372713e-02,
          4.30357037e-03, -1.40490951e-02, -1.37947937e-02,
          -3.84170096e-03, -3.05393361e-03, -3.05770207e-02,
          -6.34979317e-03, 3.42099089e-03, 5.53418184e-03,
          -5.83117036e-03, -1.16679976e-02, -1.31136896e-02,
          -7.01367855e-03, -1.82974827e-03, -1.77516434e-02,
          -1.00764865e-02, -4.27168189e-03, 5.71403594e-04,
          1.63444392e-02, 3.47758969e-03, -3.19926511e-03,
          9.38043557e-03, -4.25912353e-04, -1.53526459e-02,
          -3.62741109e-03, 8.27259757e-03, 1.56346634e-02,
          3.03490576e-03, -6.24895422e-03, 6.91121304e-03,
          5.13945823e-04, -5.97717194e-03, -1.45892715e-02,
          -1.85153354e-02, -8.52168165e-03, 1.13812685e-02,
          -4.31904383e-03, -1.00450637e-02, -9.15911235e-03,
          -4.82108677e-03, 5.78052178e-03, -1.21706314e-02,
          -3.59817874e-03, -7.76397577e-03, -2.05188757e-03,
          1.56133827e-02, -2.33561755e-03, -1.00676036e-02,
          -2.44373772e-02, -2.73185107e-03, -1.88461598e-02,
          -1.29376501e-02, -1.30077433e-02, 4.78528487e-03,
          8.21250211e-03, -5.85397612e-03, -2.39804597e-03,
          -2.33845524e-02, -9.98018775e-04, -1.21248858e-02,
          -1.16314301e-02, -1.17424158e-02, 1.13802934e-02,
          5.45863248e-03, -1.02050584e-02, -9.38904844e-03,
          -2.39786953e-02, 8.17315001e-03, 6.05985802e-03,
          -1.36846432e-03, -1.65418014e-02, 1.46384654e-03,
          -8.64594895e-03, -3.62863094e-02, -2.80635599e-02,
          -9.46469512e-03, 1.20516606e-02, 1.73448958e-03,
          1.59361772e-02, 6.04798133e-03, 1.27828727e-02,
          -3.86743136e-02, -5.82902282e-02, -3.82280052e-02,
          -8.51991028e-03, 1.01631191e-02, 7.84267765e-03,
          1.30613502e-02, 7.08109047e-03, -1.60080893e-03,
          -1.03639420e-02, -2.45247278e-02, -8.15774128e-03,
          5.43310307e-03, 2.06668526e-02, -2.64951750e-03,
          -1.25311632e-02, -2.34286040e-02, 8.04041792e-03,
          -1.90325622e-02, -2.86589060e-02, -1.29370736e-02,
          2.31611193e-03, 1.85017120e-02, -1.11375079e-02,
          -1.38835469e-02, -1.16419131e-02, -1.75576389e-03,
          -2.12545022e-02, -3.43765393e-02, -7.00208684e-03,
          8.14845785e-03, 1.73340887e-02, 3.60152428e-03,
          -3.92908836e-03, -6.01933850e-03, -2.19580089e-03,
          -3.96309569e-02, -3.28544118e-02, -1.06926756e-02,
          1.26778828e-02, 1.54958805e-02, 4.74529946e-03,
          -1.45727238e-02, -2.49046758e-02, -2.20815465e-02,
          -2.18747221e-02, -3.05639785e-02, -6.16838364e-03,
          9.60653462e-03, 2.58941241e-02, 7.22303661e-03,
          -9.62337106e-03, -6.07045647e-03, 3.28249880e-04,
          -2.65216716e-02, -1.20957792e-02, -1.43536199e-02,
          2.73836106e-02, 2.71330755e-02, 1.05238464e-02,
          -6.11926895e-03, -2.04769876e-02, -2.32670698e-02,
          -1.66573711e-02, -9.71309096e-03, -5.10125421e-03,
          1.33204237e-02, 2.66484991e-02, 2.35356037e-02, 1.08558242e-03,
          -7.00901262e-03, -1.06536513e-02, -2.24133246e-02,
          -3.91987711e-02, -1.89426169e-02, 1.13373445e-02,
          2.50078309e-02, 3.12959626e-02, 1.33981984e-02,
          -2.36908859e-03, 2.79687723e-04, -2.04551890e-02,
          -5.40764024e-03, -5.37730462e-04, 2.11371239e-02,
          2.54734419e-02, 1.83237437e-02, 7.21436692e-03,
          -9.91884153e-03, -1.65666286e-02, -2.34880112e-02,
          -1.75768845e-02, -1.65065452e-02, 1.25928950e-02,
          1.73346344e-02, 2.19217073e-02, 5.47113642e-03,
          -5.21319360e-03, -1.82572044e-02, -2.39626113e-02,
          -5.92577048e-02, -2.80598234e-02, 1.97555758e-02,
          2.91328952e-02, 2.57523879e-02, 2.11533606e-02, 1.53078400e-02,
          5.45723550e-03, -3.14040445e-02, -4.99518104e-02,
          -1.51706608e-02, 1.64226834e-02, 2.70046014e-02,
          2.95647103e-02, 4.02358994e-02, 2.88716853e-02, 1.68300997e-02,
          -5.04193231e-02, -4.10096310e-02, -3.20086326e-03,
          1.87546574e-02, 3.20812725e-02, 4.00268622e-02, 1.27520720e-02,
          -9.70898941e-03, -2.69222558e-02, -5.66202439e-02,
          -3.88175175e-02, 6.55393349e-03, 1.94526222e-02,
          2.08008308e-02, 3.78875695e-02, 2.63547488e-02,
          -1.52301695e-03, -3.18273120e-02, -2.71297563e-02,
          -3.11515424e-02, -1.55718457e-02, -5.31626493e-03,
          3.39260418e-03, 1.97396204e-02, 3.46584134e-02, 2.51254421e-02,
          1.75137669e-02, -2.88740154e-02, -3.73279713e-02,
          -4.72428603e-03, -3.59511538e-03, 1.39048314e-02,
          2.12903358e-02, 4.35582995e-02, 2.92119589e-02, 5.07685402e-03,
          -4.95250300e-02, -4.12756689e-02, -1.63739058e-03,
          3.17651127e-03, 1.91716924e-02, 2.75853835e-02, 2.02665497e-02,
          -3.71009693e-03, -1.79615840e-02, -3.87124829e-02,
          -3.65196243e-02, -1.97578128e-03, 1.35450801e-02,
          4.18137722e-02, 2.80463379e-02, 2.22795866e-02, 8.07369407e-03,
          -7.41703715e-03, -3.08723394e-02, -4.52312976e-02,
          -1.57079697e-02, -1.10672531e-03, 1.16389701e-02,
          2.20985990e-02, 3.72593701e-02, 2.26044301e-02,
          -1.54023385e-03, -3.82225178e-02, -5.07910512e-02,
          -2.76784375e-02, 3.38593614e-04, 1.56523120e-02,
          2.27908641e-02, 3.88925709e-02, 3.02867368e-02, 4.97379666e-03,
          -3.39659341e-02, -5.71587794e-02, -2.62690112e-02,
          9.99295991e-03, 3.58628109e-02, 2.85201762e-02, 3.05768233e-02,
          1.52750816e-02, 6.08526263e-03, -1.80334728e-02,
          -3.98553610e-02, -3.04203723e-02, 9.35706496e-03,
          1.83856264e-02, 1.91305932e-02, 3.78367975e-02, 2.26458870e-02,
          2.89613307e-02, -3.67673449e-02, -5.90659678e-02,
          -3.01732980e-02, 7.23581947e-03, 2.03170236e-02,
          3.19868661e-02, 4.05968651e-02, 3.65961529e-02, 6.12182450e-03,
          -2.35894248e-02, -3.99884135e-02, -2.48862021e-02,
          4.09442838e-03, 1.32788774e-02, 2.11915113e-02, 1.82643738e-02,
          3.15034054e-02, 5.93882194e-03, -1.77710503e-02,
          -3.76768112e-02, -8.02087132e-03, 1.58686936e-02,
          1.72180869e-02, 6.86402945e-03, 2.70670466e-02, 2.69215629e-02,
          2.92260610e-02, -3.60521884e-03, -2.80671008e-02,
          -1.78843737e-02, 1.48314564e-02, 3.49219865e-03,
          -1.09875221e-02, 1.32539365e-02, 2.75869314e-02,
          2.61452235e-02, -1.94735844e-02, -2.50631701e-02,
          -2.19201520e-02, -1.82936713e-02, -1.49918045e-03,
          2.19951570e-02, 2.35370193e-02, 2.53992341e-02, 1.56377479e-02,
          -1.33086156e-04, -3.87857412e-03, -1.63208228e-02,
          -2.29450632e-02, -3.13279219e-02, -1.09293796e-02,
          2.42369771e-02, 2.40673292e-02, 2.53379382e-02, 6.14973577e-03,
          -1.81458574e-02, -1.49413561e-02, -1.34505769e-02,
          -1.62504893e-02, -8.34805600e-04, 2.01275293e-02,
          2.99755000e-02, 2.71916259e-02, 1.03628291e-02,
          -6.74129464e-03, -1.93939116e-02, -3.57471518e-02,
          -2.97030732e-02, -2.12098043e-02, 2.99016256e-02,
          4.10061069e-02, 3.83934267e-02, 1.32711502e-02,
          -4.97486955e-03, -4.13825270e-03, -6.45751879e-03,
          -2.80199070e-02, -2.28047092e-02, 3.39934413e-05,
          1.52165890e-02, 2.84974314e-02, 1.14676803e-02, 1.25674140e-02,
          1.44695807e-02, -2.16728728e-03, 3.85599531e-04,
          -1.76814850e-02, -1.26004312e-02, 3.74726544e-04,
          1.14609546e-03, 2.67033502e-02, -4.83468780e-03,
          -1.08334003e-02, -4.26594764e-02, -2.74628829e-02,
          -1.71823502e-02, 9.74472670e-04, 2.22948026e-02,
          2.96943933e-02, 1.11534661e-02, -2.24774773e-03,
          -4.38781641e-03, -3.86243835e-02, -3.25881573e-03,
          -9.72790457e-03, -1.35863647e-02, -1.75980595e-03,
          1.11441789e-02, 2.34410842e-03, 2.98948120e-03, 6.05730060e-03,
          1.02027282e-02, 1.28199207e-02, -7.66471121e-03,
          -8.56966060e-03, 1.41864934e-03, 6.96190691e-04,
          -7.21927872e-03, -5.12687629e-03, 2.03368980e-02,
          7.14423833e-03, -9.95251350e-03, -2.63123829e-02,
          -6.59493869e-03, 5.27712656e-03, -1.08087494e-03,
          -7.66692916e-03, -1.53323468e-02, 1.66893692e-03,
          -1.32182129e-02, 2.10360321e-03, -1.24208559e-03,
          1.40610114e-02, 1.94679829e-03, -7.03973172e-04,
          -1.12791127e-02, -5.57132484e-03, 2.41417885e-02,
          -1.25085432e-02, -1.32460147e-02, -2.14807549e-03,
          1.78715549e-02, 1.96419365e-04, -3.77608021e-03,
          -9.56639461e-03, 3.24552087e-03, 1.75780077e-02,
          -9.01128724e-03, 7.00670714e-03, 1.60083070e-03,
          6.42865198e-03, 5.99223562e-03, 5.00960683e-04,
          -1.68497898e-02, 2.98743811e-03, 9.27432720e-03,
          -4.60571173e-05, 4.95365961e-03, 1.11229075e-02,
          1.79557446e-02, -1.17288297e-02, -1.45082688e-02,
          -2.48500276e-02, 1.91431772e-03, 2.40409598e-02,
          -4.98736976e-03, 9.27055907e-03, 1.28462389e-02,
          3.04086525e-02, 8.35269969e-03, -2.76020039e-02,
          -3.59872133e-02, 5.70447650e-03, 2.61820108e-02,
          -3.15257790e-03, 5.08050434e-03, -7.13464851e-03,
          1.66386813e-02, 2.63567618e-03, -2.96609830e-02,
          5.76397311e-03, -1.37412250e-02, 6.47230027e-03,
          2.20587589e-02, 3.06721274e-02, -1.11415994e-03,
          -1.32407900e-02, -2.11539101e-02, 6.88148616e-03,
          -6.07199874e-03, -1.96209773e-02, 2.65709637e-03,
          2.49682646e-02, 2.77562570e-02, -2.33408958e-02,
          -1.67335086e-02, -2.23747287e-02, -2.03069253e-03,
          1.34707959e-02, -2.83889249e-02, -6.20512059e-03,
          5.28369285e-03, 1.53316651e-02, -1.96899250e-02,
          -1.40635082e-02, -8.32448341e-03, 2.67599523e-02,
          -1.76827470e-03, -1.53920623e-02, -8.29194114e-03,
          -2.49710423e-03, 3.61145753e-03, -3.47365662e-02,
          -1.35101927e-02, -2.17055921e-02, 1.02070263e-02,
          -4.85336594e-03, -2.01789886e-02, -1.76572218e-03,
          2.16551349e-02, 3.60425971e-02, -4.75602516e-04,
          -8.47062375e-03, -3.49720009e-03, 8.36565066e-03,
          -1.24262441e-02, -1.31625561e-02, -7.70051405e-03,
          2.91317217e-02, 4.51628007e-02, 1.07053844e-02,
          -3.43438075e-03, -2.28448696e-02, -1.50009021e-02,
          1.37869245e-03, -2.22385395e-02, -3.08257365e-03,
          1.20967692e-02, 1.36859370e-02, -1.32277347e-02,
          8.14841874e-03, -3.90446302e-03, 5.35254600e-03,
          -2.65184864e-02, -1.59202125e-02, -3.87450587e-03,
          2.47167703e-02, 3.51742283e-02, 3.39413364e-03,
          -1.45823415e-05, -2.99060438e-02, -3.40045840e-02,
          -5.13529498e-03, -9.41796787e-03, 1.01601165e-02,
          3.32832634e-02, 4.83274981e-02, 1.96081586e-02,
          -4.28235577e-03, -2.37047207e-02, -2.27561593e-02,
          -6.93489332e-03, -1.35431224e-02, -6.78708684e-03,
          2.50834711e-02, 4.67776321e-02, 2.25161891e-02,
          -9.92032699e-03, -2.54662577e-02, -2.58357078e-02,
          -1.14203468e-02, -1.33210083e-03, 1.05635896e-02,
          3.85275558e-02, 5.94318025e-02, 2.52717864e-02, 3.61410202e-03,
          -2.46067569e-02, -2.85707768e-02, 8.20301007e-03,
          -1.42847225e-02, -8.80326517e-03, 3.34719457e-02,
          5.15978597e-02, 1.89556908e-02, -4.68748389e-03,
          -1.90050211e-02, -1.26285143e-02, -2.04292536e-02,
          -1.08369067e-02, 1.53141385e-02, 3.92889716e-02,
          5.71240783e-02, 3.28590535e-02, -3.68291698e-03,
          -3.66651602e-02, -3.06999628e-02, -3.81610803e-02,
          -1.47274779e-02, 1.89741440e-02, 3.99985127e-02,
          5.27632423e-02, 3.70926782e-02, 4.00714623e-03,
          -2.92521212e-02, -2.98284721e-02, 1.54379262e-02,
          -1.96278580e-02, -4.10076667e-04, 3.78177054e-02,
          7.03136027e-02, 3.03287990e-02, -6.66138250e-03,
          -2.43567768e-02, -1.05800377e-02, -1.36352722e-02,
          -8.55944026e-03, 1.96045432e-02, 4.12746854e-02,
          6.97982162e-02, 4.93778214e-02, 8.39241873e-03,
          -2.44617295e-02, -9.56869218e-03, -3.02306544e-02,
          -2.32637096e-02, 8.79039988e-03, 2.12936550e-02,
          4.07860801e-02, 3.36774960e-02, 1.96686704e-02,
          -1.45547856e-02, -1.78303029e-02, -3.30531970e-02,
          -3.00964974e-02, 8.74168891e-03, 3.37863564e-02,
          6.20903261e-02, 3.32190767e-02, 2.56302040e-02, 1.43862031e-02,
          8.79130978e-03, -1.05873831e-02, -3.42861526e-02,
          1.56002045e-02, 2.82879379e-02, 5.50285392e-02, 4.13539410e-02,
          9.40328278e-03, -1.05733704e-02, 2.02240655e-03,
          -4.62730322e-03, -2.99650934e-02, 2.29454860e-02,
          4.25140113e-02, 5.90462312e-02, 2.13821400e-02, 1.40618812e-03,
          7.48819765e-03, 2.84206718e-02, -2.25221813e-02,
          -4.50641140e-02, -5.56046423e-03, 2.62037106e-02,
          4.09889705e-02, 1.92625560e-02, 1.27050271e-02, 1.56405121e-02,
          1.64558962e-02, -1.77755933e-02, -3.26702446e-02,
          -2.80406419e-03, 2.63433028e-02, 2.95456611e-02,
          1.61732901e-02, 2.64321491e-02, 1.71877835e-02, 2.42178198e-02,
          -8.84114206e-03, -3.55143547e-02, 1.12318592e-02,
          4.27860692e-02, 4.67555709e-02, 1.52529739e-02, 1.86877395e-03,
          8.06985889e-03, 2.52084173e-02, -1.30921165e-02,
          -2.69113239e-02, 2.21961513e-02, 3.77494134e-02,
          5.77947386e-02, 2.86973696e-02, 1.77452285e-02, 1.04690006e-03,
          5.56871388e-03, -1.15164025e-02, -3.58445086e-02,
          -6.67654583e-03, 2.31427923e-02, 2.58848071e-02,
          3.17780953e-03, 1.99903548e-02, 9.10020433e-03, 1.73871350e-02,
          8.24270397e-03, -3.24198231e-02, -2.74640266e-02,
          7.59122521e-03, 3.20266746e-03, -1.87879102e-03,
          2.51915473e-02, 2.99435612e-02, 3.54117192e-02,
          -1.21061895e-02, -3.03253662e-02, 1.18487785e-02,
          2.89008319e-02, 3.91356349e-02, 1.04569569e-02, 1.70735810e-02,
          -7.25085195e-03, 2.14068405e-03, 1.82455983e-02,
          3.44928075e-03, 9.20594018e-03, 6.96082739e-03, 5.31468075e-03,
          -3.02767884e-02, 9.80488956e-03, 1.52146323e-02,
          3.41284759e-02, 1.26131885e-02, -2.01224145e-02,
          -2.18623187e-02, -9.10259783e-03, -2.50058062e-02,
          -1.02725551e-02, 2.56323870e-02, 3.52866054e-02,
          2.57432777e-02, 2.77340482e-03, -1.00673977e-02,
          -2.52948003e-03, -2.01513767e-02, -2.12464556e-02,
          -2.71540750e-02, 1.81778483e-02, 1.98428109e-02,
          1.90721657e-02, 2.00439971e-02, 1.71723366e-02, 1.72367599e-02,
          9.53062344e-03, -2.48446483e-02, -3.75601351e-02,
          4.88377642e-03, 2.33771354e-02, 2.00289227e-02, 2.70262547e-02,
          2.46356912e-02, 3.79847959e-02, -1.13742454e-02,
          -1.75041687e-02, -2.67458800e-02, 6.19644392e-03,
          8.15346930e-03, 1.55401696e-02, 2.11548749e-02, 2.68809334e-03,
          -1.02751041e-02, -4.17115465e-02, -3.12055983e-02,
          -2.13515759e-02, -8.31901282e-03, 6.44370262e-03,
          1.78961176e-02, 1.74239594e-02, -8.47859716e-04,
          -7.34011596e-03, -5.07231578e-02, -3.22126634e-02,
          -3.31944451e-02, -8.15347675e-03, 4.39380808e-03,
          1.44046303e-02, 4.04778831e-02, 2.46306602e-02, 2.71731731e-03,
          -3.23259421e-02, -2.39476487e-02, -1.35576436e-02,
          8.85761529e-03, 2.57138032e-02, 4.25316095e-02, 3.35156880e-02,
          2.61833495e-03, -1.43605070e-02, -5.36098816e-02,
          -3.21750604e-02, -3.05827577e-02, 2.10028607e-02,
          3.20683382e-02, 4.93842065e-02, 7.00862473e-03,
          -6.27498096e-03, -2.51848204e-03, -2.79484820e-02,
          -2.24118996e-02, -1.92681316e-03, 1.50102042e-02,
          4.22160327e-03, 1.26458956e-02, 6.25891518e-03, 5.44996420e-03,
          5.14368061e-03, -3.35177630e-02, -2.88345646e-02,
          -1.87015242e-03, 1.51634719e-02, -5.56349708e-03,
          8.77383631e-03, 2.59160586e-02, 3.98352742e-03, 4.18141624e-03,
          -1.81311369e-02, -2.50845160e-02, -8.85947607e-03,
          2.73926463e-02, 1.97463855e-02, 2.91233622e-02, 1.10595953e-02,
          1.34324776e-02, 6.35166140e-03, -2.10691933e-02,
          -3.03971451e-02, 1.06058212e-03, 2.85429955e-02,
          3.48409712e-02, 2.83884094e-03, -1.58389453e-02,
          5.10865822e-03, 1.16121145e-02, -1.84782874e-02,
          -8.43122695e-03, 1.03082331e-02, 3.52385379e-02,
          1.69251412e-02, -1.01060411e-02, -3.66834626e-02,
          -1.18210318e-03, 2.60586962e-02, -1.74479950e-02,
          -1.03821345e-02, -2.89342040e-03, 2.45734677e-02,
          7.99373724e-03, -3.25132236e-02, -1.03840940e-02,
          2.96164770e-03, 1.87781770e-02, -1.83060411e-02,
          -1.41670657e-02, 9.28376708e-03, 4.56993394e-02,
          3.47328000e-02, -6.01123599e-03, -2.30087098e-02,
          -9.69830155e-03, 5.12880553e-03, -3.75267193e-02,
          -1.42267132e-02, 1.43754371e-02, 3.79386470e-02,
          1.64521951e-02, -2.61629149e-02, 3.58045176e-02,
          7.66862370e-03, 3.10335588e-03, 4.64697089e-03, 1.35265728e-02,
          -1.31807588e-02, -1.03714569e-02, -6.10204460e-03,
          2.60858610e-02, 2.70245448e-02, 1.04735380e-04, 6.53700577e-03,
          -5.16575715e-03, 1.45349950e-02, -2.20255759e-02,
          -1.50233144e-02, -2.10452881e-02, 1.63893756e-02,
          5.77902747e-03, -2.89852708e-03, 6.63731131e-04,
          5.97788440e-03, 1.56011535e-02, 3.13677522e-03,
          -4.31031873e-03, -9.93070938e-03, -6.28006412e-04,
          6.92143617e-03, -1.01243528e-02, -1.12357661e-02,
          -8.22947733e-03, 4.31313133e-03, -7.75996305e-04,
          -4.36086813e-03, -2.34374944e-02, -1.18621551e-02,
          1.21352170e-02, -5.51618868e-03, 1.41985836e-02,
          9.06616542e-03, 1.06506879e-02, -1.75877586e-02,
          1.03183864e-02, -3.01201269e-03, -6.98396121e-04,
          -3.26883607e-02, -1.88470036e-02, 8.80693458e-03,
          3.74037288e-02, 3.09979804e-02, -1.06581580e-03,
          1.54402843e-02, -1.54918013e-02, -2.86823269e-02,
          3.76881473e-03, -3.94754391e-03, 5.06948400e-03,
          -8.79579224e-03, 7.95761403e-03, 2.30404804e-03,
          8.74122512e-03, -5.06154867e-03, 5.46523370e-03,
          -2.41036396e-02, -1.25847803e-02, 6.63604960e-03,
          1.12791331e-02, 1.39599098e-02, -8.58622883e-03,
          2.58722715e-03, -1.41890571e-02, -1.24605391e-02,
          -2.01726202e-02, -1.56393573e-02, 1.96072329e-02,
          3.10858134e-02, 3.87843102e-02, 3.31020914e-03,
          -1.61027759e-02, -4.44902107e-02, -4.22917902e-02,
          1.69557184e-02, -7.67108926e-04, 5.36150765e-03,
          1.96421053e-02, 2.98320297e-02, -3.89110344e-03,
          -2.92485189e-02, -3.04555725e-02, 7.71000981e-03,
          -1.16947312e-02, -1.17276227e-02, 1.72944441e-02,
          2.23565344e-02, 2.38697436e-02, -1.25429351e-02,
          -2.15418171e-02, -2.78251972e-02, -1.53946029e-02,
          2.15043370e-02, 1.20059522e-02, 2.45781336e-02, 2.76245866e-02,
          2.35807486e-02, -6.47470169e-03, -2.70877797e-02,
          -2.45583765e-02, 1.26709584e-02, 2.05774978e-02,
          -5.27103571e-03, -3.50608048e-03, 1.17558418e-02,
          3.97215076e-02, 9.74185020e-03, -1.97236799e-02,
          -3.17185894e-02, 3.08671431e-03, -1.80915720e-03,
          -2.19435655e-02, -4.44507645e-03, 2.57707387e-02,
          4.80145738e-02, 2.66570579e-02, -9.05670971e-03,
          -3.56855690e-02, -1.08201364e-02, 2.72345226e-02,
          -6.88037107e-05, 5.89854456e-03, 1.00904563e-02,
          2.69595962e-02, 7.08304485e-03, -6.77591329e-03,
          -2.90377717e-02, 1.79266632e-02, 1.36428988e-02,
          -4.35668882e-03, -8.29397328e-03, 2.14461125e-02,
          3.83340195e-02, 2.57720295e-02, 4.17245552e-03,
          -2.29818746e-02, -9.30434186e-03, -5.58052585e-03,
          -4.71237600e-02, -1.78671014e-02, 2.50429567e-02,
          3.81615236e-02, 1.87709276e-02, -8.77779257e-03,
          -2.44489331e-02, 1.07674478e-02, 3.11979675e-03,
          -2.73495261e-02, -1.29092382e-02, 3.17510962e-02,
          3.56371403e-02, 1.06528625e-02, -1.26661416e-02,
          -4.88168420e-03, 2.61456016e-02, 3.16766948e-02,
          -8.40289867e-04, -1.06140542e-04, 3.85852829e-02,
          4.00894396e-02, 3.29089798e-02, -4.10486478e-04,
          -2.85580903e-02, -1.04313092e-02, 5.07665314e-02,
          2.30092406e-02, 2.65244655e-02, 5.03173396e-02, 4.31006774e-02,
          2.58095283e-02, -5.51749440e-03, -1.48107801e-02,
          1.19455447e-02, -8.50372016e-03, -1.56932622e-02,
          2.09518103e-03, 2.85216868e-02, 3.71571630e-02, 2.50256732e-02,
          -1.59282368e-02, -2.20260061e-02, 1.39804836e-02,
          -7.01353978e-03, -8.73728096e-03, 2.25847159e-02,
          1.73382089e-02, 4.38933223e-02, 3.60835791e-02, 4.85586555e-04,
          -3.38802934e-02, -1.68162547e-02, 3.27683426e-02,
          2.62354445e-02, 2.77730692e-02, 3.54479440e-02, 4.36131358e-02,
          2.92222742e-02, -1.79229062e-02, -3.26154120e-02,
          -3.66657949e-03, 2.55250186e-02, 4.60112542e-02,
          4.63193618e-02, 2.25941762e-02, 2.46371999e-02, 2.08836533e-02,
          -1.95589587e-02, -3.81151773e-02, -2.91167796e-02,
          -4.17954521e-03, -8.84339772e-03, 2.13453341e-02,
          1.08400332e-02, 1.90586206e-02, 1.58965793e-02, 4.64282319e-04,
          -3.68395858e-02, -2.22212337e-02, 1.59637146e-02,
          4.92352992e-03, 1.91555675e-02, 8.42577871e-03,
          -1.68954991e-02, -4.14678231e-02, -1.58435144e-02,
          -1.56791192e-02, 1.64251626e-02, 1.90870184e-02,
          3.93726304e-02, 4.57824171e-02, 3.39175202e-02, 1.87854674e-02,
          1.22915125e-02, -2.95352452e-02, -4.88998443e-02,
          -1.99860260e-02, 3.55588160e-02, 2.85054743e-02,
          4.34710644e-02, 1.30032348e-02, 2.45519303e-04,
          -1.90750007e-02, -2.01751348e-02, -3.71688493e-02,
          5.88501897e-03, 2.35192738e-02, 1.92360748e-02, 2.63020154e-02,
          -1.65877992e-03, -4.17731591e-02, -6.09831363e-02,
          -1.25817982e-02, 1.03382627e-03, 1.57065056e-02,
          2.62295362e-02, 3.51554751e-02, 3.94382663e-02,
          -1.66843124e-02, -4.32909913e-02, -4.43118066e-02,
          -3.34248296e-04, 1.52268894e-02, 1.40903080e-02,
          3.31564844e-02, 3.30539308e-02, 3.79019491e-02,
          -8.60429555e-03, -2.01893821e-02, -4.16584834e-02,
          -1.61488838e-02, -1.77775025e-02, 1.20637389e-02,
          3.59344594e-02, 3.92404050e-02, 2.95442846e-02,
          -7.05781905e-03, -3.70487496e-02, -2.11724471e-02,
          5.10749826e-03, 1.30938040e-02, 1.51763745e-02, 3.69345434e-02,
          2.43385229e-02, 8.76380969e-03, -3.96439210e-02,
          -3.71640846e-02, -1.75063424e-02, 2.01637261e-02,
          3.71975787e-02, 3.30215394e-02, 2.92081926e-02, 1.41401412e-02,
          -1.50342584e-02, -6.36192039e-02, -5.51026836e-02,
          -8.07119068e-03, 1.83971860e-02, 2.57755686e-02,
          3.21757086e-02, 4.23412360e-02, 2.13706680e-02, 9.01436247e-03,
          -2.14064047e-02, -4.07653227e-02, -1.10721989e-02,
          1.51876528e-02, 2.90578194e-02, 3.74251343e-02, 4.26001027e-02,
          2.48775706e-02, 5.64444531e-03, -6.71717227e-02,
          -5.49766049e-02, -4.40714583e-02, -6.72816997e-03,
          2.84833051e-02, 4.36448492e-02, 1.89809445e-02, 1.22441957e-02,
          4.10227384e-03, -1.33485347e-02, -3.97622064e-02,
          -1.36846490e-02, 3.35108601e-02, 1.92515031e-02,
          2.00576689e-02, 4.23442293e-03, 9.30987205e-03, 5.90401515e-03,
          -1.45557374e-02, -2.21040789e-02, -1.83603745e-02,
          2.80672163e-02, 2.43298765e-02, 3.77567578e-03, 2.24633645e-02,
          2.77708154e-02, 2.02710386e-02, -3.46832164e-02,
          -4.31952365e-02, -2.32907757e-02, 1.42089846e-02,
          1.21835237e-02, 1.44680142e-02, 1.15161482e-02, 2.35847328e-02,
          1.66431013e-02, -1.99891161e-02, -2.96898670e-02,
          -1.99297313e-02, 1.25659928e-02, 4.02679108e-03,
          -5.78984525e-03, -4.38675983e-03, 8.39508232e-03,
          1.76259913e-02, -1.87132917e-02, -1.59010030e-02,
          2.66927830e-03, 3.87285799e-02, 1.88535824e-02,
          -1.66927483e-02, -1.96850561e-02, 3.79628432e-03,
          -3.74178519e-04, -5.74765354e-02, -4.10349742e-02,
          1.63660117e-03, 2.37861741e-02, 9.07723419e-03,
          -2.53002252e-02, 1.36526220e-03, 2.92433687e-02,
          2.79963221e-02, -1.01428116e-02, -1.57334786e-02,
          6.58343197e-04, 1.12512242e-02, 1.80525391e-03,
          -1.60068627e-02, -1.00005111e-02, 1.92329176e-02,
          7.05247000e-03, -3.49588618e-02, -3.74178961e-02,
          -1.01698078e-02, 5.62640373e-03, -5.15929144e-03,
          -1.97629556e-02, -7.63387233e-03, -1.87778547e-02,
          -1.23481657e-02, 5.44832740e-03, 2.33401451e-02,
          2.55885031e-02, 1.39876059e-03, -1.30161988e-02,
          -8.14833120e-03, -4.64430032e-03, -8.49765842e-04,
          -5.06848143e-03, -1.15033705e-02, 8.69130995e-03,
          1.53152142e-02, 4.39768983e-03, -3.16208005e-02,
          -5.60252741e-03, -1.94823779e-02, -1.28014693e-02,
          -1.36810644e-02, 9.78402141e-03, 2.66529955e-02,
          3.19131352e-02, -4.47651092e-03, -2.88625415e-02,
          -2.40511242e-02, -1.19193867e-02, -3.39051033e-03,
          -7.87016749e-03, -1.17550865e-02, 1.72287747e-02,
          2.97284801e-03, -1.61178503e-02, -5.32962084e-02,
          -2.54999641e-02, 1.20846508e-02, 1.25474017e-02,
          -9.56803793e-04, -1.83527693e-02, 7.56697403e-03,
          5.29652461e-03, 5.64956013e-03, -3.39286476e-02,
          -1.32133462e-03, -2.46736500e-03, -9.12688673e-03,
          2.82133161e-03, 4.19938890e-03, 3.22239287e-03,
          -7.36250496e-03, -6.05649024e-04, -2.40269843e-02,
          -1.15288151e-02, 8.79761018e-03, 5.10729477e-03,
          7.47340685e-03, -1.10888248e-02, 2.25711875e-02,
          1.21981669e-02, -1.28788175e-02, -5.98586872e-02,
          -2.20944602e-02, -3.82766407e-03, -1.27599146e-02,
          4.84089181e-03, 5.83851535e-04, 1.38056213e-02, 7.18177948e-03,
          7.87644822e-04, -4.34164256e-02, -1.75707284e-02,
          9.10501555e-03, -1.52900591e-02, -1.07567443e-03,
          1.30166877e-02, 1.11824656e-02, -1.48459850e-02,
          -2.52265222e-02, -2.66527291e-02, 2.93904310e-03,
          1.40542276e-02, -5.26385987e-03, 3.01619153e-03,
          1.52308187e-02, 1.66606531e-02, -1.19505869e-02,
          -2.61117909e-02, -2.77484637e-02, 3.42892134e-03,
          3.67089314e-03, -7.37830577e-03, 5.75276317e-05,
          3.46017303e-03, 9.18682758e-03, -9.12620872e-03,
          -1.98735986e-02, -4.07436304e-02, -1.15497485e-02,
          2.33123340e-02, 2.00224314e-02, 8.74825567e-03, 9.96301882e-03,
          4.59713861e-03, -1.13295233e-02, -3.37049142e-02,
          -2.84869391e-02, -5.90873230e-03, 1.60674080e-02,
          -8.14029574e-03, -1.52689787e-02, 1.48650550e-04,
          1.61094386e-02, 2.25454685e-03, -1.47731686e-02,
          -2.57468522e-02, 7.51307607e-03, 1.72856413e-02,
          -7.66634289e-03, -6.06098725e-03, 1.20300455e-02,
          2.20261402e-02, 3.78240980e-02, 4.85501252e-03,
          -3.88326906e-02, -1.35044819e-02, 4.18210588e-02,
          1.08585600e-02, -2.65102694e-03, -5.57346211e-04,
          4.57983650e-03, -1.81285217e-02, -3.13906185e-02,
          -3.45527939e-02, -1.09902862e-02, 3.83730046e-02,
          2.16936730e-02, 1.30035849e-02, 1.58476811e-02, 3.30769620e-03,
          1.28768040e-02, -2.32299455e-02, -4.69279289e-02,
          -3.45335342e-02, 1.25748524e-02, 3.60134151e-03,
          9.33764910e-04, 1.94683708e-02, 2.56360210e-02, 2.55917218e-02,
          -6.35416852e-03, -5.74941635e-02, -4.27179039e-02,
          2.02751085e-02, 2.05549821e-02, 2.18681581e-02, 3.40718664e-02,
          3.47910039e-02, 6.92574121e-03, -3.01729552e-02,
          -6.41537085e-02, -3.74687240e-02, 2.57948861e-02,
          2.56062634e-02, 2.41977200e-02, 2.39522886e-02, 1.93820260e-02,
          7.21101509e-03, -3.37547138e-02, -6.34300485e-02,
          -4.51951474e-02, 2.19515469e-02, 3.10860313e-02,
          3.31065580e-02, 3.76972780e-02, 3.80958840e-02,
          -4.07668820e-04, -2.21376866e-02, -6.83367252e-02,
          -5.23989126e-02, 3.27415392e-02, 3.62366699e-02,
          2.82958802e-02, 2.19059233e-02, 1.53008904e-02, 2.01947914e-04,
          -2.88731996e-02, -6.89334273e-02, -3.43514234e-02,
          2.49895025e-02, 4.46281694e-02, 3.57840247e-02, 1.55867096e-02,
          -3.92044522e-03, -9.69729666e-03, -3.31513323e-02,
          -5.56323566e-02, -3.05144507e-02, 3.60599384e-02,
          4.20244038e-02, 3.07480600e-02, 2.33576633e-02, 1.76875927e-02,
          -7.04166712e-04, -2.75865607e-02, -6.21201545e-02,
          -2.64541581e-02, 4.77685817e-02, 5.02919257e-02,
          3.55332792e-02, 1.46331955e-02, -8.95082951e-03,
          -3.62981088e-03, -2.69055478e-02, -5.47676533e-02,
          -1.21940104e-02, 1.84579305e-02, 3.66351232e-02,
          4.13726494e-02, 3.71132120e-02, 2.03436799e-02, 3.49304779e-03,
          -3.30949090e-02, -5.98131903e-02, -2.46462114e-02,
          2.23320872e-02, 3.16103250e-02, 3.00786085e-02, 1.76498313e-02,
          5.10274339e-03, -7.54175475e-03, -3.68795507e-02,
          -4.62694503e-02, -1.27560757e-02, 4.81484532e-02,
          3.88900004e-02, 2.50363387e-02, 3.01514361e-02, 2.06482001e-02,
          1.28848646e-02, -3.05946014e-04, -2.69288402e-02,
          -1.57049205e-02, 3.08715720e-02, 2.20928770e-02,
          2.45902361e-03, 1.49035244e-03, 9.87976417e-03, 2.73618079e-03,
          -8.91565997e-03, -2.23373305e-02, -1.47109935e-02,
          2.05844399e-02, 2.70837639e-02, 1.98072437e-02,
          -3.85351037e-03, -9.29131173e-03, -1.48919327e-02,
          -1.54796373e-02, -2.49306485e-02, -2.37870310e-03,
          4.11185697e-02, 3.58755887e-02, 1.72366388e-02,
          -1.07883932e-02, -2.42680497e-02, -5.19232359e-03,
          2.01728428e-03, 4.11695160e-04, 1.27349515e-02, 3.66434492e-02,
          2.61487477e-02, 2.82955565e-03, -1.54047888e-02,
          -1.49447806e-04, -1.05027771e-02, -3.40140983e-03,
          -1.47213871e-02, 2.84148473e-03, 6.46077171e-02,
          4.62312363e-02, 1.30848810e-02, -2.30184179e-02,
          -2.09715180e-02, 2.13654886e-04, 4.79279755e-04,
          -4.95073502e-04, 2.37895865e-02, 3.51121910e-02,
          2.16616932e-02, 5.71652548e-03, -2.27179825e-02,
          -2.41975654e-02, -1.68145355e-02, 3.09721520e-03,
          1.23290848e-02, 2.45719552e-02, 2.23499630e-02, 2.34195814e-02,
          2.07542125e-02, -3.83104011e-02, -4.63749878e-02,
          -5.69510125e-02, -2.43418925e-02, 9.09193419e-03,
          2.28778794e-02, 5.12849912e-02, 3.51275802e-02, 8.54280312e-03,
          -2.03573406e-02, -1.02346502e-02, -2.52712425e-03,
          2.21362780e-03, -9.44090541e-03, 2.21049692e-02,
          2.16377079e-02, 2.86496021e-02, 2.47889180e-02,
          -9.31518991e-03, -3.28186378e-02, -4.04919945e-02,
          -1.77093334e-02, 2.95695150e-03, 1.26679884e-02,
          1.11291232e-02, 2.76531540e-02, 3.57617959e-02,
          -1.52507536e-02, -3.81626599e-02, -2.59065256e-02,
          -4.94089210e-03, 5.13245538e-03, 1.40044969e-02,
          2.16569426e-03, 1.24330251e-02, 2.71137580e-02,
          -1.35412132e-02, -3.69826928e-02, -1.38992239e-02,
          9.05750506e-03, 8.04101303e-03, -2.99278321e-03,
          2.97503509e-02, 2.68921927e-02, 3.18765566e-02,
          -3.46857868e-03, -3.45577076e-02, -5.01837842e-02,
          -1.38239311e-02, 1.79971345e-02, 2.97926869e-02,
          8.42826907e-03, 2.20484636e-03, 7.56330229e-03,
          -2.33629402e-02, -3.74835320e-02, -3.92917171e-02,
          5.09059709e-03, 1.51586849e-02, 1.79680474e-02,
          -6.89158496e-03, 1.85901299e-02, 2.37843506e-02,
          4.12338460e-03, -1.69534516e-02, -1.29008088e-02,
          1.07506784e-02, -2.51886412e-03, -2.70744860e-02,
          -1.23423859e-02, 2.49902979e-02, 1.18118376e-02,
          -1.57060381e-02, -2.33647730e-02, -7.10650766e-03,
          1.58551522e-02, -8.72993283e-03, -2.90756375e-02,
          -2.91898177e-04, 1.34267369e-02, 1.37775494e-02,
          -1.11046499e-02, -1.29033560e-02, -1.39904739e-02,
          1.48933167e-02, 8.59665032e-03, -1.74887627e-02,
          -6.78251171e-03, 2.25742403e-02, 1.38169378e-02,
          -1.68853942e-02, -8.95725563e-03, -4.54598106e-04,
          8.95691290e-03, -3.82089172e-03, -1.55556565e-02,
          -1.66094340e-02, 4.59971093e-03, 1.64444861e-03,
          5.23183588e-03, 1.70270056e-02, 9.81040206e-03,
          -1.30594047e-02, -2.64906287e-02, -2.57726870e-02,
          -1.08077163e-02, 7.73390755e-03, 8.95827916e-03,
          -6.38625491e-03, 1.25293974e-02, 9.23883263e-03,
          -1.66879892e-02, -2.71961950e-02, -2.09233053e-02,
          -1.38485488e-02, -1.36897340e-02, 9.80017055e-03,
          1.07670501e-02, -2.13382431e-04, -8.15587398e-03,
          -2.47367360e-02, -3.85309570e-02, -2.52216104e-02,
          2.42675049e-03, -2.21624109e-03, 2.42783483e-02,
          -2.06214725e-03, -2.35094549e-03, -4.30250866e-03,
          -9.91810579e-03, -2.76605748e-02, -8.89591500e-03,
          8.65519792e-03, 1.42170591e-02, 5.61826816e-03,
          -6.82640960e-03, 1.41291888e-02, 1.76528431e-02,
          -1.38082923e-02, -4.71595861e-02, -1.61254853e-02,
          -1.37743382e-02, -4.28546737e-05, 1.08886184e-02,
          9.84697789e-03, 1.14283077e-02, 1.75091606e-02, 6.03432651e-04,
          -4.50509079e-02, -3.41721885e-02, 1.90089345e-02,
          6.17311476e-03, 9.01048072e-03, -9.33822710e-03,
          -6.21953001e-03, -1.30511436e-03, -8.51417240e-03,
          -2.49423217e-02, -1.46385597e-03, 6.21726830e-03,
          1.32686272e-02, 1.84830669e-02, 1.47715025e-02,
          -1.19954108e-04, 1.67866074e-03, 2.52792379e-04,
          -4.69781384e-02, -2.10792851e-02, -1.87958742e-03,
          1.54515589e-02, 1.23757487e-02, 4.55014082e-03, 4.58084838e-03,
          8.72745458e-03, -1.19840140e-02, -4.55211587e-02,
          -3.03117055e-02, 1.45071698e-02, 2.92472411e-02,
          1.15906708e-02, 2.44367979e-02, 8.72741174e-03,
          -1.91050128e-03, -3.10173947e-02, -4.07685898e-02,
          -1.72226969e-02, 6.25823811e-03, 2.23522466e-02,
          2.57414598e-02, 1.48867108e-02, -5.15420781e-03,
          -1.48627209e-03, -1.38899684e-02, -4.15491834e-02,
          -2.12465487e-02, -3.71743250e-03, 9.33979347e-04,
          1.27667505e-02, 9.63259395e-03, 1.20409131e-02, 9.89313237e-03,
          -1.37424693e-02, -3.01458333e-02, -1.97261423e-02,
          3.52558382e-02, 2.36564595e-02, 3.71407554e-03, 1.32699180e-02,
          -2.65907915e-03, -1.05997929e-02, -4.23020497e-02,
          -4.77615520e-02, -1.31750316e-03, 4.71206903e-02,
          3.50546949e-02, 9.92038567e-03, 7.73083791e-03,
          -5.00243204e-03, -8.29168409e-03, -2.81507764e-02,
          -3.96124534e-02, -1.12591162e-02, 5.25197713e-03,
          -1.31363235e-03, 1.10775223e-02, 7.10172858e-03,
          1.22751296e-02, 6.70727156e-03, -3.55209485e-02,
          -3.23110819e-02, -6.39242679e-03, 2.12646294e-02,
          1.03402007e-02, 1.36791524e-02, 1.12287952e-02,
          -1.21435768e-03, -2.16876902e-03, -3.60038951e-02,
          -2.77077574e-02, -1.49114886e-02, 3.44453380e-02,
          3.33346240e-02, 2.54972987e-02, 1.39937922e-02, 7.26661785e-03,
          -2.99652945e-03, -2.68469267e-02, -4.94495444e-02,
          -1.89818367e-02, 1.39430212e-02, 1.53703578e-02,
          2.87459232e-02, 2.69678310e-02, 3.25006768e-02, 7.13637006e-03,
          -1.50801241e-03, -5.07051833e-02, -2.90816948e-02,
          2.45573465e-02, 1.79500245e-02, 2.13976596e-02, 1.83455925e-02,
          1.38010466e-02, -1.59538779e-02, -5.14972545e-02,
          -4.82226834e-02, -2.06743907e-02, 7.52846291e-03,
          1.54377548e-02, 1.67900100e-02, 2.90715508e-02, 2.95987781e-02,
          -7.74312718e-03, -2.85025053e-02, -5.41908145e-02,
          -3.11060976e-02, 1.29580498e-02, 1.98544636e-02,
          2.39906888e-02, 2.54254453e-02, 2.85787843e-02, 8.28433968e-03,
          -1.89479645e-02, -6.28612712e-02, -2.29398925e-02,
          3.69307399e-02, 3.09665464e-02, 1.48413759e-02, 5.65649569e-03,
          1.44683281e-02, 1.39491130e-02, -1.28681511e-02,
          -5.27448989e-02, -1.05834650e-02, -2.06972868e-03,
          2.36710533e-03, 1.75283737e-02, 2.64627542e-02, 3.84152979e-02,
          1.41380467e-02, -3.53418291e-02, -5.86857796e-02,
          -2.82771550e-02, -1.91068067e-03, -6.79214776e-04,
          -7.33535038e-03, -3.22915590e-03, 2.84208879e-02,
          2.47851461e-02, -4.32017110e-02, -7.14330673e-02,
          -3.95694785e-02, 4.01051231e-02, 1.48243494e-02,
          -7.49216462e-03, -7.10582640e-03, -2.78625707e-03,
          1.44424560e-02, -3.85496835e-03, -3.36925313e-02,
          -1.78091843e-02, 1.03195142e-02, 8.22042767e-03,
          -1.75031200e-02, -3.20527703e-02, 3.72171239e-03,
          1.08936159e-02, -5.15451096e-03, -1.66371949e-02,
          -2.22991686e-02, 3.03175412e-02, 8.81882943e-03,
          -2.28190254e-02, -2.29897350e-02, 1.25723640e-02,
          2.28558667e-02, -2.18914542e-02, -4.72887233e-02,
          -2.64475439e-02, 1.14693064e-02, -1.34396031e-02,
          -2.97781806e-02, -4.28815223e-02, -7.83242472e-03,
          2.66523147e-03, -5.30720735e-03, -1.37771163e-02,
          -1.76576134e-02, 1.65579263e-02, 2.27063685e-03,
          -1.42460512e-02, -3.19145583e-02, -1.63422637e-02,
          -2.33469461e-03, 4.96212207e-03, -1.37273772e-02,
          -4.88767959e-03, 4.21801805e-02, 9.86253750e-03,
          -2.04215478e-02, -3.72575186e-02, -2.00616736e-02,
          1.10318605e-03, 2.31984211e-03, -9.40531958e-03,
          3.36167999e-02, 1.54144363e-02, -1.29226856e-02,
          -3.01409401e-02, -4.20440361e-02, -8.69104918e-03,
          5.62791014e-03, 1.18171312e-02, -4.02032107e-04,
          -3.28734121e-03, 2.93408092e-02, -5.84749924e-03,
          -3.88181806e-02, -2.39666291e-02, -7.42068002e-03,
          1.38183283e-02, 5.56370826e-04, -4.79460601e-03,
          2.69630328e-02, 3.97370160e-02, 2.58302614e-02,
          -5.11147268e-03, -1.28754787e-02, -2.72678863e-03,
          7.01146713e-03, 1.22019812e-03, -1.31812580e-02,
          3.42069753e-02, 1.82024650e-02, 1.65014323e-02, 9.01903398e-03,
          -4.61719697e-03, -2.02183407e-02, -1.96086764e-02,
          -1.30819734e-02, -3.67353554e-03, 1.17048156e-02,
          2.98677962e-02, 6.50358479e-03, -2.06990801e-02,
          -1.25664379e-02, 4.22951300e-03, 1.53173646e-02,
          2.33106874e-03, -9.16796550e-03, 1.70372538e-02,
          1.65302791e-02, 1.56704243e-02, 1.71733656e-04,
          -1.20895645e-02, -1.17439339e-02, -1.65972281e-02,
          -6.01619435e-03, 2.25291052e-03, 4.12892271e-03,
          1.71806198e-02, 1.50421849e-02, 1.81646198e-02,
          -1.17938453e-02, -2.14256011e-02, -2.74472181e-02,
          1.53974898e-03, 2.64205001e-02, 2.12104451e-02, 1.67548712e-02,
          1.38541711e-02, -2.53005372e-03, -3.63021828e-02,
          -4.08615135e-02, -3.22222151e-02, 8.51415563e-03,
          2.60861702e-02, 1.37490788e-02, 1.20944604e-02, 1.87402256e-02,
          6.95336144e-03, -2.64576431e-02, -2.43167672e-02,
          -1.02129197e-02, 9.57018044e-03, 2.11021770e-02,
          6.40997896e-03, 1.99983679e-02, 2.12710891e-02,
          -1.38596063e-02, -3.13310511e-02, -3.74102369e-02,
          -1.87469739e-02, 1.68904234e-02, 2.64371224e-02,
          4.97216638e-03, 1.12990150e-03, 2.42553223e-02, 7.91097898e-03,
          -2.95916162e-02, -2.46944837e-02, -1.29843196e-02,
          9.71381739e-03, 1.35507938e-02, -8.64433590e-03,
          -2.34635183e-04, 2.31226012e-02, 1.90550387e-02,
          -1.02857151e-03, -2.68710963e-03, -4.71442996e-04,
          1.27567805e-03, -1.74508523e-03, -1.39342314e-02,
          5.54882269e-03, 2.73629501e-02, -1.06040295e-03,
          -2.38472801e-02, -2.57850531e-02, -1.90497208e-02,
          9.74214170e-03, 1.62079819e-02, -1.37719782e-02,
          8.99359677e-03, 1.89681370e-02, -1.04774116e-03,
          -2.20474210e-02, -1.20486822e-02, -1.35795921e-02,
          1.10060712e-02, 1.39251053e-02, -3.07756197e-03,
          -2.16073892e-03, -1.00540482e-02, 2.33124336e-03,
          1.07572358e-02, -1.08591858e-02, -7.38127856e-03,
          -1.35592353e-02, -2.52521951e-02, -1.08352886e-03,
          1.01152004e-03, -2.49022408e-03, 2.02813819e-02,
          6.93332171e-03, -1.59427826e-03, -9.22258943e-03,
          -1.52069566e-04, -2.03984547e-02, -4.71351342e-03,
          -1.14884833e-02, -2.41661873e-02, -6.58450043e-03,
          -2.06677406e-03, -2.23202836e-02, -1.17399497e-02,
          6.31181709e-03, -9.12414864e-03, -3.73783777e-03,
          -2.32395139e-02, -2.61096284e-02, 1.11597348e-02,
          5.56444284e-03, 6.08825963e-03, -4.86309221e-03,
          8.66687424e-06, -1.92051604e-02, -3.09642614e-03,
          1.17618181e-02, -1.05396491e-02, 7.99862854e-03,
          3.81480204e-03, 1.80451933e-03, -6.12058630e-03,
          -5.12321992e-03, -1.82388332e-02, 1.42212701e-03,
          -2.43583415e-03, -3.55867273e-03, 1.12432837e-02,
          1.42851062e-02, -2.74293777e-03, -1.92617357e-03,
          -3.80186085e-03, -1.29962265e-02, -5.12787700e-03,
          -2.28239484e-02, -1.16303870e-02, 7.59180402e-03,
          2.26254505e-03, -4.76774760e-03, -1.75268352e-02,
          -2.24963576e-03, -8.95893853e-03, -2.65427586e-03,
          -3.10185086e-03, -6.42022956e-03, 3.00327619e-03,
          -6.28394308e-03, 2.79657170e-03, -1.26094902e-02,
          8.65796872e-04, 7.30793877e-03, 1.05032260e-02, 8.51784460e-03,
          3.89105082e-03, 1.60627998e-02, 4.59786132e-03,
          -1.34133566e-02, 4.43918258e-03, 2.50711711e-03,
          -1.35219442e-02, 4.05429723e-03, -5.88985533e-03,
          -1.12970676e-02, 6.64848555e-03, 4.75886744e-03,
          7.85259157e-03, 1.84868220e-02, 7.48421764e-03,
          -1.11202896e-02, 2.83280434e-03, -2.46579433e-03,
          3.92969605e-03, 3.82782891e-03, -8.77378415e-03,
          -6.63773762e-03, 3.48347891e-03, -7.54678040e-04,
          -1.31069599e-02, 1.39185821e-03, 5.32019697e-03,
          -3.01422202e-03, 5.15426742e-03, 7.50354491e-03,
          7.75606045e-03, 9.84041300e-03, 9.84767452e-04,
          -4.25403891e-03, 3.91549943e-03, 1.37159019e-03,
          -5.02186595e-03, 5.34696411e-03, -3.31865973e-03,
          9.38807521e-03, 2.29949746e-02, 1.79920194e-03,
          -3.54431826e-03, 6.14547683e-03, 2.10868642e-02,
          9.99985542e-03, 1.09738475e-02, 2.15713051e-03, 3.84768168e-03,
          1.55698257e-02, -1.12093557e-02, -8.59533809e-03,
          -1.20867658e-02, 1.21857477e-02, -6.03642827e-03,
          1.16740437e-02, -2.24077303e-04, -3.63380159e-03,
          1.25044491e-02, -2.71381787e-03, -2.28187977e-03,
          6.01241738e-03, 1.72742438e-02, 1.72167309e-02, 9.50928312e-03,
          -1.40151090e-03, 6.00225106e-03, 1.28578935e-02,
          2.46249954e-03, -1.59267541e-02, -1.79962404e-02,
          3.91774513e-02, 3.09940819e-02, 1.41077619e-02, 5.33249741e-03,
          1.21805212e-02, -6.93551823e-03, -2.49168109e-02,
          -3.73114087e-02, -1.75573435e-02, 3.85904945e-02,
          3.36477309e-02, 2.54093222e-02, 2.08247937e-02, 1.39351534e-02,
          -1.25690717e-02, -3.01850829e-02, -5.65904155e-02,
          -2.00900882e-02, 2.57250145e-02, 3.94637920e-02,
          2.02827062e-02, 1.36479002e-03, 8.65019392e-03, 2.67083570e-03,
          -1.91324819e-02, -4.89007533e-02, -1.66987497e-02,
          4.68482450e-02, 4.56186794e-02, 2.84338705e-02, 4.38732980e-03,
          2.88408319e-03, -1.40197556e-02, -3.84441502e-02,
          -6.11079335e-02, -1.37043875e-02, 3.33597511e-02,
          2.52919234e-02, 2.85175536e-02, 2.72828359e-02, 2.05378588e-02,
          4.20937967e-03, -2.75670532e-02, -7.29785636e-02,
          -9.96525027e-03, 2.65605152e-02, 2.80465372e-02,
          9.36876517e-03, 1.09568343e-03, 2.68387441e-02, 1.36873880e-02,
          -3.21573727e-02, -7.92578757e-02, -1.76244695e-02,
          4.43672314e-02, 5.01852632e-02, 3.20940465e-02, 8.81411775e-04,
          4.76202136e-03, -4.35979525e-03, -4.65261713e-02,
          -7.00347200e-02, -1.15273604e-02, 3.05123553e-02,
          3.11605223e-02, 1.48143526e-02, 5.02895052e-03,
          -4.24012681e-03, -1.06213754e-02, -4.56807278e-02,
          -6.42899945e-02, -2.35976204e-02, 3.57657857e-02,
          2.47274246e-02, -6.15654420e-03, -7.44954171e-03,
          1.74100995e-02, 1.36627480e-02, -2.66987942e-02,
          -4.37432267e-02, -1.34774335e-02, 3.22835036e-02,
          1.41617674e-02, -1.25026368e-02, -1.83488186e-02,
          -1.55882118e-03, 1.03594670e-02, -8.83941480e-04,
          4.91464860e-04, 6.77637244e-03, 1.23015158e-02, 8.47498048e-03,
          1.60822808e-03, 1.00685982e-02, 5.15217660e-03,
          -8.96614697e-03, -3.94867025e-02, -6.02065101e-02,
          -3.55173647e-02, 1.11555075e-02, 3.55716445e-03,
          -1.44969039e-02, -1.01408586e-02, 6.67733001e-03,
          1.38264308e-02, -1.76232588e-02, -3.78371924e-02,
          -2.70049199e-02, 3.30880955e-02, 9.31684487e-03,
          -1.01055512e-02, -2.20707431e-02, -1.38958145e-04,
          -1.09901489e-03, -7.06215110e-03, -1.30677270e-02,
          6.98296819e-03, 3.95498313e-02, 1.76564697e-02,
          -9.82196815e-03, -1.39892772e-02, 1.00883842e-02,
          2.12470582e-03, -5.66457259e-03, -1.70070361e-02,
          1.21649858e-02, 2.95277755e-03, 2.40082317e-03,
          -6.93839416e-03, -2.25913003e-02, 3.58260004e-03,
          1.31352972e-02, -1.31020080e-02, -2.76985858e-02,
          -2.36547068e-02, 2.16993373e-02, 1.48834903e-02,
          7.65753398e-03, -1.19722411e-02, -3.54288728e-03,
          -6.21943129e-03, -7.42532313e-03, -3.56909037e-02,
          -9.37383994e-03, 3.08892429e-02, 1.53442845e-02,
          -8.48269090e-03, -1.22058382e-02, -7.13765807e-03,
          -4.74691158e-03, -1.50823314e-03, -2.35040002e-02,
          -1.32709683e-03, 3.03175002e-02, 2.32820231e-02,
          6.72512269e-03, -1.49281714e-02, -1.92873050e-02,
          -1.95095483e-02, -7.51154916e-03, -1.47133917e-02,
          -8.04409385e-03, 2.59614550e-02, 1.49058253e-02,
          1.07667623e-02, -1.18098613e-02, -2.29200311e-02,
          -2.43508965e-02, -1.26804262e-02, -3.51692662e-02,
          -6.21766830e-03, 1.52304824e-02, 1.42291198e-02,
          1.33468816e-02, 7.04615191e-03, -8.79894756e-03,
          -9.14523099e-03, -2.78060860e-03, -1.75258406e-02,
          -1.09265288e-02, 1.57743767e-02, 1.26223853e-02,
          4.27296571e-03, -2.03952249e-02, -2.57270746e-02,
          -9.17158928e-03, -2.28380575e-03, -1.06460610e-02,
          -7.85533898e-03, 1.18478779e-02, -5.02905389e-03,
          -1.38315838e-02, -2.50050053e-02, -2.87052561e-02,
          -8.61878973e-03, 1.33571783e-02, -3.42732435e-03,
          -1.80272404e-02, 1.01564843e-02, -2.71241996e-03,
          1.07678566e-02, 7.37646641e-03, 3.82253621e-03, 2.26743543e-03,
          1.00346180e-02, -2.51039560e-03, -8.45508650e-03,
          7.25436909e-03, -1.64289847e-02, -1.21409108e-03,
          -1.07007911e-02, 4.25132224e-03, 9.42165731e-04,
          1.01642264e-02, 5.43948589e-03, -4.05526953e-03,
          2.78324587e-03, 5.85496018e-04, -1.16587104e-03,
          -2.18156409e-02, -1.09099904e-02, -8.35205335e-03,
          1.49136987e-02, 1.59265555e-03, -1.11264559e-02,
          4.18013334e-03, 1.98058295e-03, -3.67676001e-03,
          -3.16914171e-02, -1.82359926e-02, -6.46127993e-03,
          1.00090485e-02, 9.96578299e-03, 7.43653346e-03, 9.52356681e-03,
          -1.14927758e-02, 3.16467648e-03, -8.83372314e-03,
          7.28946831e-03, 9.45084356e-03, 1.52578577e-02, 5.83236525e-03,
          1.10518625e-02, 1.15065584e-02, -1.83343363e-03,
          -5.15761832e-03, -1.54956942e-02, -3.62261222e-03,
          7.01529719e-03, 1.18210856e-02, 1.27782142e-02, 2.06660405e-02,
          -1.50985159e-02, -2.15210430e-02, -3.89169273e-03,
          -1.24469670e-02, 9.81664867e-04, 8.99210456e-04,
          1.92556810e-02, 8.32674932e-03, 7.44662341e-03,
          -1.80227328e-02, -1.18609406e-02, 6.22070814e-03,
          3.14352009e-03, 9.98206437e-03, -4.03923774e-03,
          1.44530041e-02, 1.55154746e-02, 1.02623124e-02,
          -8.16295575e-03, -1.34376129e-02, -8.88718199e-03,
          -1.33011676e-02, 8.97459686e-03, 5.67794312e-04,
          2.47363281e-02, 6.06478658e-03, 4.55856696e-03,
          -3.50364367e-04, -1.18024396e-02, -1.09025063e-02,
          -2.36194069e-03, 1.74863252e-03, -4.32888558e-03,
          1.85249783e-02, 2.19131056e-02, 1.15188127e-02,
          -1.59391873e-02, 1.46799395e-02, 1.22746185e-03,
          -1.79705862e-03, -1.01727946e-02, -2.32948121e-02,
          -1.50170689e-02, 2.11461200e-04, -1.83282804e-03,
          4.84870560e-03, 1.99230853e-02, 5.17468853e-03,
          -1.80661317e-03, 6.77255506e-04, -1.02797020e-02,
          2.69963103e-03, 5.38321328e-05, -6.01082714e-03,
          -6.89400639e-03, -5.06993325e-04, -9.21297073e-03,
          -9.85927321e-03, -1.18651390e-02, -1.11415219e-02,
          9.71195102e-03, 2.17230860e-02, 5.77046350e-03,
          -9.40740202e-03, 1.14898374e-02, 2.36142543e-03,
          2.24860059e-03, -7.96362478e-03, -9.71451122e-03,
          1.16328355e-02, 5.26359538e-03, -8.74966383e-04,
          4.12533153e-03, 7.88210519e-03, 6.03506295e-03, 7.98393856e-04,
          -2.85539893e-03, 8.55396874e-03, 4.33925865e-03,
          -2.19861288e-02, -1.79301240e-02, 4.33556037e-03,
          -4.36736038e-03, -7.32575427e-04, 1.52738336e-02,
          -4.45576065e-04, 6.55012717e-03, -5.82731469e-03,
          -2.34635118e-02, -1.93597134e-02, -2.75534438e-03,
          1.00184872e-03, 4.06360626e-03, 9.50219389e-03, 9.65884235e-03,
          -2.29398254e-03, 9.65308398e-04, -1.62206311e-02,
          -1.29621336e-02, -9.38843843e-03, -9.78604238e-03,
          5.69424080e-03, 1.31112672e-02, 1.25361942e-02, 1.24376090e-02,
          -2.12949305e-03, -1.94466524e-02, -1.99406408e-02,
          4.61245468e-03, -7.61359371e-03, 6.44608447e-03,
          8.83828942e-03, -4.66617197e-03, 1.73342433e-02,
          -2.36092764e-03, -1.54897328e-02, -6.46397844e-03,
          3.16490722e-03, 1.02295382e-02, 9.66852810e-03, 7.24054873e-03,
          5.78661263e-03, 2.03921869e-02, 4.09003859e-03,
          -1.78714786e-02, -1.03884898e-02, -2.18998399e-02,
          -9.34695732e-03, -2.74681859e-03, -2.89575756e-03,
          1.32785859e-02, 2.69757789e-02, 7.66425952e-03,
          -1.26475440e-02, -2.05305945e-02, -1.80286728e-02,
          2.40385588e-02, 1.36374645e-02, 1.49451979e-02, 1.17947785e-02,
          1.68817360e-02, 1.16052954e-02, -9.45606176e-03,
          -1.59858968e-02, 1.05785551e-02, 2.24424247e-02,
          1.40128266e-02, -3.35775170e-04, 2.05409923e-03,
          3.76373343e-03, 8.51782039e-04, -1.68948825e-02,
          -1.01172579e-02, 2.42008958e-02, 2.85421386e-02,
          1.79181714e-02, -1.33744031e-02, 1.46023871e-04,
          -1.55330757e-02, -1.46186640e-02, -3.70469801e-02,
          -2.21615899e-02, -3.70059209e-03, 1.78761259e-02,
          1.26662552e-02, 1.14043802e-02, 1.60655100e-02, 2.18800362e-03,
          1.22539047e-02, -4.77258023e-03, -1.10244444e-02,
          -1.91854825e-03, 1.59792546e-02, -9.05216765e-03,
          -4.66178963e-03, 1.09726079e-02, 1.39359776e-02,
          9.11169033e-03, -1.14219040e-02, -1.53157292e-02,
          3.57360467e-02, 3.40100490e-02, 1.78085398e-02,
          -1.52609311e-02, 2.13733222e-03, -2.64419336e-03,
          -8.89438298e-03, -4.72605564e-02, -1.83782894e-02,
          3.09939608e-02, 3.46662588e-02, 1.84330996e-02, 1.52760732e-03,
          -5.71726728e-03, -1.19326487e-02, -2.07617600e-02,
          -5.28316051e-02, -2.25677025e-02, 1.10958340e-02,
          1.64405275e-02, 6.43049541e-04, 2.35578837e-03, 1.43281219e-03,
          1.33870495e-02, 1.95812946e-03, -2.99663059e-02,
          -1.98900122e-02, 1.35925459e-02, 2.67520808e-02,
          1.65391173e-02, 1.45495159e-03, 5.72172040e-03, 2.42314953e-03,
          -2.00779065e-02, -3.43803130e-02, -1.13828965e-02,
          1.13604413e-02, 1.64685864e-02, 1.46386707e-02, 1.29542099e-02,
          2.84924731e-03, -1.58620421e-02, -1.93496160e-02,
          -4.58281413e-02, -2.90137418e-02, 1.39452787e-02,
          7.67893950e-03, 2.48107780e-03, -2.53387913e-03,
          1.23179900e-02, 1.44824088e-02, -1.06641091e-03,
          -3.02040838e-02, -1.36403274e-02, 6.76229177e-03,
          1.89333465e-02, 2.08579358e-02, -8.02134338e-04,
          1.31812189e-02, -2.02397369e-02, -2.17441078e-02,
          -4.55685556e-02, -2.50245277e-02, 1.37353502e-02,
          1.81456842e-02, 1.23650637e-02, 1.28451083e-03, 1.57770887e-02,
          -1.09634865e-02, -1.61985513e-02, -3.20389085e-02,
          -1.57479905e-02, 1.01206894e-03, -6.06641779e-03,
          -4.82676458e-03, -2.18030568e-02, -4.15684888e-03,
          6.11354690e-03, -5.48767764e-03, -2.68564224e-02,
          -1.33446408e-02, 4.49160812e-03, 1.30463429e-02,
          1.60537381e-02, -1.41658187e-02, 1.37751468e-03,
          4.43995045e-03, -1.43021205e-02, -2.66545042e-02,
          -4.02100524e-03, 1.10717975e-02, 3.31003452e-03,
          4.28540073e-03, -8.22853204e-03, 5.67213458e-04,
          -1.52647784e-02, -2.05599554e-02, -2.73749456e-02,
          -7.59095745e-03, 1.82483550e-02, 2.27813539e-03,
          7.13638123e-03, 2.76793027e-04, 1.84129607e-02,
          -7.32544344e-04, -2.56860908e-02, -2.30788812e-02,
          1.65819161e-04, -1.06648833e-03, 1.97012341e-04,
          9.67645645e-03, 1.10176252e-02, -4.59638162e-04,
          -1.64605975e-02, -1.75887793e-02, -2.36439947e-02,
          -1.04678860e-02, 2.66991206e-03, 2.65508238e-03,
          1.69721413e-02, 2.17382964e-02, 1.64454952e-02,
          -2.86148768e-03, -7.40488200e-03, -1.07544307e-02,
          -8.59061070e-03, 6.65193889e-03, -1.36525799e-02,
          1.53605477e-03, 4.67896508e-03, 1.78732108e-02,
          -1.04065752e-02, -2.99033020e-02, -2.08698884e-02,
          -1.09712463e-02, 9.86295193e-03, 1.07768215e-02,
          2.35760538e-03, -1.17786303e-02, 1.34102022e-02,
          -2.45611090e-02, -1.30771501e-02, -1.69478506e-02,
          -9.45948437e-03, 1.35857351e-02, 7.01655820e-03,
          1.04982276e-02, 1.07658124e-02, 7.37354998e-03, 1.17798429e-02,
          -4.49511409e-03, -1.71857849e-02, -8.55237059e-03,
          4.90729930e-03, -3.32409563e-03, 1.76539144e-03,
          -1.90835241e-02, -1.49501208e-03, 2.05400167e-03,
          -8.22974462e-03, -7.98540190e-03, -8.66894145e-03,
          6.80858875e-03, 2.27975454e-02, 5.00490144e-03,
          -2.71499949e-03, 8.59788060e-03, 1.13109192e-02,
          -1.02820592e-02, -2.31342204e-02, -5.76704228e-03,
          2.90969037e-03, 3.72134428e-03, -1.42048420e-02,
          -1.45343235e-02, -5.62663842e-03, 3.49553768e-03,
          -1.16334227e-03, -1.64934974e-02, -6.10059360e-03,
          5.21369046e-03, -1.14351194e-02, 1.27288571e-03,
          -1.94646586e-02, 8.63381568e-03, 2.14287406e-03,
          2.80632928e-04, -3.47890821e-03, 7.59330578e-04,
          6.91773649e-03, -1.39459446e-02, -1.29317548e-02,
          -1.56545825e-02, -8.63202289e-03, 6.81318998e-05,
          1.10735083e-02, 4.09272267e-03, 1.63557921e-02, 1.57509781e-02,
          -5.34082018e-03, -2.87999306e-02, -3.11807189e-02,
          4.79991268e-03, 7.74529157e-03, 9.28471610e-03, 1.95901957e-03,
          1.82781052e-02, 2.22024117e-02, -1.77217592e-02,
          -3.72031406e-02, -4.28630672e-02, -1.94095774e-03,
          -7.57315010e-03, 1.49204666e-02, 2.39430852e-02,
          1.87627692e-02 ]
   decision_functions:
      -
         sv_count: 1
         rho: -1.9338057222553491e+00
         alpha: [ 1. ]
         index: [ 0 ]
