%YAML:1.0
my_svm: !!opencv-ml-svm
   svm_type: C_SVC
   kernel: { type:LINEAR }
   C: 1.0000000000000000e-02
   term_criteria: { epsilon:2.2204460492503131e-16, iterations:2000 }
   var_all: 10404
   var_count: 10404
   class_count: 2
   class_labels: !!opencv-matrix
      rows: 1
      cols: 2
      dt: i
      data: [ -1, 1 ]
   sv_total: 1
   support_vectors:
      - [ 8.32340028e-03, 2.57544540e-04, 2.85988254e-03,
          -5.57407318e-03, -1.31797148e-02, 7.64519675e-04,
          -7.86322262e-03, -5.64020360e-03, 5.93029801e-03,
          8.76173656e-03, -5.95045835e-03, -7.13911047e-03,
          -5.96867362e-03, -7.53965368e-03, 1.01162847e-02,
          -1.48338489e-02, -4.29178588e-03, 3.63510335e-03,
          6.08812412e-03, -2.12813006e-03, -1.35590963e-04,
          -7.74361892e-03, -1.22518726e-02, 1.94172771e-03,
          -1.23601854e-02, -6.45030616e-03, 3.53983766e-03,
          6.53401716e-03, -4.14721947e-03, -1.94941610e-02,
          -1.45462910e-02, -8.39868095e-03, 1.17494827e-02,
          -6.37432234e-03, 2.45383126e-03, 6.41271798e-03,
          -6.56122947e-03, -1.50551703e-02, -5.64402528e-03,
          1.83470605e-03, 2.57695233e-03, 1.63938589e-02, 8.73295357e-04,
          3.26233800e-03, 1.40570861e-03, -8.08818359e-03,
          -2.74819741e-03, -2.55672960e-03, 6.51204260e-03,
          -1.79642998e-03, 6.12157164e-03, 7.53869815e-03,
          8.96393496e-04, -7.64349196e-03, 9.08771413e-04,
          -1.50758270e-02, -2.19305493e-02, -5.53324632e-03,
          -5.88258076e-03, 9.50023625e-03, 1.21294111e-02,
          1.13031194e-02, 1.11307390e-02, 4.35948092e-03,
          -7.77584594e-03, -7.26719294e-03, 1.38619328e-02,
          3.87730962e-03, 3.13702086e-03, 2.76938104e-03,
          -1.74402818e-03, 9.98225529e-03, -6.09278306e-03,
          2.38881633e-03, 2.50654179e-03, 3.52385244e-03,
          -1.19299034e-03, -2.40586675e-03, 1.27390656e-03,
          -5.14392555e-03, -1.13288583e-02, -4.13781730e-03,
          7.11583067e-03, 3.70244379e-03, -5.31358365e-03,
          -7.99789210e-04, 9.88037046e-03, -2.78035016e-03,
          1.00077235e-03, -1.86262913e-02, 5.40789030e-03,
          7.57512962e-03, 2.65926239e-03, 9.82708018e-03, 1.66572090e-02,
          -9.82181542e-03, -6.11344259e-03, -7.39878416e-03,
          -1.02563004e-03, 7.18942098e-03, 2.38961093e-02,
          6.47337874e-03, -1.06571522e-02, 1.86824817e-02,
          4.08654660e-03, -9.18900315e-03, -4.78457147e-03,
          3.61674960e-04, 2.34828447e-03, -2.21857219e-03,
          -3.83468857e-03, -7.84460269e-03, 4.81469557e-03,
          3.72135802e-03, -4.91380133e-03, -1.26223895e-03,
          -2.09398870e-03, -5.65554248e-03, -1.85388513e-02,
          -7.92372040e-03, -2.95497570e-03, 1.76365988e-03,
          -2.96460139e-03, 1.56811520e-03, 1.33031048e-03,
          -1.06312835e-03, 1.05606159e-02, 6.71614893e-03,
          -3.34811560e-03, -1.30165722e-02, 1.38389561e-02,
          2.12674937e-03, -7.55065167e-03, -7.13014510e-03,
          1.11497957e-02, 9.04329820e-04, -6.55834656e-03,
          -3.99560342e-03, -9.43632144e-03, 5.48681943e-04,
          -1.03351371e-02, -1.59561355e-02, -2.09320476e-03,
          1.44223329e-02, -8.33667815e-03, -1.68430265e-02,
          -1.77277364e-02, -4.43469454e-03, -1.93965517e-03,
          -4.74853069e-03, 6.89428672e-03, 8.12356081e-03,
          -1.90256222e-03, -4.28541237e-03, -2.06149742e-02,
          -2.09494065e-02, -1.09486217e-02, -9.01370868e-03,
          -8.02928861e-03, 7.88657740e-03, 1.47863859e-02,
          1.05570210e-02, -2.85489112e-03, -9.09794401e-03,
          -2.29719630e-03, 5.03331597e-04, 5.47437044e-03,
          -2.33738013e-02, -1.19196083e-02, 3.65763111e-03,
          5.42018004e-03, -5.71576506e-03, -1.67873967e-02,
          -2.33299774e-03, 2.65614688e-03, 1.70519389e-02,
          -8.74831527e-03, -1.09206298e-02, 6.24112273e-03,
          4.85084811e-03, 3.21622216e-03, -9.69552249e-03,
          -1.01336818e-02, -4.74822288e-03, -2.91032274e-03,
          -2.67689233e-03, 8.99915025e-03, 1.08671738e-02,
          1.17845479e-02, 8.44677910e-03, 4.53129038e-03, 2.09711469e-03,
          4.72175470e-03, -1.08623467e-02, -1.33569548e-02,
          -1.01126945e-02, 8.64884537e-03, 1.68083124e-02,
          -4.13649715e-03, -1.29827065e-02, -8.83856416e-03,
          1.11315474e-02, 3.66472080e-03, -9.22910986e-05,
          -1.31556846e-03, 1.22742122e-02, 1.12389959e-02,
          8.48850980e-03, -6.28716196e-04, 5.74683305e-04,
          5.99541329e-03, -5.72739542e-03, -1.41286533e-02,
          3.61616118e-03, 1.46928253e-02, 8.61983746e-03, 6.74833951e-04,
          5.12036961e-04, -8.45782575e-04, 3.84879671e-03,
          -9.67239495e-03, -1.44189419e-02, -7.89618026e-03,
          2.74723093e-03, 1.58938430e-02, -2.21667043e-03,
          -1.55576095e-02, -6.17764331e-03, 4.27420158e-03,
          -4.65871533e-03, -6.07453147e-03, 2.96719139e-03,
          3.02368798e-03, 7.63556594e-03, 1.29251648e-02, 3.00496613e-04,
          3.38733778e-03, -8.73445766e-04, -1.29136173e-02,
          -1.25814630e-02, 4.11943952e-03, 7.42793595e-03,
          1.13505200e-02, 5.19978208e-03, -2.03270465e-02,
          -5.24966978e-03, -7.69430213e-03, -1.23288296e-02,
          -9.00079124e-03, 1.16918236e-02, 6.06646854e-03,
          2.03897990e-02, -4.79416316e-03, -1.31064206e-02,
          1.68842147e-03, 2.80621159e-03, -1.84262905e-03,
          2.86783697e-03, 1.15306424e-02, 6.37193257e-03, 6.39394950e-03,
          -6.03624759e-03, -1.34382341e-02, 1.50977785e-03,
          9.04116035e-03, 6.36157289e-04, 5.26538678e-03, 1.06856748e-02,
          3.34586645e-03, -6.28919993e-03, 5.85593749e-03,
          -3.28331701e-02, -1.31390663e-02, -1.18560176e-02,
          -1.94779097e-03, -6.88709505e-03, 1.29481014e-02,
          7.90772680e-03, 1.60347503e-02, -1.02070661e-03,
          -2.23205891e-02, -1.56612527e-02, -6.72217319e-03,
          -2.07923166e-03, -4.22374113e-03, 3.33659537e-03,
          4.96556808e-04, 7.20534517e-05, 2.02766713e-03,
          -2.33342615e-03, 8.17682222e-03, 5.36690652e-03,
          -6.66118646e-03, 1.09589519e-03, 2.54531088e-03,
          -6.17827242e-03, -9.64683853e-03, -8.16535146e-04,
          -4.70319670e-03, 6.75185211e-03, 1.46002909e-02,
          -6.93021296e-03, -3.49875051e-03, -8.74422782e-04,
          -3.49333714e-04, -5.09393541e-03, 4.71659936e-03,
          -4.26656287e-03, 3.18912603e-03, -6.01244578e-03,
          -6.67919777e-03, -9.80169512e-04, -5.47890225e-03,
          -1.46112749e-02, -6.27164403e-03, -7.31771579e-03,
          -9.49142314e-03, -6.38370775e-03, 4.66725440e-04,
          -9.78907663e-03, -2.68669636e-03, -5.25716273e-03,
          -9.91033576e-03, -2.35302281e-03, -3.68023897e-03,
          -4.81648929e-03, 6.35790685e-03, 1.13717308e-02,
          -5.03320887e-04, -2.43627233e-03, 2.33993074e-03,
          5.17557515e-03, 6.74737478e-03, -1.08045852e-03,
          -7.73918629e-03, 3.42081813e-03, -1.67995505e-03,
          3.55383730e-03, -3.66227468e-03, -1.46021775e-05,
          -4.05087322e-03, 3.28822318e-03, -2.56888685e-03,
          -8.83536320e-03, -3.73576162e-03, 6.53588166e-03,
          8.16372922e-04, 1.38174463e-03, 9.73706949e-04,
          -7.47542595e-03, 5.47019590e-04, -1.49660301e-03,
          -1.61860436e-02, -1.46579714e-02, -1.01609051e-03,
          6.25411485e-05, -3.70870600e-03, -1.14038708e-02,
          -1.40784113e-02, 8.51455890e-03, 6.80024084e-03,
          2.29884218e-03, 1.04048420e-02, 6.39809808e-03, 7.34350085e-03,
          -3.31190345e-03, -1.12783574e-02, -1.19374217e-02,
          1.15274242e-03, -5.00585185e-04, 7.29948923e-04,
          -1.18815666e-03, 6.62909728e-03, 1.42107643e-02,
          -5.13857184e-03, -1.26712257e-02, -1.29178455e-02,
          2.92776409e-03, 1.33493505e-02, -1.42309098e-02,
          -1.11429803e-02, -7.90226925e-03, 9.59403720e-03,
          -2.14255136e-03, -7.17064785e-03, -1.00594470e-02,
          1.71692856e-02, -8.55840975e-04, -1.09493956e-02,
          -1.30479932e-02, -9.32805182e-04, 1.27319861e-02,
          -1.10948011e-02, -1.76947843e-02, -1.75053887e-02,
          1.37672815e-02, -5.76437451e-03, -7.96195213e-03,
          -6.08459022e-03, 8.19395576e-03, 1.41500877e-02,
          5.79490745e-03, 1.61944376e-03, -6.85691414e-03,
          -9.89653519e-04, -7.93118868e-03, -1.75061841e-02,
          1.52305083e-03, 1.38889076e-02, 4.46353294e-03, 2.89744604e-03,
          6.83056936e-03, -1.17126887e-03, -5.03204821e-04,
          -9.48849972e-03, -1.60474516e-02, 3.61237372e-03,
          1.07691223e-02, -1.21141733e-04, -3.36650666e-03,
          -1.55666806e-02, -1.03037003e-02, 4.27938718e-03,
          -1.28351431e-02, -8.63573793e-03, 1.73554625e-02,
          2.04298478e-02, -2.50346959e-03, 1.20824040e-03,
          -1.44667476e-02, -1.52208824e-02, -1.46918725e-02,
          -4.88300901e-03, -1.19383344e-02, 1.38620017e-04,
          1.27140433e-02, 9.96921491e-03, -9.64954682e-03,
          4.38631774e-04, -2.89457059e-03, 1.83431583e-03,
          2.96386424e-03, -1.31498380e-02, -8.95157689e-04,
          2.17544902e-02, 6.62429957e-03, -9.94526315e-03,
          -9.63269081e-03, -1.32777845e-03, 8.80695879e-03,
          -4.56764456e-03, -6.14370639e-03, 1.43328058e-02,
          1.36981001e-02, 5.86328702e-03, 9.15509154e-05,
          -1.69424787e-02, -1.62190087e-02, -9.11209080e-03,
          4.07152623e-03, -1.05845863e-02, -5.75697655e-03,
          2.73007574e-03, 3.03916214e-03, -2.63240654e-04,
          -1.23337423e-02, -6.12655608e-03, 7.61865592e-03,
          -2.38739047e-03, -1.46254161e-02, 4.92493215e-04,
          1.74957998e-02, 2.80918786e-03, -7.99313188e-03,
          -1.88080501e-03, 1.40720105e-03, 7.24968407e-03,
          -9.60775651e-03, -1.49526792e-02, -1.46208960e-03,
          2.42358185e-02, -3.62048368e-03, 2.27029203e-03,
          -1.45975698e-03, 4.58089416e-05, -5.70928352e-03,
          -1.71667291e-03, -2.15782169e-02, -1.20594697e-02,
          -6.14805287e-03, -5.07027190e-03, -9.76241543e-04,
          -1.59729412e-03, -3.31003312e-03, -2.65019084e-03,
          2.53928057e-03, -7.36842072e-03, -4.17081965e-03,
          7.98165053e-03, -1.48256682e-02, -6.11236272e-03,
          3.09160748e-03, -7.26036122e-03, -5.36124501e-03,
          -8.32914561e-03, -1.06055541e-02, -3.90682183e-03,
          1.13423523e-02, -3.82583053e-03, 9.98117961e-03,
          -6.55580033e-03, 8.35571205e-04, -7.07249995e-03,
          -1.35518666e-02, -7.62203569e-03, 8.34870990e-03,
          1.39931710e-02, -4.09005722e-03, 1.62029397e-02,
          -9.62431170e-03, -5.32091944e-04, -3.87328304e-03,
          -1.31408742e-03, -2.58370535e-03, 5.27462363e-03,
          6.57633832e-03, -2.04833187e-02, -9.05357476e-04,
          2.96965986e-03, -3.43805901e-03, -6.15202356e-03,
          -5.19196177e-03, -3.10042640e-03, 5.49200177e-03,
          1.30964853e-02, -1.24519626e-02, 5.96364494e-03,
          -6.43458590e-03, 4.00571991e-03, -1.04610482e-02,
          -1.75671757e-03, -4.19077137e-03, 7.00387917e-03,
          1.77177240e-03, -4.52694111e-03, 2.63254414e-03,
          -8.68913066e-03, -6.03044033e-03, -4.10642987e-03,
          1.43578940e-03, 4.56344662e-03, 1.20352479e-02, 1.75546145e-03,
          -8.38476513e-03, -4.41607833e-03, -4.57099965e-03,
          2.76458892e-03, 4.20498569e-03, -5.90952765e-03,
          -2.35321349e-03, 1.17526911e-02, 5.31067513e-03,
          -1.47836935e-02, 3.54087166e-03, -1.20688453e-02,
          -1.83152698e-03, -6.48169452e-03, -1.11290589e-02,
          8.14897183e-04, 3.31827067e-03, 4.23557358e-03,
          -1.09154936e-02, -6.93909544e-03, -5.34117641e-03,
          9.55342315e-03, 3.31029762e-04, 5.93322422e-03, 5.47289057e-03,
          4.42444347e-03, -3.29837180e-03, -5.50457276e-04,
          -6.77337730e-03, -2.62426073e-03, 5.73737966e-03,
          1.34262242e-04, 2.81830481e-03, 9.60892066e-03,
          -4.07517934e-03, -1.00761950e-02, -3.76936863e-03,
          3.45788826e-03, -2.78206368e-04, 4.84556891e-03,
          1.29845180e-03, 4.75794962e-03, -1.85938389e-03,
          -4.62265685e-03, -3.82350432e-03, -7.63572101e-03,
          -1.68506261e-02, -4.26609768e-03, 5.55109838e-03,
          1.32593149e-02, 7.84501992e-03, 7.52163251e-05,
          -4.42528259e-03, -9.60942544e-03, -1.55192483e-02,
          2.30638121e-04, -8.19636602e-03, 2.26719072e-03,
          4.68729809e-03, 8.01199581e-03, 1.27529455e-02, 1.59812979e-02,
          9.57368501e-03, -5.92256663e-03, -8.36960878e-03,
          -1.02385096e-02, -8.79548583e-03, 7.42549601e-05,
          4.34533088e-03, -1.29438611e-03, -6.23926800e-03,
          5.43352740e-04, -1.38287582e-02, 2.89713294e-04,
          -3.83589044e-03, -5.51445875e-03, 6.06230972e-03,
          7.28485733e-03, 1.36716021e-02, 1.23759098e-02, 1.06162177e-02,
          -1.09727774e-02, -1.21638365e-02, 4.00627125e-03,
          5.02141099e-03, 7.25605525e-03, 3.81161668e-03, 6.40516588e-03,
          1.11733808e-03, -1.34032351e-04, -6.57648221e-03,
          3.13966279e-03, 3.37088597e-03, 3.38197756e-03, 3.99149721e-03,
          3.22941458e-03, -4.95178718e-03, -1.84557065e-02,
          -3.64010618e-03, -1.75918285e-02, 7.73517007e-04,
          1.30264089e-03, 4.30667866e-03, 1.37913190e-02,
          -1.99792255e-03, -3.15198256e-03, 1.43558218e-03,
          5.25775738e-03, 4.77753085e-04, -4.97945398e-03,
          -2.17911252e-03, 4.57578572e-03, 1.01396656e-02,
          4.05544462e-03, 4.98580746e-03, -7.21202977e-03,
          -2.93034525e-03, -9.46081523e-03, 3.47902789e-03,
          -3.91778012e-04, 4.36218921e-03, 7.86730740e-03,
          4.65332996e-03, -1.84555320e-04, -7.62348622e-03,
          3.25614191e-03, -1.60220207e-03, -3.18496051e-04,
          3.34974984e-03, 9.29039624e-03, 3.74930585e-03,
          -2.29416322e-03, 3.84360668e-03, 2.49536429e-03,
          5.33692259e-03, 2.11942699e-02, -1.05387811e-02,
          -9.59864259e-03, 3.62891424e-03, 4.37143201e-04,
          -2.91180972e-04, 1.25527363e-02, 3.99983954e-03,
          -9.48769785e-03, 2.70619653e-02, -7.10965181e-03,
          -7.81043107e-03, -4.41337936e-03, -8.09076615e-03,
          1.03373406e-03, 7.09326589e-04, -9.52308811e-03,
          1.84117479e-03, 1.50610544e-02, -2.77303555e-03,
          4.33871552e-04, 1.05981668e-02, 6.84525119e-03,
          -1.46402977e-02, 4.35097050e-03, -4.74289665e-03,
          -6.17643306e-03, 1.63231399e-02, 4.79905604e-04,
          -7.42749823e-03, 1.93907204e-03, -8.99517443e-03,
          7.54854735e-03, 8.62080697e-03, -4.57748119e-03,
          -7.03636184e-03, 1.54641047e-02, 2.31003412e-03,
          -4.13173344e-03, -2.53765960e-03, -1.84180917e-05,
          6.64987275e-03, -1.54670666e-03, -9.45014134e-03,
          -1.07794115e-02, -1.05147716e-02, -6.21754350e-03,
          -7.02499365e-03, 7.04629254e-03, 1.11546805e-02,
          -9.44337063e-03, -1.21511356e-03, 2.56929663e-03,
          -5.13031194e-03, 1.01650264e-02, -8.74656253e-04,
          -7.83956144e-03, 7.35262129e-03, -4.01960034e-03,
          3.15909716e-03, -5.00555965e-04, -1.17673504e-03,
          -1.06140925e-02, -1.00591602e-02, -7.95490015e-03,
          3.20921442e-03, 1.36599550e-02, 1.56496707e-02, 7.57362181e-03,
          1.08410185e-03, 3.11510009e-03, -3.51341208e-03,
          -2.10369565e-03, -1.33670382e-02, -5.28975017e-03,
          5.46883140e-03, 1.20427012e-02, 2.77874176e-03,
          -1.11279089e-03, 5.91177167e-03, 3.33111174e-03,
          1.13663245e-02, -8.04980285e-03, -5.83772641e-03,
          3.41019058e-03, 8.50082841e-03, 3.11415736e-03, 2.54273735e-04,
          2.45464896e-03, -1.19466679e-02, -1.10652940e-02,
          -9.43361688e-03, -4.40306216e-03, 4.21850709e-03,
          1.08968969e-02, -3.66821256e-03, -6.32093893e-03,
          -5.58301399e-04, -6.58732140e-03, -1.17044961e-02,
          -6.88940240e-03, 2.27719056e-03, 6.22045435e-03,
          -5.58244577e-03, -4.85929893e-04, 2.02267198e-03,
          4.60709678e-03, 9.48290247e-03, -6.08624658e-04,
          -4.41719918e-03, -2.20060279e-03, 1.01606790e-02,
          1.52612161e-02, 7.58412713e-03, 6.26454409e-03, 4.93835472e-03,
          1.01655507e-02, -8.48152093e-04, -9.60836001e-03,
          1.62655138e-03, 1.54590923e-02, 1.06378179e-02,
          -1.09979426e-02, -5.48131391e-03, 2.18336494e-03,
          6.89404923e-03, -8.81799776e-03, -1.24777877e-03,
          7.31727993e-03, 5.60697541e-03, -5.53603284e-03,
          -1.03802821e-02, -2.30077468e-03, -3.98012763e-03,
          3.10439500e-03, -3.56231024e-03, -6.71065086e-03,
          1.07369320e-02, 1.11445114e-02, -5.47475647e-03,
          1.14403134e-02, 1.75401452e-03, -2.57284497e-03,
          -4.80647286e-04, -6.39293296e-03, 3.82444193e-03,
          1.55461496e-02, 1.30000822e-02, 7.24221719e-03, 1.51921697e-02,
          -9.58314165e-03, -1.19463569e-02, -5.73481200e-03,
          -1.64200813e-02, 5.01064642e-04, 2.33115721e-02,
          1.32889310e-02, 1.81305725e-02, 3.21755721e-03,
          -1.03914188e-02, -1.71854440e-02, -1.36728017e-02,
          -7.21687358e-03, 2.07891385e-03, 1.57058295e-02,
          1.31859463e-02, 1.16624841e-02, 1.09801115e-02,
          -9.27655678e-03, -2.21898649e-02, -1.43969422e-02,
          -1.08530642e-02, -3.04546091e-03, 1.31965550e-02,
          3.31581058e-03, 1.51903247e-02, 1.61900390e-02,
          -1.39255831e-02, -1.41340457e-02, -1.30476803e-02,
          -6.79282099e-03, -1.05383378e-02, 9.23202373e-03,
          6.17706776e-03, 1.86341275e-02, 1.23897940e-02,
          -1.65791195e-02, -1.52977742e-02, -7.79862422e-03,
          -1.78284815e-03, -2.80344044e-03, -1.82334578e-03,
          7.81830109e-04, 1.22981491e-02, 1.82532724e-02,
          -1.95452627e-02, -2.26674434e-02, -1.27218496e-02,
          -1.29409973e-02, -1.25512676e-02, -1.65581249e-03,
          -1.79102784e-03, 2.30764039e-02, 1.07567944e-02,
          -1.73372757e-02, -1.95033792e-02, -3.67601891e-03,
          6.50229258e-03, -3.11470870e-03, 3.06893577e-04,
          3.09473346e-03, 1.14470236e-02, 4.63437103e-03,
          -1.55678708e-02, -8.12686328e-03, -4.49611526e-03,
          -1.43881806e-03, 1.01237148e-02, 3.29698040e-03,
          9.17265657e-04, 9.94396582e-03, -7.72549352e-03,
          -5.51514234e-03, -5.01551246e-03, -2.27337005e-03,
          1.74675393e-03, 9.70728323e-03, 8.18282086e-03,
          -4.99435840e-03, -5.47842123e-03, -9.53346863e-03,
          -2.27375682e-02, -1.12325894e-02, 3.47532914e-03,
          1.44217266e-02, 8.59708805e-03, 5.64321596e-03,
          -6.48173690e-03, -1.52736891e-03, -1.88776944e-02,
          -1.92174539e-02, -1.22758774e-02, -4.50659049e-04,
          1.98483118e-03, 8.37541185e-03, 6.28002314e-03,
          -1.15721468e-02, -1.91688966e-02, -2.14967201e-03,
          -5.82623249e-03, -4.97798808e-03, 4.38989839e-03,
          -1.12310727e-03, 6.79006707e-03, 4.81526973e-03,
          -3.81158432e-03, -1.20270788e-03, -3.79093364e-03,
          -1.98766328e-02, -1.53582282e-02, -6.57385355e-03,
          -3.54682910e-03, -6.72327471e-04, -3.07771750e-03,
          3.18771810e-04, 1.21520376e-02, -2.81034154e-03,
          -1.08461594e-02, 1.27326770e-04, -2.89314007e-03,
          -5.20579284e-03, -5.60844783e-04, 6.93431171e-03,
          4.25268570e-03, 1.69323676e-03, -6.40898943e-04,
          -1.90422200e-02, -1.76978279e-02, -1.64881852e-02,
          -4.89405263e-03, -1.34667028e-02, -2.97257327e-03,
          3.22253909e-04, 1.30313141e-02, 3.25532747e-03,
          -2.43055932e-02, -1.19596329e-02, -1.07305245e-02,
          8.74628779e-03, 3.76073265e-04, 1.22818910e-03, 8.04467592e-03,
          1.82699934e-02, -2.18363231e-04, -2.01348625e-02,
          -4.48308419e-03, -8.10254458e-03, 3.95906996e-03,
          -7.80100003e-03, -9.12997685e-03, -5.53873647e-03,
          9.51328035e-03, -5.28318342e-04, -2.79191341e-02,
          -2.10080482e-02, -2.09756307e-02, 4.22950601e-03,
          -8.06694385e-04, 7.81672448e-03, 6.74538780e-03,
          1.52177410e-02, -4.98048961e-03, -1.72147527e-02,
          -1.06220329e-02, -1.51450634e-02, 3.47099407e-03,
          -2.23384798e-03, 4.15982818e-03, 6.02834020e-03,
          5.67580014e-03, -6.31138403e-03, -1.47722056e-02,
          9.85196885e-03, 1.47615885e-02, -3.14633508e-04,
          1.23981165e-03, -1.25739202e-02, -4.87343129e-03,
          4.46797581e-03, -1.42007861e-02, -1.04480702e-02,
          1.02032488e-02, 3.00495904e-02, 1.00790765e-02, 9.24100913e-03,
          -1.64502356e-02, -1.50979096e-02, -8.70783068e-03,
          -1.04666417e-02, -1.16181457e-02, 4.48743161e-03,
          8.25911202e-03, 1.29725470e-03, -2.61116563e-03,
          -6.43892307e-03, -1.83447450e-03, -1.80631655e-03,
          -2.04785615e-02, -2.13939268e-02, 1.58297352e-03,
          2.25441176e-02, 8.77631735e-03, 8.36274005e-04,
          -1.53888622e-02, -9.66901518e-03, 5.79202715e-05,
          -6.03840780e-03, -5.33173932e-03, 1.37963118e-02,
          1.56811364e-02, 1.83379054e-02, 1.07508460e-02,
          -1.35023464e-02, -1.54834297e-02, -1.14594102e-02,
          -1.22934487e-03, -4.61251067e-04, 1.28799002e-03,
          -3.92484199e-03, 8.76344368e-03, 1.66684785e-03,
          -5.97167714e-03, -4.31843800e-03, -7.25501857e-04,
          -1.76845118e-02, -1.75254475e-02, -1.84430054e-03,
          1.72612146e-02, 1.22583788e-02, -7.69070815e-04,
          -5.07390872e-03, -3.68604367e-03, -1.05179073e-02,
          -8.26512091e-03, -3.48129775e-03, -5.90173900e-03,
          -9.03810468e-03, -9.24720312e-04, -8.32106732e-03,
          -1.04999484e-03, 4.92962135e-05, -6.20722910e-03,
          -3.20096803e-03, -1.16938697e-02, -4.70976951e-03,
          -1.14878565e-02, -1.43270649e-03, 1.06439192e-03,
          -4.75368783e-04, -3.00700893e-04, -2.66915886e-03,
          -8.70514661e-03, -6.80376217e-03, 1.50493477e-02,
          1.95421856e-02, -6.54669618e-03, -2.06327182e-03,
          -2.84910039e-03, -1.40339611e-02, -1.91614404e-02,
          -4.33205301e-03, -1.31141907e-03, 7.40778400e-04,
          -8.64457339e-03, -5.76337660e-03, -5.66793932e-03,
          -9.93027352e-03, -4.73062368e-03, -7.64547102e-03,
          -1.00608449e-02, 1.08300541e-02, 1.79459695e-02,
          1.93156693e-02, -2.86707282e-03, -9.34003107e-03,
          -2.06074920e-02, -1.92990806e-02, -1.46906609e-02,
          6.71814836e-04, -6.37652865e-03, 1.27358809e-02,
          1.05092162e-02, -9.84086562e-03, -4.38750768e-03,
          8.55601672e-03, -1.00381402e-02, -7.32741505e-03,
          1.50363520e-03, -1.46185728e-02, 2.18767766e-03,
          9.11441911e-03, -1.19445818e-02, 1.19076879e-03,
          -3.89013439e-04, 3.77056043e-04, 1.57799711e-03,
          -1.75321922e-02, -8.67096428e-03, 5.89324394e-03,
          1.10977311e-02, -6.74514624e-04, -6.95511978e-03,
          -2.59405491e-03, -1.25376685e-02, -6.04965119e-03,
          -2.17695138e-03, -2.18684953e-02, -1.35633107e-02,
          2.95284064e-03, -8.16646591e-03, -1.96365197e-03,
          -8.79909494e-05, -4.94295848e-04, 6.63849199e-03,
          5.79612609e-03, -5.71298227e-03, 4.75286134e-03,
          2.37248652e-03, -4.24264930e-03, 2.83004274e-03,
          -2.92445044e-03, 4.20246227e-03, 8.72645620e-03,
          9.79822362e-04, -7.22342962e-03, -3.26288934e-03,
          -8.33410118e-03, -2.53058854e-03, -2.53435178e-03,
          -3.40473402e-04, 1.35022560e-02, 1.15306396e-02,
          6.52568927e-03, -1.75253600e-02, -2.00623423e-02,
          -1.55091891e-02, -9.68279969e-03, -3.97427054e-03,
          -3.94248229e-04, 8.99189338e-03, 1.79568939e-02,
          1.97600992e-03, 3.27852904e-03, -1.02532171e-02,
          -2.64209174e-02, -4.17867443e-03, -7.66942184e-03,
          -6.78397715e-03, 4.10561357e-03, 1.33086909e-02,
          1.15184290e-02, -4.15437110e-03, -1.93667866e-03,
          1.10298663e-03, 1.22817105e-03, -8.92501138e-03,
          -8.84821918e-03, 4.26622480e-03, 1.94566566e-02,
          1.22538339e-02, 6.51738374e-04, 5.60206361e-03, 1.81844039e-03,
          4.60825628e-03, 8.26569390e-04, -1.47602083e-02,
          -2.75976054e-04, 1.00302864e-02, 1.94498035e-03,
          5.51945157e-03, -3.60520120e-04, -4.15490521e-03,
          -7.78835453e-03, -1.35405064e-02, -2.13117506e-02,
          -7.10613281e-03, 2.46475195e-03, 2.55712145e-03,
          4.58617881e-03, 1.29118925e-02, 6.55656168e-03,
          -1.89111370e-03, -1.28816888e-02, -1.89190656e-02,
          -8.01194925e-03, 2.16142763e-03, 2.12249113e-03,
          -1.01392483e-03, 7.67126633e-03, 1.51069660e-03,
          -1.06773088e-02, -6.87582884e-03, 4.86965012e-03,
          1.16391769e-02, 2.70884740e-03, 1.39014330e-03,
          -1.15809450e-02, 3.91627708e-03, 6.05582842e-04,
          -9.59352776e-03, 2.89866398e-03, -4.34804149e-03,
          5.25558833e-03, -5.27023338e-03, 2.62820884e-03,
          -5.93641133e-04, 9.27911140e-03, 7.12107448e-03,
          6.28633145e-03, 4.73946612e-03, 8.67996179e-03, 5.80501556e-03,
          4.82448982e-03, -3.43381590e-03, -6.71535917e-03,
          5.15198661e-03, 1.27837053e-02, -5.40094543e-03,
          1.39682484e-03, -6.40235236e-03, -3.43840686e-03,
          -1.31835206e-03, 8.66471164e-05, -6.38695154e-03,
          -5.67351375e-03, 2.06501270e-03, 1.02153164e-03,
          1.97028508e-03, -3.34528345e-03, -1.80368335e-03,
          1.35616260e-03, 1.61529204e-03, -4.48439363e-03,
          -6.49801875e-03, -2.26055761e-03, 1.49835572e-02,
          8.97395134e-04, -1.11934554e-03, 9.18318692e-04,
          -1.96167687e-03, 4.63727070e-03, 5.54627273e-03,
          7.11256824e-03, 1.00137284e-02, -1.61913945e-03,
          -2.13439623e-03, 9.22623265e-04, 8.38305335e-03,
          5.82537940e-03, 1.24477665e-03, -4.34916932e-03,
          -1.06163863e-02, -1.41445203e-02, -6.33886969e-03,
          5.60474442e-03, -7.88040180e-03, -9.49575566e-03,
          5.15061384e-03, 4.03834623e-04, -5.36917709e-03,
          -1.44673744e-02, -7.15526752e-03, 1.84728671e-02,
          9.36426502e-03, 3.61742708e-03, 1.11689819e-02, 8.80022999e-03,
          -4.32313839e-03, -7.90367834e-03, -8.38169269e-03,
          -8.10516998e-03, 1.03848511e-02, 7.51639670e-03,
          -8.78438912e-03, 4.86680726e-03, 7.74094649e-03,
          5.15032699e-03, -9.71767493e-03, -1.19354399e-02,
          -2.40472611e-02, 1.02157015e-02, 6.91776536e-03,
          -1.19880063e-03, 2.15920969e-03, 1.24296742e-02,
          -1.22819003e-03, -7.65452534e-03, -1.06695835e-02,
          -7.06484728e-03, 9.54720133e-04, 2.32509081e-03,
          -3.73764010e-03, 4.32032347e-03, 7.39053497e-03,
          2.56036688e-03, -1.50777062e-03, 6.50820509e-03,
          -2.94596609e-03, 7.42080156e-03, 2.22915318e-03,
          -4.73214872e-03, 1.13292681e-02, 5.90796163e-03,
          1.11698313e-02, -1.77581899e-03, 3.74920829e-03,
          -1.52889760e-02, -4.43466753e-03, -7.07096374e-03,
          1.52243010e-03, 1.11434516e-02, 1.51558304e-02,
          -9.63636488e-03, -1.45139657e-02, -1.00421708e-03,
          -6.18082890e-03, 3.67372646e-03, 3.88262188e-03,
          9.90550732e-04, 5.58067858e-03, 2.18839431e-03, 6.34237751e-03,
          -1.53652802e-02, 7.02329213e-03, -1.17770173e-02,
          -8.21304787e-03, -1.84706718e-04, 6.76941359e-03,
          1.99718010e-02, 1.20366765e-02, 6.73180819e-03, 2.98843766e-03,
          1.23934103e-02, -8.85943137e-03, -7.22305011e-03,
          -5.82183385e-03, -6.02239743e-04, 3.04410886e-03,
          9.07803234e-03, -1.80819060e-03, 1.60497020e-03,
          1.81559678e-02, -5.19011170e-03, -7.14430260e-03,
          -3.08806379e-03, -4.24746098e-03, -2.60291763e-05,
          -5.27352467e-03, 1.06436396e-02, 4.39904118e-03,
          1.32024968e-02, 1.08478602e-03, -9.56638425e-04,
          -5.06512646e-04, -9.05634370e-04, -7.39321229e-04,
          4.03202511e-03, -5.74432919e-03, 3.66591546e-03,
          1.34898620e-02, 1.28598167e-02, 3.35596246e-03,
          -3.27831623e-03, -1.79164167e-02, -1.01032872e-02,
          -2.82329507e-03, -6.25330303e-03, 3.73414630e-04,
          1.55770266e-02, 1.00686029e-02, 2.98686791e-03, 3.03387316e-03,
          -3.69348377e-03, 3.00655793e-03, -4.49444074e-03,
          -4.11106832e-03, -8.15462414e-03, -8.93112039e-04,
          3.47285229e-03, -4.74496977e-03, -6.67489041e-03,
          1.28870932e-02, 5.20643452e-03, 1.60748791e-03, 9.69999097e-03,
          -2.30205478e-03, 1.13787968e-02, 1.56867411e-02,
          5.45242848e-03, -7.85044394e-03, -1.59902815e-02,
          1.72787998e-03, 8.69618915e-03, 5.50217833e-03,
          -2.41830689e-03, 8.48613505e-04, -3.52184614e-03,
          -5.13528241e-03, -9.19584930e-03, -5.80723863e-04,
          -5.09931380e-03, 1.93360932e-02, 7.96928350e-03,
          -1.15643889e-02, -9.94966365e-04, 3.01209255e-03,
          -3.78465024e-03, -8.02663714e-03, 1.35652870e-02,
          1.02756070e-02, 1.22013893e-02, 6.53722044e-03,
          -1.06434338e-02, -9.15866625e-03, 2.02900567e-03,
          -2.86441250e-03, -2.23143050e-03, 6.53797947e-03,
          5.23061492e-03, 2.05391627e-02, -1.55130925e-04,
          -1.52087957e-02, -9.17204004e-03, -1.56624243e-03,
          -3.59401270e-03, -9.28915851e-03, 8.06882791e-03,
          5.91071229e-03, 1.58162154e-02, -4.99770464e-03,
          -2.04193853e-02, -1.93038508e-02, 4.65609506e-03,
          -4.55239834e-03, 3.08187999e-04, 4.64477390e-03,
          1.31851221e-02, 1.18764071e-02, -1.00871082e-03,
          -1.51043115e-02, -8.22626241e-03, 7.48277875e-04,
          -1.21419178e-03, -5.34894876e-03, -7.53129786e-03,
          -6.91776397e-03, 1.47461900e-02, -1.89883367e-03,
          -1.87275894e-02, 1.09300588e-03, 9.72338393e-03,
          7.91007094e-03, 1.98363210e-03, -4.62065823e-03,
          -7.07660848e-03, 4.39970568e-03, -1.19549474e-02,
          -2.05371957e-02, -1.63191452e-03, 2.80287908e-03,
          -6.82171108e-03, 1.73292437e-03, -4.43478208e-03,
          -1.48077647e-03, 3.60606005e-03, -1.01797124e-02,
          -1.76929235e-02, 3.75852454e-03, 8.78527388e-03,
          1.37442583e-03, -3.23106797e-04, -1.03239920e-02,
          -1.08482121e-02, -7.87039939e-03, -8.28262232e-03,
          -1.22293364e-02, 3.26743652e-03, 5.47129009e-03,
          1.54003464e-02, 4.15321253e-03, 2.38215923e-03,
          -1.37531953e-02, -3.93194333e-03, -1.56007055e-02,
          -9.75400489e-03, -2.86773406e-03, -3.99135315e-04,
          5.72369481e-03, 4.51328373e-03, 8.52992292e-03,
          -1.17147854e-02, -1.29800169e-02, -2.60565747e-02,
          -1.56230042e-02, 7.19936565e-03, 1.09556252e-02,
          8.98204464e-03, -5.01787057e-03, -7.63982069e-03,
          -1.19932732e-02, -3.61924851e-03, -2.22694650e-02,
          -1.33788921e-02, 6.72691735e-03, 8.82999157e-04,
          6.58067362e-03, 8.16040207e-04, 3.56676849e-03, 2.27694423e-03,
          -1.21484790e-02, -2.46440386e-03, -6.83268206e-03,
          -1.40720524e-03, -2.16032669e-04, -1.61094242e-03,
          -2.14458699e-03, 1.22283483e-02, 2.50563188e-03,
          1.81715644e-03, 2.35450407e-03, -5.09631727e-03,
          -1.24077024e-02, -1.05650898e-03, 5.34284348e-03,
          -6.72852970e-04, 7.05054542e-03, -2.66774534e-03,
          2.76996335e-03, -2.39459611e-02, -1.72584672e-02,
          5.42717986e-03, 7.60224788e-03, 6.37923880e-03, 4.08757897e-03,
          1.30634829e-02, 8.95950664e-03, -2.96413549e-03,
          -1.94447786e-02, -2.04507764e-02, -9.96344909e-03,
          8.45583435e-03, 6.53832220e-03, 2.33740942e-03, 9.11986921e-03,
          5.23526128e-03, -5.10734832e-03, 2.42955005e-03,
          -6.34948118e-03, -9.95075330e-03, -1.10806022e-02,
          9.09773819e-03, 1.06455069e-02, 1.10042775e-02,
          -6.87732536e-04, -1.75605633e-03, -1.33549096e-02,
          -1.11874044e-02, -9.49437730e-03, -1.20624332e-02,
          3.75708169e-03, 5.47944382e-03, 9.29401163e-03, 1.90652686e-03,
          1.52120512e-04, -1.04726171e-02, -1.64066199e-02,
          -8.74019507e-03, -1.21991048e-04, 2.24626134e-03,
          1.19619248e-02, 7.18112616e-03, -7.90905382e-04,
          1.39134028e-03, -1.78573523e-02, -2.06319857e-02,
          -1.09277908e-02, -1.88498292e-02, 2.46966304e-03,
          8.88025854e-03, 1.17594507e-02, 7.18183257e-03, 8.31645261e-03,
          -7.97232892e-03, -3.25262547e-03, -7.28950428e-04,
          -3.93563358e-04, -3.65646346e-03, 5.78973675e-04,
          -3.31593095e-04, -3.11934669e-03, -1.09820091e-03,
          -1.11765163e-02, -1.73208136e-02, -7.20537081e-03,
          8.71851388e-03, 1.87006569e-03, 3.82973143e-04,
          -1.12994947e-03, 2.08985154e-03, 7.59490021e-03,
          -5.04562631e-03, -1.54187363e-02, -1.40251555e-02,
          -7.64081534e-03, -1.23379072e-02, -3.30656744e-03,
          1.13088414e-02, 1.62240062e-02, 1.86464880e-02, 7.09226634e-03,
          -8.84955749e-03, -9.37356707e-03, -4.36954619e-03,
          -1.58193074e-02, -1.42443040e-03, 5.97603666e-03,
          1.30831683e-02, 2.06418894e-02, -9.56960395e-03,
          -1.86853614e-02, -1.18589532e-02, 5.47803240e-03,
          3.72196827e-03, 3.02680419e-04, -1.73605734e-03,
          6.05833251e-03, -1.10719330e-03, -8.49618856e-03,
          -5.60802966e-03, -6.95665646e-03, -1.10004004e-02,
          1.28596579e-03, -7.73726730e-04, 2.60563986e-03,
          6.02562306e-03, -3.70445708e-03, 4.77611274e-03,
          -5.04116341e-03, -5.15280850e-03, -1.06445719e-02,
          -3.21379560e-03, -2.76025431e-03, 5.19805297e-04,
          6.51222235e-03, 6.66462304e-03, -9.82001144e-03,
          -5.43704815e-03, -2.45670951e-03, -1.78135987e-02,
          1.04254903e-02, 5.85407112e-03, 1.03877333e-03, 8.48713703e-03,
          2.21015740e-04, -9.85743199e-03, -5.87086333e-03,
          1.17428787e-03, -2.64484040e-03, -2.78217602e-03,
          -6.38075825e-03, -3.21223401e-03, 9.09254362e-04,
          -5.81765687e-03, -1.67404395e-03, 1.02616725e-02,
          1.42211802e-02, 9.34447907e-03, -1.32414754e-02,
          -1.70632340e-02, -1.49932839e-02, -5.58076845e-03,
          -3.08282138e-03, -1.20075103e-02, -1.50868269e-02,
          7.21954159e-04, 8.89931747e-04, 1.02028530e-02, 1.87965797e-03,
          6.67582313e-03, 1.15142924e-04, -2.76758964e-03,
          -9.46571957e-03, -2.04763422e-03, 9.09541361e-03,
          4.59653744e-03, -6.16671576e-04, 6.22565951e-03,
          9.67051135e-04, -7.11481599e-03, 2.87231221e-03,
          -2.17419746e-03, 6.62835548e-03, 1.12469746e-02,
          5.32549759e-03, -5.62541699e-03, -1.37024429e-02,
          -6.60056062e-03, -4.05012351e-03, 1.39808597e-03,
          4.39719018e-03, -5.92239667e-03, -3.81235289e-03,
          -1.68313086e-03, -1.23401470e-02, -8.99642147e-03,
          2.22933269e-03, 4.23074653e-03, 1.30664902e-02,
          -6.06745342e-03, -4.39404836e-03, 1.58928633e-02,
          1.01937139e-02, -2.30032648e-03, -2.13363441e-03,
          -7.03744171e-03, 4.65637585e-03, 4.22469666e-03,
          -3.31375981e-04, -5.51266549e-03, -1.69663294e-03,
          -5.63706737e-03, -1.44512225e-02, -9.43357404e-03,
          -1.70821010e-03, 7.99365994e-03, 1.10178515e-02,
          1.52516617e-02, -6.29645260e-03, -1.52709540e-02,
          -1.75445415e-02, -1.13157146e-02, -6.87221473e-04,
          5.19694295e-03, 5.19661373e-03, 1.69506874e-02, 1.78954862e-02,
          8.55984539e-03, -1.10942004e-02, -2.29710620e-02,
          -1.06127029e-02, -9.23341792e-03, -4.39369678e-03,
          -3.70660634e-03, 7.85844680e-03, 1.90436728e-02,
          6.40211673e-03, -6.03008503e-03, -1.74111426e-02,
          -1.86496638e-02, -9.28856316e-04, -7.41638383e-03,
          5.80651569e-04, 1.71849038e-02, 2.32755188e-02, 1.20792342e-02,
          -5.66966692e-03, -2.12351698e-02, -9.83239338e-03,
          -5.01250383e-03, -1.27854692e-02, -6.65341783e-03,
          1.02434531e-02, 7.70236598e-03, 1.05598848e-02, 7.02844979e-03,
          -4.43372643e-03, -1.49820428e-02, -1.08077116e-02,
          -1.80963967e-02, -6.07865397e-03, 4.16871440e-03,
          1.21221645e-02, 1.06516341e-02, 1.70736723e-02, 6.11327682e-03,
          -1.13912495e-02, -1.83418095e-02, -1.63106211e-02,
          -6.10100431e-03, 2.37429142e-03, 2.26411149e-02,
          6.71074539e-03, 6.27234112e-04, -2.59156711e-03,
          -4.81014885e-03, -9.00626910e-05, -1.44148311e-02,
          -1.08431457e-02, 1.25150084e-02, 2.74861921e-02,
          6.46831701e-03, 2.11292354e-05, 9.15826950e-03,
          -1.20714949e-02, -1.06517319e-02, -1.54946372e-02,
          -9.81119648e-03, 8.65618512e-03, 2.33755540e-03,
          6.25207229e-03, 4.89408337e-03, 6.15626154e-03, 7.74740381e-03,
          9.03273001e-03, -2.81539955e-03, -6.51658373e-03,
          -1.61092938e-03, 1.82908925e-03, -1.62282988e-04,
          -2.81479501e-04, 6.20759279e-03, -1.23731687e-03,
          3.71006830e-03, 3.27264471e-03, 6.40120264e-03, 5.88679500e-03,
          -2.24381196e-03, 9.45423450e-03, 6.72822818e-03,
          -4.28385800e-03, -1.76457595e-02, 4.80217161e-03,
          -9.75913019e-04, -1.21160243e-02, -1.31077264e-02,
          -1.17845333e-03, -6.97705429e-03, -7.43271224e-03,
          -7.38791097e-03, -1.81633271e-02, 6.57985499e-03,
          4.15100809e-03, 2.92728026e-03, -7.03923218e-03,
          9.21079051e-03, 1.07674149e-03, 7.51622021e-03, 3.34271486e-03,
          1.82972057e-03, 5.17791091e-03, 7.00770691e-03, 9.27678403e-03,
          9.20439418e-03, 5.28726354e-03, 1.39471784e-04,
          -5.73876919e-03, -1.42660132e-02, -6.53075194e-03,
          7.90561270e-03, -1.80426403e-03, -3.00057000e-03,
          1.42578715e-02, 1.38571032e-03, -1.24790510e-02,
          -6.60548825e-03, -5.62317204e-03, -1.90711413e-02,
          4.93482733e-03, 5.83868707e-03, 1.11346589e-02, 1.25808930e-02,
          3.46789951e-03, -4.41662921e-03, -2.23316695e-03,
          -1.39701739e-02, -1.08902305e-02, 1.05789583e-02,
          -7.19977717e-04, 6.54491270e-03, 1.68949459e-02,
          1.24564050e-02, -2.82549113e-03, -1.71316403e-03,
          -1.56856645e-02, 3.23495665e-03, 3.60725424e-03,
          -6.42772950e-03, -2.23118253e-03, 1.80535931e-02,
          -1.58152281e-04, -7.20151421e-03, 4.82183328e-04,
          -7.58912601e-03, 8.56917538e-03, 6.53079338e-03,
          -1.07763698e-02, -4.46517160e-03, 4.03470593e-03,
          -1.33172737e-03, -3.39533435e-03, 2.46427627e-03,
          -1.45243304e-02, 6.39098580e-04, 2.10768217e-03,
          6.44218526e-05, 9.75948200e-03, 1.43341469e-02,
          -1.30989728e-02, -7.55468616e-03, 7.23998994e-04,
          -7.84251187e-03, -1.08375330e-03, 4.53021750e-03,
          -5.58546558e-03, 1.71946175e-03, 6.62304834e-03,
          -5.84923523e-03, -1.22281928e-02, -6.67972316e-04,
          -2.18405854e-03, 1.25038903e-02, 8.84795096e-03,
          -3.37031786e-04, -1.30350832e-04, 1.16395263e-03,
          -1.41530028e-02, -1.56069351e-02, -3.52987275e-03,
          -5.40735433e-04, 5.62794087e-03, 6.62807142e-03,
          9.43607558e-03, 9.36491042e-03, 1.21659844e-03,
          -1.09159350e-02, -6.82720635e-03, -2.32199719e-03,
          -9.83150117e-03, 7.84158520e-03, 7.54512334e-03,
          5.53970982e-04, 8.17474909e-03, -7.79380207e-04,
          -2.16802247e-02, -7.87936524e-03, -2.46325741e-03,
          -5.09275263e-03, 6.56668609e-03, 9.31558758e-03,
          3.95809067e-03, 1.50846336e-02, -6.28536707e-03,
          -8.69163778e-03, -6.90467702e-03, 3.26559111e-03,
          5.68761909e-03, 3.67534743e-03, 1.14820916e-02, 6.25169463e-03,
          -2.98847794e-03, -1.73751218e-03, -2.43391143e-03,
          -2.32366705e-03, 6.67565176e-03, 8.71637464e-03,
          6.11865241e-03, 8.38064775e-03, -8.64551403e-03,
          -6.40159519e-03, 2.67884042e-03, -2.27836426e-02,
          -1.09832166e-02, -3.56144365e-03, -7.94647262e-03,
          6.63045002e-03, 1.12373736e-02, 1.00972205e-02, 1.18626216e-02,
          -7.60798575e-03, -3.71665484e-03, -8.32034275e-03,
          -1.82718097e-03, -9.57327988e-03, 6.76544150e-03,
          1.58557738e-03, 2.26447918e-03, 1.23710344e-02, 5.81195997e-03,
          9.33631510e-03, -8.83862004e-03, -4.28163912e-03,
          2.49434495e-03, 6.53525535e-03, -1.18011609e-03,
          -2.52616871e-03, 7.52325263e-03, 1.05416002e-02,
          -3.74860177e-03, -1.42216235e-02, -3.57406866e-03,
          -9.06934775e-03, 1.32108142e-03, -3.84465931e-03,
          6.83699129e-03, 7.69342482e-03, 1.29823815e-02,
          -7.21264048e-04, -1.12276897e-02, -7.39695504e-03,
          -5.77531988e-03, 6.65973732e-03, 1.24599703e-03,
          9.03416052e-03, 1.38560617e-02, 1.23822112e-02,
          -1.09225586e-02, -2.04535965e-02, -7.20918644e-03,
          -8.90827738e-03, 7.86660984e-03, -3.30494717e-03,
          1.01828370e-02, 1.43810092e-02, 1.10518159e-02,
          -8.10082257e-03, -1.70702897e-02, -1.22230072e-02,
          -1.13991462e-02, 6.69412827e-03, -8.43871327e-04,
          8.47656745e-03, 1.50328446e-02, 1.35979410e-02,
          -8.71010125e-03, -1.62344612e-02, -1.37738986e-02,
          -8.53036344e-03, 6.41364930e-03, 1.18660589e-03,
          6.31256262e-03, 1.65677778e-02, 8.06976296e-03,
          -1.76500008e-02, -2.26287916e-02, -1.40619837e-02,
          -1.20825646e-02, 8.13810527e-03, 6.60518324e-03,
          1.72038991e-02, 2.92501859e-02, 1.42631857e-02,
          -2.15110481e-02, -1.12869134e-02, -7.25573208e-03,
          -8.32004938e-03, 4.29764343e-03, 6.80929376e-03,
          1.48470001e-02, 1.87998768e-02, 3.06786876e-03,
          -1.14960950e-02, -1.68623589e-02, -3.18739936e-03,
          -2.86835595e-03, -1.74135237e-03, 1.89276389e-03,
          7.85115920e-03, 1.41960867e-02, 1.42008148e-03,
          -4.19186894e-03, -8.73853825e-03, -1.56862219e-03,
          -4.78303089e-04, -8.18596315e-03, -3.33760196e-04,
          -2.63549201e-03, 7.39864819e-03, 7.79456506e-03,
          -2.29405575e-02, -1.32849989e-02, -1.63485191e-03,
          -3.36131081e-03, -2.02054856e-03, 5.66518982e-04,
          4.22419375e-03, 6.02561375e-03, -9.26712807e-03,
          -1.24308253e-02, -9.92458221e-03, -1.45501690e-02,
          -1.66330878e-02, -9.98051837e-03, -3.53372842e-03,
          -4.69862204e-03, 1.16821229e-02, 7.36069959e-03,
          -1.30397845e-02, -6.22840691e-03, 6.48673950e-03,
          1.20142065e-02, 6.21221540e-03, -7.69033562e-03,
          -4.53084381e-03, 4.10773838e-03, 1.73718706e-02,
          -2.48895492e-02, -2.48403233e-02, 8.10394296e-04,
          1.70344058e-02, 1.37895979e-02, -1.64541684e-03,
          8.54759943e-04, 7.90968444e-03, 1.63291227e-02,
          -1.27047654e-02, -1.98556408e-02, -1.30470432e-02,
          -6.41639298e-03, -4.18410543e-03, -5.98882092e-03,
          -1.81493713e-04, 1.29165193e-02, 1.41951293e-02,
          -2.12587137e-02, -3.05855982e-02, -7.83252902e-03,
          6.62151398e-03, 1.06694587e-02, -5.66651532e-03,
          2.85223778e-03, 1.12311989e-02, 1.11207217e-02,
          -2.66989321e-02, -2.85804328e-02, 6.22220861e-04,
          1.19740255e-02, 1.07370298e-02, 1.91786699e-03, 8.29361752e-03,
          1.65836476e-02, 8.60628672e-03, -2.23384146e-02,
          -2.95292307e-02, -1.07432844e-03, 1.39472941e-02,
          8.72236025e-03, 6.40388811e-03, 8.02402943e-03, 1.23965293e-02,
          4.74808458e-03, -1.64740980e-02, -2.40356959e-02,
          -2.83583719e-03, 9.84444097e-03, 1.12244170e-02,
          -1.69244513e-03, 8.25331826e-03, 1.05284201e-02,
          6.10230304e-03, -2.33861990e-02, -1.73554327e-02,
          -5.77372825e-03, 1.12165352e-02, 1.29012978e-02,
          1.66599324e-03, 8.49768613e-03, 9.83153749e-03, 2.41377577e-03,
          -2.11678799e-02, -1.76576450e-02, 1.73036952e-03,
          9.56611056e-03, 3.28185735e-03, 2.71541532e-03, 6.30246336e-03,
          3.47839738e-03, 2.08100886e-03, -2.44172942e-02,
          -2.36091856e-02, -6.62160013e-03, -2.63848342e-03,
          -9.18170670e-04, 3.76142189e-03, 7.50229368e-03,
          1.62161104e-02, 1.04831634e-02, -1.92159824e-02,
          -1.05967578e-02, 8.85933812e-04, 1.07308012e-02,
          1.10214073e-02, -6.67882524e-03, 1.71708653e-03,
          5.31460997e-03, 1.39398472e-02, -1.34454221e-02,
          -1.62467621e-02, -5.33239963e-03, 3.41730169e-03,
          7.55811296e-03, -5.95340645e-03, 2.93568731e-03,
          8.60611629e-03, 1.01120705e-02, -1.91823335e-03,
          -1.71057116e-02, -5.12135121e-05, -4.67740744e-03,
          -1.66593734e-02, -4.90901200e-03, 8.90625082e-03,
          1.76730957e-02, 8.64321645e-03, 4.82061272e-03, 1.28396860e-04,
          7.44479895e-03, -2.03270419e-03, -2.52279676e-02,
          -5.35985827e-03, 4.45091911e-03, 4.58272174e-03,
          9.37074330e-03, -2.96234642e-03, -5.75550552e-03,
          2.09577545e-03, -1.67418050e-03, -1.69801936e-02,
          -8.03798344e-03, 1.83312094e-03, 9.65229701e-03,
          1.17915450e-02, 3.14852991e-03, 5.49012935e-03, 1.16043231e-02,
          -2.81937723e-03, -2.47752424e-02, -1.27919130e-02,
          -2.54915003e-03, 8.26010760e-03, 1.07562654e-02,
          1.22337127e-02, 2.85090384e-04, 2.05222308e-03,
          -7.09855370e-03, -8.66018608e-03, -4.28791530e-03,
          -4.15873853e-03, 3.24315135e-03, 9.66392551e-03,
          5.06985118e-04, -7.22686527e-03, -6.01321599e-03,
          -1.22886505e-02, 1.57583703e-03, 9.76485945e-03,
          -4.61811293e-03, 7.73447508e-04, 1.08199213e-02,
          1.23697780e-02, 3.21101537e-03, -2.88745272e-03,
          -3.70167638e-03, -5.93375461e-03, -1.40043739e-02,
          -3.74208367e-03, 1.05864849e-04, 5.83768496e-03,
          5.47660887e-03, 8.83601315e-04, -1.16025815e-02,
          -1.49876196e-02, -2.56923423e-03, -6.74584741e-03,
          -2.48544826e-03, -7.06483051e-03, 8.94398987e-03,
          -5.10411523e-03, -1.66634191e-02, -9.50174872e-03,
          -3.50278430e-03, 9.67721175e-03, 1.24388626e-02,
          -6.80651923e-04, -8.40970874e-03, 3.39011848e-03,
          -6.74948609e-03, -1.61497053e-02, -1.13647487e-02,
          -2.27310625e-03, 3.51400115e-03, 1.21563924e-02,
          1.41882605e-03, -1.22049693e-02, -2.39972444e-03,
          5.73540339e-03, -1.26243187e-02, -2.28325352e-02,
          -1.20481150e-02, 8.21888819e-03, -2.50165188e-03,
          -8.38013832e-03, -9.22149606e-03, 6.02343585e-03,
          -3.30583681e-03, -1.41354138e-02, -2.39570234e-02,
          -6.38903910e-03, 1.31683480e-02, -1.08097028e-02,
          -6.08118437e-03, -7.15419184e-03, 2.20920425e-03,
          -3.65971797e-03, -9.90349799e-03, -1.25243934e-03,
          1.00131957e-02, 4.59919311e-03, 1.06555857e-02,
          -2.17048032e-03, -4.72434750e-03, -3.04305204e-03,
          -1.44521426e-03, -1.17941080e-02, -2.93299044e-03,
          4.26075747e-03, -3.52312485e-03, 4.45459550e-03,
          -1.15261953e-02, -5.42654796e-03, 1.37852586e-03,
          4.88195382e-03, -1.15751270e-02, -2.12925225e-02,
          -6.44256221e-03, 3.15294368e-03, 1.48045563e-03,
          -2.61374423e-03, -1.36287988e-03, 8.65771808e-03,
          8.96644965e-03, -1.37172285e-02, -1.63713489e-02,
          -2.76575121e-03, -7.61067588e-03, -1.57677720e-03,
          -8.30585230e-03, 2.81283329e-03, 2.05795299e-02,
          1.42380660e-02, 1.08817755e-03, 1.92118972e-03,
          -8.77604634e-03, -1.18756080e-02, -4.43310593e-04,
          -1.46850757e-02, -9.01726913e-03, 1.34611437e-02,
          1.21086435e-02, 1.47412913e-02, -3.26677226e-03,
          -2.02783663e-02, -1.35374581e-02, -1.24440773e-03,
          -1.46168889e-02, -1.03330705e-02, 8.21187627e-03,
          1.71605013e-02, -2.80417548e-03, -9.99135897e-04,
          -4.17115679e-03, -2.03238614e-02, -7.76513619e-03,
          -1.65809505e-02, 2.36032181e-03, 1.98674891e-02,
          2.32942197e-02, 1.70160998e-02, 1.16884839e-04,
          -1.79398227e-02, -2.06712019e-02, -1.62344833e-03,
          -7.03957397e-03, 2.20774696e-03, 1.28038656e-02,
          1.71769820e-02, 1.01756072e-02, -5.79779409e-03,
          -1.17432447e-02, -1.34229138e-02, 4.00939817e-03,
          -2.93396576e-03, -7.38505227e-03, 4.77942731e-03,
          2.02554800e-02, 7.02655548e-03, -1.65539011e-02,
          -1.38847728e-03, -1.17113823e-02, -1.00812363e-02,
          -2.37066834e-03, -5.04948106e-03, 1.28348079e-02,
          1.72129888e-02, 1.29924854e-02, -1.34174549e-03,
          -1.70529876e-02, -1.40967332e-02, 7.40373787e-03,
          -1.15236279e-03, -1.18094799e-03, 7.12671271e-03,
          1.02517558e-02, 4.01031040e-03, -6.28810981e-03,
          -1.15052359e-02, -6.24144170e-03, -3.11059132e-03,
          2.96149141e-04, -1.21608435e-03, 1.21034356e-02,
          3.54637369e-03, 1.25499954e-02, 1.63254552e-02,
          -1.47596595e-03, -2.41028368e-02, -6.69755042e-03,
          7.78566347e-03, 2.54227128e-03, -6.92967384e-04,
          -4.84486669e-03, -1.06444792e-03, 1.00244069e-02,
          8.30666535e-03, -2.24162154e-02, 3.51571338e-03,
          4.85954061e-03, 4.61075455e-03, -7.81867933e-03,
          -1.15007879e-02, -6.27309710e-05, 9.74506233e-03,
          7.89734814e-03, -1.33010568e-02, -3.85471457e-03,
          1.21727763e-02, 1.79496221e-02, -1.44451926e-03,
          -1.45028140e-02, -7.34785711e-03, 7.54987635e-03,
          5.76121639e-03, -1.16579523e-02, 4.33661975e-03,
          6.89236121e-03, 1.13661187e-02, -9.32202302e-03,
          -5.34154497e-05, -7.52225006e-03, 7.71922432e-03,
          1.25084361e-02, -1.50755895e-02, 4.82226815e-03,
          8.53856374e-03, 1.05049787e-02, 1.19668096e-02,
          -5.39752794e-03, -1.48673309e-02, 3.72341997e-03,
          4.39854898e-03, -1.81226642e-03, 3.34928208e-03,
          5.71352604e-04, 1.15904482e-02, 2.42110752e-02,
          -1.14275767e-02, -1.05316611e-02, 9.51989088e-03,
          7.95598235e-03, -7.42042810e-03, 1.68499839e-03,
          9.00164992e-03, 9.71341319e-03, 8.45584925e-03,
          -1.26895774e-02, -2.51980275e-02, 3.60381295e-04,
          1.01568578e-02, 4.00185538e-03, 6.86708954e-04,
          -3.83780268e-03, 7.70980187e-05, 1.37292650e-02,
          -1.40643213e-03, -1.12780407e-02, -4.56724176e-03,
          -4.39447816e-03, 1.64381950e-03, 3.53686279e-03,
          -2.52083852e-03, 6.40219031e-03, 1.88345332e-02,
          2.39886856e-03, -9.75772738e-03, -1.19322212e-02,
          -1.15703540e-02, 3.35024903e-03, -1.96696981e-03,
          6.00389019e-03, 6.65305974e-03, 1.25867091e-02,
          -7.82799814e-03, -2.27362644e-02, -9.73740220e-03,
          2.25979555e-03, 1.22716734e-02, 4.83281910e-03,
          -7.64013268e-03, -2.29311641e-03, 9.84834321e-03,
          -6.53501274e-03, -1.79154053e-02, -1.66750737e-02,
          4.45567071e-03, 7.83231854e-03, 4.24353406e-03,
          -1.24125078e-03, 8.83101113e-03, 1.52875818e-02,
          -9.39505734e-03, -1.52458819e-02, -3.37209273e-03,
          -3.28631722e-03, 1.36679281e-02, 2.01939233e-03,
          5.89865632e-03, 9.55297053e-03, 1.78327167e-03,
          -2.64478903e-02, -2.16890592e-02, -3.91464727e-03,
          -7.45500205e-04, 1.45842033e-02, 8.52382462e-03,
          6.69132220e-03, 2.13206038e-02, -6.13157637e-03,
          -1.12753408e-02, -1.34499045e-02, -1.11769279e-02,
          4.26676217e-03, 2.22557001e-02, 3.25817172e-03, 4.13180236e-03,
          1.22594954e-02, 1.45861675e-04, -3.57865654e-02,
          -2.20395084e-02, -9.77527257e-03, 7.98226392e-04,
          1.89814102e-02, 1.21962577e-02, 7.64303468e-03, 2.29361095e-02,
          -4.29929234e-03, -2.38259174e-02, -2.24759448e-02,
          -9.55410302e-04, -1.91051001e-03, 1.36639113e-02,
          8.21079407e-03, 4.93287109e-03, 2.12734733e-02,
          -5.37618413e-04, -1.02039855e-02, -9.57054645e-03,
          2.45038536e-03, -1.31659955e-03, 1.06215505e-02,
          2.61705311e-04, 2.45534093e-03, 1.82897206e-02, 8.12245719e-03,
          -2.41996255e-02, -2.22114082e-02, -5.06403018e-03,
          -2.55659968e-03, 1.77469533e-02, 4.97681368e-03,
          -3.13043129e-04, 2.34740600e-02, 2.84720073e-03,
          -1.83816031e-02, -1.80394594e-02, -4.52174805e-03,
          -5.21201175e-03, 2.29717605e-03, 7.33135035e-03,
          -1.24774314e-03, 1.79753024e-02, -1.29167205e-02,
          -3.44035216e-03, -1.13653056e-02, -3.12005263e-03,
          -5.84209221e-04, 9.82176512e-03, 3.85211664e-03,
          9.90593992e-03, 1.07313590e-02, 1.11587336e-02,
          -9.72682424e-03, -1.91663206e-02, -1.70488767e-02,
          -3.91707756e-03, 4.72288905e-03, 2.43549730e-04,
          1.21047832e-02, 1.90410633e-02, 1.36084640e-02,
          -2.53670495e-02, -1.72731522e-02, -1.27997054e-02,
          -2.52150290e-04, 7.40599912e-03, 1.17970677e-02,
          1.70193911e-02, 1.33860838e-02, -1.37339365e-02,
          -2.72106938e-02, -2.41125394e-02, -2.17606910e-02,
          -7.90510152e-04, 1.63266226e-03, 8.10171757e-03,
          1.01664905e-02, 7.54478807e-03, -7.85493478e-03,
          -1.32813826e-02, -1.93069559e-02, -1.20903160e-02,
          -3.14041693e-03, -3.62962397e-04, 6.61188271e-03,
          1.40623646e-02, 1.94380637e-02, 1.48309795e-02,
          -1.85110085e-02, -1.22909537e-02, 7.45525816e-03,
          4.75754915e-03, -2.10424000e-03, 5.55278407e-03,
          1.10085346e-02, 4.29215655e-03, -5.95616689e-03,
          -2.42737345e-02, -2.17367969e-02, -1.41603844e-02,
          6.46909932e-03, -4.81127383e-04, 4.18714806e-03,
          5.84507082e-03, 1.67969633e-02, 5.68985986e-03,
          -2.70401053e-02, -2.17853300e-02, -4.07386106e-03,
          1.17308376e-02, 1.11801159e-02, 4.90908185e-03, 5.66131808e-03,
          1.97112327e-03, 2.89791729e-03, -1.00166546e-02,
          -4.46673902e-03, 1.30394008e-02, 1.03106285e-02,
          8.57374072e-03, 5.59111452e-03, 3.24473786e-03,
          -6.15749625e-04, -3.32100131e-03, -9.06472374e-03,
          -1.46952504e-02, -4.10786270e-05, 1.07281888e-03,
          5.73485484e-03, 5.46252541e-03, 3.49729275e-03, 3.16781434e-03,
          9.35593341e-03, -1.47318151e-02, -2.11690217e-02,
          -8.72575503e-04, 1.48953581e-02, 1.92252994e-02,
          1.12760495e-02, 5.33296261e-03, 5.40009048e-03, 3.39930574e-03,
          -1.66296139e-02, -1.26727512e-02, -2.47476553e-03,
          8.28609336e-03, 1.59076303e-02, 1.05531821e-02, 4.95302770e-03,
          6.85471157e-03, 4.10004519e-03, -3.36041092e-03,
          -1.63377486e-02, -1.12365652e-02, -6.27340702e-03,
          -1.03523675e-03, 1.41826924e-03, 5.61954081e-03,
          9.79463570e-03, 1.80450957e-02, -1.64776184e-02,
          -1.70722902e-02, -6.82737865e-03, -4.89239173e-04,
          1.07267424e-02, 6.79272367e-03, 7.07563898e-03, 9.51494463e-03,
          5.92445442e-03, -1.50252450e-02, -6.13646815e-03,
          4.41248622e-03, -5.77277970e-03, 3.71231907e-03,
          3.70460819e-03, 1.09115522e-03, -1.01128954e-03,
          6.77433517e-03, -2.46719420e-02, -1.17147285e-02,
          -1.71420153e-03, 2.49192421e-03, 5.79114771e-03,
          1.22259287e-02, 8.40830151e-03, 2.75223912e-03,
          -3.02433781e-03, -1.86610464e-02, -1.65017564e-02,
          -2.13755673e-04, 1.44800323e-03, 1.66714117e-02,
          7.24628475e-03, 8.79709143e-03, 5.51187061e-03,
          -3.46386456e-03, -1.75549034e-02, -2.35545840e-02,
          -5.11402171e-03, 2.11606640e-03, 1.45121105e-02,
          1.10540465e-02, 1.34997135e-02, 4.63912496e-03,
          -4.56605526e-03, -2.45092046e-02, -2.53652856e-02,
          -8.52809381e-03, 5.91963856e-03, 9.60658863e-03,
          1.26080737e-02, 9.03258752e-03, 1.79797772e-03,
          -9.84922703e-03, -1.72336828e-02, -1.68657433e-02,
          -4.44687577e-03, 6.14537159e-03, 1.09383473e-02,
          9.79108736e-03, 7.46396696e-03, -8.21241550e-03,
          -7.66177429e-03, -1.48287667e-02, -1.37484921e-02,
          -3.11720232e-03, 6.11855648e-03, 1.48667796e-02,
          8.97475984e-04, 8.75449553e-03, 1.50935515e-03, 3.35652707e-03,
          -8.39246344e-03, -2.51395442e-02, -7.81533681e-03,
          3.86015652e-03, 1.25324382e-02, -8.38993397e-03,
          -2.22526753e-04, 1.31040358e-03, 1.59757156e-02,
          -1.22048892e-02, -1.28803002e-02, -7.86813500e-04,
          9.39943083e-03, 1.88805275e-02, -7.92997016e-04,
          1.12349144e-03, -6.34099636e-03, -1.04093854e-03,
          -1.27087953e-02, -2.17261519e-02, -1.16605824e-02,
          2.41246144e-03, 1.20096654e-02, -8.29353556e-03,
          -4.58162883e-03, -2.56562862e-03, 1.59372967e-02,
          7.18209380e-03, -1.26214353e-02, -6.17295038e-03,
          -2.64568604e-03, -3.32119130e-03, -4.82020201e-03,
          -7.16917869e-03, 9.52068903e-03, 2.69024409e-02,
          8.00988730e-03, -2.17880192e-03, -1.19793636e-03,
          -5.59291570e-03, -1.88924894e-02, -1.17491446e-02,
          -1.12071661e-02, 7.33284792e-03, 2.20835097e-02,
          1.92283967e-03, -2.20025890e-02, -2.26787217e-02,
          -1.23007782e-02, 6.22641621e-03, 2.53323885e-03,
          -8.79754871e-03, 5.48373815e-03, 2.72557251e-02,
          1.08115226e-02, -7.82007538e-03, -6.05537370e-03,
          -1.67453140e-02, -1.35896625e-02, -6.21964224e-03,
          1.17266178e-03, 1.07219433e-02, 2.09607799e-02, 1.68068102e-03,
          -8.35161284e-03, -5.84524032e-03, -3.33094993e-03,
          -9.13625769e-03, -1.77832674e-02, -5.59221581e-03,
          -1.03857601e-03, 4.78919875e-03, 4.91485652e-03,
          -3.21399723e-03, 2.64282618e-03, -2.99746869e-03,
          -2.91782338e-03, -6.96328585e-04, 2.77421670e-03,
          -6.49336725e-04, 2.08347058e-03, 1.31039822e-03,
          -1.03460224e-02, -4.37150756e-03, -1.24194054e-02,
          -1.43008148e-02, -1.03255156e-02, 1.69810606e-03,
          -1.27554126e-03, 2.30171252e-03, 1.23013195e-03,
          -5.63807879e-03, 6.48999540e-03, 6.16630865e-03,
          -1.96350855e-04, -8.55302345e-03, 7.95406464e-04,
          -1.42480084e-03, 2.26603076e-03, 5.69393020e-03,
          -5.48881292e-03, -6.75559230e-03, -4.49041283e-04,
          1.68875500e-03, -8.28442443e-03, -5.42415120e-03,
          -2.53811385e-03, 4.25677374e-03, 6.41083810e-03,
          -8.92793015e-03, -1.49883106e-02, 1.30068662e-03,
          2.35972926e-03, -1.20066600e-02, -2.98306090e-03,
          -4.57115285e-03, -1.29762094e-03, 1.21521787e-03,
          -4.50479193e-03, -7.75687024e-03, 8.00183043e-03,
          -4.91791451e-03, -1.71557516e-02, -7.04667810e-03,
          -1.81508731e-04, 3.09959403e-03, 1.22438548e-02,
          -7.83943664e-03, -4.52025142e-03, -2.50493549e-03,
          -3.44120129e-03, -1.37803592e-02, -5.30589139e-03,
          -1.14754075e-03, 1.16624520e-03, 9.61000659e-03,
          -6.58057304e-03, -1.23474235e-02, 3.11892340e-03,
          9.27087269e-04, -5.17695863e-03, 1.80498476e-03,
          5.75374300e-03, 1.22574931e-02, 1.31984462e-03,
          -1.34857111e-02, -1.39232771e-02, -2.28605373e-03,
          -1.47671404e-03, -7.79356528e-03, -6.05214946e-03,
          8.54181219e-03, 1.50845945e-02, 9.26313922e-03,
          -1.35862716e-02, -1.40058203e-02, -1.71695591e-03,
          -2.49280571e-03, -3.17770336e-03, 4.65835538e-03,
          3.68905533e-03, 4.73147770e-03, -1.24886604e-02,
          -1.10957911e-02, -1.36657301e-02, -7.10253650e-03,
          -4.64514270e-03, -3.96526139e-03, -6.23037433e-03,
          -6.02693437e-03, -3.47917574e-03, 2.43230932e-03,
          -1.99842919e-03, -8.82297568e-03, 7.89428712e-04,
          -5.95410354e-03, -3.33427964e-03, -2.71030003e-03,
          7.69396964e-03, 1.27692036e-02, 7.13251822e-04, 2.16260640e-04,
          -2.74759694e-03, -6.67485595e-03, -9.77420062e-03,
          1.06700452e-03, 5.34215651e-04, 4.76274407e-03, 7.25007849e-03,
          -1.80804413e-02, -4.91775107e-03, -1.44314468e-02,
          -1.09966332e-02, 1.20891239e-02, 4.61174501e-03,
          1.33768318e-03, -7.06470758e-03, -1.19140316e-02,
          -1.35106388e-02, -6.13604113e-03, -8.51443969e-03,
          -8.39016307e-03, 3.68278445e-04, 9.80793871e-03,
          9.46118962e-03, -6.22179965e-03, -1.15198893e-02,
          6.11970993e-03, 3.64208990e-03, 2.91710394e-03,
          -7.70573411e-03, -7.12521141e-04, 8.27123784e-03,
          7.10706087e-03, 2.37572030e-03, 8.85546952e-03, 1.34148207e-02,
          1.61442778e-03, 1.96779201e-05, -1.00961532e-02,
          -2.36535067e-04, 5.66174800e-04, 4.95944079e-03,
          -7.99612899e-04, 3.05897533e-03, -3.11864540e-04,
          8.45929328e-03, 4.91038943e-03, -7.37549225e-03,
          -4.88461368e-03, 4.80563566e-03, 4.48760623e-03,
          -4.41917777e-03, -3.53515055e-03, 2.89644534e-03,
          2.97516398e-03, -1.32596795e-03, -1.14689078e-02,
          3.54835205e-03, -2.03049951e-03, -1.40063537e-04,
          -1.23140449e-02, -9.06342454e-03, -1.23724248e-02,
          -6.29562791e-03, 7.11117114e-04, 1.52749531e-02,
          7.20131397e-03, 1.00634713e-03, 9.43945255e-03, 1.33496001e-02,
          -3.55963386e-03, -1.44939357e-02, -4.07860288e-03,
          -5.28424047e-04, 9.37995315e-03, 1.01064146e-03,
          3.68191767e-03, 7.34480703e-03, 1.20921126e-02,
          -9.30123311e-03, -2.99963774e-03, -7.84831215e-03,
          -4.09131125e-03, 1.05909286e-02, -1.85973453e-03,
          -1.25829587e-02, -7.37121422e-03, 7.87524134e-03,
          1.04195876e-02, -8.60066910e-04, -5.06315660e-03,
          -5.69055742e-03, -2.84555997e-03, -9.14181641e-04,
          -4.51175543e-03, -4.92101349e-03, 8.51643388e-04,
          8.82809423e-03, -1.30433263e-02, -5.60991373e-03,
          5.35090826e-03, 9.26230277e-04, -2.98266485e-03,
          3.88345122e-03, 8.35527107e-03, 1.18725952e-02, 2.55469535e-03,
          -1.29138678e-02, -2.24838667e-02, -3.90377338e-03,
          1.75079296e-03, 1.23151327e-02, 6.74399594e-03,
          -3.24870669e-03, -4.06644132e-04, 7.25790206e-03,
          -8.77175853e-03, -1.00621562e-02, 1.90355594e-03,
          5.95724967e-04, 2.84391892e-04, 2.77746934e-03, 2.46807607e-03,
          4.52318648e-03, 1.07341111e-02, -1.15270475e-02,
          -2.52397843e-02, -1.66075453e-02, 5.47495810e-03,
          6.48412155e-03, -3.61680193e-03, -5.61562693e-03,
          3.79782263e-03, 8.73199292e-03, -1.25498828e-02,
          -2.47108135e-02, -8.19128752e-03, 1.30710313e-02,
          1.80133656e-02, 2.91840360e-03, -4.93840827e-03,
          3.04952351e-04, 4.88113239e-03, -1.30202295e-02,
          -1.58818066e-02, -9.86035075e-03, 1.53662516e-02,
          1.23523613e-02, 4.70856670e-04, -1.01976260e-03,
          9.39472020e-03, 9.87546053e-03, -1.37338461e-02,
          -2.20660325e-02, -1.58110019e-02, -5.53567836e-04,
          1.29729761e-02, -1.24998596e-02, -9.75421257e-03,
          6.13086065e-03, 1.10229524e-02, -2.69236565e-02,
          -2.21525282e-02, -1.62741132e-02, 1.60337647e-03,
          5.05097117e-03, -6.58479054e-03, -5.29916724e-03,
          2.85370019e-03, -3.69453640e-03, -8.43149424e-03,
          -8.45804159e-03, -6.15654467e-03, 9.16164648e-03,
          1.76341552e-02, 3.31986812e-03, 1.19335158e-03, 1.31684905e-02,
          5.18788211e-03, -2.81995349e-02, -1.51655786e-02,
          -1.12537509e-02, 4.06884868e-03, 1.61334313e-02,
          4.65324661e-03, -9.38578625e-04, 1.25829205e-02,
          -2.36377833e-04, -2.37914156e-02, -1.75740942e-02,
          -1.14423539e-02, 4.47618030e-03, 1.19322427e-02,
          -1.96640636e-03, 3.60804284e-03, -4.66327852e-04,
          -9.77438781e-03, -2.42315643e-02, -2.03383882e-02,
          -1.24182906e-02, -5.39992703e-03, 1.58060491e-02,
          1.01981510e-03, -4.43628087e-04, -9.29589197e-03,
          -1.59681588e-02, -1.96478236e-02, -7.40356976e-03,
          3.93902604e-03, 4.81778989e-03, 1.32774478e-02, 6.51637465e-03,
          5.78477373e-03, 1.76084097e-02, 3.43844900e-03,
          -2.17640586e-02, -7.56894378e-03, -4.01515281e-03,
          -5.37286978e-03, 7.86088128e-03, 1.09046856e-02,
          1.35335019e-02, 2.04635039e-02, -3.42386030e-03,
          -2.49206871e-02, -2.01734863e-02, -5.33214491e-03,
          6.77514356e-03, 1.42572271e-02, 8.36698059e-03,
          -1.12429145e-03, -3.51614878e-03, -8.54918361e-03,
          -2.30810456e-02, -1.95794702e-02, -4.86396544e-04,
          -2.18288903e-03, 1.19137019e-02, 9.61335097e-03,
          4.98759979e-03, -4.42089140e-03, -6.78063277e-03,
          -1.91113111e-02, -7.97351450e-03, -7.44251721e-03,
          2.66141631e-03, 1.30751021e-02, 1.29908016e-02, 2.10491568e-02,
          2.01756153e-02, -2.84247892e-03, -2.22335644e-02,
          -1.61352698e-02, -1.06180506e-02, 9.03366785e-03,
          1.52481981e-02, 1.34356767e-02, 1.02870390e-02, 1.00456253e-02,
          -2.66422797e-03, -4.62626852e-03, -3.22603993e-02,
          -1.39988475e-02, -4.38306900e-03, 1.43761225e-02,
          1.27942916e-02, 1.19304219e-02, 8.80307984e-03, 8.07231478e-03,
          -1.89146176e-02, -2.94147842e-02, -2.53435075e-02,
          -1.88468461e-04, 2.72912811e-02, 1.34996232e-02,
          8.69067851e-03, 1.03547527e-02, 3.52348085e-03,
          -2.05498580e-02, -5.37678879e-03, -7.14021444e-04,
          7.23150885e-03, 1.11768832e-02, 7.33985705e-03, 1.99059187e-03,
          1.28492685e-02, 1.47561240e-03, -2.65096352e-02,
          -1.80144683e-02, 6.41370332e-03, 9.21829604e-03,
          1.34613132e-02, 7.63532426e-03, 8.53167009e-03, 1.33409668e-02,
          4.09003533e-03, -1.78743936e-02, -2.36433949e-02,
          -1.16887651e-02, 1.23695191e-02, 1.78351291e-02,
          7.73163745e-03, 9.44537390e-03, 6.79904781e-03,
          -6.77130325e-03, -1.25300102e-02, -1.52908992e-02,
          3.74417054e-03, 3.88879143e-03, 9.51598492e-03, 2.06473190e-03,
          1.10358708e-02, 9.85764805e-03, -6.79104030e-03,
          -1.77581962e-02, -1.97424274e-02, -2.48097233e-03,
          4.16637212e-03, 9.57134925e-03, 7.92683288e-03, 1.00870812e-02,
          1.46065224e-02, 8.86578579e-03, -2.19095871e-02,
          -2.09613126e-02, 5.48525061e-03, 6.55055558e-03,
          1.05468826e-02, 8.04977119e-03, 9.46832169e-03, 9.80311166e-03,
          2.66962196e-03, -2.04198677e-02, -1.93255823e-02,
          -5.62467473e-03, -8.06254614e-03, -8.03046918e-04,
          1.07936375e-02, 1.81806758e-02, 1.38381179e-02, 1.63334759e-03,
          -1.85758825e-02, -3.13777067e-02, 1.96937984e-03,
          7.15624017e-04, 6.29383884e-03, 1.77849103e-02, 2.32498739e-02,
          1.34465890e-02, -4.40555159e-03, -1.84057988e-02,
          -9.50697437e-03, 1.27789788e-02, 7.07268901e-03,
          1.25093786e-02, 9.61270835e-03, 5.73534332e-03, 5.54748019e-03,
          -3.97359347e-03, -2.10879333e-02, -1.28854960e-02,
          1.93095300e-03, 9.51741450e-03, 1.00410264e-02, 1.42524000e-02,
          1.17522329e-02, 7.45395757e-03, -1.06113628e-02,
          -2.84075588e-02, -2.49759164e-02, 9.39291529e-03,
          2.23979484e-02, 1.21660642e-02, 1.47561114e-02, 1.34029323e-02,
          6.60521910e-03, -8.86459555e-03, -2.49375235e-02,
          -1.51759498e-02, 3.60177970e-03, 1.77336466e-02,
          1.40629346e-02, 1.84026212e-02, 1.51814641e-02, 5.13946032e-03,
          -1.03245294e-02, -1.37007562e-02, -1.34694185e-02,
          2.93134525e-03, 1.03105865e-02, 6.45319605e-03, 1.18469447e-02,
          5.98817365e-03, 5.85147040e-03, -3.78710055e-03,
          -9.36833676e-03, -5.70457429e-03, 1.06081786e-02,
          1.42155373e-02, 8.40932690e-03, 5.80477854e-03, 1.11692352e-03,
          -6.71067100e-04, 2.54674559e-03, -2.59980634e-02,
          -2.53664218e-02, -3.24069918e-03, 1.65112447e-02,
          1.12685962e-02, 1.42959673e-02, 1.04872826e-02, 1.05438083e-02,
          -6.16104761e-03, -2.22344492e-02, -2.93818675e-02,
          -6.54395344e-03, 4.44706017e-03, 4.05941904e-03,
          1.17864972e-02, 2.19289921e-02, 1.74554866e-02,
          -3.74980085e-03, -3.53065436e-03, -4.64663282e-03,
          1.28867598e-02, 1.58353541e-02, 1.32577699e-02,
          -5.14592463e-03, -1.84337399e-03, -1.83753367e-03,
          5.30389091e-03, -9.24878754e-03, -1.76521838e-02,
          -7.40739936e-03, 2.23070998e-02, 2.29992345e-02,
          -1.70948089e-03, 3.22078064e-04, 1.65902881e-03,
          1.51439365e-02, -1.62109416e-02, -2.33809780e-02,
          -7.69788679e-03, -1.58361532e-03, 6.10166695e-03,
          8.43125675e-03, 2.23644413e-02, 7.95921497e-03,
          -4.84005641e-03, -1.17387082e-02, -1.05234561e-02,
          -1.41585367e-02, 3.89729503e-05, 1.53076965e-02,
          1.64992437e-02, 1.75520554e-02, -1.48379861e-03,
          -9.63920634e-03, -5.81960287e-03, -2.55107768e-02,
          -1.35588069e-02, 6.03988126e-04, 1.49429422e-02,
          7.65206385e-03, -9.36430471e-04, 9.51892417e-03,
          1.54253123e-02, 1.25546521e-03, -1.30787417e-02,
          -1.36685744e-03, -1.44790076e-02, -7.53881549e-03,
          2.47557997e-03, 1.50685925e-02, 1.48535669e-02, 1.16611216e-02,
          -8.90345220e-03, -9.50209145e-03, -1.43899694e-02,
          -6.26836531e-03, 1.17053567e-02, 1.62230525e-02,
          1.78583749e-02, 6.44751219e-03, -1.89982224e-04,
          -1.02894555e-03, -2.51199701e-03, -1.46508240e-03,
          -8.16899166e-03, -1.26392813e-03, -1.21226476e-03,
          1.82396248e-02, 1.35296136e-02, 6.22723158e-03,
          -5.76160033e-04, -6.51738839e-03, -9.80589422e-04,
          -1.56219043e-02, -1.65221691e-02, -6.39514439e-03,
          7.32784346e-03, 5.46640437e-03, 3.11454711e-03, 3.35584441e-03,
          3.92132858e-03, -6.42629224e-04, -9.10996087e-03,
          -7.72366580e-03, -3.67622846e-03, 5.69718052e-03,
          7.21701980e-03, 7.11915176e-03, 1.68475590e-03, 2.12177075e-03,
          6.69648696e-04, -1.56012289e-02, -1.82136986e-02,
          -2.17441898e-02, -4.32687375e-04, 2.44917115e-03,
          -1.56809139e-04, 4.55135340e-03, 7.42729846e-03,
          -7.15120183e-03, -2.53285412e-02, -2.26862188e-02,
          -1.34991976e-02, -3.07982718e-03, 1.15717454e-02,
          1.65796001e-02, 4.53466317e-03, 1.91160140e-03,
          -3.09590623e-03, 3.48008703e-03, 6.55569718e-04,
          -7.99481478e-03, -3.44544137e-03, 7.43098138e-03,
          8.01099744e-03, 2.01785448e-03, -5.89734549e-03,
          -2.38588173e-03, -3.56995338e-03, -7.82211404e-03,
          -9.10041668e-03, 4.31888085e-03, 1.32386689e-03,
          -3.27988155e-03, 2.42065149e-03, -1.58741259e-05,
          -5.60030201e-03, -1.59441251e-02, -6.56151818e-03,
          -1.09512610e-02, -7.33683491e-03, 2.21031695e-03,
          6.72498019e-03, -1.16991177e-02, -7.36032333e-03,
          -8.83297715e-03, -1.53338797e-02, -7.45698065e-03,
          -7.08598702e-04, 6.87586889e-03, 3.08403024e-03,
          -5.45753073e-03, -9.71238245e-04, -1.38305156e-02,
          -2.79706297e-03, 4.44455445e-03, -4.69990633e-03,
          4.50169994e-03, 1.16547383e-02, 1.51771086e-03,
          -2.99174269e-03, -8.26560706e-03, -1.05642211e-02,
          -5.70975291e-03, -1.33468234e-03, 5.00734523e-03,
          6.12762803e-03, 4.41707484e-03, -4.33935737e-03,
          -3.33785289e-03, -5.99218905e-03, -9.98215750e-03,
          -1.77199938e-04, 5.80385886e-03, -1.15289800e-02,
          2.66502216e-03, 1.06700547e-02, 2.23416812e-03,
          -2.19381950e-03, -1.30376369e-02, -1.43459961e-02,
          -1.81834924e-03, 3.30524040e-06, -5.74066537e-03,
          6.53578388e-03, 1.57974083e-02, -3.40466294e-03,
          -9.39496886e-03, -8.16359278e-03, 2.94866040e-04,
          -8.79612565e-03, -7.90469348e-03, 1.71810035e-02,
          1.01033533e-02, 4.42284206e-03, -1.18437428e-02,
          -1.37969246e-02, -6.29501697e-03, 4.92467731e-03,
          2.31429090e-04, -1.27434719e-03, 7.25825503e-03,
          6.09799707e-03, 6.30554510e-03, -9.89187602e-03,
          -1.40136462e-02, -4.73985728e-03, -7.61149405e-03,
          -4.35641455e-03, -5.92932850e-03, 6.06057560e-03,
          6.09190157e-03, 2.78818537e-03, -6.05160696e-03,
          -5.10505354e-03, 1.48894684e-03, -1.08336993e-02,
          -3.72160319e-03, -8.56233761e-03, 6.34183781e-03,
          -4.02386999e-03, -1.65937620e-03, -3.13404645e-03,
          -1.16516533e-03, 1.09275698e-03, 4.69926838e-03,
          1.07754571e-02, -8.75616563e-04, -5.08384872e-03,
          -2.56798300e-03, 1.95653946e-03, -5.53661538e-03,
          -1.03347590e-02, 4.69204999e-04, 3.68616777e-03,
          1.15470157e-03, -4.06515412e-03, -6.11891039e-03,
          -6.36935048e-03, -3.19899176e-03, -1.20550366e-02,
          -8.25339835e-03, 4.00940329e-03, -7.48037593e-03,
          1.79842697e-03, 1.55308866e-03, -1.73338735e-03,
          -6.12429203e-03, -2.90655269e-04, -1.12190878e-03,
          2.90113082e-03, 1.83757686e-03, 3.31423152e-03,
          -1.23614818e-03, -2.16092193e-03, 5.70579316e-04,
          -6.06641499e-03, 8.15433217e-04, -3.39957001e-03,
          -2.04907078e-03, 1.08812086e-03, -5.38817048e-03,
          -1.77242223e-03, 1.02041727e-02, 2.64744717e-03,
          -8.20677169e-03, -1.20942229e-02, 4.59897798e-03,
          1.55636249e-02, 6.15389785e-03, -4.42630518e-03,
          -6.65048696e-03, -6.70636306e-04, -3.39525822e-03,
          -1.15669903e-03, -5.96060324e-03, 8.78301682e-04,
          1.27774598e-02, -6.94623962e-03, -1.41729964e-02,
          -2.64224480e-03, 1.62973045e-03, 3.11449607e-04,
          -1.74266461e-03, -1.27485516e-02, 5.59266284e-03,
          1.83728319e-02, -2.65272404e-03, -2.02437174e-02,
          -2.22058855e-02, 1.67370122e-03, -8.10111128e-03,
          1.87382568e-03, 3.65150208e-03, 6.76355185e-03, 1.85290575e-02,
          1.32104813e-03, -1.19087696e-02, -4.63921810e-03,
          1.05334177e-04, 7.19076488e-04, 1.99474255e-03,
          -3.81225254e-03, -7.21493212e-04, 7.39011634e-03,
          -8.81374255e-03, -2.21354645e-02, -1.48743400e-02,
          9.13680438e-03, 7.22461985e-03, -1.50930304e-02,
          -1.66632514e-02, 1.91738989e-04, 6.77270954e-03,
          -4.61382046e-03, -2.29056720e-02, -1.56442765e-02,
          3.84721602e-03, -5.05506760e-03, 7.53580546e-03,
          7.45770754e-03, 1.32347289e-02, 1.47297205e-02,
          -8.24846886e-03, -2.17702519e-02, -1.05392635e-02,
          -1.76969683e-03, -2.55952030e-03, -1.36421211e-02,
          -1.99670661e-02, 7.97364162e-04, 3.63841513e-03,
          2.13058709e-04, -9.49968211e-03, -7.94344954e-03,
          4.68356907e-03, 1.34466793e-02, -1.30282948e-02,
          -1.51694342e-02, 6.49874145e-03, 1.35734566e-02,
          -2.23429445e-02, -2.06882842e-02, -8.84321984e-03,
          3.18641705e-03, 1.34320706e-02, -1.48822158e-03,
          -9.02519934e-03, -1.36072736e-03, -6.54904824e-03,
          1.20769662e-03, -1.27594182e-02, 2.96568125e-03,
          2.80064391e-03, 6.74531702e-03, -1.74319912e-02,
          -1.75922513e-02, 1.63377821e-03, 1.38352923e-02,
          -1.32851731e-02, -2.04656627e-02, 1.23369609e-04,
          2.00610165e-03, 7.31979311e-03, -2.67972075e-03,
          -4.55172919e-03, 2.94283638e-03, 7.44091952e-03,
          -1.37167284e-02, -8.72060098e-03, 8.14491976e-03,
          1.30539695e-02, 2.21388973e-02, 5.30672586e-03,
          -3.22301476e-03, -3.04836454e-03, -1.02906935e-02,
          -1.98810082e-02, -1.37745226e-02, 2.99006118e-03,
          1.19944476e-02, 1.67740881e-02, 8.93545151e-03,
          -3.05098202e-03, -1.24753341e-02, -7.25172367e-03,
          -1.72792170e-02, -1.52435675e-02, -3.34288529e-03,
          3.93149117e-03, 2.56672110e-02, 1.07265590e-02,
          -4.73404449e-04, 2.70853634e-03, -4.21156874e-03,
          -2.33692359e-02, -1.36105483e-02, 3.95727839e-04,
          5.72554395e-03, 2.01861653e-02, 1.46730989e-02,
          -1.01500598e-03, -1.12181455e-02, -5.65142650e-03,
          -4.87469835e-03, -7.58022116e-03, 4.31928929e-04,
          1.69392060e-02, 1.31252855e-02, 1.18582528e-02,
          -2.25594896e-03, -9.81442817e-03, 1.10683090e-03,
          -1.88312284e-03, -2.12974884e-02, -9.49652400e-03,
          1.24656949e-02, 1.49315186e-02, 1.07232118e-02,
          -1.34690024e-03, -9.47083067e-03, 5.01498627e-03,
          -7.28640938e-03, -1.51283639e-02, -1.82978390e-03,
          2.48451717e-02, 1.59566887e-02, 1.78813972e-02, 1.15920696e-03,
          -7.15872785e-03, 4.13667622e-05, -1.36011606e-02,
          -1.77786667e-02, -6.54412573e-03, 1.96350534e-02,
          1.69313159e-02, 1.44354748e-02, 4.00598045e-04, 9.37558524e-03,
          5.98667609e-03, 7.39348959e-03, -3.04162670e-02,
          -1.53632211e-02, 5.91120869e-03, 1.26077551e-02,
          1.12976423e-02, 4.72352654e-03, 4.71013598e-03, 9.67104919e-03,
          -9.71704349e-03, -3.55002172e-02, -1.96943786e-02,
          3.85230943e-03, 1.78369619e-02, 1.33541208e-02, 1.38542578e-02,
          1.80927683e-02, 1.36037227e-02, -1.55919641e-02,
          -2.50341035e-02, -5.23349689e-03, 1.64434966e-02,
          1.00420518e-02, 1.14790164e-02, 3.82489059e-03, 7.80165708e-03,
          -7.34264031e-04, -1.11956643e-02, -2.79920194e-02,
          -1.37615846e-02, 1.10764699e-02, 3.21533484e-03,
          1.09679345e-02, 1.59841329e-02, 1.61356777e-02, 9.09476168e-03,
          -1.13394177e-02, -3.00993137e-02, -1.35662211e-02,
          8.09789449e-03, 9.37087741e-03, 5.90635743e-03, 1.52986096e-02,
          1.52630722e-02, 2.34992197e-03, -5.84677374e-03,
          -1.31022679e-02, -1.11250486e-02, -9.64772480e-04,
          -3.19118553e-05, 6.39032945e-03, 1.68813057e-02,
          6.73401402e-03, 6.25431212e-03, -1.06462592e-03,
          -2.86794491e-02, -1.35228243e-02, -1.59300223e-03,
          -3.12939589e-03, 1.14379618e-02, 1.49905430e-02,
          7.66221154e-03, 4.63381317e-03, -1.83895603e-02,
          -9.95924603e-03, -2.15466265e-02, 3.39684804e-04,
          2.80854362e-03, 1.92931145e-02, 1.76229440e-02,
          -1.63693645e-03, -5.83386049e-03, -1.05755050e-02,
          -1.12798829e-02, -1.53867190e-03, -4.50213253e-03,
          -4.58415691e-03, 5.40624559e-03, 1.49998479e-02,
          7.67292595e-03, 8.65750667e-03, -9.94724780e-03,
          -2.18901634e-02, 6.20035408e-03, 8.06427933e-03,
          1.43402896e-04, 6.87575992e-03, 1.65909827e-02, 1.08282780e-02,
          1.43249671e-03, -1.32035920e-02, -2.13882606e-03,
          -2.78018462e-03, 5.94874285e-03, 1.08625349e-02,
          1.00882594e-02, 1.34175783e-02, 4.04581195e-03,
          -1.11513278e-02, -2.12332215e-02, -9.64836869e-03,
          1.23375549e-03, 1.07262768e-02, 1.31944753e-02, 4.78869071e-03,
          1.62505098e-02, 4.63677291e-03, -7.16348318e-03,
          -1.00745345e-02, -1.86053477e-02, 1.25245377e-02,
          2.24726368e-02, 1.07507454e-03, 8.46541487e-03, 7.99676962e-03,
          2.77776341e-03, 1.68597046e-03, -1.75834298e-02,
          -2.82583740e-02, 6.44561974e-03, 2.24296916e-02,
          1.00946799e-03, 8.52759182e-03, 1.12152183e-02, 1.00820707e-02,
          5.50983753e-03, -1.75638832e-02, -1.61542855e-02,
          1.05058551e-02, 1.92156844e-02, 5.99015411e-03, 2.93736812e-03,
          1.39163025e-02, -8.69375617e-06, -3.44327139e-03,
          -2.44945344e-02, -2.26027630e-02, 7.64291547e-03,
          2.34674718e-02, 3.28755542e-03, 2.80796899e-03, 1.70160420e-02,
          3.71792470e-03, 7.82767776e-03, -2.20394228e-02,
          -3.36840600e-02, -8.08627252e-03, 1.44517468e-02,
          3.41422274e-03, 1.18074315e-02, 2.24456899e-02, 2.24933177e-02,
          7.55609479e-03, -1.94761958e-02, -3.75367440e-02,
          -1.06480727e-02, 2.70387810e-03, -4.10686154e-03,
          1.08766668e-02, 3.51204164e-02, 3.20302956e-02, 7.44498195e-03,
          -2.75169350e-02, -3.31555642e-02, -1.00119477e-02,
          1.42416973e-02, 3.70339537e-03, 1.29465275e-02, 2.83389799e-02,
          1.26038790e-02, 3.53012304e-03, -1.32347420e-02,
          -3.46521512e-02, -3.80954309e-03, 3.15993000e-03,
          1.10464627e-02, 1.31854899e-02, 3.56286205e-02, 2.27952618e-02,
          5.49125392e-03, -1.18611185e-02, -1.84748564e-02,
          -6.36779994e-04, 3.43288819e-04, -1.07428583e-03,
          9.66113899e-03, 1.84850488e-02, 1.21413600e-02,
          -4.04250296e-03, -9.37811006e-03, -4.64599766e-03,
          -3.93695477e-03, -3.38822068e-03, 2.87165516e-03,
          2.60552522e-02, 1.95886437e-02, 9.49074049e-03,
          -1.49707738e-02, -1.37641337e-02, -1.69222951e-02,
          1.26291206e-03, 3.12941731e-03, 4.30318108e-03, 4.91335755e-04,
          7.91743584e-03, 1.41211264e-02, 3.16665391e-03,
          -8.52727797e-03, -1.38371792e-02, -6.96201622e-03,
          -3.47145880e-03, 8.43868870e-03, 1.11145377e-02,
          5.49159618e-03, 1.78528652e-02, -4.28280124e-04,
          -1.10116377e-02, -8.01149011e-03, -1.45025998e-02,
          -8.82648584e-03, -2.74200138e-04, 1.72701646e-02,
          1.87717658e-02, 1.05195222e-02, 3.89781082e-04, 2.85250228e-03,
          5.66923665e-03, -2.78650690e-03, -6.90163486e-03,
          -8.00327677e-03, -3.89917800e-03, 1.47882299e-02,
          7.20233656e-03, 4.40004095e-03, -1.63259283e-02,
          -1.15788803e-02, -6.33780146e-03, -4.48926771e-03,
          -1.51806395e-03, 8.74895044e-03, 1.37672033e-02,
          1.31472778e-02, -5.09302923e-03, -9.66307067e-04,
          5.75646758e-03, 3.47501738e-03, -1.32127320e-02,
          -1.79296155e-02, -1.10036768e-02, 5.09377662e-03,
          1.15410099e-03, 6.92484537e-05, 1.22473184e-02, 9.43309534e-03,
          6.84485864e-03, -9.81534552e-03, -1.90118439e-02,
          -1.65959690e-02, 6.06855005e-03, 3.66512663e-03,
          4.45270166e-03, 1.19741727e-02, 8.12316220e-03, 7.69920228e-03,
          -6.70737540e-03, -2.18916666e-02, -6.10001106e-03,
          3.65620269e-03, 1.11575611e-02, 1.79382991e-02, 1.10215405e-02,
          1.19237555e-02, -4.50299878e-04, -1.86290015e-02,
          -2.22986229e-02, -1.69795174e-02, 6.04279852e-03,
          4.12833085e-03, 6.91077323e-04, 1.40765216e-02, 1.62771791e-02,
          1.47147512e-03, -7.47367088e-03, -1.55558493e-02,
          -5.56544214e-03, 1.81926484e-03, 1.45496626e-03,
          5.30089252e-03, 9.65138897e-03, 6.46548206e-03, 2.57878855e-04,
          -8.23760591e-03, -1.15516400e-02, -1.75510941e-03,
          -1.60153699e-03, 1.17689697e-03, 7.07266200e-03,
          3.53082176e-03, 5.32661099e-03, 1.02029135e-03,
          -8.42557568e-03, -7.36504188e-03, 1.28757702e-02,
          5.78299444e-03, 6.84916228e-03, -1.94350118e-03,
          6.10713195e-03, 9.45272855e-03, 3.29849822e-03,
          -1.69150473e-03, -8.34805425e-03, -1.16443262e-04,
          -9.61694214e-03, -8.82365834e-03, -4.35594190e-03,
          9.37166857e-04, 5.08931745e-03, 6.39771670e-03,
          -5.31442696e-03, -1.67825092e-02, -1.93722441e-03,
          -9.49836709e-03, -4.13490180e-03, -4.17332677e-03,
          4.82269702e-03, 2.60627992e-03, 7.04326900e-03, 5.28790569e-03,
          -1.40641527e-02, 2.25932803e-03, 3.23401112e-03,
          6.33718027e-03, 5.99935092e-03, -1.84721313e-03,
          -2.27991422e-03, 1.06322514e-02, 8.04583915e-03,
          -1.46297533e-02, -5.74485166e-03, 7.79616972e-03,
          1.05349021e-02, 2.92110187e-03, -1.34653191e-03,
          1.06881373e-03, 3.24722729e-03, 1.09876716e-03,
          -1.71208996e-02, -1.08327214e-02, -9.61270090e-03,
          4.85340971e-03, 3.68563319e-03, -4.86478908e-03,
          -1.05335796e-02, -4.11114842e-03, 5.67022432e-03,
          -1.47091504e-02, -1.19105158e-02, 6.27982896e-03,
          1.48790106e-02, 2.10171565e-03, -5.37953526e-03,
          -2.41635926e-03, 7.64292525e-03, -1.05166633e-03,
          -8.78779870e-03, -2.99419207e-03, 2.05004751e-03,
          7.24347122e-03, 5.12686931e-03, -2.93417764e-03,
          -1.02115106e-02, -4.20448463e-03, -1.15711298e-02,
          -7.74836680e-03, 3.09038232e-03, 2.67143687e-03,
          8.94106831e-03, 7.50656193e-03, -1.20262122e-02,
          -5.44889038e-03, 5.65494830e-03, 2.72263447e-03,
          -4.44342708e-03, -9.52279381e-03, 7.50051579e-03,
          1.26744984e-02, -7.72757747e-04, -1.28641073e-02,
          -4.67841141e-03, 5.14016999e-03, 1.24802790e-03,
          4.72956803e-03, -4.01462987e-03, 9.07033123e-03,
          1.22059397e-02, -4.57160966e-03, -6.51038578e-03,
          -1.05694951e-02, -7.30460277e-03, 3.84788751e-03,
          -3.25988792e-03, 2.60241283e-03, 7.67600350e-03,
          4.44677752e-03, 1.53296464e-03, -6.39525987e-03,
          3.66119365e-03, -7.84926303e-03, -4.97243041e-03,
          9.43227962e-04, 3.45582346e-04, 8.26970581e-03, 4.19259351e-03,
          -1.06336391e-02, -2.33348813e-02, -1.16193797e-02,
          4.35885973e-03, 1.21236360e-02, 6.15032064e-03, 4.17494262e-03,
          1.28344689e-02, 6.57510944e-03, -1.36714978e-02,
          -1.61330607e-02, -3.70956655e-03, -1.54496159e-03,
          1.04284810e-03, -7.97855202e-03, -8.06611846e-04,
          2.01713722e-02, 6.63280720e-03, -1.27409622e-02,
          -5.63954050e-03, -1.72983557e-02, -3.92676564e-03,
          -1.48939888e-03, 5.19405305e-03, 4.07992117e-03,
          -7.18032615e-03, 3.95549554e-03, 1.07395342e-02,
          3.08332674e-04, -2.18231622e-02, -1.37476763e-02,
          -1.38031403e-02, -3.58153670e-03, 1.26240414e-03,
          7.23058823e-04, 8.17170553e-03, 1.23007474e-02,
          -5.34857949e-03, -1.34844165e-02, 3.51583888e-03,
          4.30352474e-03, -2.45809169e-05, -4.78594424e-03,
          -6.37535006e-03, -3.34562035e-03, 7.58067984e-03,
          6.64117234e-03, -9.89980157e-03, -6.84705516e-03,
          -1.61189754e-02, -6.67673349e-03, -1.27956215e-02,
          -1.41016785e-02, -7.61827035e-03, 1.03410110e-02,
          -5.50775183e-03, -1.17973294e-02, -8.64596944e-03,
          -4.54232795e-03, -2.93140620e-04, 5.74809546e-03,
          1.26255732e-02, 3.72836879e-03, 8.71954951e-03,
          -1.68296210e-02, -1.77600756e-02, -7.71631207e-03,
          1.12056837e-03, 5.00472076e-03, -1.14276279e-02,
          -9.12554469e-03, -5.14696026e-03, -6.53124880e-04,
          6.82319747e-04, -4.93682269e-03, -7.69279245e-03,
          -2.93887942e-03, 3.15550412e-03, -2.96501885e-03,
          -5.04652923e-03, -9.52981971e-03, 3.29238037e-03,
          -7.47446250e-03, -1.44349691e-02, -1.19915139e-02,
          -2.54534092e-03, 1.26287453e-02, -8.27527698e-03,
          -5.77185489e-03, -1.00889278e-03, -6.55127456e-04,
          -4.40314086e-03, -8.50134436e-03, 8.34283791e-03,
          1.05411955e-03, 3.55769671e-03, -9.34483390e-03,
          -1.28476555e-02, 1.58698449e-03, 8.65408313e-03,
          -8.08834285e-03, -1.00372182e-02, 5.09512564e-03,
          1.14066908e-02, 4.35066409e-03, -5.98725863e-03,
          -8.91411211e-03, 2.78210646e-04, 4.73165605e-03,
          -1.00551108e-02, -1.49133848e-02, -9.14891437e-03,
          -4.24647192e-03, 1.12611679e-02, -3.90557060e-03,
          -3.57493572e-03, 9.49276146e-03, 8.87588039e-03,
          -8.19583237e-03, -1.17181446e-02, -4.25834535e-03,
          1.22466609e-02, 1.32476455e-02, -7.24643096e-03,
          -8.86239053e-04, 3.96210607e-03, 8.62570573e-03,
          -6.11791899e-03, -1.26958871e-02, -1.81945285e-03,
          9.51625314e-03, 2.27446631e-02, -1.53892208e-03,
          -5.36823552e-03, 6.35566143e-03, 3.51289441e-06,
          -1.41245546e-02, -1.94720607e-02, -4.29474562e-03,
          6.25092583e-03, 1.59918815e-02, 1.02648092e-02,
          -5.33997640e-03, -3.68931564e-03, -7.89417140e-03,
          -7.74357980e-03, -1.21260677e-02, 7.55726872e-03,
          2.06387881e-02, 2.20342409e-02, -9.10652708e-03,
          -1.28052186e-03, 2.54841754e-03, 1.01706227e-02,
          -8.97284783e-03, -1.02011571e-02, -5.18614193e-03,
          7.63315614e-03, 4.15346958e-03, -6.59233658e-03,
          3.98509763e-03, 5.57472697e-03, -2.09663319e-03,
          -5.94395865e-03, -8.65115132e-03, 3.20777600e-03,
          8.80981702e-03, 8.40174686e-03, 1.10568544e-02, 3.30536248e-04,
          -1.99607690e-03, -7.44400593e-03, -1.58500876e-02,
          -1.07424222e-02, 6.94384472e-03, 1.94018763e-02,
          8.43729358e-03, 8.68771505e-03, 6.92428183e-03, 1.13543700e-02,
          -1.10327629e-02, 1.05606718e-03, -5.16356155e-03,
          -1.56842778e-03, 1.24166580e-03, 2.49106623e-03,
          3.70358978e-03, 9.73952375e-03, 5.84204728e-03, 2.52873218e-03,
          -2.19967216e-02, -8.09704699e-03, 4.56040725e-03,
          1.27472291e-02, 1.48760024e-02, 1.06243296e-02, 1.76785029e-02,
          1.32161519e-02, -6.16778806e-03, -2.82649472e-02,
          -1.68026723e-02, 7.05967005e-03, 2.22796090e-02,
          1.32221859e-02, 1.33128520e-02, 7.06994301e-03, 1.18025821e-02,
          -3.87608726e-03, -2.50296593e-02, -1.69846956e-02,
          1.20492727e-02, 1.75991189e-02, 1.17121525e-02, 1.67535283e-02,
          1.22512616e-02, 1.41113214e-02, -1.17177423e-02,
          -3.88226211e-02, -2.30156314e-02, -3.36897932e-03,
          2.19241008e-02, 2.82780100e-02, 2.41613183e-02, 1.81869566e-02,
          8.37674830e-03, -1.35360593e-02, -2.68784463e-02,
          -1.58250928e-02, 1.75964572e-02, 2.39518583e-02,
          2.28733569e-02, 1.93765704e-02, 1.22945309e-02, 1.18412601e-03,
          -1.27435224e-02, -7.70463375e-03, -1.11818016e-02,
          5.56986127e-03, 5.08240890e-03, 6.23547472e-03, 1.81795042e-02,
          1.28314840e-02, -1.69661036e-03, -8.14067386e-03,
          -4.13541589e-03, -1.71000918e-03, -5.76299382e-03,
          4.07919381e-03, 1.44873708e-02, 2.42289845e-02, 1.43742394e-02,
          -4.97648399e-03, -1.08141676e-02, -1.29428795e-02,
          -8.43413826e-03, 2.07454469e-02, 2.06837207e-02,
          1.75566804e-02, 1.41231669e-02, 2.66829529e-03,
          -1.06173949e-02, -4.35474142e-03, -6.34257495e-03,
          -8.45090486e-03, 3.98176286e-04, 1.10972980e-02,
          2.23199129e-02, 2.45392621e-02, 1.31447809e-02,
          -3.44277214e-04, -5.88102732e-03, -6.63187867e-03,
          -3.79455974e-03, -2.90891528e-03, 1.57846278e-03,
          1.82347968e-02, 1.61111448e-02, 1.33442897e-02,
          -8.96949903e-04, -1.49783939e-02, -1.73201449e-02,
          -2.11218502e-02, -3.04824742e-03, 2.27811513e-03,
          2.06466075e-02, 1.25770522e-02, 2.57819016e-02, 1.47204772e-02,
          -1.01376167e-02, -9.45366453e-03, -1.76288914e-02,
          -8.40122811e-03, 3.49335652e-03, 1.84479263e-02,
          2.34114975e-02, 1.89793482e-02, 1.05387419e-02,
          -2.97514303e-03, -1.06693469e-02, -1.31318076e-02,
          -1.39202261e-02, -1.20022497e-03, 1.88597254e-02,
          2.31076758e-02, 2.65447330e-02, 1.68009214e-02, 2.86670192e-03,
          -1.74044352e-02, -2.13193167e-02, 1.91796722e-03,
          2.30005197e-03, 1.54808732e-02, 8.38067662e-03, 1.99506972e-02,
          8.54741130e-03, -2.54593277e-03, -2.78305206e-02,
          -1.53709706e-02, 4.13176697e-03, 1.10133896e-02,
          1.01946779e-02, 5.93066402e-03, 1.82805974e-02, 1.23449042e-03,
          3.39131197e-03, -5.39226411e-03, -2.22940072e-02,
          -9.34775453e-03, 2.85988185e-03, 1.21159470e-02,
          1.33995498e-02, 2.31461506e-02, 1.92952324e-02, 7.66656548e-03,
          -3.13379359e-03, -1.18350573e-02, -5.69296128e-04,
          1.71683542e-02, 7.00368080e-03, 9.37901717e-03, 1.36472965e-02,
          4.81773540e-03, 7.97209796e-03, -1.60332136e-02,
          -1.71877425e-02, 8.57017643e-04, 1.13491081e-02,
          2.92142999e-04, 4.93837753e-03, 1.42024374e-02, 8.35833699e-03,
          4.32988210e-03, -9.28615313e-03, -1.52093535e-02,
          -7.66774639e-03, 8.76868889e-03, 1.07185543e-03,
          5.27167413e-03, 1.61026288e-02, 1.71443094e-02, 6.26166491e-03,
          -2.62711872e-03, -1.00545222e-02, 1.01138772e-02,
          1.61739495e-02, -9.93060414e-04, -4.05367557e-03,
          5.05041273e-04, -6.60599535e-03, 2.59153848e-03,
          -5.29082865e-03, -5.47786988e-03, 9.45462566e-03,
          1.07318647e-02, -7.54485314e-04, -4.24362486e-03,
          1.33039051e-04, -1.68960833e-03, 1.12924557e-02,
          -3.70445382e-03, -1.91135369e-02, -7.93754403e-03,
          4.40550642e-03, 1.34462432e-03, -4.91754990e-03,
          1.43796904e-03, 1.18262321e-02, 7.72262597e-03, 4.76369308e-03,
          -1.08357705e-02, -8.46588798e-03, -7.80894561e-03,
          -2.31935596e-03, -1.11331036e-02, -9.80025996e-03,
          1.32903429e-02, 1.56780910e-02, -2.95406702e-04,
          -1.09420260e-02, -4.32617497e-03, 2.51025124e-03,
          1.38412393e-03, -6.16781879e-03, -5.52706886e-03,
          1.14092487e-03, 5.37466537e-03, 1.33441063e-02,
          -6.53028209e-03, -3.41739506e-03, -7.74583872e-03,
          -2.39939149e-03, -1.75134987e-02, -1.21653406e-02,
          4.07860149e-03, 1.31871663e-02, -5.14917262e-03,
          4.87116305e-03, 3.56339873e-03, -5.42371348e-03,
          -9.61825810e-03, -3.26317525e-03, -2.53159436e-03,
          8.45998898e-03, 3.95050971e-03, 6.13488909e-03, 1.12473425e-02,
          5.98007301e-03, -1.91443674e-02, -2.62684207e-02,
          -1.03222467e-02, -1.58453337e-03, 6.27056602e-03,
          4.47296910e-03, 1.39290662e-02, 9.20329336e-03, 9.09204711e-04,
          -5.38410246e-03, -1.99937839e-02, -1.12750717e-02,
          -4.07797191e-03, 7.81944767e-03, 8.16859119e-03,
          1.33840637e-02, 1.54066747e-02, 9.25276987e-03,
          -1.95583757e-02, -2.34594736e-02, -1.98706593e-02,
          -7.75809691e-04, 1.18093630e-02, 1.43961133e-02,
          1.32327797e-02, 1.03086028e-02, 1.62589236e-03,
          -2.04441305e-02, -2.90210042e-02, -7.25006778e-03,
          -1.43439963e-03, 4.85707168e-03, 6.83932845e-03,
          2.21903343e-02, 2.27689482e-02, 7.56878930e-04,
          -2.65682880e-02, -1.46103259e-02, 1.84266281e-03,
          -4.57505230e-03, -3.64402309e-03, 9.25835501e-03,
          2.11821385e-02, 1.69151556e-02, 8.30150768e-03,
          -2.77843568e-02, -2.63700336e-02, -1.11995619e-02,
          -8.93699750e-03, 2.16114009e-03, 1.29725495e-02,
          2.83762403e-02, 2.31767297e-02, 5.07663377e-03,
          -3.44372652e-02, -1.57982595e-02, -6.44855155e-03,
          -1.47570856e-02, -9.34776210e-04, 1.54777076e-02,
          1.64191592e-02, 7.41518103e-03, -5.99225657e-03,
          -1.77775230e-02, 1.87197397e-03, 1.25702284e-02,
          -9.26652644e-03, -9.82233044e-03, 1.57359813e-04,
          8.69124196e-03, 5.13140054e-04, 5.70912380e-03,
          -1.21863093e-02, -1.33182183e-02, 5.29570505e-04,
          6.30866125e-05, -1.36762962e-03, 2.86322087e-03,
          2.05389801e-02, 1.08566117e-02, -4.61125141e-03,
          -3.37581336e-02, -1.67065664e-04, -6.10703649e-03,
          -1.04639316e-02, -8.11240356e-03, 4.86830529e-03,
          1.43847540e-02, 3.49771651e-03, -2.39083986e-03,
          -2.42291465e-02, -1.22488784e-02, -1.16827153e-02,
          -3.32168001e-03, 2.93573295e-03, 8.27093981e-03,
          -2.44051311e-03, 1.11088448e-03, 7.51201203e-03,
          6.29327819e-03, -1.03124101e-02, -1.36300782e-02,
          2.86724488e-03, 3.98584269e-03, 2.29027285e-03,
          -1.63216819e-03, -3.49915726e-03, 1.18043600e-02,
          1.69012118e-02, -9.79814027e-03, -1.36783347e-02,
          7.26303831e-03, 1.22764229e-03, -8.24976596e-04,
          1.07398825e-02, 7.37024762e-04, 6.74162712e-03,
          -2.45942292e-03, -2.40158420e-02, -2.46514995e-02,
          5.45561872e-03, 5.85066993e-03, 1.01145068e-02, 1.19114080e-02,
          1.43754401e-03, 1.66950207e-02, 1.17066158e-02,
          -1.32332658e-02, -2.43657343e-02, -4.62129246e-03,
          -9.78415087e-03, 1.99495303e-03, -9.64830164e-03,
          -4.02622041e-04, 1.49118621e-02, 1.82249881e-02,
          -2.63996795e-03, -9.57790762e-03, 6.19666046e-03,
          3.37879010e-03, -7.17979344e-03, -1.79818328e-02,
          3.08360229e-03, 7.66043598e-03, 1.00693200e-02, 8.57793447e-03,
          -7.80306756e-03, 2.08430062e-03, 8.68741423e-03,
          -1.07627930e-02, 6.24803500e-03, -9.35448520e-03,
          1.71063337e-02, 9.56192613e-03, -3.98267526e-03,
          -1.29656140e-02, 4.61019529e-03, 1.19808305e-03,
          4.33047721e-03, -4.22699004e-03, 2.96977756e-04,
          8.25169496e-03, 1.15514202e-02, 1.38650750e-04,
          -7.39954598e-03, -3.27766221e-03, 4.71951114e-03,
          -6.48100767e-03, -2.65672393e-02, -8.36792402e-03,
          1.63217285e-03, 1.73322838e-02, 1.20806238e-02,
          -4.23375703e-03, 7.44805345e-03, 6.63642911e-03,
          -1.60779022e-02, -2.29704808e-02, -1.03624631e-02,
          6.06494769e-03, 9.07343440e-03, 4.38297354e-03,
          -4.70004417e-03, 1.33692529e-02, 1.05450570e-03,
          -1.13303857e-02, -1.72567554e-02, -5.00183727e-04,
          7.01223826e-03, 6.01506559e-03, 9.71315335e-03,
          -1.06442403e-02, 1.89672573e-03, -7.90351653e-04,
          -1.48467291e-02, -2.78394241e-02, -5.48714586e-03,
          5.73537219e-03, 3.88799701e-03, 2.20521800e-02, 3.23791406e-04,
          6.46194723e-03, -4.11784882e-03, -1.83084663e-02,
          4.61184885e-03, -6.01245603e-03, -8.15100502e-04,
          4.60225390e-03, -4.05092677e-03, -2.32819282e-03,
          -2.62501487e-03, 2.80081131e-03, 9.62139852e-03,
          3.63633665e-03, -9.14237741e-03, -6.32690405e-03,
          4.76964284e-03, 3.08542373e-03, -9.60565638e-03,
          -7.43407989e-03, -8.87492113e-03, -3.32344882e-03,
          8.93356372e-03, -8.28665029e-03, -1.14506306e-02,
          -2.58118403e-03, -4.31913068e-04, -5.77863306e-03,
          8.77341197e-04, 1.03603620e-02, 1.60671547e-02,
          -3.27103771e-03, -1.92062128e-02, -1.09422402e-02,
          -3.67605849e-03, 1.13167651e-02, -1.28238341e-02,
          3.65394924e-04, -7.90075923e-04, 3.70576116e-03,
          -7.40140735e-04, -1.24910697e-02, 2.90144351e-04,
          1.14032775e-02, 1.27029596e-02, -2.26784949e-04,
          -8.60173348e-03, -1.60357859e-02, -8.73749726e-04,
          -1.56432912e-02, -1.92027893e-02, -4.47566574e-03,
          1.17052356e-02, 2.10146327e-02, 1.49887346e-03,
          -9.32805520e-03, 2.88420124e-03, 6.82430901e-03,
          -4.85381531e-03, -1.97427794e-02, -1.15927383e-02,
          6.58645062e-03, 1.71197969e-02, -6.47721160e-03,
          -1.14371860e-02, -1.14605259e-02, 5.60024334e-03,
          -7.87359383e-03, -1.51252514e-02, -3.35009024e-03,
          1.65055171e-02, 1.54003613e-02, -5.31954318e-03,
          -2.19080970e-02, -1.94549132e-02, 1.34009998e-02,
          -9.61678382e-03, -1.53091783e-02, -8.09634849e-03,
          5.20097092e-03, 1.38658285e-02, 3.34040215e-03,
          -4.94159153e-03, 9.57172422e-04, 8.32353905e-03,
          -3.05020902e-03, -5.01867756e-03, -1.07125212e-02,
          1.25984317e-02, 1.29232099e-02, -7.40836561e-03,
          -9.99374595e-03, -9.59654804e-03, -1.87908171e-03,
          8.19350826e-04, -1.63853783e-02, -9.26059438e-04,
          1.47688808e-02, 2.12844796e-02, -3.08788894e-03,
          -8.47949367e-03, -1.96915381e-02, 9.91410576e-03,
          6.00258494e-03, -3.09036556e-03, -8.58861837e-04,
          9.83773638e-03, 1.52498372e-02, -1.15559213e-02,
          -1.34794936e-02, -1.74288154e-02, -1.06130699e-02,
          -6.11408986e-03, -7.26318173e-03, 5.08674700e-03,
          1.24767637e-02, 1.95617676e-02, -5.93761820e-03,
          -3.22785345e-03, -1.22170914e-02, -8.42289440e-03,
          -8.51727743e-03, -1.32893724e-02, -1.89495506e-03,
          6.76091481e-03, 4.67744283e-03, -1.20445085e-03,
          1.28543042e-02, 7.92209432e-03, -9.75995325e-03,
          -5.34054125e-03, -2.08922196e-03, 1.13143558e-02,
          1.50564983e-02, 2.24464200e-02, 5.05104801e-03,
          -2.08039419e-03, -1.43484082e-02, -1.60097796e-02,
          -1.11026801e-02, -6.42477861e-03, 6.79870136e-03,
          8.36983416e-03, 1.55905895e-02, 1.19765224e-02, 5.11683431e-03,
          -1.12895730e-04, -1.51476786e-02, 3.63509008e-03,
          -9.03399661e-03, -6.87116431e-03, 2.09578429e-03,
